<unk> 0.057684 0.039612 0.039692 0.051665 0.067073 0.084506 0.051521 0.038880 -0.040000 0.067339 -0.071502 -0.095960 0.002612 -0.055272 -0.061278 0.067209 -0.061353 -0.068667 0.043058 0.011723 -0.062949 0.028868 -0.030264 0.021885 0.050827 -0.016372 -0.095548 0.088176 -0.098832 -0.058968 -0.062665 0.075042 -0.032268 0.022321 -0.065453 -0.011179 -0.018392 0.089924 -0.077890 0.081049 -0.018194 0.083429 -0.081054 -0.049919 0.061967 0.035505 0.039370 0.013683 0.013491 0.052715 -0.015380 0.099622 -0.026297 -0.099872 0.080765 -0.069007 -0.049613 0.042223 0.039210 0.093912 -0.098857 -0.027342 -0.094045 0.094896
<blank> 0.055233 -0.019931 -0.069931 0.074532 -0.016402 0.097133 0.049957 -0.089440 0.045562 -0.085480 0.000814 0.027102 -0.009622 0.062434 0.015444 -0.031519 -0.078229 -0.012217 -0.060161 0.057304 0.032006 0.020420 -0.099813 0.026362 0.022508 0.031772 0.086292 0.039654 0.000104 0.087939 -0.039028 -0.037445 -0.040708 0.091159 0.050193 -0.035368 0.021239 -0.018281 -0.099244 -0.002315 -0.036166 0.046121 -0.019849 -0.075081 0.050513 -0.012005 -0.033504 0.099833 -0.011903 -0.077237 0.030752 -0.053539 0.093393 0.084889 0.063626 -0.016955 -0.068659 0.015541 0.079640 0.084009 0.056810 0.098545 -0.026690 0.041821
<s> 0.157241 0.454896 -0.384698 -0.676230 -0.062274 0.225435 0.076951 0.120104 0.260704 0.343548 -0.038221 0.315077 -0.031274 0.096998 -0.174007 0.185424 0.388394 -0.095403 -0.038406 0.651311 0.323275 -0.177612 -1.015272 -0.400841 0.643361 0.169346 0.710934 -0.912899 -0.390897 0.166647 0.075691 0.385450 -0.929690 0.658922 -0.187390 -0.447525 -0.467740 0.509257 -0.296583 -0.654828 -0.876380 -0.215986 -0.616602 -0.682130 0.348720 -0.110268 -0.783334 -0.744901 -0.501513 0.715519 0.456814 -0.571346 0.495603 0.315060 0.041650 0.597334 -0.127460 0.100960 0.405399 -0.427498 0.302644 -0.224628 0.008608 0.753089
</s> 0.279605 0.489883 -0.074494 0.019683 0.265045 1.029766 -0.311447 0.611187 0.232754 0.319348 0.051289 0.347788 -0.116763 1.087747 -0.472567 0.211710 -0.048597 -0.615185 0.482196 0.830605 -0.410013 -0.838162 -0.153906 0.337517 0.886213 -0.727725 -0.454846 0.381448 -0.824511 -0.541322 -0.897714 -0.052429 -0.102732 -0.084353 -0.790162 0.136605 0.114910 1.039824 0.051060 -1.014658 -0.558401 0.116651 -0.103067 0.973394 0.446561 -0.025585 -0.295668 -0.125420 -0.357648 0.066750 0.257794 -0.313537 0.762658 -0.464804 -0.276048 0.122088 -0.744470 -0.843643 0.189909 0.133391 -0.030385 -0.174126 -0.533937 0.743038
i 0.835077 -0.277398 0.942080 0.648187 0.499757 0.036331 0.064090 -0.014587 0.023356 0.036681 -0.164279 0.515256 0.698353 0.500908 -0.376924 0.184722 0.552848 -0.487518 0.468750 -0.151662 0.155957 -0.633283 0.126953 -0.391228 -0.515781 -0.742354 0.013929 -0.003424 0.837585 0.014863 0.035589 0.333001 0.180224 0.657610 0.095496 0.017234 -0.291280 1.137929 0.778880 -0.440051 -0.255666 0.038601 0.871362 0.101346 0.066778 0.063147 -0.568456 -0.949834 -0.618272 -0.243819 0.220600 0.931192 0.234089 0.810555 0.240123 0.463033 -0.397572 0.736420 -0.800760 -0.437231 -0.389846 0.371035 -0.290232 -0.207330
the -0.505374 -0.972086 0.836233 -1.268144 -0.602432 0.369744 -0.454477 -0.591540 -0.000406 -0.243125 0.124244 0.548945 -0.791553 0.698429 0.105882 0.201259 0.525761 -0.823308 0.555540 0.751440 -0.175656 -0.010520 0.416024 -0.045843 1.592497 0.296132 -0.055732 -0.251565 -0.202380 0.086389 -0.505887 -1.202253 -0.820926 -0.171797 -0.340042 0.408720 0.171287 1.027254 -0.394836 -0.949767 -0.557585 1.353381 -1.302769 0.144401 -0.706570 -0.221905 0.836661 0.368469 0.386709 -0.138092 0.112428 -0.242652 0.213844 -0.296015 -0.420698 1.039784 0.052736 -0.073147 -0.825873 -0.442380 0.269021 0.090798 -0.067066 0.141567
and -0.053907 -0.143747 0.331162 0.525540 -0.133378 0.320175 1.029689 -0.094774 0.070763 -0.011117 0.089378 -0.030597 0.519499 -0.402957 -0.032798 -0.214126 0.296558 -0.336807 0.079782 0.389933 0.084979 0.726144 -0.150991 -0.973139 0.076581 -0.357922 0.477370 -0.299873 0.348778 1.005502 -0.590111 0.664965 -0.357031 0.089643 0.549329 -0.047087 0.057765 -0.078476 0.023546 -0.460836 0.057531 0.720930 -0.337210 0.292081 0.284490 -0.244061 -0.296390 -0.246570 -0.646853 0.337068 0.393289 0.482870 0.434541 0.770507 0.404799 -0.055900 -0.270837 0.857617 -0.236740 -0.577780 0.552591 0.120588 0.651080 0.021586
yes -0.476400 0.067109 0.835984 0.061955 0.095961 0.299443 0.369248 -0.061831 0.265367 -0.334636 -0.399627 0.012280 0.053128 0.800469 -0.226972 0.417680 -0.838352 -0.394509 -0.180954 0.599428 0.174987 -0.080457 0.471285 -0.990689 -0.262364 -0.558895 0.054159 0.008028 0.321212 0.168482 -0.496817 -0.177890 -0.767531 0.033753 0.369074 -0.696529 -0.254854 0.082288 0.155897 -0.520643 -0.539642 0.771908 0.276999 0.057002 -0.315055 -0.131620 0.109099 0.076129 -0.522947 1.159402 0.619279 0.553756 1.127802 0.107658 0.495414 0.109468 -0.333139 0.733056 0.024431 -0.481176 -0.380836 0.327523 -0.277021 0.549401
a 0.003935 -0.376052 -0.385591 0.112103 0.019444 0.193739 -0.492348 0.727364 0.081205 0.166135 -0.111388 0.254487 -0.162937 -0.395475 0.372290 0.579369 0.056367 -0.576241 -0.228051 0.858000 -0.132359 -0.929544 0.030462 -0.299039 0.763779 0.007009 0.443755 -0.476005 -0.853195 0.477856 -0.042953 -0.396489 -0.433579 0.474979 -0.051379 0.585477 0.127842 -0.044231 0.454963 0.073504 0.379564 0.609811 -0.725851 -0.404481 0.093665 -0.219163 -0.251588 0.691726 -0.294400 -0.317255 0.948540 -0.905348 -0.670482 -0.156724 -1.256850 0.473734 -0.409100 -0.310887 -0.371198 -0.071960 -0.002559 -0.566346 0.193432 -0.247022
that 0.740228 0.117705 -0.041609 0.893352 0.617356 0.089958 0.694674 0.679187 0.127825 0.205314 -0.276410 -0.014553 0.537815 0.164567 -0.133167 0.225415 0.171116 -0.336414 -0.432949 -0.337284 0.242196 0.494202 0.254914 -0.860601 0.346252 -0.594682 0.546776 -0.393851 0.666371 0.860869 -0.118442 1.080512 0.097572 0.454520 0.290091 -0.260887 -0.082914 -0.428722 0.240359 -0.567382 -0.080883 -0.347595 0.493670 0.229198 -0.527373 0.078118 0.153013 -0.482142 -0.295487 0.892672 0.274336 0.726045 -0.156832 0.524577 0.281745 -0.236193 -0.191199 0.702115 -0.437941 -1.008238 -0.247737 -0.023944 -0.648830 -0.426905
s@@ 0.760548 -0.082165 -0.232848 0.674039 0.742081 -0.010052 0.465855 0.314080 -0.144852 -0.052893 -0.572197 -0.397322 0.621320 -0.719899 -0.188171 -0.031685 -0.144666 -0.335504 -0.357438 -0.706996 -0.217147 -0.105126 -0.110684 -0.699098 0.487620 -0.452105 0.683206 -0.358520 -0.017140 0.746196 -0.529254 -0.308662 0.042041 0.376749 0.765975 -0.327368 -0.364903 0.116397 0.262445 0.639155 -0.560592 -0.019751 -0.288282 0.592052 0.125105 0.433163 -0.550799 -0.409158 0.040335 0.353252 0.378800 0.182859 -0.411710 -0.103122 0.183902 -0.369662 -0.336925 0.501116 -0.322687 -0.399754 0.565290 -0.445485 -0.601542 0.641051
you -0.033121 0.611187 0.334398 -0.094940 -0.112538 -0.002826 -0.455139 0.758834 -0.399443 0.322008 -0.269539 -0.119905 0.438199 1.279423 -0.248009 0.769694 -0.428270 -0.298275 0.435353 0.029047 -0.314229 -0.394191 -0.325621 0.026835 0.143974 -0.055832 0.282830 0.377140 0.203264 -0.488706 -0.448748 0.261273 0.544624 1.420780 0.923649 -0.167035 0.412088 0.562142 0.405159 -0.656039 -0.000892 -0.353590 0.593182 0.031191 1.148256 0.432820 -0.002533 -0.520838 -0.571430 0.159973 -0.142743 1.198782 0.444037 0.506000 0.440925 0.002900 -0.736439 -0.220927 0.692474 -0.290971 -0.577203 0.732207 -0.327408 0.217314
i@@ -0.064609 0.178630 -0.102699 0.341155 0.275317 0.404961 0.502658 0.163124 0.573479 -0.023881 -0.588205 -0.227828 0.672806 -0.133901 0.558096 -0.043516 -0.443565 -0.149450 -0.576726 -0.460587 -0.576373 -0.368136 0.303431 -1.026497 0.431633 -0.331098 0.885269 -0.424469 0.350614 0.715170 0.053049 -0.147889 0.124194 -0.162132 0.929389 -0.145060 0.059077 0.361944 0.010139 0.275657 0.024281 -0.477874 -0.198670 0.141490 -0.088835 -0.039050 -0.325671 -0.699044 -0.467494 0.485929 -0.566385 -0.198101 0.101742 0.626472 -0.089041 -0.062667 -0.265113 0.292143 -0.025265 -0.629589 0.137361 -0.266914 -0.723737 0.391086
t@@ -0.079299 0.149031 0.147900 0.326468 0.056233 -0.309543 0.388269 -0.395933 -0.312481 -0.164318 0.438705 0.169831 0.535941 -0.026473 -0.248872 0.165418 -0.274552 0.790712 0.115545 0.752018 0.416561 0.006307 0.213850 -0.185565 -0.310547 0.184644 -0.147054 -0.622787 1.014916 -0.350293 -0.904545 0.494484 -0.284030 0.446842 0.118614 -0.254658 -0.293801 1.527792 -0.454733 -0.475518 0.315733 0.111538 0.800993 0.310959 0.093685 0.355465 -0.181955 -1.039717 -0.463498 1.020175 0.523011 0.637612 0.087582 0.050882 -0.243819 0.142405 -0.155503 0.349925 -0.284874 -0.587609 -0.411369 0.700770 0.318549 0.380094
c@@ 0.225294 0.296009 0.070985 -0.034255 0.221315 0.212491 -0.298447 0.115201 -0.351307 0.881657 0.519503 -0.814810 0.588900 -0.399833 -0.049402 0.889278 0.254063 0.253168 -0.521915 -0.498120 -0.182202 -0.994579 -0.800375 -0.655612 1.145200 0.665819 0.051064 -0.253364 0.086029 1.102226 0.241073 -0.364730 0.005564 -0.060036 0.529602 -0.580026 0.053417 -0.352696 0.220861 -0.203918 0.093069 0.341029 -0.130111 0.835103 0.657203 0.905281 -1.036831 -0.110367 0.076641 0.514530 0.604579 -0.147945 -0.348439 -0.040269 0.356815 0.329716 -0.265045 -0.249886 -0.179232 -1.203646 0.201002 -0.807651 -0.465937 1.005245
to 0.996508 0.613512 0.087332 0.165168 0.539568 -0.232254 0.931410 -0.086106 0.296804 0.335153 -0.389232 0.651021 0.735019 0.373689 -0.331576 -0.517209 0.874087 0.348784 0.162590 0.214907 -0.004492 -0.503512 -0.253708 -0.945923 -1.103281 -0.209880 -0.323752 -0.027480 0.519109 0.154335 0.070829 0.704475 -0.129377 -0.021062 0.027882 -0.016649 0.322773 0.993935 0.602374 -1.000764 0.050348 0.446720 0.469331 0.320974 0.246651 0.140152 -1.519072 -0.810421 -0.037821 0.423513 0.000822 1.009089 0.815728 0.454509 -0.250422 0.167462 -0.505871 -0.227179 -0.498943 -0.074357 -0.536784 0.813595 -0.560798 0.494521
m@@ 0.228445 0.009890 0.049668 0.684464 0.725376 -0.205187 0.298599 -0.157553 -0.023622 0.539951 0.033898 -0.063468 0.824069 0.668330 -0.867465 0.545786 -0.339513 -0.453687 0.226489 0.099701 0.138430 -0.706133 -0.750746 0.051137 0.328594 -0.693463 0.126957 -0.023723 -0.702321 0.142170 0.447540 -0.596685 -0.745605 0.627382 -0.589324 0.082954 0.503978 -0.001287 -0.180424 0.324185 0.270873 -0.606010 0.086830 0.934821 0.796910 0.150580 -0.905574 0.012655 -0.587152 -0.348507 0.261286 0.561023 0.583151 0.690320 0.272760 -0.083484 -0.499798 -0.157670 -0.198035 -0.368233 -0.387574 0.449131 -0.861786 1.134338
h@@ -0.421134 -0.122469 0.689502 -1.145122 -0.216561 0.045484 0.223842 -0.321989 -0.321057 -0.256610 -0.331675 0.895871 -0.881841 0.910021 0.534647 0.039217 -0.066195 0.086792 0.197050 0.600521 0.513500 0.144240 1.091448 -0.839458 -0.409072 0.003633 0.067245 -0.522526 0.119089 0.120844 -1.377733 0.619682 -0.841926 0.298495 -0.374118 0.354762 0.236191 1.124032 -0.457508 -1.246259 0.394371 0.623211 -0.045738 -0.379648 -0.057556 -0.033331 -0.477311 -0.137305 -0.559103 0.796164 0.583657 -0.032124 1.036806 0.212812 0.377159 0.278184 -0.368556 0.441548 -0.562318 0.215569 0.268403 0.408895 0.612302 0.387379
e@@ -0.288555 0.005919 0.238113 -0.230751 0.329951 0.807963 -0.303277 0.346856 0.416560 0.450400 0.004686 -0.266390 0.400661 0.685190 -0.619111 1.241387 -0.046093 -0.178412 0.096522 -0.095388 0.053018 -0.878383 -1.184593 -0.177558 0.747773 -0.034375 0.349579 -0.172412 -0.902184 0.055861 -0.121217 -0.811585 -0.457479 0.601750 -0.517164 -0.223019 -0.208022 -0.508620 -0.325563 -0.088161 0.224783 0.203230 -0.881949 0.666643 0.250104 0.071835 -0.681897 -0.020090 -0.210667 0.424580 0.327277 -0.151829 -0.398812 -0.098971 0.384666 0.688401 -1.433519 -0.337988 0.076479 0.256494 0.619793 -0.587659 -0.184448 -0.314660
u@@ -0.790017 -1.097641 0.096944 -0.038777 -0.373473 0.792750 0.176987 -0.312827 -0.319197 0.185890 -0.739115 -0.281780 -0.109050 -0.081457 0.126106 0.052283 -0.645150 -0.417407 -0.148855 0.360456 0.209882 0.035124 0.897830 -0.750750 0.562558 -0.674788 0.704833 -0.466208 -0.504255 0.523819 -0.460294 -0.286350 0.078808 0.111371 0.728683 -0.103082 -0.380080 0.335264 0.017742 -0.154600 0.178088 0.215559 -0.597861 -0.218081 -0.344030 -0.234215 0.445103 0.398521 0.045535 0.459919 -0.097883 -0.726577 0.328352 -0.622141 0.031329 0.495144 0.097600 0.837484 0.360942 -1.208679 0.272605 -0.510723 -0.328757 -0.221816
in 0.339289 -0.336840 0.193025 0.337453 0.487989 0.480663 0.506206 0.356066 -0.590097 -0.222692 -0.606221 -0.071387 0.450306 -0.851009 -0.346137 0.016706 0.395987 -0.134126 -0.088436 0.028299 -0.182846 -0.045062 -0.310931 0.156897 0.561193 -0.250435 0.726011 -0.087914 0.186969 0.648940 -0.032455 0.208013 -0.147673 -0.130288 0.227651 -0.888112 -0.722910 -0.678191 0.026418 0.107230 -0.784149 -0.190306 0.011606 0.207499 0.308612 0.823105 -0.598997 -0.570308 -0.053603 0.125362 -0.412747 -0.222386 0.069218 0.622755 -0.608257 -0.308822 -0.053733 0.499929 0.497395 -1.111076 0.556519 -0.697820 -0.869423 0.366917
w@@ 0.522258 -0.259002 -0.130617 -0.610946 -0.225844 0.580230 0.245840 0.866486 0.183849 0.543652 -0.550269 0.260010 -0.590473 0.105391 -0.382006 0.834195 -0.417139 -0.479570 -1.038728 0.702551 0.467240 -0.488398 -0.533885 -0.941950 0.379084 0.278522 0.052975 -0.512330 0.308513 -0.624883 -0.596015 0.079961 -0.478620 0.088980 -0.364948 -0.064037 0.490437 -0.043518 -0.167283 -0.989963 -0.605550 0.535769 -0.386654 -0.389104 0.994643 -0.022615 -0.235037 0.042928 0.264356 0.117920 -0.607478 -1.129511 0.382815 -0.804319 -0.311958 0.377437 -0.230206 0.717903 0.477067 0.089413 -0.205996 -0.283927 -0.326127 0.500953
p@@ 0.396983 0.617943 -0.281406 0.320008 0.270609 0.191065 0.575146 0.220324 -0.620875 0.664916 -0.933413 0.306153 0.053956 -0.006444 -0.023844 0.214806 -0.177405 0.021545 -0.572721 0.022344 0.103581 0.036174 -0.516779 -1.530925 -0.147393 -0.527497 0.098359 -0.438954 0.405136 1.027490 -0.627639 0.665737 -0.817819 -0.455637 0.167561 0.681025 -0.433224 0.050107 0.299148 -0.502533 -0.295912 -0.320649 0.620959 0.248303 -0.101301 -0.467032 -0.200924 -0.089386 0.228720 0.907253 -0.577369 0.674211 0.812501 0.006214 -0.283148 -0.031449 -0.494756 0.117903 0.070328 -1.099475 0.542073 0.329612 0.289730 0.135323
s 0.214267 0.701235 0.580162 -0.337508 0.002010 0.147838 0.336207 0.276745 -0.486702 -0.045943 -0.843204 0.301591 0.375011 0.894167 -0.481974 -0.668395 0.357369 -0.003225 0.093964 0.505220 -0.221353 -0.024490 0.245219 -0.897430 -0.393049 -0.370404 0.191255 0.103914 0.520120 -0.554819 -0.655443 0.380752 -0.527787 0.677346 -0.818211 0.516071 -0.009080 1.477903 -0.200381 -1.023075 -0.055594 0.408977 0.398968 -0.090375 -0.217857 0.182198 -0.860541 -0.121963 -0.890903 0.581076 0.312337 0.267233 0.844775 0.237839 -0.138655 -0.230339 -0.605153 -0.205401 -0.408814 0.219992 -0.218110 0.700340 0.245024 0.054431
a@@ -0.412844 0.680684 -0.461083 -0.788011 -0.134087 0.493963 0.074758 0.729188 -0.421824 0.044699 -0.417861 0.629472 -0.002595 -0.499206 0.181951 0.184863 0.878827 0.373072 0.130250 0.345152 0.192644 0.002875 -0.925997 -0.800814 0.257033 0.395901 0.708557 -0.635687 -0.173302 0.890045 0.046595 -0.610652 -0.049100 -0.408258 0.513103 -0.092338 -0.413246 0.034047 -0.054070 -0.828340 0.328768 0.654889 -0.900926 -0.094516 -0.636659 0.494585 -0.594855 -0.712456 0.415302 0.078972 -0.131927 -0.551623 0.677217 -0.201951 -0.315997 -0.180598 -0.119536 0.201167 -0.131634 -0.361268 0.198526 -0.749146 0.079230 0.933171
e -0.239043 -0.151226 -0.323553 -0.580435 -0.463860 0.051198 -0.484445 -0.231838 -0.059199 0.009258 -0.032531 -0.087736 -0.259507 0.882426 0.204154 1.338428 -0.442447 -1.222265 0.873899 -0.093834 -0.383887 -0.801321 0.386056 0.511503 1.194336 -0.103423 0.235707 0.388273 -0.565751 -0.647292 -0.394524 -0.462256 -0.937856 0.498621 0.089244 -0.491207 0.767710 0.633426 0.242688 -0.170264 -0.348367 0.993662 -0.593573 0.661647 -0.269188 -0.241382 0.324868 -0.262354 0.183595 0.139965 0.671685 -0.369035 0.074266 -0.054485 -0.179595 0.282654 -0.036629 0.271430 0.206687 1.233326 0.100465 -0.090147 -0.324537 0.375978
d@@ -0.736550 -0.642754 -0.113244 -0.369865 -0.137761 0.761651 0.536353 0.008237 0.400792 0.157070 -0.805337 -0.070974 -0.373025 -0.059209 -0.161952 0.528146 -0.578949 -0.537309 -0.017351 0.561501 0.096885 0.071660 0.326114 -0.011576 0.164336 -0.857862 0.305299 -0.707885 -0.231768 0.484709 -0.475335 -0.302253 -0.084104 -0.350916 0.771132 0.287474 -0.447601 0.459034 0.142773 -0.659765 0.149530 0.552761 -0.269436 -0.065865 -0.279798 -0.109477 0.740486 0.385805 0.271766 -0.236925 0.399683 -0.397135 0.259017 -0.138179 -0.124473 0.381181 0.152305 0.810442 0.323239 -1.032478 -0.168958 -0.437936 -0.539440 0.252596
is 0.262152 0.133356 0.771093 -0.567231 -0.033766 0.249647 -0.406301 0.025209 -0.061556 0.355732 0.089409 0.865614 -0.729643 1.602477 -0.187901 0.163353 0.709119 0.097865 0.956980 -0.027984 -0.078066 -0.891809 0.964879 0.140421 -0.048801 -0.039191 -0.381363 0.505629 -0.597383 -1.198525 -1.014983 0.388004 -0.721009 0.778512 -1.335752 0.649884 0.039845 1.124582 -0.052816 -0.865059 0.117787 0.887741 -0.380876 -0.023958 -0.001727 -0.283169 0.699357 0.459635 -0.445371 -0.158361 0.043973 -0.102317 0.679527 -0.714618 0.415147 0.112042 -0.250815 -0.522210 -0.583049 1.281335 -0.834494 0.357306 0.535888 -0.135390
it 0.899017 1.016995 0.037316 -0.194280 0.338128 0.014459 0.473988 0.553673 0.188509 0.309605 -0.526019 0.300704 0.575773 0.042716 -0.100931 0.231398 0.303751 0.796742 -0.598648 -0.210634 0.558282 -0.832763 -0.588414 -0.854070 -0.575747 0.074496 -0.121296 -0.803645 0.589762 0.205585 0.040860 0.816099 -0.035579 0.162295 0.509217 0.181964 0.018201 1.171293 0.071422 -0.802213 -0.190808 -0.412780 1.212803 -0.039599 0.367072 0.268224 -0.871261 -1.217124 -0.429901 0.405122 0.050069 -0.027222 0.829946 0.005282 -0.218246 -0.141272 -0.367411 0.220920 0.074167 -0.295705 -0.016816 -0.032158 -0.011202 1.052106
r@@ 0.181431 -0.106833 0.319022 0.014718 0.234241 0.397735 0.370150 0.283987 -0.203089 0.427966 0.783420 0.358355 0.159735 0.746704 -0.295490 0.373283 -0.552823 0.281886 0.967176 0.711378 -0.029539 -0.440146 -0.004941 0.055003 1.157969 -0.134623 -0.885884 -0.294266 -0.133960 0.403682 0.236951 -0.120957 -0.778889 0.524055 -0.281079 -0.240965 -0.537463 0.183412 0.920685 0.369867 -0.513961 0.228675 -0.583358 0.794491 0.267118 0.006801 -0.835955 0.069864 0.074666 -0.251376 0.626766 0.135829 -0.206224 0.507496 0.977191 -0.106851 0.079983 -0.225645 -0.524660 0.787046 0.300986 -0.600633 -0.696917 0.942374
l@@ -0.194112 -0.452110 0.143960 -1.264217 -0.919912 0.706669 -0.535963 -0.723309 -0.276387 -0.051541 -0.381547 0.738237 -1.572502 0.607423 -0.725292 0.796575 0.180696 -0.414644 0.734806 0.934407 -0.004508 -0.806110 0.151824 0.173750 1.335120 -0.084038 0.597816 -0.318884 -0.234030 -0.360285 -0.553792 -0.895338 -0.393424 0.030542 0.087348 0.157172 -0.240255 0.614986 -0.073766 -0.760529 -0.490047 1.116483 -1.424950 0.127047 -0.154089 -0.280814 0.392855 0.901043 0.785190 -0.071026 0.503209 -0.965677 -0.105661 -1.046953 -0.531919 0.422599 0.408509 -0.361392 0.217842 -0.279592 0.161743 -0.601686 -0.439640 -0.656296
f@@ -0.145583 -0.324807 -0.245449 -0.048514 -0.231957 0.261926 0.213989 0.781811 0.025782 -0.056738 0.385412 0.244740 -0.503827 0.031065 -0.318439 -0.175114 -0.355149 0.288284 0.417585 0.507246 -0.173154 -0.833541 0.104512 -0.207374 0.330735 0.596892 -0.273681 -0.318441 -0.037912 0.192055 -0.632044 0.531705 -1.010143 -0.105408 0.205503 0.233788 -0.014367 -0.011517 0.112822 0.058318 -0.768607 0.759496 0.284272 -0.204853 0.068148 0.362174 -0.471983 -0.198250 -0.272015 0.204144 0.585087 -0.377641 0.255332 -0.180103 0.258938 -0.225291 0.213335 -0.315079 -0.183191 -0.043447 -0.009736 0.384955 0.119146 0.391961
g@@ -0.524906 -0.771972 -0.667062 -0.436806 -0.070038 1.424414 0.129103 0.333334 -0.269442 0.022384 -0.145187 -0.028822 0.064124 -0.729068 -0.046783 0.266073 -0.704074 -0.074943 -0.378557 0.559156 -0.093461 -0.332442 -0.744268 -0.034579 0.923596 -0.314370 0.370197 -0.650362 0.065118 0.519052 -0.034227 -0.239410 -0.187740 -0.902705 -0.733292 -0.321601 -0.021915 -0.851470 -0.152377 -0.033192 -0.457611 0.533504 -0.707173 0.028051 -0.564754 0.461127 0.748904 -0.207434 0.676386 -0.502112 0.523253 -0.458820 0.182129 -0.750229 -0.000141 1.089102 0.592492 -0.114287 0.326797 -0.040266 0.922912 -0.308763 0.176188 -0.318829
b@@ 0.223405 0.457520 0.365928 -0.031174 0.262818 -0.106576 1.132329 0.333890 0.477896 0.865502 -0.804475 -0.055886 0.128641 0.495443 0.103439 -0.197136 0.261190 0.145175 0.019554 -0.170421 0.117301 0.500137 -0.566884 -0.788554 -0.626581 -0.370037 0.373363 0.391700 0.558668 0.199764 -0.399371 0.343053 -0.383557 -0.148680 0.273090 0.317436 -0.221259 0.310554 0.033576 -0.159032 -0.183989 -0.021794 0.735712 -0.493483 0.252951 0.152682 -0.119047 -0.775743 -0.038677 0.954053 -0.320233 -0.028600 0.613675 0.122688 0.225665 0.436502 -1.163864 0.870659 0.550290 -0.461198 0.278509 0.442198 -0.831450 0.463956
an@@ 0.168653 0.609017 -0.329344 -0.228465 -0.354275 -0.067541 0.888953 0.020022 -0.040643 -0.088244 -0.859946 0.324408 0.555648 0.390562 -0.162142 -0.852505 0.105241 -0.069051 -0.063248 -0.061657 0.477157 0.280219 0.249093 -0.502368 -0.012343 -0.382499 0.487834 -0.253207 1.038515 0.610712 -0.485606 0.453684 -0.604367 -0.243309 -0.077042 -0.097837 -0.562517 -0.138762 -0.241927 -0.684259 -0.141326 -0.399681 0.444059 -0.104459 0.454101 -0.057501 0.083258 -0.323139 0.330533 0.553995 0.039755 0.557611 1.389181 0.121924 -0.181727 0.783225 -0.537247 0.796329 -0.287101 -0.821764 -0.035225 -0.005362 -0.125543 0.578543
y -0.092788 0.592958 -0.398878 0.014325 0.806609 0.209285 0.224258 0.338083 -0.387882 -0.255711 0.242382 0.535646 0.319835 -0.551193 0.051690 -0.108627 0.689993 0.299322 -0.206234 0.223307 -0.184105 -0.497091 -0.442154 -0.824421 0.419988 1.187052 -0.208342 -0.999135 -0.169174 0.458798 -0.154272 0.121642 0.120763 -0.087955 -0.041386 0.267469 0.048599 0.330962 -0.333032 -1.097810 -0.223427 -0.714262 -0.836738 -0.788887 0.087779 -0.103361 -0.814849 -0.386126 -0.227736 0.380450 0.825667 -0.013692 -0.209564 0.010286 0.355228 0.355218 -0.532769 -0.523859 -0.159123 0.036595 0.365593 -0.775466 0.406498 0.890762
they -0.058470 -0.486408 0.585169 0.408897 -0.152980 0.419638 0.107323 -0.143677 0.043594 -0.029648 0.484461 0.643458 -0.234868 0.632985 -0.818103 -0.015106 0.010441 0.250873 0.638213 0.431116 -0.470966 -1.071839 0.646995 0.026911 1.005769 0.772262 0.051293 0.101279 -0.375550 -0.563796 -0.371981 -0.144759 -0.084698 1.023285 0.547359 -0.082457 -0.400126 -0.264047 0.465774 -0.217208 -0.108466 0.059370 0.429720 -0.127288 0.636993 -0.083126 -0.525769 -0.338855 -0.596499 0.038100 0.261482 -0.173139 -0.748799 0.448372 0.220120 0.318857 -0.075374 -0.755499 -0.211399 -0.218904 0.129102 -0.443437 0.322915 -0.630580
es -0.825336 -0.526583 0.545055 -0.286375 -0.545925 0.386337 -0.134778 -0.435674 0.319625 -0.050214 -0.189721 0.296660 -0.907363 0.575748 0.099495 -0.923660 -0.850836 -0.714880 0.687634 0.134857 0.128848 0.798596 0.762672 0.295745 -0.114104 -0.437948 0.123428 0.482379 0.068460 -0.054742 -1.108868 -0.560798 -0.285768 0.559880 -0.255969 -0.150910 -0.143855 -0.287205 -0.104630 -0.249111 0.497784 0.249978 -0.226299 0.116079 -0.837884 -0.217272 0.610085 1.167374 0.492432 -0.238919 -0.100316 0.059432 0.823662 0.153056 -0.034819 0.296316 0.594787 0.833117 0.055622 -0.158944 -0.082937 -0.007536 -0.205713 -0.445281
st@@ -0.544767 -0.750481 0.171027 -0.446472 0.046983 0.256769 -0.140703 -0.322761 0.883648 0.403267 -0.261980 0.368342 0.044558 0.493878 -0.001492 -0.302611 0.054998 -0.410959 0.093870 -0.303199 0.193769 0.476374 0.476207 -0.058501 -0.531317 0.381186 0.470959 -0.053995 -0.022119 0.294272 -0.866408 0.741929 -0.407677 0.569083 -0.747082 -0.440283 -0.308986 0.463652 -0.181075 0.289727 -0.053452 0.248459 0.200812 -0.092267 -0.117713 0.340877 0.151960 0.301308 0.425109 -0.399139 -0.579870 1.000775 1.037237 0.445262 0.714460 0.266600 0.620397 0.207725 0.151507 0.179981 -0.440105 0.357006 -0.059195 0.003698
of -0.099162 0.696647 0.546978 0.064216 0.145764 0.304965 0.022558 0.115562 -0.056953 0.205781 -0.011030 -0.229199 0.043205 0.450567 -0.280809 0.586374 -0.012342 -0.786184 0.732277 0.032783 -0.367203 -0.754660 -0.207620 -0.752115 0.295581 -0.586389 0.392529 -0.523562 -0.031408 -0.161632 -0.496237 0.549716 -0.885484 0.464485 0.106694 0.148406 -0.013934 0.907520 0.082852 0.356350 0.247241 0.343247 0.063826 0.690864 0.381891 0.728796 -0.570964 0.554732 -1.126410 0.658829 -0.015681 0.473529 0.982069 -0.089618 -0.081063 0.058376 -0.135568 0.045240 -0.462862 -0.120628 -0.095847 0.123502 -0.562025 -0.067089
in@@ 0.494885 1.154205 0.203683 0.580268 0.153613 -0.155925 0.455057 0.390506 0.516125 -0.103922 -0.469604 -0.351135 0.778046 -0.323269 0.163567 -0.049104 -0.061686 0.183025 -0.639894 -0.589338 0.186763 -0.879681 -0.623899 -0.396982 -0.083473 0.342995 0.142235 0.316871 -0.004074 -0.081472 -0.208250 0.443926 -0.000511 0.970521 0.223107 -0.105430 0.615418 0.211056 0.221611 0.631177 0.258327 -0.375560 0.653979 0.821533 0.593014 0.187321 -0.616044 -0.595736 -0.514941 0.215521 -0.044218 0.171601 -0.529071 1.163783 0.195364 0.169970 -0.640597 -0.232915 -0.087143 -0.932078 -0.146888 -0.214869 -0.104053 0.423551
ed -0.211738 -0.023556 0.101316 -1.038266 -0.696629 0.246944 -0.041765 0.469043 0.048150 0.262638 0.192655 0.854953 -1.042759 0.079919 0.448277 0.564709 0.573513 -0.295205 -0.019790 -0.017802 -0.045544 -0.722434 0.737730 -0.209844 -0.268908 0.467223 -0.270830 -0.256624 -0.035537 0.404592 -0.399971 -0.346889 -0.377115 0.192251 -0.110126 0.841580 0.420635 0.746369 -0.567350 -1.631444 -0.494403 0.681892 -0.621659 -0.354880 -0.082741 -0.307476 0.225010 -0.183616 -0.174530 -0.180506 -0.188264 -0.921719 0.591923 -0.831771 -0.399941 0.056638 0.498802 -0.223736 -0.360333 0.610259 0.003946 -0.366652 0.515569 0.418719
re@@ -0.702658 0.047585 0.321061 0.198172 -0.450325 -0.591084 -0.977323 -0.771307 0.605481 0.035041 0.339484 -0.087678 0.551483 -0.135263 0.324963 1.120622 -0.432745 -0.877819 0.578256 0.094340 -0.230036 -0.111502 0.804082 0.268615 0.315118 0.655301 0.455317 0.363874 -0.541417 -0.447055 -0.024835 -0.731833 -0.269626 0.843945 0.122943 -0.216212 -0.183667 -0.320850 0.029396 0.933553 -0.194881 0.430371 -0.058094 0.524584 -0.076541 -0.231020 -0.197984 0.932181 0.091314 -0.349380 0.533839 0.614112 -0.389274 -0.344232 0.700121 -0.067066 -0.261239 -0.003849 -0.669149 -0.415570 0.352809 -0.150038 -0.178623 0.247732
but 0.172687 -0.354131 -0.323513 0.454181 0.448196 0.191583 0.754388 0.525925 0.068955 -0.222879 -0.406065 -0.321013 0.649871 -0.601955 -0.153710 0.037211 -0.294377 -0.324317 0.216913 -0.011505 -0.168105 0.016609 -0.360074 -0.176097 0.729597 -0.773295 0.385076 -0.100017 0.234444 0.495450 -0.163576 -0.246555 -0.333801 -0.301622 0.638845 -0.930593 -0.274811 -0.351357 -0.081618 -0.105520 -0.365340 -0.146713 -0.158270 0.225546 0.361358 1.040201 -0.900544 -0.359641 -0.007297 0.339026 -0.268559 0.142598 -0.018685 0.888081 -0.750152 -0.031454 0.288302 -0.086302 0.241093 -0.769515 0.031700 -0.354461 -0.439157 0.206347
d -0.204705 -0.118433 0.035576 -0.750203 -0.012823 0.237057 -0.146857 0.252471 -0.470520 -0.301698 -0.334667 0.407210 -0.793320 -0.039474 -0.314499 0.422262 0.587931 0.251416 0.185531 0.913553 0.229112 -0.656342 0.026572 -0.414964 0.591235 0.197398 0.528965 -0.372147 0.057269 -0.070434 -0.182686 -0.362106 -0.586175 0.683457 -0.376856 0.360381 0.232553 1.185866 -0.480450 -1.097222 -0.740345 0.607465 -0.961089 -0.837488 0.068723 0.320211 0.212007 -0.109910 -0.422179 0.058344 0.200519 -0.765899 0.901092 -0.139914 -0.572152 0.171468 0.039624 -0.540507 -0.109078 0.557914 -0.125536 -0.353049 0.823722 0.318759
are -0.122276 -0.060617 -0.524903 -0.421238 0.340004 -0.191683 0.035218 -0.404880 -0.686471 -0.737155 0.234579 -0.120983 0.470587 -0.061546 0.826154 -0.394709 0.727498 0.687598 0.816524 1.071884 -0.248084 -0.099002 0.670494 0.007138 0.342838 0.924150 0.116729 -0.888545 -0.204923 0.339117 -0.555092 0.875470 -0.638959 0.139811 -0.409248 0.889688 -0.798820 0.341631 -0.654191 -0.550015 0.803813 0.811537 -0.484405 -0.765932 -0.417661 -0.496702 -0.130853 0.289438 -0.336074 0.245120 -0.002758 -0.395979 0.949023 -0.556291 -0.334412 -0.036560 -0.443637 0.470809 -0.109751 -0.335906 -0.177694 -0.072804 -0.040291 0.119123
o@@ -0.008336 -0.579426 0.137704 -0.560798 0.723196 0.267835 0.759725 0.251884 0.247851 -0.267935 -0.676044 -0.188581 -0.428537 -0.085268 -0.070280 -0.085555 -0.327992 0.217194 0.149873 0.161605 -0.187405 0.166669 0.016265 0.080776 -0.105552 -0.693478 0.333310 0.093203 0.150602 0.057294 0.000120 0.169870 -0.228340 -0.054748 -0.786979 -0.362212 -0.542882 0.337929 0.350751 -0.418258 -0.096071 0.671266 0.768126 0.242598 -0.367707 0.174651 0.245098 -0.038186 -0.443213 0.696935 0.144210 -0.287461 1.249255 0.232219 -0.051671 0.051586 -0.504998 0.223378 0.646170 0.245665 -0.154825 0.559203 -0.341509 -0.172304
me 0.340025 -0.084204 0.543443 0.042852 -0.240100 -0.000958 -0.230320 0.325456 1.057082 0.065615 0.029718 -0.038079 0.393795 0.393879 0.126868 0.212386 -0.833852 -0.426666 0.432416 0.205427 -0.011634 0.286221 -0.230101 0.670012 -0.501815 0.117772 0.578856 0.982466 -0.705203 -0.263879 -0.377097 -0.216962 -0.422189 0.943106 -0.255792 0.501252 -0.564954 -0.525018 0.177083 -0.025777 -0.228329 -0.355190 0.464938 0.556626 0.239949 0.128603 0.049927 0.242111 -0.302427 0.407734 0.225737 0.761070 -0.192421 0.733966 0.601735 0.037302 0.384551 0.016014 -0.014243 -0.199164 -0.707534 0.196587 -0.036473 0.190192
en@@ -0.901107 -0.534361 -0.055393 0.313552 -0.487205 -0.260188 -0.383289 -0.273637 0.328339 -0.044621 -0.354969 0.238040 0.099877 -0.156751 0.476265 -0.311053 -0.239936 -0.545699 -0.392037 -0.476916 0.318313 0.657502 -0.323104 -0.074950 0.046306 -0.684665 0.608603 -0.010051 -0.841241 0.602741 -0.077812 -0.419839 -1.224508 0.152929 0.792486 -0.483841 -0.013754 0.132431 -0.537363 0.306540 0.191352 -0.400492 -0.318544 0.193228 -0.943470 -0.002808 -0.040862 0.672375 0.216737 0.751574 0.471461 -0.067149 -0.061948 0.399914 0.565206 0.458986 0.548521 0.842819 -0.399732 -0.367099 0.329798 -0.114746 -0.137991 -0.096362
ing -0.625377 -0.854417 -0.019369 0.112431 -0.166088 0.152992 -0.348266 -0.766483 0.561298 0.065511 0.028916 -0.342672 -0.091950 0.228147 -0.071156 -0.318047 -0.408699 -0.627437 0.495744 0.767226 -0.189721 0.717739 0.190674 0.307473 0.642153 -0.563801 0.204018 0.833752 -1.302496 -0.246778 -0.078499 -0.337807 -0.198217 -0.634358 -0.222347 -0.033881 -0.914451 -0.589824 -0.258979 0.437322 -0.013139 0.376418 -0.160163 0.288351 -0.366689 -0.190605 0.976115 1.115222 -0.320648 -0.301868 0.425937 0.390900 0.047781 0.077626 0.283692 -0.320713 -0.010214 0.517270 0.091016 -0.003615 -0.295590 -0.271771 0.238936 -0.665688
no -0.679396 0.207405 0.097956 -1.098900 0.106091 -0.115923 0.687698 -0.277955 -0.818073 -0.619067 -0.603975 1.066680 -1.033377 -0.894303 -0.069551 -0.067647 0.625945 0.288442 0.473903 0.275975 0.076028 0.132435 0.485106 -0.662445 0.587160 0.591852 -0.332864 -0.860091 0.083206 1.051291 -1.060002 -0.100313 -0.473864 -0.633301 0.516511 0.523939 0.903151 0.917606 -0.008611 -1.911014 -0.162176 1.190317 -0.602643 -0.402227 -0.633099 -0.367826 0.066718 -0.625073 0.465860 0.030421 0.021583 -0.969948 0.423601 -0.269017 -0.213257 0.048270 0.302550 0.105227 -0.600814 0.103866 0.638501 -0.367799 1.283560 0.528933
have 0.209935 0.345697 0.731716 0.280315 -0.087586 -0.759205 0.146064 -0.194604 0.479614 0.096870 0.190417 -0.011539 0.707676 0.184333 0.607928 -0.071987 -0.024863 -0.998984 -0.001627 -0.745808 -0.188126 0.785143 -0.127750 -0.059570 -0.706063 -0.081811 -0.120299 0.834695 -0.402994 0.279889 -0.498783 -0.121387 -0.631653 0.455593 -0.771713 0.151315 0.143032 0.065807 0.588647 0.480697 1.150080 -0.388289 -0.343723 0.417883 0.005241 0.183173 -0.599250 0.633029 -0.139688 0.723808 0.203230 0.251952 -0.365295 0.938430 1.422543 0.040946 -0.509243 -0.845406 -0.672567 -0.058276 0.025468 -0.005810 0.459042 0.898023
n@@ 0.724230 0.350079 -0.016825 -0.135087 0.078763 -0.248930 -0.324955 0.096344 0.392199 0.343727 0.275088 -0.101690 0.952224 0.228407 -0.123639 0.386775 -0.500344 -0.236129 0.073428 0.661705 -0.038613 -0.949784 -0.795982 0.026498 0.342412 0.096035 -0.008891 -0.750667 -0.250173 0.217038 -0.088232 -0.610721 -0.533968 0.096338 0.174320 -0.247242 -0.642652 0.233043 -0.067041 0.743724 -0.367674 -0.487732 -0.911602 0.268674 0.341408 0.320617 -1.321610 0.327114 -0.214053 0.407576 0.590749 0.277565 0.048747 0.715421 0.071068 0.374976 -0.025755 -0.021839 -0.250962 -0.399453 0.252643 -0.895430 -0.726281 0.673383
like -0.229434 -0.634439 0.131092 0.469381 0.581758 0.330947 0.014446 -0.473095 0.126355 -0.214441 0.704693 0.428367 0.412819 -0.692042 0.248544 -0.687996 0.541185 -0.574461 0.362951 -1.299962 -0.832419 -0.088098 0.694489 0.263054 1.050243 0.324040 0.381506 0.185773 -0.426992 1.210281 -0.059510 -0.347876 -0.252108 0.429300 0.248688 0.174659 -0.105544 -0.148952 0.664659 0.421619 0.496288 0.371631 -0.496319 0.341250 -0.168721 0.078047 -0.034991 0.142704 0.191064 -0.438147 0.074437 0.556096 -0.977499 0.446691 0.491540 -0.087792 0.328330 -0.133141 0.034110 -0.934600 -0.002052 -0.096711 0.348386 -0.321341
v@@ 0.917260 1.021074 0.473025 0.028838 0.747804 -0.742590 -0.497709 0.321970 0.518980 0.731233 0.146146 0.594911 0.289816 0.945767 0.330747 0.428006 0.786554 0.288395 0.532146 -0.544672 -0.751433 -0.945879 0.386430 0.022315 -0.566258 0.435774 -0.463990 0.030887 -0.349212 -0.534128 -0.197830 -0.048128 -0.511848 0.829842 -1.173138 0.299072 0.691000 1.263406 0.193956 -0.870768 0.404976 0.275265 -0.002553 0.125121 0.259720 0.092658 -0.609518 -0.179625 -0.547535 0.350443 0.149413 0.190188 0.401252 0.473340 0.469937 -0.402840 -1.308280 -1.183990 -1.116595 0.807418 -0.124150 0.444003 0.952092 0.351245
y@@ 0.248787 -0.619978 0.456350 0.580121 -0.411964 -0.055139 -0.478644 -0.033184 0.434316 0.142392 0.820794 -0.119573 0.757880 0.679625 0.143348 -0.764562 -0.209221 -0.787458 -0.104507 -0.342754 -0.548556 -0.035887 0.109535 0.888990 -0.208157 -0.182351 0.256846 1.017905 0.038851 -0.375041 0.128878 -0.000601 0.422084 0.228380 -0.056879 -0.206121 -0.081724 -0.722433 -0.047351 1.014271 0.049739 -0.737338 -0.193279 0.366571 0.144118 0.433123 -0.143687 0.759281 -0.366327 -0.522749 0.891159 0.891132 -0.867885 0.185238 0.216248 0.001983 -0.060024 -0.498896 0.028655 -0.029289 -0.049495 -0.092398 -0.890740 -0.558823
m -0.649679 0.159539 -0.061950 0.194893 -0.201118 0.527790 -0.156104 0.243758 0.299512 0.063904 0.265913 0.512619 0.305166 0.063072 0.542617 0.350079 0.456784 0.297213 0.037096 0.135856 -0.252679 -0.764035 0.396738 0.004185 0.531420 -0.060049 -0.045975 -0.485687 -1.038336 -0.197806 -0.119682 -0.897907 -0.616090 -0.069345 0.251270 0.526344 0.113084 -0.268582 -1.003239 0.396667 -0.785180 0.327406 -0.987276 -0.307287 0.193321 -0.080034 -0.032840 0.396386 0.523073 -0.062337 0.321240 -0.861942 0.092597 -0.498068 -0.279186 -0.155540 -0.722173 -0.108367 -0.268812 0.098007 0.440198 -0.763562 0.090489 -0.209628
ar@@ -0.233613 0.272389 -0.513410 -0.120851 0.088983 0.947893 0.635903 0.325860 -0.283614 -0.002235 -0.773402 0.460506 -0.466987 -0.084988 0.095839 0.923514 -0.367137 0.349352 0.027131 0.325929 0.333371 -0.026423 -1.070652 -0.508147 0.000841 -0.326557 -0.116126 -0.282231 -0.123647 0.193447 -0.012109 -0.695066 -0.802884 0.017753 -0.101437 0.465784 -0.178103 0.908859 -0.208896 -0.827227 -0.185973 -0.087720 0.137428 -0.229610 -0.206329 0.066197 -0.229040 -0.670963 0.012436 0.645530 0.218785 -0.349938 2.053213 -1.045939 -0.529618 -0.046316 -0.441944 0.389940 -0.380632 0.538360 0.443562 -0.025472 -0.071567 0.338848
on 0.594732 0.700462 0.176452 -0.600841 0.368686 -0.018569 0.277039 0.041783 0.047908 0.360160 -0.183193 0.513810 -0.015178 0.675007 0.187809 -0.477134 0.368853 0.698421 0.551753 0.534679 0.364021 -1.159572 -0.201248 -0.320429 0.310729 0.257373 -0.180512 -0.599368 0.579373 -0.789240 0.242149 -0.387349 -0.606201 0.503256 -0.406918 0.789065 0.305569 1.065767 -0.651816 -1.297020 -0.262331 0.033408 0.132401 -0.310513 0.253306 0.438898 0.156717 -0.896632 -0.666906 0.039636 0.219113 -0.583895 1.006169 0.360857 -0.383178 0.423497 -0.284307 -0.567186 -0.163714 0.459393 0.402892 -0.437050 0.352861 0.394021
on@@ -0.969676 -0.727655 -0.692062 -0.415769 0.245397 -0.261283 -0.024860 -0.072608 0.033782 -0.206590 -0.426883 0.235289 -0.586876 0.225901 -0.115181 -0.030805 0.179863 -0.269268 0.100473 0.160278 0.027793 -0.192850 0.651856 -0.646083 -0.443398 -1.001741 0.513005 -0.674521 -0.832030 -0.152827 -1.173444 -0.201990 -0.584189 0.068808 -0.557356 0.415477 0.135932 -0.251670 -0.408854 -0.336770 -0.056587 0.900274 -0.947278 -0.149169 -0.247124 -0.625759 0.355696 0.232422 -0.320553 -0.152862 -0.358764 -0.499362 0.285795 -0.282818 -0.222246 0.729975 0.393842 -0.313676 -0.466462 0.462652 -0.297768 -0.456614 0.586213 -0.142409
al@@ -0.691688 -0.859094 1.065989 0.255051 -0.191975 -0.355731 -0.350270 -0.609980 -0.144662 -0.102440 0.295511 0.347168 -0.173503 -0.017243 0.278443 0.090236 -0.149781 -0.765571 0.280806 0.060871 -0.145874 -0.427245 1.376120 -0.035093 -0.173089 -0.007502 0.731947 -0.335646 -0.443180 0.683872 -1.087663 -0.077899 0.027156 0.104944 0.641423 0.578315 -0.884991 -0.063745 -0.234650 -0.004389 0.473620 0.279288 -0.101621 -0.034308 -0.022592 -0.359880 0.527712 0.520735 0.152710 -0.044024 -0.230484 -0.079892 -0.426558 -0.080429 1.021627 -0.539215 0.051110 0.086416 -0.077367 -0.289273 -0.449026 -0.471606 0.306121 -0.127758
well 0.261343 -0.147857 -0.428642 0.072807 0.383962 0.289810 -0.080388 0.339105 0.072818 -0.491825 0.788332 0.226782 0.611996 -0.402759 0.576390 0.313606 -0.588694 -0.584171 -0.323421 0.264384 -0.244811 -0.037366 -0.068333 0.795126 0.218150 0.039856 0.188831 0.540845 -0.944778 -0.184213 -0.050750 -0.685251 0.298112 0.271816 -0.734663 0.383230 -0.666790 -0.457964 -0.043778 0.334078 0.076933 -0.195189 -1.039778 -0.086311 0.169109 0.497855 0.459911 0.335739 -0.558306 -0.231413 0.487217 -0.380596 -0.687261 1.011096 0.083553 0.223750 0.026485 0.156562 -0.647876 0.150212 0.280442 -0.515995 0.091840 -0.529268
it's -0.362126 0.124165 0.448124 -0.406786 -0.520536 0.001112 0.070412 -0.387760 -0.166936 0.143868 0.842501 1.019180 -0.107749 0.106334 0.248787 -0.036638 -0.127958 -0.660705 0.484081 0.642931 -0.432439 0.209908 0.817870 0.925004 -0.736660 0.408343 -0.063549 0.708733 0.466965 0.316852 -0.619852 -0.521088 -0.524760 0.123926 -0.380016 0.326188 -0.325296 0.822872 0.095783 -0.523408 0.113028 -0.194188 -0.027495 -0.507930 -0.630861 -0.090025 0.135741 0.191163 0.090666 0.609985 0.286028 0.484490 0.037440 0.002118 0.851458 0.179358 0.346027 0.529679 0.349318 -0.382587 -0.143253 0.152320 0.148310 0.059612
t -0.864017 -0.458419 -0.191695 -0.713039 -0.221096 0.062835 -0.361687 -0.155694 -0.261882 -0.408938 -0.037255 0.392199 -0.905087 0.122431 0.444236 0.142218 0.122729 -0.459289 0.020024 0.339975 -1.165211 -0.277180 0.696992 -0.445964 0.068874 0.514503 -0.580295 -0.775218 -0.298696 -0.056941 -0.205961 -0.648220 -0.745333 -0.118597 -0.535868 0.615470 0.670407 -0.508967 0.158065 -0.945714 0.046280 0.985100 -0.567544 -0.515761 -0.744890 0.117334 0.096150 -0.068957 0.120318 -0.224008 0.426568 -0.434519 0.669885 -0.343330 0.164625 -0.017128 0.243792 -0.260738 -0.279070 0.890856 0.240456 -0.714776 1.187578 0.131218
ve -0.481333 -0.044464 0.162312 -0.537564 0.065555 0.613781 -0.448064 0.237009 0.181549 0.416495 0.198253 0.460300 0.251143 -0.622936 0.342578 0.215715 -0.776905 0.304570 -0.005025 0.766267 -0.559129 0.474784 0.158815 0.556067 0.887691 0.408933 0.336812 0.230939 -0.140535 0.494997 -0.357108 -0.290517 -0.271459 0.093551 0.557768 -0.986205 -0.723665 -0.257513 -0.586101 0.918151 0.069159 -0.240486 0.093376 -0.392081 -0.274513 0.183770 -0.107569 0.550538 0.073104 0.702671 0.109440 -0.099774 -0.475526 0.524736 0.642599 0.641010 -0.546339 0.475265 0.728143 -0.398618 -0.627600 0.454615 -0.204374 -0.242304
ah -0.703494 -0.343313 -0.345418 0.479269 0.405878 0.305825 -0.484019 -0.719464 0.415561 -0.444834 -0.205241 0.088005 0.819155 0.187568 0.107661 -1.109929 -0.170373 -0.402975 -0.220735 -0.757551 -0.462479 0.329819 -0.275561 0.606210 0.504782 -0.667385 0.155673 -0.345450 -0.750438 0.019731 0.256715 -0.417618 -0.237123 -0.134875 -0.106542 -0.911020 -0.297022 -1.021273 0.081869 0.523701 0.495326 -0.083818 -0.253263 0.307708 0.069672 0.213904 0.011643 0.564361 0.163745 -0.153840 0.148764 0.646426 -0.698935 0.447389 0.590570 0.429709 0.209277 0.603943 0.113265 -0.390696 0.303524 -0.566563 -0.770444 -0.154208
oh -0.074215 0.240933 0.179869 -0.311816 -0.017014 -0.221332 0.518199 -0.373345 -0.141748 -0.365902 -0.802189 -0.287694 0.189944 -0.292806 0.013822 0.446543 -0.968828 -0.208683 -0.774284 -0.562602 -0.216816 0.077040 0.199553 -0.712862 0.379656 -0.544313 0.083981 0.044729 0.950599 0.870136 -0.212578 0.100937 0.690453 -0.545923 1.195047 0.099848 -0.290714 0.123986 0.346065 -0.146538 0.407310 0.178934 0.686948 0.283474 0.165357 0.327438 -0.902463 -0.344729 -0.064448 0.397090 0.310530 0.282535 0.664958 -0.208488 -0.189310 0.234029 0.166691 1.077604 0.097108 -1.073053 -0.077106 0.080053 -0.374777 -0.137446
don't -0.423855 -0.500692 -0.408598 -0.300886 -0.211698 0.324811 -0.571050 0.202137 0.634158 -0.100592 0.003794 0.667097 -0.011798 -0.392016 -0.061821 0.049114 -0.041260 -0.769415 0.053053 -0.061988 -0.381483 -0.142687 -0.427153 -0.311359 0.708943 0.288915 0.371937 -0.355709 -0.709303 0.228623 -0.104936 -0.755658 -0.427678 0.325502 0.257881 0.254388 -0.098252 -0.774048 -0.533597 0.295224 -0.085740 -0.540721 -0.851682 0.160380 0.025425 -0.424090 0.317695 0.256419 0.421369 -0.405372 -0.089721 -0.813401 -0.775185 0.478645 0.797111 0.200385 0.701372 -0.098010 -0.236670 -0.061133 0.607837 -0.503389 0.556765 0.271420
er@@ -0.311046 0.167747 -0.498291 0.579405 0.376208 -0.620122 0.144222 0.589888 0.113458 0.414667 0.558328 -0.798649 0.292675 -0.083537 0.525172 0.084800 0.758116 0.026437 -0.425105 -0.115110 -0.450904 -0.405569 -0.491886 0.096728 -0.675051 0.422702 -0.063360 -0.286858 -0.260056 -0.182615 0.044244 -0.708715 -0.592029 0.164643 -0.641197 0.235935 0.649982 0.589195 -0.453963 -0.612732 -0.616055 0.256596 -0.288966 0.046918 0.362525 0.524695 -1.383930 -0.496454 0.355852 0.071425 0.132989 -0.161198 0.679699 0.364129 -0.172587 0.076479 -1.133271 -1.049678 -0.158407 0.659304 1.176930 0.114122 -0.604362 0.749918
there -0.393704 -0.199496 0.106185 0.397920 -0.142310 -0.377439 -0.263121 -0.707403 0.621195 -0.203863 -0.010185 -0.527193 0.361679 -0.567271 0.075399 -0.567213 -0.969695 -0.579689 -0.844050 -0.189621 0.160840 0.759191 -0.395119 -0.323974 0.307300 -0.353932 0.625747 0.161525 -0.049226 0.217541 -0.668059 0.152117 0.075158 -0.683548 0.695870 -0.770504 -0.267762 -0.035651 0.386039 0.929037 -0.334790 -0.383673 0.231336 0.181360 -0.328444 0.527190 0.405739 0.232950 0.263630 0.352025 0.419438 0.574652 -0.197212 0.057591 0.483667 -0.095781 0.037543 0.736241 0.227844 -1.226737 0.114736 0.368985 -0.297391 0.363193
know 0.119118 -0.376621 0.917577 0.190943 0.334980 0.641748 -0.520593 1.033272 -0.117491 -0.456132 0.304908 0.481806 0.327267 0.478592 -0.102256 -0.266661 0.129008 -0.129160 0.346622 0.153446 -0.423254 -0.917261 -0.362647 -0.035626 -0.308167 0.485571 0.490017 -0.545209 -0.086121 0.044538 -0.613852 0.289631 0.046812 0.227274 -0.377403 0.417812 -0.125426 -0.219523 0.211460 -0.627465 -0.185324 0.678285 0.299208 -0.071651 -0.769291 0.289405 0.086601 -0.448522 -0.202118 0.329529 -0.314438 -0.383947 0.496783 0.311163 -0.643572 -0.167462 0.039955 -0.277856 0.338235 -0.153620 0.332258 -0.138217 0.464228 -0.429765
so -0.000404 0.253301 0.900551 -0.287570 0.153285 -0.244307 -0.476472 0.366783 0.295516 0.167035 0.600946 0.646912 0.345777 0.545671 0.479080 0.402125 0.924789 -0.435532 0.243891 0.691324 -0.356862 -0.853506 0.172687 0.086852 -0.734345 1.034373 -0.346161 -0.043044 -0.200137 -0.591011 -0.351857 -0.128539 -0.418929 0.727745 -0.860478 0.678561 0.563735 0.960631 0.354656 -0.334724 0.236951 0.080729 -0.257284 0.786081 -0.135322 -0.023932 -0.058202 -0.197421 -0.561308 -0.388412 0.012441 0.353267 -0.207560 0.312183 -0.092567 -0.031851 -0.617820 -0.862660 -0.818437 0.539661 0.081917 0.272747 0.783220 -0.028581
o -0.074041 0.843239 0.615529 -0.347893 0.058296 -0.654353 0.439429 -0.248016 -0.475646 0.321278 -0.355868 0.700616 0.159605 0.229537 0.290201 -0.070136 0.392820 0.705163 0.166896 0.041737 0.269641 -0.415190 1.007074 -1.015544 -1.039229 0.305992 -0.032397 -0.646922 0.877640 0.111396 -0.978619 0.535315 -0.664975 0.045997 0.350733 0.776275 -0.202311 1.467628 -0.369769 -1.223406 -0.259822 0.433958 0.467214 -0.072215 -0.158872 0.045793 -0.486842 -0.341048 -0.253172 0.586185 -0.218620 0.268798 0.863758 -0.084899 0.302759 0.635145 -0.188201 -0.308219 -0.390612 -0.180489 -0.296762 -0.285537 1.158236 0.670178
ou@@ -0.452461 -0.226240 -0.187828 -0.317270 -0.112327 -0.098860 -0.043752 -0.056332 -0.061742 0.081426 -0.442119 0.015475 -0.178737 0.350160 -0.423869 -0.271864 -0.541301 -0.515885 -0.118433 0.019837 0.016795 0.052443 0.279638 -0.992780 0.551868 -1.124178 0.050392 -0.465862 -0.252000 0.667749 -0.170279 -0.067260 -0.306005 0.171266 0.354372 0.006771 -0.060627 0.434691 0.323242 0.414791 -0.055259 0.734444 -0.879505 0.066834 -0.152502 0.213169 0.328219 -0.392914 -0.743574 0.262592 0.412798 -0.098110 0.098247 0.132091 -0.411761 0.083560 -0.562475 -0.199675 -0.832121 -0.283210 0.360417 0.402824 0.080331 -0.054796
because 0.841176 0.885892 -0.010514 0.479189 0.432253 0.032695 -0.704560 0.134477 0.540235 0.352031 0.240640 -0.028798 0.943643 -0.061344 -0.182318 0.657387 0.804547 -0.084328 0.010756 -0.025358 -0.087156 -1.352409 -0.635268 0.392840 0.401862 0.076731 -0.122819 0.214593 -0.409947 -0.933329 0.660692 0.166048 0.164206 0.273609 -0.368008 0.045185 -0.169761 0.265030 0.658584 -0.161022 0.023932 -0.221114 0.364050 0.986989 0.550547 0.499430 -0.130789 -0.426518 0.196204 -0.482355 0.529868 -0.140358 -0.313113 0.121707 -0.218107 0.644060 -0.638713 -0.998517 -0.490388 0.557760 -0.140557 -0.131743 -0.826299 -0.093981
li@@ -0.330947 -0.063703 0.400030 0.769523 0.288823 -0.369183 -0.212777 -0.845313 0.318576 0.421977 0.766078 0.258892 0.710382 0.250545 0.287323 -0.024249 -0.178714 -1.134558 0.473635 -0.578986 -0.032658 0.711717 0.318122 0.237062 -0.206192 -0.102601 -0.037020 0.614051 -0.383669 -0.062946 -0.567448 0.550908 0.145111 0.333917 0.758096 -0.355343 0.088775 0.083853 0.681260 0.300802 0.491918 -0.508859 0.213744 0.558770 -0.465977 0.126529 -0.052287 0.858293 -0.546323 0.283926 -0.329090 0.823598 -0.359746 0.273468 0.633857 0.176580 0.439394 -0.062168 0.043276 0.031454 -0.121414 -0.438431 0.304520 -0.130122
di@@ -0.068067 0.100400 -0.004734 0.897796 0.033870 -0.192263 -0.311506 0.190790 0.408244 0.431080 -0.160262 -0.147368 0.611762 0.240795 -0.622179 0.058525 -0.919020 -0.506183 -0.780314 -0.533327 -0.325176 0.438294 -0.274584 0.801396 -0.208849 0.539656 0.586087 0.263409 -0.718110 0.886254 -0.356303 -0.296262 -0.131943 1.038008 0.332436 -0.261049 0.352259 -0.577658 0.229227 0.268076 0.446949 -0.035772 -0.324206 0.125274 0.192888 -0.589948 0.306959 0.724629 -0.148720 -0.271211 -0.424404 -0.046719 -0.872301 0.380883 0.393986 -0.377906 0.083982 -0.154622 -0.341658 0.203929 0.716133 0.495774 0.388828 0.084392
what -0.395924 -0.264343 0.792230 -0.567786 -0.434956 0.102795 -0.421417 0.492479 -0.040433 0.826751 0.129837 0.214574 -0.122224 1.310741 -0.276266 -0.502179 0.548331 -0.392815 0.928486 0.795858 0.388362 -0.318992 -0.067776 0.446447 0.178011 -0.392996 -0.485866 -0.377992 -0.204435 -0.389508 -0.672680 0.147044 -0.178727 0.598683 0.034971 0.355954 0.333694 -0.865310 0.066424 -0.282345 -0.086984 0.423814 0.188468 -0.096714 0.264050 -0.815898 0.279621 -0.073581 -0.962578 -0.474230 0.538768 -0.303458 -0.048093 -0.226116 -0.082583 -0.302591 0.005732 -0.446017 0.293324 -0.075612 0.189828 0.034825 -0.044253 -0.704005
k@@ 0.159928 -0.701263 -0.824443 -1.136538 0.280678 0.781974 0.038358 0.256856 -0.448102 -0.929221 -0.555935 0.215663 -0.219971 -0.446372 -0.380278 -0.272823 0.179860 -0.066347 -0.112731 -0.256337 0.647823 -0.112818 0.401737 -0.417179 0.501550 0.029733 -0.116376 -0.700902 0.272041 -0.086825 -0.081393 -0.029210 -0.150753 0.203650 0.120817 0.667944 0.534358 -0.001928 0.208715 -0.457237 -0.339830 0.402582 -0.228374 -0.387003 -0.413705 0.147561 0.341852 -0.078673 0.209819 -0.187565 -0.007767 -0.757373 0.944207 -0.572098 -0.161747 -0.138013 0.229042 -0.302117 0.269223 0.223157 0.493557 -0.291009 0.016550 0.330391
at@@ -0.409956 0.483483 0.189473 -0.082477 0.110098 -0.209609 -0.712755 -0.561240 0.921330 0.067402 0.185687 0.717000 -0.300077 0.426243 0.511164 -0.566201 0.524911 -0.238337 0.548057 -0.158124 0.045609 1.146526 0.243624 -0.089842 -1.196955 0.277511 0.086840 -0.034597 -0.397544 -0.692627 -1.149554 -0.625683 -0.542544 0.657814 -0.534708 0.145072 0.080385 0.273436 -0.357042 -0.413571 0.340005 0.285304 0.323306 0.302374 -0.019509 -0.416266 0.512313 1.018037 -0.497435 -0.014202 -0.009077 0.578782 0.462183 0.439676 -0.078567 -0.242776 -0.224966 0.189269 -0.239632 0.117226 -0.807543 0.315890 0.591193 0.183998
st 0.153196 0.372054 0.203816 0.013311 -0.492592 0.749165 0.112587 -0.535640 0.085180 0.187131 -0.749798 0.088162 -0.069690 0.098880 -0.549842 -0.283089 -0.486340 -0.042428 0.041791 -0.032138 0.418028 -0.505901 -0.596404 -0.435932 0.303804 -0.880902 -0.045577 -0.174413 -0.087549 0.030740 -0.391129 0.146885 -0.159648 0.109047 0.390710 -0.575740 -0.384860 0.333105 0.432698 -0.216889 -0.068091 0.765800 -0.338943 0.147488 0.088148 0.423644 0.343144 -0.759621 -0.166069 0.329671 0.163748 0.030434 0.245908 -0.562505 0.095031 -0.232597 0.109904 0.065571 -0.380863 0.099608 0.081182 0.054666 0.100393 0.648734
en 0.626476 -0.542868 -0.017944 0.631589 0.665747 -0.210734 -0.170538 -0.129598 0.873263 0.172315 -0.997954 -0.012743 0.987692 -0.040254 -0.608145 -0.286097 -0.483269 -0.327188 0.003035 -0.761742 0.063918 0.421606 -0.125359 -0.332385 0.245011 -0.959613 0.200098 0.436519 -0.261674 0.373156 -0.641664 0.130786 0.164840 -0.572617 -0.847046 -0.496752 -0.017555 0.131264 -0.011080 0.398621 0.369486 -0.323621 0.248138 -0.423328 -0.506366 0.163538 -0.413752 0.890794 -0.299588 0.003302 -0.626700 0.863250 0.201285 0.820977 0.231766 0.055651 0.593598 0.528134 0.382810 -0.291026 0.185998 -0.039429 -0.299905 -0.345699
for -0.474203 0.034554 -0.664760 -0.524327 -0.020892 -0.148609 -0.815095 -0.635425 0.377771 -0.150378 0.490679 0.657130 0.237866 -0.052028 0.474244 -0.408589 0.171763 0.277819 0.144877 0.131194 0.060805 0.942301 -0.016179 0.429769 -0.083168 0.025302 -0.296396 -0.054624 -0.617221 -0.093670 -0.949558 0.016313 -1.004040 -0.145000 -0.923016 0.178024 0.020539 -0.418949 -0.178027 0.029557 0.288451 0.460603 -0.606254 -0.017454 -0.115779 -0.120757 0.415361 1.205406 -0.413044 0.223301 0.349851 -0.260514 0.396677 0.239852 0.487052 -0.141554 -0.091870 -0.249992 -0.284197 0.424887 -0.257959 -0.266282 0.292116 0.134424
mm 0.795448 0.726835 0.148219 0.288860 0.250284 0.334223 -0.830850 0.510825 0.292456 0.487656 -0.915754 -0.855159 0.177117 0.349113 0.059714 0.225687 0.625028 0.337448 -0.001092 -0.393629 -0.084991 -1.288568 -0.288124 0.512881 -0.011910 0.307710 0.232780 0.534269 -0.893636 -1.485629 -0.156451 -0.193095 -0.860967 0.611145 -1.774335 0.666369 -0.324536 0.638957 0.432503 0.158619 0.388884 0.086432 -0.107063 0.346610 0.045990 0.582480 -0.248493 0.358317 -0.728924 -0.488887 0.553927 -0.073278 0.556704 -0.008991 -0.451842 0.531900 -1.364926 -0.593751 -0.030258 1.077043 0.401550 0.431319 -0.454457 -0.386858
or@@ -0.035369 -0.877781 -0.030121 -0.270201 -0.082463 -0.251601 -0.112559 -0.841598 -0.392542 -0.867743 -0.382517 0.053901 0.313744 0.352375 0.474077 -0.222102 -0.453012 -0.426316 0.028355 -0.563261 -0.529044 0.803235 -0.258393 0.361277 0.109052 -0.470572 0.786498 -0.215422 -0.582071 1.123333 -0.562543 0.183345 -0.311831 -0.044114 0.326414 -0.842626 -0.702034 -0.083436 -0.302523 0.535902 -0.406157 0.275950 0.012091 0.031077 -0.921208 0.432792 0.298707 0.643056 0.162453 -0.082974 -0.483937 -0.135193 0.183390 0.225577 0.226203 0.382393 0.083691 0.535424 0.155536 -0.556465 -0.419142 -0.341369 0.011511 -0.429515
k 0.284332 -0.486979 0.775941 0.354660 -0.425548 0.213929 -0.063854 -0.052623 0.634524 0.423281 0.490671 -0.483217 0.630402 0.593177 0.091715 -0.121755 -1.144995 -1.406085 0.236420 -0.074986 -0.157830 0.191013 0.320272 0.457955 0.172121 -0.721833 -0.216308 0.724808 -0.136349 -0.428462 0.495068 0.168855 -0.687783 0.269107 -0.416646 -0.487738 -0.890820 -0.181414 0.236448 0.982663 -0.421206 -0.299105 0.309940 0.074861 0.574214 0.446758 -0.151934 0.874859 -0.311606 -0.175937 -0.174161 0.290179 -0.060203 -0.119841 0.827199 -0.208790 -0.187256 0.009306 0.210669 -0.510280 -1.213480 0.882601 -0.485168 -0.878013
one -0.572415 -0.039273 0.006064 -0.642768 -0.286800 -0.539431 -0.089125 0.073718 0.575189 -0.065433 0.598682 0.930480 0.016984 0.563573 0.600125 -0.343368 0.208540 -0.159126 0.012142 0.137430 -0.541535 1.063389 0.304160 0.320959 -0.883435 0.855548 0.535049 -0.436655 0.174075 -0.187174 -0.369941 -0.367552 -0.502967 0.113940 0.251388 0.313683 -0.449591 -0.234667 -0.649736 -0.174344 -0.124921 -0.086518 -0.569784 -0.144788 -0.163050 -0.276394 0.108694 0.363238 -0.123179 0.141355 -0.067463 -0.385674 -0.525334 0.655018 0.048180 0.622720 -0.476190 -0.151801 0.039090 -0.186524 0.146649 -0.375318 0.809946 0.218762
th@@ 0.792648 0.259284 0.108137 0.796422 0.442934 -0.621249 0.436359 0.166318 -0.184721 0.800018 -0.628460 -0.203534 0.809766 0.057772 0.081705 0.086779 0.241701 0.315866 -0.030795 0.080643 0.228836 -0.244355 0.087850 -0.532095 -0.638595 0.298116 -0.018456 0.097082 0.761431 0.443864 0.696689 0.407327 0.382018 -0.044430 0.317431 -0.152882 0.161478 0.037857 -0.018257 0.373970 -0.033325 -0.034366 1.093633 0.057607 0.400077 0.167490 -0.740199 -1.299156 -0.519660 0.265131 0.039887 0.621439 0.290250 0.677385 -0.155995 0.352434 -0.490331 0.174839 0.069212 -0.166768 0.845270 0.265151 -0.283284 0.730294
ri@@ 0.749351 -0.375525 -0.069651 -0.180120 -0.090528 0.774413 0.299638 0.826421 0.117081 0.225993 -0.200549 -0.262675 0.206219 -0.351929 -0.612881 -0.435818 -0.187182 0.474749 -0.136823 0.159241 -0.330827 -0.620989 -0.478941 -0.656073 0.014201 -0.270010 0.268975 -0.509346 -0.227516 -0.121977 -0.795100 0.397248 -0.695429 -0.406486 -0.478267 -0.397571 -0.354695 -0.276023 -0.091295 0.224352 -0.017962 -0.134814 0.068475 -0.012572 -0.233732 0.488971 -0.821380 -0.061315 -0.665300 0.212252 -0.082633 -0.400509 0.491194 -0.454790 -0.310220 0.399396 -0.463164 -0.294539 -0.200115 -0.272556 -0.106892 0.043593 -0.647467 -0.496344
r 0.372175 -1.043372 -0.175069 -0.167543 0.015386 0.027429 -0.445823 1.217388 -0.187991 -0.135701 -0.066831 0.233183 0.352083 -0.132092 -0.058747 -0.013359 0.657131 0.467883 0.009779 0.610257 -0.212950 -0.823003 -0.468193 -0.123469 0.259638 0.253726 0.117578 -0.779066 -0.288499 0.095777 -0.057092 -0.349243 -0.371480 -0.024173 -0.455372 0.305421 0.157732 0.187103 -0.195236 -0.007029 -0.052043 0.425160 -0.627841 0.054263 0.067284 -0.181243 -0.227588 -0.202435 0.149536 -0.617292 -0.211116 -0.522117 -0.214777 -0.489299 -0.916753 0.435696 -0.094486 -0.433042 -0.031240 -0.060730 -0.286880 -0.694638 0.054339 -0.700750
or -0.021482 0.462376 -0.168711 -0.371070 -0.099651 -0.135555 -0.501167 -0.117421 0.532860 -0.070019 -0.169776 0.128348 0.897511 0.392192 -0.171037 -0.775312 -0.073003 -0.079878 -0.326642 0.589037 -0.072962 0.837843 -0.496524 -0.373269 -0.020074 -0.036873 0.076525 -0.041533 -0.670047 0.015043 -0.973951 0.627050 -0.116811 0.427727 -0.216990 -1.362879 -0.247972 -0.430953 -0.106994 0.728694 0.337681 -0.827918 0.404251 -0.137977 -0.030964 -0.308052 0.380155 0.661124 0.263291 -0.160988 0.042311 0.000467 -0.131329 0.190479 0.379739 0.194013 -0.381238 0.566496 -0.291548 0.118411 0.249888 -0.089957 -0.475688 0.124553
ac@@ -0.748761 -0.182304 -0.482558 -0.433009 -0.073056 0.202122 0.463064 -0.315569 -0.073990 0.181505 -0.541170 0.000715 -0.199717 0.540060 0.137386 -0.094189 -0.094144 -0.700824 -0.273764 -0.229517 0.084104 1.388511 -0.024114 -0.054909 -0.525589 -0.497070 0.019387 0.502907 -0.685608 -0.096887 -0.683232 -0.630107 -0.507988 -0.503674 -0.131878 -0.267861 -0.149461 -0.152628 -0.182808 -0.064389 0.238168 -0.492768 0.268283 -0.184526 0.284108 0.049270 0.640727 1.205970 -0.695736 0.078600 -0.070387 0.186134 1.023673 -0.112658 0.148714 0.386234 -0.634095 1.387158 0.363659 -0.379146 -0.707875 0.106720 0.203934 0.382456
be@@ -0.196790 -0.904348 0.448839 -0.130675 -0.520807 0.533405 -0.367490 -0.095192 0.202861 0.812191 -1.048903 -0.043202 0.072810 0.275688 -0.097041 0.356162 -0.234083 -0.839408 -0.181601 -0.436577 -0.345266 0.018078 0.147692 0.440620 0.622546 -1.124040 -0.023363 0.550286 -0.250053 -0.577788 -0.809603 -0.019347 -0.515118 -0.240445 -0.503237 -0.708689 0.236949 -0.035228 0.242526 0.234056 0.659609 0.176965 -0.327940 0.257111 0.085585 0.087690 1.061968 1.070379 0.421065 -0.250355 0.508746 0.172003 0.282148 -0.212985 0.027634 0.066885 0.325398 0.155689 0.293123 -0.200925 -0.369720 0.586816 -0.043794 -0.591225
was 0.275218 0.541113 0.476450 0.586276 0.069941 0.266947 0.230954 0.012443 0.511759 -0.050550 -0.053759 0.365192 0.299547 0.455969 -0.338103 -0.255610 0.272954 -0.070380 0.566335 0.541588 0.300968 -0.450445 -0.365563 -0.130515 0.229714 -0.200684 0.496946 0.803419 0.546455 -0.101684 -0.325534 0.361768 0.104323 0.084153 -0.254351 -0.429575 0.101057 -0.019377 0.294272 -0.150942 -0.338297 0.487516 0.168718 0.273847 -0.292726 0.096695 0.049682 -0.426289 -0.246066 0.554723 0.072468 -0.002472 1.148320 0.131823 -0.086713 -0.202464 -0.380193 0.197166 -0.073550 -0.234364 0.134799 0.836354 -0.318137 -0.043385
el@@ 0.367635 0.522675 -0.196201 -0.080912 -0.059835 0.225678 0.259303 0.203717 0.146178 0.396087 -0.530280 0.312360 0.105652 0.378684 0.003863 -0.058348 0.261964 0.117988 0.036828 -0.230909 -0.183808 -0.209066 -0.393285 -0.445561 0.066322 -0.466339 -0.109836 0.022162 0.171860 0.124121 -0.258755 0.240014 0.047674 0.364768 -0.332464 -0.123561 0.297005 0.340705 -0.128122 0.372223 -0.055054 0.202829 -0.204399 -0.301418 0.124744 0.131491 0.451310 -0.398758 -0.327048 0.613357 0.467586 0.173454 0.230165 0.134580 -0.503603 -0.008976 -0.687943 0.216907 -0.444579 -0.093932 -0.096560 0.370455 0.169794 0.093801
ex@@ -0.200602 0.334482 -0.011112 0.076416 0.078732 0.012061 1.046207 1.227347 -0.592197 -0.452819 -0.407095 -0.204088 -0.116720 -0.932172 -0.440218 -0.580708 0.582103 0.781317 -0.282905 -0.132510 0.035711 -0.176664 -0.416531 0.243791 -0.356315 0.000060 0.309605 -0.638374 0.600695 1.045454 0.096489 -0.015689 -0.024075 -0.680266 0.855146 0.468972 -0.025006 -0.393086 -0.943761 -0.887108 -0.182921 0.228882 0.030447 -0.966096 -0.491358 0.206555 -0.470898 -0.828308 -0.089175 0.006604 0.293094 -0.175264 0.217155 -0.029918 -0.503823 -0.000719 -0.018277 0.131349 0.280245 -0.304189 0.976558 -0.385692 0.537632 0.352399
si@@ -0.195894 -1.130323 0.465417 -0.705529 0.680744 0.628421 -0.698203 -0.622170 0.558803 0.943069 0.380837 0.636619 -0.053918 0.228813 -0.460557 -0.042657 0.423937 -0.583031 0.131690 -0.169008 -0.217601 0.439168 -0.787582 0.333680 0.326437 -0.009949 -0.378121 -0.069495 0.437932 0.332986 0.390311 0.211512 0.335510 0.116858 -0.334015 -0.351424 0.116719 -0.370511 -0.874504 -0.070601 -0.472659 -0.012123 -0.090654 -0.007639 -0.296213 0.005868 -0.344690 0.631556 0.472757 0.197979 -0.520213 -0.528178 -0.380958 1.096841 -0.074970 0.348763 0.230662 -0.299870 0.262542 0.086566 -0.321586 -0.220421 0.244188 -0.434850
not 0.294780 0.074301 0.202494 -0.172677 0.039069 0.014579 0.772763 0.072982 -0.182941 0.524015 -0.120031 -0.312101 -0.064432 0.294615 -0.049996 -0.042612 -0.001276 0.116319 0.408976 0.615495 0.301709 0.666589 0.255382 -0.339272 -0.480684 -0.295655 0.183855 0.349359 0.729093 -0.092644 -0.089728 0.469035 -0.223854 0.262898 0.151454 -0.669240 0.167216 0.319859 0.511372 -0.115368 -0.393808 0.121931 0.429768 -0.062611 -0.473696 -0.031029 0.147534 0.250831 0.199011 0.060506 -0.097986 0.085235 0.438135 -0.154921 -0.231100 -0.076963 -0.623227 0.646341 0.625908 0.023859 -0.150716 0.115052 -0.536351 -0.123894
se -0.070745 -0.407575 0.089058 0.085594 0.058892 0.439427 -0.677347 0.166340 0.415474 -0.147227 0.060294 0.166503 -0.163970 0.442314 -0.249353 0.117330 -0.116224 -0.167506 0.063198 0.563947 -0.041966 -1.080110 0.281245 0.271707 0.708545 -0.286634 0.513321 -0.279270 -0.581989 -1.062145 0.768832 0.173908 -0.132765 -0.106030 -0.394145 0.008270 -0.268521 0.197500 -0.418742 0.621476 -0.000581 0.296674 -0.792848 -0.406861 0.143354 -0.330349 -0.029911 0.039881 -0.081803 -0.892809 0.726807 -0.849989 -0.380376 -0.528182 -0.864233 0.124729 -0.558186 -0.344196 -0.117029 0.214190 -0.250467 -0.277551 -0.283577 -0.656188
er -0.780259 -0.917966 -0.701754 -0.639210 -0.214641 0.372449 0.220800 -0.194281 -0.236783 -0.372727 0.212085 0.630965 -0.660435 -0.374710 -0.039658 -0.429269 -0.419086 -0.029714 0.652045 0.269810 0.311646 0.336939 0.408066 -0.297001 0.262441 -0.364662 -0.144559 -0.782503 -0.217613 0.429073 -0.320726 -0.199995 -0.170768 -0.437274 -0.097455 0.771428 0.434159 0.216930 0.012197 -0.036503 -0.216628 1.269708 -0.718922 -0.468258 -0.416103 0.102312 0.585813 0.017655 0.297167 -0.484925 0.024524 -0.539236 -0.116007 -0.437379 -0.331303 0.391956 -0.084449 -0.007567 -0.279897 -0.080307 0.614823 -0.084155 0.337430 -0.405085
do 0.657560 -0.136284 -0.035783 -0.218052 0.231076 0.120914 0.517110 0.329443 0.043439 0.151424 -0.953290 -0.486418 0.250243 0.526861 -0.198732 0.677911 -0.813677 0.081852 -0.302292 0.940262 0.082912 -0.957591 -0.218896 0.406440 -0.066246 -0.545442 -0.121321 0.299000 0.042948 -0.420880 0.014458 0.391137 0.388427 0.095560 0.306320 -0.189437 0.609475 0.604498 0.102381 0.386574 -0.128208 0.102364 -0.092971 -0.527165 0.609341 0.265787 -0.365478 -0.072376 -0.135975 0.110777 0.380708 -0.180213 0.786506 -0.369453 -0.831180 0.436111 -0.537992 0.567213 0.096487 0.479303 -0.919561 0.187966 -0.363273 0.179244
ly -0.392279 0.262530 -0.647992 0.009188 0.237391 -0.233117 -0.414284 0.514630 -0.502561 -0.126084 0.631184 0.988778 -0.510800 -0.533699 0.018281 -0.020095 0.223760 -0.041954 0.151112 0.324670 0.231542 -0.335858 0.009652 -0.529067 -0.137571 1.068910 0.541139 -1.099328 0.463924 0.037783 0.472138 0.369131 0.045633 0.152882 -0.162599 0.410020 0.451845 0.276509 0.194295 -1.365802 -0.403479 0.261132 -0.293380 -0.193579 0.131020 -0.198343 -0.347208 -0.327189 0.496880 0.493991 0.222228 -0.392642 0.571428 0.042712 0.607554 -0.226680 -0.514557 -0.121361 0.122462 0.320507 0.357810 -1.260224 0.698595 0.348428
le 0.747636 0.646467 0.204125 0.175172 0.308019 -0.327818 0.669823 0.795370 -0.198029 0.435732 -0.276201 0.223157 -0.126797 0.169959 -0.085599 0.160237 0.560677 0.894434 0.321382 0.408570 0.070700 -0.499419 -0.008825 -0.094873 -0.565439 0.472614 -0.135840 -0.576967 0.984087 -0.113137 0.006472 0.428085 0.177561 0.198786 0.269811 0.119040 0.199746 0.757903 -0.392538 -1.136533 -0.793468 -0.416362 0.517183 -0.167170 0.565423 0.096229 -1.056438 -0.844062 0.121870 0.583000 -0.213163 -0.229621 0.811476 0.384403 -0.404143 0.148901 -0.209107 -0.244181 0.371657 0.090589 -0.036524 -0.361351 0.141656 0.754866
right -0.057079 0.852377 1.338072 0.579078 0.404066 -0.537515 -0.018026 0.507821 0.441364 -0.208483 0.807535 0.386948 0.343333 -0.316740 0.460524 -0.513838 0.510410 -0.363371 -0.009181 0.103681 0.203484 0.153334 -0.344597 0.247432 -0.176220 1.034086 -0.374764 0.208652 0.088864 0.192714 -0.976095 -0.135382 -0.856355 0.920385 0.092423 -0.152182 -0.055662 0.197217 0.088693 -0.523561 -0.246718 -0.023828 -0.423185 -0.123274 0.087997 0.066275 -1.041252 0.377235 0.171232 0.385337 0.319519 0.529565 0.264919 0.462609 0.400482 -0.266198 0.156213 -0.421352 -0.178322 -0.218850 -0.705077 0.402462 0.242268 0.560320
aha 1.182184 0.698788 -0.026242 0.647037 0.319888 -0.208656 0.033912 0.449849 -0.095249 0.561652 0.198459 -0.360514 0.445358 0.527472 -0.143497 0.110855 0.297389 0.849738 -0.216868 0.004563 -0.625280 -1.277293 -1.245064 0.180635 -0.338060 -0.000820 -0.294797 0.218386 0.227671 -0.491680 0.496394 0.533141 0.329127 0.063393 -0.736488 -0.074468 0.388569 0.187027 0.287765 -0.218526 -0.194458 -0.790391 1.012567 0.151566 0.768121 0.334667 -0.303430 -0.466573 0.118560 -0.056162 0.306842 0.143988 0.182241 0.118954 -0.558169 0.245447 -1.008641 -0.404169 -0.012387 0.270442 0.104827 0.275311 -0.684152 0.138996
from -0.477153 0.552062 0.168300 -0.393005 0.284009 0.544452 0.069338 0.245053 0.064151 -0.492197 -0.489961 0.262464 0.218679 0.099404 0.390640 -0.186356 0.218073 -0.012251 -0.638150 -0.179733 -0.282960 0.222738 -0.069684 -0.244824 0.053358 0.354038 0.403962 -0.462545 -0.854817 0.328126 -0.380417 -0.482643 -0.403144 0.908520 -0.185333 -0.202123 0.592729 0.012114 -0.291269 -0.672968 -0.025272 0.141794 -0.645183 0.188411 -0.334546 -0.030024 -0.232683 -0.028803 -1.076680 0.580548 0.003487 -0.845735 0.998865 0.568886 -0.948039 0.461871 0.041655 0.256323 -0.984244 -0.160076 0.608630 -0.158269 0.192657 0.328170
un@@ 0.309600 0.984268 0.366304 -0.328796 -0.000137 0.032923 0.433943 0.393493 -0.000308 0.405647 -0.597395 -0.339737 0.086891 0.368730 0.153461 0.176600 -0.617209 0.239640 0.215944 -0.107009 -0.275048 -0.251226 -0.755951 0.048533 0.190181 0.001188 -0.195100 0.499813 0.395363 -0.236534 -0.009255 0.655075 -0.430225 0.010106 -0.339361 0.286630 0.105548 0.435244 -0.385750 -0.094388 -0.283348 -0.335861 -0.246805 -0.256054 0.163062 -0.093438 -0.165342 -0.338859 -0.591136 0.595549 -0.655612 -0.105388 0.472302 -0.046368 0.203020 -0.721944 -0.993633 -0.212469 -0.111896 -0.158793 -0.698425 0.263725 -0.299105 0.310280
l 0.323530 0.171010 0.240514 0.617437 -0.329473 0.188238 -0.064823 -0.395663 0.357144 0.332057 -0.377268 -0.047009 0.195390 0.024155 0.016652 0.554663 -0.079798 -0.279881 -0.443128 0.717761 0.267303 -0.154274 -0.603999 0.265431 -0.710411 -0.063466 -0.171341 -0.249323 -0.160535 -0.204544 -0.003207 0.294222 -0.576144 0.110440 -0.494176 -0.042486 0.130394 0.630165 -0.140584 0.187320 0.277720 0.029764 -0.296963 0.438836 -0.255010 -0.270514 -0.037663 -0.287699 -0.278230 0.752365 0.517149 0.499432 0.411319 0.242203 -0.301361 0.536158 -0.855970 0.444128 -0.040464 0.406833 0.462362 0.469406 -0.351232 0.559661
uh -0.083384 0.030018 0.591910 -0.018098 0.014739 -1.001724 0.031691 -0.829096 0.262623 0.113359 0.880423 0.550605 0.412646 -0.506348 0.103066 -0.172808 1.004447 -0.223127 -0.162328 0.210202 -0.533595 0.782378 1.257809 0.605069 -0.701142 1.525619 0.279665 -0.390232 0.139119 0.613759 -0.905819 0.519088 -0.212549 0.026802 0.601668 0.429623 -0.325868 0.263142 0.009850 -0.470849 0.016091 0.114909 -0.521228 0.189500 -0.048095 0.231426 -0.432780 -0.091551 -0.505343 0.370350 0.425106 0.608720 -0.426971 0.850888 1.257501 -0.329318 0.041337 -0.411819 -0.416153 -0.203552 -0.605700 -0.380589 1.042168 0.319416
hi@@ -0.760958 -0.063233 -0.460394 -0.875889 -0.586298 0.231417 -0.437248 -0.497883 -0.515547 -0.398520 -0.086598 0.588199 -0.701866 -0.128899 0.606628 0.829027 0.070270 0.027878 0.134304 -0.104126 0.088081 -0.156770 -0.209024 -0.657959 0.904141 0.495471 -0.932745 -1.384494 0.017977 -0.142160 -0.729770 -0.505223 0.085375 -0.425208 0.515217 0.740366 -0.135328 0.336273 0.161996 -1.053369 0.041345 0.147775 -0.277693 0.128286 0.426489 0.280668 0.335553 -0.210957 -0.119896 -0.103784 0.252036 -0.670931 -0.036272 -0.982317 -0.410126 0.494796 0.769575 -0.029513 0.000375 0.484124 0.268694 -0.717747 1.007541 0.403381
with -0.416864 -0.063140 -0.513209 0.611708 -0.006587 -0.326202 -0.460565 -0.395147 0.361878 -0.136703 -0.017301 0.433193 0.899952 -0.262859 0.260155 -0.835528 0.895531 -0.646345 0.294459 -0.740236 -0.234506 1.296777 -0.463997 -0.257505 -0.331195 -0.126395 -0.084454 -0.517118 -0.513994 1.189692 -0.054180 -0.250097 0.276041 -0.126537 0.366585 0.252482 0.447132 0.061895 0.028250 -0.061201 0.131840 -0.004662 -0.771790 0.757528 -0.033604 -0.613606 0.515930 0.065432 -0.033049 0.019059 0.237361 0.644770 -0.194900 0.336564 0.639326 -0.602409 -0.044940 -0.058017 -0.735383 -0.945993 -0.427780 0.060468 0.367922 -0.071310
ne@@ 0.550062 -0.111349 0.770924 -0.140525 0.070517 -0.086151 0.013995 -0.548852 0.313589 0.184440 0.064115 -0.104771 0.839030 0.288642 -0.516763 -0.165398 -0.188676 0.449087 0.046304 0.183120 -0.524897 -0.509886 0.188700 -0.042772 0.435539 -0.706834 0.027740 -0.792796 -0.165822 -0.136054 0.083326 0.063293 -0.157058 -0.257566 -0.259321 0.599613 -0.345145 -0.012890 0.302873 0.185002 0.038174 0.734116 -0.415075 0.090737 -0.124657 0.183031 -0.348076 -0.049119 -0.376086 0.154157 0.534891 -0.102971 0.320680 -0.154509 -0.532039 -0.054015 -0.291416 0.088737 -0.255795 -0.001886 -0.057700 -0.418073 -0.252023 -0.585375
ic@@ -0.584230 0.328057 -0.199193 0.285974 0.169549 0.113438 1.298502 -0.061442 0.154117 0.052487 -0.202519 0.348509 0.392977 -1.014962 0.156416 -0.066698 0.184588 0.225431 -0.761318 -0.267304 0.046059 0.174239 -0.221144 -0.892790 -0.233230 -0.195569 0.591848 -0.280453 0.916744 1.300441 -0.023257 0.535978 0.106939 -0.587955 0.675036 -0.140830 -0.064654 0.328925 0.230433 0.152416 0.075856 0.052478 0.089133 0.195707 -0.347490 -0.073778 -0.372022 -0.312356 -0.184531 0.638883 -0.049070 0.225726 -0.318643 0.756444 0.341731 -0.243106 0.148634 0.349854 -0.175686 -0.566032 0.304149 -0.556078 -0.215260 -0.047956
ea@@ 0.317151 0.279919 0.123719 -0.345651 -0.067288 0.719189 -0.516796 0.121079 0.513837 0.013041 0.496674 0.083359 -0.338920 -0.632684 -0.643702 0.717148 -0.743608 -0.398838 0.237685 -0.693878 0.118930 1.101171 0.000875 -0.246896 0.761892 -0.360712 0.208964 0.685985 -0.977573 0.805335 0.603844 -0.163122 0.380323 -0.781789 0.072518 -0.252510 0.308876 -0.012263 -0.386138 0.059108 0.315455 0.173535 -0.757305 0.330160 -0.250475 -0.547472 0.294941 0.516263 -0.334266 0.206724 0.014740 -0.187111 0.841120 0.400728 -0.032620 -0.220649 -0.647095 0.321593 0.444875 0.619016 0.228264 -0.427719 -0.117130 0.821044
lo@@ 0.158134 -1.427946 -0.761953 -0.406888 0.048967 0.850054 -0.023738 -0.009531 0.267653 -0.042254 -0.132578 -0.459361 -0.587733 -0.041121 -0.026498 -0.234473 -0.748347 0.127869 0.042508 0.207424 0.476313 0.194434 -0.250075 0.542214 0.756932 -1.085057 0.234768 0.519084 -0.533550 0.146420 -0.871398 -0.012883 0.145564 -0.416926 0.333050 -0.233436 -0.421376 -0.705529 -0.068791 0.097375 -0.024234 0.164084 -0.660459 -0.062077 -0.518112 -0.143208 -0.267831 0.639374 0.612992 -0.009859 -0.674800 -0.036680 0.472062 0.168616 0.228166 0.252210 0.502352 0.773210 0.412795 -0.570118 -0.273370 0.412625 -0.893535 -0.278087
ay -0.657819 0.358803 -0.011916 -0.786745 -0.085558 -0.205410 0.347720 0.342226 -0.501141 -0.122527 -0.054676 -0.015181 -0.621720 0.064207 0.499638 0.366210 0.111518 0.432534 0.315095 0.526509 0.378381 0.728702 -0.237718 -0.108802 -0.625388 0.543979 0.097048 -0.852703 0.570124 0.457931 0.096783 -0.059124 -0.085482 0.567211 0.118448 0.427750 0.240956 0.840984 -0.417382 -0.441992 -0.318093 0.439322 -0.029458 -0.022586 -0.863994 0.098626 -0.131706 -0.619822 -0.429904 0.562214 0.182450 -0.220535 1.333544 0.060704 -0.370925 0.078574 -0.204093 0.371234 0.002396 -0.068738 0.293056 0.317786 0.463431 0.628302
ti@@ -0.076560 0.628307 0.024932 0.546766 0.071216 -0.378257 -0.475607 -0.219613 1.640722 0.439915 0.128115 -0.022060 0.243390 0.137754 0.904593 0.177659 0.435364 -0.499037 -0.339357 -0.803732 -0.297981 0.742650 -0.243958 -0.397041 -0.256464 0.636609 0.263992 0.445005 -0.341336 0.641732 -0.280130 -0.194649 0.269484 0.130135 -0.015341 0.339004 0.085167 0.131123 -0.636134 0.426217 0.595510 -0.495706 -0.096804 0.601578 0.833992 0.180245 -0.208317 -0.085313 -0.064195 0.165297 0.622490 0.606180 -0.011857 -0.003963 -0.202282 0.246994 -0.469840 -0.006361 -0.499314 0.170444 0.061835 -0.368786 0.305230 -0.105755
my 0.891108 -0.041919 0.246120 0.778231 0.463079 -0.189890 -0.180481 0.683381 0.419414 0.860315 0.084324 -0.508724 0.933714 0.929446 -0.621651 0.033621 0.028633 -0.226881 -0.365717 0.170356 -0.168721 -1.146703 -0.151923 0.259910 0.403842 -0.325706 0.289247 0.513581 0.078187 -0.848885 0.641787 0.801624 0.417330 0.356640 -0.410239 0.135604 -0.150209 0.158775 0.356209 0.737307 -0.110013 -0.172609 1.004791 0.330868 0.412911 0.702319 -0.244866 -0.652085 -0.527720 -0.458813 -0.231650 0.529435 -0.190032 -0.029219 -0.858875 0.207696 -1.006580 -0.365781 0.169483 0.279147 -0.668590 0.374054 -0.486018 -0.482734
an 0.860723 0.763652 0.175227 0.668894 0.653617 -0.428113 -0.113057 0.086451 0.236983 0.909564 0.610203 -0.637377 0.910155 0.430599 -0.097947 0.460246 0.092536 0.079573 0.540287 0.217364 -0.313328 -0.645787 0.304748 0.279955 -0.440047 0.147841 -0.401181 0.390099 0.435240 -1.029630 0.331602 1.468364 0.202963 0.650257 -0.009870 0.138208 0.098844 0.509132 0.402157 0.232471 0.063499 -0.499941 0.929149 0.210432 0.852323 0.243069 -0.194467 -0.227274 -0.180311 -0.057474 -0.072408 1.041364 0.351125 0.074778 0.070911 -0.483678 -0.081372 0.217072 -0.181913 0.178007 -0.484509 0.617173 -0.707110 0.219124
eh -0.603229 -0.607677 1.215909 0.133487 -0.046732 0.105329 -1.497167 0.362427 0.261689 0.494177 0.428267 -0.017953 0.115721 -0.392991 0.082869 0.566146 0.108708 -0.461073 -0.335195 -0.571641 -0.044486 0.036251 0.168157 0.275916 -0.309728 0.403011 -0.598136 0.400933 -0.235863 -0.413894 -0.164087 -0.267342 -0.562164 0.829960 -0.126340 0.280988 0.528370 0.198937 0.039494 0.151270 0.045369 -0.618227 -0.960063 0.670163 0.123611 -0.344277 0.393539 0.810867 -0.606710 -0.078134 -0.113318 0.044508 -0.621925 0.489454 0.514865 0.048052 0.536205 -0.284413 -0.014485 0.137994 -0.165692 -0.048848 0.438655 0.007148
all 0.155224 -0.915103 0.659294 0.350270 -0.761860 0.508668 -0.801818 0.157965 0.185269 0.387475 0.628062 -0.050813 -0.313284 -0.059138 -0.344342 -0.155239 -0.189532 -1.090499 0.513193 -0.333367 -0.180988 -0.398814 0.632797 0.758238 0.873421 0.293609 0.542571 0.470416 -0.813987 0.357767 0.208532 -0.338561 -0.415552 -0.085666 1.015905 -0.188023 0.107264 -0.336940 0.576533 0.286348 -0.072722 -0.028310 0.124989 -0.174647 -0.093260 0.060026 0.370257 0.354004 0.134082 -0.717694 -0.019393 0.099216 -1.353593 -0.499847 0.553317 0.291656 0.545835 -0.633794 0.278391 -0.425990 0.290069 0.433790 -0.480850 -1.044678
here -0.503091 0.150910 0.098053 -0.152628 -0.233087 -0.123680 0.335481 0.486954 0.060887 0.042317 0.428509 0.115669 -0.040020 0.248606 0.578098 0.540618 -0.130360 -0.102698 -0.133896 0.085473 -0.121927 -0.401533 -0.238128 0.017863 0.565378 -0.385239 -0.442095 0.057522 -0.002944 -0.447986 0.334983 -1.056976 -1.071288 -0.175233 -0.341875 0.167835 -0.391713 0.223588 -0.358076 0.664907 0.128773 0.065274 -1.070107 0.024885 0.344446 -0.301453 -0.426456 0.426903 -0.200128 -0.091064 0.120781 -0.064724 0.137999 -0.659039 -0.441604 0.119464 -0.582591 -0.009305 -0.569100 1.076424 -0.575495 -0.522369 -0.232755 0.526032
how 0.066761 0.239368 1.387505 0.631045 -0.351793 -0.814961 -0.153613 -0.409218 0.146891 0.042539 0.198711 0.136397 0.232560 0.245589 0.482311 -0.004442 -0.007884 -0.288764 -0.305721 -0.644958 -0.672199 0.418363 0.822345 -0.238253 -0.203632 0.660197 0.130187 -0.048977 0.139688 0.175659 -0.570031 -0.119787 0.706873 0.165802 0.504486 0.225461 0.330781 0.510029 -0.254264 0.532192 -0.015001 -0.158989 -0.205061 0.338813 0.109620 0.365317 -0.350060 0.041539 -0.005248 0.812519 -0.316287 0.808784 -0.695881 1.298874 1.096949 -0.398195 0.533577 0.549336 -0.677237 -0.585762 -0.098787 0.058944 -0.115643 -0.485837
this 0.740653 -0.234405 0.334591 -0.115847 -0.296983 -0.083192 -0.420559 0.668156 0.196389 -0.362997 -0.132255 0.133486 0.653006 -0.250177 -0.908845 -0.100444 -0.488774 0.222209 -0.266277 0.145782 0.406130 -0.655554 -0.642185 0.085953 0.209328 -0.255291 0.658340 -0.729172 0.422281 -0.361204 -0.450923 -0.346492 0.107088 0.239955 0.469005 -0.051606 -0.389698 -0.320376 0.338372 -0.615015 -0.107143 -0.672665 0.209415 -0.148210 -0.155665 0.032233 -0.556435 -0.317827 -0.189855 -0.905514 -0.024488 -0.492200 0.431860 0.040884 -1.139719 0.395164 -0.230091 -0.669790 0.158502 -0.818318 0.270311 -0.296222 -0.506104 -0.640920
le@@ 0.016775 1.043958 0.818966 0.053907 -0.225314 -0.286748 -0.280230 0.526938 -0.033232 0.324256 0.173946 -0.074379 0.562889 0.210578 0.440961 0.281624 0.506036 0.933339 0.684927 0.348729 0.546151 -0.465003 -0.813885 0.511266 0.022453 0.848280 -0.117233 0.424084 0.700970 -0.567541 -0.219771 -0.014862 -0.492895 0.415460 0.557732 0.834443 -0.415995 0.358555 -0.199059 0.141772 -0.307821 -0.615783 0.219794 -0.536252 0.188153 0.068828 -0.846962 -0.802286 -0.019642 0.663374 -0.382917 -0.092411 0.329455 0.641802 -0.032565 -0.148575 -0.606589 -0.142198 -0.359433 0.169939 -0.732441 -0.168509 0.373062 -0.238513
think 0.359717 -0.581860 0.911712 -0.276273 0.213018 0.084553 -0.276802 -1.107881 0.186763 0.118068 -0.314012 -0.578497 0.047146 0.807077 -0.490392 -0.617258 0.183907 -0.087865 0.409887 0.281918 0.655913 0.703552 0.343296 0.586151 0.059434 0.785564 0.465251 0.488437 0.070781 0.204305 0.000317 0.515827 0.311652 0.442471 -0.420232 -0.004126 -0.528398 -0.775750 0.133244 -0.457984 -0.049272 -0.582118 0.633692 0.025966 -0.137592 -0.070418 -0.097114 -0.383081 0.387925 -0.166175 -0.576556 0.890503 -0.040813 0.902405 0.981113 -0.533876 0.102295 -0.403744 0.409829 -0.403895 -0.079942 -0.065935 -0.182841 0.153435
it@@ -0.205332 0.174579 0.112678 -0.053450 0.088314 0.093152 -0.105831 0.162780 -0.546425 -0.163434 -0.192733 0.829900 -0.858476 0.675752 -0.215559 0.320918 0.456850 0.144360 0.312743 0.666568 0.338265 -1.171156 0.477175 0.299108 -0.350702 0.415086 -0.310271 0.185259 0.315255 -1.102033 0.106906 -0.332016 -0.528413 0.144516 -0.451495 0.246356 0.231385 0.447657 0.139239 -0.560026 -0.709948 0.318489 -0.060761 0.418859 0.160720 0.192382 0.116856 0.160139 -0.398403 -0.076237 0.134744 -0.799262 0.964101 -0.503799 -0.472042 0.211908 0.376770 -0.393091 0.083573 0.648531 -0.015180 0.353588 0.074658 -0.340327
if 0.087107 -0.117760 0.025607 -0.008633 0.284640 0.413108 0.271721 0.115074 0.114332 0.023980 -0.369764 0.678341 -0.140564 0.355987 -0.162650 -0.275990 -0.276305 -0.030626 0.170990 0.111972 0.344471 -0.212942 0.583019 -0.240977 0.078698 -0.562012 0.252767 0.213019 0.329356 -0.458916 -0.249936 0.270708 -0.133602 0.256028 0.175382 -0.412539 -0.329048 0.557159 -0.058294 -0.419969 -0.173086 0.369105 0.702514 0.474696 0.057339 0.225551 0.215438 -0.138468 -0.178886 0.524710 0.369337 0.211447 0.781152 -0.375834 -0.289914 0.684463 -0.115056 0.516041 0.458575 -0.154099 -0.319963 0.266898 -0.681075 0.126671
we 0.068236 0.597329 0.594820 -0.119170 0.272318 -0.437194 0.286172 -0.079309 0.071444 0.373106 0.094244 0.521418 -0.352322 0.988968 0.381945 -0.082020 0.931349 -0.349099 0.540478 -0.350751 0.326443 0.199299 0.282540 -0.420505 -0.768142 0.711636 -0.174091 -0.173431 -0.177300 0.006394 -1.165939 -0.268939 -0.717050 0.398520 -0.919999 1.191825 0.278117 1.142878 0.071150 -1.463310 0.011184 0.126485 0.218592 0.166370 0.085981 0.143913 -0.395684 0.373816 -0.995516 0.244564 -0.068243 -0.122970 0.960036 0.229717 0.296869 -0.194111 -0.494039 -0.328316 -0.692471 0.469329 -0.784912 0.607871 0.438973 0.275612
very 0.451657 0.525202 0.477255 0.470593 0.142134 0.019020 0.311945 0.673779 0.063446 0.216119 -0.287051 0.065194 -0.130896 0.400186 -0.076266 -0.899075 0.025332 0.497989 0.124188 0.170629 0.455598 -0.158227 -0.477235 0.184370 -0.491997 0.047584 0.040599 -0.519685 1.099501 0.214439 0.293607 0.572988 0.271826 0.174238 0.092720 -0.359111 0.039800 -0.201929 -0.436942 0.328431 -0.370948 -0.780722 0.811330 -0.524051 -0.158789 0.299520 -0.173862 -0.738417 0.377843 -0.104754 0.239705 0.365640 0.095509 0.397320 -0.083841 -0.155183 -0.395931 0.440616 0.049795 -0.123475 -0.035504 0.206761 -0.020546 -0.301536
people -0.474472 -0.287662 0.499759 0.203772 -0.334516 -0.202794 -0.948837 -0.394505 0.537897 0.236530 -0.111096 -0.053115 0.369754 -0.236520 0.263371 0.260810 -0.130502 -1.424846 -0.402890 -0.806434 -0.430349 0.555236 0.326887 0.938183 0.302365 0.173287 -0.386338 0.685700 -0.693856 -0.741239 -0.505277 -0.075884 0.076460 -0.385039 0.339714 -0.811240 -0.630158 -0.133638 0.086021 0.383161 0.278023 0.041557 -0.341275 0.264223 0.093280 -0.491391 0.384770 0.579549 0.441444 -0.259800 0.292857 0.362949 -0.522104 -0.859777 0.275251 -0.226644 0.394176 0.681402 0.039227 0.588963 0.452244 0.272459 0.009102 -0.259976
to@@ 0.168112 0.131546 0.554038 0.460260 0.582999 -0.350261 0.212105 -0.240891 0.102986 0.214938 -0.408271 -0.518891 0.639204 0.402531 -0.418146 0.123313 -0.076298 -0.793237 -0.275045 -0.105558 0.065931 -0.773106 0.107305 0.301486 -0.106688 -0.604870 -0.109036 0.364415 0.801441 -0.654865 0.623422 0.598823 0.542260 0.271278 0.466296 -0.632472 0.101002 -0.113517 0.504847 0.531435 0.337975 0.606483 0.752276 0.255281 0.058498 0.650370 0.404847 -0.811150 0.513269 -0.187309 0.087974 1.338870 -0.054223 0.320432 0.290945 -0.003122 -0.182607 0.050416 -0.147033 0.362546 0.394761 0.509380 -0.550626 -0.384429
that's -0.069348 -0.059541 -0.198468 0.316502 -0.505224 0.011701 -1.067320 -0.864141 0.235201 -0.203480 -0.031488 0.208519 0.201028 -0.088319 0.308208 0.333759 -0.204640 -0.174021 0.413396 0.352759 -0.768166 -0.330258 -0.290382 0.090060 0.690587 0.345938 0.323557 0.127901 -0.680624 0.364736 -0.096955 -0.245776 -0.458756 0.493671 -0.410265 -0.213858 0.060107 -0.367705 -0.166095 0.198845 0.242962 -0.483022 -0.635067 0.643721 -0.092178 0.461309 0.170854 0.407985 0.385300 0.037702 0.793998 -0.144297 -0.099270 -0.183947 0.620354 -0.213461 0.183056 -0.641861 -0.673083 -0.021137 0.120604 -0.238034 0.663662 -0.169949
i'm 0.363809 0.073307 -0.099932 0.072874 0.203816 0.901126 0.606625 1.103541 -0.040671 -0.133500 -0.225519 -0.335829 -0.619813 -0.547406 -0.304604 -0.580695 -0.263047 0.369424 0.192084 -0.130832 -0.058518 0.131517 0.242302 0.102459 0.043967 -0.044340 0.064547 -0.804124 0.287952 0.442561 0.402115 0.134914 0.273272 0.008328 -0.618786 0.033437 0.557675 -0.493633 -0.030483 -0.887828 -0.038938 0.222637 0.157033 -0.716627 -0.432591 -0.057951 0.359976 -0.892881 -0.520833 0.173169 0.045253 -0.729421 0.458623 0.147179 -0.186704 -0.476666 0.132466 -0.220691 0.512463 -0.285300 0.079606 0.164927 0.447473 0.450294
sure -0.391275 -0.765868 0.604918 0.383999 0.219817 -0.024218 0.095318 0.070150 0.168638 -0.070491 0.006624 -0.197076 -0.392863 -1.088025 -0.021861 -0.024449 -0.117692 -0.597063 0.268149 -0.427569 -0.251840 0.212607 0.415573 -0.243050 0.475109 -0.322543 0.169570 0.055571 0.284496 0.346159 0.294092 0.133316 0.004972 -0.344002 1.223241 -0.487676 0.148924 -0.290389 -0.396868 0.408091 0.534570 0.057437 -0.056160 0.758580 -0.109442 1.112179 0.100219 0.030665 0.114283 0.164075 -0.110528 0.397654 -0.992598 0.372519 1.025161 0.125308 0.183358 0.002090 -0.100098 -0.580007 0.660860 -0.173289 -0.020775 0.357329
tr@@ 0.068461 0.046444 0.319963 -0.023914 -0.521917 0.008633 -0.786874 -0.071235 0.477358 0.443507 0.174315 0.050631 0.660182 -0.204888 -0.080349 0.827152 -0.871558 0.063407 -0.053097 0.198381 -0.552197 0.534182 0.247386 0.697689 0.161574 -0.277915 0.874239 0.447468 0.173792 -0.306550 -0.903778 -0.495204 -0.311366 0.494771 -0.225803 -0.168214 -0.232880 0.152810 -0.229884 -0.253317 0.140419 -0.354371 -0.532869 0.675583 0.709752 0.102684 0.418607 0.057705 0.720331 0.291081 -0.298188 -0.422237 -0.071381 0.206535 0.459715 0.138514 -0.218511 0.497209 0.172571 0.183995 -0.559503 -0.391060 0.071767 -0.235700
sa@@ -0.772455 -0.155592 0.032180 0.056248 0.104823 -0.890378 -0.364707 -0.806935 0.405732 -0.232586 -0.283471 0.207329 -0.171340 0.300548 -0.405780 -0.471211 -0.916701 -0.591581 0.218313 0.098583 0.497453 0.993239 0.213879 0.036303 -0.261870 0.406359 -0.234178 -0.101933 -0.284572 0.258733 -0.828585 -0.099838 0.105087 0.267079 -0.171275 -0.143032 -0.551468 -0.119014 -0.640304 -0.169521 -0.287267 0.256204 0.052035 0.255230 0.155653 0.500567 -0.004552 0.337207 0.322625 0.091482 -0.272448 0.548360 1.136579 0.253512 0.215292 0.144837 0.235432 0.964518 -0.021894 -0.158073 -0.020420 0.527776 -0.222216 0.539354
ma@@ -0.604544 -1.682782 -0.156810 0.004289 0.066712 -0.051469 -0.673487 -0.330415 -0.174492 -0.556756 0.312573 -0.024729 0.164045 -0.457200 -0.227601 -0.045250 0.473561 -0.425703 -0.438828 -0.541707 -0.304949 0.094224 0.796414 0.513019 0.337721 -0.546735 0.284171 -0.119168 -0.911243 0.230250 0.112374 0.094468 -0.026228 -0.374779 -0.420498 0.122048 0.180966 -0.204693 0.312651 -0.289186 0.463005 0.053774 -0.675631 -0.165988 -1.086598 -0.274689 0.958629 0.763554 0.143362 -0.355510 -0.531364 0.194594 -0.413377 0.497575 0.089739 -0.263200 0.387879 -0.062788 0.705778 0.321966 -0.429954 -0.285182 0.439433 -0.580662
ha@@ -0.069745 -0.762226 -0.640290 -0.604804 0.071843 0.302592 -0.595760 -0.210127 -0.354756 0.258486 -0.086137 -0.181578 -0.099588 -0.462492 0.039846 0.097310 -1.093283 -1.040950 -0.637031 -0.000577 0.123439 0.854659 -0.131488 0.261551 0.736523 -0.554449 0.344269 -0.065010 -0.549672 -0.363952 0.118846 -0.854413 0.098510 -0.356445 -0.002699 -0.513154 -0.045377 -0.684778 -0.154680 0.957259 0.079228 -0.212485 -0.374221 0.077538 -0.278218 0.077750 -0.072824 1.272584 0.360335 0.147139 0.086386 -0.670910 -1.019917 -0.039936 0.559365 0.035597 0.456974 0.324832 0.144739 -0.085959 0.175996 -0.375204 -0.115761 -0.494292
ent 0.117988 -0.647737 0.276066 0.209164 -0.213396 -0.227895 -1.062969 -0.327881 -0.258954 0.492337 0.312326 0.548133 -0.045305 1.356067 0.155720 -0.631040 -0.006929 -0.048600 1.002789 0.459250 -0.064743 0.199553 0.559310 1.106172 -0.667630 0.449474 -0.317522 0.675015 -0.209647 -0.876859 -0.367381 -0.168626 -0.654080 0.820414 -1.100247 -0.235499 -1.045724 -0.192402 0.102239 0.058662 -0.055789 -0.560684 -0.066003 0.589491 -0.088616 0.067711 -0.255457 0.702247 -0.776350 -0.644010 -0.301854 0.166888 0.178831 0.533415 0.270307 0.103930 0.078638 -0.279671 -0.001676 -0.033580 -0.676251 -0.448473 0.458310 0.107280
be -0.015813 0.110402 -0.847928 0.358400 -0.070774 0.391790 0.076883 0.151290 -0.241086 -0.325516 -0.751442 -0.065258 -0.404785 -0.168441 0.353766 0.126651 -0.507851 0.077110 -0.299337 -0.212976 0.331073 -0.084040 -0.684717 -0.691101 0.659109 -0.587938 -0.595222 -0.514774 -0.217180 0.490972 -0.161070 -0.285228 0.574200 -1.121703 0.119331 -0.228198 0.672827 0.219717 -0.329731 -0.910208 -0.229286 0.442049 -0.536348 -0.215949 -0.194508 0.142656 0.515602 0.134807 0.326810 -0.092669 -0.034409 -0.259310 0.861754 -0.436599 -0.643613 -0.221014 0.441844 -0.026978 -0.031677 -0.044789 0.251366 0.360021 -0.418373 0.782290
ca@@ 0.352303 -0.091513 -0.395490 -0.395591 0.251264 0.027270 -0.492696 0.189281 0.662923 0.038044 0.555687 0.491943 0.203187 0.668798 -0.742908 -0.673132 -0.916881 0.225288 0.270884 0.554161 -0.072518 0.492312 -0.125566 0.020496 -0.309527 0.120018 0.167782 0.474092 -0.380942 0.006840 -0.677211 -0.452551 -0.486367 1.146934 -0.506487 -0.228506 -0.644794 -0.823997 -0.661494 0.046535 -0.076572 -0.073162 -0.282818 -0.441079 -0.370326 0.066863 -0.203122 0.974312 0.378655 -0.101156 0.096812 -0.530504 0.869480 -0.285340 -0.164465 0.524654 0.260449 0.159167 -0.023716 0.571736 -0.567530 0.536023 -0.101042 -0.590583
wa@@ 0.158738 0.228065 -1.002466 -0.676617 0.030807 0.531976 0.722224 0.361483 -0.311856 -0.494512 -0.839025 0.057504 -0.367115 0.242454 -0.120476 -0.477922 -0.549729 0.699101 -0.412281 0.089433 0.669737 0.395807 0.082864 -0.527855 0.035492 -0.269843 -0.003539 -0.882837 0.077971 0.093913 -0.362749 0.139537 0.407853 -0.456330 0.359999 0.333799 -0.375140 0.500596 -0.007039 -0.807527 -0.184180 0.343340 0.204734 -0.703768 -0.169458 0.027704 0.179780 -0.238828 -0.003291 0.295569 0.041740 -1.026748 1.281704 -0.214667 -0.587946 0.093173 0.109773 0.375842 0.673418 -0.229564 -0.354595 -0.087187 0.006767 0.304673
cou@@ -0.718300 -0.346651 0.234979 -0.492896 -0.083678 -0.265911 -0.470983 -1.223397 0.356452 -0.039531 0.500202 0.427775 -0.577308 0.022477 0.376675 0.130975 0.056163 -0.377708 0.585760 -0.301887 -0.232934 0.633209 0.833733 0.314301 -0.373739 -0.521366 -0.260302 0.040488 -0.462116 0.498358 -0.486123 0.322451 -0.121882 0.298772 0.291703 0.337164 0.478048 0.173032 -0.724704 -0.249904 0.788911 0.339773 0.113605 0.124721 -0.246810 -1.005783 0.910463 0.952325 -0.394421 0.180989 0.127029 0.187740 0.071476 0.090049 0.678117 -0.313104 -0.043438 0.011546 -0.965067 0.199701 0.166750 -0.274256 0.625064 -0.019631
h -0.117642 -0.486539 0.148496 -0.565380 0.119454 0.418955 0.049505 0.182990 -0.267882 -0.128572 -0.275792 0.147633 0.088182 0.291079 -0.444861 -0.380437 -0.139549 0.000474 0.374260 0.279462 0.004638 0.402260 -0.267908 -0.125866 0.264628 -0.101639 0.390829 -0.619098 0.191343 0.114586 -0.211156 -0.090672 -0.070217 0.347348 0.470439 -0.080371 -0.074323 0.331057 0.018018 -0.697804 -0.307170 0.939271 -0.039264 -0.194493 -0.505607 0.133796 0.148555 -0.309717 -0.080310 -0.274239 0.418175 -0.075145 0.390425 -0.049327 -0.157849 0.231062 0.539128 -0.073316 -0.113512 0.113032 0.130434 -0.235761 0.801667 -0.595823
he 0.353072 -0.263721 0.188759 -0.012443 -0.154407 -0.136295 0.170400 -0.561728 0.275550 -0.306232 -0.524295 -0.759262 0.522963 -0.593915 0.177133 -0.152734 -0.589990 -0.122199 -0.143464 -1.058798 -0.229929 0.440483 -0.168498 0.277572 -0.286951 0.296168 0.135475 -0.737261 -0.361998 0.572862 -0.195327 0.445868 1.098238 0.041937 0.081805 -0.582133 -1.034696 0.038777 -0.366600 0.331704 0.153594 -0.700740 0.049412 -0.276911 0.281273 -0.176441 -0.206118 0.406552 -0.178509 0.807462 -0.209592 0.226012 -0.391442 0.239924 -0.312696 -0.176019 -0.444439 0.156740 0.291313 0.112133 -0.857642 -0.081191 -0.123159 0.658700
w 0.562301 0.762443 0.152057 0.134654 -0.064040 -0.001114 0.691689 0.657711 0.039154 0.555457 -0.323379 0.077035 0.117049 0.674358 -0.184886 0.063255 -0.039330 0.229441 0.246926 -0.102586 -0.476787 -0.072661 -0.287382 -0.129816 -0.488007 0.216572 0.098015 0.475218 -0.021149 -0.869812 -0.170651 0.739654 -0.165467 0.219668 -0.732380 0.164918 0.050330 0.231692 0.442598 0.077550 -0.052641 0.222484 0.349250 0.085333 0.219446 0.049498 -0.155780 -0.295146 -0.376423 0.398202 -0.107924 0.303611 0.678396 0.003569 0.146570 -0.380470 -0.623905 -0.127109 0.005645 0.249705 -0.064935 0.175665 -0.002124 -0.211042
good -0.627963 0.398562 -0.179319 -0.676003 0.178570 0.302741 0.292982 0.390334 -0.032122 -0.265338 -0.821803 0.526825 -0.171081 -0.571186 0.177241 0.222360 -0.089487 0.426621 -0.817299 -0.017787 0.255963 -0.242032 -0.576548 -0.894023 -0.123089 0.040348 0.615701 -0.492862 -0.497663 0.771339 -0.135080 -0.508825 -0.474775 0.133852 0.620288 -0.173493 0.218530 0.022160 -0.660533 -0.475496 0.097427 0.232354 -0.433294 -0.077683 -0.079206 0.195067 -0.248711 -0.607548 0.279534 0.627605 -0.323268 -0.643431 0.233104 -0.075602 -0.260811 -0.032727 -0.649709 0.516934 -0.016195 -0.143869 0.134306 -0.290344 0.082198 0.063167
mu@@ -0.731995 0.362707 0.302627 -0.110368 -0.601043 -0.094758 -0.274868 -0.156754 0.511029 0.027716 0.025356 -0.141785 0.155321 0.404055 0.493708 -0.473423 -0.233595 -0.242747 0.100052 -0.219204 0.112921 1.275321 0.159408 0.446174 -1.191636 0.697609 0.261386 -0.185644 -0.070897 0.437029 -0.828783 0.341944 0.082657 -0.021774 0.386948 -0.504380 0.012752 0.127653 -0.543113 0.043894 -0.093228 -0.559675 0.009534 0.376431 -0.006821 -0.479217 -0.059472 0.674347 0.179651 0.286438 0.184042 0.009566 0.388967 0.638852 0.626703 0.035516 0.234311 0.333424 0.223113 0.165340 -0.312670 0.291356 -0.012978 0.752634
sp@@ 0.191226 -0.089260 0.488630 0.636109 0.174915 -0.187217 -0.494457 -0.433178 0.511169 0.318092 0.477207 -0.626041 0.106112 -0.180306 0.321783 0.511881 -0.571707 -0.485392 0.319368 -0.570796 -0.199105 -0.006705 0.394141 -0.068283 0.220345 0.146616 0.086082 1.012755 -0.419806 0.442789 -0.884441 -0.039982 0.125440 -0.292136 0.119133 -0.144170 -0.017737 -0.256821 0.717934 0.187395 0.859276 -0.005221 0.536192 0.768713 0.146604 0.129805 0.319747 -0.159811 0.089230 -0.104080 0.005243 0.826958 -0.636369 -0.280198 0.805477 -0.432432 0.436574 -0.021592 -0.092355 -0.516732 -0.214973 0.233388 0.039300 -0.634530
am@@ 0.231524 -0.033286 0.339072 0.583762 0.035285 -0.262483 -0.248516 -0.155713 0.352049 -0.388156 0.186586 -0.241471 0.553684 -0.450115 0.425714 -0.033119 0.256243 -0.625414 0.169014 -0.510958 -0.101251 0.092975 -0.079824 0.502209 0.559058 -0.023919 0.015888 0.062833 -0.588615 0.192495 0.203931 -0.312936 0.368879 0.305496 0.376446 -0.245534 0.273144 0.311805 0.211091 0.476939 -0.005943 -0.273730 -0.058007 0.157163 0.279273 0.017720 -0.064449 -0.230525 0.224701 -0.067262 0.667679 0.113939 -1.013846 0.353605 0.541819 -0.514776 0.089354 -0.238697 -0.263186 -0.393508 -0.492240 0.435481 0.325262 0.225374
yeah -0.120096 -1.225811 0.054756 -0.098801 -0.410175 0.826221 -0.439802 -0.441804 -0.003764 -0.435337 0.440303 0.264373 -0.011433 0.339699 -0.525729 -0.319247 -0.148361 0.137086 0.309113 0.696287 -0.054871 -0.795089 -0.079475 1.249973 0.700800 -0.164175 0.431126 0.534862 -0.142909 -0.971297 0.230101 -0.018483 0.181708 0.639053 0.162467 -0.336416 -0.937607 -0.620455 0.445545 0.568560 -0.643462 -0.123168 -0.420205 -0.077999 -0.455278 0.536372 0.403807 0.485353 0.404435 -0.666768 0.449735 -0.445304 -0.264517 -0.181673 0.190611 0.732245 0.220275 0.137557 0.241025 0.081769 -0.657932 -0.377067 -0.770941 -0.813580
at -0.455443 -0.076248 0.286985 -0.142375 -0.127276 -0.336750 -0.551997 0.350463 0.746382 0.128634 -0.043917 -0.086268 -0.171215 -0.761861 -0.184954 0.703647 -0.165338 0.056330 0.166593 -0.262365 0.153464 0.379947 -0.095511 -0.071543 0.778082 0.697155 -0.225407 0.198213 0.263960 0.308329 -0.555527 -0.676092 -0.317491 0.364345 -0.273585 -0.098684 0.354312 -0.130663 -0.327433 -0.335573 0.335304 -0.203687 -0.113499 0.109398 -0.721285 -0.468771 0.233456 0.649449 0.415048 -0.400822 -1.020938 -0.018100 0.515401 1.000108 0.748753 -0.720289 0.556887 -0.383237 -0.132575 -0.309413 -0.004258 0.037978 -0.194956 -0.081417
more 0.203291 -0.696450 0.044499 -0.064653 0.229936 0.041197 -0.499287 -0.042305 -0.251244 -0.434578 -0.324771 -0.360189 0.419073 0.145757 -0.332624 0.774836 0.154743 -0.495166 0.262849 0.284435 -0.263809 -0.212399 0.097312 0.321261 0.874027 -0.446474 -0.619161 0.361842 -0.641646 -0.011796 -0.076197 -0.422076 0.049468 -0.682458 -0.346372 0.157317 0.562857 -0.438072 0.860970 0.171830 -0.055720 0.198223 -0.458736 -0.405043 -0.508251 0.343604 -0.167228 -0.584620 -0.755837 -0.036255 0.048738 -0.280341 -0.216228 -0.797905 -0.287563 -0.637312 0.049160 -0.300632 -0.194764 0.316443 0.103404 0.118006 -0.362498 -0.188417
ad@@ 0.182253 -0.633298 -0.747608 -0.270594 0.096295 0.377069 0.003060 0.533403 0.017169 -0.039517 0.326360 0.167872 0.312205 -0.054947 0.291861 0.163901 0.416163 0.152857 0.093341 0.352343 -0.127178 -0.835121 -0.174582 0.104378 0.430968 -0.137235 -0.128338 -0.674534 -0.150560 0.069151 0.248734 -0.104596 -0.184711 0.374807 -0.482001 -0.066579 0.031009 -0.543805 -0.578401 0.148803 -0.899597 -0.114987 -0.585939 -0.344759 -0.241569 -0.152418 -0.215910 0.048716 0.440443 -0.255020 -0.135599 -0.700050 0.031054 -0.436412 -0.519082 0.247695 -0.152462 -0.886904 -0.305414 0.091309 0.176017 -0.462469 -0.001960 0.014850
can -0.070095 -0.010688 0.663901 -0.122532 0.327709 0.103157 -0.651780 0.445728 0.269139 0.016717 0.156278 0.152834 0.444014 -0.453854 -0.454321 0.224563 -0.115261 0.172219 0.053216 -0.109894 0.099224 -1.024478 0.477560 -0.583684 0.752853 0.536049 0.405897 0.038407 0.033694 0.286802 -0.513535 -0.037412 -0.574175 0.546317 0.475369 0.386329 -0.239247 0.339268 -0.049675 0.223216 0.170471 0.837305 -0.163538 0.228328 0.163282 -0.149384 -0.925984 -0.077666 -0.530428 -0.227972 0.051619 -0.644853 0.221905 0.084722 -0.320933 -0.133317 0.605251 -0.597850 -0.046559 -0.062981 -0.355252 -0.468685 0.163363 -0.304130
co@@ -0.455183 0.221856 -0.346789 -0.138678 0.394544 -0.664057 0.693187 -0.501333 0.316735 -0.103302 -0.491572 0.015560 0.311330 -0.544784 -0.050961 -0.117604 -0.384774 -0.266747 0.339170 -0.195596 -0.533305 0.963704 0.629352 -0.647089 -0.313535 0.257208 -0.182040 0.466595 0.784807 0.190098 0.420676 0.437344 -0.170889 0.081059 -0.726796 0.215977 -0.145097 -0.303306 -0.603150 0.774666 1.179659 0.678660 0.233762 0.118661 -0.330373 -0.016340 -0.071636 0.537048 -0.289480 0.687858 -0.319607 0.369356 -0.187404 0.301691 0.623969 -0.549998 0.003068 0.023018 -0.345839 -0.222387 0.779015 0.199245 0.332965 0.705119
go 0.029211 -0.181369 -0.808221 -0.491029 0.033835 -0.071468 0.237157 0.446892 0.255034 0.354841 -0.353137 -0.178994 0.074481 0.217642 -0.458568 -0.367345 0.063997 0.343622 -0.830631 0.350512 0.044034 -0.296550 -0.390292 -0.661611 -0.425363 -0.511618 0.788308 -0.544429 -0.501879 0.058334 -0.470910 -0.003629 -0.434549 -0.459474 -1.140456 -0.285593 0.155095 0.627199 -0.171256 -0.876026 0.041024 -0.473829 -0.369521 -0.327465 -0.429816 0.310549 -0.548394 0.058222 0.423661 -0.135309 -0.398019 -0.527466 0.434606 -0.069624 0.036817 0.234169 -0.519485 -0.681407 -0.514678 0.583691 -0.058464 -0.217966 0.311442 0.279805
do@@ 0.452975 0.358154 0.217678 0.320726 0.254510 -0.465128 0.194586 0.172978 -0.445675 0.120121 -0.126383 0.026153 -0.077071 0.029029 -0.048971 -0.216629 -0.346781 0.058790 -0.081478 0.221457 0.544182 0.466192 0.263797 -0.536859 -0.774140 0.169445 0.113699 -0.059177 0.988035 -0.153621 -0.844692 0.443766 0.508779 -0.069642 0.215842 0.337887 0.002660 0.423977 -0.094845 -0.464440 -0.114420 0.295196 0.288602 -0.169388 -0.129849 0.267835 -0.485045 -0.568730 0.063548 -0.112939 -0.331517 0.260484 0.487695 0.039943 -0.016313 -0.176091 -0.342376 -0.148898 -0.160625 -0.170621 -0.049313 0.540065 0.781751 0.223150
ce 0.828464 0.477257 0.202595 0.917554 0.396839 -0.293801 0.062507 0.298212 -0.112953 0.867221 0.268251 -0.550216 0.876120 0.353669 0.122592 0.060354 0.000563 -0.141081 0.553219 0.079240 -0.889326 -0.723905 0.586268 -0.077043 -0.032802 0.378265 0.103736 0.459614 0.345007 -0.577661 -0.185298 1.236316 0.232675 0.265977 0.098481 0.056455 -0.025698 0.304289 0.369752 0.589710 0.807164 -0.274373 0.814776 -0.062313 0.806834 -0.023135 -0.282037 -0.151644 -0.860975 -0.087173 0.101171 0.903087 -0.102938 -0.039733 -0.239634 0.007344 -0.666665 0.038330 -0.132593 0.610399 -0.714523 0.331222 -0.227640 0.117391
c -0.579028 0.227201 0.589329 -0.425378 -0.300736 0.017254 -0.560565 -0.449323 -0.176910 0.047326 0.534123 0.804198 -1.073093 0.847493 0.648788 0.091489 0.541157 -0.320711 0.719437 0.069189 -0.027694 -0.559541 1.059438 0.152587 -0.333540 0.714510 -0.853531 -0.285284 0.009163 -0.832940 -0.354601 -0.040031 -0.474520 0.002244 -0.053684 0.965213 0.506412 0.998498 0.458135 -1.026631 0.219766 0.607731 -0.113224 0.198726 -0.331575 -0.269337 0.453312 -0.187429 0.066336 -0.447758 -0.032231 0.244449 0.431009 -0.480185 0.102038 0.004770 0.627665 -0.837458 -0.742009 0.720599 -0.159661 -0.033539 0.887257 -0.261059
wor@@ 0.561055 0.002635 0.589387 0.206922 0.023225 0.160661 0.300893 0.182554 -0.287159 0.376183 0.288534 0.457120 0.380848 0.668134 -0.258286 -0.114375 0.153457 0.098901 0.016762 -0.069218 -0.207746 -1.074033 0.828088 -0.198250 -0.369418 0.180018 -0.196637 0.601839 0.148539 -0.836985 -0.049740 0.488054 -0.269120 0.105546 -0.519031 0.432334 -0.107896 0.546540 0.811449 0.284846 0.318264 0.315156 0.650958 0.216885 0.126688 0.177798 0.201768 -0.304607 -0.468231 -0.169662 0.187257 0.645061 0.018395 -0.369404 -0.064155 0.212665 -0.631066 -0.502634 -0.007023 0.288678 -0.013805 0.671808 -0.113366 -0.098379
ch 0.933207 0.399243 0.637146 0.454526 -0.314449 0.215631 -0.673313 -0.035156 0.014772 0.379905 -0.356201 -0.401608 0.392248 0.314244 -0.852623 0.155432 -0.178074 0.214834 0.315329 -0.403853 0.059396 -0.731446 -0.498814 0.253793 0.451983 -0.410542 0.423758 0.625131 -0.212475 -1.139716 0.069857 0.818596 0.120716 0.468718 0.173065 -0.754954 -0.323184 -0.180359 0.608209 0.606750 -0.631378 -0.053800 0.580652 0.505161 0.407656 0.786630 -0.375792 0.058697 0.456733 -0.220121 -0.206667 0.541770 0.105587 0.400466 -0.297091 0.205226 -0.209873 0.400242 0.406611 0.351334 -0.353947 0.142841 -1.648519 -0.126058
