<unk> 0.057684 0.039612 0.039692 0.051665 0.067073 0.084506 0.051521 0.038880 -0.040000 0.067339 -0.071502 -0.095960 0.002612 -0.055272 -0.061278 0.067209 -0.061353 -0.068667 0.043058 0.011723 -0.062949 0.028868 -0.030264 0.021885 0.050827 -0.016372 -0.095548 0.088176 -0.098832 -0.058968 -0.062665 0.075042 -0.032268 0.022321 -0.065453 -0.011179 -0.018392 0.089924 -0.077890 0.081049 -0.018194 0.083429 -0.081054 -0.049919 0.061967 0.035505 0.039370 0.013683 0.013491 0.052715 -0.015380 0.099622 -0.026297 -0.099872 0.080765 -0.069007 -0.049613 0.042223 0.039210 0.093912 -0.098857 -0.027342 -0.094045 0.094896
<blank> 0.055233 -0.019931 -0.069931 0.074532 -0.016402 0.097133 0.049957 -0.089440 0.045562 -0.085480 0.000814 0.027102 -0.009622 0.062434 0.015444 -0.031519 -0.078229 -0.012217 -0.060161 0.057304 0.032006 0.020420 -0.099813 0.026362 0.022508 0.031772 0.086292 0.039654 0.000104 0.087939 -0.039028 -0.037445 -0.040708 0.091159 0.050193 -0.035368 0.021239 -0.018281 -0.099244 -0.002315 -0.036166 0.046121 -0.019849 -0.075081 0.050513 -0.012005 -0.033504 0.099833 -0.011903 -0.077237 0.030752 -0.053539 0.093393 0.084889 0.063626 -0.016955 -0.068659 0.015541 0.079640 0.084009 0.056810 0.098545 -0.026690 0.041821
<s> 0.126819 0.474106 -0.391396 -0.693075 -0.065441 0.201694 0.104453 0.106906 0.300727 0.333797 -0.036349 0.307817 -0.020439 0.109081 -0.152104 0.202385 0.385224 -0.063925 -0.001236 0.657223 0.335351 -0.185511 -1.010919 -0.385374 0.635841 0.192472 0.704790 -0.905268 -0.399922 0.155569 0.110642 0.389022 -0.932988 0.649327 -0.161566 -0.443423 -0.492582 0.527908 -0.306693 -0.655476 -0.870419 -0.248472 -0.589098 -0.711371 0.364071 -0.118723 -0.781019 -0.721418 -0.517069 0.720991 0.477316 -0.564563 0.482801 0.317770 0.056244 0.604185 -0.139761 0.107471 0.394999 -0.426580 0.301137 -0.223087 -0.006468 0.757582
</s> 0.270106 0.483850 -0.081685 0.041396 0.270850 1.021052 -0.307117 0.607343 0.241150 0.305013 0.070938 0.334726 -0.099175 1.075813 -0.463540 0.190994 -0.053996 -0.614577 0.483261 0.825398 -0.411267 -0.812854 -0.162424 0.354854 0.901984 -0.746422 -0.466209 0.372830 -0.865567 -0.531588 -0.895870 -0.035172 -0.123076 -0.112785 -0.778428 0.144012 0.121242 1.042051 0.042738 -1.016079 -0.560979 0.105191 -0.097185 1.004291 0.444458 -0.038302 -0.307953 -0.158603 -0.340864 0.064339 0.274157 -0.300174 0.737001 -0.436301 -0.243557 0.124575 -0.743023 -0.860049 0.182019 0.122275 -0.014380 -0.173917 -0.535435 0.733205
i 0.828468 -0.295716 0.971978 0.652906 0.516117 0.035572 0.041319 0.001351 0.003304 0.054779 -0.184375 0.523771 0.718831 0.527786 -0.356334 0.191066 0.572972 -0.471791 0.459460 -0.164903 0.134026 -0.638340 0.128226 -0.430568 -0.519532 -0.737579 -0.012314 -0.028551 0.827658 -0.000960 0.013886 0.323003 0.186544 0.685023 0.089265 0.033951 -0.280251 1.147593 0.778881 -0.431796 -0.257018 0.030717 0.869954 0.111541 0.065845 0.059626 -0.598946 -0.963471 -0.625908 -0.217260 0.232731 0.913064 0.248065 0.831540 0.229652 0.467896 -0.393651 0.717135 -0.799677 -0.439224 -0.368576 0.361862 -0.265183 -0.200878
the -0.499044 -0.978741 0.836332 -1.277095 -0.601609 0.376337 -0.445871 -0.571803 0.005960 -0.255036 0.122721 0.538641 -0.813523 0.690239 0.114750 0.204489 0.525686 -0.830319 0.551285 0.756021 -0.170050 -0.006023 0.417417 -0.048560 1.597584 0.291998 -0.065833 -0.234404 -0.207836 0.075959 -0.493695 -1.203071 -0.828693 -0.192946 -0.353100 0.421914 0.174924 1.003126 -0.405215 -0.936402 -0.550599 1.350817 -1.286880 0.145345 -0.706038 -0.226872 0.829680 0.374039 0.369343 -0.156365 0.080066 -0.231973 0.203594 -0.310293 -0.415747 1.045867 0.056266 -0.071249 -0.830732 -0.448867 0.257886 0.094675 -0.079532 0.121522
and -0.033247 -0.158157 0.327337 0.573631 -0.115542 0.323685 1.059589 -0.085830 0.096614 -0.013406 0.105943 -0.026957 0.554085 -0.419402 0.002179 -0.212726 0.296407 -0.336442 0.093919 0.394508 0.071006 0.725392 -0.133355 -0.974225 0.060805 -0.376482 0.460882 -0.274674 0.303421 1.001795 -0.562954 0.687642 -0.341791 0.093699 0.553737 -0.004622 0.030939 -0.101185 0.007704 -0.427711 0.070442 0.701938 -0.346693 0.295583 0.311364 -0.236084 -0.287084 -0.246547 -0.658075 0.319137 0.417472 0.495790 0.439680 0.758895 0.399299 -0.088177 -0.278521 0.851055 -0.275044 -0.567406 0.526994 0.120442 0.649556 -0.000980
yes -0.450637 0.073505 0.855925 0.089211 0.107916 0.303353 0.389175 -0.075760 0.289930 -0.327387 -0.405921 -0.004932 0.060636 0.828455 -0.235483 0.402581 -0.851166 -0.393362 -0.182974 0.610458 0.148516 -0.095502 0.466521 -1.010635 -0.268910 -0.540469 0.071514 0.016894 0.316782 0.188625 -0.510076 -0.158066 -0.732645 0.018778 0.345197 -0.704271 -0.269606 0.085549 0.185202 -0.508740 -0.508253 0.760674 0.314669 0.056592 -0.295858 -0.098239 0.118701 0.083204 -0.519949 1.149019 0.626063 0.595998 1.107282 0.123368 0.511372 0.114935 -0.336401 0.696415 0.049501 -0.479669 -0.371160 0.327811 -0.269916 0.577902
a -0.017253 -0.349560 -0.388474 0.100621 0.038155 0.200633 -0.486429 0.747441 0.052854 0.178721 -0.166233 0.271723 -0.180314 -0.375133 0.354189 0.580509 0.065995 -0.575687 -0.218074 0.880938 -0.117315 -0.963484 0.045233 -0.327168 0.764002 0.018014 0.457819 -0.496953 -0.847818 0.496886 -0.053666 -0.390114 -0.442680 0.489018 -0.033431 0.587654 0.139244 -0.013550 0.474968 0.032234 0.373948 0.621108 -0.714789 -0.387666 0.083205 -0.209879 -0.273986 0.660638 -0.297503 -0.302869 0.939512 -0.913914 -0.635631 -0.168582 -1.282644 0.467170 -0.396704 -0.314759 -0.373732 -0.075151 0.041865 -0.578156 0.192466 -0.220376
that 0.710752 0.126539 0.016192 0.931561 0.634068 0.064256 0.717381 0.675725 0.137194 0.206587 -0.266910 -0.010976 0.529921 0.177550 -0.132617 0.205828 0.164773 -0.355585 -0.422658 -0.343015 0.260656 0.493602 0.294530 -0.872559 0.360915 -0.603952 0.542970 -0.404787 0.690691 0.833227 -0.122021 1.066860 0.081452 0.456102 0.286168 -0.288605 -0.110167 -0.463674 0.241276 -0.558422 -0.109404 -0.330829 0.494949 0.241886 -0.553226 0.094517 0.143251 -0.477511 -0.304479 0.904072 0.290076 0.715773 -0.156402 0.540062 0.293976 -0.226876 -0.193835 0.737744 -0.444543 -1.013075 -0.233967 -0.042168 -0.678206 -0.403856
s@@ 0.800467 -0.089976 -0.253680 0.631839 0.736079 -0.009508 0.481585 0.316198 -0.169068 -0.046564 -0.573515 -0.417810 0.604244 -0.728744 -0.201110 -0.016486 -0.134674 -0.324204 -0.353183 -0.695219 -0.208510 -0.083100 -0.142317 -0.697756 0.482490 -0.432229 0.714326 -0.371568 -0.030851 0.774015 -0.502486 -0.324136 0.033840 0.431211 0.746089 -0.331744 -0.394126 0.102564 0.253095 0.668783 -0.580509 0.014573 -0.302351 0.589809 0.133549 0.410793 -0.562098 -0.395792 0.031570 0.341002 0.387328 0.151219 -0.396354 -0.102670 0.184899 -0.356240 -0.369685 0.544809 -0.321757 -0.392728 0.590455 -0.481829 -0.626895 0.650990
you -0.052323 0.603296 0.308528 -0.087644 -0.116059 -0.012129 -0.453439 0.775152 -0.397788 0.330723 -0.269210 -0.142066 0.441472 1.272444 -0.255323 0.790052 -0.442760 -0.295054 0.401840 0.028710 -0.318727 -0.380768 -0.356177 0.024594 0.135433 -0.067959 0.259442 0.393073 0.172188 -0.464952 -0.427797 0.250355 0.543730 1.425703 0.920998 -0.178844 0.431914 0.526375 0.416297 -0.626210 -0.001158 -0.364212 0.590918 0.030087 1.171965 0.436475 -0.000576 -0.516898 -0.585081 0.152192 -0.161945 1.211813 0.430225 0.499790 0.425678 -0.017943 -0.734826 -0.206474 0.697367 -0.299659 -0.573392 0.739843 -0.329971 0.226928
i@@ -0.081711 0.201015 -0.105683 0.355605 0.253205 0.390669 0.497119 0.143473 0.594648 -0.040316 -0.566813 -0.231333 0.674096 -0.126662 0.590127 -0.073578 -0.428580 -0.151579 -0.577569 -0.460146 -0.605635 -0.349920 0.298006 -1.015740 0.416975 -0.338910 0.857842 -0.395111 0.353591 0.695107 0.058415 -0.121712 0.151117 -0.154373 0.956636 -0.153929 0.060428 0.345656 0.021053 0.311612 0.058409 -0.506552 -0.204288 0.137598 -0.083855 -0.094443 -0.284320 -0.696786 -0.480381 0.462766 -0.588528 -0.188580 0.086396 0.610832 -0.074177 -0.078574 -0.279601 0.308336 -0.027276 -0.614449 0.149147 -0.231088 -0.722903 0.380964
t@@ -0.079074 0.154345 0.120992 0.337718 0.056152 -0.305337 0.383525 -0.372887 -0.313470 -0.168301 0.411297 0.161075 0.540112 -0.026268 -0.276224 0.170058 -0.306834 0.788429 0.103245 0.746509 0.437909 -0.003872 0.190334 -0.188590 -0.312906 0.168333 -0.153203 -0.616902 1.021375 -0.358589 -0.895020 0.475558 -0.302202 0.430007 0.122026 -0.289213 -0.288247 1.541031 -0.457668 -0.463815 0.314844 0.087737 0.798383 0.303486 0.077703 0.347793 -0.202310 -1.037351 -0.461505 1.026278 0.509315 0.622411 0.102413 0.025091 -0.258985 0.137865 -0.158961 0.341415 -0.257372 -0.569652 -0.397880 0.696140 0.305564 0.393142
c@@ 0.228717 0.296068 0.069954 -0.012152 0.223042 0.235088 -0.276660 0.114948 -0.339107 0.902190 0.545279 -0.816137 0.570570 -0.408714 -0.052038 0.886873 0.240305 0.270357 -0.524335 -0.493592 -0.198085 -1.025841 -0.812403 -0.649947 1.149201 0.654518 0.035024 -0.249726 0.095929 1.130494 0.263928 -0.364022 0.035903 -0.096870 0.544271 -0.596020 0.073698 -0.341545 0.223253 -0.189174 0.082486 0.336718 -0.120609 0.837877 0.656247 0.908010 -1.032043 -0.119156 0.067145 0.491315 0.605388 -0.173255 -0.341639 -0.070352 0.358476 0.322471 -0.279817 -0.250517 -0.193910 -1.211769 0.210468 -0.790638 -0.480324 1.008440
to 0.985791 0.605513 0.085340 0.153553 0.538493 -0.227299 0.934647 -0.092654 0.316568 0.339615 -0.377192 0.652929 0.731988 0.370200 -0.332734 -0.529236 0.880694 0.340359 0.162359 0.215383 -0.016440 -0.492242 -0.248373 -0.939579 -1.107059 -0.191791 -0.321021 -0.019601 0.525185 0.153255 0.067902 0.695571 -0.128622 -0.007299 0.018890 -0.030146 0.313021 0.980755 0.590536 -1.007105 0.057787 0.450380 0.468007 0.311482 0.244705 0.152997 -1.518636 -0.818071 -0.028610 0.427523 0.015367 1.010476 0.800647 0.456654 -0.241995 0.162653 -0.510931 -0.218399 -0.496748 -0.064334 -0.540548 0.823644 -0.543052 0.493760
m@@ 0.222924 0.008489 0.044178 0.682318 0.722505 -0.187129 0.290971 -0.165551 -0.038002 0.550402 0.035834 -0.084153 0.807004 0.670898 -0.884732 0.558508 -0.331845 -0.462252 0.230601 0.088432 0.127305 -0.722601 -0.748971 0.047751 0.326799 -0.690920 0.121081 -0.024214 -0.726925 0.138878 0.496214 -0.606482 -0.758987 0.586505 -0.595290 0.079503 0.510188 -0.017019 -0.168167 0.302821 0.284280 -0.588586 0.066659 0.986775 0.802833 0.164470 -0.899572 0.034984 -0.582615 -0.367482 0.248283 0.565861 0.563675 0.675439 0.256175 -0.069347 -0.491576 -0.189530 -0.215691 -0.384908 -0.392418 0.448055 -0.903194 1.153330
h@@ -0.420745 -0.131536 0.699807 -1.122972 -0.194029 0.020642 0.219347 -0.310170 -0.333999 -0.263216 -0.332790 0.887794 -0.886435 0.908157 0.535353 0.024314 -0.068264 0.083144 0.214115 0.598074 0.523086 0.140509 1.100375 -0.837044 -0.407110 -0.000056 0.067722 -0.533091 0.117301 0.143283 -1.359143 0.642009 -0.843499 0.307226 -0.353243 0.353578 0.261198 1.098746 -0.449312 -1.254844 0.399113 0.649638 -0.064608 -0.385278 -0.076775 -0.038974 -0.476080 -0.160461 -0.566173 0.808446 0.587651 -0.034604 1.028384 0.224818 0.386683 0.256174 -0.355093 0.448614 -0.582177 0.210127 0.302067 0.399624 0.611245 0.380275
e@@ -0.270144 -0.001485 0.275051 -0.225267 0.316849 0.820088 -0.314232 0.326830 0.435524 0.428763 -0.009597 -0.271348 0.401414 0.689040 -0.633656 1.272631 -0.063493 -0.204961 0.092232 -0.105062 0.064039 -0.881039 -1.180300 -0.177853 0.748132 -0.047230 0.344681 -0.152485 -0.890187 0.043805 -0.130676 -0.827603 -0.463073 0.609024 -0.504335 -0.221910 -0.191351 -0.485101 -0.330634 -0.092111 0.216525 0.209911 -0.868370 0.662318 0.227450 0.096924 -0.692917 -0.021933 -0.198199 0.397934 0.332692 -0.150141 -0.396933 -0.097178 0.397268 0.697458 -1.424594 -0.335814 0.064973 0.275635 0.612541 -0.604350 -0.187544 -0.330300
u@@ -0.787010 -1.124736 0.104184 -0.016387 -0.349087 0.800008 0.157554 -0.342892 -0.338688 0.183252 -0.733699 -0.267024 -0.094085 -0.087446 0.138638 0.027406 -0.621743 -0.423844 -0.140495 0.353581 0.204741 0.010011 0.921154 -0.753819 0.584215 -0.682295 0.698627 -0.484806 -0.513001 0.541125 -0.465144 -0.299177 0.089671 0.088723 0.730182 -0.126215 -0.379775 0.337928 0.035116 -0.151455 0.185139 0.201427 -0.600727 -0.215170 -0.357697 -0.230164 0.427296 0.383652 0.049244 0.456293 -0.119312 -0.733234 0.310709 -0.624560 0.031053 0.476088 0.108063 0.829874 0.327324 -1.229690 0.287977 -0.491406 -0.330452 -0.234119
in 0.338624 -0.336753 0.201343 0.346346 0.486006 0.470203 0.544647 0.358201 -0.588107 -0.227792 -0.617119 -0.067704 0.461542 -0.873259 -0.317243 0.007126 0.407335 -0.139315 -0.115806 -0.012484 -0.198351 -0.019030 -0.278061 0.162715 0.545829 -0.261607 0.732960 -0.093217 0.204225 0.673360 -0.056949 0.207519 -0.138975 -0.144683 0.249049 -0.896139 -0.744728 -0.646047 0.038558 0.103846 -0.760754 -0.179325 0.013975 0.218563 0.314813 0.816463 -0.587100 -0.576958 -0.058742 0.147936 -0.428199 -0.187330 0.047696 0.643305 -0.628248 -0.316632 -0.071455 0.503743 0.511582 -1.142097 0.539445 -0.702261 -0.869823 0.363556
w@@ 0.541709 -0.250901 -0.127416 -0.593066 -0.215697 0.558198 0.248274 0.861887 0.192239 0.546331 -0.545962 0.256811 -0.593314 0.100247 -0.373695 0.833342 -0.407415 -0.485961 -1.038727 0.681681 0.467634 -0.471385 -0.562219 -0.956745 0.361375 0.281248 0.031367 -0.517304 0.313304 -0.625317 -0.586075 0.070233 -0.476715 0.082771 -0.412630 -0.068987 0.519840 -0.036070 -0.183439 -0.954649 -0.601763 0.526965 -0.393271 -0.378634 0.988415 -0.015393 -0.235304 0.044038 0.252076 0.115093 -0.626370 -1.120886 0.390516 -0.788753 -0.304210 0.358379 -0.219789 0.708966 0.470688 0.125213 -0.186698 -0.273635 -0.328113 0.513466
p@@ 0.402428 0.607839 -0.308735 0.327827 0.271394 0.191164 0.579870 0.223964 -0.606330 0.655093 -0.940220 0.322414 0.057131 -0.009520 -0.033379 0.217620 -0.185493 0.016286 -0.584249 0.010434 0.102181 0.046131 -0.496172 -1.545543 -0.155968 -0.536965 0.116646 -0.464188 0.396037 1.034343 -0.648818 0.677373 -0.845700 -0.447429 0.157420 0.687762 -0.436767 0.057728 0.294466 -0.498410 -0.303625 -0.317207 0.632609 0.243076 -0.128612 -0.470810 -0.203494 -0.057271 0.227946 0.911955 -0.572528 0.669424 0.829008 0.004515 -0.289840 -0.034921 -0.490720 0.156797 0.050274 -1.092151 0.534576 0.311057 0.315829 0.132693
s 0.211885 0.703907 0.569863 -0.339738 -0.001348 0.140765 0.329055 0.268518 -0.491410 -0.051614 -0.847068 0.305910 0.375830 0.909603 -0.505023 -0.663930 0.342229 0.001690 0.071209 0.533563 -0.208951 -0.031143 0.250975 -0.899546 -0.390230 -0.382073 0.197887 0.111489 0.526745 -0.587942 -0.655735 0.413130 -0.537645 0.678867 -0.813234 0.507266 -0.011875 1.485758 -0.200140 -1.022233 -0.075661 0.424211 0.411024 -0.082105 -0.191172 0.183232 -0.871597 -0.109066 -0.889603 0.582200 0.320895 0.273046 0.847330 0.224584 -0.146704 -0.234843 -0.585101 -0.195680 -0.396465 0.239641 -0.223279 0.712754 0.232032 0.078394
a@@ -0.419905 0.698873 -0.495101 -0.806506 -0.143652 0.509200 0.052786 0.733189 -0.434936 0.036669 -0.430227 0.633390 -0.020927 -0.482206 0.177109 0.175451 0.879651 0.383968 0.128799 0.345004 0.193388 -0.002023 -0.936808 -0.820706 0.275817 0.392965 0.707622 -0.651404 -0.196491 0.907589 0.069707 -0.622143 -0.052827 -0.412184 0.497968 -0.103496 -0.397686 0.037864 -0.047647 -0.845157 0.336954 0.675660 -0.898202 -0.072027 -0.643295 0.494556 -0.588119 -0.725893 0.422775 0.061561 -0.114042 -0.555012 0.685779 -0.230538 -0.327448 -0.174294 -0.121848 0.194431 -0.130794 -0.330385 0.198134 -0.773418 0.094624 0.951137
e -0.237937 -0.157675 -0.325488 -0.558547 -0.465458 0.047144 -0.502210 -0.225141 -0.050152 0.005824 -0.005387 -0.110310 -0.253802 0.876751 0.201436 1.318521 -0.443718 -1.214590 0.893474 -0.107648 -0.382423 -0.807742 0.385444 0.531925 1.185542 -0.076892 0.231693 0.396094 -0.556951 -0.666206 -0.431645 -0.470363 -0.955298 0.504985 0.081127 -0.491011 0.747887 0.622591 0.241023 -0.188105 -0.338333 0.982878 -0.583574 0.673892 -0.267612 -0.213925 0.319115 -0.240465 0.194579 0.137404 0.652836 -0.368459 0.076097 -0.044991 -0.185196 0.270283 -0.029976 0.267547 0.228347 1.241982 0.079047 -0.083987 -0.346328 0.390507
d@@ -0.731684 -0.652618 -0.124466 -0.393685 -0.142696 0.746537 0.541105 0.011359 0.407191 0.181103 -0.807414 -0.071048 -0.386516 -0.039770 -0.175901 0.507053 -0.565280 -0.527458 0.002549 0.569007 0.099025 0.082493 0.344593 0.016792 0.115854 -0.871784 0.303060 -0.706928 -0.223393 0.470177 -0.465023 -0.305799 -0.080742 -0.348686 0.753569 0.299216 -0.453460 0.454233 0.125621 -0.668180 0.165716 0.529700 -0.240489 -0.078409 -0.282581 -0.128514 0.756705 0.394581 0.261584 -0.262366 0.384242 -0.385119 0.273448 -0.145310 -0.127429 0.394098 0.163131 0.827717 0.310787 -1.033915 -0.181916 -0.424477 -0.552250 0.261265
is 0.255071 0.136429 0.765949 -0.569835 -0.044929 0.261036 -0.401190 0.033567 -0.057386 0.360297 0.098096 0.875511 -0.752324 1.608643 -0.191062 0.163707 0.714948 0.105827 0.950755 -0.035226 -0.088172 -0.884760 0.960562 0.142311 -0.057027 -0.042434 -0.387412 0.496342 -0.608651 -1.203891 -1.015829 0.395860 -0.725111 0.786471 -1.337775 0.648773 0.039371 1.132173 -0.053487 -0.869037 0.115218 0.884774 -0.375188 -0.019713 0.008729 -0.289443 0.709909 0.460323 -0.445783 -0.147776 0.029750 -0.105761 0.672139 -0.716654 0.438574 0.112093 -0.259261 -0.526813 -0.572931 1.292653 -0.828947 0.360500 0.549937 -0.131376
it 0.912953 1.002652 0.049258 -0.188506 0.338822 0.019161 0.479213 0.552038 0.197002 0.317179 -0.506262 0.302552 0.579301 0.054721 -0.107518 0.233710 0.293789 0.785110 -0.595821 -0.215809 0.547887 -0.832926 -0.572580 -0.841946 -0.572063 0.066590 -0.120979 -0.790734 0.585500 0.213710 0.022248 0.812253 -0.039283 0.167891 0.515237 0.184320 0.014618 1.181861 0.083915 -0.807052 -0.188143 -0.410762 1.222200 -0.024127 0.371282 0.266115 -0.860914 -1.198297 -0.433448 0.405336 0.057933 -0.010839 0.827979 0.002849 -0.206514 -0.137268 -0.380912 0.240543 0.068338 -0.314752 -0.034259 -0.035079 -0.012832 1.051325
r@@ 0.176053 -0.101848 0.309110 0.013901 0.252327 0.408412 0.387708 0.295561 -0.204798 0.439849 0.785898 0.370784 0.137836 0.779745 -0.303987 0.365339 -0.539766 0.301659 0.986949 0.738568 -0.028086 -0.463189 -0.008367 0.069146 1.182762 -0.121885 -0.904379 -0.303358 -0.134084 0.367916 0.253109 -0.118795 -0.780383 0.526433 -0.296710 -0.233751 -0.533561 0.181706 0.906682 0.354794 -0.520592 0.230927 -0.580727 0.781896 0.280450 0.000463 -0.838468 0.043357 0.067568 -0.229124 0.619131 0.110066 -0.205631 0.495030 0.965675 -0.095258 0.061106 -0.234195 -0.503392 0.808830 0.297897 -0.611533 -0.705767 0.955038
l@@ -0.191330 -0.435294 0.159213 -1.272324 -0.928070 0.704480 -0.532621 -0.723047 -0.286396 -0.037896 -0.378193 0.755696 -1.584367 0.614618 -0.717365 0.803360 0.185462 -0.424304 0.737153 0.940106 -0.004964 -0.809282 0.161301 0.184282 1.319350 -0.078439 0.590776 -0.307039 -0.205827 -0.379930 -0.556014 -0.902829 -0.387380 0.027738 0.083800 0.162301 -0.234280 0.632206 -0.075819 -0.761393 -0.486742 1.124334 -1.427053 0.119807 -0.156049 -0.273452 0.395404 0.891610 0.799848 -0.067298 0.512859 -0.963449 -0.098759 -1.053302 -0.531508 0.412301 0.387419 -0.354445 0.203167 -0.274690 0.165747 -0.594110 -0.442276 -0.663841
f@@ -0.149735 -0.314612 -0.256163 -0.065787 -0.236667 0.267472 0.227615 0.778068 0.011073 -0.064832 0.365974 0.237912 -0.506372 0.015564 -0.312907 -0.177565 -0.351473 0.273286 0.402404 0.498499 -0.160328 -0.834534 0.092805 -0.201181 0.315096 0.604533 -0.277328 -0.284852 -0.041319 0.161959 -0.614304 0.542167 -1.023586 -0.090568 0.184790 0.235882 -0.028340 -0.001558 0.117892 0.075413 -0.775332 0.751032 0.292062 -0.209693 0.077435 0.366969 -0.459591 -0.209693 -0.287144 0.196011 0.576994 -0.361955 0.256160 -0.187700 0.237987 -0.222912 0.206254 -0.306136 -0.185368 -0.041032 -0.013762 0.402742 0.118712 0.403437
g@@ -0.523468 -0.774350 -0.686254 -0.435237 -0.065306 1.439334 0.135657 0.325783 -0.253135 0.012443 -0.144051 -0.044029 0.067337 -0.747877 -0.039159 0.274220 -0.742678 -0.074127 -0.385092 0.548194 -0.084251 -0.309432 -0.755705 -0.015354 0.927633 -0.317215 0.385027 -0.662163 0.068520 0.508885 -0.056949 -0.268028 -0.167806 -0.921776 -0.728539 -0.325846 0.001619 -0.835786 -0.191291 -0.031680 -0.469584 0.523819 -0.727477 0.032422 -0.567207 0.460126 0.765608 -0.190516 0.683267 -0.527528 0.533540 -0.472219 0.213292 -0.748937 -0.005665 1.089546 0.622858 -0.116930 0.364946 -0.028080 0.913626 -0.311725 0.170768 -0.307679
b@@ 0.217794 0.458959 0.339886 -0.038144 0.270056 -0.077813 1.126719 0.356912 0.464301 0.862018 -0.798137 -0.073253 0.131331 0.499522 0.119205 -0.194654 0.254806 0.138648 0.004795 -0.182763 0.097365 0.500479 -0.565442 -0.779074 -0.603873 -0.341137 0.387187 0.413931 0.540705 0.212981 -0.418775 0.343653 -0.383920 -0.159085 0.261710 0.332003 -0.210760 0.289295 0.034735 -0.158170 -0.181266 -0.031525 0.720717 -0.518768 0.253036 0.156475 -0.120471 -0.759461 -0.044330 0.945214 -0.327058 -0.056606 0.605740 0.128984 0.231509 0.427491 -1.190685 0.834805 0.571403 -0.475210 0.285394 0.429794 -0.825458 0.463914
an@@ 0.163538 0.630615 -0.320788 -0.229364 -0.349913 -0.089471 0.868539 0.006663 -0.036211 -0.087468 -0.871405 0.326645 0.544029 0.413574 -0.184788 -0.854665 0.105842 -0.068640 -0.056217 -0.066103 0.474749 0.291941 0.269888 -0.503627 -0.023268 -0.369086 0.489945 -0.244935 1.045705 0.598327 -0.505990 0.441757 -0.601754 -0.240074 -0.068997 -0.097148 -0.569065 -0.125881 -0.244638 -0.691282 -0.125267 -0.423024 0.443153 -0.106222 0.457776 -0.048606 0.052923 -0.339424 0.331746 0.547539 0.045957 0.585080 1.418348 0.122856 -0.183934 0.801595 -0.533151 0.791294 -0.316474 -0.815093 -0.037181 0.016455 -0.119010 0.578530
y -0.101930 0.578761 -0.389381 -0.014435 0.810044 0.219691 0.201862 0.330813 -0.398539 -0.264826 0.240883 0.541849 0.304750 -0.533468 0.075436 -0.093733 0.682833 0.280929 -0.204360 0.231564 -0.185779 -0.503149 -0.416866 -0.802623 0.432987 1.203082 -0.199479 -1.011184 -0.177150 0.460240 -0.158826 0.125359 0.071839 -0.072423 -0.027881 0.249837 0.037272 0.341230 -0.351085 -1.119167 -0.233478 -0.717446 -0.871766 -0.788386 0.077129 -0.102671 -0.819002 -0.356454 -0.221081 0.372371 0.836424 -0.021538 -0.189011 0.021627 0.372013 0.368305 -0.518650 -0.533587 -0.145527 0.048136 0.350186 -0.799488 0.409144 0.903937
they -0.039043 -0.500689 0.572448 0.432584 -0.143425 0.404878 0.099351 -0.172185 0.044830 -0.022984 0.479352 0.658775 -0.238985 0.643937 -0.831221 0.001658 0.015872 0.243241 0.640977 0.436180 -0.470157 -1.081799 0.653417 0.029037 1.003287 0.773943 0.034289 0.101021 -0.373647 -0.573334 -0.367849 -0.156424 -0.077654 1.018922 0.550679 -0.088420 -0.379927 -0.251231 0.458788 -0.220461 -0.107270 0.069352 0.441466 -0.118248 0.634649 -0.100598 -0.526099 -0.339755 -0.596608 0.037312 0.279427 -0.170019 -0.753272 0.418890 0.221852 0.323488 -0.062233 -0.771048 -0.224388 -0.223166 0.124519 -0.435970 0.321534 -0.626287
es -0.828453 -0.520051 0.501727 -0.304061 -0.535658 0.370115 -0.132838 -0.416609 0.298344 -0.049586 -0.171369 0.296985 -0.931257 0.582493 0.121285 -0.937090 -0.833755 -0.684699 0.693503 0.123534 0.121734 0.830849 0.751341 0.286287 -0.139031 -0.438717 0.123007 0.477756 0.058999 -0.034771 -1.090870 -0.562691 -0.310101 0.558802 -0.312163 -0.139967 -0.143379 -0.281486 -0.068753 -0.237986 0.526230 0.235025 -0.238083 0.120119 -0.825236 -0.229127 0.611189 1.164797 0.461508 -0.237547 -0.083329 0.059319 0.831324 0.167638 -0.018425 0.279167 0.572009 0.834202 0.064324 -0.135986 -0.070588 -0.008160 -0.213601 -0.425617
st@@ -0.541308 -0.742039 0.201837 -0.447435 0.045107 0.241904 -0.112767 -0.342602 0.884601 0.391728 -0.222351 0.344198 0.025724 0.495427 0.011818 -0.297783 0.043975 -0.385262 0.120473 -0.306660 0.210356 0.478165 0.516296 -0.029962 -0.556687 0.404872 0.460765 -0.027543 0.014423 0.299330 -0.825534 0.763017 -0.390321 0.562205 -0.741490 -0.407674 -0.299465 0.461437 -0.209122 0.286889 -0.070044 0.262327 0.216190 -0.107891 -0.134454 0.336935 0.156758 0.273068 0.469841 -0.420399 -0.618015 1.013505 1.033074 0.437021 0.724883 0.284901 0.643825 0.179470 0.143379 0.172067 -0.446662 0.383033 -0.067586 -0.023555
of -0.117889 0.675267 0.561956 0.080847 0.136238 0.306512 0.025149 0.095983 -0.045417 0.204245 -0.009054 -0.248063 0.043148 0.458029 -0.266882 0.581873 -0.020882 -0.813090 0.750659 0.030529 -0.367498 -0.742393 -0.190225 -0.734846 0.279528 -0.596012 0.397113 -0.518957 -0.022404 -0.155883 -0.513170 0.552054 -0.897282 0.450919 0.104357 0.140540 -0.003175 0.906278 0.097390 0.388109 0.249400 0.328359 0.072891 0.702895 0.379356 0.748739 -0.564165 0.567927 -1.146601 0.642816 -0.016798 0.507056 0.993254 -0.070453 -0.073597 0.060330 -0.124660 0.047323 -0.460706 -0.125415 -0.121088 0.121040 -0.563977 -0.069248
in@@ 0.488000 1.158304 0.211738 0.584294 0.160372 -0.146063 0.457634 0.389785 0.514610 -0.100982 -0.485468 -0.347193 0.775200 -0.310877 0.157748 -0.054781 -0.066049 0.170549 -0.637470 -0.577109 0.171723 -0.880798 -0.641598 -0.406470 -0.072474 0.330329 0.163892 0.321891 -0.001799 -0.080595 -0.221353 0.448698 -0.003624 0.968141 0.220986 -0.112635 0.614806 0.212019 0.213166 0.636641 0.260157 -0.372313 0.658039 0.828789 0.575705 0.216678 -0.605399 -0.601448 -0.511548 0.235382 -0.047584 0.179139 -0.508617 1.160754 0.185548 0.179568 -0.641317 -0.217206 -0.090472 -0.951467 -0.134865 -0.220662 -0.126997 0.412416
ed -0.199310 -0.036697 0.096954 -1.044663 -0.704038 0.257584 -0.055650 0.478433 0.058198 0.260234 0.201650 0.873416 -1.056925 0.062860 0.446058 0.567478 0.575446 -0.306108 -0.026480 -0.025692 -0.063996 -0.711691 0.751557 -0.231927 -0.259528 0.478362 -0.277393 -0.245321 -0.060984 0.416691 -0.390456 -0.351494 -0.383041 0.191679 -0.133773 0.854760 0.428117 0.737083 -0.568808 -1.619950 -0.472552 0.683593 -0.637423 -0.357671 -0.083812 -0.312819 0.233874 -0.170969 -0.180595 -0.190493 -0.197424 -0.926888 0.569020 -0.829951 -0.382033 0.057167 0.511506 -0.239923 -0.372082 0.626751 -0.004925 -0.357724 0.527422 0.418953
re@@ -0.731121 0.045337 0.282831 0.213133 -0.439977 -0.615213 -0.975828 -0.768004 0.622967 0.009794 0.339656 -0.093138 0.589884 -0.155461 0.316757 1.096039 -0.428811 -0.863014 0.549453 0.087170 -0.229757 -0.085604 0.811967 0.268810 0.278701 0.666174 0.476831 0.377584 -0.569328 -0.409550 -0.015232 -0.724439 -0.272996 0.843558 0.147416 -0.215556 -0.182825 -0.356316 0.017487 0.951505 -0.173580 0.421952 -0.034239 0.512454 -0.078259 -0.237531 -0.215131 0.928367 0.090779 -0.358261 0.535217 0.611003 -0.396268 -0.338864 0.686781 -0.073215 -0.261809 0.008237 -0.663775 -0.436861 0.364263 -0.131405 -0.156659 0.275089
but 0.143486 -0.372733 -0.352701 0.421695 0.442625 0.184591 0.769803 0.529945 0.044236 -0.245336 -0.396290 -0.307310 0.637520 -0.603248 -0.157393 0.037907 -0.299243 -0.303939 0.227213 -0.005914 -0.159177 0.018439 -0.343840 -0.183586 0.720315 -0.773968 0.404154 -0.122697 0.246648 0.509760 -0.176891 -0.261850 -0.374382 -0.303067 0.621411 -0.912762 -0.268452 -0.354529 -0.065890 -0.140498 -0.396293 -0.133242 -0.169381 0.205686 0.367617 1.055436 -0.899140 -0.369331 -0.028639 0.339909 -0.294326 0.121120 0.012071 0.890936 -0.746949 -0.035433 0.297763 -0.081345 0.243050 -0.768038 0.007581 -0.374395 -0.419698 0.210732
d -0.217276 -0.122035 0.041570 -0.730971 0.000247 0.239803 -0.137063 0.274863 -0.457176 -0.298261 -0.325727 0.402825 -0.787177 -0.049474 -0.324908 0.429362 0.585758 0.245087 0.172261 0.923119 0.243846 -0.659607 0.019707 -0.407529 0.596697 0.198768 0.530005 -0.374625 0.060316 -0.052794 -0.165105 -0.386242 -0.601836 0.689120 -0.361484 0.346569 0.236146 1.176613 -0.482011 -1.087144 -0.745993 0.610109 -0.962347 -0.846007 0.057989 0.326448 0.195662 -0.111312 -0.444814 0.064082 0.221081 -0.744896 0.893653 -0.108253 -0.561949 0.165089 0.044843 -0.538622 -0.095376 0.549509 -0.128478 -0.334495 0.839555 0.320148
are -0.117584 -0.057695 -0.514275 -0.435439 0.353960 -0.189912 0.021869 -0.405393 -0.684599 -0.734448 0.253276 -0.102674 0.461344 -0.048835 0.840041 -0.392677 0.728451 0.678927 0.818811 1.076790 -0.274077 -0.108728 0.675804 0.003028 0.327174 0.946060 0.115898 -0.901179 -0.202693 0.339722 -0.553777 0.884232 -0.633829 0.129865 -0.416833 0.888243 -0.794679 0.338208 -0.637211 -0.555148 0.815698 0.828223 -0.491516 -0.774266 -0.408186 -0.487671 -0.121418 0.310614 -0.347519 0.230353 0.009965 -0.411532 0.951828 -0.571052 -0.328787 -0.036404 -0.450973 0.467094 -0.123324 -0.325180 -0.181053 -0.075906 -0.024929 0.137183
o@@ -0.008114 -0.566216 0.136970 -0.562163 0.722269 0.281680 0.755751 0.282947 0.252997 -0.255085 -0.673592 -0.180372 -0.437763 -0.110757 -0.081361 -0.081190 -0.327543 0.211857 0.159656 0.184060 -0.193666 0.147639 -0.001005 0.062347 -0.079214 -0.683840 0.351554 0.081569 0.154968 0.089005 -0.026306 0.169473 -0.237282 -0.042271 -0.781391 -0.369953 -0.527781 0.325767 0.340426 -0.443994 -0.106101 0.671398 0.737496 0.238994 -0.370257 0.184627 0.207388 -0.043234 -0.434301 0.708856 0.152379 -0.319256 1.268082 0.237783 -0.058723 0.051783 -0.510479 0.219656 0.652060 0.221921 -0.139971 0.557216 -0.337684 -0.149932
me 0.348122 -0.058541 0.562008 0.045659 -0.229505 0.024696 -0.207631 0.362866 1.074264 0.079761 0.027194 -0.008890 0.410348 0.386900 0.125397 0.211769 -0.831228 -0.403407 0.428580 0.212165 -0.028447 0.285751 -0.260632 0.687739 -0.507341 0.122148 0.563578 1.003044 -0.698995 -0.287371 -0.368225 -0.222074 -0.422678 0.954811 -0.275822 0.515964 -0.554886 -0.505655 0.171286 -0.029167 -0.238169 -0.355345 0.457525 0.524583 0.258128 0.139233 0.024872 0.220248 -0.325901 0.436785 0.246837 0.745156 -0.202802 0.735645 0.579501 0.033792 0.395353 0.007853 -0.019486 -0.163819 -0.714917 0.201856 -0.019838 0.173624
en@@ -0.933102 -0.530097 -0.055734 0.325887 -0.496485 -0.285595 -0.387130 -0.286659 0.335453 -0.053016 -0.350500 0.231801 0.110206 -0.166887 0.463263 -0.315320 -0.244954 -0.536498 -0.383643 -0.472427 0.310027 0.704936 -0.311023 -0.082126 0.050227 -0.683895 0.634519 -0.006542 -0.856244 0.610658 -0.091709 -0.412439 -1.218954 0.155388 0.787270 -0.477631 -0.014336 0.145978 -0.531500 0.295483 0.212701 -0.376019 -0.331329 0.181536 -0.954397 -0.025991 -0.025522 0.674408 0.225097 0.746469 0.461229 -0.065454 -0.095950 0.404762 0.585630 0.458153 0.542432 0.833456 -0.405453 -0.363242 0.351601 -0.128596 -0.122432 -0.113397
ing -0.618570 -0.846537 -0.017767 0.087029 -0.214365 0.187995 -0.353509 -0.755686 0.547640 0.050727 0.032175 -0.341619 -0.105695 0.246228 -0.065608 -0.308458 -0.418083 -0.618721 0.507122 0.773006 -0.205247 0.707059 0.205107 0.310525 0.653493 -0.575430 0.186608 0.835523 -1.289538 -0.272218 -0.068947 -0.335031 -0.180130 -0.653442 -0.201604 -0.034265 -0.912696 -0.593721 -0.261220 0.433487 -0.039122 0.391354 -0.143978 0.284356 -0.379525 -0.190869 0.992888 1.124423 -0.307742 -0.299969 0.424404 0.369392 0.056524 0.056049 0.254576 -0.326525 -0.012120 0.501650 0.100911 -0.013909 -0.308525 -0.264199 0.211775 -0.669782
no -0.671208 0.210663 0.105568 -1.105971 0.107679 -0.118576 0.682549 -0.273499 -0.824887 -0.618102 -0.585301 1.080793 -1.024700 -0.901357 -0.069604 -0.075129 0.639783 0.294324 0.473997 0.285754 0.069238 0.121712 0.479835 -0.656120 0.591161 0.604849 -0.335714 -0.863591 0.085500 1.048445 -1.059832 -0.103515 -0.472985 -0.626854 0.517403 0.532555 0.895786 0.922692 -0.004720 -1.921912 -0.169703 1.193434 -0.599990 -0.396475 -0.631114 -0.369331 0.061341 -0.636556 0.476571 0.019759 0.019405 -0.981374 0.409894 -0.281896 -0.211409 0.056837 0.300172 0.090375 -0.605267 0.106058 0.639705 -0.368608 1.290209 0.530232
have 0.203441 0.348129 0.728034 0.273391 -0.082859 -0.771057 0.143393 -0.179149 0.476607 0.100366 0.189500 -0.009625 0.723408 0.192574 0.611042 -0.092633 -0.033307 -1.004592 -0.014987 -0.766295 -0.188267 0.788952 -0.120184 -0.054452 -0.707059 -0.080278 -0.127276 0.836668 -0.397806 0.264839 -0.493526 -0.129598 -0.640632 0.461864 -0.755514 0.114313 0.153858 0.028637 0.591188 0.499384 1.156085 -0.393450 -0.324128 0.392970 0.006180 0.183123 -0.596170 0.643658 -0.134974 0.704931 0.203802 0.236286 -0.370040 0.933905 1.417908 0.044623 -0.510021 -0.835374 -0.661908 -0.042879 0.046950 -0.009541 0.476559 0.897358
n@@ 0.739458 0.349616 -0.026939 -0.123260 0.072603 -0.238850 -0.319272 0.119062 0.394039 0.330096 0.277887 -0.106317 0.957560 0.213019 -0.120909 0.377834 -0.502152 -0.224108 0.063775 0.657933 -0.020292 -0.944838 -0.793354 0.033571 0.324958 0.102020 -0.010249 -0.751588 -0.243456 0.216019 -0.108309 -0.606617 -0.512527 0.073962 0.186968 -0.238732 -0.641978 0.228983 -0.062862 0.732476 -0.337947 -0.479563 -0.899455 0.249515 0.343356 0.298207 -1.333403 0.314781 -0.209678 0.411825 0.586829 0.271978 0.039228 0.716572 0.055831 0.368056 -0.024381 -0.012327 -0.234583 -0.400339 0.248269 -0.897561 -0.711173 0.668951
like -0.251555 -0.594215 0.132776 0.426164 0.561635 0.311511 0.006282 -0.495912 0.122163 -0.210302 0.698296 0.428959 0.417286 -0.678697 0.246752 -0.685824 0.553714 -0.580303 0.361163 -1.338567 -0.811441 -0.071841 0.677500 0.266879 1.048298 0.324944 0.369466 0.171308 -0.432954 1.218519 -0.083733 -0.349682 -0.277496 0.431176 0.240730 0.173609 -0.092141 -0.157182 0.657931 0.411120 0.498891 0.380058 -0.518621 0.343047 -0.174053 0.073761 -0.045720 0.154378 0.189794 -0.420205 0.054496 0.566372 -0.959785 0.480044 0.517425 -0.099262 0.330140 -0.157785 0.034067 -0.918293 0.004465 -0.109041 0.380418 -0.298902
v@@ 0.914521 1.023727 0.476832 0.023630 0.740620 -0.742991 -0.495041 0.323732 0.514347 0.725273 0.141615 0.597381 0.284801 0.962072 0.336942 0.418357 0.783331 0.291895 0.525346 -0.539785 -0.742144 -0.945700 0.399972 0.027739 -0.567807 0.435445 -0.464867 0.028202 -0.346926 -0.557706 -0.207029 -0.055797 -0.507831 0.832004 -1.158368 0.301587 0.686399 1.279386 0.189440 -0.879383 0.396360 0.276649 0.008815 0.122912 0.258222 0.076193 -0.603078 -0.180249 -0.554354 0.350510 0.133680 0.173470 0.413047 0.459969 0.453634 -0.406889 -1.310019 -1.184492 -1.109154 0.813716 -0.136802 0.447676 0.944082 0.348819
y@@ 0.257530 -0.617459 0.432080 0.571088 -0.443789 -0.047627 -0.483069 -0.023851 0.441322 0.141434 0.817445 -0.132907 0.736447 0.704036 0.123045 -0.739723 -0.244759 -0.804891 -0.108558 -0.350858 -0.553431 -0.052738 0.091888 0.879884 -0.187748 -0.178680 0.273170 1.039483 0.037306 -0.342170 0.126973 -0.008426 0.461168 0.238934 -0.030058 -0.222347 -0.060195 -0.723503 -0.043152 0.991862 0.044513 -0.758013 -0.188705 0.356647 0.162911 0.442831 -0.149454 0.763353 -0.370925 -0.528680 0.883376 0.882569 -0.852971 0.179030 0.216704 0.006239 -0.054933 -0.498933 0.041734 -0.026042 -0.030484 -0.105281 -0.912192 -0.543164
m -0.663075 0.167064 -0.071357 0.201399 -0.214283 0.540119 -0.171599 0.247434 0.286375 0.060370 0.292598 0.528190 0.306074 0.058053 0.547583 0.362097 0.433042 0.306029 0.050715 0.152788 -0.253313 -0.768917 0.408699 0.010134 0.553636 -0.048357 -0.061274 -0.485242 -1.056987 -0.203758 -0.143107 -0.918669 -0.621188 -0.051635 0.253914 0.537596 0.114875 -0.270173 -0.980711 0.373607 -0.800077 0.337720 -0.980942 -0.295909 0.236391 -0.072275 -0.047065 0.394340 0.519300 -0.039487 0.319424 -0.875709 0.129284 -0.511155 -0.296719 -0.155511 -0.706071 -0.096134 -0.270050 0.103277 0.425399 -0.782701 0.083409 -0.190981
ar@@ -0.214788 0.289340 -0.493506 -0.116803 0.089548 0.945732 0.633734 0.362283 -0.285812 0.018051 -0.747280 0.460868 -0.467554 -0.065738 0.089013 0.936839 -0.360678 0.337268 0.039478 0.346352 0.336450 -0.045676 -1.088046 -0.495772 0.007983 -0.329025 -0.108785 -0.275479 -0.117414 0.186677 0.009600 -0.716452 -0.813840 0.049911 -0.102929 0.470289 -0.178326 0.902526 -0.201052 -0.821025 -0.196957 -0.098548 0.147227 -0.234596 -0.208756 0.059005 -0.233085 -0.681801 -0.003752 0.647369 0.215388 -0.342104 2.062423 -1.047247 -0.529131 -0.048830 -0.456007 0.388815 -0.385990 0.523497 0.449926 -0.016954 -0.081375 0.332571
on 0.589722 0.697690 0.169253 -0.599401 0.367157 -0.024024 0.266611 0.044706 0.048645 0.347935 -0.186770 0.507164 -0.012289 0.670858 0.187766 -0.467988 0.353966 0.694314 0.542900 0.517054 0.360163 -1.162550 -0.212280 -0.333123 0.305752 0.252234 -0.173339 -0.596519 0.588029 -0.780844 0.257074 -0.394149 -0.600117 0.495969 -0.398915 0.785662 0.321594 1.064042 -0.652889 -1.294828 -0.256572 0.037824 0.139906 -0.317884 0.241918 0.435979 0.142544 -0.888804 -0.655441 0.039189 0.221644 -0.583154 1.003696 0.358911 -0.395228 0.432004 -0.282441 -0.566231 -0.167420 0.473215 0.398903 -0.447042 0.347802 0.390843
on@@ -0.954494 -0.740377 -0.709127 -0.421416 0.246049 -0.272776 -0.030774 -0.071318 0.049560 -0.209212 -0.420947 0.215437 -0.572726 0.211009 -0.123639 -0.038051 0.177693 -0.264715 0.106884 0.144210 0.030757 -0.191396 0.643338 -0.635743 -0.432804 -0.984867 0.515708 -0.667757 -0.853833 -0.149093 -1.177532 -0.184773 -0.585556 0.063433 -0.572042 0.410572 0.136098 -0.256682 -0.406927 -0.324390 -0.066852 0.913581 -0.965067 -0.154764 -0.240871 -0.616509 0.354885 0.235422 -0.326259 -0.167698 -0.355309 -0.503107 0.278158 -0.296175 -0.224967 0.730451 0.398260 -0.326612 -0.453428 0.462368 -0.289463 -0.460737 0.587368 -0.142151
al@@ -0.675029 -0.834806 1.082651 0.251924 -0.184835 -0.373493 -0.376034 -0.567279 -0.124730 -0.091625 0.295139 0.337505 -0.176542 -0.002879 0.258627 0.083614 -0.134061 -0.760453 0.298215 0.049876 -0.161683 -0.423249 1.353559 -0.029875 -0.170036 -0.005867 0.741650 -0.351856 -0.464580 0.707453 -1.120995 -0.072045 0.028733 0.118115 0.622457 0.582796 -0.895180 -0.075248 -0.229449 0.000747 0.480374 0.271465 -0.127596 -0.032443 -0.016289 -0.370090 0.532119 0.517616 0.161009 -0.033622 -0.239611 -0.096206 -0.399630 -0.071114 1.045148 -0.555852 0.027779 0.079270 -0.079123 -0.293300 -0.459262 -0.482399 0.307088 -0.118717
well 0.270516 -0.144286 -0.440872 0.094316 0.399669 0.277031 -0.059267 0.336436 0.075755 -0.512420 0.800721 0.232633 0.616290 -0.406406 0.570122 0.312613 -0.595949 -0.590880 -0.314442 0.279913 -0.241557 -0.042154 -0.100037 0.787768 0.235342 0.014808 0.171116 0.505756 -0.939937 -0.171838 -0.052326 -0.683970 0.302622 0.287206 -0.748437 0.373867 -0.682678 -0.455356 -0.041265 0.329339 0.061090 -0.182558 -1.043773 -0.064033 0.170193 0.485111 0.463784 0.331093 -0.580750 -0.218251 0.515863 -0.369163 -0.681593 1.002872 0.090166 0.208923 0.033606 0.161153 -0.690400 0.145491 0.291897 -0.509453 0.094606 -0.512648
it's -0.391812 0.092372 0.420555 -0.428025 -0.532436 -0.003792 0.080915 -0.410503 -0.139640 0.140608 0.833260 1.031710 -0.123102 0.110520 0.262216 -0.038558 -0.122852 -0.663114 0.490375 0.642025 -0.436849 0.204910 0.836904 0.931742 -0.750632 0.391351 -0.058494 0.713212 0.467951 0.329819 -0.605672 -0.537069 -0.522259 0.115515 -0.397784 0.357786 -0.347193 0.808098 0.087533 -0.530379 0.122480 -0.188048 -0.005214 -0.515872 -0.655253 -0.095551 0.159924 0.209851 0.103685 0.596962 0.266959 0.499366 0.061441 -0.023517 0.842730 0.212469 0.361426 0.536511 0.351344 -0.370627 -0.153655 0.149959 0.148423 0.050289
t -0.861850 -0.461824 -0.207419 -0.707884 -0.220693 0.067141 -0.347468 -0.145470 -0.269818 -0.429792 -0.044166 0.363613 -0.920856 0.106449 0.448956 0.123913 0.137171 -0.451070 0.023628 0.325923 -1.179886 -0.257675 0.692206 -0.449479 0.062238 0.516976 -0.573024 -0.783163 -0.303530 -0.032545 -0.202956 -0.645768 -0.752275 -0.141678 -0.529693 0.612259 0.673125 -0.514119 0.167076 -0.937855 0.044497 0.991874 -0.586046 -0.511593 -0.755138 0.115235 0.110621 -0.080499 0.123187 -0.213344 0.435033 -0.431884 0.655751 -0.336677 0.186633 -0.031996 0.258554 -0.256505 -0.270622 0.882173 0.246278 -0.713496 1.182707 0.128382
ve -0.469884 -0.029986 0.155609 -0.511234 0.079488 0.598067 -0.448536 0.247065 0.178803 0.419888 0.205774 0.501636 0.260012 -0.621428 0.354959 0.205321 -0.762094 0.313233 -0.019415 0.744423 -0.560875 0.470281 0.162877 0.533749 0.864291 0.409474 0.305499 0.222775 -0.128636 0.500180 -0.359221 -0.291210 -0.268585 0.081164 0.547096 -0.982292 -0.737975 -0.270920 -0.577660 0.932183 0.078721 -0.260801 0.097802 -0.399254 -0.267993 0.173390 -0.095362 0.555913 0.063561 0.714102 0.114457 -0.101991 -0.497110 0.526237 0.671452 0.646933 -0.539076 0.461611 0.713270 -0.399961 -0.633089 0.456806 -0.159204 -0.252464
ah -0.713235 -0.349759 -0.349275 0.497671 0.435995 0.306416 -0.456022 -0.687433 0.422702 -0.464238 -0.218588 0.093086 0.826365 0.163319 0.103958 -1.092306 -0.160006 -0.394155 -0.236092 -0.766538 -0.432564 0.313338 -0.314406 0.585037 0.517806 -0.688738 0.187127 -0.359564 -0.729618 0.042643 0.274794 -0.456622 -0.236732 -0.143975 -0.076894 -0.894592 -0.284482 -1.034700 0.089374 0.516365 0.491542 -0.072124 -0.258785 0.303269 0.089538 0.213155 -0.013298 0.547444 0.155275 -0.143945 0.153146 0.609037 -0.690549 0.454657 0.569914 0.411701 0.207059 0.613690 0.123414 -0.401266 0.295328 -0.595700 -0.785022 -0.130327
oh -0.083880 0.247208 0.189445 -0.316739 -0.008330 -0.223804 0.527109 -0.396216 -0.152601 -0.361740 -0.811576 -0.269851 0.185134 -0.282595 0.035811 0.451056 -0.989868 -0.212815 -0.788276 -0.570057 -0.219685 0.084646 0.198563 -0.722404 0.372520 -0.542841 0.090669 0.056981 0.963859 0.873138 -0.226648 0.093110 0.698254 -0.559150 1.208336 0.098881 -0.289790 0.128875 0.346306 -0.150743 0.382380 0.172203 0.693959 0.298517 0.178126 0.343736 -0.915296 -0.360751 -0.064656 0.430032 0.298903 0.306998 0.674378 -0.200384 -0.167414 0.248519 0.159271 1.090971 0.097940 -1.080837 -0.074392 0.083383 -0.381687 -0.119976
don't -0.379747 -0.492047 -0.430831 -0.302259 -0.213383 0.346408 -0.549434 0.221997 0.658284 -0.095863 -0.016790 0.662783 0.012039 -0.400125 -0.076092 0.059084 -0.066767 -0.792932 0.024954 -0.044998 -0.378611 -0.164212 -0.442511 -0.308786 0.739802 0.259537 0.365168 -0.335067 -0.728585 0.216080 -0.137502 -0.770150 -0.443223 0.300725 0.251009 0.235074 -0.118829 -0.786612 -0.540088 0.311489 -0.086067 -0.524303 -0.875705 0.154564 0.018113 -0.429152 0.299468 0.254656 0.444540 -0.414333 -0.066635 -0.830800 -0.778994 0.457566 0.758838 0.212066 0.654063 -0.095116 -0.223070 -0.057448 0.630827 -0.483215 0.541868 0.262263
er@@ -0.296541 0.173196 -0.497679 0.589478 0.393709 -0.634589 0.164841 0.602123 0.112182 0.431407 0.554145 -0.793109 0.298033 -0.058138 0.526375 0.078058 0.760755 0.030587 -0.421311 -0.114623 -0.444061 -0.403054 -0.497701 0.079499 -0.695199 0.424835 -0.063636 -0.300591 -0.227508 -0.174677 0.045215 -0.695165 -0.592178 0.176366 -0.639432 0.254319 0.665847 0.595623 -0.455489 -0.614075 -0.622827 0.252635 -0.275167 0.039226 0.357453 0.525341 -1.388783 -0.513985 0.362554 0.085270 0.129362 -0.159553 0.689252 0.366904 -0.177509 0.079490 -1.145072 -1.054651 -0.171216 0.661744 1.170582 0.134388 -0.610755 0.758600
there -0.396863 -0.204687 0.069571 0.407071 -0.137906 -0.398707 -0.264403 -0.709192 0.620097 -0.216505 -0.000257 -0.525077 0.377227 -0.577148 0.088533 -0.587800 -0.973135 -0.574960 -0.861348 -0.165901 0.137152 0.736670 -0.410460 -0.342319 0.298107 -0.346396 0.648509 0.144870 -0.046341 0.227178 -0.656791 0.160017 0.073433 -0.679365 0.698106 -0.774306 -0.257795 -0.033897 0.362126 0.929417 -0.353613 -0.368970 0.223248 0.173813 -0.314019 0.544478 0.402073 0.222164 0.266022 0.363132 0.410436 0.579954 -0.178144 0.041911 0.483294 -0.094897 0.039817 0.730901 0.223843 -1.238422 0.116146 0.373327 -0.315531 0.384741
know 0.091480 -0.373458 0.894360 0.189331 0.327423 0.631575 -0.514317 1.030389 -0.141371 -0.459242 0.317474 0.492975 0.352527 0.461728 -0.101302 -0.263966 0.114198 -0.105597 0.341430 0.178864 -0.411473 -0.924271 -0.374579 -0.042154 -0.301087 0.485193 0.502490 -0.550909 -0.091203 0.060004 -0.618402 0.281617 0.029569 0.216612 -0.344474 0.407902 -0.140939 -0.243057 0.186554 -0.614762 -0.184876 0.698104 0.276558 -0.090554 -0.767145 0.299202 0.079579 -0.457725 -0.190206 0.343142 -0.307165 -0.418659 0.472687 0.304245 -0.650443 -0.161036 0.011810 -0.259397 0.335582 -0.144803 0.326097 -0.166448 0.455229 -0.426596
so 0.008317 0.257115 0.907649 -0.289200 0.165693 -0.232318 -0.475392 0.375790 0.305881 0.177593 0.604691 0.639632 0.356062 0.550257 0.482428 0.398662 0.928147 -0.428698 0.246279 0.699702 -0.357199 -0.859503 0.170676 0.091538 -0.728324 1.036489 -0.348549 -0.058091 -0.201545 -0.588034 -0.352833 -0.123704 -0.425527 0.725225 -0.872054 0.674464 0.548823 0.967288 0.348946 -0.328664 0.239780 0.078995 -0.268535 0.785505 -0.134890 -0.030436 -0.074245 -0.204968 -0.573357 -0.373979 0.029180 0.336744 -0.201559 0.313195 -0.097768 -0.035921 -0.625941 -0.867752 -0.826827 0.539695 0.083248 0.269058 0.779693 -0.043444
o -0.080845 0.846432 0.625778 -0.341844 0.052369 -0.638136 0.430370 -0.242778 -0.470731 0.328500 -0.376902 0.698262 0.154891 0.222684 0.292566 -0.068411 0.381232 0.696168 0.168058 0.050803 0.276373 -0.416208 0.996967 -1.022732 -1.027408 0.286793 -0.020237 -0.642780 0.872110 0.109591 -0.982215 0.542836 -0.668115 0.048842 0.361664 0.769242 -0.208317 1.464311 -0.370853 -1.218168 -0.255588 0.439702 0.457156 -0.068503 -0.158834 0.040850 -0.487953 -0.343912 -0.254646 0.591897 -0.210903 0.276179 0.878054 -0.089969 0.297432 0.638427 -0.180398 -0.291910 -0.387333 -0.184764 -0.290001 -0.283965 1.151042 0.665266
ou@@ -0.459194 -0.222907 -0.190989 -0.316304 -0.117340 -0.107943 -0.065724 -0.057040 -0.059069 0.081172 -0.435331 0.030324 -0.192648 0.373713 -0.433241 -0.279607 -0.524890 -0.510978 -0.119838 0.018325 0.025990 0.047249 0.287920 -0.988262 0.535528 -1.131657 0.039697 -0.460922 -0.268029 0.640826 -0.168938 -0.091063 -0.323792 0.176386 0.333595 0.008271 -0.060043 0.456123 0.338452 0.398468 -0.053193 0.731164 -0.881282 0.084720 -0.149308 0.209410 0.322146 -0.402551 -0.756695 0.245559 0.433625 -0.100823 0.093417 0.145268 -0.410098 0.100713 -0.547110 -0.211973 -0.836942 -0.260985 0.353354 0.412173 0.088072 -0.052890
because 0.849132 0.880561 -0.025835 0.466119 0.429731 0.038361 -0.701153 0.134461 0.541240 0.356472 0.242297 -0.030306 0.930752 -0.060153 -0.182777 0.666020 0.820328 -0.089343 0.019428 -0.012979 -0.102049 -1.358008 -0.640874 0.397779 0.405377 0.072757 -0.143071 0.199549 -0.420971 -0.928135 0.654283 0.150374 0.164074 0.263426 -0.390220 0.053574 -0.155347 0.270091 0.659725 -0.176738 0.012283 -0.215581 0.344815 0.979346 0.551853 0.493910 -0.120917 -0.427763 0.221249 -0.479635 0.530832 -0.158177 -0.317235 0.099442 -0.221892 0.656932 -0.641627 -1.013484 -0.497985 0.569261 -0.127610 -0.134416 -0.833427 -0.088772
li@@ -0.335579 -0.075299 0.389871 0.766401 0.287806 -0.389989 -0.206401 -0.846117 0.304932 0.420443 0.769796 0.222872 0.711212 0.260383 0.284771 -0.005656 -0.199167 -1.140677 0.472864 -0.594752 -0.024069 0.709012 0.337475 0.230253 -0.198080 -0.101316 -0.057345 0.619261 -0.373828 -0.049108 -0.534171 0.564120 0.150041 0.347634 0.753179 -0.340020 0.108284 0.097566 0.693154 0.306992 0.492419 -0.501486 0.235263 0.557151 -0.470703 0.121997 -0.046497 0.854772 -0.574012 0.284192 -0.329792 0.815343 -0.365962 0.272024 0.636598 0.166479 0.447766 -0.073780 0.016083 0.023613 -0.106063 -0.450179 0.309808 -0.111332
di@@ -0.072174 0.084327 -0.039760 0.889580 0.036826 -0.206076 -0.327867 0.173962 0.399804 0.409186 -0.153830 -0.153914 0.607712 0.240436 -0.608692 0.058232 -0.932879 -0.531124 -0.804081 -0.540172 -0.328145 0.449798 -0.270025 0.791494 -0.227002 0.529293 0.574182 0.259649 -0.700738 0.904433 -0.363273 -0.300563 -0.124911 1.034373 0.320805 -0.245232 0.382797 -0.571083 0.226178 0.254637 0.440382 -0.017765 -0.330474 0.130215 0.161159 -0.587664 0.349499 0.749099 -0.126805 -0.266150 -0.435362 -0.043370 -0.878932 0.363165 0.398781 -0.365746 0.089831 -0.162081 -0.355129 0.196500 0.702388 0.498820 0.426772 0.081021
what -0.391547 -0.266483 0.787249 -0.574947 -0.438882 0.096287 -0.412050 0.486540 -0.062793 0.830386 0.114617 0.223640 -0.114690 1.323387 -0.278921 -0.507949 0.554545 -0.397081 0.927579 0.780132 0.383648 -0.310118 -0.059499 0.446618 0.167316 -0.415392 -0.495346 -0.354619 -0.209987 -0.392415 -0.676758 0.139539 -0.168775 0.595734 0.048911 0.355376 0.351193 -0.876590 0.066880 -0.273183 -0.095613 0.403230 0.194932 -0.090070 0.254727 -0.821679 0.293542 -0.075306 -0.973256 -0.470893 0.521590 -0.285439 -0.052188 -0.222827 -0.101806 -0.316045 0.020490 -0.436825 0.293818 -0.069686 0.179972 0.046088 -0.048166 -0.705855
k@@ 0.175249 -0.716541 -0.830298 -1.154106 0.292451 0.805316 0.029263 0.278136 -0.445549 -0.927664 -0.569841 0.225194 -0.226908 -0.445187 -0.386829 -0.280093 0.178775 -0.065786 -0.127634 -0.239643 0.661799 -0.129389 0.382919 -0.420646 0.499332 0.025000 -0.116116 -0.691904 0.258940 -0.096254 -0.100321 -0.027407 -0.161598 0.213583 0.115397 0.677914 0.536767 0.005843 0.204336 -0.454017 -0.348385 0.399946 -0.238613 -0.397243 -0.406257 0.142986 0.335357 -0.076357 0.211593 -0.182288 -0.000170 -0.766980 0.956804 -0.592022 -0.169974 -0.131632 0.214133 -0.311888 0.282802 0.230969 0.481933 -0.290894 0.006000 0.335404
at@@ -0.388519 0.493309 0.190634 -0.102838 0.121166 -0.215258 -0.677374 -0.542396 0.911997 0.074332 0.167297 0.720590 -0.278589 0.437406 0.501197 -0.579802 0.520990 -0.222027 0.546703 -0.148735 0.055010 1.148611 0.237775 -0.104250 -1.209743 0.269147 0.095186 -0.056036 -0.380686 -0.689185 -1.146468 -0.596941 -0.528340 0.665115 -0.543403 0.147576 0.092553 0.264725 -0.365640 -0.433274 0.327381 0.296095 0.332088 0.276368 0.005856 -0.423617 0.503081 0.980794 -0.517316 0.005094 -0.030859 0.588215 0.467333 0.461916 -0.091520 -0.256333 -0.254501 0.183542 -0.236666 0.100283 -0.811749 0.323746 0.599559 0.194115
st 0.149556 0.386759 0.230735 0.004639 -0.486495 0.722799 0.138610 -0.526610 0.085582 0.201604 -0.743356 0.075385 -0.058803 0.083452 -0.555609 -0.287232 -0.468025 -0.009405 0.036935 -0.035612 0.434891 -0.506573 -0.607129 -0.425659 0.279528 -0.867749 -0.046181 -0.199726 -0.044502 0.040898 -0.382054 0.160111 -0.165963 0.119893 0.398686 -0.566519 -0.403291 0.329798 0.420918 -0.239365 -0.056175 0.764221 -0.332294 0.135327 0.095510 0.431063 0.323133 -0.762538 -0.161442 0.333814 0.174561 0.036749 0.242257 -0.552408 0.106510 -0.238735 0.091028 0.059354 -0.382979 0.085782 0.079545 0.037672 0.115797 0.642385
en 0.632666 -0.512140 -0.018842 0.637425 0.656006 -0.210571 -0.196566 -0.115413 0.867195 0.164998 -1.002506 -0.008787 0.960798 -0.040650 -0.625611 -0.328291 -0.477963 -0.321698 -0.002258 -0.773324 0.068687 0.435776 -0.133479 -0.318685 0.244141 -0.937657 0.200233 0.410742 -0.258128 0.358862 -0.674812 0.144033 0.171715 -0.581596 -0.858501 -0.504080 -0.017342 0.129607 -0.032997 0.377065 0.370560 -0.337429 0.243895 -0.451738 -0.502985 0.148851 -0.395920 0.901412 -0.303637 0.003674 -0.662401 0.860135 0.214904 0.822706 0.224355 0.065668 0.581633 0.513471 0.407654 -0.298367 0.189142 -0.029326 -0.278742 -0.340211
for -0.501526 0.044393 -0.682134 -0.532454 -0.024446 -0.122738 -0.843503 -0.640242 0.375144 -0.140741 0.482846 0.667394 0.232543 -0.058816 0.482095 -0.381604 0.182829 0.257824 0.139008 0.131757 0.056724 0.918406 -0.024228 0.445722 -0.067630 0.025179 -0.295640 -0.080044 -0.626682 -0.098944 -0.943901 -0.004628 -1.014175 -0.146865 -0.932918 0.188021 0.048805 -0.403080 -0.164937 0.008513 0.271730 0.463204 -0.626875 0.003291 -0.115502 -0.097918 0.426935 1.213959 -0.421422 0.225393 0.348773 -0.260419 0.421664 0.247247 0.487097 -0.143005 -0.103801 -0.258884 -0.289443 0.455581 -0.241481 -0.284398 0.276520 0.157882
mm 0.797329 0.745587 0.152368 0.294971 0.247169 0.332176 -0.833559 0.520777 0.304547 0.487501 -0.909198 -0.848704 0.172422 0.352073 0.053209 0.222645 0.630288 0.333525 0.005440 -0.402906 -0.094192 -1.291679 -0.278995 0.508508 -0.020930 0.328617 0.224925 0.539680 -0.897887 -1.488397 -0.173386 -0.199106 -0.872754 0.624800 -1.771136 0.667151 -0.315304 0.636649 0.438671 0.147581 0.395371 0.093939 -0.086335 0.345064 0.041923 0.581563 -0.250467 0.347135 -0.749103 -0.491599 0.569832 -0.065270 0.561911 -0.006725 -0.446809 0.525895 -1.370980 -0.600672 -0.028197 1.080155 0.412661 0.435520 -0.440782 -0.398737
or@@ -0.043211 -0.878988 -0.032079 -0.263084 -0.077867 -0.251846 -0.118368 -0.860067 -0.403976 -0.880779 -0.379482 0.048566 0.299202 0.346712 0.478525 -0.221552 -0.458213 -0.413453 0.045337 -0.566690 -0.542378 0.812435 -0.263637 0.370608 0.121589 -0.476614 0.785445 -0.198822 -0.572688 1.120194 -0.551989 0.177787 -0.294895 -0.056022 0.354373 -0.872132 -0.711535 -0.110876 -0.320850 0.541657 -0.399775 0.257953 0.037104 0.028148 -0.923073 0.418097 0.331591 0.638488 0.182545 -0.094345 -0.484581 -0.139485 0.145741 0.229153 0.228627 0.373424 0.090608 0.549889 0.154322 -0.562564 -0.411499 -0.355183 0.020026 -0.463045
k 0.296289 -0.460213 0.768778 0.367189 -0.429612 0.202505 -0.050697 -0.043923 0.658633 0.427482 0.508544 -0.499599 0.627162 0.569226 0.101990 -0.113093 -1.161844 -1.412578 0.227842 -0.089145 -0.165303 0.202424 0.309914 0.447802 0.169802 -0.713416 -0.233947 0.722600 -0.101797 -0.430714 0.506669 0.173291 -0.682086 0.283075 -0.405773 -0.474389 -0.887297 -0.186693 0.222114 0.999657 -0.418143 -0.316098 0.321027 0.078768 0.583033 0.440067 -0.139199 0.876002 -0.284934 -0.165251 -0.171335 0.284352 -0.091103 -0.135017 0.854787 -0.233324 -0.180093 -0.005721 0.208981 -0.517750 -1.212742 0.889135 -0.486452 -0.875286
one -0.572107 -0.043029 0.000914 -0.639514 -0.285862 -0.545266 -0.069277 0.048829 0.588050 -0.076186 0.614472 0.917292 0.016233 0.553232 0.595570 -0.331617 0.190827 -0.181238 0.012187 0.150760 -0.540493 1.090599 0.297244 0.322808 -0.889901 0.875304 0.536600 -0.434366 0.172808 -0.167335 -0.353458 -0.375835 -0.526794 0.109979 0.255402 0.323218 -0.442295 -0.224159 -0.628598 -0.168448 -0.122787 -0.097553 -0.593274 -0.153471 -0.165869 -0.283388 0.097932 0.373414 -0.136446 0.156680 -0.082157 -0.361386 -0.527729 0.656536 0.063117 0.614601 -0.472147 -0.137825 0.023154 -0.212842 0.152644 -0.371432 0.807492 0.231216
th@@ 0.793337 0.262998 0.099055 0.794922 0.439221 -0.629521 0.438181 0.173571 -0.200275 0.815571 -0.626865 -0.194912 0.800133 0.073291 0.075867 0.086169 0.241904 0.309787 -0.026428 0.090240 0.242551 -0.236953 0.097479 -0.521235 -0.656064 0.301753 -0.024278 0.095920 0.781681 0.442398 0.703688 0.396705 0.385550 -0.044407 0.322403 -0.166755 0.163120 0.028864 -0.026904 0.360309 -0.029096 -0.035239 1.093937 0.055424 0.399175 0.164853 -0.741165 -1.309615 -0.507498 0.258171 0.037764 0.629387 0.286568 0.686359 -0.159571 0.362889 -0.491222 0.177699 0.061676 -0.156919 0.849637 0.261171 -0.284131 0.730643
ri@@ 0.741366 -0.384628 -0.084715 -0.193689 -0.084645 0.761850 0.289307 0.835182 0.122934 0.227697 -0.193468 -0.255086 0.205272 -0.355662 -0.606666 -0.424981 -0.181306 0.471007 -0.129130 0.173169 -0.319107 -0.625296 -0.478106 -0.660375 0.032906 -0.276916 0.257864 -0.513867 -0.245898 -0.113291 -0.789422 0.393135 -0.699636 -0.408836 -0.472043 -0.397567 -0.378308 -0.307592 -0.076246 0.242878 -0.017719 -0.142303 0.061189 -0.012431 -0.224134 0.478442 -0.823491 -0.056518 -0.689175 0.215226 -0.071356 -0.392365 0.490751 -0.467449 -0.294329 0.398128 -0.452384 -0.292421 -0.200629 -0.273345 -0.117350 0.021535 -0.653831 -0.490625
r 0.369295 -1.056430 -0.169843 -0.155130 0.009483 0.037475 -0.434532 1.222062 -0.193704 -0.118231 -0.071951 0.240281 0.348798 -0.130148 -0.052889 -0.009064 0.665567 0.468312 -0.008689 0.600488 -0.215953 -0.817288 -0.486219 -0.135923 0.255196 0.212745 0.115541 -0.787441 -0.280127 0.095400 -0.051301 -0.362369 -0.363567 -0.049388 -0.452974 0.312264 0.150707 0.186558 -0.208968 0.006455 -0.040975 0.410414 -0.631388 0.062204 0.073318 -0.187037 -0.227291 -0.200379 0.159324 -0.611124 -0.214421 -0.520262 -0.220115 -0.501021 -0.918073 0.438306 -0.105928 -0.427891 -0.030356 -0.081166 -0.296586 -0.695146 0.035328 -0.726294
or -0.022864 0.469013 -0.196141 -0.394344 -0.116716 -0.140253 -0.503037 -0.109630 0.507106 -0.080294 -0.182329 0.136506 0.880430 0.375482 -0.183653 -0.809193 -0.097412 -0.102201 -0.341520 0.582185 -0.069374 0.846880 -0.504034 -0.370430 -0.032333 -0.046345 0.072770 -0.034904 -0.678316 0.018038 -0.970836 0.642108 -0.115691 0.399788 -0.229462 -1.367570 -0.241115 -0.424938 -0.098772 0.732783 0.318916 -0.819836 0.400111 -0.161736 -0.043521 -0.294006 0.389881 0.673619 0.269906 -0.173012 0.045220 -0.015203 -0.118323 0.193719 0.360908 0.194018 -0.382330 0.574221 -0.290141 0.143745 0.243848 -0.081888 -0.453682 0.130125
ac@@ -0.752765 -0.204065 -0.486920 -0.446367 -0.072913 0.204059 0.452772 -0.314000 -0.073323 0.168826 -0.532455 0.014676 -0.214194 0.538403 0.151475 -0.074831 -0.104583 -0.703340 -0.265681 -0.214377 0.092027 1.380415 -0.040659 -0.038656 -0.510944 -0.494138 0.010261 0.498582 -0.677509 -0.085047 -0.689206 -0.630585 -0.495550 -0.499804 -0.130074 -0.289128 -0.122124 -0.150070 -0.183285 -0.076178 0.231405 -0.465004 0.263439 -0.169846 0.289583 0.034748 0.653272 1.210713 -0.676253 0.062966 -0.063500 0.165969 1.026497 -0.114601 0.137873 0.408653 -0.604664 1.388717 0.372599 -0.366541 -0.691347 0.100090 0.190316 0.382227
be@@ -0.190840 -0.879009 0.464353 -0.123231 -0.521323 0.543620 -0.367840 -0.112864 0.224049 0.826640 -1.062553 -0.038808 0.094978 0.255972 -0.101932 0.361148 -0.232343 -0.859840 -0.189095 -0.461949 -0.361816 0.009750 0.151631 0.432684 0.627802 -1.128942 -0.030736 0.572499 -0.250822 -0.575366 -0.788609 -0.014169 -0.523805 -0.259469 -0.506531 -0.703772 0.239502 -0.037307 0.230249 0.235240 0.686946 0.162580 -0.335184 0.274656 0.095668 0.086212 1.047619 1.076799 0.392601 -0.238804 0.532900 0.200583 0.284053 -0.213575 0.010032 0.097832 0.324570 0.152422 0.272137 -0.188435 -0.376703 0.573371 -0.046203 -0.573483
was 0.276094 0.533573 0.476773 0.585048 0.048540 0.278013 0.221260 0.031225 0.511635 -0.058934 -0.055492 0.354965 0.289596 0.458203 -0.340682 -0.252921 0.272905 -0.073170 0.558318 0.535691 0.300858 -0.455211 -0.359729 -0.131357 0.234783 -0.199707 0.506689 0.808594 0.546034 -0.094802 -0.326002 0.356516 0.123356 0.083880 -0.242156 -0.427873 0.098725 -0.030298 0.315698 -0.167446 -0.340154 0.493765 0.185521 0.280717 -0.305842 0.093205 0.057667 -0.422263 -0.248995 0.552468 0.062388 -0.003593 1.141964 0.118363 -0.120448 -0.203223 -0.371507 0.200586 -0.064995 -0.245993 0.124062 0.823363 -0.320245 -0.048057
el@@ 0.369912 0.510489 -0.196840 -0.101423 -0.059044 0.223213 0.261599 0.194343 0.160486 0.393730 -0.532604 0.305139 0.107364 0.383953 0.009899 -0.055197 0.257071 0.100508 0.046606 -0.258792 -0.176502 -0.208148 -0.363460 -0.443273 0.078249 -0.451024 -0.101312 0.027121 0.173156 0.147900 -0.262865 0.236326 0.044726 0.358809 -0.319702 -0.135839 0.284400 0.325127 -0.113960 0.360109 -0.053041 0.198177 -0.190613 -0.294986 0.127804 0.133571 0.473565 -0.399314 -0.302021 0.607768 0.467824 0.204290 0.217538 0.111324 -0.484958 -0.009904 -0.675974 0.239387 -0.427306 -0.105980 -0.103258 0.382699 0.171316 0.086152
ex@@ -0.196347 0.328413 -0.017349 0.081424 0.079250 -0.001859 1.042198 1.229538 -0.596137 -0.458887 -0.407295 -0.211413 -0.123326 -0.941042 -0.442048 -0.579381 0.583724 0.783597 -0.265222 -0.126288 0.023132 -0.183349 -0.426547 0.263718 -0.367591 0.002439 0.319819 -0.636325 0.589643 1.045725 0.085224 -0.000292 -0.026590 -0.675728 0.833104 0.473375 -0.023307 -0.391733 -0.948114 -0.896237 -0.181705 0.236123 0.039403 -0.962044 -0.497084 0.216833 -0.470919 -0.830348 -0.090791 0.005253 0.300026 -0.167562 0.220954 -0.033102 -0.512313 -0.007761 -0.011988 0.133281 0.275305 -0.307823 0.973832 -0.380135 0.545084 0.334175
si@@ -0.226705 -1.143439 0.477377 -0.707400 0.676552 0.648885 -0.690774 -0.636529 0.574937 0.938968 0.358467 0.665157 -0.070227 0.223314 -0.464265 -0.073562 0.415504 -0.589651 0.125144 -0.171999 -0.222530 0.448416 -0.773061 0.330110 0.331353 -0.036744 -0.380630 -0.078861 0.449541 0.345536 0.383014 0.207277 0.309826 0.086430 -0.326188 -0.350095 0.129336 -0.352339 -0.857074 -0.098929 -0.453287 0.007598 -0.081696 -0.009144 -0.305304 0.026011 -0.345216 0.619638 0.472278 0.198273 -0.498400 -0.528037 -0.365024 1.109007 -0.052439 0.354132 0.260880 -0.270481 0.236193 0.075786 -0.310869 -0.208405 0.261446 -0.442466
not 0.285800 0.088472 0.201219 -0.179525 0.033753 0.023109 0.769030 0.055483 -0.199002 0.531228 -0.118385 -0.318236 -0.062449 0.280873 -0.035024 -0.048049 -0.009142 0.131101 0.398938 0.612321 0.310942 0.671386 0.247941 -0.320791 -0.475069 -0.288711 0.176511 0.326480 0.728135 -0.100349 -0.076818 0.457723 -0.216078 0.261949 0.165958 -0.676153 0.162420 0.324913 0.530392 -0.123174 -0.398915 0.108972 0.433769 -0.064482 -0.471420 -0.025096 0.151069 0.239345 0.211722 0.061455 -0.093733 0.082932 0.418443 -0.153260 -0.211890 -0.082396 -0.648918 0.649241 0.638119 0.030669 -0.134923 0.120100 -0.535029 -0.140943
se -0.071326 -0.413136 0.108623 0.075186 0.063081 0.437407 -0.711111 0.155856 0.418782 -0.153906 0.088686 0.181255 -0.164335 0.454195 -0.263714 0.109764 -0.119798 -0.165110 0.087546 0.589906 -0.048287 -1.088232 0.297012 0.280157 0.729032 -0.276881 0.519507 -0.268348 -0.572702 -1.071985 0.756945 0.190381 -0.138491 -0.091904 -0.394890 0.007260 -0.296207 0.198197 -0.404711 0.619158 0.004541 0.308256 -0.806360 -0.400414 0.158258 -0.317848 -0.037266 0.046411 -0.080638 -0.907764 0.740262 -0.824226 -0.383732 -0.508879 -0.824426 0.106103 -0.555917 -0.354108 -0.108614 0.202494 -0.257940 -0.301150 -0.269506 -0.646549
er -0.775621 -0.937700 -0.710551 -0.644804 -0.210419 0.379692 0.220216 -0.175597 -0.240190 -0.366112 0.205458 0.636500 -0.654319 -0.379930 -0.040544 -0.444352 -0.417078 -0.027378 0.647336 0.267368 0.308280 0.347860 0.388618 -0.300011 0.265360 -0.351496 -0.122298 -0.794443 -0.220448 0.459017 -0.346211 -0.195712 -0.174820 -0.430562 -0.085703 0.793399 0.424137 0.225010 0.008535 -0.033246 -0.207644 1.273079 -0.723352 -0.472372 -0.415665 0.095370 0.583476 0.008614 0.297759 -0.479559 0.020892 -0.554512 -0.119966 -0.413984 -0.336372 0.406317 -0.084698 -0.004825 -0.269956 -0.117820 0.614803 -0.094738 0.346395 -0.417991
do 0.661645 -0.130030 -0.023794 -0.215673 0.228584 0.122620 0.522344 0.307368 0.037458 0.140708 -0.978433 -0.486225 0.251751 0.533168 -0.199316 0.676178 -0.820117 0.096529 -0.315337 0.930703 0.088933 -0.951255 -0.216486 0.396342 -0.077343 -0.550456 -0.119716 0.297604 0.051859 -0.423543 0.013207 0.407299 0.390035 0.084675 0.305817 -0.195515 0.612456 0.602346 0.116714 0.375213 -0.123655 0.110478 -0.063800 -0.534724 0.609940 0.270283 -0.363225 -0.084993 -0.141764 0.111021 0.379715 -0.167580 0.799529 -0.356759 -0.820110 0.437233 -0.533486 0.579542 0.082079 0.479431 -0.919707 0.195883 -0.354504 0.182956
ly -0.396426 0.267694 -0.641900 0.013421 0.244383 -0.241119 -0.434586 0.513675 -0.503447 -0.116830 0.636715 1.009356 -0.503389 -0.532414 0.007340 -0.016692 0.214300 -0.065580 0.173293 0.331882 0.236014 -0.344818 0.009175 -0.528003 -0.118640 1.077372 0.542614 -1.105321 0.457900 0.029170 0.471231 0.369244 0.037678 0.161779 -0.142082 0.424629 0.444402 0.294979 0.213898 -1.370148 -0.401039 0.263325 -0.294653 -0.182291 0.135858 -0.191471 -0.359061 -0.336069 0.500697 0.496440 0.223566 -0.385495 0.578338 0.035927 0.607225 -0.226556 -0.520331 -0.105510 0.110438 0.321047 0.350379 -1.269849 0.699064 0.340117
le 0.752704 0.647830 0.197300 0.183856 0.311097 -0.332484 0.676762 0.803294 -0.194922 0.447064 -0.276797 0.222858 -0.122910 0.166003 -0.080061 0.162950 0.565328 0.889435 0.310353 0.404524 0.059120 -0.490064 -0.023720 -0.098200 -0.554631 0.455481 -0.141677 -0.572549 0.990207 -0.103459 0.016485 0.427614 0.178860 0.193103 0.269332 0.116185 0.195505 0.758609 -0.397717 -1.111683 -0.782594 -0.428248 0.512006 -0.175104 0.563631 0.085263 -1.050482 -0.838383 0.123646 0.595263 -0.219542 -0.234248 0.793653 0.390130 -0.395885 0.149309 -0.213138 -0.246075 0.367549 0.077550 -0.031345 -0.375907 0.144619 0.748796
right -0.065831 0.847744 1.333993 0.597055 0.394413 -0.517723 -0.024408 0.513846 0.442090 -0.225357 0.813689 0.384757 0.324659 -0.318168 0.452437 -0.543597 0.518441 -0.372249 -0.000501 0.093739 0.189826 0.168546 -0.339947 0.241670 -0.164549 1.029918 -0.370969 0.203107 0.084977 0.219833 -0.965998 -0.131403 -0.866577 0.913908 0.090634 -0.136337 -0.064856 0.183952 0.100686 -0.535422 -0.239381 -0.014690 -0.428247 -0.121270 0.082155 0.060566 -1.032032 0.386597 0.174450 0.365372 0.314498 0.539342 0.277946 0.459247 0.390927 -0.275405 0.162649 -0.414470 -0.178129 -0.218065 -0.697171 0.409774 0.245684 0.557514
aha 1.175790 0.699123 -0.029636 0.653413 0.318590 -0.208116 0.026497 0.446863 -0.097976 0.558811 0.198866 -0.358604 0.448672 0.531557 -0.134621 0.109622 0.286073 0.856692 -0.228227 0.002160 -0.631587 -1.289155 -1.257472 0.184789 -0.346790 0.006199 -0.298243 0.219506 0.223051 -0.484925 0.491526 0.528442 0.322280 0.056072 -0.741202 -0.078774 0.395347 0.189152 0.293637 -0.222610 -0.202310 -0.803107 1.011420 0.144453 0.773299 0.343866 -0.310245 -0.459934 0.111693 -0.051305 0.310238 0.138197 0.192763 0.120003 -0.562860 0.242025 -1.013511 -0.411069 -0.005144 0.269007 0.107550 0.277163 -0.691614 0.148410
from -0.476954 0.556165 0.170526 -0.401214 0.287437 0.520259 0.087211 0.237055 0.059072 -0.502908 -0.490052 0.248894 0.223905 0.103739 0.400605 -0.205348 0.233142 -0.022223 -0.639198 -0.177352 -0.297957 0.228323 -0.056436 -0.235649 0.053786 0.350495 0.414481 -0.459535 -0.849299 0.322224 -0.402700 -0.458017 -0.394973 0.915021 -0.174614 -0.200395 0.578755 0.014680 -0.275270 -0.668429 -0.008121 0.147794 -0.645816 0.189288 -0.330576 -0.034038 -0.217875 -0.023805 -1.089116 0.580013 -0.003342 -0.824381 0.992175 0.567210 -0.962959 0.459849 0.026308 0.258454 -0.982049 -0.186775 0.616452 -0.148992 0.201935 0.342748
un@@ 0.307734 0.990256 0.367088 -0.340379 -0.002950 0.020338 0.422712 0.405558 -0.003770 0.411963 -0.584406 -0.342765 0.100895 0.371638 0.172952 0.183136 -0.593767 0.241175 0.212888 -0.126734 -0.286465 -0.268623 -0.757489 0.061742 0.175098 0.021375 -0.202965 0.502601 0.385578 -0.227938 -0.001278 0.659711 -0.431349 0.013111 -0.355399 0.311367 0.115820 0.438463 -0.364982 -0.084100 -0.276083 -0.344619 -0.244327 -0.248351 0.177019 -0.096478 -0.172300 -0.319382 -0.581733 0.571996 -0.660079 -0.098383 0.441079 -0.048088 0.200815 -0.721079 -1.020091 -0.247101 -0.125263 -0.160220 -0.700214 0.260527 -0.279020 0.312737
l 0.323441 0.171000 0.245579 0.635120 -0.330889 0.194987 -0.058957 -0.390017 0.383048 0.332472 -0.399500 -0.063770 0.214624 0.033522 -0.004739 0.566099 -0.096831 -0.290795 -0.451240 0.700022 0.276829 -0.166184 -0.604275 0.268458 -0.722542 -0.079248 -0.172442 -0.254461 -0.163173 -0.207265 -0.025257 0.294323 -0.591059 0.114611 -0.495345 -0.052982 0.129952 0.630190 -0.129353 0.204552 0.292661 0.011345 -0.293268 0.462090 -0.242786 -0.265125 -0.030077 -0.304332 -0.293426 0.754144 0.535832 0.522802 0.423542 0.260465 -0.282796 0.537998 -0.860169 0.435613 -0.028554 0.415665 0.476763 0.468487 -0.354195 0.551041
uh -0.078186 0.013304 0.593471 -0.048582 0.015108 -1.009508 0.047696 -0.822167 0.255965 0.107573 0.888958 0.557835 0.387532 -0.514004 0.106641 -0.167027 1.017988 -0.214581 -0.152674 0.211243 -0.538201 0.782921 1.276242 0.602741 -0.694610 1.540491 0.268700 -0.388838 0.146886 0.642868 -0.902466 0.517810 -0.208665 0.027041 0.612700 0.446998 -0.323893 0.253917 0.022787 -0.497664 0.015034 0.125152 -0.517638 0.183719 -0.052081 0.233024 -0.425379 -0.098379 -0.501176 0.359975 0.427552 0.609786 -0.443964 0.838262 1.262421 -0.335786 0.065386 -0.419372 -0.430129 -0.209263 -0.602921 -0.378676 1.064014 0.302914
hi@@ -0.761671 -0.080950 -0.455445 -0.880806 -0.590455 0.217030 -0.458556 -0.507325 -0.511634 -0.399830 -0.094732 0.577692 -0.709494 -0.123234 0.616575 0.830792 0.060730 0.041245 0.136956 -0.106023 0.081557 -0.153005 -0.190475 -0.661463 0.903183 0.494709 -0.941958 -1.394465 0.008155 -0.156140 -0.758210 -0.516845 0.088524 -0.431707 0.496604 0.751623 -0.145138 0.311643 0.146059 -1.048664 0.041382 0.149715 -0.283944 0.131887 0.422928 0.281598 0.345455 -0.198082 -0.121256 -0.121263 0.230878 -0.672433 -0.029030 -0.992626 -0.418249 0.477300 0.773500 -0.027378 -0.003245 0.492427 0.245098 -0.717948 1.010579 0.395879
with -0.434120 -0.064767 -0.499240 0.624599 0.006026 -0.324784 -0.477492 -0.421546 0.357429 -0.160119 0.005153 0.434935 0.903650 -0.245393 0.277417 -0.871172 0.917952 -0.654803 0.305097 -0.745598 -0.246635 1.312233 -0.431987 -0.233634 -0.345276 -0.114742 -0.101648 -0.500230 -0.526708 1.193402 -0.042172 -0.257959 0.263551 -0.116063 0.366317 0.251274 0.454391 0.066328 0.034213 -0.046234 0.145364 0.006410 -0.772535 0.762452 -0.061951 -0.617554 0.514591 0.087517 -0.058691 0.006759 0.262119 0.663815 -0.204778 0.335699 0.661185 -0.612898 -0.014148 -0.068901 -0.756746 -0.938664 -0.449616 0.079335 0.383977 -0.091702
ne@@ 0.545572 -0.092211 0.795934 -0.127398 0.083751 -0.092733 0.003534 -0.553052 0.315400 0.174858 0.074140 -0.105581 0.858119 0.273824 -0.514597 -0.170907 -0.200637 0.447281 0.040044 0.179133 -0.528880 -0.523362 0.192794 -0.033973 0.433003 -0.689157 0.045795 -0.790511 -0.164839 -0.139143 0.088420 0.053651 -0.145588 -0.247212 -0.255330 0.611141 -0.328638 -0.018631 0.310421 0.172176 0.049956 0.736576 -0.405560 0.094069 -0.133364 0.183931 -0.348507 -0.055606 -0.381893 0.150968 0.530062 -0.103452 0.308072 -0.148040 -0.523822 -0.065787 -0.285562 0.075491 -0.262686 0.004390 -0.052862 -0.432267 -0.232735 -0.604815
ic@@ -0.574909 0.329517 -0.204489 0.284639 0.155085 0.108129 1.300341 -0.061469 0.156317 0.051486 -0.212216 0.353447 0.401972 -1.017227 0.142215 -0.075725 0.173457 0.223308 -0.766908 -0.266439 0.037260 0.184325 -0.215156 -0.888831 -0.235416 -0.183008 0.605266 -0.295233 0.898928 1.288186 -0.031259 0.539151 0.104785 -0.582660 0.669832 -0.143128 -0.071779 0.340319 0.224556 0.154879 0.068065 0.052960 0.072491 0.182033 -0.337334 -0.081075 -0.381282 -0.301620 -0.188533 0.636392 -0.036943 0.211967 -0.319643 0.759496 0.350081 -0.255912 0.157489 0.345902 -0.179706 -0.569144 0.307763 -0.545547 -0.202455 -0.040979
ea@@ 0.320259 0.275067 0.138461 -0.336055 -0.039053 0.713993 -0.502939 0.113329 0.505357 0.024843 0.511176 0.098123 -0.297228 -0.626922 -0.626963 0.699602 -0.756913 -0.414519 0.227696 -0.658079 0.113069 1.081847 0.017427 -0.244260 0.782104 -0.369277 0.192623 0.701018 -0.994443 0.805331 0.592108 -0.159507 0.355430 -0.806030 0.055557 -0.258167 0.282508 -0.016939 -0.385887 0.056178 0.294906 0.179193 -0.794573 0.328352 -0.265800 -0.534737 0.266701 0.517062 -0.352625 0.220717 0.041773 -0.169339 0.868861 0.387020 -0.029249 -0.199604 -0.670677 0.341345 0.434384 0.604668 0.223137 -0.424402 -0.117941 0.846340
lo@@ 0.164826 -1.427134 -0.784706 -0.431019 0.051782 0.838064 -0.030479 -0.005598 0.267786 -0.041427 -0.141329 -0.468245 -0.587447 -0.059218 -0.006836 -0.236051 -0.775621 0.140395 0.033489 0.219591 0.491387 0.231735 -0.251029 0.527973 0.733037 -1.083028 0.234728 0.516076 -0.497859 0.139138 -0.895649 -0.011798 0.162673 -0.417467 0.348984 -0.253304 -0.403830 -0.712201 -0.091062 0.116421 -0.029345 0.154566 -0.639671 -0.086749 -0.535014 -0.144536 -0.258491 0.636738 0.628612 -0.012466 -0.659497 -0.046744 0.466467 0.155076 0.247599 0.251989 0.508649 0.785588 0.406037 -0.568444 -0.266083 0.434297 -0.884950 -0.271512
ay -0.676441 0.369070 -0.012284 -0.788107 -0.076346 -0.187722 0.352289 0.347439 -0.502712 -0.130659 -0.033572 -0.004680 -0.625143 0.069422 0.502343 0.369568 0.106277 0.437388 0.316016 0.535587 0.371533 0.740404 -0.252097 -0.111126 -0.632321 0.550272 0.087715 -0.846745 0.556922 0.460593 0.075005 -0.072909 -0.103996 0.578909 0.123782 0.416322 0.249902 0.862436 -0.420753 -0.431097 -0.320591 0.432016 -0.041460 -0.020168 -0.866410 0.094386 -0.127839 -0.609818 -0.438778 0.579790 0.184636 -0.223397 1.329401 0.064399 -0.356261 0.068220 -0.205459 0.368960 0.003002 -0.072346 0.284203 0.338412 0.465919 0.621942
ti@@ -0.066902 0.634467 0.003035 0.549252 0.082183 -0.384032 -0.442923 -0.210250 1.649486 0.456649 0.113185 -0.026752 0.226428 0.129507 0.934078 0.180758 0.439192 -0.491456 -0.352608 -0.794534 -0.303854 0.770929 -0.242215 -0.397922 -0.286694 0.628588 0.267197 0.438909 -0.355716 0.648917 -0.290912 -0.203072 0.251861 0.108964 -0.042705 0.341493 0.083910 0.127258 -0.633033 0.428087 0.605073 -0.509528 -0.113183 0.595590 0.804696 0.152080 -0.199714 -0.087978 -0.076886 0.187021 0.645590 0.603878 -0.001090 -0.041212 -0.204513 0.251183 -0.483961 0.011186 -0.494456 0.171657 0.069230 -0.356204 0.315835 -0.109716
my 0.889746 -0.040942 0.248783 0.770585 0.455606 -0.186233 -0.190967 0.689696 0.437864 0.863635 0.090460 -0.501583 0.938696 0.943635 -0.610076 0.050791 0.014636 -0.229711 -0.366715 0.179438 -0.166038 -1.142816 -0.169322 0.273466 0.416750 -0.331552 0.284477 0.511121 0.080721 -0.852816 0.640013 0.793490 0.407793 0.374541 -0.419770 0.137987 -0.151896 0.179482 0.336663 0.743026 -0.110272 -0.174935 1.003377 0.315584 0.420957 0.696442 -0.235534 -0.641815 -0.534071 -0.453240 -0.225999 0.519160 -0.175062 -0.028036 -0.861092 0.217279 -1.023974 -0.364144 0.176469 0.297263 -0.686488 0.367159 -0.481418 -0.476755
an 0.856917 0.752873 0.177889 0.667494 0.651370 -0.422180 -0.103704 0.067367 0.237546 0.912102 0.606299 -0.646839 0.923917 0.433296 -0.100832 0.461936 0.090622 0.083830 0.550680 0.230272 -0.307800 -0.648977 0.303875 0.283874 -0.445049 0.145488 -0.412715 0.392789 0.437387 -1.023748 0.328818 1.475723 0.206564 0.655880 -0.003997 0.136282 0.096849 0.509245 0.413792 0.240571 0.067677 -0.502688 0.940626 0.206682 0.854168 0.248514 -0.191370 -0.225994 -0.174802 -0.050689 -0.069484 1.043892 0.361648 0.080386 0.075965 -0.486171 -0.069892 0.224095 -0.181688 0.166401 -0.479757 0.623212 -0.712486 0.220107
eh -0.598621 -0.605778 1.206322 0.122055 -0.051043 0.111338 -1.485479 0.391354 0.261330 0.468592 0.441424 -0.017464 0.098958 -0.398016 0.080068 0.586863 0.112279 -0.459609 -0.329912 -0.551122 -0.027143 0.019046 0.176387 0.256946 -0.283041 0.418448 -0.604306 0.364689 -0.237250 -0.408403 -0.164257 -0.283160 -0.563106 0.820244 -0.118002 0.270347 0.525173 0.197256 0.035310 0.128971 0.037531 -0.599733 -0.972025 0.666652 0.110506 -0.363018 0.406439 0.788721 -0.614748 -0.061075 -0.098343 0.003214 -0.625597 0.471478 0.499096 0.052810 0.541371 -0.289790 -0.006231 0.155217 -0.150422 -0.078399 0.430512 -0.002666
all 0.141981 -0.907566 0.646793 0.356902 -0.766600 0.515969 -0.782285 0.152546 0.190953 0.381034 0.620189 -0.069356 -0.304628 -0.059042 -0.362738 -0.144782 -0.196040 -1.100444 0.505941 -0.357680 -0.173417 -0.372235 0.625069 0.734884 0.898267 0.264178 0.541533 0.472184 -0.830778 0.364615 0.215593 -0.342238 -0.419067 -0.110395 1.018264 -0.206732 0.093524 -0.356850 0.588900 0.298741 -0.061195 -0.025746 0.113383 -0.171576 -0.095069 0.062528 0.368273 0.356411 0.139476 -0.709898 -0.014554 0.088834 -1.357920 -0.530919 0.552688 0.280990 0.546011 -0.622127 0.269395 -0.429332 0.315404 0.433971 -0.496359 -1.047499
here -0.497211 0.142379 0.097663 -0.161040 -0.234382 -0.143375 0.337473 0.471042 0.048910 0.042684 0.437292 0.123738 -0.053841 0.254751 0.585757 0.545867 -0.122656 -0.101107 -0.121108 0.075448 -0.115749 -0.407337 -0.220077 0.029132 0.557156 -0.375672 -0.451651 0.057034 0.015087 -0.467169 0.326304 -1.060087 -1.076156 -0.177814 -0.343884 0.173531 -0.390911 0.219022 -0.377210 0.663749 0.133978 0.048061 -1.066020 0.024982 0.343660 -0.290505 -0.416248 0.432480 -0.195706 -0.100358 0.107188 -0.056996 0.133745 -0.644134 -0.441945 0.134950 -0.567592 -0.012506 -0.570534 1.102681 -0.581463 -0.523941 -0.218722 0.519949
how 0.054873 0.247848 1.399293 0.637147 -0.371594 -0.801014 -0.166755 -0.402417 0.132330 0.039145 0.198389 0.129341 0.231109 0.246652 0.479004 0.003427 -0.016341 -0.299904 -0.296427 -0.643052 -0.686598 0.400388 0.828134 -0.236519 -0.196039 0.654553 0.130677 -0.049129 0.146692 0.181254 -0.581074 -0.124613 0.706070 0.156851 0.513623 0.230406 0.334177 0.514523 -0.240468 0.538060 -0.035128 -0.158690 -0.210976 0.348978 0.101969 0.396070 -0.336978 0.046738 -0.000803 0.811972 -0.303798 0.815588 -0.698683 1.303600 1.109614 -0.400669 0.554405 0.546898 -0.668248 -0.609977 -0.110136 0.061506 -0.127757 -0.498066
this 0.736464 -0.244345 0.343154 -0.120117 -0.287512 -0.093527 -0.419868 0.691220 0.209655 -0.363001 -0.124496 0.154513 0.645312 -0.251586 -0.920730 -0.102048 -0.499999 0.227091 -0.262147 0.155629 0.403892 -0.651522 -0.618843 0.097565 0.196554 -0.255111 0.649046 -0.740564 0.421106 -0.362145 -0.444779 -0.352338 0.121657 0.236572 0.479581 -0.054050 -0.382654 -0.312992 0.342734 -0.613377 -0.102820 -0.678681 0.226603 -0.160208 -0.161364 0.021087 -0.561677 -0.318707 -0.198526 -0.915736 -0.019266 -0.492091 0.423129 0.046774 -1.137718 0.388155 -0.229269 -0.675339 0.161360 -0.823782 0.262561 -0.284764 -0.509788 -0.650499
le@@ 0.010415 1.040818 0.839473 0.066951 -0.226189 -0.267365 -0.284792 0.525279 -0.040036 0.312089 0.182131 -0.079138 0.571144 0.183362 0.435143 0.281448 0.498475 0.940568 0.687451 0.352982 0.549658 -0.467788 -0.812158 0.510391 0.013999 0.872187 -0.105478 0.422645 0.699239 -0.554399 -0.225578 -0.019542 -0.496924 0.416818 0.578387 0.844546 -0.418874 0.354966 -0.214920 0.149472 -0.300292 -0.621446 0.216457 -0.542964 0.188076 0.080832 -0.861387 -0.797211 -0.017485 0.668521 -0.394264 -0.098250 0.321496 0.674880 -0.018834 -0.144201 -0.589028 -0.149851 -0.362637 0.152610 -0.743158 -0.174675 0.396333 -0.232939
think 0.335860 -0.584673 0.921083 -0.278069 0.214878 0.088437 -0.268455 -1.094018 0.194599 0.120706 -0.335092 -0.555685 0.061815 0.811843 -0.491031 -0.625737 0.173326 -0.095235 0.423414 0.267882 0.637051 0.726458 0.354386 0.576596 0.065016 0.781685 0.480849 0.488633 0.075139 0.210481 0.001795 0.530801 0.278831 0.440374 -0.419399 -0.012668 -0.542206 -0.787316 0.131379 -0.450738 -0.048071 -0.578225 0.625277 0.023859 -0.151446 -0.060101 -0.097567 -0.386575 0.413747 -0.137978 -0.567072 0.883136 -0.047698 0.923623 1.014065 -0.535690 0.098040 -0.381490 0.380584 -0.418367 -0.062548 -0.065209 -0.206899 0.143812
it@@ -0.179758 0.180485 0.107963 -0.016131 0.090368 0.087521 -0.098374 0.170718 -0.542001 -0.159554 -0.197988 0.810845 -0.854011 0.692032 -0.208486 0.295358 0.459867 0.149872 0.313773 0.670201 0.346762 -1.167003 0.483463 0.306250 -0.366550 0.414474 -0.318306 0.199592 0.323982 -1.139480 0.114532 -0.318269 -0.511071 0.136624 -0.463852 0.238373 0.228394 0.444784 0.146795 -0.545369 -0.700337 0.313513 -0.035892 0.425277 0.172251 0.196909 0.129059 0.157652 -0.400897 -0.078259 0.148636 -0.786454 0.944381 -0.506419 -0.475280 0.200040 0.359912 -0.394847 0.086026 0.642836 -0.017373 0.387368 0.071839 -0.351884
if 0.088588 -0.127171 0.016110 -0.012702 0.292320 0.414757 0.285115 0.121040 0.126859 0.034103 -0.367244 0.682768 -0.135708 0.358821 -0.160554 -0.273410 -0.283722 -0.040461 0.172056 0.118415 0.352140 -0.212335 0.591097 -0.242039 0.073891 -0.585297 0.246121 0.199630 0.329498 -0.465410 -0.255581 0.277665 -0.139047 0.259899 0.180035 -0.415180 -0.325837 0.551451 -0.052407 -0.413626 -0.176306 0.380534 0.703626 0.478573 0.049674 0.222042 0.221407 -0.139778 -0.180462 0.536769 0.378734 0.209854 0.777294 -0.387123 -0.291326 0.697879 -0.111626 0.518420 0.455109 -0.148166 -0.324438 0.264497 -0.689786 0.120094
we 0.064376 0.606069 0.595252 -0.111489 0.277466 -0.436320 0.285309 -0.086940 0.072913 0.377231 0.089416 0.518694 -0.348008 0.983780 0.388500 -0.085683 0.927330 -0.351780 0.541039 -0.349361 0.334171 0.192779 0.287253 -0.419073 -0.775886 0.707872 -0.176220 -0.156706 -0.179614 0.003930 -1.171247 -0.263952 -0.714337 0.390620 -0.922434 1.187090 0.275996 1.131558 0.081258 -1.464641 0.015927 0.127233 0.214555 0.173313 0.086688 0.148220 -0.398919 0.381505 -0.995814 0.241506 -0.062770 -0.124067 0.955325 0.226689 0.294432 -0.189535 -0.493848 -0.324735 -0.695365 0.476692 -0.781712 0.608443 0.429566 0.279281
very 0.434511 0.534525 0.462307 0.459109 0.136732 0.025793 0.328220 0.676575 0.065792 0.211591 -0.276007 0.066755 -0.150258 0.401178 -0.065449 -0.893938 0.039803 0.497891 0.126188 0.169810 0.460379 -0.161868 -0.467400 0.194108 -0.482503 0.059328 0.030477 -0.534639 1.112568 0.212153 0.298911 0.573371 0.263501 0.155136 0.092973 -0.339976 0.031403 -0.194435 -0.435442 0.307724 -0.385900 -0.758621 0.797932 -0.531025 -0.157246 0.315349 -0.162658 -0.740405 0.386188 -0.102658 0.247094 0.353279 0.100530 0.389617 -0.075002 -0.158976 -0.406529 0.446106 0.057390 -0.122858 -0.036558 0.204975 -0.006861 -0.297880
people -0.459317 -0.292432 0.489895 0.206468 -0.329600 -0.185246 -0.942082 -0.380701 0.537392 0.258665 -0.134232 -0.059985 0.348828 -0.234303 0.266510 0.269811 -0.144084 -1.428375 -0.410921 -0.807026 -0.430200 0.568473 0.310943 0.938269 0.287284 0.143882 -0.378545 0.679467 -0.696097 -0.751551 -0.525985 -0.085485 0.067159 -0.375754 0.350171 -0.808643 -0.619989 -0.118038 0.086778 0.351996 0.273136 0.033560 -0.332502 0.265966 0.096109 -0.475017 0.388874 0.592398 0.430608 -0.267373 0.302587 0.362422 -0.489664 -0.872818 0.279474 -0.230979 0.390590 0.703684 0.054974 0.607783 0.440608 0.284455 -0.009691 -0.249999
to@@ 0.158210 0.112505 0.556866 0.464906 0.578370 -0.333124 0.207832 -0.243147 0.101199 0.202364 -0.404734 -0.513574 0.643322 0.400996 -0.415222 0.120099 -0.079600 -0.810753 -0.265769 -0.097966 0.068602 -0.783778 0.119995 0.313520 -0.101107 -0.609369 -0.106806 0.368987 0.800784 -0.658694 0.611046 0.593537 0.531727 0.269069 0.452789 -0.635716 0.087687 -0.102713 0.505987 0.531990 0.341517 0.613717 0.737662 0.258401 0.057473 0.663208 0.409849 -0.806678 0.505156 -0.186078 0.094529 1.343398 -0.055981 0.333094 0.305771 0.002796 -0.185553 0.054924 -0.150852 0.363196 0.386843 0.506834 -0.550926 -0.374659
that's -0.046304 -0.069452 -0.185949 0.340237 -0.485232 0.042121 -1.065015 -0.843867 0.223310 -0.201257 -0.043650 0.194618 0.202500 -0.092118 0.291354 0.339646 -0.202799 -0.158666 0.419384 0.345097 -0.794219 -0.352529 -0.310023 0.082739 0.711007 0.336974 0.330369 0.129857 -0.712767 0.370248 -0.091044 -0.258387 -0.468119 0.502560 -0.417944 -0.213124 0.048179 -0.386623 -0.162885 0.222723 0.257005 -0.472108 -0.631221 0.650384 -0.096272 0.472503 0.156991 0.402729 0.355105 0.034656 0.789729 -0.135065 -0.097396 -0.176290 0.615780 -0.220405 0.173346 -0.654602 -0.678355 -0.038628 0.121717 -0.238659 0.656374 -0.192947
i'm 0.351167 0.053026 -0.090973 0.085152 0.209977 0.911922 0.598921 1.093684 -0.038124 -0.135453 -0.238672 -0.349371 -0.619067 -0.566946 -0.308740 -0.595012 -0.276465 0.375739 0.194454 -0.126160 -0.060925 0.129094 0.245660 0.088269 0.060391 -0.056314 0.071536 -0.816169 0.290883 0.451471 0.398659 0.133956 0.263347 0.014326 -0.610688 0.039465 0.553326 -0.510137 -0.036103 -0.878065 -0.036368 0.235955 0.145395 -0.721792 -0.438325 -0.058336 0.355545 -0.890526 -0.516989 0.173315 0.029050 -0.732805 0.458930 0.162878 -0.187284 -0.480377 0.150708 -0.217631 0.514221 -0.298721 0.075876 0.159948 0.444125 0.444886
sure -0.385009 -0.777024 0.616451 0.376459 0.221547 -0.024891 0.100074 0.071177 0.172962 -0.070640 0.005240 -0.190810 -0.384558 -1.071076 -0.012076 -0.040870 -0.115812 -0.593708 0.284002 -0.414658 -0.264948 0.194758 0.438306 -0.236901 0.467930 -0.346849 0.152154 0.053701 0.267843 0.341843 0.291039 0.147285 0.006876 -0.351612 1.242264 -0.482192 0.138498 -0.300132 -0.388568 0.401649 0.535812 0.063567 -0.043755 0.740797 -0.121073 1.104299 0.097475 0.040414 0.115962 0.149884 -0.118162 0.392662 -0.985472 0.367075 1.016441 0.121702 0.156134 -0.000644 -0.101245 -0.582716 0.640188 -0.189265 -0.014969 0.345646
tr@@ 0.079234 0.023589 0.309870 -0.049148 -0.522796 0.018719 -0.819249 -0.097335 0.472203 0.432836 0.170795 0.061088 0.644893 -0.207223 -0.080913 0.849000 -0.850188 0.055245 -0.012547 0.210396 -0.576853 0.528968 0.237331 0.718633 0.173659 -0.247606 0.888664 0.461801 0.154115 -0.297786 -0.899667 -0.489791 -0.310322 0.524283 -0.247657 -0.133463 -0.214778 0.171454 -0.236245 -0.257502 0.116045 -0.346025 -0.547652 0.688859 0.712805 0.103778 0.433299 0.076073 0.740247 0.267973 -0.322865 -0.421850 -0.057753 0.213370 0.454287 0.124194 -0.187101 0.468648 0.167878 0.182362 -0.554082 -0.416238 0.081475 -0.212860
sa@@ -0.771921 -0.156358 0.022200 0.069830 0.097404 -0.892670 -0.372753 -0.827781 0.423004 -0.241274 -0.261550 0.198693 -0.165458 0.269325 -0.404947 -0.493560 -0.908102 -0.592616 0.223435 0.100092 0.490902 1.012121 0.202934 0.029916 -0.266005 0.428617 -0.224996 -0.103588 -0.293594 0.271437 -0.831495 -0.087330 0.094545 0.266059 -0.173106 -0.138307 -0.554766 -0.130913 -0.647173 -0.158633 -0.280888 0.238053 0.041816 0.267680 0.156438 0.501082 -0.017486 0.370496 0.330654 0.099256 -0.270742 0.535975 1.135461 0.270153 0.240056 0.132293 0.226845 0.962646 -0.015454 -0.176580 -0.033356 0.512109 -0.225971 0.535274
ma@@ -0.613308 -1.695888 -0.161562 0.008902 0.058893 -0.062420 -0.666366 -0.332064 -0.190563 -0.572245 0.317678 -0.017383 0.152955 -0.457670 -0.243653 -0.051076 0.481761 -0.413979 -0.437236 -0.533322 -0.302538 0.109306 0.803099 0.494787 0.333392 -0.543500 0.274209 -0.125640 -0.885556 0.233332 0.110223 0.098078 -0.026092 -0.383698 -0.408708 0.133021 0.183254 -0.219942 0.299825 -0.313300 0.465697 0.049446 -0.673473 -0.181913 -1.101115 -0.285835 0.966684 0.775725 0.169283 -0.350378 -0.552261 0.196057 -0.417207 0.489411 0.108110 -0.254348 0.409014 -0.055124 0.724395 0.304373 -0.412991 -0.266028 0.447248 -0.580574
ha@@ -0.055581 -0.767110 -0.662330 -0.619411 0.098286 0.277416 -0.592530 -0.197298 -0.357047 0.255811 -0.091932 -0.171873 -0.076066 -0.473894 0.043321 0.092860 -1.089541 -1.045323 -0.644869 -0.003277 0.130891 0.858029 -0.138693 0.236316 0.714110 -0.566583 0.342657 -0.108461 -0.545439 -0.350834 0.091324 -0.851481 0.085874 -0.339952 -0.014134 -0.513095 -0.039474 -0.700480 -0.171012 0.964630 0.082910 -0.214135 -0.380277 0.066302 -0.290141 0.060688 -0.087108 1.260300 0.349549 0.171061 0.081430 -0.677597 -1.020208 -0.027644 0.564490 0.045302 0.454937 0.327947 0.127931 -0.073553 0.188835 -0.399345 -0.095159 -0.483638
ent 0.131908 -0.658884 0.273346 0.221144 -0.201997 -0.212216 -1.047465 -0.314403 -0.266743 0.501412 0.312896 0.546100 -0.042969 1.354299 0.153054 -0.636571 -0.003437 -0.012970 0.990081 0.459617 -0.061805 0.195140 0.551315 1.122779 -0.675081 0.454303 -0.321921 0.683941 -0.200998 -0.873767 -0.355815 -0.158607 -0.643948 0.812690 -1.102241 -0.231535 -1.060348 -0.207855 0.112416 0.089308 -0.056725 -0.548072 -0.063832 0.569208 -0.098881 0.058466 -0.260351 0.689789 -0.788598 -0.649321 -0.306027 0.160991 0.175289 0.533196 0.256486 0.092826 0.066372 -0.269184 0.011478 -0.027338 -0.683294 -0.440123 0.457517 0.085899
be -0.016097 0.124827 -0.853650 0.364448 -0.069605 0.401713 0.083672 0.162530 -0.240565 -0.319699 -0.755213 -0.063302 -0.405571 -0.169476 0.370575 0.154136 -0.506262 0.074373 -0.299826 -0.216870 0.309365 -0.111487 -0.679913 -0.693162 0.661959 -0.567247 -0.594434 -0.512084 -0.210596 0.479842 -0.152309 -0.279169 0.574129 -1.114022 0.137747 -0.211152 0.682535 0.232958 -0.316109 -0.931531 -0.229662 0.449319 -0.541683 -0.210821 -0.180637 0.153366 0.508606 0.112644 0.328656 -0.085512 -0.030629 -0.261806 0.864908 -0.442282 -0.653474 -0.211468 0.445877 -0.039836 -0.023045 -0.026358 0.242272 0.346777 -0.424022 0.780489
ca@@ 0.376011 -0.087477 -0.379696 -0.412963 0.257120 0.016284 -0.492165 0.193535 0.671024 0.062426 0.567633 0.473884 0.205961 0.689998 -0.763228 -0.647301 -0.909805 0.233673 0.286737 0.534122 -0.067328 0.474487 -0.132164 0.019634 -0.298444 0.107299 0.159066 0.480178 -0.389555 -0.005959 -0.674474 -0.468733 -0.489682 1.136062 -0.518770 -0.231060 -0.647075 -0.840437 -0.656354 0.056725 -0.080842 -0.079923 -0.280108 -0.417080 -0.373982 0.066450 -0.202236 0.991046 0.373049 -0.112863 0.103852 -0.492365 0.878855 -0.285692 -0.149786 0.520542 0.259878 0.152144 -0.036195 0.589065 -0.592586 0.546869 -0.111399 -0.602584
wa@@ 0.150505 0.217885 -1.017884 -0.680164 0.030988 0.522754 0.735648 0.375076 -0.307508 -0.489416 -0.833130 0.047837 -0.374287 0.238707 -0.118952 -0.479721 -0.555874 0.698329 -0.416514 0.078782 0.673539 0.412670 0.090660 -0.528709 0.040385 -0.275213 -0.017275 -0.879857 0.073868 0.105209 -0.344664 0.119340 0.412868 -0.469865 0.375561 0.339969 -0.367865 0.488233 -0.011210 -0.798576 -0.178284 0.352282 0.194883 -0.716497 -0.167586 0.017576 0.186035 -0.248940 0.006649 0.293384 0.038946 -1.022431 1.276120 -0.228744 -0.597066 0.086804 0.109501 0.378433 0.678209 -0.226399 -0.349637 -0.080246 0.002352 0.295616
cou@@ -0.722023 -0.375169 0.241952 -0.481512 -0.082147 -0.271025 -0.470764 -1.227228 0.366674 -0.041582 0.526149 0.435220 -0.561205 0.021058 0.370845 0.115679 0.062766 -0.399581 0.589995 -0.322592 -0.237951 0.632181 0.830013 0.307395 -0.363003 -0.528857 -0.243844 0.021551 -0.479639 0.502451 -0.484915 0.338612 -0.116491 0.311357 0.295513 0.337433 0.474218 0.156347 -0.722860 -0.246399 0.794361 0.342973 0.122467 0.132531 -0.249629 -1.005916 0.906219 0.961614 -0.381696 0.179925 0.136617 0.175898 0.061003 0.103349 0.692225 -0.301833 -0.050268 -0.004461 -0.976545 0.193324 0.174918 -0.285572 0.618388 -0.034851
h -0.109170 -0.498615 0.148753 -0.551679 0.131976 0.430042 0.045297 0.186116 -0.271574 -0.109376 -0.281380 0.142503 0.107171 0.289912 -0.446229 -0.374716 -0.124370 0.004621 0.379464 0.282214 0.007217 0.393707 -0.298400 -0.134148 0.288507 -0.101494 0.396323 -0.634022 0.184858 0.124581 -0.217610 -0.093217 -0.077584 0.368276 0.468817 -0.097906 -0.073069 0.322363 0.023421 -0.686805 -0.322187 0.940326 -0.062980 -0.179691 -0.497356 0.160169 0.116190 -0.312942 -0.084185 -0.266681 0.415313 -0.076989 0.388902 -0.039600 -0.159635 0.215474 0.527330 -0.083526 -0.121440 0.109934 0.133632 -0.247762 0.788887 -0.582264
he 0.340357 -0.278979 0.193847 -0.002722 -0.170806 -0.137987 0.168642 -0.583010 0.273576 -0.305884 -0.513749 -0.767891 0.532562 -0.612724 0.178529 -0.166400 -0.566499 -0.134245 -0.139827 -1.075098 -0.223145 0.453591 -0.169240 0.277093 -0.299290 0.279155 0.123227 -0.759684 -0.350097 0.575844 -0.205455 0.459849 1.101382 0.039774 0.068686 -0.589742 -1.046625 0.040286 -0.358787 0.318128 0.155359 -0.708403 0.034348 -0.261913 0.280385 -0.180299 -0.200905 0.409744 -0.186463 0.807818 -0.215559 0.254618 -0.391886 0.255355 -0.311790 -0.187554 -0.443291 0.157942 0.284576 0.120677 -0.840934 -0.076294 -0.124560 0.676619
w 0.555391 0.763209 0.159771 0.135221 -0.064651 0.008130 0.701258 0.669862 0.048991 0.551546 -0.321539 0.088152 0.121746 0.672145 -0.191632 0.053342 -0.032046 0.218885 0.254931 -0.112166 -0.491274 -0.085294 -0.282742 -0.140933 -0.470102 0.216186 0.114210 0.472372 -0.018270 -0.869184 -0.191419 0.737437 -0.170528 0.225118 -0.732945 0.166741 0.055595 0.231540 0.438172 0.069297 -0.046946 0.219506 0.341648 0.107611 0.225174 0.050460 -0.155217 -0.290518 -0.376250 0.397707 -0.102297 0.300853 0.679690 0.000451 0.152380 -0.379224 -0.624812 -0.139593 0.016748 0.247752 -0.051147 0.174668 -0.007979 -0.213298
good -0.620800 0.410706 -0.168278 -0.684594 0.184028 0.311885 0.269790 0.368822 -0.018469 -0.268294 -0.830925 0.540594 -0.166205 -0.583199 0.185224 0.226209 -0.077865 0.426552 -0.815550 -0.007770 0.257965 -0.248985 -0.581729 -0.890322 -0.092462 0.042337 0.622358 -0.498674 -0.512071 0.766980 -0.145238 -0.508931 -0.483043 0.134735 0.607686 -0.169539 0.203791 0.052830 -0.661762 -0.500062 0.087045 0.230326 -0.454862 -0.073026 -0.079121 0.184215 -0.242502 -0.608930 0.287298 0.643513 -0.307486 -0.655026 0.256610 -0.077971 -0.274718 -0.027724 -0.657222 0.516021 -0.004149 -0.149796 0.128628 -0.298247 0.081597 0.075491
mu@@ -0.750756 0.352901 0.301474 -0.124094 -0.610099 -0.072936 -0.274888 -0.153015 0.506211 0.013997 0.010533 -0.151653 0.156479 0.422755 0.487338 -0.456729 -0.258322 -0.257348 0.109021 -0.215411 0.119949 1.263792 0.161703 0.446509 -1.183077 0.673764 0.259106 -0.213455 -0.061048 0.440092 -0.824587 0.338680 0.072776 -0.016593 0.391795 -0.510778 -0.004472 0.117259 -0.536598 0.034062 -0.097815 -0.541783 0.009152 0.375258 -0.005701 -0.478240 -0.053810 0.695983 0.174311 0.301122 0.203539 0.002138 0.413918 0.652415 0.620234 0.060898 0.229865 0.343831 0.239181 0.162109 -0.309871 0.285648 -0.042501 0.752049
sp@@ 0.177997 -0.072582 0.482208 0.629091 0.159818 -0.208263 -0.504691 -0.457829 0.516746 0.313697 0.499501 -0.619025 0.096258 -0.190732 0.330704 0.512114 -0.567421 -0.497340 0.346990 -0.545735 -0.191067 0.007668 0.425977 -0.055652 0.210475 0.176169 0.079195 1.012568 -0.427853 0.422579 -0.901781 -0.064508 0.116668 -0.300663 0.092380 -0.136965 -0.026538 -0.255789 0.713258 0.172231 0.846447 -0.005442 0.536855 0.764901 0.149227 0.134545 0.316194 -0.146385 0.081546 -0.111582 -0.005933 0.832469 -0.639734 -0.283796 0.811626 -0.438903 0.445158 -0.023904 -0.102108 -0.494482 -0.230076 0.230852 0.058007 -0.631333
am@@ 0.230366 -0.006803 0.334165 0.583018 0.037418 -0.272416 -0.255289 -0.160322 0.345880 -0.392216 0.190139 -0.236125 0.550140 -0.454641 0.427054 -0.030819 0.271376 -0.630471 0.175574 -0.503679 -0.109388 0.083427 -0.083646 0.491823 0.560425 -0.007293 0.013407 0.042148 -0.586790 0.202746 0.209722 -0.311587 0.369366 0.301769 0.381941 -0.231382 0.276170 0.324782 0.208978 0.466496 0.002169 -0.272644 -0.067758 0.152860 0.285529 0.010759 -0.074582 -0.233300 0.229570 -0.062414 0.678271 0.109745 -1.022937 0.358120 0.546044 -0.520993 0.081526 -0.257398 -0.279489 -0.386880 -0.478952 0.447330 0.341341 0.232198
yeah -0.135622 -1.220330 0.059055 -0.103364 -0.398069 0.812763 -0.433518 -0.455178 -0.013537 -0.440873 0.441183 0.276189 -0.020276 0.332776 -0.511342 -0.324281 -0.146567 0.153644 0.299114 0.685051 -0.073260 -0.800977 -0.073286 1.252431 0.687107 -0.147590 0.436373 0.534132 -0.132989 -0.969027 0.224881 -0.023150 0.173230 0.641485 0.159567 -0.326714 -0.931545 -0.640833 0.440594 0.569315 -0.646405 -0.122268 -0.432305 -0.079069 -0.455793 0.541178 0.413097 0.488012 0.408381 -0.660357 0.443737 -0.446434 -0.265142 -0.170271 0.207340 0.736529 0.229988 0.140209 0.230738 0.086821 -0.645411 -0.384122 -0.758212 -0.805009
at -0.442623 -0.078186 0.267246 -0.141059 -0.130039 -0.336421 -0.551836 0.359998 0.754629 0.123209 -0.056086 -0.083864 -0.175094 -0.777395 -0.196941 0.705874 -0.170998 0.040687 0.149040 -0.272894 0.142978 0.377738 -0.102730 -0.084887 0.770170 0.685832 -0.220355 0.212587 0.253127 0.307571 -0.559296 -0.653251 -0.317737 0.347642 -0.287318 -0.102270 0.335010 -0.132167 -0.319172 -0.332772 0.349585 -0.192351 -0.102267 0.088525 -0.723327 -0.472135 0.221784 0.670263 0.403549 -0.411938 -1.019314 -0.027342 0.506772 1.013926 0.747252 -0.714397 0.580468 -0.394758 -0.136395 -0.295134 0.003025 0.035431 -0.190872 -0.086843
more 0.213728 -0.698036 0.065544 -0.053517 0.234829 0.053060 -0.498759 -0.026953 -0.234418 -0.443937 -0.308408 -0.362402 0.408601 0.131724 -0.331917 0.769707 0.169052 -0.485913 0.272505 0.276285 -0.266822 -0.225917 0.105408 0.332157 0.886518 -0.428746 -0.627971 0.359335 -0.636632 -0.007899 -0.068643 -0.413503 0.059879 -0.677880 -0.355629 0.180009 0.567438 -0.444922 0.876439 0.186969 -0.043243 0.188098 -0.458330 -0.420464 -0.520022 0.341230 -0.161332 -0.583041 -0.757604 -0.056328 0.029961 -0.301400 -0.238748 -0.792977 -0.273464 -0.649277 0.054426 -0.312120 -0.197885 0.311339 0.100881 0.116431 -0.354485 -0.198702
ad@@ 0.183263 -0.648935 -0.752107 -0.273630 0.094442 0.372819 -0.000734 0.520595 0.014522 -0.022539 0.331988 0.161472 0.308851 -0.058342 0.305132 0.173008 0.435485 0.149349 0.090420 0.342331 -0.131014 -0.832824 -0.158146 0.102576 0.434146 -0.144439 -0.119060 -0.675915 -0.145705 0.074592 0.268970 -0.099851 -0.177928 0.378037 -0.466743 -0.065113 0.024594 -0.552902 -0.594192 0.155107 -0.892459 -0.115463 -0.607058 -0.347152 -0.261140 -0.162952 -0.215240 0.051766 0.438447 -0.260320 -0.149233 -0.708756 0.005637 -0.436004 -0.523843 0.249675 -0.144367 -0.897229 -0.305905 0.080965 0.176638 -0.474859 0.005674 0.003499
can -0.082903 -0.023128 0.672252 -0.129597 0.329173 0.104384 -0.653145 0.450411 0.272572 0.014943 0.159621 0.156255 0.443677 -0.466618 -0.465464 0.223421 -0.113052 0.169965 0.054601 -0.116950 0.102136 -1.030560 0.468503 -0.581436 0.753234 0.545114 0.426682 0.035890 0.041461 0.317392 -0.510716 -0.026739 -0.575250 0.556381 0.484555 0.384806 -0.239341 0.337234 -0.055293 0.207921 0.166460 0.844360 -0.172408 0.229369 0.148144 -0.150510 -0.929895 -0.085668 -0.513237 -0.225568 0.035809 -0.644038 0.213127 0.100742 -0.315229 -0.136007 0.618957 -0.604599 -0.035402 -0.072544 -0.340335 -0.469533 0.175682 -0.299844
co@@ -0.461015 0.227055 -0.350661 -0.145746 0.397082 -0.662163 0.706236 -0.495798 0.323339 -0.122973 -0.497240 0.025557 0.317861 -0.563986 -0.053415 -0.142815 -0.370069 -0.267525 0.324255 -0.197490 -0.545668 0.960823 0.628743 -0.651925 -0.324711 0.268957 -0.166526 0.455539 0.804589 0.202925 0.407065 0.435925 -0.161424 0.082635 -0.704278 0.216710 -0.156012 -0.315906 -0.614664 0.774329 1.186379 0.682491 0.236349 0.114522 -0.339706 -0.011396 -0.083713 0.527388 -0.268692 0.703630 -0.339661 0.340983 -0.194364 0.304029 0.628984 -0.559767 0.025134 0.008661 -0.343580 -0.230579 0.780907 0.185566 0.352972 0.696377
go 0.041158 -0.176305 -0.829530 -0.489902 0.037737 -0.049908 0.244455 0.459419 0.248247 0.367354 -0.343842 -0.172146 0.081190 0.196900 -0.452789 -0.370608 0.049208 0.358562 -0.820064 0.367047 0.043803 -0.304561 -0.406391 -0.643425 -0.420366 -0.497151 0.789414 -0.540842 -0.510753 0.052426 -0.474012 -0.007203 -0.450667 -0.478809 -1.137001 -0.278535 0.132288 0.608722 -0.198061 -0.888103 0.028482 -0.503001 -0.367024 -0.336540 -0.424210 0.321295 -0.569245 0.056718 0.426088 -0.129329 -0.409576 -0.535440 0.429921 -0.064649 0.032562 0.246193 -0.521662 -0.684654 -0.499756 0.582163 -0.063002 -0.235716 0.290565 0.279007
do@@ 0.450070 0.362112 0.223066 0.333758 0.259460 -0.460386 0.190082 0.174494 -0.449627 0.137015 -0.124539 0.010756 -0.069392 0.021615 -0.047328 -0.202359 -0.352856 0.056202 -0.069992 0.224315 0.551210 0.465183 0.246700 -0.539240 -0.764377 0.177301 0.109583 -0.078367 0.997155 -0.141466 -0.823329 0.452016 0.523730 -0.076148 0.226433 0.331644 -0.001181 0.412135 -0.083187 -0.461003 -0.107050 0.288213 0.298532 -0.156301 -0.132232 0.263844 -0.482555 -0.592435 0.055868 -0.118228 -0.321062 0.266025 0.481327 0.043064 -0.026008 -0.181008 -0.342731 -0.140440 -0.151870 -0.174450 -0.033507 0.548336 0.782988 0.244336
ce 0.834437 0.478689 0.194125 0.921980 0.414307 -0.296493 0.081754 0.296476 -0.127551 0.864925 0.266970 -0.545871 0.878237 0.338897 0.126585 0.054308 0.011319 -0.128870 0.559143 0.075949 -0.892607 -0.726093 0.584905 -0.076782 -0.032608 0.392414 0.098278 0.441503 0.337138 -0.564352 -0.179598 1.243451 0.238928 0.258369 0.091405 0.066244 -0.024255 0.315888 0.364855 0.587910 0.822277 -0.275381 0.812792 -0.060757 0.806496 -0.031580 -0.283421 -0.164625 -0.861793 -0.079698 0.099993 0.902479 -0.115819 -0.036032 -0.239813 0.004027 -0.680911 0.033549 -0.127856 0.613025 -0.714852 0.339460 -0.216574 0.127540
c -0.575153 0.232204 0.585224 -0.432935 -0.311935 0.027920 -0.559597 -0.443169 -0.171729 0.052635 0.541991 0.796487 -1.075682 0.838618 0.650029 0.097792 0.540810 -0.332116 0.715980 0.066275 -0.030698 -0.554660 1.054486 0.146216 -0.325486 0.715528 -0.853125 -0.285354 0.002024 -0.826203 -0.360515 -0.044976 -0.473204 -0.006371 -0.052042 0.967097 0.502612 1.011434 0.451831 -1.034116 0.208400 0.604571 -0.127551 0.199301 -0.330267 -0.263020 0.463517 -0.185887 0.060180 -0.446861 -0.026076 0.233199 0.433634 -0.482156 0.104363 0.004903 0.622532 -0.832996 -0.742408 0.722028 -0.164893 -0.043758 0.885901 -0.260794
wor@@ 0.580963 -0.009249 0.580500 0.214870 0.032769 0.161755 0.327470 0.194215 -0.295851 0.379001 0.293667 0.459952 0.374981 0.658225 -0.273403 -0.132090 0.165373 0.107600 0.025383 -0.059999 -0.192041 -1.065061 0.828439 -0.209040 -0.371524 0.189980 -0.200146 0.612118 0.154116 -0.834710 -0.031564 0.486926 -0.272848 0.085022 -0.529643 0.436520 -0.115352 0.518583 0.819464 0.303234 0.316003 0.309465 0.652067 0.217095 0.123002 0.179373 0.186901 -0.309882 -0.476377 -0.173504 0.185941 0.627415 0.015414 -0.365221 -0.060413 0.214690 -0.633660 -0.495112 -0.011278 0.282208 -0.003523 0.659921 -0.108603 -0.094906
ch 0.943612 0.403213 0.630224 0.463723 -0.315960 0.208888 -0.697663 -0.033619 0.015246 0.383285 -0.361360 -0.400596 0.391470 0.308391 -0.860818 0.151958 -0.180601 0.211152 0.317518 -0.404357 0.055881 -0.734416 -0.515775 0.254378 0.459425 -0.418860 0.430672 0.616589 -0.217261 -1.147662 0.055363 0.825426 0.127189 0.476310 0.178961 -0.763574 -0.321625 -0.177357 0.597576 0.616283 -0.629628 -0.051444 0.578134 0.508600 0.425875 0.786031 -0.382384 0.060031 0.465234 -0.227927 -0.207735 0.530518 0.104310 0.398260 -0.306979 0.211285 -0.206485 0.402644 0.404526 0.363163 -0.355050 0.136311 -1.658540 -0.124450
