<unk> 0.057684 0.039612 0.039692 0.051665 0.067073 0.084506 0.051521 0.038880 -0.040000 0.067339 -0.071502 -0.095960 0.002612 -0.055272 -0.061278 0.067209 -0.061353 -0.068667 0.043058 0.011723 -0.062949 0.028868 -0.030264 0.021885 0.050827 -0.016372 -0.095548 0.088176 -0.098832 -0.058968 -0.062665 0.075042 -0.032268 0.022321 -0.065453 -0.011179 -0.018392 0.089924 -0.077890 0.081049 -0.018194 0.083429 -0.081054 -0.049919 0.061967 0.035505 0.039370 0.013683 0.013491 0.052715 -0.015380 0.099622 -0.026297 -0.099872 0.080765 -0.069007 -0.049613 0.042223 0.039210 0.093912 -0.098857 -0.027342 -0.094045 0.094896
<blank> 0.055233 -0.019931 -0.069931 0.074532 -0.016402 0.097133 0.049957 -0.089440 0.045562 -0.085480 0.000814 0.027102 -0.009622 0.062434 0.015444 -0.031519 -0.078229 -0.012217 -0.060161 0.057304 0.032006 0.020420 -0.099813 0.026362 0.022508 0.031772 0.086292 0.039654 0.000104 0.087939 -0.039028 -0.037445 -0.040708 0.091159 0.050193 -0.035368 0.021239 -0.018281 -0.099244 -0.002315 -0.036166 0.046121 -0.019849 -0.075081 0.050513 -0.012005 -0.033504 0.099833 -0.011903 -0.077237 0.030752 -0.053539 0.093393 0.084889 0.063626 -0.016955 -0.068659 0.015541 0.079640 0.084009 0.056810 0.098545 -0.026690 0.041821
<s> 0.130733 0.494073 -0.384548 -0.669343 -0.055471 0.193345 0.110911 0.112035 0.274057 0.329981 -0.045815 0.309431 -0.011139 0.099535 -0.164609 0.195987 0.391340 -0.039099 -0.005081 0.636041 0.351667 -0.180166 -1.028791 -0.401471 0.645985 0.182619 0.713053 -0.907340 -0.392809 0.140407 0.120637 0.399156 -0.906420 0.617623 -0.171010 -0.433709 -0.510027 0.526748 -0.311713 -0.646166 -0.876506 -0.264113 -0.588812 -0.718196 0.367737 -0.129384 -0.774591 -0.700319 -0.500437 0.727408 0.468039 -0.568384 0.474956 0.316322 0.044821 0.594603 -0.141481 0.116327 0.400920 -0.437028 0.299500 -0.227181 -0.009324 0.743534
</s> 0.258559 0.481593 -0.048269 0.026511 0.260628 1.038515 -0.301300 0.610564 0.251424 0.300716 0.074297 0.337122 -0.113577 1.083703 -0.463218 0.188506 -0.080527 -0.639134 0.483230 0.840989 -0.390422 -0.801439 -0.148455 0.346649 0.917162 -0.749629 -0.460894 0.366572 -0.873322 -0.532018 -0.898694 -0.035780 -0.140620 -0.103673 -0.757902 0.140757 0.121496 1.050263 0.035438 -1.023403 -0.588363 0.102485 -0.094267 1.012423 0.437732 -0.045239 -0.306775 -0.157914 -0.358287 0.067315 0.284842 -0.306696 0.756845 -0.419178 -0.233285 0.132446 -0.738979 -0.829929 0.177126 0.123504 -0.014233 -0.179735 -0.542835 0.728149
i 0.835649 -0.302889 0.964598 0.646145 0.517506 0.045961 0.042319 0.014976 -0.008256 0.052970 -0.178671 0.524120 0.727682 0.524486 -0.375871 0.187609 0.559224 -0.476713 0.469496 -0.159241 0.145989 -0.633447 0.144200 -0.444867 -0.507728 -0.754696 -0.008196 -0.025256 0.848606 0.022470 0.019538 0.318860 0.178067 0.681979 0.099123 0.030526 -0.271760 1.138773 0.770032 -0.437343 -0.271410 0.043476 0.858490 0.103346 0.063880 0.060786 -0.618556 -0.975892 -0.625855 -0.205681 0.233037 0.924631 0.241103 0.842855 0.235488 0.455746 -0.400758 0.718101 -0.800872 -0.437136 -0.368558 0.372794 -0.269159 -0.199653
the -0.494586 -0.975700 0.831744 -1.277683 -0.593048 0.371234 -0.429867 -0.569514 0.009343 -0.268989 0.110855 0.529273 -0.808942 0.694926 0.112504 0.206609 0.530332 -0.844433 0.545198 0.752387 -0.166579 0.000825 0.431361 -0.055739 1.596660 0.283620 -0.064164 -0.230383 -0.201371 0.069484 -0.496513 -1.201611 -0.833641 -0.213812 -0.361678 0.422199 0.182790 0.985489 -0.410270 -0.940644 -0.562936 1.362413 -1.295375 0.137922 -0.715635 -0.230338 0.834823 0.368061 0.358612 -0.159772 0.072583 -0.221817 0.202851 -0.318545 -0.407962 1.046302 0.054340 -0.063168 -0.843860 -0.463792 0.259225 0.099445 -0.090038 0.123654
and -0.015611 -0.148275 0.323949 0.585775 -0.099236 0.331968 1.088611 -0.054593 0.067463 -0.016056 0.106372 -0.040965 0.581678 -0.422436 -0.021574 -0.206989 0.301523 -0.321902 0.059686 0.382633 0.067327 0.719551 -0.178885 -0.973057 0.066058 -0.403630 0.470247 -0.284789 0.296910 0.998860 -0.555021 0.682374 -0.306634 0.103479 0.544944 -0.033173 0.032628 -0.113806 0.011752 -0.419292 0.052673 0.705423 -0.344823 0.305603 0.347083 -0.225942 -0.280874 -0.255862 -0.678795 0.334374 0.412184 0.488945 0.444281 0.781951 0.375212 -0.080314 -0.289386 0.853409 -0.236967 -0.580843 0.533089 0.125357 0.649412 0.003422
yes -0.459711 0.055073 0.860324 0.110538 0.107623 0.318273 0.374747 -0.088895 0.298671 -0.346306 -0.417873 -0.027097 0.051542 0.825639 -0.241257 0.404720 -0.869258 -0.410274 -0.182990 0.608027 0.143232 -0.092543 0.471651 -1.000516 -0.272018 -0.531953 0.063629 0.049982 0.306407 0.192238 -0.510493 -0.154679 -0.713282 -0.000393 0.360021 -0.720570 -0.275963 0.078040 0.208439 -0.496055 -0.498636 0.733330 0.330861 0.056853 -0.285279 -0.090923 0.145217 0.085337 -0.509736 1.139184 0.628858 0.608804 1.106492 0.112065 0.510739 0.120561 -0.321399 0.700030 0.071203 -0.494446 -0.383245 0.346178 -0.268617 0.573170
a -0.026224 -0.362097 -0.372833 0.104590 0.043210 0.205984 -0.487322 0.727255 0.074643 0.178170 -0.184228 0.293956 -0.170784 -0.369133 0.349696 0.562413 0.058334 -0.597024 -0.233086 0.873891 -0.127985 -0.944773 0.055691 -0.335147 0.753350 0.000371 0.466853 -0.500575 -0.850578 0.516815 -0.080906 -0.388666 -0.441296 0.487495 -0.028308 0.580031 0.150894 -0.003440 0.476343 0.023777 0.369082 0.628073 -0.719530 -0.383638 0.066914 -0.195281 -0.273634 0.657103 -0.279431 -0.274349 0.953969 -0.910777 -0.634825 -0.147104 -1.273980 0.464801 -0.392510 -0.310312 -0.369051 -0.088949 0.052333 -0.580375 0.191489 -0.206118
that 0.687794 0.130237 0.024799 0.930406 0.637571 0.061436 0.703634 0.670885 0.142341 0.222532 -0.264433 -0.009991 0.512604 0.187289 -0.123373 0.214246 0.169784 -0.372003 -0.425463 -0.348102 0.273656 0.503651 0.303818 -0.894558 0.364443 -0.599412 0.536117 -0.417003 0.677880 0.838118 -0.125077 1.056439 0.075480 0.460227 0.275708 -0.292507 -0.091968 -0.466241 0.235378 -0.575916 -0.089932 -0.333286 0.475575 0.239629 -0.567304 0.091393 0.152976 -0.467381 -0.303723 0.901545 0.286095 0.716610 -0.153321 0.534853 0.290886 -0.231564 -0.201572 0.747509 -0.458267 -1.002310 -0.225521 -0.040918 -0.654954 -0.388970
s@@ 0.806369 -0.094247 -0.242046 0.615846 0.733890 0.000342 0.480089 0.301025 -0.158495 -0.038720 -0.574800 -0.394629 0.615135 -0.724982 -0.207959 -0.042261 -0.131132 -0.335468 -0.341946 -0.685838 -0.220640 -0.084469 -0.163972 -0.701178 0.475929 -0.429847 0.709594 -0.374208 -0.032120 0.775062 -0.536044 -0.330655 0.012957 0.444125 0.738141 -0.317816 -0.403828 0.102315 0.210781 0.668107 -0.593213 0.004237 -0.333466 0.589229 0.148043 0.391639 -0.577576 -0.389378 0.028234 0.344086 0.378651 0.152275 -0.395056 -0.098697 0.191286 -0.353987 -0.378692 0.541292 -0.329521 -0.387818 0.590463 -0.495572 -0.613022 0.662894
you -0.038384 0.602550 0.307450 -0.086782 -0.117063 -0.031428 -0.449335 0.770457 -0.400649 0.333679 -0.270320 -0.144448 0.440277 1.273836 -0.246189 0.795822 -0.437937 -0.288499 0.392946 0.028815 -0.329413 -0.375603 -0.354972 0.028096 0.137511 -0.072071 0.258562 0.394163 0.174914 -0.463179 -0.429647 0.249864 0.551918 1.424467 0.928847 -0.174490 0.430305 0.524978 0.408789 -0.619108 -0.012461 -0.368971 0.589008 0.030797 1.177412 0.433308 -0.008285 -0.535716 -0.594352 0.168707 -0.150196 1.192830 0.430147 0.503121 0.430139 -0.015908 -0.747109 -0.216461 0.706407 -0.309887 -0.564225 0.739325 -0.322409 0.227044
i@@ -0.073243 0.207837 -0.108727 0.347891 0.238362 0.372961 0.486786 0.138263 0.594606 -0.046310 -0.548406 -0.231681 0.660443 -0.120694 0.592946 -0.098175 -0.424773 -0.158936 -0.572996 -0.450219 -0.616438 -0.353415 0.294259 -0.986895 0.422973 -0.337008 0.851642 -0.372896 0.346247 0.678122 0.071959 -0.129349 0.153075 -0.155926 0.963397 -0.159494 0.057067 0.330356 0.019508 0.321234 0.076597 -0.503015 -0.209983 0.138305 -0.073974 -0.089605 -0.261985 -0.680606 -0.483830 0.434023 -0.596089 -0.169509 0.067782 0.611460 -0.075377 -0.081008 -0.274704 0.291722 -0.021984 -0.625628 0.146200 -0.223522 -0.721627 0.368648
t@@ -0.074170 0.139700 0.122470 0.340736 0.057027 -0.305626 0.376484 -0.373850 -0.317260 -0.177218 0.423036 0.173171 0.538032 -0.032345 -0.274939 0.159579 -0.316966 0.793337 0.098407 0.751405 0.433689 -0.003864 0.196499 -0.183744 -0.318491 0.168056 -0.149953 -0.629156 1.020375 -0.355385 -0.895823 0.474221 -0.313039 0.423439 0.136331 -0.292857 -0.284997 1.540102 -0.453571 -0.448605 0.315636 0.091974 0.787062 0.312451 0.059672 0.352660 -0.213011 -1.022287 -0.461906 1.024301 0.518664 0.619656 0.076971 0.026066 -0.270324 0.139086 -0.164069 0.345760 -0.259303 -0.561949 -0.391334 0.702472 0.307290 0.397257
c@@ 0.231277 0.289143 0.064782 0.003200 0.226874 0.246602 -0.267194 0.118375 -0.340953 0.921543 0.558170 -0.815644 0.567980 -0.405322 -0.051516 0.892862 0.235547 0.276662 -0.524307 -0.506108 -0.199330 -1.037543 -0.806869 -0.660035 1.150628 0.634553 0.025131 -0.247693 0.091980 1.145574 0.258624 -0.356465 0.023560 -0.105428 0.526056 -0.597709 0.077203 -0.339441 0.236871 -0.194105 0.089035 0.339213 -0.117580 0.852557 0.650217 0.909010 -1.036315 -0.112497 0.068151 0.495712 0.614767 -0.176934 -0.322792 -0.065576 0.363097 0.315893 -0.286287 -0.248136 -0.201781 -1.224788 0.205447 -0.780501 -0.496069 1.011235
to 0.988209 0.614859 0.064178 0.144590 0.542612 -0.227232 0.940152 -0.090406 0.315518 0.340922 -0.378809 0.654683 0.735593 0.365290 -0.334032 -0.537042 0.900165 0.352273 0.151389 0.209571 -0.012405 -0.498729 -0.256369 -0.947673 -1.123289 -0.186503 -0.329204 -0.040902 0.522589 0.157928 0.079651 0.703323 -0.117205 -0.014957 0.011454 -0.032689 0.328796 0.976021 0.594586 -1.020094 0.047659 0.452649 0.473451 0.301926 0.247003 0.144137 -1.505516 -0.829876 -0.026988 0.427345 0.013937 1.011940 0.792852 0.449357 -0.247865 0.162816 -0.517631 -0.213936 -0.493426 -0.053978 -0.538729 0.819617 -0.532831 0.497891
m@@ 0.227445 0.019540 0.047878 0.676136 0.711808 -0.198247 0.297776 -0.170743 -0.044888 0.558213 0.039924 -0.091888 0.803795 0.685523 -0.886015 0.572739 -0.333209 -0.475947 0.214520 0.091262 0.130363 -0.715055 -0.750692 0.039523 0.322731 -0.686942 0.121938 -0.022943 -0.733805 0.129113 0.488316 -0.619399 -0.771709 0.594376 -0.596880 0.084606 0.518972 0.000039 -0.174367 0.296492 0.284851 -0.585333 0.081941 0.995005 0.824688 0.164320 -0.907334 0.034581 -0.587421 -0.370520 0.245377 0.571281 0.587493 0.671334 0.258302 -0.055589 -0.506360 -0.182345 -0.231080 -0.393942 -0.400221 0.464198 -0.912396 1.164890
h@@ -0.408871 -0.127000 0.703687 -1.121105 -0.189933 0.008785 0.209508 -0.296788 -0.326312 -0.264842 -0.336121 0.883014 -0.886253 0.913478 0.524314 0.019548 -0.075486 0.090467 0.215853 0.598839 0.527460 0.135093 1.103371 -0.832662 -0.414173 -0.000567 0.071739 -0.537059 0.119060 0.142636 -1.343465 0.658352 -0.840622 0.316790 -0.351418 0.357579 0.266735 1.095396 -0.447498 -1.255503 0.399348 0.651547 -0.056691 -0.391408 -0.080533 -0.042971 -0.474474 -0.161068 -0.557574 0.812152 0.593896 -0.025280 1.024333 0.219470 0.383156 0.254306 -0.353574 0.451115 -0.594858 0.205458 0.310226 0.412793 0.616202 0.374088
e@@ -0.276466 -0.003593 0.267902 -0.224683 0.311387 0.830360 -0.310067 0.324207 0.444779 0.417105 -0.014361 -0.273317 0.405661 0.673569 -0.635448 1.269397 -0.069154 -0.212722 0.077134 -0.119349 0.057734 -0.875504 -1.197719 -0.170381 0.743151 -0.052540 0.347882 -0.145776 -0.894947 0.040744 -0.115617 -0.838031 -0.461725 0.603018 -0.503634 -0.226977 -0.198762 -0.484255 -0.355887 -0.080813 0.218293 0.202571 -0.868221 0.653253 0.221540 0.099923 -0.689341 -0.015599 -0.194940 0.391295 0.345022 -0.142173 -0.398488 -0.102310 0.392416 0.715252 -1.429694 -0.322778 0.066389 0.290900 0.612248 -0.597833 -0.176645 -0.353222
u@@ -0.801125 -1.138900 0.113876 -0.021351 -0.362315 0.801810 0.134465 -0.350243 -0.348758 0.192970 -0.723950 -0.284156 -0.100306 -0.069880 0.153568 0.020165 -0.609381 -0.435334 -0.134656 0.346694 0.202428 0.009147 0.939635 -0.744702 0.572638 -0.665795 0.706497 -0.482763 -0.508942 0.533497 -0.479216 -0.310787 0.091545 0.092419 0.724793 -0.129156 -0.374352 0.341421 0.034877 -0.152056 0.187278 0.196950 -0.603127 -0.212468 -0.373245 -0.231575 0.437773 0.405106 0.065277 0.454004 -0.126297 -0.745189 0.324025 -0.632231 0.034794 0.471500 0.113785 0.824850 0.334774 -1.224592 0.284728 -0.489620 -0.329634 -0.259521
in 0.349412 -0.325369 0.186515 0.338916 0.480531 0.461914 0.549027 0.372285 -0.592619 -0.234229 -0.624874 -0.060435 0.445541 -0.889116 -0.316855 0.021910 0.410051 -0.131047 -0.125054 -0.022195 -0.186938 -0.027497 -0.272675 0.163275 0.547634 -0.255605 0.722974 -0.104618 0.221665 0.663235 -0.048813 0.214341 -0.122104 -0.142535 0.276513 -0.882539 -0.740384 -0.629042 0.032124 0.093116 -0.757732 -0.169895 0.018849 0.210081 0.330518 0.797966 -0.587395 -0.588592 -0.048314 0.144663 -0.437916 -0.184217 0.035893 0.645596 -0.643160 -0.313005 -0.079345 0.506704 0.516818 -1.144256 0.556692 -0.716674 -0.863481 0.364197
w@@ 0.547728 -0.244527 -0.129121 -0.601095 -0.219143 0.557900 0.255688 0.847030 0.198788 0.551193 -0.556962 0.268109 -0.602491 0.129410 -0.401600 0.830563 -0.403834 -0.485931 -1.025790 0.702322 0.468281 -0.472997 -0.569857 -0.947845 0.374825 0.267286 0.017668 -0.501951 0.309292 -0.651802 -0.582473 0.099626 -0.467101 0.083063 -0.421390 -0.073576 0.506778 -0.043443 -0.175846 -0.950818 -0.594547 0.522376 -0.393089 -0.384665 0.997837 -0.037287 -0.227413 0.062411 0.250837 0.103923 -0.627733 -1.124453 0.397685 -0.805511 -0.315862 0.359978 -0.226636 0.716971 0.481328 0.128736 -0.188429 -0.257122 -0.345207 0.509131
p@@ 0.408658 0.610444 -0.305040 0.326288 0.271630 0.189808 0.585139 0.222140 -0.608587 0.648313 -0.937508 0.343984 0.063784 -0.006126 -0.030210 0.207239 -0.172909 0.026230 -0.592139 0.020844 0.094816 0.045193 -0.493897 -1.557553 -0.160204 -0.527847 0.120490 -0.471780 0.413421 1.042877 -0.646299 0.690604 -0.863767 -0.435087 0.164212 0.702118 -0.429771 0.053330 0.287967 -0.492901 -0.306742 -0.314899 0.628134 0.228710 -0.135575 -0.472381 -0.208101 -0.050688 0.231921 0.925116 -0.581020 0.664758 0.835421 0.016107 -0.292110 -0.043357 -0.496642 0.167966 0.039608 -1.102674 0.534904 0.310590 0.315093 0.119856
s 0.213120 0.698641 0.571116 -0.343783 0.000100 0.133806 0.326651 0.273200 -0.488786 -0.051407 -0.849338 0.312265 0.392063 0.912969 -0.518919 -0.668752 0.343476 0.001982 0.052731 0.546477 -0.217399 -0.028363 0.249761 -0.901158 -0.391100 -0.394811 0.187183 0.115935 0.529578 -0.598830 -0.653724 0.418940 -0.536897 0.685050 -0.820721 0.504744 -0.009502 1.495276 -0.198296 -1.023696 -0.078498 0.417801 0.421418 -0.086300 -0.184159 0.173768 -0.868100 -0.105056 -0.901894 0.584522 0.336915 0.280577 0.844857 0.236394 -0.142526 -0.240727 -0.581508 -0.189888 -0.395320 0.241215 -0.232585 0.722878 0.235078 0.082834
a@@ -0.418010 0.710948 -0.499821 -0.821796 -0.146540 0.509466 0.051933 0.747061 -0.439784 0.058655 -0.436458 0.642547 -0.019204 -0.472798 0.191691 0.186253 0.897559 0.383660 0.126881 0.358465 0.193549 -0.009020 -0.955816 -0.826795 0.283699 0.421353 0.700125 -0.658559 -0.201911 0.899829 0.065762 -0.631529 -0.061404 -0.401417 0.492698 -0.098587 -0.391360 0.060573 -0.051133 -0.858826 0.353843 0.679224 -0.901371 -0.074687 -0.623550 0.488195 -0.606935 -0.743332 0.412859 0.058587 -0.100314 -0.557190 0.693125 -0.235494 -0.321169 -0.164085 -0.148198 0.183807 -0.130544 -0.306634 0.211016 -0.782235 0.109958 0.973490
e -0.229349 -0.162808 -0.333298 -0.559884 -0.469105 0.039051 -0.495799 -0.220973 -0.048792 0.003486 -0.003554 -0.127151 -0.258150 0.863236 0.206922 1.320145 -0.445895 -1.210316 0.884486 -0.107166 -0.378882 -0.811177 0.399024 0.528657 1.182469 -0.066001 0.237669 0.392914 -0.545810 -0.679262 -0.436308 -0.463969 -0.956706 0.507830 0.091212 -0.486424 0.750679 0.622140 0.248937 -0.189951 -0.338040 1.001344 -0.585419 0.678687 -0.274316 -0.213804 0.324329 -0.243488 0.194297 0.146906 0.657008 -0.383438 0.054346 -0.045412 -0.193698 0.270292 -0.030515 0.267994 0.231710 1.256567 0.076533 -0.075170 -0.344799 0.383516
d@@ -0.723804 -0.645230 -0.129876 -0.402420 -0.149042 0.736758 0.540392 0.003559 0.406852 0.178427 -0.815136 -0.075671 -0.394725 -0.030482 -0.189024 0.495898 -0.567181 -0.516561 0.008015 0.565397 0.101183 0.093594 0.353613 0.015792 0.110148 -0.877057 0.296316 -0.709440 -0.211719 0.465875 -0.465500 -0.302306 -0.065616 -0.341519 0.747918 0.305228 -0.463447 0.472232 0.119626 -0.668352 0.164533 0.522841 -0.239847 -0.080023 -0.296361 -0.134733 0.742537 0.402458 0.261844 -0.270939 0.386800 -0.397771 0.290125 -0.147878 -0.147480 0.383665 0.184607 0.836497 0.310121 -1.026057 -0.189148 -0.417363 -0.566103 0.257230
is 0.254747 0.140946 0.759109 -0.562853 -0.047199 0.266641 -0.403123 0.040463 -0.051624 0.356102 0.095411 0.884728 -0.755363 1.616027 -0.197475 0.163772 0.712433 0.099293 0.945204 -0.039113 -0.092072 -0.885108 0.955267 0.146635 -0.053729 -0.047701 -0.379843 0.498581 -0.613001 -1.204907 -1.014195 0.396757 -0.713078 0.792428 -1.335375 0.649808 0.045598 1.142466 -0.053723 -0.871486 0.111108 0.882684 -0.366794 -0.026766 0.007213 -0.297807 0.704819 0.456739 -0.446061 -0.148386 0.023822 -0.105287 0.673318 -0.720928 0.433575 0.110989 -0.267514 -0.524635 -0.570879 1.291271 -0.827912 0.365440 0.550265 -0.136417
it 0.917263 0.992989 0.043443 -0.194109 0.341448 0.029877 0.484836 0.553349 0.194896 0.324702 -0.500824 0.302725 0.573396 0.063452 -0.109713 0.238128 0.297897 0.787361 -0.590253 -0.217504 0.554138 -0.832303 -0.568467 -0.836871 -0.569074 0.067873 -0.123203 -0.790092 0.589401 0.217304 0.019217 0.821596 -0.030291 0.163671 0.504962 0.185474 0.016840 1.188415 0.088117 -0.817985 -0.191094 -0.399120 1.229355 -0.017068 0.366013 0.269935 -0.846653 -1.202282 -0.432729 0.404460 0.063039 -0.016351 0.834950 -0.002490 -0.205782 -0.134749 -0.380989 0.245147 0.068171 -0.320170 -0.035934 -0.034660 -0.009528 1.048177
r@@ 0.176827 -0.107707 0.295289 0.027309 0.252597 0.388857 0.394352 0.278322 -0.221721 0.429537 0.783950 0.367379 0.152109 0.770687 -0.298790 0.366942 -0.545071 0.312633 0.997548 0.735293 -0.034903 -0.460373 -0.013678 0.065065 1.191245 -0.127352 -0.902716 -0.324065 -0.131962 0.385204 0.243842 -0.113754 -0.763989 0.518427 -0.302108 -0.232090 -0.547155 0.173818 0.910775 0.367159 -0.515335 0.234343 -0.591120 0.780885 0.274326 -0.006371 -0.851177 0.041438 0.061810 -0.234220 0.635963 0.113620 -0.216015 0.495394 0.960276 -0.100770 0.060937 -0.230405 -0.506744 0.802030 0.296444 -0.612838 -0.708882 0.948549
l@@ -0.196381 -0.433523 0.169324 -1.272159 -0.932875 0.703249 -0.532430 -0.724376 -0.289936 -0.040091 -0.383342 0.766707 -1.592310 0.610383 -0.711834 0.798412 0.190177 -0.431946 0.745247 0.947304 0.002561 -0.803243 0.167013 0.186666 1.317117 -0.068812 0.586259 -0.309685 -0.197824 -0.390549 -0.569964 -0.911421 -0.400716 0.030055 0.079416 0.164924 -0.224809 0.634466 -0.073307 -0.785236 -0.475705 1.128404 -1.431844 0.120354 -0.162286 -0.275269 0.401110 0.895077 0.804631 -0.064329 0.516713 -0.958392 -0.094300 -1.040969 -0.522004 0.401180 0.390044 -0.346312 0.194823 -0.280494 0.168471 -0.593031 -0.440960 -0.668134
f@@ -0.149778 -0.319668 -0.263277 -0.049300 -0.219741 0.265375 0.217200 0.776780 -0.001986 -0.077731 0.368121 0.248009 -0.498096 0.011930 -0.321213 -0.179458 -0.337232 0.271956 0.406456 0.505315 -0.155020 -0.853955 0.100975 -0.202392 0.312846 0.618011 -0.275487 -0.292940 -0.047251 0.168567 -0.627993 0.531744 -1.008733 -0.096457 0.196187 0.250074 -0.027638 0.006089 0.104179 0.064396 -0.772281 0.759518 0.290699 -0.208001 0.063201 0.361493 -0.465160 -0.224268 -0.301313 0.182932 0.580294 -0.355135 0.248110 -0.194096 0.220962 -0.233320 0.218868 -0.329838 -0.199689 -0.048928 -0.015189 0.394708 0.132874 0.404321
g@@ -0.512816 -0.763231 -0.677547 -0.427477 -0.058727 1.455831 0.132113 0.328063 -0.243509 0.032386 -0.151932 -0.049421 0.077842 -0.734261 -0.035935 0.267212 -0.746251 -0.079925 -0.379479 0.536917 -0.084011 -0.312272 -0.743838 -0.016042 0.935098 -0.326211 0.390900 -0.675033 0.062192 0.503403 -0.067284 -0.273577 -0.180836 -0.914110 -0.727176 -0.316327 -0.001285 -0.824347 -0.193471 -0.028371 -0.457624 0.518102 -0.717059 0.038919 -0.558122 0.466014 0.757342 -0.178355 0.674164 -0.533219 0.534734 -0.463435 0.230885 -0.743674 -0.010385 1.103245 0.608687 -0.112213 0.370730 -0.037542 0.911300 -0.311653 0.159898 -0.310245
b@@ 0.229817 0.458707 0.347096 -0.036002 0.272022 -0.065292 1.116706 0.365929 0.464671 0.872142 -0.803307 -0.068332 0.129404 0.504934 0.113327 -0.187517 0.263787 0.136804 0.014427 -0.180663 0.097238 0.488257 -0.581958 -0.779825 -0.603540 -0.335285 0.386097 0.419881 0.552918 0.210096 -0.430303 0.353727 -0.384935 -0.149339 0.257654 0.332654 -0.203418 0.299185 0.041038 -0.162384 -0.198233 -0.028430 0.709885 -0.521179 0.256189 0.163528 -0.131289 -0.767525 -0.030943 0.945288 -0.333693 -0.062393 0.615885 0.142390 0.229195 0.420836 -1.190567 0.819968 0.582656 -0.481988 0.279282 0.434192 -0.829370 0.466161
an@@ 0.148689 0.643070 -0.323058 -0.245099 -0.354904 -0.099703 0.864866 0.016491 -0.051764 -0.085898 -0.875841 0.324054 0.537966 0.418733 -0.190202 -0.843328 0.106355 -0.067747 -0.047080 -0.075258 0.473098 0.298894 0.284788 -0.499749 -0.028687 -0.359278 0.486471 -0.253506 1.045481 0.591354 -0.512406 0.423741 -0.601945 -0.239464 -0.067303 -0.076917 -0.566410 -0.130863 -0.258201 -0.690072 -0.120920 -0.426705 0.439843 -0.101807 0.442338 -0.048153 0.063370 -0.336434 0.335420 0.547597 0.057230 0.582841 1.431914 0.104107 -0.185127 0.806822 -0.542576 0.779305 -0.323092 -0.811179 -0.027807 0.022800 -0.091378 0.573885
y -0.102596 0.565936 -0.400234 -0.012729 0.810631 0.218258 0.202137 0.328855 -0.395772 -0.264129 0.233402 0.541499 0.314255 -0.532879 0.066944 -0.093362 0.682282 0.267665 -0.192309 0.232282 -0.195661 -0.497370 -0.411838 -0.792461 0.436168 1.212367 -0.199504 -1.008823 -0.181675 0.476258 -0.158825 0.118509 0.071625 -0.083777 -0.023797 0.258996 0.038790 0.336232 -0.347914 -1.117066 -0.225433 -0.714021 -0.869807 -0.784305 0.066395 -0.104341 -0.824650 -0.357824 -0.211783 0.359482 0.848759 -0.007396 -0.183794 0.029561 0.365322 0.378762 -0.527982 -0.529805 -0.150238 0.041282 0.362950 -0.807685 0.404806 0.907977
they -0.038919 -0.490297 0.576565 0.437292 -0.142808 0.409342 0.093220 -0.187506 0.042135 -0.015836 0.479966 0.663154 -0.233820 0.647467 -0.826761 0.005365 0.021352 0.241275 0.643734 0.430090 -0.473106 -1.087003 0.657215 0.031074 1.004384 0.792077 0.031238 0.101803 -0.373150 -0.588510 -0.369653 -0.153918 -0.080065 1.017455 0.555172 -0.093414 -0.371167 -0.240253 0.458017 -0.236178 -0.103764 0.053322 0.442920 -0.115182 0.644934 -0.097401 -0.531908 -0.341514 -0.597296 0.045866 0.289465 -0.158714 -0.756509 0.409072 0.224409 0.327180 -0.060606 -0.778282 -0.238454 -0.219790 0.122348 -0.432055 0.330257 -0.621410
es -0.820334 -0.510414 0.517814 -0.296561 -0.526656 0.383000 -0.134747 -0.416066 0.312524 -0.031945 -0.177393 0.298527 -0.919230 0.592793 0.123300 -0.942996 -0.830854 -0.706327 0.693000 0.100841 0.134048 0.840912 0.728028 0.286423 -0.137520 -0.459215 0.131517 0.488815 0.051421 -0.029790 -1.101274 -0.568409 -0.311425 0.590644 -0.328066 -0.140632 -0.138878 -0.274721 -0.063106 -0.235666 0.529818 0.223218 -0.247935 0.140201 -0.812391 -0.217483 0.601028 1.174204 0.447677 -0.240527 -0.091733 0.095168 0.857015 0.203515 -0.005214 0.287448 0.573205 0.836251 0.053662 -0.128335 -0.075914 -0.000394 -0.237707 -0.423128
st@@ -0.534217 -0.763032 0.209448 -0.431967 0.040798 0.242636 -0.102710 -0.345924 0.900683 0.390618 -0.230739 0.345265 0.023254 0.482434 0.014249 -0.306762 0.034725 -0.383816 0.120129 -0.314204 0.212462 0.500009 0.545183 -0.039647 -0.573187 0.383355 0.458950 -0.027342 0.021487 0.326039 -0.836820 0.780810 -0.380600 0.568284 -0.737398 -0.416996 -0.303874 0.474615 -0.216849 0.315131 -0.053596 0.275443 0.237665 -0.113917 -0.150576 0.324670 0.170009 0.291070 0.467241 -0.414044 -0.618269 1.012708 1.047294 0.444555 0.702991 0.295647 0.644596 0.206399 0.120019 0.160792 -0.433200 0.396300 -0.064580 -0.035696
of -0.122442 0.700233 0.562497 0.089930 0.134468 0.294566 0.021162 0.098054 -0.038851 0.196700 -0.003871 -0.240053 0.053419 0.460441 -0.256818 0.588326 -0.011935 -0.819605 0.749413 0.014231 -0.374775 -0.725238 -0.189886 -0.741777 0.269836 -0.581336 0.405992 -0.522252 -0.011253 -0.141073 -0.525719 0.544145 -0.896981 0.450492 0.102524 0.126984 0.013462 0.926832 0.104049 0.388625 0.260538 0.331110 0.075653 0.726065 0.383104 0.750210 -0.566056 0.561532 -1.150138 0.652332 -0.006504 0.521653 0.990343 -0.070883 -0.072343 0.048783 -0.121672 0.041036 -0.467484 -0.119261 -0.110894 0.120257 -0.548677 -0.053614
in@@ 0.478468 1.167000 0.208762 0.579777 0.162966 -0.154579 0.451185 0.384137 0.531763 -0.101530 -0.488462 -0.345300 0.775829 -0.302871 0.151690 -0.059837 -0.079547 0.164910 -0.643477 -0.578123 0.161095 -0.878045 -0.647177 -0.389006 -0.072857 0.331273 0.171078 0.333332 -0.014674 -0.074724 -0.243802 0.447441 -0.003290 0.972920 0.218160 -0.116567 0.614117 0.202008 0.197446 0.647738 0.269406 -0.383587 0.663390 0.826870 0.571044 0.220869 -0.602423 -0.593817 -0.501898 0.234651 -0.046769 0.189630 -0.499904 1.170330 0.193618 0.181956 -0.651754 -0.220994 -0.091599 -0.966821 -0.138573 -0.214724 -0.116795 0.419234
ed -0.197119 -0.029171 0.090390 -1.039497 -0.706811 0.270003 -0.059074 0.497692 0.059190 0.257993 0.202840 0.874452 -1.051275 0.050423 0.452561 0.573594 0.577819 -0.308766 -0.039652 -0.023200 -0.065673 -0.717197 0.746683 -0.246205 -0.255827 0.487704 -0.272939 -0.251876 -0.065583 0.420525 -0.395409 -0.358265 -0.392694 0.200447 -0.136559 0.847638 0.435151 0.736055 -0.577686 -1.627026 -0.483015 0.682296 -0.651949 -0.358250 -0.084298 -0.310076 0.227744 -0.170440 -0.191895 -0.185801 -0.196766 -0.945798 0.571044 -0.832951 -0.379516 0.055805 0.522038 -0.240016 -0.372925 0.627113 -0.012597 -0.361745 0.524149 0.432384
re@@ -0.737354 0.015715 0.296834 0.206032 -0.436912 -0.616863 -0.983249 -0.759544 0.614725 0.001932 0.325538 -0.104129 0.575741 -0.143134 0.308677 1.087042 -0.427090 -0.865252 0.529869 0.087349 -0.224648 -0.089447 0.813276 0.277030 0.275268 0.644325 0.474624 0.365038 -0.575150 -0.425893 -0.022682 -0.724911 -0.262742 0.844421 0.138838 -0.227692 -0.179538 -0.368061 0.031158 0.950146 -0.175213 0.424707 -0.043886 0.503805 -0.091971 -0.246028 -0.193005 0.948544 0.102179 -0.365135 0.548925 0.595304 -0.394379 -0.357885 0.681074 -0.077397 -0.261699 -0.009604 -0.655197 -0.432913 0.361636 -0.121664 -0.159813 0.260428
but 0.150531 -0.383835 -0.335428 0.409810 0.437181 0.187132 0.779635 0.540182 0.034929 -0.246509 -0.386189 -0.308516 0.637492 -0.588190 -0.158038 0.050374 -0.295936 -0.288017 0.251547 -0.001783 -0.151046 0.008293 -0.339770 -0.195976 0.721339 -0.771182 0.399544 -0.127704 0.252395 0.509783 -0.187128 -0.258112 -0.381864 -0.291472 0.616750 -0.903140 -0.273766 -0.342866 -0.062696 -0.157599 -0.410543 -0.136955 -0.161029 0.201890 0.360690 1.068025 -0.894447 -0.389194 -0.039340 0.350365 -0.292639 0.102801 0.017074 0.887797 -0.744601 -0.033377 0.296012 -0.085200 0.235598 -0.769923 0.004680 -0.360237 -0.403360 0.202428
d -0.217892 -0.121469 0.036466 -0.733559 0.002226 0.232948 -0.128079 0.262826 -0.457930 -0.308962 -0.318187 0.403129 -0.784795 -0.049834 -0.330044 0.426470 0.597279 0.244429 0.172268 0.930716 0.255472 -0.652688 0.036502 -0.406985 0.601338 0.195593 0.518096 -0.383970 0.056562 -0.045304 -0.153308 -0.388891 -0.597146 0.673071 -0.357854 0.342582 0.240774 1.172702 -0.484233 -1.097283 -0.762903 0.618812 -0.957416 -0.859095 0.046441 0.319907 0.196536 -0.118341 -0.446159 0.070313 0.229288 -0.743410 0.890926 -0.102690 -0.566860 0.158821 0.046066 -0.531893 -0.098647 0.545076 -0.131466 -0.326913 0.855133 0.325803
are -0.110218 -0.055628 -0.524920 -0.437479 0.359173 -0.198179 0.021069 -0.397743 -0.681640 -0.739486 0.262941 -0.111234 0.452663 -0.048023 0.852205 -0.406346 0.733016 0.688900 0.812917 1.074614 -0.279546 -0.106524 0.672650 0.008093 0.317841 0.960664 0.115752 -0.906683 -0.204321 0.334138 -0.540386 0.897329 -0.632594 0.118670 -0.415345 0.893754 -0.793502 0.326645 -0.640651 -0.554899 0.824713 0.828012 -0.493461 -0.786310 -0.403299 -0.504856 -0.115735 0.322297 -0.338599 0.218049 0.003494 -0.430580 0.934917 -0.587207 -0.325048 -0.041036 -0.446318 0.460106 -0.123278 -0.319326 -0.178814 -0.079152 -0.017637 0.118524
o@@ -0.017664 -0.560557 0.136126 -0.563721 0.724707 0.288619 0.763306 0.286067 0.258453 -0.245771 -0.674256 -0.175486 -0.440262 -0.127515 -0.079068 -0.073108 -0.330839 0.207102 0.170150 0.185374 -0.188837 0.145840 -0.012129 0.059892 -0.079229 -0.682499 0.352840 0.081001 0.162925 0.094456 -0.026848 0.173755 -0.247012 -0.041067 -0.790995 -0.363826 -0.523579 0.327554 0.334364 -0.439329 -0.115377 0.673365 0.715935 0.237076 -0.370944 0.189246 0.207768 -0.043241 -0.432639 0.707465 0.141058 -0.323548 1.276352 0.236815 -0.058324 0.050073 -0.513168 0.216992 0.638364 0.220996 -0.131080 0.553912 -0.330458 -0.141572
me 0.332556 -0.058085 0.559986 0.034983 -0.243997 0.031078 -0.216798 0.373872 1.082017 0.089551 0.028507 0.000900 0.419181 0.398542 0.136435 0.227425 -0.835344 -0.408508 0.434306 0.217864 -0.042301 0.285983 -0.264491 0.694248 -0.501901 0.126031 0.554317 0.991700 -0.703631 -0.295576 -0.370936 -0.232111 -0.414214 0.961217 -0.257742 0.516798 -0.563927 -0.511733 0.189261 -0.030855 -0.247190 -0.365393 0.473837 0.528944 0.261606 0.138027 0.034882 0.225971 -0.309957 0.439925 0.258502 0.746029 -0.216028 0.725675 0.581109 0.043813 0.378083 0.025922 -0.016151 -0.163965 -0.717318 0.193029 -0.023658 0.172858
en@@ -0.932896 -0.530936 -0.070892 0.330451 -0.499700 -0.282872 -0.390806 -0.289936 0.325560 -0.061633 -0.367270 0.228456 0.111114 -0.163122 0.466538 -0.321132 -0.254346 -0.538560 -0.381561 -0.483595 0.321078 0.703947 -0.322238 -0.089239 0.055255 -0.693809 0.636321 -0.011452 -0.850458 0.615711 -0.071702 -0.414821 -1.205803 0.146011 0.795077 -0.487577 -0.018099 0.154748 -0.540612 0.303939 0.208054 -0.375174 -0.339762 0.167691 -0.960887 -0.028297 -0.020352 0.682984 0.236922 0.745537 0.470519 -0.075583 -0.111564 0.402324 0.578529 0.458117 0.551437 0.832497 -0.393614 -0.371715 0.356662 -0.132976 -0.132153 -0.114405
ing -0.609656 -0.840792 -0.020422 0.110219 -0.206549 0.198714 -0.344032 -0.756785 0.549886 0.045699 0.021962 -0.346265 -0.089040 0.236245 -0.070004 -0.326380 -0.429178 -0.619753 0.509606 0.760932 -0.203857 0.717941 0.207572 0.290970 0.654785 -0.587946 0.195225 0.848288 -1.295615 -0.268863 -0.079685 -0.332309 -0.173150 -0.661730 -0.192239 -0.056864 -0.911472 -0.597222 -0.256645 0.441499 -0.033403 0.400294 -0.134595 0.276798 -0.378536 -0.184498 0.983503 1.140210 -0.313337 -0.308049 0.428827 0.361147 0.043730 0.061662 0.261904 -0.332837 -0.004842 0.500240 0.107453 -0.035301 -0.309959 -0.259270 0.207719 -0.664631
no -0.669669 0.208843 0.114543 -1.109976 0.108157 -0.120743 0.684130 -0.266232 -0.829273 -0.616948 -0.577875 1.082800 -1.026615 -0.901282 -0.070636 -0.080033 0.644028 0.295954 0.478931 0.300766 0.070817 0.126384 0.479025 -0.653816 0.586271 0.607236 -0.343085 -0.862536 0.090983 1.044223 -1.054796 -0.101333 -0.479779 -0.630805 0.518587 0.536716 0.895635 0.930032 -0.005663 -1.927243 -0.179246 1.200844 -0.592905 -0.399356 -0.632791 -0.365502 0.056506 -0.641707 0.478206 0.020040 0.019469 -0.979321 0.414697 -0.287267 -0.211566 0.061349 0.293905 0.094858 -0.610512 0.110044 0.631875 -0.362196 1.292996 0.532107
have 0.197880 0.343959 0.739677 0.283233 -0.075179 -0.785630 0.137288 -0.191159 0.473432 0.096579 0.190866 -0.021595 0.721929 0.173332 0.621609 -0.108936 -0.019552 -0.997393 -0.017181 -0.779437 -0.187913 0.796290 -0.109508 -0.041666 -0.716563 -0.078811 -0.128452 0.841548 -0.382354 0.253806 -0.500235 -0.131682 -0.644468 0.444048 -0.754129 0.112562 0.140806 0.031882 0.581310 0.512155 1.162071 -0.414243 -0.325582 0.395815 -0.001833 0.189326 -0.584655 0.627846 -0.133381 0.696094 0.187978 0.255576 -0.382458 0.933516 1.424488 0.055612 -0.509048 -0.836459 -0.654592 -0.045666 0.041732 -0.015609 0.484489 0.893404
n@@ 0.732941 0.360100 -0.029611 -0.116262 0.071032 -0.230868 -0.321591 0.123475 0.394541 0.318677 0.275544 -0.109033 0.953689 0.219896 -0.114615 0.391950 -0.511974 -0.225516 0.066668 0.675614 -0.017654 -0.953818 -0.787899 0.033399 0.318258 0.105584 -0.015461 -0.745283 -0.247825 0.194365 -0.112124 -0.614405 -0.519140 0.085828 0.187507 -0.240114 -0.637820 0.236567 -0.057296 0.738099 -0.334005 -0.470014 -0.891355 0.245622 0.343853 0.297341 -1.340474 0.307271 -0.210082 0.420597 0.597377 0.265047 0.060754 0.712846 0.060732 0.352554 -0.015959 0.004664 -0.235055 -0.392460 0.239919 -0.899686 -0.711587 0.665374
like -0.238571 -0.579657 0.109864 0.429483 0.566029 0.299950 0.000633 -0.486765 0.107449 -0.201405 0.694206 0.414533 0.405617 -0.678611 0.239244 -0.699153 0.568575 -0.575134 0.360247 -1.349131 -0.814723 -0.075034 0.660276 0.275070 1.043159 0.336415 0.380861 0.175411 -0.444294 1.222264 -0.087883 -0.351422 -0.267466 0.429708 0.250042 0.174423 -0.077895 -0.151470 0.658407 0.397047 0.494601 0.376626 -0.530632 0.343069 -0.161772 0.076787 -0.050325 0.146744 0.186822 -0.429397 0.050470 0.589648 -0.957792 0.477878 0.501292 -0.103268 0.326874 -0.168293 0.039788 -0.913953 -0.010309 -0.111929 0.381957 -0.305662
v@@ 0.916582 1.021013 0.480802 0.031429 0.744102 -0.750122 -0.495610 0.326851 0.520851 0.722887 0.140274 0.595050 0.296255 0.961743 0.335323 0.415515 0.780470 0.297313 0.521386 -0.542135 -0.740412 -0.949061 0.402948 0.030007 -0.572976 0.436084 -0.467644 0.024975 -0.345450 -0.557972 -0.201683 -0.053375 -0.498372 0.831507 -1.146408 0.299618 0.684198 1.273754 0.195437 -0.876903 0.395596 0.273182 0.018010 0.125319 0.262838 0.075166 -0.605769 -0.183489 -0.555275 0.347569 0.129465 0.177797 0.412665 0.461417 0.446370 -0.413927 -1.305183 -1.182635 -1.111948 0.814127 -0.140413 0.448871 0.940302 0.347545
y@@ 0.262525 -0.630371 0.436607 0.582929 -0.440775 -0.045740 -0.488354 -0.018424 0.439209 0.137360 0.819786 -0.125233 0.736817 0.694245 0.123525 -0.733815 -0.245316 -0.804004 -0.104698 -0.358741 -0.567807 -0.056553 0.102637 0.877455 -0.188699 -0.174956 0.286793 1.057463 0.037729 -0.340628 0.112036 0.008538 0.475749 0.243096 -0.032212 -0.218291 -0.057786 -0.722078 -0.037241 0.988360 0.058690 -0.762990 -0.184481 0.360777 0.165647 0.439815 -0.143094 0.767948 -0.352442 -0.524855 0.883391 0.886964 -0.839479 0.154861 0.215649 0.006001 -0.043788 -0.500654 0.054238 -0.027694 -0.030559 -0.102271 -0.916034 -0.561822
m -0.673235 0.167694 -0.069639 0.203355 -0.218290 0.543098 -0.170729 0.236459 0.267535 0.072119 0.291426 0.533067 0.297535 0.061486 0.549904 0.368128 0.426374 0.310921 0.056593 0.162506 -0.246540 -0.777481 0.429198 0.014844 0.568895 -0.066207 -0.067175 -0.483614 -1.056808 -0.212379 -0.163181 -0.929410 -0.619470 -0.057347 0.246067 0.540357 0.110185 -0.252392 -0.967534 0.362928 -0.802222 0.342928 -0.992275 -0.287168 0.239823 -0.067365 -0.038402 0.396803 0.505115 -0.045078 0.322036 -0.878715 0.134265 -0.518769 -0.309060 -0.157000 -0.708664 -0.107315 -0.287641 0.109941 0.424423 -0.774739 0.086474 -0.198196
ar@@ -0.208926 0.295784 -0.480714 -0.119893 0.083493 0.946996 0.634056 0.366397 -0.292058 0.011084 -0.754268 0.473737 -0.466643 -0.062242 0.089916 0.946869 -0.360967 0.347279 0.047533 0.350592 0.337579 -0.052945 -1.094604 -0.506966 -0.006743 -0.346591 -0.109970 -0.279024 -0.117310 0.192490 0.001367 -0.726809 -0.815705 0.058647 -0.098737 0.476714 -0.180280 0.912780 -0.200314 -0.813377 -0.193068 -0.112509 0.152344 -0.232516 -0.212792 0.059190 -0.240481 -0.689594 -0.013183 0.658879 0.205991 -0.338573 2.075998 -1.047409 -0.533706 -0.049325 -0.451176 0.387578 -0.394302 0.509910 0.445461 -0.009568 -0.074753 0.331670
on 0.588962 0.687999 0.159781 -0.596551 0.376756 -0.010497 0.257678 0.053223 0.048695 0.342044 -0.194196 0.508960 -0.008286 0.678984 0.184526 -0.465895 0.347951 0.696496 0.548595 0.515351 0.357041 -1.166589 -0.214201 -0.335293 0.312919 0.243219 -0.165396 -0.593745 0.582274 -0.787854 0.261100 -0.401709 -0.590150 0.489620 -0.404000 0.791944 0.326934 1.065607 -0.649131 -1.296147 -0.249344 0.042873 0.139281 -0.316673 0.237986 0.428674 0.141711 -0.886036 -0.650576 0.042715 0.220308 -0.586107 1.011370 0.348396 -0.408789 0.431069 -0.288960 -0.569534 -0.159596 0.486555 0.398715 -0.456081 0.348168 0.387672
on@@ -0.970195 -0.746450 -0.708271 -0.425708 0.251137 -0.278283 -0.025337 -0.062634 0.051381 -0.213968 -0.426544 0.193800 -0.563479 0.215732 -0.119605 -0.040209 0.176222 -0.272107 0.102662 0.144335 0.036092 -0.185061 0.648654 -0.631511 -0.420532 -0.996765 0.526271 -0.658038 -0.857871 -0.154827 -1.188192 -0.196384 -0.594260 0.054353 -0.584749 0.401306 0.129490 -0.270221 -0.407030 -0.334300 -0.062031 0.922168 -0.962670 -0.145838 -0.241071 -0.607022 0.355842 0.232551 -0.327926 -0.185065 -0.355957 -0.492153 0.276373 -0.307278 -0.232285 0.740513 0.395848 -0.316626 -0.457607 0.465029 -0.284893 -0.466964 0.585501 -0.140303
al@@ -0.685397 -0.839814 1.079134 0.241638 -0.184408 -0.361071 -0.373778 -0.574989 -0.128514 -0.099797 0.292398 0.353379 -0.198261 -0.012927 0.260430 0.088570 -0.134924 -0.762231 0.305194 0.056909 -0.166981 -0.415200 1.359761 -0.030781 -0.159949 -0.002358 0.732127 -0.355182 -0.458027 0.705547 -1.123842 -0.086665 0.029780 0.103726 0.625186 0.592712 -0.899765 -0.069151 -0.235999 -0.004840 0.482369 0.283333 -0.147956 -0.041421 -0.017448 -0.365455 0.536550 0.524986 0.172081 -0.022337 -0.225909 -0.110062 -0.411697 -0.083191 1.046104 -0.550922 0.036698 0.073724 -0.080988 -0.291939 -0.447547 -0.497334 0.309193 -0.095040
well 0.268536 -0.154890 -0.447974 0.087375 0.378417 0.274424 -0.055828 0.340231 0.070947 -0.522266 0.803073 0.236184 0.609980 -0.406881 0.578052 0.307341 -0.588197 -0.595251 -0.309577 0.294760 -0.247326 -0.041946 -0.103959 0.798220 0.230173 0.003542 0.172061 0.503613 -0.946391 -0.182799 -0.043236 -0.690358 0.297665 0.292940 -0.739985 0.378072 -0.695180 -0.461141 -0.043116 0.332016 0.054562 -0.177904 -1.049277 -0.068402 0.166613 0.496516 0.466806 0.340272 -0.574655 -0.221138 0.518535 -0.382125 -0.673788 0.999770 0.086698 0.214107 0.029585 0.156129 -0.699145 0.156066 0.303337 -0.526065 0.090738 -0.529631
it's -0.405419 0.094048 0.435567 -0.435548 -0.512895 -0.013804 0.080956 -0.413457 -0.150353 0.150406 0.830266 1.034858 -0.101759 0.108776 0.262975 -0.041161 -0.122269 -0.675866 0.484211 0.638133 -0.443706 0.193863 0.847228 0.929942 -0.765571 0.386772 -0.045071 0.709322 0.473930 0.346689 -0.616025 -0.537982 -0.525079 0.119237 -0.383658 0.370917 -0.349850 0.810362 0.082348 -0.544361 0.120420 -0.194097 -0.006015 -0.526691 -0.664733 -0.098776 0.165285 0.190239 0.089780 0.617491 0.259710 0.521869 0.064078 -0.007508 0.849268 0.225368 0.352619 0.537318 0.344792 -0.371667 -0.153329 0.157812 0.156956 0.050319
t -0.858499 -0.456495 -0.204188 -0.710008 -0.217143 0.063931 -0.341435 -0.152853 -0.262928 -0.436575 -0.051983 0.358400 -0.935684 0.106998 0.448210 0.122669 0.131444 -0.446714 0.031343 0.311466 -1.178519 -0.250568 0.683780 -0.448778 0.055785 0.519889 -0.579354 -0.788378 -0.300780 -0.031652 -0.197043 -0.654943 -0.748660 -0.142487 -0.535611 0.621650 0.679789 -0.508030 0.170589 -0.941668 0.051035 0.996788 -0.578463 -0.514580 -0.761799 0.112759 0.113477 -0.081123 0.123096 -0.205177 0.442936 -0.435703 0.668385 -0.339340 0.181686 -0.036836 0.257589 -0.252493 -0.269292 0.890388 0.244059 -0.700315 1.183112 0.127884
ve -0.480577 -0.019913 0.161777 -0.524993 0.074669 0.616632 -0.452089 0.241329 0.168010 0.410928 0.197285 0.507165 0.251819 -0.632115 0.361515 0.206560 -0.765321 0.307299 -0.007042 0.763265 -0.555489 0.477693 0.177663 0.544107 0.883920 0.419271 0.324549 0.218227 -0.140497 0.499550 -0.376018 -0.298223 -0.271532 0.073624 0.558989 -0.967238 -0.740682 -0.251107 -0.583726 0.927282 0.078311 -0.262177 0.079953 -0.396671 -0.263051 0.174965 -0.099333 0.565054 0.047986 0.704639 0.122229 -0.104073 -0.478123 0.527548 0.676582 0.649408 -0.528787 0.471824 0.709459 -0.404129 -0.645266 0.442799 -0.147568 -0.235869
ah -0.722354 -0.346763 -0.350754 0.482438 0.417492 0.301215 -0.462973 -0.691727 0.433697 -0.473656 -0.215949 0.109117 0.822866 0.195352 0.124625 -1.083720 -0.153722 -0.390082 -0.235818 -0.760924 -0.436648 0.316113 -0.318887 0.584144 0.514862 -0.671788 0.179155 -0.380998 -0.724432 0.034013 0.264455 -0.471097 -0.244843 -0.128292 -0.084771 -0.882394 -0.274189 -1.014662 0.062174 0.492460 0.495232 -0.084088 -0.272751 0.286451 0.077291 0.201224 -0.010968 0.552571 0.164938 -0.135712 0.143393 0.586159 -0.696613 0.453593 0.566507 0.414949 0.197281 0.606335 0.114820 -0.394196 0.301710 -0.592480 -0.781688 -0.107376
oh -0.087283 0.240612 0.191521 -0.321404 -0.010011 -0.216507 0.519072 -0.405159 -0.162034 -0.364349 -0.820708 -0.268627 0.176961 -0.279582 0.046362 0.454864 -1.000142 -0.215476 -0.798156 -0.578874 -0.218329 0.077428 0.206247 -0.727727 0.386083 -0.542120 0.094883 0.052683 0.971359 0.862325 -0.236026 0.097845 0.694122 -0.566702 1.205732 0.101542 -0.284494 0.129578 0.349396 -0.146070 0.377682 0.180499 0.704850 0.302651 0.185608 0.359504 -0.926797 -0.370115 -0.062411 0.430518 0.293081 0.289436 0.668939 -0.211470 -0.165471 0.263622 0.158377 1.087644 0.103749 -1.074472 -0.072180 0.076595 -0.399158 -0.130520
don't -0.380753 -0.511994 -0.427518 -0.297612 -0.218454 0.354675 -0.549138 0.223936 0.653945 -0.102756 0.002239 0.655894 0.014900 -0.412136 -0.078278 0.070942 -0.069345 -0.791395 0.033950 -0.049541 -0.384337 -0.153488 -0.444384 -0.294702 0.743618 0.266711 0.368127 -0.335523 -0.731364 0.229344 -0.135491 -0.765728 -0.434753 0.298743 0.276757 0.228174 -0.115959 -0.799314 -0.542061 0.308794 -0.093098 -0.530351 -0.878974 0.164301 0.021165 -0.431894 0.307358 0.248684 0.453424 -0.416853 -0.079600 -0.824520 -0.808896 0.466084 0.772362 0.202842 0.659208 -0.099099 -0.205245 -0.070988 0.636588 -0.488571 0.537386 0.259953
er@@ -0.303926 0.172070 -0.491950 0.594226 0.394581 -0.646636 0.167443 0.607475 0.121159 0.432002 0.550606 -0.797244 0.293142 -0.053548 0.532205 0.069414 0.774693 0.024902 -0.418133 -0.127713 -0.450817 -0.386147 -0.492357 0.081220 -0.705535 0.433298 -0.074823 -0.296477 -0.220897 -0.171043 0.051040 -0.697351 -0.591158 0.182724 -0.639970 0.255881 0.676024 0.605194 -0.458323 -0.618307 -0.620442 0.248557 -0.275031 0.042973 0.344155 0.524919 -1.376547 -0.509490 0.367405 0.095745 0.126909 -0.153026 0.690261 0.366070 -0.171788 0.075651 -1.138151 -1.060458 -0.175419 0.662386 1.173540 0.148026 -0.600793 0.758321
there -0.420410 -0.220598 0.080848 0.405230 -0.155498 -0.384203 -0.274431 -0.727394 0.630958 -0.211569 -0.003093 -0.530778 0.369855 -0.578799 0.088950 -0.592764 -0.974111 -0.581594 -0.855124 -0.163192 0.152064 0.746131 -0.424839 -0.333506 0.301417 -0.352100 0.654252 0.147366 -0.050001 0.220240 -0.650730 0.153586 0.051568 -0.678568 0.683705 -0.791739 -0.271424 -0.047589 0.359579 0.936877 -0.353368 -0.361655 0.197070 0.180908 -0.323193 0.556301 0.418112 0.238368 0.263350 0.372903 0.405901 0.589139 -0.177776 0.046550 0.485507 -0.089086 0.037199 0.739782 0.213542 -1.234809 0.128427 0.384480 -0.319228 0.389112
know 0.082578 -0.373819 0.902604 0.202707 0.327769 0.631337 -0.513472 1.026273 -0.138555 -0.448825 0.323534 0.497529 0.356313 0.465767 -0.100428 -0.262892 0.116156 -0.093840 0.346293 0.181297 -0.413970 -0.949685 -0.369723 -0.037836 -0.307117 0.483560 0.502842 -0.556028 -0.096338 0.060108 -0.614029 0.287838 0.013012 0.228677 -0.357181 0.409780 -0.148977 -0.235110 0.195023 -0.625229 -0.185621 0.704740 0.275259 -0.089426 -0.766166 0.304962 0.075200 -0.460634 -0.195781 0.347429 -0.301652 -0.416272 0.479418 0.299752 -0.654143 -0.162373 -0.010591 -0.261377 0.335365 -0.124544 0.321439 -0.170541 0.449314 -0.420822
so 0.017232 0.265761 0.914596 -0.282586 0.173595 -0.227657 -0.478549 0.381140 0.304965 0.176193 0.603636 0.642393 0.353829 0.552370 0.481159 0.407984 0.923052 -0.435143 0.246161 0.696805 -0.358120 -0.872031 0.173368 0.092340 -0.717995 1.035488 -0.349835 -0.051161 -0.195008 -0.593408 -0.362292 -0.122704 -0.421942 0.723804 -0.868667 0.671147 0.555471 0.975493 0.358171 -0.335743 0.240293 0.074875 -0.271159 0.779780 -0.130146 -0.034303 -0.076822 -0.210505 -0.576214 -0.378557 0.040654 0.331837 -0.202456 0.311030 -0.101086 -0.038975 -0.626337 -0.877756 -0.831565 0.535758 0.086405 0.267323 0.780515 -0.047092
o -0.081016 0.849432 0.635302 -0.337805 0.051243 -0.639051 0.420067 -0.242407 -0.474624 0.334512 -0.380487 0.705808 0.153425 0.223854 0.296792 -0.067853 0.379963 0.698785 0.171520 0.054130 0.275448 -0.414290 1.003480 -1.022952 -1.021855 0.287009 -0.015628 -0.637299 0.869769 0.105393 -0.995328 0.542209 -0.668818 0.054453 0.353511 0.766621 -0.208632 1.471610 -0.369398 -1.228266 -0.250076 0.446106 0.454084 -0.065970 -0.162927 0.036806 -0.479887 -0.353770 -0.253836 0.582986 -0.212677 0.284731 0.877993 -0.090049 0.303385 0.637428 -0.179857 -0.285103 -0.395558 -0.182231 -0.289960 -0.274375 1.162663 0.654886
ou@@ -0.473257 -0.230306 -0.189109 -0.319954 -0.124078 -0.112661 -0.077311 -0.063848 -0.061063 0.081580 -0.435457 0.038912 -0.207517 0.371537 -0.430916 -0.294377 -0.519344 -0.507128 -0.118404 0.024537 0.042561 0.060752 0.285150 -0.986680 0.522341 -1.126855 0.022618 -0.465011 -0.267099 0.631853 -0.165508 -0.099865 -0.337970 0.177383 0.322492 0.013383 -0.068863 0.444266 0.344844 0.394453 -0.036080 0.731550 -0.884390 0.076037 -0.153565 0.190545 0.325162 -0.388729 -0.755869 0.244528 0.437897 -0.110192 0.093817 0.134665 -0.420436 0.111469 -0.546436 -0.211795 -0.836106 -0.252921 0.351111 0.413920 0.092153 -0.057024
because 0.852037 0.883216 -0.031385 0.455354 0.425829 0.041727 -0.703695 0.135050 0.542455 0.356178 0.245307 -0.020193 0.926128 -0.058835 -0.188890 0.663288 0.824773 -0.091235 0.024596 -0.006198 -0.104009 -1.357945 -0.641397 0.398157 0.402340 0.081829 -0.139571 0.194470 -0.418915 -0.915234 0.647493 0.140050 0.169950 0.272528 -0.387787 0.059396 -0.159494 0.264824 0.662371 -0.186569 0.009667 -0.209689 0.328273 0.983744 0.547177 0.494183 -0.121410 -0.425742 0.231397 -0.483261 0.531960 -0.159158 -0.316559 0.102615 -0.211294 0.660646 -0.637691 -1.026663 -0.498351 0.568226 -0.128109 -0.145064 -0.831722 -0.084175
li@@ -0.348816 -0.074203 0.377530 0.763865 0.289118 -0.403501 -0.192643 -0.849592 0.303540 0.413009 0.757871 0.220253 0.714973 0.248701 0.295929 -0.008111 -0.197955 -1.151573 0.462550 -0.606373 -0.024386 0.727996 0.333855 0.245176 -0.206176 -0.105010 -0.059226 0.618789 -0.378179 -0.040576 -0.520817 0.557124 0.159758 0.330886 0.758934 -0.338724 0.099810 0.104719 0.695988 0.323034 0.493035 -0.498909 0.235993 0.567669 -0.475958 0.123187 -0.044626 0.856024 -0.573933 0.293462 -0.326277 0.802300 -0.374603 0.278272 0.621541 0.169957 0.437199 -0.075118 0.011478 0.024523 -0.101017 -0.459283 0.305267 -0.096928
di@@ -0.076918 0.081817 -0.043072 0.891181 0.043742 -0.206641 -0.331344 0.167215 0.394152 0.413103 -0.153609 -0.147497 0.617474 0.244749 -0.599766 0.058749 -0.926932 -0.528048 -0.809883 -0.543408 -0.320276 0.460056 -0.274005 0.781647 -0.230628 0.534874 0.567895 0.249407 -0.696987 0.908643 -0.355327 -0.306682 -0.129419 1.030468 0.309979 -0.238589 0.376962 -0.581509 0.222721 0.252474 0.440155 -0.006888 -0.334744 0.130690 0.157393 -0.597272 0.356634 0.758591 -0.133056 -0.264390 -0.440914 -0.048292 -0.893905 0.364398 0.404687 -0.365588 0.091946 -0.163536 -0.360462 0.200189 0.700006 0.504095 0.440689 0.076395
what -0.394115 -0.282376 0.794807 -0.580577 -0.440156 0.099717 -0.407708 0.483792 -0.058048 0.830590 0.103085 0.229849 -0.123488 1.321374 -0.284062 -0.509685 0.556025 -0.396854 0.918583 0.778068 0.386782 -0.301054 -0.049430 0.452858 0.160518 -0.417645 -0.497708 -0.333124 -0.210952 -0.402974 -0.673641 0.143103 -0.167804 0.592867 0.057102 0.352192 0.344382 -0.897335 0.065618 -0.262802 -0.094769 0.397003 0.197466 -0.086465 0.251021 -0.831752 0.300836 -0.063682 -0.975231 -0.466265 0.519529 -0.280175 -0.057475 -0.218062 -0.111824 -0.325496 0.030602 -0.429829 0.303842 -0.065598 0.170732 0.047310 -0.048669 -0.709210
k@@ 0.174152 -0.725749 -0.836438 -1.169510 0.294233 0.814434 0.036166 0.277824 -0.444082 -0.932263 -0.575537 0.223240 -0.221172 -0.456067 -0.392935 -0.283238 0.172088 -0.054849 -0.131803 -0.209181 0.672058 -0.138955 0.369167 -0.420205 0.488886 0.023208 -0.112304 -0.688879 0.257859 -0.096558 -0.105324 -0.027110 -0.179555 0.214812 0.107773 0.684178 0.515805 0.002764 0.194583 -0.451075 -0.354129 0.394563 -0.234236 -0.405157 -0.401735 0.149686 0.328096 -0.075537 0.202773 -0.174336 0.003714 -0.759671 0.985029 -0.581584 -0.163777 -0.110093 0.197168 -0.296558 0.290124 0.217868 0.477720 -0.294827 -0.007749 0.351476
at@@ -0.380241 0.504760 0.196124 -0.101162 0.116661 -0.212990 -0.672925 -0.540549 0.913342 0.075927 0.165204 0.725135 -0.285861 0.438877 0.506293 -0.581750 0.525575 -0.210029 0.542879 -0.163551 0.052644 1.153114 0.242155 -0.115845 -1.214798 0.277154 0.093382 -0.063951 -0.381457 -0.676128 -1.154630 -0.590859 -0.523602 0.659939 -0.547013 0.153821 0.081173 0.256698 -0.359390 -0.437157 0.322439 0.293767 0.325979 0.271961 -0.003835 -0.423174 0.512424 0.978566 -0.511221 0.001876 -0.038228 0.586212 0.465762 0.467397 -0.075766 -0.269735 -0.239859 0.183124 -0.221709 0.096065 -0.808991 0.314453 0.608526 0.196909
st 0.159927 0.378140 0.229821 0.005219 -0.486044 0.721698 0.128503 -0.516530 0.094058 0.206552 -0.741830 0.075297 -0.056125 0.080519 -0.543503 -0.285319 -0.473425 -0.021747 0.039081 -0.040541 0.429331 -0.511665 -0.615351 -0.415071 0.276894 -0.877602 -0.059714 -0.196036 -0.055534 0.035619 -0.384207 0.162961 -0.168530 0.116721 0.386992 -0.567978 -0.398915 0.328297 0.433806 -0.233409 -0.058333 0.770255 -0.327430 0.147100 0.106346 0.443082 0.328478 -0.747832 -0.154653 0.331536 0.168187 0.036962 0.258196 -0.556337 0.103886 -0.243645 0.085695 0.057270 -0.374928 0.094627 0.070344 0.044317 0.108844 0.639196
en 0.639975 -0.514254 -0.019675 0.649886 0.651617 -0.210589 -0.201746 -0.120312 0.872686 0.163090 -0.993268 0.000856 0.967572 -0.053150 -0.629166 -0.338019 -0.478374 -0.331270 0.010348 -0.793778 0.071372 0.433618 -0.123512 -0.328063 0.255413 -0.935523 0.202350 0.401764 -0.256663 0.372163 -0.675672 0.138213 0.162641 -0.590964 -0.852928 -0.513287 -0.025204 0.129302 -0.024432 0.371415 0.371012 -0.334937 0.246414 -0.445481 -0.507295 0.158393 -0.400375 0.905411 -0.305839 0.004890 -0.668884 0.847192 0.218590 0.830544 0.229887 0.073069 0.600427 0.511399 0.412873 -0.317885 0.180263 -0.034682 -0.277144 -0.345679
for -0.506209 0.048629 -0.684544 -0.535445 -0.018615 -0.118779 -0.827071 -0.632513 0.362313 -0.145489 0.472905 0.666851 0.226772 -0.049073 0.494517 -0.369290 0.197621 0.260964 0.137121 0.133796 0.063918 0.910395 -0.022685 0.436373 -0.073473 0.024072 -0.306984 -0.089971 -0.617703 -0.099901 -0.939227 -0.018735 -1.018854 -0.162463 -0.932275 0.190399 0.051528 -0.393344 -0.162664 -0.006908 0.265477 0.473906 -0.623968 0.001909 -0.117767 -0.087993 0.435717 1.197377 -0.440186 0.239532 0.348440 -0.258047 0.432492 0.255067 0.483582 -0.148722 -0.106756 -0.251264 -0.306104 0.459440 -0.232954 -0.286689 0.271223 0.173291
mm 0.806398 0.746924 0.158817 0.296662 0.244867 0.336220 -0.841916 0.523240 0.306627 0.490132 -0.907671 -0.844630 0.169042 0.355230 0.053925 0.222453 0.646016 0.329887 0.010708 -0.408456 -0.101212 -1.297159 -0.276211 0.510055 -0.031706 0.334373 0.221135 0.541323 -0.903100 -1.488734 -0.174937 -0.207947 -0.869666 0.625515 -1.778003 0.674179 -0.308536 0.646886 0.441761 0.133579 0.397668 0.095687 -0.076575 0.352747 0.043356 0.583371 -0.246093 0.348837 -0.757416 -0.497559 0.569563 -0.072011 0.560633 -0.006944 -0.452142 0.525844 -1.371270 -0.610659 -0.025041 1.089949 0.419441 0.436498 -0.434480 -0.401533
or@@ -0.035458 -0.878336 -0.047064 -0.275047 -0.082972 -0.254374 -0.119008 -0.849240 -0.413893 -0.886529 -0.389498 0.040991 0.291416 0.338571 0.474473 -0.210088 -0.465602 -0.403238 0.042251 -0.554299 -0.545454 0.808205 -0.277366 0.376709 0.128501 -0.469804 0.781630 -0.199423 -0.579831 1.117913 -0.554238 0.176922 -0.283122 -0.069159 0.355782 -0.874570 -0.715211 -0.112176 -0.314897 0.534420 -0.399457 0.261266 0.029100 0.018773 -0.915230 0.407088 0.327794 0.640668 0.194137 -0.115324 -0.485911 -0.156714 0.139261 0.206793 0.221374 0.372803 0.089566 0.547693 0.166246 -0.555927 -0.413194 -0.372695 0.024958 -0.468004
k 0.302951 -0.464005 0.762368 0.361135 -0.426042 0.202885 -0.050924 -0.052019 0.665845 0.430705 0.508891 -0.508275 0.627970 0.572460 0.097865 -0.102651 -1.161792 -1.430110 0.237868 -0.087847 -0.158608 0.198854 0.309882 0.442873 0.159611 -0.717380 -0.242894 0.724921 -0.105497 -0.433809 0.518539 0.176693 -0.681642 0.286241 -0.420277 -0.476065 -0.882046 -0.186502 0.220641 1.000511 -0.411598 -0.295885 0.324648 0.091680 0.582571 0.446553 -0.141234 0.876681 -0.291999 -0.155102 -0.176239 0.296138 -0.088822 -0.143512 0.846233 -0.233342 -0.186589 -0.007890 0.195315 -0.516372 -1.221241 0.899131 -0.491659 -0.873932
one -0.568301 -0.058622 -0.009751 -0.636419 -0.289664 -0.529179 -0.060552 0.062879 0.592776 -0.073260 0.609294 0.922176 0.009048 0.567437 0.587874 -0.354025 0.173771 -0.178232 0.007003 0.148413 -0.522338 1.111020 0.285556 0.338573 -0.888977 0.858626 0.530495 -0.433212 0.181757 -0.182320 -0.352828 -0.366281 -0.526860 0.102470 0.247973 0.313257 -0.453785 -0.236045 -0.623542 -0.153413 -0.117770 -0.112328 -0.593474 -0.171231 -0.159479 -0.283816 0.101394 0.380528 -0.135920 0.156910 -0.101587 -0.359899 -0.531234 0.651783 0.049310 0.618886 -0.471879 -0.133723 0.040839 -0.223767 0.144865 -0.370002 0.775434 0.215228
th@@ 0.791639 0.265760 0.091502 0.800310 0.435223 -0.647718 0.444739 0.171713 -0.196209 0.817848 -0.618606 -0.200662 0.804960 0.060277 0.085970 0.094222 0.239962 0.309187 -0.036730 0.088861 0.245821 -0.226423 0.101252 -0.518419 -0.673387 0.299938 -0.031269 0.103265 0.792861 0.452012 0.710876 0.390698 0.389448 -0.045072 0.325353 -0.170075 0.173522 0.020653 -0.038801 0.371393 -0.022645 -0.042561 1.089493 0.047010 0.404436 0.154637 -0.745352 -1.310015 -0.505476 0.255040 0.034869 0.636852 0.274416 0.696127 -0.157012 0.362619 -0.488417 0.191201 0.055514 -0.153584 0.858202 0.259400 -0.282803 0.727517
ri@@ 0.725919 -0.395019 -0.089226 -0.204451 -0.085460 0.765547 0.291127 0.836867 0.128416 0.229855 -0.193793 -0.260320 0.198512 -0.357610 -0.610224 -0.417258 -0.191309 0.463652 -0.134208 0.181139 -0.314845 -0.638788 -0.454876 -0.664987 0.044251 -0.282177 0.255984 -0.522217 -0.244221 -0.115022 -0.783789 0.385861 -0.700662 -0.417058 -0.462484 -0.393394 -0.374161 -0.311800 -0.060285 0.239758 -0.018870 -0.131547 0.063754 -0.011219 -0.222153 0.495740 -0.821514 -0.068361 -0.697505 0.223930 -0.066618 -0.405419 0.500428 -0.482474 -0.298491 0.405485 -0.446865 -0.287478 -0.203708 -0.269434 -0.113251 0.014021 -0.652208 -0.487122
r 0.353729 -1.066016 -0.171333 -0.151215 0.006808 0.040778 -0.429099 1.225674 -0.191787 -0.118208 -0.073159 0.247338 0.337973 -0.137127 -0.055758 -0.002551 0.660617 0.466596 -0.024093 0.606898 -0.220578 -0.803492 -0.483916 -0.150619 0.247956 0.218387 0.123662 -0.794741 -0.282474 0.107050 -0.063805 -0.368703 -0.366549 -0.056193 -0.451101 0.313649 0.150033 0.188705 -0.227849 0.005122 -0.038033 0.417489 -0.645844 0.062593 0.069621 -0.184360 -0.230651 -0.195783 0.168599 -0.602241 -0.208342 -0.527806 -0.228386 -0.505824 -0.908327 0.440711 -0.103547 -0.426073 -0.024026 -0.097411 -0.304986 -0.699136 0.043708 -0.727014
or -0.019145 0.476678 -0.184289 -0.393181 -0.115848 -0.147013 -0.510418 -0.107089 0.493714 -0.080534 -0.184104 0.148886 0.889297 0.379176 -0.188066 -0.812368 -0.094806 -0.100597 -0.336896 0.618936 -0.059515 0.841336 -0.505062 -0.368409 -0.021613 -0.042266 0.062899 -0.027514 -0.674670 0.014680 -0.979648 0.645220 -0.119562 0.399762 -0.220072 -1.364134 -0.242146 -0.428540 -0.096185 0.721196 0.313036 -0.834152 0.411285 -0.156637 -0.047815 -0.307280 0.384210 0.680195 0.279169 -0.185787 0.046589 -0.016089 -0.126068 0.190418 0.354216 0.210333 -0.383278 0.567488 -0.284079 0.149964 0.237879 -0.081289 -0.450011 0.120188
ac@@ -0.759057 -0.222604 -0.466832 -0.449921 -0.080941 0.215768 0.441167 -0.316637 -0.065483 0.165244 -0.540790 0.013545 -0.230286 0.546527 0.149611 -0.066892 -0.101387 -0.715142 -0.268088 -0.228601 0.090662 1.375568 -0.034145 -0.022232 -0.495158 -0.491073 0.011049 0.505381 -0.691500 -0.093192 -0.699059 -0.639207 -0.485478 -0.491754 -0.120156 -0.293875 -0.124917 -0.151063 -0.162695 -0.086873 0.238307 -0.457722 0.278750 -0.154741 0.289241 0.031967 0.670101 1.216687 -0.664727 0.060415 -0.067201 0.166413 1.018664 -0.124999 0.138659 0.418812 -0.590421 1.396187 0.383418 -0.363913 -0.685608 0.093312 0.184823 0.368367
be@@ -0.192219 -0.885129 0.466452 -0.111527 -0.527758 0.551869 -0.383124 -0.102425 0.217409 0.821261 -1.057620 -0.039134 0.104307 0.243549 -0.098226 0.342492 -0.216724 -0.852939 -0.184643 -0.461012 -0.358264 0.001251 0.143568 0.442427 0.631430 -1.123362 -0.033950 0.561758 -0.266941 -0.571019 -0.790362 -0.013987 -0.513847 -0.256689 -0.507850 -0.702546 0.240623 -0.048615 0.227980 0.227301 0.692189 0.155673 -0.327659 0.271753 0.088544 0.076758 1.065680 1.072519 0.397072 -0.245538 0.554313 0.187824 0.288932 -0.222017 0.007711 0.092413 0.330478 0.147192 0.266499 -0.189957 -0.371567 0.566810 -0.028977 -0.595827
was 0.277410 0.545077 0.481909 0.590061 0.035192 0.269520 0.211786 0.037713 0.519785 -0.054222 -0.049202 0.366822 0.284064 0.461110 -0.340010 -0.249500 0.282929 -0.073492 0.571281 0.532605 0.290567 -0.458321 -0.344218 -0.136469 0.236629 -0.188339 0.504713 0.810750 0.545130 -0.098884 -0.330214 0.375253 0.129845 0.097783 -0.239354 -0.415165 0.111583 -0.028046 0.321750 -0.165310 -0.345253 0.500405 0.185230 0.295270 -0.304287 0.096499 0.058432 -0.423763 -0.255655 0.552487 0.055811 0.003710 1.131842 0.122353 -0.128809 -0.208688 -0.371559 0.188181 -0.074396 -0.250891 0.124433 0.825514 -0.310027 -0.040995
el@@ 0.381378 0.508562 -0.194312 -0.096032 -0.054605 0.226782 0.269267 0.198142 0.166945 0.400795 -0.528565 0.296866 0.109833 0.383549 0.004043 -0.062112 0.264023 0.098818 0.055365 -0.263617 -0.179214 -0.211650 -0.361409 -0.443994 0.079261 -0.445171 -0.096587 0.023617 0.171799 0.145633 -0.264552 0.248652 0.026518 0.359624 -0.329357 -0.123316 0.285543 0.317787 -0.115589 0.362893 -0.048770 0.206364 -0.187176 -0.295423 0.130176 0.135426 0.472722 -0.394006 -0.304309 0.608075 0.464145 0.203300 0.224090 0.110165 -0.488302 -0.011794 -0.682300 0.242975 -0.425739 -0.104357 -0.102110 0.382894 0.167689 0.074940
ex@@ -0.199456 0.337186 -0.016137 0.085511 0.081435 -0.016186 1.046537 1.232564 -0.591590 -0.460511 -0.414283 -0.216190 -0.130379 -0.940226 -0.447845 -0.574260 0.589728 0.784834 -0.260485 -0.133335 0.017782 -0.186224 -0.428011 0.268316 -0.366231 -0.000731 0.323570 -0.633763 0.580033 1.055039 0.081421 -0.002880 -0.029341 -0.680783 0.834923 0.477062 -0.030040 -0.401753 -0.953845 -0.910940 -0.176183 0.240900 0.039276 -0.960369 -0.496194 0.224805 -0.473179 -0.833579 -0.096440 0.008550 0.301104 -0.167036 0.220437 -0.030233 -0.512013 -0.012409 -0.013945 0.130676 0.270405 -0.307566 0.986617 -0.389599 0.546527 0.336344
si@@ -0.235975 -1.152582 0.478308 -0.707011 0.679300 0.633029 -0.712571 -0.644457 0.588265 0.927180 0.351516 0.668934 -0.060917 0.214495 -0.456780 -0.069261 0.422479 -0.606567 0.121003 -0.186007 -0.232372 0.455395 -0.773054 0.329097 0.330502 -0.022008 -0.387750 -0.073801 0.443023 0.358642 0.371231 0.206830 0.321577 0.092676 -0.331169 -0.338967 0.147615 -0.341842 -0.853438 -0.101533 -0.437648 0.015937 -0.088312 -0.014497 -0.307450 0.020108 -0.352975 0.620685 0.474594 0.201764 -0.504832 -0.515778 -0.360314 1.124099 -0.040043 0.337724 0.272809 -0.266816 0.225236 0.091628 -0.320422 -0.216102 0.272545 -0.441891
not 0.283994 0.096226 0.197316 -0.185307 0.029899 0.033451 0.773287 0.043854 -0.208815 0.533420 -0.119917 -0.311074 -0.065551 0.283959 -0.031937 -0.042327 -0.021968 0.128218 0.405937 0.629583 0.319328 0.660813 0.256411 -0.313524 -0.470885 -0.287251 0.170925 0.315963 0.733435 -0.114857 -0.079893 0.451451 -0.236119 0.266688 0.163391 -0.671831 0.142041 0.340168 0.527972 -0.117271 -0.403398 0.125772 0.430193 -0.063640 -0.469090 -0.021331 0.149103 0.240114 0.203264 0.062613 -0.085886 0.069295 0.429272 -0.169228 -0.210883 -0.072021 -0.668746 0.661304 0.643563 0.038768 -0.134105 0.112676 -0.538339 -0.139299
se -0.070262 -0.412887 0.106720 0.070157 0.062876 0.446779 -0.703595 0.148490 0.418464 -0.157891 0.086405 0.180081 -0.168257 0.459778 -0.267914 0.111068 -0.120891 -0.160972 0.077787 0.581406 -0.043518 -1.084887 0.289837 0.278255 0.730182 -0.295273 0.522330 -0.280314 -0.571572 -1.061773 0.773031 0.198939 -0.133955 -0.099443 -0.395735 0.001820 -0.306413 0.203547 -0.411449 0.624753 0.002058 0.305275 -0.811443 -0.402500 0.164382 -0.319334 -0.036465 0.038178 -0.084020 -0.898368 0.746504 -0.817321 -0.393664 -0.510493 -0.830351 0.101588 -0.570140 -0.348764 -0.099428 0.187444 -0.257289 -0.307895 -0.268155 -0.646376
er -0.773850 -0.934212 -0.711146 -0.645523 -0.213852 0.389251 0.226203 -0.182517 -0.246776 -0.369307 0.200784 0.634609 -0.661610 -0.371228 -0.054112 -0.452226 -0.424792 -0.014534 0.649618 0.274892 0.312494 0.354650 0.387171 -0.314056 0.264269 -0.356206 -0.113618 -0.786464 -0.209191 0.466959 -0.360402 -0.187891 -0.173251 -0.434244 -0.081049 0.795166 0.412381 0.241299 0.008436 -0.040437 -0.209040 1.278646 -0.719270 -0.471565 -0.406639 0.089107 0.575087 0.000771 0.300196 -0.483224 0.016755 -0.556206 -0.103023 -0.410493 -0.336799 0.412671 -0.089251 0.005297 -0.260676 -0.129920 0.614289 -0.086701 0.345844 -0.413606
do 0.676037 -0.124812 -0.021942 -0.223402 0.227283 0.142141 0.518527 0.310109 0.030517 0.138130 -0.984386 -0.478813 0.250851 0.534358 -0.206195 0.685515 -0.811951 0.096554 -0.313824 0.922199 0.088069 -0.974384 -0.216387 0.395218 -0.067802 -0.553527 -0.119937 0.298115 0.051743 -0.432962 0.009792 0.400117 0.388151 0.084579 0.306788 -0.189358 0.622346 0.611188 0.126869 0.362480 -0.133052 0.110881 -0.062302 -0.525335 0.617779 0.279989 -0.366639 -0.093310 -0.144057 0.110414 0.382708 -0.176867 0.802890 -0.372068 -0.825196 0.438632 -0.541164 0.571860 0.080563 0.485046 -0.920212 0.188834 -0.357071 0.179484
ly -0.404609 0.258887 -0.648330 0.015781 0.254312 -0.239376 -0.430654 0.509420 -0.508450 -0.116605 0.628899 1.009701 -0.518893 -0.535750 -0.000735 -0.017197 0.210180 -0.065935 0.160258 0.321431 0.242226 -0.343073 0.012034 -0.525463 -0.125611 1.079569 0.543390 -1.105007 0.451636 0.035259 0.479714 0.363551 0.041347 0.153369 -0.139173 0.429083 0.455357 0.308243 0.222750 -1.368451 -0.397216 0.253022 -0.300958 -0.174199 0.137258 -0.191649 -0.362187 -0.329085 0.506518 0.504702 0.213193 -0.397112 0.573403 0.032058 0.615160 -0.241344 -0.510274 -0.108606 0.118054 0.316319 0.351558 -1.280331 0.712640 0.328970
le 0.770584 0.649041 0.196149 0.192147 0.318910 -0.337465 0.675698 0.809375 -0.206620 0.452099 -0.285387 0.216746 -0.121598 0.165132 -0.082526 0.156935 0.571919 0.891838 0.312239 0.402641 0.054184 -0.503435 -0.023591 -0.096212 -0.550740 0.443911 -0.141516 -0.567858 0.998784 -0.108881 0.020748 0.429320 0.185148 0.183584 0.254771 0.108575 0.195327 0.765007 -0.391526 -1.112256 -0.781318 -0.421662 0.512236 -0.171508 0.558175 0.083572 -1.050540 -0.845132 0.129721 0.591068 -0.223685 -0.243666 0.789676 0.383626 -0.401214 0.143341 -0.214415 -0.252867 0.367954 0.076231 -0.022378 -0.375464 0.135956 0.744269
right -0.059139 0.843068 1.318315 0.602509 0.402436 -0.505584 -0.022755 0.528193 0.449576 -0.227517 0.818969 0.383970 0.319453 -0.315328 0.455349 -0.547200 0.523465 -0.380019 0.000933 0.099812 0.174797 0.181586 -0.352118 0.261649 -0.156768 1.013956 -0.369652 0.214246 0.054032 0.227832 -0.962410 -0.143913 -0.866984 0.914636 0.072188 -0.138093 -0.073636 0.184407 0.101266 -0.527717 -0.250700 -0.024185 -0.446285 -0.116997 0.096009 0.057259 -1.036250 0.400672 0.179801 0.368724 0.318039 0.538029 0.280254 0.466078 0.386259 -0.287387 0.152179 -0.418314 -0.168673 -0.217431 -0.699297 0.401983 0.232930 0.576156
aha 1.171495 0.700381 -0.037492 0.655808 0.317678 -0.204223 0.027804 0.456003 -0.101468 0.555141 0.195297 -0.354930 0.436767 0.541378 -0.137137 0.107016 0.288902 0.859161 -0.229175 0.003824 -0.627795 -1.303982 -1.260746 0.179600 -0.348623 0.006126 -0.298225 0.209675 0.218687 -0.487076 0.487792 0.523011 0.315084 0.054034 -0.743100 -0.081308 0.398991 0.189223 0.297251 -0.240543 -0.211544 -0.797867 1.012929 0.141729 0.776348 0.347093 -0.308056 -0.463100 0.107070 -0.050673 0.309647 0.130789 0.198923 0.113201 -0.568310 0.238704 -1.016030 -0.419167 0.001366 0.265580 0.109947 0.279816 -0.692076 0.151180
from -0.477352 0.543352 0.164597 -0.421964 0.286927 0.517834 0.078343 0.242035 0.058520 -0.512431 -0.488411 0.258457 0.225502 0.105260 0.404126 -0.203150 0.229375 -0.026616 -0.635112 -0.174706 -0.307851 0.220255 -0.059128 -0.237864 0.062803 0.356184 0.420729 -0.471844 -0.866994 0.328228 -0.413210 -0.459521 -0.395793 0.933458 -0.170274 -0.202076 0.580309 0.013142 -0.268130 -0.675205 -0.012272 0.157541 -0.652352 0.183531 -0.313584 -0.035898 -0.216164 -0.025698 -1.092592 0.586654 0.005983 -0.837481 0.985257 0.562546 -0.973271 0.463597 0.021186 0.264014 -0.985849 -0.188244 0.610348 -0.156063 0.212507 0.343680
un@@ 0.306204 0.977690 0.372444 -0.348214 -0.000494 0.030811 0.431630 0.414390 -0.002866 0.415870 -0.592485 -0.342572 0.090966 0.379459 0.170039 0.176346 -0.590542 0.236230 0.215555 -0.126700 -0.290209 -0.262608 -0.753352 0.072298 0.175833 0.024313 -0.198305 0.506030 0.382881 -0.231958 -0.006562 0.667666 -0.444488 0.010518 -0.355371 0.302541 0.105319 0.432422 -0.371749 -0.069928 -0.280718 -0.340675 -0.260456 -0.251307 0.173727 -0.097593 -0.170953 -0.324507 -0.579896 0.570437 -0.660813 -0.102360 0.439023 -0.051530 0.199270 -0.732752 -1.032139 -0.241021 -0.115533 -0.167815 -0.705475 0.262706 -0.278317 0.310938
l 0.327702 0.160178 0.242902 0.615514 -0.338352 0.200695 -0.060783 -0.389935 0.378925 0.327712 -0.403881 -0.063021 0.188071 0.036584 -0.016006 0.571997 -0.099225 -0.280373 -0.447055 0.720438 0.279897 -0.169926 -0.601257 0.280211 -0.730282 -0.073018 -0.177829 -0.262052 -0.162270 -0.217448 -0.034349 0.306506 -0.590169 0.116166 -0.499577 -0.047391 0.124840 0.633474 -0.135817 0.199566 0.279451 0.018163 -0.297763 0.450774 -0.250063 -0.270763 -0.033891 -0.297778 -0.296732 0.747913 0.527637 0.521363 0.437525 0.257633 -0.291396 0.538231 -0.850630 0.429243 -0.018646 0.429159 0.474532 0.469123 -0.358180 0.543544
uh -0.078417 0.005349 0.590523 -0.050940 0.022848 -1.013753 0.056080 -0.828288 0.266518 0.117610 0.891503 0.564182 0.386248 -0.523807 0.107516 -0.178385 1.028474 -0.219838 -0.158128 0.211711 -0.536455 0.796682 1.271505 0.599961 -0.707185 1.545795 0.265843 -0.401351 0.142517 0.647351 -0.906912 0.503567 -0.217480 0.024812 0.620524 0.449551 -0.328012 0.244979 0.019018 -0.508038 0.020790 0.134731 -0.522130 0.192658 -0.046892 0.227879 -0.429703 -0.093847 -0.514158 0.365541 0.429608 0.604903 -0.451260 0.850597 1.258412 -0.328607 0.059255 -0.418444 -0.428658 -0.214741 -0.599191 -0.396319 1.069250 0.314729
hi@@ -0.759701 -0.083727 -0.469037 -0.885812 -0.590407 0.214328 -0.468293 -0.514480 -0.512754 -0.397261 -0.099324 0.571531 -0.714262 -0.129024 0.618736 0.833485 0.057886 0.049579 0.133933 -0.110269 0.081117 -0.140406 -0.194177 -0.665371 0.905929 0.493652 -0.944485 -1.392254 -0.001240 -0.161249 -0.760341 -0.519102 0.090873 -0.440496 0.489826 0.753894 -0.147736 0.294674 0.139179 -1.039315 0.042505 0.143671 -0.283457 0.135797 0.424639 0.283812 0.346852 -0.185564 -0.120912 -0.125070 0.215373 -0.678784 -0.034756 -0.998233 -0.424614 0.473332 0.773353 -0.028817 0.000802 0.498703 0.235279 -0.717153 1.005142 0.397151
with -0.432615 -0.066742 -0.504622 0.631220 0.015726 -0.317987 -0.472713 -0.421448 0.352555 -0.167887 -0.009075 0.434857 0.908510 -0.259992 0.279320 -0.872634 0.903783 -0.656539 0.310897 -0.755369 -0.249836 1.333641 -0.420004 -0.252795 -0.346754 -0.117900 -0.102899 -0.492435 -0.512340 1.209634 -0.038586 -0.250635 0.270224 -0.127534 0.383198 0.250447 0.468651 0.066569 0.038006 -0.037435 0.155425 0.014637 -0.760482 0.775765 -0.067079 -0.611041 0.519803 0.084305 -0.065238 -0.000492 0.270693 0.664988 -0.196047 0.336907 0.663073 -0.597353 -0.004195 -0.043217 -0.765893 -0.938237 -0.442741 0.077704 0.383853 -0.096869
ne@@ 0.546831 -0.080753 0.809744 -0.122981 0.083333 -0.098191 0.009484 -0.573134 0.325882 0.176167 0.087417 -0.114207 0.858875 0.273230 -0.499571 -0.182891 -0.215798 0.441013 0.029815 0.157849 -0.526951 -0.502834 0.197964 -0.012262 0.417185 -0.690767 0.043687 -0.790500 -0.156026 -0.138063 0.104070 0.047692 -0.126505 -0.247934 -0.242682 0.606767 -0.324842 -0.021689 0.319231 0.173562 0.060424 0.734287 -0.397706 0.100282 -0.131894 0.173179 -0.336425 -0.041766 -0.379696 0.152045 0.532134 -0.100633 0.296269 -0.137067 -0.510916 -0.063889 -0.285649 0.079162 -0.256056 0.015360 -0.054898 -0.439294 -0.227620 -0.614140
ic@@ -0.577446 0.326951 -0.193324 0.288494 0.147765 0.105814 1.299128 -0.071108 0.159570 0.048346 -0.212022 0.364055 0.417867 -1.020410 0.148996 -0.083378 0.170962 0.213744 -0.757814 -0.264208 0.033349 0.190507 -0.211389 -0.879464 -0.238401 -0.172065 0.606277 -0.304628 0.888347 1.286531 -0.048442 0.543970 0.101967 -0.580351 0.672635 -0.141851 -0.071717 0.347533 0.224554 0.153721 0.061575 0.057728 0.066665 0.189892 -0.331261 -0.092658 -0.376550 -0.305452 -0.199240 0.648994 -0.021184 0.212347 -0.301468 0.767143 0.354701 -0.255519 0.149288 0.344944 -0.179913 -0.573492 0.313846 -0.539406 -0.190836 -0.037064
ea@@ 0.330216 0.269013 0.148985 -0.332377 -0.035196 0.718762 -0.500298 0.115692 0.515349 0.035030 0.516909 0.103395 -0.309819 -0.623226 -0.639335 0.704206 -0.760975 -0.410542 0.217550 -0.655553 0.122189 1.081099 0.013052 -0.236128 0.779264 -0.366828 0.174095 0.723929 -0.997524 0.787211 0.590876 -0.156942 0.368146 -0.817313 0.063535 -0.257220 0.287155 -0.014490 -0.378583 0.055482 0.307752 0.180579 -0.798501 0.337207 -0.251545 -0.533614 0.275794 0.507766 -0.353608 0.214093 0.054300 -0.165095 0.864949 0.383729 -0.030068 -0.191057 -0.672404 0.347160 0.435474 0.602139 0.226211 -0.402493 -0.106510 0.839526
lo@@ 0.166203 -1.434404 -0.791509 -0.449931 0.042560 0.832470 -0.024148 0.005124 0.276230 -0.032291 -0.146160 -0.475761 -0.587438 -0.051026 -0.005361 -0.226767 -0.784778 0.141249 0.030151 0.223374 0.480707 0.238016 -0.243263 0.531059 0.722119 -1.087829 0.233236 0.524203 -0.495408 0.136022 -0.900130 -0.006692 0.169018 -0.424157 0.346385 -0.249798 -0.399679 -0.716763 -0.095245 0.131740 -0.026622 0.152831 -0.642010 -0.088207 -0.536672 -0.146672 -0.252693 0.645501 0.617871 -0.003507 -0.650188 -0.032282 0.457816 0.154876 0.261622 0.244581 0.489960 0.794061 0.410072 -0.564162 -0.266134 0.445763 -0.879874 -0.257610
ay -0.692394 0.373873 -0.023381 -0.784410 -0.067599 -0.165985 0.355752 0.359198 -0.505800 -0.143418 -0.026708 -0.001846 -0.626370 0.060308 0.503244 0.370885 0.094245 0.438650 0.309780 0.535401 0.367555 0.736640 -0.260199 -0.123969 -0.622682 0.561455 0.102275 -0.852189 0.552963 0.479391 0.077574 -0.070825 -0.106253 0.583027 0.143247 0.410914 0.253146 0.854794 -0.417339 -0.430641 -0.327208 0.434809 -0.049701 -0.022899 -0.869402 0.097971 -0.132404 -0.611032 -0.449107 0.588110 0.190286 -0.242546 1.321255 0.071939 -0.347811 0.063035 -0.197686 0.362927 0.008819 -0.082188 0.289576 0.319524 0.472009 0.620752
ti@@ -0.074184 0.641324 0.006579 0.551364 0.089219 -0.409356 -0.433976 -0.215526 1.658441 0.458232 0.106376 -0.024762 0.231617 0.134521 0.938298 0.179181 0.426883 -0.494167 -0.354009 -0.793253 -0.297354 0.778981 -0.218022 -0.394085 -0.295752 0.619586 0.262357 0.453250 -0.347620 0.643509 -0.281334 -0.185809 0.251624 0.105036 -0.037400 0.336212 0.081794 0.138959 -0.632725 0.448642 0.604644 -0.500398 -0.096353 0.602929 0.801056 0.153914 -0.210155 -0.094059 -0.084514 0.204093 0.661600 0.604163 0.005423 -0.052923 -0.202769 0.256099 -0.492443 0.019641 -0.499264 0.178474 0.071292 -0.352247 0.314977 -0.110616
my 0.892865 -0.041139 0.244002 0.769149 0.455481 -0.188565 -0.190481 0.691511 0.432785 0.865519 0.091666 -0.502998 0.942791 0.952984 -0.605826 0.063575 0.015603 -0.227492 -0.372081 0.186420 -0.163461 -1.155346 -0.171929 0.275728 0.422984 -0.337693 0.272021 0.506984 0.086281 -0.852291 0.645084 0.793657 0.407713 0.377427 -0.419906 0.137042 -0.141803 0.188360 0.335634 0.740647 -0.108353 -0.171016 1.003968 0.309970 0.421732 0.695434 -0.236027 -0.644948 -0.534353 -0.447979 -0.219957 0.516143 -0.172326 -0.026183 -0.870153 0.221650 -1.036804 -0.362792 0.171168 0.311668 -0.690185 0.358726 -0.483393 -0.472942
an 0.857682 0.756801 0.178688 0.662548 0.652605 -0.421473 -0.099058 0.065405 0.230612 0.914850 0.600357 -0.642564 0.933002 0.437278 -0.097841 0.463196 0.096658 0.090610 0.557267 0.234477 -0.304569 -0.651302 0.304385 0.281614 -0.453775 0.149279 -0.423998 0.390067 0.434261 -1.024033 0.328826 1.477359 0.204916 0.659103 -0.012680 0.144260 0.095174 0.514811 0.418772 0.239799 0.069673 -0.504727 0.948148 0.209739 0.856422 0.243913 -0.190028 -0.223585 -0.177199 -0.049646 -0.068748 1.047531 0.362804 0.077341 0.076416 -0.490835 -0.067190 0.215575 -0.182656 0.162625 -0.470982 0.621755 -0.708471 0.220277
eh -0.608951 -0.612475 1.211982 0.117985 -0.057236 0.108303 -1.482244 0.401883 0.265388 0.462620 0.437416 -0.012363 0.083659 -0.389603 0.076223 0.579597 0.105327 -0.463078 -0.324228 -0.550692 -0.019049 0.030675 0.185405 0.269043 -0.293739 0.410847 -0.618850 0.366465 -0.232383 -0.417973 -0.158390 -0.282606 -0.570521 0.826440 -0.112275 0.271841 0.520380 0.192285 0.040538 0.125739 0.035422 -0.605574 -0.970461 0.659418 0.105651 -0.373809 0.411637 0.795915 -0.612879 -0.058650 -0.103899 0.003016 -0.623473 0.469385 0.503135 0.044644 0.555553 -0.288003 0.006592 0.149962 -0.162704 -0.073927 0.437726 -0.010523
all 0.146474 -0.890494 0.648728 0.363650 -0.773468 0.518577 -0.785489 0.158789 0.188989 0.375710 0.613861 -0.074126 -0.308753 -0.050538 -0.364956 -0.133975 -0.199828 -1.105818 0.510781 -0.367685 -0.173201 -0.373325 0.631575 0.729226 0.906058 0.261843 0.535881 0.481054 -0.836397 0.366073 0.224183 -0.338921 -0.410553 -0.117941 1.024965 -0.186713 0.096330 -0.350740 0.593317 0.295925 -0.067485 -0.028788 0.111249 -0.165229 -0.089176 0.057468 0.374600 0.345370 0.141186 -0.715516 -0.017776 0.089330 -1.365406 -0.547700 0.532408 0.278229 0.549051 -0.620027 0.269193 -0.428534 0.322378 0.441528 -0.496347 -1.051117
here -0.493497 0.153749 0.087126 -0.167760 -0.242051 -0.151390 0.336531 0.464959 0.050906 0.045945 0.448119 0.134386 -0.058005 0.258463 0.589904 0.540147 -0.136883 -0.092876 -0.123512 0.083169 -0.113161 -0.408622 -0.226808 0.029641 0.554974 -0.368183 -0.459089 0.059112 0.025248 -0.481862 0.326208 -1.064466 -1.084249 -0.179776 -0.348300 0.172088 -0.399190 0.223155 -0.380817 0.662693 0.127062 0.043374 -1.052761 0.020885 0.350189 -0.294981 -0.421510 0.434930 -0.184502 -0.089593 0.113028 -0.063078 0.144772 -0.647691 -0.436754 0.144442 -0.569117 0.002057 -0.568635 1.116515 -0.587921 -0.518795 -0.221005 0.532489
how 0.056420 0.252373 1.394552 0.633792 -0.373794 -0.793933 -0.167764 -0.401034 0.132207 0.040466 0.195552 0.137886 0.219052 0.252878 0.476244 -0.000073 -0.015963 -0.303849 -0.302246 -0.647802 -0.694050 0.407340 0.830964 -0.241590 -0.200606 0.648340 0.130496 -0.045789 0.145886 0.175585 -0.576259 -0.117820 0.710143 0.155343 0.507073 0.232190 0.345454 0.519976 -0.241185 0.545019 -0.037985 -0.155852 -0.225084 0.344566 0.092730 0.391678 -0.333957 0.062804 -0.000793 0.816225 -0.304679 0.805690 -0.706708 1.318559 1.105163 -0.389055 0.563318 0.547794 -0.669536 -0.605814 -0.110179 0.052405 -0.120494 -0.502616
this 0.734968 -0.250493 0.336752 -0.122006 -0.284966 -0.096787 -0.412948 0.691399 0.223788 -0.363850 -0.128310 0.151500 0.646599 -0.248715 -0.930237 -0.105115 -0.505153 0.218126 -0.261684 0.151805 0.406642 -0.643477 -0.618888 0.097637 0.197079 -0.274392 0.655080 -0.743289 0.424981 -0.368019 -0.440176 -0.357007 0.133381 0.234425 0.492948 -0.063681 -0.383286 -0.314761 0.351018 -0.608412 -0.104169 -0.685353 0.239082 -0.161981 -0.161697 0.017279 -0.556329 -0.320080 -0.193679 -0.920059 -0.021561 -0.484474 0.418399 0.047593 -1.138467 0.388418 -0.230621 -0.670084 0.164329 -0.830943 0.263241 -0.277929 -0.521607 -0.651520
le@@ 0.007313 1.044496 0.845461 0.066362 -0.225395 -0.256404 -0.278257 0.526967 -0.044166 0.301701 0.177718 -0.077530 0.576429 0.182587 0.430787 0.282456 0.492242 0.939204 0.682993 0.354224 0.553570 -0.468945 -0.806136 0.506399 0.007752 0.866203 -0.098298 0.431828 0.696107 -0.551211 -0.236504 -0.022247 -0.504980 0.416312 0.592040 0.837365 -0.420787 0.357631 -0.217572 0.148096 -0.299769 -0.618182 0.214156 -0.544780 0.183959 0.083118 -0.870137 -0.803106 -0.012335 0.676944 -0.396831 -0.101488 0.327774 0.681663 -0.014157 -0.139006 -0.588634 -0.144711 -0.361427 0.142190 -0.745795 -0.177254 0.401195 -0.224442
think 0.329783 -0.591011 0.922279 -0.267355 0.219526 0.086281 -0.276501 -1.111037 0.193254 0.116801 -0.332361 -0.547104 0.065277 0.816475 -0.494284 -0.632991 0.170262 -0.099653 0.415776 0.281371 0.644909 0.724889 0.372163 0.572931 0.066880 0.787450 0.485147 0.489726 0.082973 0.202042 -0.011024 0.531069 0.277361 0.447845 -0.425620 0.002542 -0.539812 -0.796986 0.127683 -0.455403 -0.045513 -0.574031 0.628123 0.027815 -0.139552 -0.062403 -0.087256 -0.388531 0.421230 -0.145414 -0.561653 0.878027 -0.049494 0.920496 1.012269 -0.531788 0.108235 -0.389015 0.378570 -0.413352 -0.076605 -0.070654 -0.199100 0.132641
it@@ -0.188579 0.183966 0.108995 -0.022713 0.088174 0.091271 -0.092434 0.177779 -0.549261 -0.168190 -0.211092 0.804330 -0.863233 0.684074 -0.217626 0.294517 0.464204 0.139225 0.309967 0.675148 0.355814 -1.168087 0.485916 0.299424 -0.354353 0.411424 -0.310273 0.188377 0.326235 -1.134887 0.118253 -0.324844 -0.520571 0.130230 -0.463590 0.236702 0.231649 0.446036 0.152454 -0.558029 -0.699739 0.322208 -0.032247 0.432231 0.167319 0.199406 0.138477 0.146954 -0.406225 -0.079054 0.159912 -0.792314 0.943628 -0.516305 -0.484794 0.208502 0.360611 -0.390559 0.088267 0.633632 -0.001346 0.389343 0.072464 -0.355978
if 0.083139 -0.126960 0.004299 -0.015781 0.295475 0.422153 0.291529 0.118135 0.130666 0.034475 -0.361489 0.685520 -0.136396 0.351348 -0.157285 -0.279635 -0.285669 -0.033423 0.174994 0.121547 0.353657 -0.211714 0.598616 -0.239032 0.069731 -0.588825 0.237834 0.191786 0.330313 -0.466563 -0.253455 0.281868 -0.140502 0.256683 0.173867 -0.410065 -0.330685 0.554617 -0.049715 -0.407441 -0.174428 0.394677 0.699771 0.471277 0.042770 0.222023 0.226656 -0.137391 -0.186241 0.537946 0.384536 0.205127 0.789664 -0.390861 -0.293884 0.702120 -0.104673 0.522362 0.446102 -0.136285 -0.323145 0.253937 -0.689639 0.118222
we 0.061781 0.612991 0.598853 -0.106725 0.282649 -0.431252 0.281305 -0.087691 0.076463 0.382966 0.083994 0.514952 -0.344412 0.980970 0.390567 -0.084576 0.927822 -0.354335 0.540511 -0.353263 0.339849 0.192913 0.283567 -0.423984 -0.775644 0.709281 -0.172905 -0.148603 -0.184743 0.002693 -1.179568 -0.267283 -0.716779 0.388979 -0.924999 1.186645 0.279063 1.139165 0.082856 -1.472506 0.022568 0.120939 0.215060 0.179925 0.089046 0.152422 -0.404474 0.384261 -0.999843 0.247011 -0.058733 -0.121631 0.956562 0.228448 0.296338 -0.189206 -0.493501 -0.322302 -0.695592 0.482326 -0.779262 0.611800 0.427586 0.282076
very 0.431648 0.532591 0.463600 0.462155 0.143261 0.022667 0.330602 0.685773 0.070107 0.219720 -0.274174 0.057591 -0.148474 0.409114 -0.069618 -0.898801 0.034171 0.503337 0.121695 0.175492 0.455895 -0.163306 -0.452023 0.201395 -0.481741 0.059050 0.035857 -0.530917 1.130339 0.200170 0.302799 0.578520 0.274205 0.147961 0.087907 -0.343845 0.022831 -0.205937 -0.444784 0.323563 -0.379905 -0.765343 0.805266 -0.536732 -0.156509 0.330270 -0.167162 -0.735871 0.385162 -0.106464 0.251825 0.358954 0.100236 0.394385 -0.074701 -0.162490 -0.411855 0.454620 0.066644 -0.122456 -0.046047 0.214954 -0.014192 -0.306371
people -0.467245 -0.298739 0.496332 0.207886 -0.327759 -0.185212 -0.931734 -0.394064 0.530717 0.261453 -0.147002 -0.060214 0.345823 -0.236988 0.269297 0.269636 -0.136680 -1.432358 -0.409263 -0.811672 -0.440087 0.578026 0.313295 0.943550 0.287054 0.137132 -0.365957 0.674585 -0.688444 -0.745123 -0.533058 -0.081948 0.060469 -0.367567 0.346809 -0.812301 -0.625503 -0.120891 0.091435 0.346763 0.280788 0.035689 -0.335360 0.277489 0.096559 -0.470820 0.397675 0.595270 0.423737 -0.266848 0.307042 0.370249 -0.491365 -0.867251 0.296579 -0.239070 0.391496 0.717176 0.061181 0.602610 0.438380 0.283411 -0.000216 -0.254532
to@@ 0.156292 0.107067 0.558770 0.465328 0.580739 -0.332329 0.204622 -0.241550 0.103036 0.199267 -0.404027 -0.515810 0.642348 0.411105 -0.419807 0.122066 -0.085426 -0.816489 -0.264646 -0.098515 0.068856 -0.788671 0.117990 0.319835 -0.098761 -0.615533 -0.106245 0.375842 0.808400 -0.660064 0.610961 0.591064 0.527656 0.274786 0.449936 -0.640470 0.082292 -0.118126 0.499086 0.543273 0.349776 0.618823 0.733668 0.253923 0.055934 0.675010 0.411337 -0.804683 0.501568 -0.190686 0.087649 1.354453 -0.060086 0.335008 0.308086 0.010004 -0.181126 0.053176 -0.150835 0.359025 0.376868 0.512422 -0.545499 -0.379528
that's -0.037510 -0.088078 -0.181944 0.329787 -0.490082 0.055724 -1.064249 -0.848373 0.213251 -0.200181 -0.054310 0.187278 0.191023 -0.087740 0.288600 0.351540 -0.204622 -0.149430 0.414475 0.355812 -0.780070 -0.358985 -0.322180 0.080253 0.720482 0.321977 0.326007 0.127359 -0.715871 0.362008 -0.091190 -0.259441 -0.469298 0.489336 -0.433339 -0.209134 0.043690 -0.387106 -0.165644 0.225457 0.253542 -0.458390 -0.644304 0.646565 -0.096426 0.479578 0.159876 0.414556 0.363480 0.024460 0.782555 -0.146793 -0.083785 -0.186066 0.606499 -0.220980 0.164515 -0.659092 -0.674173 -0.028543 0.108267 -0.241838 0.658752 -0.197090
i'm 0.352477 0.065287 -0.086987 0.089480 0.208476 0.908201 0.596496 1.092672 -0.038568 -0.136728 -0.238235 -0.355132 -0.608143 -0.567053 -0.302134 -0.586969 -0.278479 0.380234 0.183010 -0.125015 -0.060270 0.127800 0.246116 0.089887 0.059340 -0.044611 0.071339 -0.824040 0.295464 0.448229 0.412946 0.134186 0.260772 0.018827 -0.622862 0.034969 0.552930 -0.509879 -0.025216 -0.880921 -0.031699 0.231348 0.145799 -0.717506 -0.438804 -0.057676 0.358524 -0.901674 -0.523061 0.182573 0.040362 -0.732825 0.460165 0.166573 -0.177591 -0.476668 0.147140 -0.219291 0.513281 -0.308405 0.077247 0.160003 0.438768 0.447993
sure -0.385407 -0.796324 0.610326 0.362291 0.214006 -0.033967 0.112170 0.081093 0.190291 -0.070047 0.015491 -0.189068 -0.403998 -1.062794 -0.009144 -0.043786 -0.114479 -0.592055 0.287741 -0.403712 -0.255805 0.207256 0.440009 -0.231445 0.459556 -0.354766 0.151102 0.055504 0.258750 0.344619 0.298335 0.132050 0.008396 -0.350365 1.236208 -0.474097 0.134412 -0.314839 -0.400563 0.406000 0.533742 0.062741 -0.046821 0.733633 -0.128852 1.093509 0.095288 0.056343 0.122902 0.142763 -0.127855 0.373957 -0.990395 0.362549 1.018524 0.127866 0.154167 0.007807 -0.095178 -0.588459 0.632900 -0.195356 -0.010956 0.339032
tr@@ 0.093025 0.026797 0.303389 -0.041431 -0.520566 0.014410 -0.810617 -0.088305 0.467790 0.436898 0.150916 0.052451 0.639215 -0.209643 -0.077877 0.862409 -0.843194 0.062633 -0.019361 0.212269 -0.562007 0.535168 0.227499 0.698698 0.163118 -0.262771 0.896974 0.456611 0.162497 -0.296837 -0.902136 -0.474669 -0.306018 0.531062 -0.243836 -0.136090 -0.209928 0.176774 -0.235427 -0.263061 0.120982 -0.344590 -0.537894 0.683534 0.721665 0.106188 0.429138 0.072843 0.740015 0.277999 -0.340963 -0.418562 -0.060562 0.221501 0.443512 0.122384 -0.179907 0.473755 0.176088 0.180168 -0.561445 -0.419948 0.080786 -0.209257
sa@@ -0.774140 -0.155133 0.014945 0.070137 0.103937 -0.901975 -0.364680 -0.836600 0.420141 -0.245393 -0.261766 0.190864 -0.161965 0.259919 -0.418855 -0.492886 -0.920180 -0.598817 0.229407 0.119907 0.489541 1.003327 0.205282 0.025787 -0.257819 0.424575 -0.216951 -0.098980 -0.288348 0.272085 -0.821192 -0.086840 0.089562 0.262555 -0.170622 -0.137625 -0.548726 -0.123877 -0.637811 -0.153163 -0.290681 0.251025 0.044087 0.275114 0.156789 0.509422 -0.021609 0.363516 0.327593 0.098172 -0.271186 0.543038 1.146484 0.259924 0.236781 0.134272 0.220323 0.971220 -0.016278 -0.181354 -0.035122 0.503749 -0.232983 0.540606
ma@@ -0.606085 -1.704956 -0.164828 0.005009 0.055508 -0.071985 -0.664706 -0.328985 -0.180005 -0.577708 0.326660 -0.019430 0.163261 -0.466339 -0.251403 -0.058639 0.475482 -0.409911 -0.438574 -0.524628 -0.310874 0.108054 0.804735 0.502735 0.326047 -0.533398 0.267666 -0.126691 -0.882211 0.220548 0.113495 0.107771 -0.031054 -0.376495 -0.414545 0.132725 0.186276 -0.228438 0.306361 -0.300058 0.469895 0.047822 -0.683975 -0.199314 -1.096136 -0.285599 0.962074 0.769120 0.176131 -0.357308 -0.553026 0.174724 -0.428402 0.496014 0.115517 -0.257491 0.415742 -0.060637 0.736332 0.315319 -0.412256 -0.273898 0.450961 -0.582903
ha@@ -0.062880 -0.788932 -0.654770 -0.624863 0.093061 0.283021 -0.591147 -0.211698 -0.356228 0.256802 -0.089141 -0.172664 -0.087378 -0.484613 0.047781 0.108543 -1.095349 -1.059506 -0.637672 -0.003421 0.138524 0.857447 -0.124944 0.234130 0.714001 -0.578848 0.337085 -0.109568 -0.544680 -0.344949 0.094979 -0.852273 0.088232 -0.343001 -0.007716 -0.504803 -0.028285 -0.707580 -0.153179 0.966705 0.093104 -0.197131 -0.383589 0.067516 -0.300237 0.064624 -0.084023 1.263844 0.346661 0.166324 0.078625 -0.663695 -1.028037 -0.033852 0.577549 0.048368 0.465347 0.332127 0.116437 -0.079522 0.191430 -0.402346 -0.089888 -0.495420
ent 0.134664 -0.661109 0.281837 0.217830 -0.211369 -0.225135 -1.050181 -0.339228 -0.275545 0.485686 0.308705 0.544533 -0.036840 1.345187 0.155518 -0.633693 -0.011693 -0.008701 0.980201 0.457195 -0.057875 0.196092 0.549428 1.130262 -0.683676 0.454122 -0.324915 0.692069 -0.196286 -0.872397 -0.362545 -0.162267 -0.633069 0.806226 -1.097716 -0.231697 -1.074379 -0.203715 0.119057 0.109292 -0.051036 -0.557129 -0.056459 0.561065 -0.105410 0.057610 -0.261769 0.694803 -0.787427 -0.655632 -0.309700 0.163619 0.160883 0.536615 0.263210 0.089151 0.065418 -0.274575 0.011472 -0.030114 -0.684255 -0.435415 0.468291 0.075169
be -0.010860 0.124925 -0.858054 0.360218 -0.075319 0.404238 0.094418 0.158286 -0.249094 -0.325772 -0.760854 -0.051000 -0.411832 -0.168851 0.374028 0.147875 -0.511271 0.077095 -0.293762 -0.215645 0.308653 -0.110622 -0.671139 -0.692341 0.653534 -0.571737 -0.597823 -0.510622 -0.205636 0.483396 -0.153309 -0.277919 0.576429 -1.115735 0.136559 -0.204056 0.677613 0.253597 -0.315702 -0.937991 -0.224896 0.454606 -0.536530 -0.215727 -0.176853 0.159157 0.513705 0.117916 0.325382 -0.081975 -0.028282 -0.267631 0.872226 -0.443984 -0.651306 -0.205955 0.456077 -0.048392 -0.021228 -0.028265 0.229095 0.346068 -0.416416 0.782715
ca@@ 0.373976 -0.108282 -0.380682 -0.408668 0.268096 0.017761 -0.492319 0.195591 0.671199 0.053173 0.575063 0.474078 0.208985 0.684264 -0.766619 -0.637724 -0.909526 0.231590 0.284417 0.533581 -0.072306 0.483013 -0.122813 0.015982 -0.304335 0.111489 0.168530 0.473120 -0.396358 0.006506 -0.686560 -0.482703 -0.494805 1.145743 -0.519145 -0.224147 -0.646265 -0.856776 -0.661674 0.059266 -0.082872 -0.087586 -0.294530 -0.418991 -0.389154 0.063946 -0.203957 0.999967 0.363167 -0.114115 0.104189 -0.500117 0.887151 -0.276124 -0.149384 0.520276 0.271322 0.154819 -0.038914 0.584468 -0.593858 0.540882 -0.099229 -0.615736
wa@@ 0.141477 0.211710 -1.031834 -0.682487 0.031392 0.522288 0.732898 0.375087 -0.303201 -0.486791 -0.825086 0.062499 -0.376495 0.237622 -0.119415 -0.484097 -0.557182 0.699014 -0.422777 0.075943 0.677151 0.414644 0.086044 -0.528105 0.047375 -0.276544 -0.023936 -0.882711 0.060795 0.104603 -0.337037 0.105042 0.415246 -0.472352 0.374633 0.343357 -0.365531 0.483036 -0.010035 -0.802335 -0.174556 0.359626 0.181487 -0.719845 -0.167223 0.018507 0.185399 -0.252797 0.011950 0.290879 0.037088 -1.030464 1.270702 -0.229868 -0.602754 0.090152 0.106292 0.377254 0.676868 -0.224964 -0.353589 -0.083653 0.000768 0.290791
cou@@ -0.723145 -0.365296 0.250935 -0.489013 -0.082632 -0.267227 -0.474745 -1.223484 0.370806 -0.021896 0.533897 0.451730 -0.568756 0.029810 0.363763 0.122294 0.065341 -0.411363 0.608323 -0.316205 -0.239823 0.626781 0.821043 0.308387 -0.359579 -0.531289 -0.246223 0.023361 -0.482228 0.488424 -0.483829 0.349171 -0.134826 0.327944 0.295650 0.346627 0.474800 0.161915 -0.720670 -0.245109 0.799436 0.352291 0.132224 0.143600 -0.252445 -1.002655 0.898771 0.966402 -0.381749 0.188056 0.137452 0.184277 0.076051 0.114242 0.703966 -0.295296 -0.069421 -0.013144 -0.983318 0.203187 0.182596 -0.291313 0.615609 -0.032481
h -0.096453 -0.502532 0.147117 -0.544332 0.134989 0.420383 0.051247 0.193399 -0.271064 -0.103131 -0.278230 0.131627 0.111947 0.282425 -0.443451 -0.382639 -0.121241 0.008438 0.374136 0.286475 0.005715 0.392790 -0.306449 -0.122270 0.283986 -0.093181 0.395764 -0.628764 0.190617 0.123075 -0.206892 -0.084780 -0.072287 0.367657 0.481494 -0.099771 -0.060976 0.318275 0.021308 -0.678718 -0.327183 0.935532 -0.055730 -0.189118 -0.496079 0.160444 0.114702 -0.322486 -0.082242 -0.275232 0.411048 -0.076305 0.376542 -0.043974 -0.159571 0.202203 0.532192 -0.088951 -0.120282 0.109502 0.132930 -0.240480 0.793332 -0.591685
he 0.342249 -0.283015 0.194466 0.002764 -0.176522 -0.134945 0.157307 -0.586120 0.282502 -0.306005 -0.508303 -0.759813 0.528391 -0.615516 0.195872 -0.168843 -0.568385 -0.146859 -0.142295 -1.068351 -0.225103 0.461556 -0.168330 0.289027 -0.306794 0.283919 0.126434 -0.743889 -0.352226 0.551938 -0.208986 0.465071 1.097768 0.034432 0.058853 -0.581107 -1.047018 0.047987 -0.369705 0.326396 0.147157 -0.711464 0.011909 -0.268489 0.283514 -0.183694 -0.189465 0.421563 -0.181426 0.806212 -0.211723 0.263725 -0.408872 0.258249 -0.308637 -0.184410 -0.452306 0.151707 0.283437 0.130893 -0.848408 -0.073735 -0.120501 0.682466
w 0.548556 0.762216 0.149453 0.138837 -0.060099 0.009486 0.711791 0.665202 0.047913 0.543986 -0.312123 0.080468 0.114361 0.668984 -0.190925 0.049175 -0.025143 0.222200 0.257295 -0.124561 -0.483548 -0.075244 -0.272171 -0.134639 -0.472504 0.213225 0.112942 0.482121 -0.022532 -0.870852 -0.180947 0.732179 -0.170033 0.215996 -0.738058 0.174918 0.050618 0.217900 0.436057 0.072231 -0.046471 0.221290 0.347903 0.100149 0.218904 0.044495 -0.151948 -0.278846 -0.377173 0.391197 -0.104734 0.294972 0.682058 -0.004286 0.162599 -0.390078 -0.627392 -0.129689 0.017443 0.260854 -0.051702 0.177929 -0.014360 -0.219338
good -0.627296 0.414518 -0.158602 -0.679685 0.187611 0.311812 0.258107 0.376791 -0.020912 -0.274846 -0.828327 0.533470 -0.168421 -0.599764 0.197075 0.222398 -0.072785 0.434754 -0.816530 -0.012174 0.258158 -0.245224 -0.574928 -0.877419 -0.093633 0.058690 0.620112 -0.496762 -0.516873 0.766885 -0.146530 -0.514241 -0.484393 0.136718 0.618650 -0.165828 0.204802 0.045134 -0.662090 -0.496946 0.091713 0.229742 -0.459754 -0.071617 -0.081813 0.183907 -0.240410 -0.615766 0.289939 0.642010 -0.316112 -0.656639 0.250019 -0.076907 -0.277918 -0.040693 -0.656874 0.513199 -0.002705 -0.158237 0.125638 -0.295052 0.086145 0.072704
mu@@ -0.751787 0.353775 0.299117 -0.128958 -0.614186 -0.086834 -0.263984 -0.163295 0.508944 0.014424 0.020850 -0.160151 0.155718 0.419767 0.490495 -0.460512 -0.245033 -0.257276 0.112314 -0.226501 0.125319 1.260113 0.166935 0.444768 -1.184155 0.677234 0.249423 -0.229747 -0.062747 0.445296 -0.819524 0.344773 0.073183 -0.027376 0.387322 -0.493625 -0.011831 0.120020 -0.530409 0.039367 -0.102414 -0.545313 0.010632 0.375356 -0.001786 -0.483784 -0.060790 0.693423 0.190764 0.297036 0.212996 0.007490 0.413731 0.658358 0.633102 0.062335 0.224388 0.334823 0.239616 0.161134 -0.308151 0.289595 -0.044977 0.740612
sp@@ 0.167873 -0.070701 0.472072 0.627868 0.159152 -0.219572 -0.503100 -0.466537 0.519074 0.310531 0.505122 -0.611285 0.087978 -0.191650 0.340275 0.508356 -0.559593 -0.501680 0.346566 -0.538930 -0.183983 0.014841 0.429267 -0.063097 0.202318 0.181068 0.079713 1.008324 -0.422436 0.421995 -0.905464 -0.065186 0.125494 -0.309066 0.100630 -0.131754 -0.028041 -0.254001 0.708733 0.169954 0.849527 0.000329 0.544514 0.761513 0.157268 0.125521 0.309924 -0.152476 0.071146 -0.110393 -0.005668 0.832214 -0.642877 -0.275303 0.800012 -0.428786 0.454730 -0.017373 -0.107423 -0.506837 -0.238242 0.221042 0.070118 -0.641858
am@@ 0.218511 -0.005376 0.328613 0.575316 0.031583 -0.267108 -0.257635 -0.160095 0.335586 -0.402157 0.189065 -0.231806 0.545057 -0.462400 0.426403 -0.025729 0.273818 -0.629245 0.181539 -0.498177 -0.112743 0.088182 -0.096699 0.489475 0.577096 0.005868 0.008280 0.038251 -0.574240 0.213474 0.215900 -0.320093 0.373384 0.303979 0.395345 -0.220035 0.270183 0.317975 0.197624 0.465121 -0.004934 -0.265579 -0.073179 0.146718 0.287488 0.022651 -0.071447 -0.237505 0.250437 -0.059884 0.681050 0.108567 -1.017522 0.360474 0.540855 -0.524738 0.088770 -0.254808 -0.274351 -0.400266 -0.474147 0.447187 0.346693 0.237618
yeah -0.135872 -1.215215 0.065898 -0.092404 -0.383883 0.804083 -0.433319 -0.461341 -0.006471 -0.437824 0.446174 0.263816 -0.006793 0.320527 -0.512378 -0.325535 -0.146890 0.150352 0.298444 0.678348 -0.083150 -0.793471 -0.065179 1.259813 0.680901 -0.143732 0.433214 0.551922 -0.132796 -0.975146 0.226286 -0.023634 0.176118 0.637887 0.152583 -0.328173 -0.929369 -0.652246 0.439934 0.582741 -0.635551 -0.127323 -0.430829 -0.074649 -0.462160 0.530248 0.410725 0.488531 0.412867 -0.670288 0.440882 -0.432928 -0.273774 -0.172633 0.205996 0.734066 0.233704 0.138084 0.220937 0.093317 -0.638779 -0.371366 -0.752269 -0.816953
at -0.464780 -0.083798 0.266070 -0.153331 -0.131915 -0.332176 -0.542197 0.348688 0.747629 0.113715 -0.065210 -0.074909 -0.204967 -0.785262 -0.200466 0.717447 -0.166237 0.042373 0.154872 -0.276980 0.146432 0.370501 -0.084446 -0.096252 0.782342 0.689347 -0.216338 0.197507 0.260913 0.320218 -0.557593 -0.653592 -0.323681 0.337123 -0.285253 -0.098796 0.331701 -0.124129 -0.318961 -0.342530 0.352375 -0.185559 -0.092668 0.085556 -0.744037 -0.471838 0.212822 0.677533 0.399554 -0.402931 -1.022775 -0.028037 0.509622 1.034113 0.754337 -0.714789 0.590965 -0.397808 -0.130912 -0.304427 0.015330 0.032989 -0.187606 -0.077980
more 0.212971 -0.713287 0.059193 -0.066221 0.229994 0.066482 -0.498848 -0.032396 -0.223002 -0.448086 -0.311673 -0.358413 0.407596 0.133950 -0.331930 0.762357 0.149809 -0.492369 0.276312 0.296648 -0.267182 -0.220049 0.114535 0.335120 0.900829 -0.445335 -0.623260 0.341199 -0.627986 -0.004608 -0.063470 -0.413621 0.055522 -0.676439 -0.355852 0.177287 0.545235 -0.455817 0.872840 0.198196 -0.058187 0.180967 -0.457600 -0.426968 -0.524181 0.348762 -0.159452 -0.573634 -0.751026 -0.053891 0.028897 -0.305700 -0.223370 -0.802034 -0.273514 -0.629608 0.043544 -0.285057 -0.194818 0.301275 0.084553 0.110002 -0.381488 -0.185107
ad@@ 0.190034 -0.654778 -0.754936 -0.267628 0.094060 0.372280 -0.007710 0.516263 0.016967 -0.019002 0.341987 0.157174 0.309926 -0.054943 0.302489 0.175113 0.432370 0.143969 0.096090 0.340254 -0.134796 -0.832496 -0.149259 0.115390 0.439826 -0.147322 -0.115267 -0.659715 -0.152968 0.075371 0.272861 -0.097234 -0.165827 0.392324 -0.462139 -0.073183 0.018924 -0.554527 -0.584770 0.163509 -0.884637 -0.120441 -0.604300 -0.341264 -0.260903 -0.164470 -0.219362 0.064768 0.427632 -0.268046 -0.157187 -0.700216 -0.005355 -0.428641 -0.518783 0.240789 -0.140890 -0.901922 -0.305201 0.079076 0.174202 -0.474632 0.006696 -0.000664
can -0.092367 -0.028502 0.668358 -0.146526 0.327067 0.096967 -0.656797 0.447753 0.268534 0.014446 0.161095 0.142163 0.449785 -0.466223 -0.457696 0.220447 -0.105125 0.168352 0.047643 -0.120290 0.104078 -1.037557 0.459027 -0.578132 0.754142 0.535939 0.434082 0.029867 0.036085 0.317770 -0.502395 -0.029339 -0.589011 0.557531 0.483016 0.385552 -0.241324 0.336341 -0.064936 0.215197 0.172824 0.851162 -0.181527 0.226624 0.149137 -0.151179 -0.924638 -0.078591 -0.516259 -0.231643 0.032093 -0.647080 0.214205 0.096743 -0.319289 -0.130977 0.607381 -0.610786 -0.037248 -0.064234 -0.337988 -0.474961 0.175481 -0.299267
co@@ -0.460974 0.224905 -0.353980 -0.140273 0.398734 -0.663241 0.711061 -0.495515 0.324520 -0.130120 -0.497384 0.016515 0.306446 -0.566740 -0.043646 -0.148327 -0.367532 -0.265062 0.319104 -0.197655 -0.553751 0.979037 0.628531 -0.644379 -0.319287 0.263198 -0.171168 0.460471 0.812969 0.199759 0.416579 0.433932 -0.145291 0.073128 -0.702397 0.212346 -0.165860 -0.317087 -0.606668 0.783955 1.195504 0.685014 0.245612 0.118888 -0.342566 -0.019162 -0.066153 0.534105 -0.265228 0.707012 -0.338821 0.330699 -0.206028 0.290652 0.635176 -0.569716 0.036345 0.017653 -0.335811 -0.225819 0.782708 0.189996 0.351792 0.689023
go 0.037939 -0.176541 -0.828510 -0.485135 0.032659 -0.046502 0.242874 0.458400 0.243321 0.365897 -0.334608 -0.172572 0.081352 0.194488 -0.450994 -0.367574 0.050485 0.361298 -0.813760 0.371981 0.048302 -0.303398 -0.411524 -0.636059 -0.419987 -0.497048 0.783052 -0.545610 -0.510693 0.049081 -0.479113 -0.001840 -0.448625 -0.484817 -1.139082 -0.272488 0.128584 0.598315 -0.202870 -0.896208 0.033468 -0.512668 -0.369107 -0.337351 -0.429090 0.315459 -0.568717 0.059970 0.425126 -0.135557 -0.416467 -0.530719 0.433001 -0.060663 0.040459 0.245646 -0.520334 -0.692291 -0.505570 0.583278 -0.054244 -0.234085 0.295096 0.275058
do@@ 0.456804 0.363684 0.221679 0.330018 0.259628 -0.455803 0.194894 0.179166 -0.452780 0.140038 -0.121197 0.008852 -0.071670 0.015966 -0.051088 -0.190270 -0.354362 0.054025 -0.060434 0.229715 0.556217 0.471093 0.246760 -0.547717 -0.762918 0.173595 0.106790 -0.081795 1.005546 -0.138240 -0.824957 0.453747 0.524849 -0.078194 0.231495 0.336649 0.000635 0.411152 -0.086587 -0.466096 -0.107619 0.298327 0.295486 -0.157618 -0.133300 0.264130 -0.487719 -0.595360 0.051503 -0.119065 -0.325161 0.265608 0.486510 0.036090 -0.024257 -0.181172 -0.344148 -0.136431 -0.158555 -0.172190 -0.038316 0.545956 0.791997 0.246792
ce 0.833195 0.475263 0.189774 0.922501 0.418472 -0.297606 0.097011 0.296404 -0.132728 0.867901 0.263429 -0.551112 0.876978 0.330619 0.123175 0.045097 0.013348 -0.127933 0.562558 0.070937 -0.890994 -0.716432 0.580955 -0.073345 -0.036507 0.390423 0.097605 0.439074 0.340184 -0.561808 -0.183080 1.248035 0.241019 0.251024 0.088275 0.065167 -0.022984 0.312978 0.358030 0.592739 0.829473 -0.269355 0.809372 -0.066746 0.805147 -0.036927 -0.279640 -0.167352 -0.858896 -0.080127 0.093021 0.900471 -0.130279 -0.029388 -0.238104 0.008862 -0.681352 0.037475 -0.126980 0.613979 -0.720444 0.344553 -0.210528 0.126056
c -0.569973 0.237750 0.579269 -0.431128 -0.309434 0.022045 -0.563266 -0.438382 -0.174228 0.057076 0.548041 0.788679 -1.079200 0.830492 0.654789 0.097525 0.544309 -0.327145 0.719368 0.063145 -0.030481 -0.548463 1.050560 0.151146 -0.330889 0.721572 -0.863548 -0.287656 0.006524 -0.825774 -0.358922 -0.041345 -0.465957 -0.017049 -0.052111 0.968566 0.505084 1.013265 0.455037 -1.032483 0.212974 0.602287 -0.127867 0.202131 -0.327763 -0.266183 0.465137 -0.185936 0.059124 -0.452402 -0.025563 0.236360 0.430681 -0.483473 0.098672 -0.000103 0.630638 -0.836972 -0.740953 0.726169 -0.160836 -0.041097 0.888683 -0.264284
wor@@ 0.576143 -0.021019 0.588898 0.216380 0.035612 0.162653 0.338174 0.188649 -0.286562 0.375833 0.286134 0.461221 0.378295 0.669567 -0.274391 -0.133873 0.159757 0.106560 0.027063 -0.068150 -0.194848 -1.057528 0.838580 -0.212277 -0.371282 0.182851 -0.201144 0.628784 0.145273 -0.837242 -0.032302 0.478943 -0.277658 0.073875 -0.537596 0.430281 -0.119268 0.508479 0.820024 0.323355 0.324124 0.307479 0.644252 0.216356 0.111715 0.176387 0.181589 -0.308083 -0.486358 -0.172889 0.191706 0.624774 0.013854 -0.351301 -0.049029 0.217797 -0.632163 -0.486776 -0.011146 0.278089 0.005918 0.664013 -0.104255 -0.088229
ch 0.942684 0.414502 0.633955 0.472588 -0.314853 0.204640 -0.705572 -0.037574 0.020181 0.388971 -0.365537 -0.394240 0.393565 0.312590 -0.861902 0.153371 -0.178461 0.208957 0.321930 -0.397448 0.063500 -0.731345 -0.521025 0.251128 0.454725 -0.423240 0.429930 0.616621 -0.219216 -1.152702 0.040867 0.826931 0.128984 0.484427 0.180653 -0.762664 -0.322822 -0.173498 0.592534 0.613859 -0.623056 -0.049192 0.586931 0.510086 0.432719 0.780631 -0.388644 0.060850 0.460563 -0.229092 -0.206937 0.533287 0.109984 0.402528 -0.309782 0.213983 -0.210382 0.410001 0.401901 0.367524 -0.350745 0.134970 -1.658907 -0.121527
