<unk> 0.057684 0.039612 0.039692 0.051665 0.067073 0.084506 0.051521 0.038880 -0.040000 0.067339 -0.071502 -0.095960 0.002612 -0.055272 -0.061278 0.067209 -0.061353 -0.068667 0.043058 0.011723 -0.062949 0.028868 -0.030264 0.021885 0.050827 -0.016372 -0.095548 0.088176 -0.098832 -0.058968 -0.062665 0.075042 -0.032268 0.022321 -0.065453 -0.011179 -0.018392 0.089924 -0.077890 0.081049 -0.018194 0.083429 -0.081054 -0.049919 0.061967 0.035505 0.039370 0.013683 0.013491 0.052715 -0.015380 0.099622 -0.026297 -0.099872 0.080765 -0.069007 -0.049613 0.042223 0.039210 0.093912 -0.098857 -0.027342 -0.094045 0.094896
<blank> 0.055233 -0.019931 -0.069931 0.074532 -0.016402 0.097133 0.049957 -0.089440 0.045562 -0.085480 0.000814 0.027102 -0.009622 0.062434 0.015444 -0.031519 -0.078229 -0.012217 -0.060161 0.057304 0.032006 0.020420 -0.099813 0.026362 0.022508 0.031772 0.086292 0.039654 0.000104 0.087939 -0.039028 -0.037445 -0.040708 0.091159 0.050193 -0.035368 0.021239 -0.018281 -0.099244 -0.002315 -0.036166 0.046121 -0.019849 -0.075081 0.050513 -0.012005 -0.033504 0.099833 -0.011903 -0.077237 0.030752 -0.053539 0.093393 0.084889 0.063626 -0.016955 -0.068659 0.015541 0.079640 0.084009 0.056810 0.098545 -0.026690 0.041821
<s> 0.132768 0.497829 -0.389273 -0.671116 -0.054752 0.184257 0.116885 0.111316 0.271783 0.325624 -0.043531 0.309265 -0.007013 0.097633 -0.159945 0.197325 0.391079 -0.037975 -0.005820 0.631563 0.354256 -0.176166 -1.028799 -0.404622 0.639541 0.181733 0.714345 -0.905274 -0.391366 0.137603 0.127479 0.404548 -0.902333 0.614557 -0.163777 -0.430557 -0.505811 0.521653 -0.312690 -0.638895 -0.875561 -0.263125 -0.582776 -0.722234 0.370669 -0.137027 -0.775693 -0.700036 -0.501746 0.730582 0.469836 -0.569548 0.472393 0.316337 0.036477 0.595716 -0.140774 0.124706 0.396800 -0.434644 0.297978 -0.228811 -0.011275 0.740716
</s> 0.255394 0.480614 -0.054360 0.028019 0.260828 1.040900 -0.301015 0.614776 0.254946 0.300954 0.078615 0.336538 -0.117128 1.081840 -0.461980 0.184850 -0.082827 -0.642364 0.481980 0.842376 -0.388924 -0.802634 -0.147431 0.349747 0.917219 -0.750475 -0.467105 0.367623 -0.876175 -0.534340 -0.890746 -0.034843 -0.143794 -0.108359 -0.757403 0.141097 0.124158 1.047136 0.037303 -1.021531 -0.587879 0.107625 -0.094916 1.012278 0.438469 -0.047535 -0.301461 -0.159685 -0.351232 0.062596 0.285237 -0.303076 0.752770 -0.421571 -0.236623 0.134122 -0.737471 -0.829586 0.177282 0.128124 -0.009501 -0.177393 -0.542829 0.726002
i 0.834039 -0.306533 0.965941 0.645543 0.521221 0.046436 0.046316 0.021763 -0.010882 0.049475 -0.181939 0.522273 0.729610 0.525057 -0.375733 0.189289 0.560023 -0.479974 0.469853 -0.152936 0.146939 -0.635591 0.143715 -0.448481 -0.503488 -0.757648 -0.006573 -0.029053 0.849847 0.028454 0.018308 0.318087 0.176762 0.683713 0.100786 0.031682 -0.273264 1.136218 0.773610 -0.438535 -0.271613 0.045872 0.854341 0.101639 0.061795 0.059851 -0.621957 -0.982256 -0.627778 -0.203207 0.235724 0.920829 0.242308 0.845102 0.232807 0.456183 -0.396950 0.723213 -0.799421 -0.441373 -0.368324 0.373159 -0.268104 -0.197485
the -0.493676 -0.975345 0.834894 -1.277305 -0.592447 0.370668 -0.429828 -0.571396 0.008613 -0.269978 0.111314 0.531596 -0.806890 0.697378 0.112575 0.210636 0.530506 -0.845833 0.544566 0.753736 -0.164587 -0.002352 0.435498 -0.060368 1.598445 0.283136 -0.065894 -0.231018 -0.199345 0.066657 -0.494516 -1.201963 -0.831554 -0.210819 -0.358841 0.424393 0.185408 0.985607 -0.409887 -0.939581 -0.562590 1.364380 -1.297344 0.138700 -0.715217 -0.232351 0.831938 0.366373 0.357621 -0.158473 0.070747 -0.220812 0.197704 -0.319008 -0.403601 1.045321 0.054398 -0.064972 -0.850229 -0.463200 0.261564 0.098791 -0.090720 0.125201
and -0.013232 -0.150926 0.321551 0.592680 -0.095382 0.335475 1.098130 -0.048066 0.066106 -0.012504 0.108153 -0.042236 0.582340 -0.422472 -0.016221 -0.205389 0.305955 -0.321262 0.055222 0.382841 0.063484 0.719262 -0.188971 -0.972335 0.064725 -0.406882 0.470971 -0.288891 0.296838 1.004977 -0.545770 0.683691 -0.302759 0.101495 0.541714 -0.034870 0.038510 -0.119901 0.006094 -0.415090 0.051830 0.706276 -0.350072 0.302481 0.352490 -0.227559 -0.278517 -0.262937 -0.680265 0.336412 0.414823 0.487604 0.438744 0.786018 0.368330 -0.079976 -0.291270 0.851771 -0.235576 -0.583670 0.543465 0.123262 0.649239 0.004155
yes -0.458789 0.060670 0.858641 0.114365 0.111997 0.319501 0.377867 -0.084443 0.297688 -0.350537 -0.419523 -0.031525 0.056823 0.833053 -0.243481 0.409388 -0.869589 -0.408239 -0.180757 0.609733 0.143227 -0.100288 0.468682 -1.002975 -0.269321 -0.537688 0.059419 0.047106 0.306689 0.189604 -0.508641 -0.155352 -0.708707 -0.004232 0.357745 -0.712269 -0.271913 0.079737 0.212769 -0.504224 -0.497945 0.733427 0.333568 0.061228 -0.279487 -0.091513 0.148012 0.083437 -0.512185 1.135479 0.629083 0.609165 1.117345 0.105759 0.501809 0.118309 -0.324311 0.699426 0.073237 -0.487646 -0.382672 0.346480 -0.274339 0.575690
a -0.032710 -0.361780 -0.372515 0.103158 0.042216 0.206619 -0.484531 0.724613 0.079727 0.175933 -0.193050 0.294881 -0.170763 -0.370888 0.349896 0.562093 0.053784 -0.602391 -0.232751 0.867400 -0.125326 -0.933098 0.057437 -0.340729 0.751416 -0.005049 0.467211 -0.497833 -0.848989 0.525573 -0.085800 -0.387981 -0.442884 0.487495 -0.023487 0.578683 0.154525 -0.003900 0.478920 0.023744 0.369379 0.630495 -0.722230 -0.383270 0.059846 -0.194362 -0.273254 0.656705 -0.277336 -0.267394 0.951794 -0.909636 -0.631445 -0.144372 -1.272616 0.459332 -0.387736 -0.302441 -0.370533 -0.089736 0.059229 -0.572282 0.192971 -0.202268
that 0.686840 0.130703 0.029404 0.930886 0.638700 0.061795 0.704198 0.672956 0.142582 0.224727 -0.267732 -0.012981 0.513513 0.189652 -0.124618 0.216799 0.169459 -0.371437 -0.430324 -0.352166 0.273908 0.502056 0.304373 -0.894619 0.363995 -0.601986 0.538067 -0.414559 0.676125 0.837287 -0.121101 1.052647 0.079217 0.461216 0.274976 -0.291737 -0.088304 -0.464815 0.235501 -0.575905 -0.087913 -0.334421 0.474020 0.240802 -0.572588 0.093114 0.156326 -0.465733 -0.304351 0.900220 0.284300 0.711556 -0.153047 0.530287 0.286083 -0.232441 -0.204759 0.745335 -0.459577 -1.003490 -0.222852 -0.035887 -0.656710 -0.393018
s@@ 0.805790 -0.094406 -0.242116 0.612870 0.735196 -0.000083 0.479047 0.303904 -0.158813 -0.040857 -0.578930 -0.386422 0.619049 -0.725680 -0.212703 -0.046873 -0.124685 -0.332846 -0.347202 -0.688813 -0.226715 -0.087439 -0.167267 -0.701704 0.473370 -0.427389 0.710543 -0.376889 -0.031476 0.777524 -0.538454 -0.331116 0.011792 0.451776 0.736801 -0.313332 -0.402537 0.102170 0.209636 0.670435 -0.595484 0.001997 -0.339072 0.585446 0.149113 0.389284 -0.580607 -0.394050 0.030895 0.348226 0.377878 0.152691 -0.400330 -0.096848 0.189170 -0.358885 -0.373930 0.537485 -0.329603 -0.385050 0.591987 -0.499898 -0.612132 0.662868
you -0.039416 0.603885 0.310177 -0.083734 -0.117163 -0.027769 -0.449307 0.768575 -0.398322 0.333509 -0.271905 -0.145121 0.439428 1.277079 -0.246999 0.797246 -0.443437 -0.288242 0.392376 0.027625 -0.329542 -0.373035 -0.357040 0.026412 0.139070 -0.074627 0.260814 0.394705 0.177076 -0.463503 -0.431720 0.247731 0.553345 1.424223 0.934856 -0.174151 0.429895 0.524232 0.410356 -0.616667 -0.010807 -0.372181 0.589008 0.033239 1.182156 0.436552 -0.007283 -0.535504 -0.595069 0.170389 -0.148988 1.193471 0.429343 0.506913 0.434588 -0.015939 -0.745864 -0.215589 0.709995 -0.313875 -0.565389 0.737242 -0.322564 0.227433
i@@ -0.067766 0.205490 -0.111299 0.347946 0.241617 0.373880 0.486471 0.142662 0.595331 -0.046092 -0.549320 -0.228751 0.663717 -0.115694 0.592117 -0.096981 -0.422278 -0.158097 -0.575127 -0.443702 -0.612715 -0.359724 0.293933 -0.983316 0.424614 -0.338365 0.849869 -0.371154 0.346768 0.672941 0.074530 -0.133706 0.153461 -0.153575 0.963698 -0.164133 0.050716 0.330817 0.013648 0.318210 0.076036 -0.501345 -0.209031 0.136865 -0.069955 -0.091238 -0.267717 -0.685721 -0.486355 0.432505 -0.595201 -0.172145 0.073669 0.612120 -0.085289 -0.074675 -0.274682 0.296067 -0.020477 -0.627326 0.144211 -0.225176 -0.729286 0.369952
t@@ -0.074954 0.142641 0.123411 0.339666 0.057473 -0.304382 0.375832 -0.370861 -0.318927 -0.176803 0.420563 0.171887 0.537780 -0.034564 -0.275986 0.159812 -0.318899 0.795220 0.098334 0.751209 0.435848 -0.001384 0.194038 -0.181440 -0.318324 0.170869 -0.149479 -0.628601 1.020866 -0.355945 -0.895067 0.472669 -0.310805 0.426114 0.141312 -0.293022 -0.285948 1.539986 -0.454024 -0.447471 0.318174 0.091748 0.785338 0.312507 0.057570 0.353550 -0.213396 -1.021227 -0.461424 1.024446 0.520462 0.620284 0.075460 0.027016 -0.271538 0.138165 -0.164406 0.346848 -0.256144 -0.560523 -0.388963 0.700525 0.309742 0.399645
c@@ 0.233309 0.290844 0.062843 0.005203 0.227066 0.248458 -0.267106 0.121011 -0.339474 0.921870 0.557907 -0.815725 0.567644 -0.405772 -0.054570 0.895262 0.231666 0.276237 -0.528583 -0.509557 -0.198501 -1.037625 -0.810719 -0.660923 1.149645 0.634491 0.023568 -0.245383 0.093657 1.147070 0.259884 -0.355217 0.025793 -0.108823 0.526834 -0.597981 0.075281 -0.338010 0.236259 -0.193477 0.089695 0.334643 -0.114306 0.851167 0.651881 0.910761 -1.040244 -0.108719 0.068052 0.497002 0.616197 -0.176577 -0.319708 -0.066293 0.358305 0.317566 -0.285954 -0.247372 -0.201723 -1.229548 0.204153 -0.781411 -0.499550 1.014850
to 0.989261 0.615099 0.063632 0.142605 0.541270 -0.227064 0.939631 -0.091494 0.316302 0.341135 -0.379353 0.656711 0.734348 0.364355 -0.332177 -0.537761 0.902148 0.351496 0.149984 0.207859 -0.015405 -0.498474 -0.256428 -0.948437 -1.122591 -0.184603 -0.327999 -0.040419 0.522854 0.159268 0.075636 0.703245 -0.115506 -0.014584 0.012799 -0.033039 0.327999 0.979143 0.594378 -1.023721 0.050656 0.453083 0.474870 0.301380 0.248485 0.144994 -1.506027 -0.830839 -0.025437 0.427887 0.013656 1.012952 0.792028 0.449865 -0.247155 0.162503 -0.519005 -0.214079 -0.491947 -0.054673 -0.540498 0.821575 -0.531345 0.497660
m@@ 0.230142 0.020267 0.047772 0.677141 0.711726 -0.199822 0.293496 -0.170783 -0.047342 0.560843 0.039652 -0.092624 0.807148 0.687242 -0.886095 0.573196 -0.337514 -0.478242 0.210646 0.090096 0.131498 -0.719538 -0.750206 0.042011 0.318798 -0.686183 0.122055 -0.017922 -0.734782 0.121471 0.490657 -0.619929 -0.769024 0.596346 -0.600634 0.084123 0.523439 0.005158 -0.172781 0.296432 0.287149 -0.587735 0.088564 0.996857 0.829257 0.164271 -0.909928 0.032864 -0.591722 -0.371238 0.244055 0.571087 0.586644 0.672345 0.259088 -0.056621 -0.506906 -0.184239 -0.232524 -0.393271 -0.407833 0.467493 -0.913190 1.163684
h@@ -0.407247 -0.129133 0.707876 -1.121320 -0.189652 0.007213 0.207974 -0.294589 -0.322700 -0.262603 -0.336453 0.883058 -0.885514 0.914230 0.524279 0.019501 -0.080672 0.090776 0.216900 0.598536 0.527133 0.136858 1.103440 -0.833201 -0.414020 -0.000171 0.072500 -0.535796 0.120511 0.146723 -1.346287 0.660316 -0.841096 0.321182 -0.349012 0.356161 0.266368 1.091941 -0.447475 -1.255391 0.399853 0.649634 -0.055008 -0.390741 -0.080767 -0.041108 -0.477595 -0.159533 -0.557580 0.814488 0.593375 -0.024106 1.025253 0.222125 0.384947 0.254424 -0.353269 0.453089 -0.593299 0.200918 0.308778 0.414011 0.616360 0.374668
e@@ -0.275338 -0.003056 0.266441 -0.226488 0.310931 0.829190 -0.308824 0.325038 0.445176 0.417545 -0.013723 -0.274491 0.403221 0.676112 -0.637190 1.271713 -0.067480 -0.211667 0.078769 -0.121002 0.059032 -0.875318 -1.199495 -0.169276 0.737595 -0.053823 0.343894 -0.142507 -0.893343 0.034797 -0.112183 -0.837607 -0.455406 0.603306 -0.507417 -0.226108 -0.197030 -0.482377 -0.356061 -0.079294 0.217618 0.203479 -0.865979 0.653173 0.224161 0.103504 -0.691180 -0.018119 -0.189235 0.389153 0.345095 -0.139199 -0.397995 -0.105855 0.391510 0.713784 -1.434286 -0.322443 0.068947 0.295048 0.608727 -0.596231 -0.176892 -0.348622
u@@ -0.801767 -1.140726 0.116287 -0.021364 -0.363770 0.800623 0.135219 -0.349320 -0.350821 0.193517 -0.723749 -0.286186 -0.103129 -0.068773 0.158449 0.020682 -0.607058 -0.437447 -0.131708 0.343264 0.204033 0.010631 0.941126 -0.743601 0.573867 -0.665774 0.703363 -0.480572 -0.509353 0.537493 -0.480786 -0.313041 0.096343 0.090279 0.726382 -0.126230 -0.372140 0.340412 0.038892 -0.156420 0.186927 0.198747 -0.603953 -0.214013 -0.374488 -0.236065 0.441427 0.405725 0.063459 0.450132 -0.128317 -0.745192 0.327816 -0.632773 0.031854 0.467298 0.113579 0.827717 0.332711 -1.224173 0.284885 -0.490991 -0.327956 -0.260562
in 0.345081 -0.327053 0.185293 0.336381 0.479899 0.456071 0.548577 0.372406 -0.593699 -0.238339 -0.625470 -0.062572 0.444406 -0.890580 -0.317080 0.024874 0.410353 -0.131486 -0.124933 -0.023660 -0.182001 -0.029043 -0.269767 0.163488 0.549575 -0.255468 0.722914 -0.106024 0.226104 0.660458 -0.049019 0.213984 -0.125626 -0.143699 0.277108 -0.882599 -0.740571 -0.628768 0.035843 0.094099 -0.758091 -0.164518 0.016953 0.213404 0.334619 0.799336 -0.587557 -0.590867 -0.047301 0.143624 -0.438314 -0.182688 0.036186 0.645671 -0.643309 -0.311655 -0.080784 0.507924 0.517295 -1.143213 0.555795 -0.717905 -0.864156 0.361608
w@@ 0.549718 -0.242964 -0.130188 -0.600237 -0.217891 0.553558 0.254625 0.846803 0.196785 0.552840 -0.559316 0.266764 -0.605433 0.130305 -0.399677 0.831244 -0.403772 -0.483260 -1.025598 0.702221 0.467224 -0.476519 -0.573999 -0.948506 0.372571 0.271094 0.017505 -0.503177 0.310065 -0.655027 -0.582554 0.101180 -0.467201 0.080564 -0.428724 -0.072218 0.510727 -0.042267 -0.175644 -0.949925 -0.595668 0.519255 -0.393066 -0.383894 0.997485 -0.037436 -0.228563 0.062789 0.251902 0.100510 -0.629631 -1.121552 0.399372 -0.808714 -0.318423 0.360864 -0.226343 0.714448 0.480848 0.130097 -0.187637 -0.253035 -0.347897 0.509742
p@@ 0.412604 0.610596 -0.301570 0.326074 0.271036 0.192161 0.584408 0.224233 -0.608949 0.649138 -0.939029 0.342286 0.062315 -0.001819 -0.032282 0.208313 -0.175472 0.027880 -0.589898 0.022300 0.094476 0.042176 -0.492856 -1.559777 -0.157712 -0.527314 0.123719 -0.471126 0.414107 1.041228 -0.644524 0.688905 -0.865984 -0.431952 0.164250 0.702654 -0.429112 0.055822 0.288480 -0.493305 -0.306535 -0.315058 0.631762 0.231226 -0.135532 -0.468353 -0.208816 -0.050200 0.231519 0.925675 -0.578807 0.666746 0.840207 0.014424 -0.290220 -0.042876 -0.499245 0.170787 0.043209 -1.102257 0.535640 0.312904 0.313732 0.121552
s 0.211644 0.699376 0.571281 -0.344144 -0.001232 0.132860 0.327000 0.272673 -0.488760 -0.051754 -0.848436 0.310402 0.391727 0.913355 -0.520939 -0.666597 0.341962 0.000689 0.053853 0.548873 -0.216842 -0.027793 0.250535 -0.900329 -0.391366 -0.396415 0.187564 0.116984 0.529037 -0.601235 -0.651937 0.419890 -0.540037 0.688396 -0.820398 0.504665 -0.011365 1.496537 -0.198924 -1.023153 -0.078367 0.419370 0.420303 -0.086954 -0.182866 0.170406 -0.866115 -0.102701 -0.906945 0.584128 0.340033 0.283345 0.845720 0.233762 -0.141162 -0.242435 -0.581556 -0.190070 -0.394337 0.244073 -0.234438 0.722489 0.234614 0.085470
a@@ -0.420655 0.708309 -0.503053 -0.824685 -0.152047 0.510504 0.050923 0.744423 -0.440853 0.058469 -0.437397 0.641804 -0.019067 -0.471054 0.193303 0.182024 0.897399 0.385474 0.127724 0.359094 0.192233 -0.003539 -0.957451 -0.826973 0.282081 0.420696 0.699420 -0.657271 -0.202547 0.902718 0.066071 -0.627170 -0.058837 -0.401013 0.493936 -0.099762 -0.390540 0.057355 -0.049927 -0.858320 0.354337 0.677941 -0.896975 -0.076633 -0.625404 0.485037 -0.604059 -0.742231 0.417942 0.058196 -0.102420 -0.555183 0.695832 -0.239417 -0.319595 -0.166494 -0.146473 0.184898 -0.128686 -0.307389 0.209089 -0.779437 0.110795 0.973013
e -0.229724 -0.160615 -0.337552 -0.560816 -0.467239 0.038691 -0.494786 -0.218592 -0.047216 0.002255 -0.005349 -0.128271 -0.258138 0.864628 0.205544 1.321654 -0.449113 -1.212922 0.883470 -0.107992 -0.379616 -0.810929 0.396620 0.526471 1.184461 -0.066909 0.239096 0.393416 -0.545359 -0.680379 -0.436931 -0.465962 -0.955510 0.508290 0.090741 -0.488055 0.752104 0.620458 0.248589 -0.189560 -0.337761 1.002170 -0.584850 0.679082 -0.272813 -0.213149 0.322671 -0.243317 0.193263 0.149638 0.657724 -0.385268 0.055807 -0.045739 -0.195165 0.269758 -0.028839 0.269499 0.233027 1.260869 0.078081 -0.073213 -0.343451 0.384514
d@@ -0.724352 -0.642430 -0.133549 -0.403693 -0.148985 0.735306 0.542160 0.005692 0.408561 0.177837 -0.816148 -0.075358 -0.396474 -0.031512 -0.188021 0.496705 -0.569605 -0.517787 0.006447 0.562381 0.100808 0.097105 0.351562 0.014359 0.109305 -0.877592 0.294152 -0.711897 -0.211578 0.467323 -0.464690 -0.305425 -0.063258 -0.342988 0.746610 0.306587 -0.463881 0.472842 0.119980 -0.668202 0.165261 0.519479 -0.239241 -0.079113 -0.296254 -0.134428 0.744178 0.402040 0.261936 -0.270422 0.387147 -0.399774 0.291770 -0.147875 -0.147245 0.383008 0.185494 0.837913 0.307544 -1.024335 -0.189239 -0.417403 -0.567228 0.259143
is 0.254065 0.141461 0.757601 -0.563501 -0.047186 0.266894 -0.403687 0.040392 -0.052137 0.355142 0.095419 0.888265 -0.755153 1.617759 -0.196465 0.161921 0.713984 0.099412 0.944772 -0.037869 -0.091653 -0.886574 0.954854 0.147546 -0.051796 -0.047529 -0.379692 0.497551 -0.613671 -1.204744 -1.016051 0.396019 -0.711563 0.792566 -1.335118 0.649292 0.044803 1.144745 -0.055763 -0.874286 0.108512 0.883563 -0.367478 -0.028288 0.007084 -0.299026 0.702959 0.456168 -0.445822 -0.148517 0.025154 -0.106545 0.672876 -0.721819 0.430818 0.112246 -0.268186 -0.525496 -0.571027 1.291587 -0.828587 0.366052 0.550546 -0.135873
it 0.919432 0.993492 0.042311 -0.193038 0.343091 0.030026 0.486174 0.553671 0.194498 0.325719 -0.497727 0.301285 0.573077 0.064798 -0.110550 0.238721 0.298937 0.790041 -0.590941 -0.217082 0.553334 -0.835245 -0.569880 -0.834375 -0.569042 0.068580 -0.125254 -0.792166 0.589565 0.217019 0.020479 0.821458 -0.028239 0.163175 0.504547 0.185647 0.016320 1.189262 0.088750 -0.818327 -0.192548 -0.400683 1.230752 -0.014576 0.366902 0.270766 -0.847115 -1.203860 -0.432768 0.403674 0.064559 -0.018373 0.833770 -0.002817 -0.205774 -0.134579 -0.380418 0.241868 0.068876 -0.321638 -0.034945 -0.034781 -0.010295 1.048717
r@@ 0.177221 -0.110606 0.294379 0.030913 0.251986 0.392747 0.392135 0.276434 -0.221133 0.430131 0.786199 0.364396 0.155468 0.772437 -0.296402 0.369468 -0.550558 0.307617 0.998389 0.733927 -0.036228 -0.457798 -0.016721 0.065134 1.192152 -0.131214 -0.906534 -0.323817 -0.137383 0.388685 0.239645 -0.117208 -0.765174 0.516286 -0.301790 -0.233179 -0.545813 0.171723 0.914211 0.368337 -0.512851 0.236854 -0.595692 0.782454 0.270544 -0.007273 -0.850815 0.050241 0.058294 -0.234591 0.636478 0.115396 -0.214611 0.494193 0.960859 -0.100847 0.060934 -0.230668 -0.507314 0.805775 0.295936 -0.614930 -0.710249 0.948276
l@@ -0.196999 -0.433539 0.170441 -1.272906 -0.934311 0.702371 -0.532879 -0.725235 -0.289540 -0.040635 -0.382098 0.766856 -1.594416 0.608696 -0.711559 0.798884 0.190202 -0.431651 0.746451 0.948458 0.002928 -0.802329 0.166347 0.188571 1.316046 -0.067970 0.585727 -0.310530 -0.197154 -0.393048 -0.569873 -0.913506 -0.401256 0.030137 0.077872 0.166545 -0.223720 0.633827 -0.073569 -0.783878 -0.475466 1.128264 -1.433516 0.119577 -0.163359 -0.275756 0.402850 0.896543 0.805773 -0.064316 0.518197 -0.958959 -0.094767 -1.041399 -0.522173 0.399899 0.389978 -0.345849 0.194154 -0.281042 0.168419 -0.594088 -0.442255 -0.670271
f@@ -0.152501 -0.318760 -0.264606 -0.049819 -0.221258 0.261810 0.219631 0.773761 -0.005748 -0.079028 0.368678 0.247792 -0.497091 0.011078 -0.320439 -0.178212 -0.339558 0.272632 0.404942 0.505603 -0.152928 -0.851940 0.101105 -0.200619 0.310262 0.619049 -0.276976 -0.289867 -0.043490 0.172057 -0.625552 0.531188 -1.008316 -0.097725 0.199959 0.247350 -0.028682 0.001201 0.102225 0.068651 -0.774020 0.760177 0.291815 -0.208937 0.062597 0.359413 -0.463001 -0.226660 -0.299581 0.183423 0.581158 -0.354506 0.246461 -0.195684 0.220552 -0.236604 0.219856 -0.327023 -0.201840 -0.049873 -0.013915 0.393505 0.133098 0.406836
g@@ -0.514222 -0.763310 -0.677094 -0.427945 -0.059020 1.456938 0.132745 0.326943 -0.245686 0.031872 -0.150175 -0.051669 0.078772 -0.733881 -0.035570 0.268428 -0.748172 -0.080106 -0.377848 0.535081 -0.084186 -0.307666 -0.743506 -0.014721 0.936116 -0.325756 0.392513 -0.677354 0.061551 0.506716 -0.066992 -0.275099 -0.181743 -0.915459 -0.724565 -0.317975 -0.000800 -0.827668 -0.193284 -0.026186 -0.458597 0.516392 -0.719319 0.040508 -0.557994 0.469382 0.759586 -0.174936 0.672612 -0.533855 0.535209 -0.463119 0.231470 -0.742427 -0.006716 1.103333 0.612556 -0.112252 0.372329 -0.038719 0.911318 -0.314526 0.161236 -0.308390
b@@ 0.231903 0.457442 0.344217 -0.036028 0.273931 -0.068356 1.114904 0.366551 0.463383 0.873163 -0.800552 -0.068508 0.127503 0.510124 0.114061 -0.189738 0.265084 0.137755 0.015331 -0.178351 0.098432 0.488541 -0.582642 -0.774773 -0.605812 -0.334801 0.382597 0.422686 0.555926 0.206974 -0.430067 0.356028 -0.381806 -0.148308 0.253132 0.332891 -0.201735 0.299911 0.042455 -0.162270 -0.196689 -0.028840 0.713148 -0.523491 0.255906 0.161823 -0.130113 -0.768258 -0.030521 0.942320 -0.333360 -0.064300 0.617274 0.143537 0.228733 0.420666 -1.191122 0.818593 0.583135 -0.478173 0.277401 0.436961 -0.828709 0.464981
an@@ 0.147572 0.644770 -0.325708 -0.246050 -0.353908 -0.099789 0.868821 0.015483 -0.051482 -0.087522 -0.876638 0.323549 0.538451 0.413209 -0.189883 -0.843364 0.105820 -0.064829 -0.051810 -0.078083 0.474179 0.301443 0.283199 -0.502935 -0.029672 -0.358721 0.486097 -0.251229 1.045655 0.593965 -0.515188 0.420344 -0.601257 -0.244922 -0.070143 -0.078551 -0.567134 -0.130103 -0.258151 -0.686640 -0.118292 -0.427612 0.437612 -0.102678 0.440629 -0.045332 0.061727 -0.337136 0.338666 0.547636 0.059727 0.580972 1.434314 0.101650 -0.183578 0.806008 -0.545566 0.778353 -0.323798 -0.809249 -0.024145 0.023969 -0.089753 0.575845
y -0.104866 0.566784 -0.399050 -0.012816 0.812417 0.215814 0.202367 0.330038 -0.395158 -0.264913 0.230400 0.542943 0.316417 -0.533488 0.067977 -0.093442 0.681225 0.265373 -0.193172 0.231659 -0.195502 -0.497328 -0.410567 -0.792525 0.436656 1.215094 -0.199437 -1.010334 -0.179895 0.478281 -0.160015 0.117874 0.072545 -0.081234 -0.022407 0.259033 0.038806 0.334203 -0.349833 -1.119622 -0.222707 -0.714478 -0.866306 -0.783882 0.066741 -0.104050 -0.822255 -0.358099 -0.212261 0.358020 0.850099 -0.006458 -0.184282 0.030588 0.365030 0.382942 -0.525798 -0.531491 -0.148974 0.038836 0.361147 -0.809173 0.408662 0.905401
they -0.036062 -0.492763 0.573219 0.438727 -0.143342 0.409468 0.094395 -0.189700 0.041925 -0.014814 0.480486 0.657351 -0.234112 0.646685 -0.827817 0.007537 0.019765 0.239532 0.642636 0.427722 -0.473296 -1.086478 0.655852 0.034694 1.007147 0.789839 0.029011 0.103943 -0.374425 -0.591445 -0.365135 -0.153611 -0.075400 1.014421 0.555026 -0.095965 -0.372382 -0.242514 0.460275 -0.232795 -0.104834 0.051637 0.443682 -0.115997 0.645776 -0.098242 -0.527442 -0.339210 -0.597319 0.043494 0.289786 -0.158062 -0.760645 0.407427 0.222964 0.327393 -0.060565 -0.778587 -0.238398 -0.216748 0.121540 -0.434437 0.328445 -0.621564
es -0.815457 -0.519914 0.513124 -0.297530 -0.523861 0.384146 -0.134334 -0.413737 0.309245 -0.034675 -0.177156 0.297325 -0.922150 0.588420 0.124477 -0.947529 -0.831216 -0.704971 0.695099 0.106357 0.136079 0.842288 0.728816 0.284409 -0.130313 -0.463464 0.133715 0.486513 0.051613 -0.027666 -1.100226 -0.564625 -0.310621 0.587605 -0.329162 -0.141517 -0.142549 -0.276290 -0.063983 -0.235621 0.530463 0.227288 -0.246772 0.140859 -0.817080 -0.221599 0.601723 1.172613 0.449685 -0.244397 -0.090285 0.090129 0.857955 0.199769 -0.010705 0.288797 0.572901 0.840155 0.056039 -0.129623 -0.073171 -0.001053 -0.240905 -0.425123
st@@ -0.533263 -0.759906 0.209448 -0.430813 0.038244 0.246465 -0.100434 -0.341707 0.904058 0.393810 -0.231458 0.343456 0.019762 0.481330 0.011395 -0.306475 0.033562 -0.382507 0.120207 -0.316563 0.213439 0.501416 0.542604 -0.038478 -0.572158 0.377712 0.458897 -0.029096 0.022053 0.328588 -0.836636 0.781558 -0.378181 0.568505 -0.739524 -0.419138 -0.302163 0.480650 -0.212539 0.312088 -0.055100 0.276814 0.238922 -0.113247 -0.150922 0.328516 0.171225 0.286192 0.470851 -0.413529 -0.621313 1.014957 1.050807 0.442752 0.703507 0.294014 0.642919 0.206433 0.119744 0.156589 -0.428462 0.401658 -0.066035 -0.036321
of -0.120709 0.704010 0.560557 0.091568 0.133027 0.294269 0.022260 0.098109 -0.040392 0.198679 -0.004842 -0.244418 0.055396 0.461969 -0.255756 0.593131 -0.009427 -0.819512 0.749639 0.013207 -0.374073 -0.724931 -0.193816 -0.740633 0.268090 -0.581327 0.405964 -0.520561 -0.010335 -0.142023 -0.526342 0.543660 -0.896170 0.452368 0.099475 0.127489 0.018844 0.927410 0.105636 0.392273 0.262790 0.328856 0.075276 0.728393 0.385423 0.749310 -0.564482 0.562914 -1.151205 0.654262 -0.005177 0.522008 0.987463 -0.072080 -0.073454 0.046281 -0.122746 0.038093 -0.466385 -0.113847 -0.109697 0.117122 -0.547203 -0.054713
in@@ 0.478910 1.166012 0.209690 0.583067 0.164355 -0.155490 0.452476 0.384514 0.530279 -0.098046 -0.491273 -0.346668 0.776992 -0.301673 0.149888 -0.061178 -0.080119 0.164050 -0.643810 -0.576766 0.159455 -0.876321 -0.647251 -0.391883 -0.071204 0.327235 0.173873 0.333561 -0.013967 -0.071740 -0.245066 0.451860 -0.004531 0.969491 0.220934 -0.117848 0.615335 0.201909 0.197614 0.649972 0.269425 -0.383036 0.666786 0.827200 0.568081 0.221108 -0.603282 -0.594837 -0.503544 0.237723 -0.043609 0.190822 -0.498582 1.169415 0.194273 0.182274 -0.651980 -0.218068 -0.093361 -0.970189 -0.136976 -0.213931 -0.118739 0.419888
ed -0.196599 -0.027235 0.089593 -1.037346 -0.707195 0.267360 -0.059913 0.499657 0.058058 0.257642 0.202789 0.872538 -1.052462 0.050289 0.453353 0.572366 0.578878 -0.307669 -0.040237 -0.025006 -0.065350 -0.717982 0.745912 -0.245467 -0.256812 0.488070 -0.275979 -0.252671 -0.066210 0.420966 -0.394018 -0.356081 -0.389575 0.199687 -0.135646 0.847633 0.437257 0.736280 -0.576225 -1.628677 -0.482705 0.681734 -0.650840 -0.358063 -0.083729 -0.310252 0.228369 -0.171910 -0.192449 -0.186364 -0.195311 -0.946413 0.569634 -0.834516 -0.377963 0.052993 0.524454 -0.241956 -0.372589 0.628228 -0.013024 -0.361579 0.525156 0.432811
re@@ -0.737566 0.018829 0.298805 0.205151 -0.436277 -0.621326 -0.983894 -0.759577 0.613768 -0.000551 0.326328 -0.105078 0.579948 -0.144035 0.307342 1.085131 -0.429826 -0.860600 0.528936 0.086175 -0.222362 -0.091296 0.814856 0.278262 0.274906 0.646444 0.472622 0.364818 -0.574151 -0.427937 -0.024746 -0.723645 -0.260225 0.845323 0.144769 -0.226121 -0.178446 -0.367383 0.032235 0.950267 -0.175660 0.427275 -0.040702 0.500347 -0.094085 -0.246798 -0.191505 0.948952 0.103305 -0.367663 0.547463 0.598535 -0.392728 -0.359610 0.680665 -0.077634 -0.263459 -0.008631 -0.655278 -0.431888 0.360972 -0.122279 -0.155522 0.259179
but 0.148841 -0.384979 -0.336196 0.409603 0.436506 0.185961 0.778217 0.541977 0.034203 -0.249743 -0.384844 -0.311635 0.637383 -0.589836 -0.154857 0.055325 -0.295948 -0.288877 0.252311 -0.001905 -0.152577 0.005721 -0.339457 -0.196531 0.725622 -0.772927 0.400302 -0.130895 0.251951 0.510768 -0.186846 -0.259133 -0.380219 -0.290688 0.616129 -0.901810 -0.274571 -0.344551 -0.061476 -0.158757 -0.411425 -0.135672 -0.162175 0.205173 0.360752 1.069516 -0.892906 -0.389825 -0.037614 0.350690 -0.291910 0.101423 0.014147 0.885499 -0.745957 -0.034694 0.296708 -0.087073 0.235474 -0.773322 0.006294 -0.360665 -0.404166 0.201338
d -0.216853 -0.120011 0.036469 -0.733634 0.002748 0.232039 -0.127917 0.262666 -0.456712 -0.308422 -0.320029 0.404729 -0.784550 -0.048288 -0.330512 0.427572 0.597283 0.246830 0.170577 0.932158 0.257418 -0.653173 0.036452 -0.407340 0.601154 0.193954 0.516607 -0.382533 0.057547 -0.046901 -0.153136 -0.389903 -0.598656 0.671912 -0.361060 0.340834 0.240089 1.173259 -0.485566 -1.095899 -0.764570 0.617806 -0.956133 -0.859796 0.044963 0.318981 0.195305 -0.117146 -0.446214 0.072215 0.229012 -0.744045 0.895235 -0.102151 -0.569223 0.159492 0.044574 -0.530371 -0.098620 0.544934 -0.134180 -0.324699 0.854773 0.325708
are -0.111030 -0.055790 -0.524990 -0.439143 0.358806 -0.196724 0.022498 -0.401316 -0.684307 -0.739740 0.261857 -0.111464 0.451019 -0.049286 0.853922 -0.409724 0.736003 0.689122 0.811809 1.074023 -0.277160 -0.106278 0.676940 0.005842 0.317769 0.961105 0.114586 -0.908596 -0.203954 0.332861 -0.539960 0.898319 -0.632774 0.112859 -0.411149 0.894784 -0.793238 0.328112 -0.639923 -0.557050 0.824216 0.833207 -0.494198 -0.786611 -0.404686 -0.506006 -0.114430 0.323220 -0.336919 0.217508 0.002292 -0.434044 0.933120 -0.589732 -0.324129 -0.040933 -0.445491 0.462534 -0.123041 -0.322059 -0.178936 -0.079979 -0.016735 0.117092
o@@ -0.022829 -0.561560 0.136688 -0.560807 0.724316 0.286942 0.761424 0.284429 0.259711 -0.246491 -0.673216 -0.172574 -0.439644 -0.125454 -0.077352 -0.077692 -0.331934 0.204098 0.172583 0.188971 -0.187174 0.150260 -0.010977 0.063446 -0.083787 -0.681748 0.353201 0.084491 0.161062 0.093951 -0.029250 0.172758 -0.247869 -0.039958 -0.791774 -0.365033 -0.522704 0.325461 0.333900 -0.438544 -0.115016 0.672268 0.718818 0.233173 -0.373827 0.187628 0.209995 -0.041379 -0.432045 0.707755 0.139704 -0.319931 1.278698 0.236284 -0.060321 0.051580 -0.509929 0.217829 0.639110 0.219825 -0.133150 0.558600 -0.328061 -0.143678
me 0.332392 -0.054824 0.562630 0.034846 -0.244283 0.028396 -0.219697 0.372724 1.078622 0.087359 0.028885 -0.000399 0.417008 0.400441 0.138476 0.231059 -0.837002 -0.404142 0.436823 0.216146 -0.040070 0.287208 -0.259053 0.696285 -0.503983 0.128362 0.551213 0.994525 -0.702811 -0.298866 -0.370583 -0.232550 -0.410265 0.959488 -0.255521 0.516997 -0.564871 -0.512361 0.189351 -0.032656 -0.247481 -0.365950 0.478146 0.531648 0.263546 0.136456 0.037482 0.227653 -0.308157 0.439002 0.254384 0.749753 -0.215732 0.724503 0.582011 0.043573 0.381144 0.027203 -0.016750 -0.163880 -0.721266 0.191417 -0.021654 0.173224
en@@ -0.934874 -0.530558 -0.068856 0.334811 -0.501034 -0.286039 -0.390015 -0.287910 0.325788 -0.059247 -0.367584 0.228487 0.111863 -0.164199 0.466839 -0.319790 -0.253836 -0.538145 -0.378140 -0.484730 0.321756 0.706483 -0.319323 -0.090136 0.055068 -0.691507 0.638401 -0.009144 -0.847005 0.616427 -0.070577 -0.413897 -1.207673 0.148130 0.798106 -0.486397 -0.017346 0.155621 -0.539399 0.305911 0.210752 -0.373746 -0.342076 0.168467 -0.961352 -0.028697 -0.020610 0.682119 0.238738 0.745077 0.470239 -0.070987 -0.117687 0.403540 0.583974 0.455313 0.555328 0.830509 -0.393950 -0.371549 0.358407 -0.135202 -0.130810 -0.114318
ing -0.607289 -0.842962 -0.021937 0.108514 -0.206597 0.199717 -0.345330 -0.752752 0.549665 0.050129 0.021439 -0.349754 -0.091130 0.236202 -0.069558 -0.325004 -0.428809 -0.621671 0.508518 0.758238 -0.205286 0.716055 0.206038 0.292751 0.654444 -0.585995 0.197147 0.849047 -1.299165 -0.268762 -0.078287 -0.331461 -0.169066 -0.666214 -0.191814 -0.060142 -0.909824 -0.601156 -0.258109 0.446978 -0.029534 0.398875 -0.132661 0.274064 -0.378060 -0.180249 0.982078 1.144787 -0.313361 -0.313290 0.429690 0.359405 0.037731 0.060068 0.258291 -0.331874 -0.007241 0.496778 0.110020 -0.035317 -0.312878 -0.260654 0.203932 -0.667705
no -0.669232 0.206360 0.116523 -1.111265 0.106888 -0.118761 0.684853 -0.265269 -0.829215 -0.616232 -0.576507 1.083650 -1.028143 -0.902648 -0.072949 -0.081658 0.644740 0.295448 0.479088 0.301202 0.071313 0.128944 0.478598 -0.653822 0.586243 0.609109 -0.343473 -0.861698 0.092858 1.044381 -1.055996 -0.100077 -0.479486 -0.629219 0.518304 0.536161 0.895673 0.930693 -0.005056 -1.928068 -0.181328 1.202384 -0.591874 -0.399092 -0.632968 -0.365529 0.057640 -0.641988 0.478436 0.019241 0.019129 -0.979068 0.414458 -0.286147 -0.211574 0.061606 0.294938 0.096250 -0.609664 0.108826 0.631158 -0.361314 1.294980 0.531828
have 0.197440 0.343250 0.738191 0.283849 -0.073975 -0.788183 0.135530 -0.189790 0.476002 0.097838 0.194498 -0.022113 0.725450 0.171105 0.623229 -0.112418 -0.018125 -1.000201 -0.016345 -0.779465 -0.188599 0.798974 -0.110910 -0.036642 -0.716057 -0.079987 -0.129040 0.842508 -0.387777 0.253084 -0.500830 -0.130139 -0.647498 0.444357 -0.755372 0.108493 0.139666 0.031243 0.579229 0.516934 1.163937 -0.414752 -0.327055 0.396615 0.001697 0.187261 -0.586876 0.627829 -0.132870 0.697761 0.192492 0.252746 -0.387375 0.934000 1.427210 0.056596 -0.509819 -0.838065 -0.654142 -0.045435 0.044710 -0.018377 0.482073 0.896977
n@@ 0.733768 0.361275 -0.028566 -0.114564 0.071588 -0.228806 -0.320033 0.128452 0.394025 0.318732 0.271928 -0.110511 0.956271 0.220152 -0.117269 0.392697 -0.512766 -0.225106 0.067794 0.677498 -0.015868 -0.958427 -0.788018 0.031365 0.319233 0.102805 -0.015793 -0.748116 -0.248447 0.194896 -0.113849 -0.614904 -0.518355 0.086656 0.188685 -0.238681 -0.635980 0.236878 -0.053488 0.734447 -0.330880 -0.467261 -0.892603 0.246111 0.342108 0.297446 -1.343490 0.305335 -0.211605 0.420724 0.598167 0.264284 0.064135 0.714709 0.057925 0.354334 -0.014074 0.005849 -0.236626 -0.390830 0.242309 -0.898979 -0.710344 0.666684
like -0.240068 -0.577712 0.111145 0.431193 0.565229 0.295504 0.002748 -0.484315 0.107246 -0.199514 0.696062 0.411903 0.409832 -0.677951 0.239939 -0.696879 0.566911 -0.577680 0.358134 -1.349475 -0.813873 -0.077542 0.662264 0.276451 1.045052 0.333065 0.384229 0.177094 -0.444028 1.219525 -0.086634 -0.353558 -0.269799 0.432062 0.256283 0.171103 -0.079507 -0.152136 0.659384 0.401588 0.493452 0.375198 -0.527820 0.346025 -0.158672 0.077737 -0.054449 0.147506 0.188139 -0.428105 0.053644 0.589717 -0.961349 0.478661 0.502136 -0.098483 0.323074 -0.164847 0.040736 -0.912062 -0.007382 -0.109850 0.376871 -0.305545
v@@ 0.917428 1.021877 0.479765 0.031525 0.744362 -0.750532 -0.494481 0.327745 0.520918 0.722382 0.140397 0.594466 0.296157 0.961085 0.335070 0.415326 0.780326 0.298308 0.521353 -0.542922 -0.739948 -0.949167 0.402646 0.030092 -0.573647 0.435735 -0.466867 0.023798 -0.344952 -0.557302 -0.201178 -0.053100 -0.498322 0.831937 -1.144340 0.298750 0.682827 1.274873 0.195987 -0.876562 0.395270 0.271774 0.019086 0.124918 0.263446 0.074875 -0.607326 -0.183916 -0.555741 0.348567 0.128405 0.177891 0.413193 0.462570 0.446190 -0.414433 -1.305680 -1.182225 -1.112396 0.814035 -0.141320 0.449671 0.940081 0.348696
y@@ 0.265427 -0.631931 0.436707 0.584725 -0.439758 -0.044958 -0.486560 -0.016898 0.439090 0.138793 0.819411 -0.129037 0.742828 0.692977 0.119886 -0.729996 -0.243997 -0.805792 -0.103738 -0.360976 -0.567907 -0.063166 0.101762 0.880442 -0.182647 -0.176986 0.288130 1.057896 0.035198 -0.339450 0.110123 0.010216 0.478063 0.243340 -0.031578 -0.219960 -0.060003 -0.724180 -0.031448 0.988075 0.056268 -0.763590 -0.185535 0.365029 0.167714 0.440662 -0.146569 0.764809 -0.352960 -0.527650 0.884628 0.889303 -0.839074 0.149455 0.214744 0.002927 -0.043314 -0.503106 0.058055 -0.029706 -0.029732 -0.101688 -0.916995 -0.564478
m -0.672755 0.167339 -0.070704 0.202144 -0.220816 0.541260 -0.169925 0.236728 0.265487 0.072901 0.290959 0.532435 0.296590 0.064043 0.550718 0.369259 0.426511 0.315686 0.057112 0.162554 -0.244957 -0.778331 0.429143 0.017708 0.569293 -0.068343 -0.068199 -0.483256 -1.057683 -0.214601 -0.165938 -0.927438 -0.618345 -0.057698 0.242655 0.541136 0.107443 -0.252071 -0.968601 0.362285 -0.800683 0.343626 -0.993569 -0.288342 0.241879 -0.069401 -0.037101 0.398046 0.506791 -0.046627 0.319613 -0.877980 0.133080 -0.520622 -0.313524 -0.155396 -0.709514 -0.107751 -0.289895 0.113007 0.419647 -0.772713 0.087138 -0.200546
ar@@ -0.209200 0.297542 -0.477049 -0.117330 0.082975 0.947994 0.634401 0.368678 -0.295821 0.010616 -0.755096 0.474259 -0.462078 -0.063639 0.092100 0.950475 -0.361686 0.344525 0.048037 0.349334 0.338835 -0.055150 -1.094431 -0.509235 -0.005901 -0.347960 -0.107936 -0.278369 -0.118390 0.192889 -0.000561 -0.729162 -0.820174 0.060502 -0.097121 0.476344 -0.181112 0.910818 -0.200128 -0.810980 -0.193362 -0.115153 0.152118 -0.231464 -0.212720 0.060785 -0.238898 -0.693042 -0.018583 0.661558 0.207292 -0.338357 2.076263 -1.048713 -0.531470 -0.049998 -0.451402 0.390582 -0.394598 0.507753 0.448689 -0.010689 -0.073864 0.332030
on 0.588843 0.688443 0.157993 -0.597881 0.376090 -0.010066 0.257542 0.053784 0.049078 0.341009 -0.194007 0.508818 -0.009172 0.680150 0.183304 -0.466136 0.346299 0.698131 0.548516 0.515117 0.357400 -1.166926 -0.215197 -0.334478 0.313073 0.244719 -0.164357 -0.592301 0.583490 -0.788895 0.265180 -0.403134 -0.588037 0.489395 -0.404118 0.793651 0.326671 1.063670 -0.648901 -1.294775 -0.249252 0.042007 0.140308 -0.318026 0.237979 0.428456 0.142220 -0.885827 -0.649031 0.041504 0.221032 -0.586670 1.010501 0.347593 -0.409582 0.431648 -0.288158 -0.569681 -0.158766 0.487964 0.398514 -0.458507 0.349874 0.386272
on@@ -0.968607 -0.747772 -0.708143 -0.426268 0.252220 -0.277662 -0.026200 -0.063306 0.052243 -0.212429 -0.426390 0.194750 -0.565298 0.215243 -0.121618 -0.042224 0.178804 -0.271322 0.105508 0.143439 0.036214 -0.182979 0.648121 -0.629668 -0.421003 -0.997527 0.528032 -0.656616 -0.857704 -0.153915 -1.188832 -0.195214 -0.595142 0.054077 -0.587847 0.402489 0.129443 -0.269577 -0.408293 -0.337972 -0.064053 0.918899 -0.962608 -0.146070 -0.239496 -0.605992 0.357010 0.233129 -0.327781 -0.184396 -0.359070 -0.491853 0.278870 -0.306281 -0.230667 0.740592 0.398482 -0.318171 -0.456194 0.465515 -0.287670 -0.468195 0.586253 -0.140625
al@@ -0.687097 -0.841285 1.077987 0.244619 -0.183183 -0.357934 -0.377976 -0.570845 -0.128790 -0.099062 0.292258 0.354767 -0.199281 -0.013464 0.260457 0.085175 -0.132353 -0.763941 0.305110 0.055350 -0.168447 -0.413802 1.357676 -0.029908 -0.158864 -0.000408 0.733553 -0.357250 -0.460476 0.708573 -1.126947 -0.089091 0.028643 0.101535 0.624110 0.593806 -0.901211 -0.075648 -0.233579 -0.008147 0.483905 0.279332 -0.150467 -0.041954 -0.016781 -0.363785 0.536088 0.525648 0.172017 -0.020939 -0.228093 -0.111637 -0.411764 -0.083626 1.049625 -0.554663 0.039222 0.073007 -0.076435 -0.294969 -0.446728 -0.500351 0.307955 -0.096960
well 0.265543 -0.155869 -0.451682 0.084115 0.376275 0.275675 -0.054909 0.340527 0.070267 -0.523555 0.804349 0.237900 0.608493 -0.409975 0.579951 0.306450 -0.588560 -0.593829 -0.307684 0.297042 -0.249305 -0.039779 -0.102901 0.799549 0.231513 0.002772 0.171356 0.504585 -0.949260 -0.182396 -0.043164 -0.692404 0.294535 0.291782 -0.740189 0.378419 -0.698647 -0.462077 -0.044887 0.330973 0.053127 -0.175488 -1.052996 -0.074915 0.163096 0.497574 0.467085 0.340524 -0.578018 -0.218766 0.518566 -0.384688 -0.672598 0.998776 0.085765 0.214289 0.027790 0.154839 -0.700405 0.155105 0.301839 -0.527583 0.093413 -0.530321
it's -0.403772 0.092679 0.439210 -0.430685 -0.509124 -0.013586 0.079278 -0.411829 -0.146844 0.150201 0.828808 1.036756 -0.098730 0.104785 0.262424 -0.042173 -0.121651 -0.680321 0.482745 0.636454 -0.441796 0.191800 0.846527 0.928715 -0.769233 0.389082 -0.043632 0.713443 0.475803 0.347124 -0.619904 -0.540120 -0.524426 0.120888 -0.384008 0.374851 -0.348294 0.811952 0.081363 -0.545663 0.119113 -0.196952 -0.005143 -0.525069 -0.664522 -0.095586 0.161725 0.192889 0.089900 0.619369 0.258547 0.525032 0.068998 -0.004751 0.849796 0.226923 0.353097 0.536799 0.347616 -0.371831 -0.154507 0.158991 0.156384 0.050864
t -0.859474 -0.457037 -0.203370 -0.709216 -0.215338 0.062767 -0.342771 -0.154535 -0.261496 -0.436335 -0.051658 0.357921 -0.937193 0.103898 0.448854 0.123047 0.133341 -0.446285 0.032007 0.310016 -1.181336 -0.249961 0.684576 -0.448616 0.055558 0.523570 -0.580686 -0.787791 -0.300902 -0.031349 -0.194474 -0.657064 -0.749763 -0.144937 -0.535954 0.621986 0.681106 -0.508637 0.168743 -0.939857 0.052458 0.995717 -0.579958 -0.513681 -0.762937 0.112054 0.112940 -0.081221 0.124135 -0.205785 0.443171 -0.434309 0.665206 -0.338688 0.181441 -0.035238 0.256932 -0.252879 -0.269698 0.893050 0.246905 -0.700838 1.186104 0.127464
ve -0.480086 -0.016331 0.162652 -0.527810 0.072875 0.618643 -0.454182 0.238142 0.166418 0.412082 0.193019 0.505809 0.252663 -0.630006 0.361356 0.210001 -0.767593 0.307694 -0.005709 0.763922 -0.555066 0.477506 0.178064 0.541405 0.887062 0.418240 0.323804 0.214202 -0.140505 0.498129 -0.379888 -0.298190 -0.271033 0.073208 0.561083 -0.967189 -0.744367 -0.251207 -0.584885 0.929919 0.076154 -0.263152 0.080289 -0.394528 -0.260190 0.175811 -0.099718 0.568928 0.047319 0.705987 0.120051 -0.103735 -0.472952 0.526574 0.678999 0.648446 -0.528944 0.474902 0.709341 -0.404961 -0.644104 0.441147 -0.151582 -0.232226
ah -0.719477 -0.345220 -0.350481 0.481265 0.415276 0.300053 -0.465785 -0.689531 0.435368 -0.471582 -0.219413 0.106509 0.825267 0.199158 0.122939 -1.080736 -0.153941 -0.391361 -0.238109 -0.761028 -0.438275 0.314223 -0.323363 0.587144 0.515909 -0.669689 0.180229 -0.379306 -0.724797 0.032251 0.265121 -0.472461 -0.244149 -0.124554 -0.084296 -0.882500 -0.272644 -1.014393 0.066386 0.492656 0.497290 -0.081936 -0.269889 0.283094 0.079735 0.204282 -0.013529 0.552498 0.165052 -0.139082 0.142517 0.588467 -0.696926 0.451314 0.565811 0.413549 0.195967 0.605415 0.117454 -0.393763 0.300613 -0.591485 -0.783680 -0.106367
oh -0.088798 0.243061 0.190765 -0.323455 -0.010497 -0.217128 0.521245 -0.410562 -0.163970 -0.363083 -0.822714 -0.265155 0.174253 -0.275108 0.048722 0.451245 -1.000899 -0.212979 -0.797448 -0.577839 -0.218364 0.081792 0.206424 -0.728090 0.383504 -0.544594 0.094565 0.054391 0.972268 0.860265 -0.244061 0.101026 0.690404 -0.569132 1.204624 0.103486 -0.286815 0.133813 0.348066 -0.148090 0.376614 0.179472 0.707668 0.303025 0.184485 0.361110 -0.926062 -0.366714 -0.064645 0.433168 0.289749 0.290908 0.675409 -0.211474 -0.162668 0.264393 0.158051 1.090689 0.102879 -1.075557 -0.073836 0.080967 -0.397911 -0.131464
don't -0.383386 -0.508677 -0.426798 -0.296495 -0.216967 0.356992 -0.546821 0.224378 0.652185 -0.105619 0.000894 0.658536 0.018864 -0.412479 -0.077717 0.072212 -0.072959 -0.790418 0.033319 -0.047742 -0.384343 -0.153970 -0.444607 -0.297268 0.747291 0.266131 0.371846 -0.338188 -0.731869 0.228993 -0.138862 -0.767311 -0.439519 0.299380 0.277817 0.225559 -0.120501 -0.800104 -0.540543 0.307956 -0.093729 -0.531294 -0.880562 0.166274 0.019466 -0.432120 0.305725 0.245246 0.450483 -0.411502 -0.075980 -0.825394 -0.809131 0.466214 0.773166 0.204129 0.660364 -0.098460 -0.204598 -0.072045 0.635246 -0.488739 0.535370 0.261322
er@@ -0.306086 0.173617 -0.493457 0.593512 0.394581 -0.649184 0.167972 0.608099 0.121727 0.431899 0.552085 -0.797503 0.294534 -0.053908 0.533244 0.068071 0.777661 0.024943 -0.419636 -0.128540 -0.450951 -0.384146 -0.494403 0.081860 -0.704823 0.432374 -0.075048 -0.298359 -0.219160 -0.169776 0.054297 -0.697580 -0.590065 0.182859 -0.636839 0.256769 0.676879 0.604603 -0.461302 -0.618656 -0.622085 0.247756 -0.276585 0.044016 0.345390 0.525280 -1.374909 -0.510517 0.367397 0.096165 0.126188 -0.154173 0.687570 0.367642 -0.171093 0.077555 -1.137741 -1.061795 -0.177799 0.661437 1.174282 0.148318 -0.600483 0.758815
there -0.421647 -0.220344 0.079868 0.404192 -0.155155 -0.385261 -0.270092 -0.726102 0.632548 -0.213333 -0.004396 -0.531532 0.369224 -0.580405 0.088649 -0.593358 -0.976140 -0.580344 -0.859636 -0.162783 0.155242 0.744342 -0.424633 -0.335855 0.301086 -0.352877 0.655437 0.148762 -0.047543 0.219674 -0.646848 0.152740 0.048648 -0.677850 0.683699 -0.790548 -0.273086 -0.047443 0.362252 0.937547 -0.355542 -0.362276 0.199004 0.181892 -0.321045 0.559336 0.415574 0.235168 0.260960 0.374219 0.405064 0.588307 -0.176635 0.046262 0.484766 -0.089115 0.037888 0.741909 0.212781 -1.235246 0.125872 0.386229 -0.319376 0.390017
know 0.082473 -0.372893 0.906650 0.204143 0.327393 0.629806 -0.515317 1.021576 -0.137491 -0.448050 0.326576 0.499242 0.357786 0.465136 -0.101036 -0.262551 0.116824 -0.092782 0.348137 0.180116 -0.413816 -0.952379 -0.366558 -0.039594 -0.304603 0.483254 0.503043 -0.555685 -0.094913 0.061408 -0.616849 0.289669 0.014113 0.231962 -0.354287 0.409910 -0.148930 -0.234980 0.195044 -0.625251 -0.181895 0.707177 0.274260 -0.088814 -0.766375 0.304653 0.076097 -0.459766 -0.195101 0.345819 -0.301542 -0.412653 0.476867 0.298065 -0.653713 -0.163407 -0.010292 -0.261797 0.333689 -0.125088 0.323249 -0.170032 0.448634 -0.420629
so 0.017926 0.264586 0.914668 -0.281749 0.174753 -0.228139 -0.476993 0.381024 0.305462 0.177434 0.604095 0.640884 0.351988 0.554152 0.480377 0.408725 0.923114 -0.435450 0.246785 0.696750 -0.358019 -0.872742 0.175906 0.092791 -0.717176 1.033198 -0.350230 -0.049725 -0.194729 -0.594671 -0.362993 -0.122391 -0.421163 0.723039 -0.868411 0.671789 0.555931 0.977384 0.358626 -0.336888 0.242011 0.074778 -0.270808 0.779376 -0.128582 -0.036837 -0.075541 -0.210081 -0.576567 -0.380424 0.041078 0.329769 -0.203477 0.310641 -0.101289 -0.038747 -0.627571 -0.878891 -0.833208 0.537395 0.087137 0.267460 0.780856 -0.050437
o -0.081666 0.848881 0.637111 -0.336518 0.050631 -0.639731 0.418219 -0.244414 -0.475797 0.334354 -0.382437 0.707154 0.152140 0.224952 0.296773 -0.068887 0.377952 0.698007 0.172255 0.054234 0.276052 -0.413946 1.006404 -1.021860 -1.022171 0.285039 -0.016667 -0.636109 0.870679 0.103288 -0.996804 0.542886 -0.668626 0.055311 0.353663 0.765823 -0.208143 1.471886 -0.369217 -1.228584 -0.248035 0.448254 0.455721 -0.067199 -0.164718 0.034789 -0.478501 -0.352984 -0.253426 0.582052 -0.212710 0.286909 0.878566 -0.090294 0.303341 0.637599 -0.178222 -0.283108 -0.395300 -0.181816 -0.290345 -0.273558 1.166809 0.651793
ou@@ -0.473962 -0.227748 -0.186044 -0.319117 -0.123288 -0.114189 -0.075577 -0.065256 -0.063008 0.082791 -0.435830 0.039843 -0.207261 0.370338 -0.429078 -0.292540 -0.518683 -0.506946 -0.117911 0.025996 0.043785 0.060107 0.284100 -0.986482 0.521661 -1.125064 0.019368 -0.466533 -0.264945 0.631786 -0.165100 -0.100505 -0.338303 0.176076 0.323877 0.012494 -0.072126 0.443436 0.344838 0.395422 -0.032875 0.732294 -0.884015 0.075814 -0.155442 0.190234 0.323629 -0.390915 -0.755810 0.244897 0.441644 -0.110651 0.090626 0.133180 -0.421308 0.113676 -0.547552 -0.211115 -0.837514 -0.253431 0.351942 0.415478 0.091099 -0.056478
because 0.851294 0.882612 -0.034327 0.452964 0.426296 0.042365 -0.702195 0.134948 0.541866 0.355991 0.243686 -0.022222 0.927697 -0.059756 -0.188708 0.664985 0.825163 -0.090922 0.024485 -0.006221 -0.103559 -1.357961 -0.642069 0.397730 0.404951 0.080904 -0.140828 0.193207 -0.418395 -0.911348 0.649451 0.137926 0.170967 0.271396 -0.386619 0.059685 -0.158833 0.264304 0.661444 -0.187240 0.008365 -0.206760 0.324735 0.983412 0.545921 0.494690 -0.120079 -0.427079 0.232871 -0.480985 0.533007 -0.160851 -0.317059 0.100835 -0.212523 0.660820 -0.638186 -1.026675 -0.499145 0.567485 -0.128228 -0.146268 -0.834314 -0.083785
li@@ -0.348925 -0.072878 0.378989 0.765959 0.287935 -0.405003 -0.193321 -0.852298 0.305742 0.414278 0.753819 0.220480 0.710479 0.250521 0.296763 -0.004970 -0.201626 -1.153551 0.463773 -0.603892 -0.020368 0.726684 0.337428 0.244963 -0.203808 -0.106517 -0.060100 0.620765 -0.377182 -0.044046 -0.526202 0.553903 0.157156 0.331251 0.755010 -0.337851 0.096667 0.111796 0.697567 0.319356 0.492178 -0.494572 0.236053 0.571054 -0.475303 0.120907 -0.045465 0.856602 -0.574380 0.291432 -0.324874 0.800208 -0.370583 0.273762 0.618235 0.171444 0.435828 -0.073380 0.009477 0.027267 -0.102958 -0.457178 0.306345 -0.094425
di@@ -0.077794 0.078882 -0.044548 0.890920 0.042114 -0.207258 -0.332479 0.165086 0.392599 0.413457 -0.151682 -0.145432 0.614612 0.243074 -0.598994 0.058564 -0.926585 -0.527932 -0.811842 -0.541533 -0.322905 0.459537 -0.274172 0.782077 -0.231686 0.537766 0.566492 0.246969 -0.691543 0.909176 -0.351475 -0.306900 -0.130067 1.030114 0.313099 -0.238986 0.376844 -0.586192 0.219409 0.253933 0.439262 -0.003885 -0.336126 0.128173 0.155230 -0.599364 0.357690 0.758107 -0.129401 -0.264379 -0.442369 -0.049022 -0.900566 0.360789 0.403670 -0.363961 0.095626 -0.164989 -0.361090 0.199655 0.703445 0.504252 0.441626 0.075882
what -0.393089 -0.283921 0.793481 -0.581163 -0.439770 0.099602 -0.405235 0.485274 -0.056916 0.832603 0.100881 0.229943 -0.123332 1.321728 -0.281905 -0.511423 0.556565 -0.397306 0.915684 0.777467 0.386897 -0.299265 -0.046719 0.451740 0.160825 -0.419558 -0.499784 -0.333367 -0.210301 -0.402740 -0.671061 0.143126 -0.167027 0.590642 0.058109 0.349954 0.343920 -0.898058 0.064006 -0.261336 -0.095378 0.396530 0.198253 -0.088008 0.250421 -0.833568 0.301273 -0.063522 -0.975579 -0.463813 0.519957 -0.279879 -0.059417 -0.219044 -0.114410 -0.327037 0.030049 -0.429267 0.304880 -0.065234 0.168297 0.047690 -0.049642 -0.710041
k@@ 0.171954 -0.728733 -0.837049 -1.169391 0.294279 0.817390 0.035605 0.277883 -0.441306 -0.933210 -0.575417 0.222445 -0.223466 -0.455907 -0.394010 -0.283525 0.171567 -0.055616 -0.132331 -0.208198 0.673175 -0.139181 0.368068 -0.419549 0.489460 0.023995 -0.114373 -0.687591 0.256204 -0.095642 -0.103848 -0.031147 -0.180226 0.213282 0.104835 0.686562 0.515840 0.001212 0.193942 -0.449295 -0.353083 0.394812 -0.234579 -0.404879 -0.403126 0.148044 0.327679 -0.073290 0.203833 -0.175401 0.001536 -0.758269 0.985446 -0.582307 -0.163787 -0.108599 0.197707 -0.296760 0.289001 0.219974 0.478852 -0.294455 -0.010089 0.351708
at@@ -0.381019 0.503599 0.197794 -0.100484 0.115732 -0.212697 -0.675109 -0.542616 0.913103 0.075261 0.163497 0.727068 -0.285468 0.438394 0.506549 -0.583973 0.527076 -0.208710 0.541503 -0.164542 0.053019 1.156675 0.242403 -0.116476 -1.214470 0.274774 0.093962 -0.065682 -0.382566 -0.673842 -1.154197 -0.590659 -0.523554 0.660991 -0.546366 0.155610 0.077538 0.254679 -0.357526 -0.437889 0.326332 0.295798 0.324245 0.270849 -0.006631 -0.425104 0.513713 0.981125 -0.512313 0.002394 -0.038945 0.586999 0.464857 0.467467 -0.077227 -0.269177 -0.238990 0.186513 -0.220293 0.094331 -0.807383 0.314720 0.609434 0.194672
st 0.163698 0.378758 0.228676 0.004182 -0.485768 0.722134 0.132124 -0.514013 0.093984 0.208657 -0.739376 0.073231 -0.055444 0.079383 -0.543188 -0.283810 -0.472753 -0.020280 0.037040 -0.041318 0.429166 -0.510172 -0.616894 -0.411712 0.275444 -0.878599 -0.062750 -0.192638 -0.055706 0.032253 -0.381939 0.162012 -0.167073 0.115960 0.384686 -0.569933 -0.400433 0.327148 0.434465 -0.230039 -0.058414 0.769669 -0.327734 0.147392 0.106847 0.443308 0.328646 -0.744748 -0.152075 0.330528 0.167456 0.035461 0.254399 -0.559283 0.103680 -0.246838 0.080959 0.056562 -0.372894 0.095529 0.068614 0.046255 0.107093 0.637410
en 0.637353 -0.517842 -0.022929 0.651755 0.650430 -0.210746 -0.200783 -0.120269 0.875263 0.160605 -0.992328 0.003795 0.967274 -0.056063 -0.633302 -0.341330 -0.479303 -0.329750 0.007172 -0.795119 0.070929 0.434132 -0.125801 -0.328093 0.255704 -0.935180 0.204274 0.400863 -0.259941 0.377076 -0.676600 0.135618 0.164420 -0.592554 -0.852760 -0.512427 -0.023883 0.127216 -0.023215 0.370768 0.369065 -0.335977 0.246309 -0.448934 -0.506811 0.158868 -0.398581 0.907695 -0.306804 0.003619 -0.670562 0.845697 0.220122 0.831374 0.230332 0.075358 0.603795 0.511110 0.416384 -0.318896 0.181012 -0.034118 -0.274303 -0.346277
for -0.507864 0.048054 -0.687348 -0.534699 -0.020411 -0.119084 -0.827975 -0.631615 0.360346 -0.147416 0.473847 0.667867 0.224921 -0.049096 0.496455 -0.369338 0.198883 0.259149 0.139719 0.136759 0.064601 0.912864 -0.021620 0.434832 -0.072380 0.023767 -0.306575 -0.089702 -0.614921 -0.099401 -0.934964 -0.019751 -1.020447 -0.163583 -0.932396 0.190247 0.051767 -0.394014 -0.165094 -0.005691 0.266051 0.475567 -0.625340 0.003065 -0.118908 -0.088665 0.434799 1.197238 -0.439112 0.241463 0.348954 -0.258412 0.430433 0.255733 0.483500 -0.147045 -0.104448 -0.250689 -0.305919 0.457514 -0.231504 -0.287548 0.266900 0.174740
mm 0.807003 0.746965 0.157742 0.297449 0.245349 0.336326 -0.841862 0.523016 0.307137 0.489322 -0.906736 -0.844895 0.167551 0.352493 0.054792 0.222702 0.646205 0.330299 0.011371 -0.407832 -0.101862 -1.296176 -0.277688 0.510778 -0.031926 0.334488 0.218913 0.541742 -0.903707 -1.489175 -0.174070 -0.207601 -0.868410 0.623916 -1.777492 0.673857 -0.308662 0.646651 0.441882 0.135788 0.399256 0.096794 -0.075575 0.351936 0.044664 0.582017 -0.245293 0.349367 -0.758155 -0.498324 0.569953 -0.073162 0.559162 -0.008281 -0.453782 0.525307 -1.371387 -0.610295 -0.024223 1.092192 0.421041 0.435905 -0.434157 -0.401733
or@@ -0.034155 -0.877378 -0.048648 -0.273190 -0.081469 -0.255907 -0.119930 -0.849532 -0.416175 -0.888523 -0.387339 0.040469 0.289101 0.337731 0.476391 -0.208517 -0.467035 -0.402152 0.045233 -0.556334 -0.545995 0.809205 -0.276842 0.379976 0.129178 -0.464853 0.778667 -0.196993 -0.578450 1.116426 -0.556263 0.177123 -0.283849 -0.068288 0.353118 -0.875517 -0.716017 -0.112616 -0.312833 0.533713 -0.398657 0.262752 0.030814 0.020646 -0.912755 0.406962 0.323605 0.642704 0.195470 -0.117172 -0.488303 -0.156707 0.137509 0.205769 0.220628 0.371368 0.090765 0.544961 0.166604 -0.554104 -0.413399 -0.370260 0.024681 -0.468428
k 0.303902 -0.463988 0.761707 0.361809 -0.429106 0.204144 -0.050661 -0.051359 0.666844 0.430040 0.511568 -0.509509 0.624418 0.573203 0.097193 -0.102157 -1.163708 -1.431029 0.240300 -0.087096 -0.156413 0.202262 0.313008 0.443539 0.158299 -0.716806 -0.245420 0.728125 -0.101572 -0.434359 0.516795 0.178122 -0.679392 0.285491 -0.419091 -0.473656 -0.882051 -0.187674 0.221527 1.000632 -0.409515 -0.296832 0.328725 0.093603 0.582946 0.446401 -0.139631 0.879020 -0.289239 -0.157031 -0.177331 0.299385 -0.091630 -0.145850 0.847440 -0.234903 -0.185469 -0.008577 0.198103 -0.518879 -1.222059 0.902060 -0.492319 -0.875479
one -0.568237 -0.062875 -0.008379 -0.637106 -0.292075 -0.528650 -0.058858 0.061316 0.593577 -0.076152 0.608786 0.921916 0.009935 0.569912 0.588024 -0.357252 0.168236 -0.180834 0.008543 0.149623 -0.519242 1.113378 0.286054 0.339554 -0.886078 0.857601 0.534599 -0.433004 0.181057 -0.179748 -0.353282 -0.366968 -0.529759 0.104193 0.252573 0.310086 -0.459277 -0.238408 -0.625550 -0.149549 -0.121878 -0.114295 -0.597078 -0.171490 -0.160147 -0.282497 0.098756 0.382532 -0.132676 0.158584 -0.102444 -0.359363 -0.530798 0.654161 0.048928 0.621761 -0.473388 -0.129479 0.042076 -0.227898 0.145256 -0.371389 0.770194 0.217205
th@@ 0.791010 0.266400 0.089602 0.799517 0.434448 -0.650581 0.443986 0.171466 -0.197568 0.817758 -0.617904 -0.202081 0.805451 0.059264 0.086591 0.096472 0.240475 0.309640 -0.036814 0.088830 0.248820 -0.226819 0.103897 -0.516827 -0.674198 0.301609 -0.034410 0.103667 0.792249 0.452357 0.710694 0.388388 0.389847 -0.045479 0.325618 -0.169926 0.175258 0.020599 -0.039009 0.369486 -0.021082 -0.041993 1.086762 0.046375 0.404742 0.154660 -0.746455 -1.310058 -0.505402 0.254161 0.034379 0.636396 0.273785 0.695679 -0.156422 0.362352 -0.487735 0.191936 0.054493 -0.151108 0.860024 0.257859 -0.283193 0.729255
ri@@ 0.723600 -0.394643 -0.090697 -0.207617 -0.086693 0.765137 0.290035 0.835555 0.128515 0.231029 -0.193301 -0.258152 0.195299 -0.358199 -0.612405 -0.418603 -0.190576 0.465953 -0.131208 0.183636 -0.313656 -0.637399 -0.452779 -0.664854 0.042435 -0.279284 0.254654 -0.524110 -0.246475 -0.117241 -0.786622 0.386684 -0.702766 -0.418397 -0.462355 -0.388797 -0.373974 -0.311082 -0.063120 0.234845 -0.018937 -0.129929 0.061373 -0.014456 -0.223142 0.494721 -0.821088 -0.068187 -0.697244 0.224045 -0.067254 -0.408393 0.506292 -0.484619 -0.298784 0.404989 -0.444843 -0.287450 -0.202768 -0.266517 -0.114639 0.013884 -0.651498 -0.486863
r 0.351722 -1.068701 -0.175582 -0.151739 0.008102 0.041892 -0.428792 1.225206 -0.193007 -0.117702 -0.072865 0.249551 0.335670 -0.141489 -0.057162 -0.000867 0.658962 0.469001 -0.027406 0.608178 -0.223786 -0.802621 -0.481428 -0.151494 0.248638 0.219095 0.126458 -0.795339 -0.285028 0.109653 -0.064587 -0.368970 -0.367127 -0.059245 -0.452533 0.313275 0.148611 0.188726 -0.228852 0.004975 -0.035982 0.418967 -0.650243 0.060920 0.071099 -0.184472 -0.230529 -0.193525 0.168325 -0.600675 -0.205197 -0.530646 -0.232371 -0.508245 -0.905767 0.441924 -0.104674 -0.426460 -0.021849 -0.099448 -0.306298 -0.702761 0.046212 -0.727041
or -0.021656 0.476841 -0.180249 -0.388714 -0.118058 -0.146890 -0.516289 -0.109475 0.493522 -0.082746 -0.187411 0.148438 0.888783 0.377315 -0.186023 -0.812381 -0.094267 -0.105079 -0.341261 0.613214 -0.061556 0.840739 -0.505579 -0.371615 -0.021841 -0.043061 0.064281 -0.026844 -0.680020 0.016274 -0.983671 0.644423 -0.116814 0.399161 -0.220233 -1.365292 -0.239616 -0.426758 -0.089287 0.721172 0.315863 -0.835517 0.408870 -0.151203 -0.048295 -0.308243 0.388753 0.680700 0.282624 -0.189671 0.048743 -0.014906 -0.132168 0.191193 0.355780 0.209227 -0.378191 0.566660 -0.286868 0.147233 0.238565 -0.080175 -0.446257 0.116639
ac@@ -0.757965 -0.222996 -0.468057 -0.453886 -0.082107 0.216724 0.441462 -0.316347 -0.062157 0.166899 -0.543140 0.014695 -0.229720 0.543552 0.148040 -0.066489 -0.099643 -0.714608 -0.270711 -0.226103 0.091768 1.376293 -0.032932 -0.024848 -0.493688 -0.492916 0.013416 0.502548 -0.691907 -0.094251 -0.702813 -0.640156 -0.487741 -0.488497 -0.118373 -0.288608 -0.125501 -0.151100 -0.166221 -0.085727 0.238261 -0.456558 0.275154 -0.157597 0.289595 0.028252 0.671472 1.217359 -0.664548 0.060821 -0.069858 0.164596 1.018506 -0.126488 0.135836 0.421796 -0.593162 1.395037 0.383265 -0.362943 -0.686560 0.088753 0.185704 0.367261
be@@ -0.190765 -0.883920 0.467039 -0.108715 -0.525927 0.551499 -0.382258 -0.099421 0.222663 0.823709 -1.057730 -0.040612 0.110868 0.238116 -0.094537 0.341818 -0.215417 -0.856300 -0.189059 -0.463296 -0.359563 0.001674 0.137722 0.440848 0.632640 -1.120849 -0.034496 0.560933 -0.263451 -0.569340 -0.788498 -0.014043 -0.517279 -0.255741 -0.509824 -0.708531 0.238115 -0.053666 0.228122 0.232196 0.696480 0.153261 -0.327780 0.271202 0.090672 0.077478 1.062397 1.069962 0.396974 -0.241499 0.559475 0.185804 0.284627 -0.217983 0.011497 0.094876 0.328530 0.149364 0.266356 -0.191015 -0.368249 0.567038 -0.028786 -0.595030
was 0.277763 0.545152 0.481968 0.590348 0.033355 0.268852 0.212223 0.037838 0.519852 -0.054524 -0.049933 0.368819 0.283246 0.462767 -0.339482 -0.251539 0.285234 -0.072799 0.572201 0.532135 0.287729 -0.457567 -0.341280 -0.135916 0.234279 -0.189301 0.503934 0.812454 0.543632 -0.099328 -0.329735 0.376732 0.129770 0.097106 -0.241625 -0.413351 0.113029 -0.027577 0.323848 -0.164710 -0.344974 0.503383 0.186496 0.297088 -0.304936 0.095060 0.061189 -0.423332 -0.257461 0.552681 0.056736 0.002494 1.133313 0.121116 -0.130408 -0.209691 -0.372238 0.187577 -0.075510 -0.249802 0.124346 0.827493 -0.307800 -0.041600
el@@ 0.381968 0.504267 -0.194515 -0.095528 -0.055415 0.229498 0.268356 0.200695 0.168166 0.401077 -0.529541 0.295763 0.111035 0.382610 -0.000531 -0.060340 0.262881 0.099030 0.055135 -0.260401 -0.179425 -0.213420 -0.362695 -0.444356 0.083101 -0.446882 -0.092789 0.022610 0.171854 0.146799 -0.263684 0.250408 0.024927 0.360680 -0.329188 -0.125849 0.282853 0.318127 -0.117105 0.363162 -0.047584 0.206672 -0.186631 -0.294451 0.132491 0.137650 0.470395 -0.394663 -0.305298 0.607859 0.465547 0.202446 0.225573 0.110304 -0.488954 -0.008875 -0.682021 0.246434 -0.421307 -0.108564 -0.104128 0.380775 0.164455 0.075289
ex@@ -0.197424 0.340026 -0.017457 0.087138 0.081774 -0.018479 1.046952 1.233434 -0.592593 -0.460714 -0.416604 -0.218052 -0.129421 -0.939907 -0.448410 -0.574129 0.591008 0.786331 -0.259146 -0.134006 0.018116 -0.187689 -0.428825 0.268721 -0.366641 -0.000319 0.323739 -0.634656 0.579567 1.055667 0.080381 -0.000778 -0.027640 -0.679882 0.835256 0.477973 -0.031778 -0.401381 -0.954955 -0.913137 -0.177290 0.239935 0.039307 -0.960572 -0.493505 0.227386 -0.475439 -0.835514 -0.099875 0.008845 0.300817 -0.166544 0.222507 -0.028602 -0.511521 -0.013199 -0.014443 0.132282 0.269932 -0.309155 0.983932 -0.390999 0.544533 0.338906
si@@ -0.238289 -1.156583 0.473101 -0.706080 0.680788 0.635569 -0.711758 -0.643026 0.585213 0.924360 0.348688 0.669494 -0.063750 0.211328 -0.459247 -0.067275 0.424420 -0.609524 0.120809 -0.184189 -0.235294 0.450581 -0.774430 0.326203 0.337197 -0.025481 -0.388616 -0.076570 0.442930 0.363716 0.376473 0.207055 0.325136 0.090074 -0.327285 -0.339107 0.153156 -0.343113 -0.852702 -0.102329 -0.440519 0.021355 -0.092125 -0.017237 -0.309143 0.018802 -0.350832 0.616229 0.473248 0.199029 -0.503280 -0.518220 -0.364025 1.124802 -0.044606 0.338405 0.275239 -0.266042 0.222058 0.090695 -0.316858 -0.218861 0.274592 -0.441687
not 0.286513 0.100814 0.196504 -0.183668 0.030731 0.033341 0.771927 0.041413 -0.209366 0.535309 -0.119405 -0.311296 -0.065900 0.287108 -0.029494 -0.041662 -0.023154 0.126143 0.406110 0.629267 0.320275 0.660480 0.257402 -0.314579 -0.473880 -0.285805 0.168568 0.317420 0.733989 -0.118039 -0.079642 0.451086 -0.236288 0.267787 0.162617 -0.672035 0.144301 0.343988 0.528250 -0.117802 -0.403811 0.126750 0.431858 -0.060561 -0.467604 -0.020281 0.148841 0.240483 0.204862 0.063142 -0.084865 0.071529 0.429968 -0.170150 -0.210237 -0.071537 -0.673515 0.661785 0.643423 0.041407 -0.132710 0.115208 -0.537941 -0.137992
se -0.068064 -0.415531 0.105332 0.071421 0.063085 0.447693 -0.702583 0.147490 0.418925 -0.157484 0.087007 0.180171 -0.165679 0.459285 -0.268761 0.107657 -0.120250 -0.161706 0.075903 0.580702 -0.042575 -1.083412 0.288051 0.279332 0.731547 -0.299446 0.521790 -0.281187 -0.572379 -1.060575 0.775113 0.201101 -0.130826 -0.104353 -0.395287 0.000174 -0.308768 0.203079 -0.413370 0.624415 -0.000478 0.302354 -0.813124 -0.405917 0.164585 -0.319377 -0.038515 0.037132 -0.082294 -0.896826 0.747504 -0.816754 -0.395515 -0.509875 -0.831291 0.100742 -0.572864 -0.346914 -0.098959 0.185668 -0.259343 -0.309055 -0.269138 -0.644716
er -0.771757 -0.934855 -0.709539 -0.646247 -0.215189 0.390428 0.226272 -0.181258 -0.246786 -0.368340 0.202950 0.633938 -0.661572 -0.370506 -0.055739 -0.452506 -0.425445 -0.013439 0.649230 0.277325 0.314729 0.355297 0.385537 -0.315162 0.264259 -0.356583 -0.112521 -0.785930 -0.206813 0.468164 -0.360449 -0.187922 -0.172489 -0.435666 -0.081001 0.795615 0.410484 0.243578 0.009601 -0.040223 -0.208997 1.278370 -0.717759 -0.469472 -0.406631 0.089035 0.574744 -0.000882 0.299504 -0.484811 0.016609 -0.554669 -0.102722 -0.407406 -0.338128 0.415423 -0.092060 0.005794 -0.258893 -0.130580 0.614926 -0.087860 0.345530 -0.413912
do 0.676002 -0.125584 -0.020139 -0.222735 0.225934 0.143469 0.520301 0.311044 0.031616 0.137997 -0.983464 -0.479916 0.252005 0.532003 -0.207117 0.686972 -0.811424 0.094197 -0.314208 0.922839 0.088991 -0.975283 -0.216306 0.395838 -0.065458 -0.554135 -0.116795 0.297797 0.052518 -0.430937 0.007892 0.400320 0.384131 0.085602 0.309387 -0.189300 0.620986 0.607686 0.129149 0.363872 -0.134365 0.112455 -0.065637 -0.525857 0.618676 0.281410 -0.368125 -0.094116 -0.145367 0.109594 0.383336 -0.177780 0.803061 -0.371000 -0.823462 0.438352 -0.542479 0.574129 0.079763 0.480427 -0.918791 0.185887 -0.357811 0.178863
ly -0.404102 0.260926 -0.649633 0.015745 0.256760 -0.240122 -0.428850 0.508696 -0.507593 -0.116710 0.628228 1.010088 -0.518992 -0.533821 -0.003416 -0.017204 0.209836 -0.066890 0.160805 0.321589 0.242253 -0.342313 0.012682 -0.526285 -0.127345 1.078322 0.543791 -1.104805 0.451759 0.033923 0.480772 0.365448 0.039867 0.153412 -0.139209 0.428670 0.455497 0.310846 0.223777 -1.367671 -0.398000 0.251548 -0.301537 -0.172807 0.138491 -0.191596 -0.363364 -0.327124 0.505346 0.506469 0.212605 -0.396501 0.576978 0.032844 0.616378 -0.243317 -0.510897 -0.108023 0.117644 0.317516 0.351325 -1.280944 0.713666 0.330239
le 0.771624 0.649387 0.196780 0.195727 0.320870 -0.337770 0.675185 0.808810 -0.208343 0.453047 -0.287269 0.217006 -0.121021 0.163952 -0.082658 0.157505 0.573797 0.891128 0.310525 0.400331 0.053888 -0.504067 -0.023143 -0.098260 -0.550773 0.443467 -0.142218 -0.568914 1.000449 -0.107804 0.022623 0.429965 0.185993 0.181850 0.254427 0.108462 0.196251 0.766935 -0.389829 -1.111985 -0.780586 -0.421677 0.511524 -0.169338 0.558078 0.083248 -1.052715 -0.846912 0.130280 0.592047 -0.224360 -0.242637 0.788577 0.384315 -0.399880 0.142409 -0.212916 -0.252597 0.368620 0.076897 -0.019020 -0.376792 0.135615 0.745853
right -0.059750 0.843949 1.318829 0.603987 0.402398 -0.503606 -0.023898 0.528073 0.449101 -0.228491 0.817158 0.384818 0.318498 -0.313760 0.456128 -0.546688 0.524519 -0.379115 0.000806 0.100495 0.174413 0.181540 -0.353070 0.261232 -0.154060 1.011859 -0.369398 0.213232 0.053533 0.227160 -0.963408 -0.144441 -0.866006 0.915553 0.069542 -0.137698 -0.075803 0.185915 0.102567 -0.530459 -0.247980 -0.023352 -0.446921 -0.114701 0.097263 0.056016 -1.036537 0.400336 0.180718 0.369013 0.316951 0.539530 0.282245 0.466502 0.384161 -0.288291 0.150200 -0.418647 -0.168040 -0.216058 -0.698976 0.401777 0.230472 0.575880
aha 1.170111 0.700222 -0.037389 0.657087 0.316621 -0.203342 0.027710 0.456827 -0.100855 0.554679 0.195013 -0.356049 0.436527 0.542268 -0.137537 0.107189 0.288244 0.860088 -0.228585 0.003616 -0.628265 -1.304682 -1.261890 0.179594 -0.347747 0.006339 -0.297537 0.209653 0.217119 -0.486793 0.487097 0.522717 0.315175 0.053604 -0.743493 -0.082378 0.398437 0.189139 0.298473 -0.241032 -0.212456 -0.797924 1.012319 0.141562 0.776327 0.347525 -0.307370 -0.462810 0.106413 -0.050429 0.310690 0.131573 0.198765 0.113609 -0.566674 0.236724 -1.017170 -0.419901 0.002069 0.264126 0.109546 0.279683 -0.692395 0.150418
from -0.476975 0.540259 0.163376 -0.422884 0.286701 0.518517 0.075238 0.241291 0.061703 -0.513444 -0.486598 0.258173 0.226396 0.103600 0.404550 -0.204887 0.227687 -0.030258 -0.633995 -0.177476 -0.312259 0.221382 -0.056769 -0.238578 0.066321 0.357836 0.422319 -0.471105 -0.873170 0.329921 -0.418625 -0.459457 -0.398154 0.935001 -0.167789 -0.203828 0.579717 0.010156 -0.267447 -0.674572 -0.012067 0.158392 -0.653398 0.186181 -0.312134 -0.038459 -0.215998 -0.022779 -1.095191 0.587177 0.007906 -0.836122 0.980912 0.563504 -0.970451 0.463381 0.021277 0.265933 -0.985008 -0.190704 0.610326 -0.156010 0.211279 0.344700
un@@ 0.306430 0.977863 0.376063 -0.344616 -0.000555 0.030494 0.430478 0.413148 -0.001367 0.418238 -0.591621 -0.343567 0.093818 0.382525 0.170201 0.176556 -0.590395 0.235211 0.216376 -0.126460 -0.292474 -0.265051 -0.753720 0.072759 0.175385 0.027076 -0.198798 0.508304 0.382702 -0.233567 -0.007107 0.670193 -0.446144 0.013317 -0.354824 0.302228 0.104996 0.432579 -0.370209 -0.066759 -0.278517 -0.342475 -0.260458 -0.248874 0.176398 -0.097792 -0.172754 -0.325308 -0.581456 0.569885 -0.659972 -0.100596 0.435142 -0.050894 0.200136 -0.731973 -1.034000 -0.242343 -0.114832 -0.167122 -0.706855 0.263312 -0.280252 0.310702
l 0.327795 0.157376 0.241941 0.617420 -0.339573 0.198345 -0.059464 -0.389855 0.379031 0.326291 -0.403040 -0.066039 0.186048 0.036119 -0.016944 0.570674 -0.097956 -0.279091 -0.447607 0.718106 0.281316 -0.166577 -0.600896 0.285628 -0.735783 -0.072567 -0.178535 -0.260853 -0.162228 -0.218644 -0.031512 0.307962 -0.589320 0.116082 -0.501917 -0.048040 0.125457 0.631590 -0.135291 0.202491 0.279363 0.017502 -0.296775 0.449716 -0.252053 -0.273315 -0.032364 -0.297693 -0.295767 0.747379 0.526941 0.523287 0.436052 0.258557 -0.291497 0.535588 -0.849582 0.428986 -0.015917 0.432840 0.474104 0.471268 -0.358510 0.541541
uh -0.076395 0.005705 0.592719 -0.051394 0.025106 -1.018216 0.053006 -0.830613 0.269539 0.119056 0.893674 0.563500 0.387834 -0.524169 0.106925 -0.176214 1.028297 -0.221684 -0.159152 0.211690 -0.534868 0.797325 1.270182 0.600584 -0.707530 1.546331 0.268862 -0.399066 0.141074 0.649505 -0.906614 0.502394 -0.213630 0.028599 0.626080 0.448889 -0.328897 0.241017 0.017548 -0.508090 0.022738 0.132171 -0.520823 0.193945 -0.046172 0.225589 -0.429381 -0.094822 -0.515257 0.364637 0.429368 0.605894 -0.454701 0.853078 1.261721 -0.328057 0.059637 -0.417678 -0.428458 -0.216047 -0.600868 -0.398898 1.067352 0.314599
hi@@ -0.759634 -0.082977 -0.468039 -0.885207 -0.589336 0.211693 -0.468400 -0.513061 -0.511970 -0.397925 -0.100739 0.572023 -0.712210 -0.129508 0.618969 0.833290 0.057329 0.050700 0.132200 -0.110988 0.081275 -0.138824 -0.194511 -0.668302 0.905442 0.495578 -0.943430 -1.393206 -0.000312 -0.160997 -0.764622 -0.521072 0.089250 -0.440306 0.489939 0.754987 -0.147487 0.293520 0.138029 -1.039912 0.043325 0.142456 -0.281813 0.135145 0.423137 0.284477 0.344972 -0.186261 -0.122498 -0.123290 0.215172 -0.680292 -0.033617 -0.997442 -0.423841 0.471292 0.774240 -0.028775 0.000367 0.497539 0.233901 -0.716660 1.007920 0.397201
with -0.429052 -0.064359 -0.507261 0.633111 0.016745 -0.320696 -0.472834 -0.419971 0.350727 -0.168192 -0.011146 0.435468 0.908978 -0.256795 0.281136 -0.869570 0.901531 -0.655376 0.309931 -0.755352 -0.251232 1.332509 -0.418838 -0.256217 -0.345608 -0.117273 -0.105275 -0.494152 -0.506519 1.209832 -0.036990 -0.251067 0.273430 -0.128811 0.384158 0.254015 0.472567 0.068976 0.038826 -0.037347 0.154216 0.014783 -0.758648 0.774081 -0.065039 -0.610060 0.517548 0.080723 -0.067902 -0.000915 0.271768 0.666366 -0.193539 0.337276 0.659512 -0.594649 -0.004459 -0.040137 -0.767044 -0.939063 -0.446133 0.076295 0.383492 -0.098719
ne@@ 0.550353 -0.080303 0.811940 -0.122348 0.085411 -0.097363 0.011494 -0.572074 0.325234 0.175201 0.089298 -0.116022 0.859139 0.271183 -0.500068 -0.184557 -0.216246 0.444872 0.028967 0.155476 -0.527985 -0.501942 0.196408 -0.011189 0.415328 -0.689180 0.044577 -0.789176 -0.153074 -0.138316 0.106827 0.047167 -0.125551 -0.247175 -0.245000 0.604408 -0.325379 -0.023631 0.320367 0.174409 0.058642 0.731379 -0.397301 0.098854 -0.132282 0.176421 -0.337648 -0.042148 -0.377342 0.151276 0.529303 -0.099681 0.294831 -0.134857 -0.507603 -0.066556 -0.284249 0.076435 -0.253805 0.017873 -0.055623 -0.440535 -0.227358 -0.614697
ic@@ -0.578190 0.324812 -0.193751 0.291032 0.148881 0.106966 1.298211 -0.073573 0.160397 0.046832 -0.210159 0.363520 0.421694 -1.023801 0.149713 -0.084269 0.169030 0.213686 -0.759943 -0.265865 0.030830 0.190867 -0.211957 -0.878853 -0.237619 -0.172685 0.608224 -0.304633 0.883964 1.288036 -0.048310 0.541482 0.103622 -0.581774 0.675071 -0.145097 -0.075138 0.344449 0.223444 0.159782 0.060647 0.054134 0.063556 0.191676 -0.331019 -0.091717 -0.379485 -0.301989 -0.198683 0.650980 -0.020796 0.212316 -0.305077 0.768780 0.356983 -0.255919 0.148055 0.345202 -0.178370 -0.574477 0.312945 -0.539557 -0.193018 -0.036163
ea@@ 0.333012 0.272887 0.148907 -0.333598 -0.032734 0.715714 -0.501524 0.113881 0.514457 0.034896 0.516530 0.101067 -0.307003 -0.624483 -0.638430 0.704128 -0.760287 -0.408240 0.215270 -0.657520 0.122685 1.084065 0.012417 -0.239422 0.773784 -0.366220 0.172420 0.724740 -0.996936 0.787015 0.592149 -0.154529 0.368542 -0.821695 0.061435 -0.256936 0.285099 -0.014207 -0.383247 0.057939 0.311512 0.178565 -0.798054 0.336472 -0.250777 -0.533234 0.272561 0.506457 -0.353442 0.214927 0.050668 -0.162348 0.867017 0.384441 -0.029827 -0.187707 -0.676730 0.347900 0.433819 0.602460 0.225405 -0.402529 -0.106734 0.841727
lo@@ 0.167149 -1.432775 -0.792678 -0.450254 0.042140 0.832967 -0.022234 0.009899 0.275710 -0.031748 -0.145778 -0.477071 -0.588683 -0.050712 -0.008450 -0.225978 -0.786674 0.143084 0.030933 0.224890 0.480940 0.237448 -0.241702 0.528936 0.721213 -1.088047 0.232493 0.525014 -0.494656 0.133734 -0.902460 -0.005351 0.170122 -0.423059 0.347943 -0.249278 -0.400558 -0.717057 -0.095836 0.132359 -0.027781 0.153313 -0.642707 -0.088945 -0.536821 -0.147421 -0.255005 0.646664 0.618254 -0.003144 -0.647746 -0.031979 0.459358 0.152987 0.260461 0.243430 0.489464 0.793898 0.409751 -0.563031 -0.268571 0.447994 -0.878428 -0.255596
ay -0.694169 0.374613 -0.024595 -0.785536 -0.067619 -0.164613 0.354764 0.358365 -0.506690 -0.145013 -0.025007 -0.001076 -0.628024 0.061707 0.503127 0.369957 0.093552 0.439253 0.311786 0.535409 0.368357 0.736600 -0.260207 -0.125334 -0.620457 0.562624 0.101288 -0.856473 0.552626 0.479855 0.076277 -0.071547 -0.107558 0.584632 0.145914 0.410669 0.254938 0.855544 -0.417778 -0.432701 -0.330329 0.433701 -0.049782 -0.024356 -0.869381 0.096838 -0.133988 -0.611037 -0.449333 0.588974 0.189741 -0.243681 1.322463 0.071746 -0.346919 0.063079 -0.195690 0.363231 0.008653 -0.082219 0.289838 0.319242 0.471849 0.622369
ti@@ -0.075020 0.643532 0.008085 0.553569 0.091787 -0.412932 -0.433384 -0.212018 1.658455 0.459205 0.107119 -0.023447 0.229927 0.133114 0.937948 0.177844 0.429981 -0.494609 -0.353240 -0.792224 -0.295622 0.776270 -0.218819 -0.392866 -0.297209 0.622110 0.261749 0.455821 -0.348867 0.642986 -0.278309 -0.185459 0.249125 0.105580 -0.038011 0.334974 0.083991 0.138704 -0.633385 0.449306 0.602737 -0.501176 -0.094296 0.603124 0.800664 0.153385 -0.211644 -0.094196 -0.083717 0.204667 0.663528 0.605056 0.005689 -0.053687 -0.202235 0.255651 -0.492978 0.015070 -0.499747 0.177864 0.072713 -0.351893 0.316584 -0.109820
my 0.893870 -0.041445 0.244757 0.769296 0.453988 -0.187162 -0.191569 0.691018 0.432523 0.866346 0.092160 -0.501504 0.942391 0.958970 -0.605870 0.063805 0.013460 -0.228175 -0.371226 0.189530 -0.161691 -1.155801 -0.170406 0.275739 0.421597 -0.338856 0.269653 0.507453 0.087443 -0.853766 0.641621 0.796048 0.405640 0.380687 -0.420982 0.137016 -0.141835 0.190779 0.336125 0.738264 -0.107499 -0.170101 1.006856 0.310787 0.421735 0.694814 -0.234774 -0.642395 -0.537124 -0.447562 -0.219572 0.517950 -0.168449 -0.025938 -0.870758 0.222869 -1.037164 -0.361921 0.170162 0.313905 -0.693640 0.358896 -0.484089 -0.470182
an 0.857253 0.756797 0.176877 0.662074 0.653462 -0.421137 -0.097567 0.065587 0.229807 0.915569 0.601765 -0.642895 0.932603 0.436963 -0.098127 0.464464 0.097380 0.092781 0.558021 0.235817 -0.306254 -0.650957 0.303609 0.282690 -0.454465 0.150931 -0.425309 0.390838 0.432576 -1.021381 0.329798 1.476261 0.205474 0.659364 -0.012322 0.144970 0.094816 0.514535 0.419034 0.239789 0.071225 -0.505669 0.948654 0.210243 0.858671 0.244065 -0.190496 -0.222099 -0.177372 -0.049498 -0.069177 1.048953 0.361729 0.078256 0.078395 -0.492429 -0.066776 0.214971 -0.181600 0.161725 -0.471169 0.620753 -0.709020 0.221072
eh -0.608945 -0.610399 1.212974 0.117543 -0.057108 0.106660 -1.484780 0.403174 0.267055 0.463672 0.437860 -0.014915 0.085913 -0.388251 0.074753 0.583623 0.106160 -0.465042 -0.321239 -0.547286 -0.020321 0.031273 0.185403 0.267898 -0.292930 0.411298 -0.615762 0.365034 -0.233694 -0.414772 -0.162694 -0.282482 -0.573352 0.830834 -0.112721 0.271546 0.517976 0.194156 0.041340 0.123464 0.036099 -0.607144 -0.971470 0.662409 0.106856 -0.373546 0.407961 0.795990 -0.615330 -0.057707 -0.104400 0.006911 -0.621789 0.469807 0.504707 0.043366 0.553030 -0.285994 0.007086 0.145497 -0.164447 -0.075613 0.436757 -0.009359
all 0.145355 -0.889767 0.650168 0.364668 -0.772824 0.518565 -0.784753 0.156848 0.188045 0.375308 0.610345 -0.073675 -0.309709 -0.048802 -0.366268 -0.132203 -0.200829 -1.107786 0.511517 -0.368886 -0.173206 -0.372636 0.631735 0.728769 0.906810 0.258512 0.536291 0.483293 -0.837420 0.364385 0.225307 -0.338911 -0.410676 -0.119235 1.026097 -0.185518 0.094008 -0.349760 0.592596 0.299240 -0.067456 -0.028276 0.111370 -0.164295 -0.088857 0.057962 0.376384 0.347301 0.143199 -0.714567 -0.017756 0.087453 -1.365102 -0.550199 0.530956 0.279963 0.550193 -0.616912 0.270732 -0.429988 0.321189 0.442593 -0.498106 -1.052804
here -0.491951 0.154168 0.086387 -0.165086 -0.242334 -0.151935 0.339557 0.466431 0.051699 0.047758 0.448063 0.133240 -0.055831 0.259583 0.588062 0.539616 -0.138250 -0.091720 -0.123934 0.080749 -0.114481 -0.409206 -0.229607 0.030384 0.554818 -0.371374 -0.459039 0.059050 0.027289 -0.483716 0.329495 -1.065392 -1.084934 -0.180786 -0.346971 0.170162 -0.401736 0.220495 -0.378060 0.668018 0.128581 0.040187 -1.048201 0.022294 0.352851 -0.294199 -0.423422 0.433849 -0.185203 -0.090258 0.112941 -0.060798 0.142369 -0.646081 -0.437165 0.146045 -0.570584 0.004172 -0.566053 1.118638 -0.588180 -0.516816 -0.226193 0.532206
how 0.055527 0.253241 1.396937 0.632712 -0.376577 -0.796103 -0.167923 -0.402419 0.130816 0.040229 0.194592 0.139383 0.218647 0.254775 0.477760 -0.000168 -0.017377 -0.303453 -0.303214 -0.649558 -0.693553 0.408170 0.837037 -0.242536 -0.202947 0.647086 0.130459 -0.046515 0.148565 0.175043 -0.576401 -0.117263 0.709814 0.155658 0.508094 0.231494 0.344484 0.520141 -0.241078 0.543749 -0.040553 -0.155781 -0.222220 0.343039 0.091659 0.392135 -0.333246 0.062834 -0.002415 0.818205 -0.305514 0.807194 -0.708190 1.319774 1.105173 -0.385500 0.563838 0.550237 -0.671089 -0.606567 -0.111417 0.052517 -0.120668 -0.502424
this 0.734472 -0.252452 0.337785 -0.121468 -0.286091 -0.098178 -0.411106 0.690042 0.225897 -0.364561 -0.126600 0.151354 0.646184 -0.248115 -0.931890 -0.106247 -0.507651 0.216573 -0.260771 0.151519 0.406330 -0.641429 -0.617608 0.100324 0.195993 -0.276263 0.654066 -0.740606 0.424522 -0.368176 -0.439288 -0.359091 0.134651 0.232518 0.494817 -0.064958 -0.384469 -0.316112 0.353267 -0.606256 -0.104447 -0.688238 0.240866 -0.162595 -0.162003 0.016838 -0.554955 -0.318481 -0.194193 -0.922912 -0.020954 -0.482721 0.417593 0.047920 -1.138037 0.387148 -0.230901 -0.670026 0.163692 -0.830890 0.261424 -0.276254 -0.520796 -0.652353
le@@ 0.007619 1.045599 0.847708 0.068817 -0.224867 -0.253831 -0.275737 0.526813 -0.043687 0.301923 0.177487 -0.077213 0.576899 0.183416 0.429162 0.282621 0.491776 0.937542 0.682942 0.354567 0.553176 -0.469707 -0.805430 0.502977 0.007291 0.865113 -0.096760 0.433921 0.696539 -0.551759 -0.238097 -0.020181 -0.506536 0.416691 0.593535 0.836503 -0.420488 0.359380 -0.216796 0.147644 -0.298442 -0.616892 0.215604 -0.542092 0.185515 0.083773 -0.871377 -0.804191 -0.011426 0.681191 -0.395914 -0.100210 0.328789 0.682437 -0.010447 -0.138867 -0.589176 -0.143149 -0.361709 0.140304 -0.746006 -0.177659 0.402831 -0.222785
think 0.325665 -0.592756 0.917855 -0.270652 0.214607 0.084536 -0.275130 -1.112320 0.194427 0.116025 -0.334289 -0.546713 0.065443 0.815696 -0.493487 -0.635260 0.167594 -0.096745 0.413952 0.280476 0.644995 0.725770 0.374400 0.576178 0.066749 0.784505 0.484535 0.489090 0.080874 0.200888 -0.008916 0.530771 0.275040 0.445888 -0.428026 0.001200 -0.541563 -0.799029 0.129467 -0.453569 -0.043694 -0.572196 0.628023 0.025008 -0.139647 -0.062399 -0.082041 -0.385895 0.425514 -0.146375 -0.561693 0.875427 -0.052845 0.916081 1.012941 -0.529878 0.104569 -0.387179 0.379454 -0.410746 -0.076874 -0.072700 -0.201086 0.130412
it@@ -0.185633 0.185050 0.106321 -0.018884 0.089616 0.093657 -0.092451 0.182175 -0.549652 -0.168059 -0.210993 0.800330 -0.860917 0.684875 -0.219440 0.293032 0.465453 0.140317 0.311184 0.675924 0.355172 -1.169608 0.483314 0.302246 -0.353116 0.410260 -0.310650 0.189075 0.325384 -1.136881 0.121738 -0.325393 -0.519065 0.128724 -0.466334 0.236728 0.231589 0.445462 0.153465 -0.558645 -0.698900 0.320988 -0.028886 0.433243 0.169195 0.200537 0.138860 0.146285 -0.409178 -0.079664 0.160391 -0.791966 0.941833 -0.517223 -0.489385 0.207660 0.355715 -0.390869 0.088961 0.634609 -0.000898 0.393157 0.069018 -0.356697
if 0.083076 -0.125277 0.004894 -0.017426 0.294879 0.424212 0.293481 0.117032 0.130104 0.032117 -0.362228 0.686757 -0.136625 0.349578 -0.157239 -0.279265 -0.286827 -0.032694 0.175418 0.122458 0.354398 -0.213117 0.599872 -0.241340 0.070346 -0.590693 0.236871 0.191574 0.332020 -0.465770 -0.256018 0.283469 -0.141370 0.256366 0.175002 -0.409770 -0.329526 0.557358 -0.048147 -0.410237 -0.174720 0.398880 0.701026 0.471875 0.042091 0.222879 0.227758 -0.139974 -0.185874 0.541067 0.385094 0.203211 0.791409 -0.392869 -0.293677 0.701982 -0.103882 0.522813 0.444993 -0.136422 -0.322380 0.253298 -0.689312 0.116797
we 0.062078 0.613356 0.599974 -0.106224 0.283436 -0.430726 0.280516 -0.087802 0.077006 0.382904 0.083824 0.515736 -0.344323 0.981370 0.390994 -0.085012 0.928516 -0.355108 0.540779 -0.353248 0.339560 0.192001 0.284244 -0.424253 -0.775908 0.710080 -0.172919 -0.147421 -0.186125 0.002853 -1.180945 -0.267170 -0.715644 0.387742 -0.925076 1.187720 0.279966 1.140129 0.082961 -1.473482 0.023996 0.121129 0.215520 0.179502 0.088299 0.152160 -0.404724 0.384228 -0.999205 0.246060 -0.058525 -0.122175 0.955137 0.228027 0.296096 -0.189140 -0.493807 -0.323073 -0.696331 0.483749 -0.779081 0.612373 0.428352 0.281784
very 0.431793 0.534787 0.464247 0.463299 0.143276 0.025449 0.329702 0.688574 0.071519 0.220397 -0.272771 0.059984 -0.147139 0.412597 -0.070931 -0.899007 0.034861 0.502470 0.121697 0.179026 0.456369 -0.167244 -0.452086 0.199931 -0.480309 0.060002 0.038071 -0.533943 1.132213 0.197029 0.297675 0.579742 0.271998 0.152407 0.086128 -0.342064 0.024563 -0.204440 -0.444258 0.317475 -0.381230 -0.762910 0.804528 -0.534645 -0.155009 0.333574 -0.169191 -0.737498 0.383598 -0.104035 0.254165 0.358299 0.103691 0.396947 -0.074950 -0.161672 -0.412878 0.454691 0.066306 -0.123270 -0.045113 0.215328 -0.014221 -0.305674
people -0.462105 -0.301201 0.498196 0.206907 -0.328822 -0.185091 -0.930947 -0.395357 0.528688 0.261416 -0.144526 -0.061961 0.348792 -0.239888 0.266499 0.269288 -0.138573 -1.431643 -0.407207 -0.812451 -0.440773 0.576007 0.312216 0.947236 0.292715 0.137462 -0.365566 0.676793 -0.689258 -0.743917 -0.531443 -0.080960 0.062643 -0.368046 0.350596 -0.816037 -0.629835 -0.120653 0.095567 0.348676 0.279413 0.035003 -0.330149 0.278394 0.098025 -0.469733 0.393344 0.593354 0.424531 -0.269693 0.306711 0.369644 -0.493957 -0.867525 0.298564 -0.239300 0.390760 0.718586 0.065221 0.598413 0.437088 0.283097 -0.002952 -0.256635
to@@ 0.155683 0.105106 0.559963 0.467482 0.581047 -0.331971 0.205416 -0.242558 0.103145 0.196915 -0.403373 -0.515724 0.643904 0.410610 -0.420234 0.119510 -0.086749 -0.818985 -0.263818 -0.098938 0.071262 -0.787516 0.117072 0.320260 -0.100884 -0.615749 -0.106645 0.375437 0.809282 -0.657821 0.610337 0.591148 0.528097 0.275127 0.449600 -0.642847 0.082666 -0.120218 0.500239 0.542519 0.351454 0.619239 0.736034 0.254111 0.055916 0.675670 0.412106 -0.804954 0.500863 -0.190960 0.088239 1.355849 -0.060969 0.338622 0.311713 0.009671 -0.178656 0.054401 -0.151866 0.357974 0.377582 0.513748 -0.543141 -0.379704
that's -0.035203 -0.086723 -0.180451 0.330020 -0.488499 0.055637 -1.061357 -0.848578 0.213477 -0.199204 -0.056426 0.185953 0.190302 -0.086877 0.289355 0.352477 -0.205103 -0.148260 0.415260 0.356272 -0.778141 -0.359048 -0.324189 0.078669 0.720212 0.320572 0.322822 0.128376 -0.712026 0.363909 -0.093396 -0.257401 -0.468696 0.488855 -0.434624 -0.208698 0.043961 -0.388124 -0.167032 0.222754 0.255435 -0.458065 -0.644004 0.644628 -0.097135 0.479098 0.157168 0.414693 0.364829 0.025836 0.780850 -0.145856 -0.081447 -0.185767 0.605224 -0.222153 0.163037 -0.658828 -0.674407 -0.028070 0.107256 -0.238864 0.659052 -0.196361
i'm 0.352403 0.067688 -0.088944 0.089053 0.209701 0.908520 0.595576 1.092484 -0.037895 -0.137287 -0.238800 -0.355246 -0.607263 -0.568635 -0.300379 -0.586851 -0.278889 0.380275 0.182524 -0.125119 -0.060885 0.128465 0.246486 0.088364 0.059994 -0.043351 0.070934 -0.826345 0.293859 0.449731 0.410586 0.133733 0.259092 0.020873 -0.624717 0.035619 0.553280 -0.508291 -0.025009 -0.883686 -0.030062 0.233200 0.143331 -0.717373 -0.439879 -0.059204 0.358650 -0.902335 -0.524480 0.184993 0.042439 -0.732148 0.462171 0.166448 -0.178235 -0.477130 0.144433 -0.219520 0.512989 -0.308926 0.078944 0.158286 0.439364 0.450717
sure -0.383961 -0.797117 0.612241 0.361448 0.213783 -0.034255 0.112340 0.079049 0.190576 -0.069954 0.016717 -0.190981 -0.403199 -1.063629 -0.010174 -0.041254 -0.118781 -0.592758 0.288645 -0.403211 -0.255325 0.205395 0.441647 -0.230638 0.461206 -0.355202 0.149568 0.055394 0.256490 0.344493 0.297263 0.131128 0.007471 -0.350253 1.236564 -0.472482 0.137238 -0.314963 -0.397566 0.408199 0.532636 0.063816 -0.045113 0.736702 -0.128670 1.095766 0.092477 0.057753 0.123494 0.141786 -0.126647 0.371881 -0.989371 0.361784 1.016522 0.130200 0.152410 0.007311 -0.095192 -0.588305 0.634438 -0.196374 -0.010595 0.339956
tr@@ 0.088690 0.030886 0.303537 -0.042792 -0.521820 0.006891 -0.812544 -0.090761 0.465445 0.434265 0.153289 0.056450 0.640666 -0.210286 -0.073464 0.859253 -0.840588 0.065111 -0.020610 0.214166 -0.559062 0.538095 0.228994 0.698002 0.157032 -0.259895 0.892885 0.454336 0.166578 -0.297785 -0.906416 -0.477555 -0.308772 0.532181 -0.247788 -0.135272 -0.209952 0.174632 -0.241718 -0.264339 0.122061 -0.341891 -0.541410 0.679501 0.719271 0.104830 0.428331 0.074193 0.742137 0.278318 -0.340064 -0.422891 -0.059757 0.220516 0.446123 0.124308 -0.177572 0.473079 0.173458 0.182426 -0.560814 -0.419342 0.091370 -0.209536
sa@@ -0.773523 -0.156100 0.014749 0.071956 0.101352 -0.900148 -0.366155 -0.837894 0.421575 -0.244790 -0.263268 0.189265 -0.161124 0.260693 -0.421029 -0.492480 -0.921426 -0.601694 0.227538 0.119505 0.488785 1.003202 0.202937 0.026681 -0.254985 0.421348 -0.216264 -0.097224 -0.289316 0.271221 -0.819669 -0.088473 0.089383 0.262495 -0.170148 -0.139023 -0.546818 -0.122841 -0.637668 -0.152967 -0.292735 0.252504 0.042010 0.275113 0.156405 0.511378 -0.018775 0.364584 0.330064 0.097557 -0.273091 0.544300 1.148451 0.258182 0.235043 0.135338 0.219579 0.972720 -0.015990 -0.181059 -0.036001 0.504076 -0.233605 0.538208
ma@@ -0.607217 -1.703320 -0.164158 0.003557 0.053729 -0.075383 -0.666220 -0.329647 -0.178090 -0.579612 0.328871 -0.021826 0.164242 -0.467901 -0.250116 -0.061260 0.476268 -0.409260 -0.440015 -0.526687 -0.312810 0.110053 0.805390 0.502545 0.322173 -0.532436 0.265673 -0.127177 -0.885334 0.220808 0.111610 0.108962 -0.029207 -0.377955 -0.412249 0.133644 0.188949 -0.228627 0.303939 -0.299426 0.475157 0.047212 -0.683642 -0.197322 -1.096005 -0.288496 0.963622 0.770441 0.177923 -0.358236 -0.554442 0.175476 -0.430806 0.496257 0.117132 -0.256390 0.416236 -0.064183 0.737173 0.317786 -0.412014 -0.273129 0.454146 -0.584001
ha@@ -0.061940 -0.793414 -0.655359 -0.625928 0.094679 0.285487 -0.590871 -0.209610 -0.355306 0.257653 -0.090840 -0.172164 -0.089954 -0.484169 0.048250 0.109265 -1.094870 -1.061065 -0.636246 -0.003713 0.142238 0.857722 -0.124056 0.231661 0.713465 -0.582957 0.337569 -0.114245 -0.543976 -0.345147 0.090345 -0.852036 0.085775 -0.338913 -0.011428 -0.503231 -0.027117 -0.707175 -0.154156 0.963145 0.094050 -0.192292 -0.385759 0.067965 -0.301109 0.065643 -0.083091 1.264041 0.343025 0.167604 0.077097 -0.665461 -1.024071 -0.031551 0.576689 0.048696 0.464142 0.330917 0.116326 -0.079742 0.189924 -0.403573 -0.087870 -0.495874
ent 0.139311 -0.660461 0.279912 0.218578 -0.209472 -0.224058 -1.051565 -0.335996 -0.278746 0.484833 0.309011 0.544675 -0.035860 1.345094 0.153577 -0.635722 -0.011541 -0.003852 0.981589 0.459221 -0.056869 0.190865 0.547694 1.130669 -0.683828 0.454593 -0.326156 0.688864 -0.196646 -0.874043 -0.360538 -0.161174 -0.631685 0.806163 -1.098027 -0.229472 -1.074647 -0.203823 0.120007 0.111483 -0.052458 -0.556290 -0.055736 0.559069 -0.105078 0.058690 -0.265861 0.692021 -0.790005 -0.657978 -0.310924 0.160978 0.162300 0.536587 0.257564 0.088468 0.063179 -0.275959 0.010650 -0.028941 -0.684688 -0.435085 0.466199 0.075391
be -0.011335 0.121903 -0.857032 0.361037 -0.075908 0.403553 0.094081 0.158579 -0.248244 -0.325117 -0.761335 -0.050350 -0.411573 -0.167925 0.375669 0.147415 -0.512692 0.074721 -0.293159 -0.215144 0.308516 -0.109588 -0.669999 -0.692759 0.653937 -0.572977 -0.597662 -0.511453 -0.206398 0.485244 -0.154616 -0.276688 0.576551 -1.115322 0.136056 -0.205399 0.676128 0.252128 -0.315254 -0.937535 -0.224181 0.456017 -0.536258 -0.215083 -0.178294 0.158712 0.512727 0.118557 0.325710 -0.081572 -0.027930 -0.266096 0.872781 -0.444465 -0.652551 -0.204401 0.455352 -0.046487 -0.021419 -0.031217 0.229632 0.347386 -0.417473 0.780893
ca@@ 0.373189 -0.108162 -0.386177 -0.411955 0.268561 0.019470 -0.491672 0.192886 0.669443 0.051881 0.573650 0.473822 0.207190 0.683543 -0.766463 -0.636773 -0.910932 0.234499 0.285300 0.532306 -0.070813 0.484949 -0.125652 0.015766 -0.306814 0.108615 0.164731 0.474577 -0.397995 0.008771 -0.682829 -0.484889 -0.493093 1.141360 -0.519904 -0.223911 -0.643969 -0.857480 -0.661729 0.061972 -0.084174 -0.091943 -0.292706 -0.419180 -0.389902 0.063666 -0.202181 1.000067 0.364135 -0.114946 0.102605 -0.499768 0.890704 -0.275805 -0.150541 0.520359 0.272941 0.155043 -0.038119 0.584937 -0.591459 0.542537 -0.098642 -0.615583
wa@@ 0.140562 0.210766 -1.031509 -0.682873 0.030397 0.520952 0.732491 0.374973 -0.301994 -0.486686 -0.824133 0.062083 -0.374266 0.237321 -0.119499 -0.483169 -0.559261 0.698626 -0.423383 0.074079 0.677235 0.415640 0.086893 -0.528266 0.048702 -0.277609 -0.023435 -0.883060 0.058774 0.105405 -0.337006 0.104134 0.415080 -0.472352 0.376739 0.342490 -0.368020 0.482372 -0.008182 -0.801024 -0.174254 0.359432 0.181170 -0.718476 -0.165406 0.019366 0.185158 -0.252684 0.011319 0.292094 0.038413 -1.029711 1.268390 -0.229709 -0.601851 0.089946 0.105913 0.379139 0.676738 -0.226434 -0.354805 -0.084126 -0.000339 0.290885
cou@@ -0.723868 -0.368990 0.251522 -0.489944 -0.084641 -0.267672 -0.473946 -1.221669 0.370426 -0.024336 0.533965 0.450477 -0.567897 0.029627 0.361378 0.122013 0.064103 -0.412036 0.608255 -0.318544 -0.239815 0.627216 0.822109 0.308811 -0.358896 -0.532878 -0.243771 0.019527 -0.483669 0.490264 -0.481706 0.350409 -0.132819 0.327773 0.299385 0.347384 0.476171 0.160398 -0.721248 -0.246551 0.798616 0.352947 0.133869 0.140425 -0.254154 -1.004668 0.899728 0.964562 -0.381687 0.187269 0.136880 0.183451 0.076327 0.113873 0.701940 -0.294873 -0.067961 -0.012792 -0.981878 0.202380 0.183173 -0.294021 0.615487 -0.034781
h -0.096152 -0.503877 0.147847 -0.544897 0.134888 0.420588 0.050739 0.192999 -0.270673 -0.101558 -0.279194 0.133368 0.108563 0.280956 -0.443315 -0.380526 -0.119716 0.007701 0.371454 0.287207 0.005419 0.391138 -0.307013 -0.122825 0.284061 -0.091660 0.396386 -0.628600 0.192037 0.123269 -0.207274 -0.085756 -0.070919 0.368339 0.483561 -0.097937 -0.056824 0.322104 0.020196 -0.683293 -0.328504 0.936758 -0.056172 -0.189901 -0.496961 0.157815 0.115591 -0.323768 -0.080357 -0.275257 0.408302 -0.080022 0.376552 -0.044604 -0.161696 0.200327 0.533027 -0.091121 -0.119432 0.112599 0.134082 -0.241374 0.795925 -0.590061
he 0.341332 -0.279943 0.195205 0.002154 -0.177109 -0.135344 0.160103 -0.587809 0.278643 -0.305388 -0.506581 -0.758042 0.529989 -0.613747 0.197965 -0.169175 -0.566300 -0.145660 -0.142222 -1.062600 -0.223205 0.458911 -0.166398 0.288407 -0.307165 0.283801 0.127034 -0.746788 -0.349790 0.549811 -0.208194 0.465591 1.094111 0.037468 0.057828 -0.579789 -1.048557 0.050961 -0.372188 0.323041 0.142586 -0.709163 0.010366 -0.271098 0.283154 -0.182239 -0.194240 0.417790 -0.186205 0.809120 -0.208247 0.263347 -0.407090 0.260293 -0.308814 -0.182556 -0.456756 0.152210 0.279201 0.131301 -0.847951 -0.073955 -0.120824 0.685837
w 0.548186 0.762730 0.149162 0.138750 -0.059638 0.010216 0.712590 0.666185 0.048338 0.544704 -0.311962 0.079490 0.112647 0.670274 -0.190901 0.050631 -0.025249 0.221668 0.258014 -0.123505 -0.484182 -0.077189 -0.270646 -0.135903 -0.470497 0.213733 0.113812 0.481033 -0.023600 -0.870658 -0.181567 0.730786 -0.173141 0.217544 -0.739191 0.177761 0.049997 0.218591 0.434421 0.070514 -0.047679 0.220710 0.346789 0.099789 0.219271 0.045196 -0.155040 -0.278259 -0.379219 0.390904 -0.104704 0.292856 0.683973 -0.005211 0.163846 -0.389316 -0.627851 -0.129262 0.016382 0.262245 -0.052247 0.177051 -0.015622 -0.219102
good -0.627370 0.416066 -0.158820 -0.681671 0.188683 0.309388 0.257047 0.378267 -0.021718 -0.275202 -0.829926 0.531015 -0.169587 -0.602321 0.198145 0.223405 -0.071233 0.435247 -0.818217 -0.011248 0.257774 -0.248028 -0.574349 -0.878036 -0.092270 0.060297 0.621734 -0.496419 -0.518800 0.764803 -0.144924 -0.514555 -0.485783 0.136174 0.619503 -0.164048 0.204292 0.046080 -0.662428 -0.497858 0.092047 0.230287 -0.459106 -0.070981 -0.079910 0.184535 -0.241619 -0.617436 0.291544 0.642433 -0.316707 -0.659212 0.247817 -0.078376 -0.278522 -0.040260 -0.659476 0.511718 -0.002836 -0.158428 0.126031 -0.296145 0.084026 0.070214
mu@@ -0.750343 0.353621 0.300961 -0.128559 -0.615631 -0.082519 -0.264962 -0.159883 0.509387 0.018898 0.018978 -0.160173 0.154588 0.427510 0.489325 -0.460758 -0.248045 -0.258400 0.116943 -0.224944 0.126149 1.259058 0.162317 0.448486 -1.186430 0.673302 0.244337 -0.225376 -0.065972 0.440377 -0.817169 0.342347 0.070903 -0.025399 0.379935 -0.493801 -0.010005 0.120896 -0.528515 0.041370 -0.102972 -0.546416 0.013152 0.377618 -0.001169 -0.482655 -0.061509 0.696680 0.187977 0.297679 0.210576 0.010142 0.421787 0.659161 0.631505 0.061912 0.221608 0.335141 0.239713 0.164112 -0.312909 0.293239 -0.050852 0.742561
sp@@ 0.168369 -0.068407 0.472779 0.628863 0.161509 -0.222214 -0.507879 -0.469211 0.521487 0.312535 0.508510 -0.607776 0.090021 -0.189101 0.341070 0.507164 -0.553596 -0.504844 0.347542 -0.538765 -0.187415 0.013625 0.433054 -0.065652 0.197857 0.187753 0.079877 1.007644 -0.422006 0.420179 -0.909541 -0.063439 0.126185 -0.307722 0.097826 -0.127507 -0.026699 -0.249795 0.710674 0.165051 0.849821 -0.001193 0.544926 0.761765 0.160733 0.125585 0.309734 -0.154980 0.066849 -0.110778 -0.003312 0.836389 -0.642436 -0.272487 0.802369 -0.429513 0.453384 -0.021691 -0.110380 -0.505504 -0.242045 0.222177 0.077080 -0.641370
am@@ 0.219466 -0.003028 0.329618 0.573444 0.030019 -0.266433 -0.257370 -0.158305 0.336033 -0.401180 0.190886 -0.228913 0.546452 -0.462933 0.426392 -0.023258 0.274512 -0.629152 0.182433 -0.494211 -0.113233 0.087142 -0.095419 0.489126 0.577267 0.009914 0.009357 0.037402 -0.574121 0.213816 0.215999 -0.319506 0.371256 0.306610 0.394716 -0.216238 0.268527 0.319642 0.195446 0.464669 -0.004846 -0.265676 -0.073370 0.147898 0.289904 0.022431 -0.074601 -0.238585 0.250096 -0.058564 0.682165 0.107082 -1.016776 0.362795 0.540951 -0.524931 0.085503 -0.255420 -0.275435 -0.400780 -0.474751 0.446793 0.348608 0.239192
yeah -0.137908 -1.217437 0.067979 -0.091229 -0.382951 0.805487 -0.434686 -0.463664 -0.005534 -0.439326 0.446538 0.263978 -0.005648 0.316841 -0.510731 -0.326774 -0.146113 0.150236 0.296951 0.674227 -0.083743 -0.791854 -0.065735 1.261822 0.682616 -0.142402 0.432118 0.553362 -0.135309 -0.973344 0.226997 -0.024757 0.176093 0.635669 0.151772 -0.329386 -0.929782 -0.655447 0.438842 0.585210 -0.633961 -0.128487 -0.433537 -0.074634 -0.464146 0.529339 0.412400 0.491966 0.413899 -0.671422 0.440202 -0.434978 -0.278135 -0.170496 0.209451 0.732570 0.237018 0.135524 0.220570 0.093338 -0.636854 -0.373854 -0.751098 -0.818105
at -0.465411 -0.083785 0.266166 -0.152838 -0.132612 -0.335178 -0.543302 0.349140 0.748578 0.113563 -0.062179 -0.073130 -0.204885 -0.784607 -0.198054 0.718355 -0.163324 0.043137 0.153918 -0.277967 0.145729 0.367622 -0.082148 -0.095304 0.781686 0.691287 -0.217959 0.198635 0.260709 0.319122 -0.557207 -0.655013 -0.323301 0.337278 -0.285347 -0.096811 0.333433 -0.124518 -0.320325 -0.342641 0.353672 -0.185315 -0.090690 0.085667 -0.744438 -0.473932 0.213249 0.679830 0.397310 -0.404665 -1.023452 -0.027020 0.509609 1.036847 0.754126 -0.715322 0.592992 -0.398139 -0.130451 -0.303737 0.016581 0.032141 -0.185601 -0.079903
more 0.214337 -0.713804 0.059391 -0.067362 0.231747 0.068264 -0.498762 -0.033779 -0.220253 -0.446849 -0.315273 -0.357932 0.407309 0.135224 -0.331298 0.762524 0.146173 -0.495322 0.276025 0.297640 -0.265142 -0.219644 0.113332 0.331789 0.903552 -0.450053 -0.625509 0.338059 -0.626317 -0.004559 -0.066206 -0.415514 0.054706 -0.676722 -0.358049 0.174595 0.542967 -0.454243 0.876853 0.198333 -0.058109 0.179328 -0.456824 -0.422585 -0.523708 0.351224 -0.160154 -0.573307 -0.751320 -0.052003 0.031055 -0.305716 -0.220792 -0.801072 -0.269245 -0.627602 0.043672 -0.281926 -0.197133 0.298637 0.082783 0.109196 -0.386438 -0.182441
ad@@ 0.187087 -0.654858 -0.755049 -0.268206 0.094480 0.371537 -0.005529 0.515994 0.015659 -0.020762 0.343209 0.159884 0.308638 -0.055286 0.305906 0.172385 0.431452 0.144275 0.097033 0.340430 -0.133330 -0.830067 -0.144568 0.112986 0.436898 -0.145586 -0.115901 -0.660246 -0.150719 0.076553 0.272872 -0.098625 -0.167072 0.392925 -0.462656 -0.070472 0.019315 -0.553793 -0.585858 0.161109 -0.883847 -0.118318 -0.604724 -0.342615 -0.263691 -0.164779 -0.218613 0.066078 0.425703 -0.268668 -0.157907 -0.700836 -0.002169 -0.426687 -0.518519 0.241426 -0.139430 -0.901358 -0.307097 0.080444 0.175650 -0.475701 0.012668 -0.000450
can -0.095311 -0.029006 0.668928 -0.147635 0.325872 0.096183 -0.655991 0.447721 0.267704 0.012677 0.160270 0.141920 0.451143 -0.467038 -0.458316 0.216625 -0.106277 0.167928 0.047879 -0.121333 0.106054 -1.033813 0.461179 -0.577433 0.752913 0.535860 0.436366 0.027739 0.038606 0.319623 -0.503329 -0.029632 -0.589632 0.558344 0.484598 0.384042 -0.245283 0.333639 -0.068027 0.213341 0.172514 0.853035 -0.180379 0.224725 0.147697 -0.150503 -0.925902 -0.078670 -0.514094 -0.230913 0.031055 -0.646376 0.216183 0.098415 -0.318980 -0.131039 0.608994 -0.608740 -0.035045 -0.067075 -0.338884 -0.474373 0.175961 -0.299049
co@@ -0.460973 0.226342 -0.353776 -0.139038 0.399323 -0.661306 0.713928 -0.495542 0.322991 -0.129099 -0.499285 0.015433 0.306422 -0.567509 -0.042897 -0.148000 -0.366666 -0.264057 0.318416 -0.199793 -0.556115 0.980962 0.630934 -0.647968 -0.321822 0.263171 -0.169756 0.462746 0.813745 0.199939 0.419530 0.436349 -0.144380 0.072842 -0.701827 0.214232 -0.164605 -0.317615 -0.603194 0.783565 1.198078 0.687284 0.248232 0.121735 -0.341138 -0.017921 -0.064638 0.531787 -0.266004 0.706672 -0.339443 0.333152 -0.207289 0.292278 0.635666 -0.568741 0.036917 0.017045 -0.335580 -0.226226 0.784847 0.188720 0.353892 0.688330
go 0.039130 -0.176458 -0.828931 -0.484551 0.032045 -0.047336 0.242129 0.457797 0.242865 0.366087 -0.333690 -0.171654 0.082393 0.193009 -0.452051 -0.367111 0.050007 0.360832 -0.812757 0.374026 0.048695 -0.303129 -0.412026 -0.635946 -0.420210 -0.495590 0.785154 -0.544865 -0.512543 0.049237 -0.483197 -0.000135 -0.447595 -0.482788 -1.139434 -0.271387 0.128621 0.597697 -0.203276 -0.897864 0.032381 -0.513509 -0.367981 -0.335306 -0.428953 0.314772 -0.569324 0.058926 0.426259 -0.136482 -0.418294 -0.528832 0.434198 -0.058839 0.042168 0.245514 -0.520630 -0.693806 -0.505937 0.580568 -0.052805 -0.235263 0.294629 0.276417
do@@ 0.457444 0.361604 0.221649 0.329670 0.260537 -0.455220 0.194567 0.178793 -0.453435 0.140339 -0.120053 0.008662 -0.073061 0.014673 -0.052593 -0.191019 -0.355427 0.053714 -0.059090 0.230103 0.558421 0.473527 0.246406 -0.548361 -0.763876 0.172505 0.105975 -0.082320 1.006053 -0.137218 -0.824981 0.454857 0.525507 -0.078707 0.230565 0.336983 0.000800 0.409416 -0.086886 -0.465666 -0.107726 0.299766 0.294822 -0.158256 -0.134728 0.263130 -0.486526 -0.593905 0.050881 -0.119952 -0.327174 0.266209 0.486672 0.035776 -0.023809 -0.181358 -0.342763 -0.135696 -0.157587 -0.170522 -0.039424 0.545438 0.794166 0.247155
ce 0.832989 0.474589 0.189334 0.923052 0.417572 -0.298314 0.097758 0.294808 -0.131722 0.867212 0.264086 -0.550063 0.876197 0.329797 0.123640 0.042189 0.012724 -0.127883 0.562492 0.071582 -0.891887 -0.714679 0.581157 -0.073190 -0.038218 0.390693 0.098159 0.438081 0.341278 -0.562540 -0.184075 1.249709 0.241851 0.251829 0.088115 0.064579 -0.023968 0.313789 0.355512 0.594253 0.830369 -0.270972 0.808865 -0.067649 0.805605 -0.038378 -0.279882 -0.165192 -0.856801 -0.078724 0.091910 0.900658 -0.132848 -0.029048 -0.238583 0.011252 -0.680506 0.038113 -0.126108 0.613353 -0.723454 0.344853 -0.210349 0.127033
c -0.569174 0.238959 0.580176 -0.431242 -0.308855 0.021872 -0.563631 -0.438154 -0.172643 0.058787 0.548376 0.788471 -1.078737 0.830617 0.655652 0.097909 0.543891 -0.327132 0.718847 0.063319 -0.029754 -0.547998 1.051034 0.149942 -0.331534 0.721665 -0.864175 -0.288038 0.006494 -0.825296 -0.361221 -0.041009 -0.465057 -0.017446 -0.052226 0.969500 0.504130 1.014805 0.454255 -1.033643 0.213756 0.602122 -0.129129 0.202428 -0.326779 -0.266732 0.464462 -0.185304 0.057609 -0.451797 -0.025552 0.237287 0.431766 -0.482418 0.098900 0.000019 0.630109 -0.836578 -0.742213 0.726408 -0.161334 -0.041504 0.889293 -0.263645
wor@@ 0.576299 -0.021634 0.587192 0.216847 0.036603 0.163608 0.341228 0.190587 -0.286332 0.376211 0.286185 0.460882 0.377289 0.667877 -0.276038 -0.135031 0.159115 0.107042 0.027406 -0.068453 -0.194811 -1.057080 0.839439 -0.213975 -0.369355 0.183158 -0.200532 0.630140 0.144279 -0.837002 -0.032740 0.478140 -0.278418 0.071326 -0.538365 0.429731 -0.119572 0.505819 0.820147 0.324754 0.324167 0.307652 0.642090 0.214394 0.110387 0.175920 0.180504 -0.309833 -0.487154 -0.172239 0.192803 0.622931 0.013394 -0.352090 -0.048461 0.218459 -0.632487 -0.486032 -0.011809 0.277474 0.007065 0.664583 -0.103798 -0.088423
ch 0.943922 0.416601 0.633857 0.473135 -0.313877 0.204786 -0.704912 -0.037867 0.021956 0.389813 -0.365590 -0.393988 0.394240 0.310855 -0.861306 0.152757 -0.176284 0.210048 0.321911 -0.397881 0.063656 -0.730347 -0.523641 0.249381 0.455530 -0.422927 0.429894 0.615849 -0.218087 -1.151657 0.039641 0.827783 0.129096 0.484301 0.182160 -0.761513 -0.323610 -0.174328 0.591514 0.613713 -0.620955 -0.047963 0.587917 0.509846 0.433207 0.779490 -0.390468 0.061150 0.461020 -0.227552 -0.205953 0.533026 0.109180 0.403692 -0.309035 0.214345 -0.211248 0.411178 0.401123 0.366481 -0.350039 0.134127 -1.659268 -0.122042
