<unk> -0.018805 0.084158 0.087417 0.078533 0.088791 0.002797 -0.060276 -0.062582 0.074849 0.062648 0.007652 0.003904 0.058033 -0.074984 0.009225 0.061598 -0.078106 0.078242 0.070917 0.035071 0.074401 -0.037861 -0.035455 -0.046985 0.031307 0.061243 -0.052172 0.041332 -0.026672 0.032790 0.077464 -0.027245 -0.095682 -0.059744 0.035545 -0.055762 0.094016 0.087828 0.013303 -0.061975 0.010933 0.067446 -0.047881 0.050823 -0.011698 -0.007074 -0.027052 0.020052 0.042139 0.034233 -0.005787 -0.038850 -0.034370 0.072684 0.072185 -0.053207 -0.033366 -0.026163 -0.009050 0.064528 -0.004079 -0.009644 -0.007949 0.030840
<blank> 0.024199 0.022394 0.055907 -0.090772 0.085042 -0.053011 0.062602 0.078916 0.063234 -0.007752 -0.047768 -0.031892 0.022755 0.021110 -0.088183 0.071487 -0.054247 -0.096855 -0.007718 0.055396 0.015540 0.085745 -0.047293 -0.016004 -0.040131 0.070265 -0.027239 -0.042136 0.073477 -0.064998 -0.082737 -0.003927 0.056074 -0.043435 0.003250 -0.023616 0.034962 -0.003895 0.079064 -0.021434 -0.074757 0.009453 -0.003692 -0.012585 0.043542 0.009903 0.043419 0.064130 -0.060727 0.009074 -0.063104 -0.018624 -0.075414 0.062193 -0.089071 -0.055234 -0.076382 -0.029244 0.060674 0.033692 0.026134 0.032823 -0.044998 -0.090464
que -0.187565 -0.028293 0.865491 0.595312 0.735101 0.275475 -0.104464 -0.316780 0.105594 0.259236 -0.213841 -0.603012 -0.293793 0.048114 0.316927 -0.172105 -0.186012 0.030103 0.212788 -0.241796 -0.350782 -0.339669 -0.310074 -0.712325 0.193324 -0.536839 0.158789 -0.104397 0.277485 -0.517543 0.011463 -0.169437 -0.449600 -0.315728 0.060825 0.173589 0.485646 0.174532 0.010531 0.338558 0.109144 0.324783 -0.086921 0.509806 0.500782 -0.525058 -0.489724 -0.250662 -0.189301 0.514937 0.067048 0.052972 0.078989 0.070644 0.085890 -0.194173 0.337586 -0.006238 -0.316218 -0.170313 -0.475157 -0.072487 -0.249272 -0.023758
no -0.017424 -0.079199 0.067898 0.020610 -0.070593 0.007183 -0.054429 -0.004476 0.071186 0.029565 0.081896 -0.018653 0.030380 0.053946 -0.091681 0.007893 -0.044372 -0.049174 0.092043 -0.054659 0.084528 0.076077 0.075025 -0.079841 0.085497 -0.078597 0.043004 -0.037857 0.098947 0.038172 0.039496 0.013304 -0.093511 -0.074421 0.051981 -0.008622 0.076594 -0.031969 -0.068797 -0.033934 -0.099988 -0.093104 -0.062857 -0.048001 0.096956 -0.098260 -0.012982 -0.069278 -0.029777 -0.043823 0.017218 0.098846 -0.012758 -0.084355 -0.027934 -0.087741 -0.030238 -0.075623 0.099186 -0.084249 0.019049 0.084254 -0.081488 0.084280
y -0.660488 -1.039217 -0.039872 -0.048743 -0.861778 0.996885 0.971113 0.237621 0.894325 0.975057 0.719256 0.255186 -0.123293 -0.641660 0.001492 0.204603 0.083309 0.067034 -0.747878 -0.644708 -0.736373 -0.389716 0.276788 -0.797470 -0.559781 -0.117950 0.224611 -0.791516 0.004791 -0.439948 -0.457781 0.471323 -0.355591 -0.099223 -0.648833 -0.471472 -0.229267 -0.375031 -0.041926 -0.275769 -0.248969 -0.142213 0.694711 -0.467737 -0.282107 0.348572 -0.301610 -0.543033 0.529281 0.320983 0.324868 -0.655969 0.528005 -1.298169 0.055417 0.374055 0.994000 -0.293245 0.240104 0.663361 0.343702 0.773895 -0.323158 -1.152776
sí 0.206487 -0.151466 -0.308168 0.021703 0.021076 0.282207 0.669098 0.173687 -0.194556 -0.668956 -0.238825 -0.759656 -0.830389 -0.583983 0.105759 1.000432 0.152135 0.062403 0.700862 -0.263413 -0.849088 0.064788 -0.596682 -0.188795 -0.390243 0.339402 -0.226103 0.235722 0.183391 -0.138131 -0.564593 -0.030795 -0.708558 -0.442049 0.975897 -0.669941 -0.090443 0.725825 -0.538241 -0.078476 -1.324561 -0.427972 0.899373 -0.023420 0.587526 0.501955 0.291047 -0.685465 0.271406 0.431520 0.294798 -0.401615 0.275941 -0.367068 0.710848 -0.592141 -0.300869 -0.149821 0.648739 -0.354504 0.368182 0.862047 -0.144181 -0.244738
de -0.473705 0.394849 0.519355 0.447433 0.170898 0.144232 0.160768 0.887166 -0.043280 0.016477 0.681542 -0.047987 -0.563983 -0.187759 0.248639 -0.911547 0.540779 0.144509 -0.080891 -0.310782 -0.797366 0.362820 -0.547783 -0.513079 -0.394356 0.045231 -0.599768 0.026967 -0.649390 -0.787332 -0.418550 0.357024 -0.214292 -0.116631 -0.752882 0.377404 0.288420 0.209231 -0.474488 -0.030717 -0.408260 0.381736 0.532679 0.783525 0.143696 -0.688211 -0.146886 -0.335382 0.734775 -0.940150 -0.088005 -0.911540 -0.852571 -0.513558 1.019607 -1.029448 -0.135150 0.053430 -0.641242 0.250180 0.335395 0.645533 0.444010 -0.489474
a -0.439510 0.885665 -0.194309 -0.564281 0.049257 0.087574 0.000102 -0.045705 -0.530063 -0.030010 0.639006 -0.964764 -0.399834 0.590097 0.431253 -0.198875 -0.159723 -1.049106 -0.217767 -0.694436 -0.756118 -0.641247 -0.029542 -0.482786 -1.469534 0.361620 -0.307000 0.149370 -1.119533 0.162710 -0.134448 0.571270 -0.519555 -0.881469 -0.240609 0.441073 1.205981 0.734775 -0.524595 -0.405784 0.268489 0.484064 0.111729 0.552671 0.214991 -0.265047 0.234674 0.226564 0.117561 -0.144754 0.668612 -0.475636 1.135904 0.033796 -0.169676 0.214706 -0.421657 0.950465 -0.255819 0.458724 -0.178823 -0.285369 -0.303215 0.213792
es 0.047277 -0.428191 -0.049849 -0.721960 -0.429506 1.533404 0.181487 1.189964 0.706975 -0.641957 -0.504726 0.390316 -0.828830 -0.351427 -0.068988 1.075226 -0.363426 0.296153 0.733584 0.224846 -0.464186 -0.467641 -0.142839 -0.325205 -0.122976 0.166855 0.515464 0.641357 -0.715974 -0.133698 -0.031293 0.396738 -0.664272 -0.247142 0.606785 0.465534 -0.242357 0.526278 0.158609 -0.119569 0.296376 0.577584 0.121267 -0.452374 -0.290773 0.807017 -0.358370 -0.830955 -0.367254 0.996545 0.596058 -1.166110 0.476258 -0.350152 0.040230 0.135639 -0.054605 -0.233770 -0.067335 0.605034 -0.849447 -0.016509 0.874387 0.411619
en -0.367054 -0.583246 -0.092203 0.312777 0.005233 -0.948017 -0.230489 0.277627 0.307911 0.619919 -0.237558 -1.226031 -0.164740 0.036185 0.249431 -0.256614 0.639294 0.266360 0.051674 0.014866 -0.599902 -0.115322 1.011490 -0.304531 0.184991 -0.309570 0.377338 0.046691 -0.535942 -0.516662 -0.176136 0.174142 -0.278926 0.063131 0.084011 0.305209 0.091930 1.054462 -0.540888 -0.213307 -0.710769 -0.438537 0.059073 -0.486290 0.487098 -0.530795 0.090524 -0.016344 -0.190862 -0.040883 0.463049 -1.784074 0.861875 -0.657720 1.105610 0.815250 0.028925 -0.190325 0.393180 -0.414121 0.008501 0.318031 0.153219 0.152959
la 0.386602 0.256938 -0.258981 0.412413 0.715192 -0.342958 -0.679665 0.151178 -0.286218 -0.142139 0.082681 0.812939 0.970641 -1.124612 0.294157 -0.474490 -0.445188 -0.056563 -0.031969 0.135465 -0.234125 0.518490 -0.033521 -0.968705 -0.044616 0.239484 0.373230 0.976565 0.166310 -0.755071 -0.495338 -0.379430 -0.775275 0.722069 -0.495796 0.357284 -0.493466 -0.125254 0.160552 1.245262 -0.574170 0.410322 -0.266748 0.422675 0.277540 0.728156 0.094327 -0.178594 0.560450 -0.858238 0.090539 0.132218 -0.855348 0.301112 1.156456 -0.758874 0.397785 -1.054880 0.414577 -0.477486 -0.468083 -0.649713 0.162925 0.116589
yo -0.331993 0.286653 -0.577273 0.280552 -0.457860 0.905217 0.640907 -0.273587 0.483437 0.991645 -0.109196 0.034770 -0.095907 -0.152532 0.465334 -0.151613 0.945740 0.354859 -0.339216 -1.392703 0.103706 -0.070267 0.349255 -0.332597 -0.019549 0.414123 0.600494 -0.390682 -0.070659 -0.116442 -0.270893 1.079144 -0.145142 0.383971 -0.495116 -0.184955 -0.070380 0.130541 0.250830 0.596238 0.345285 0.395011 0.105533 -0.659887 -0.300590 0.060902 -0.046213 -0.778933 -0.109070 0.080287 0.050353 -0.629901 1.216046 -0.406267 -0.073375 0.956709 0.223772 -0.786656 -0.148880 -0.460000 0.442123 -0.225047 0.440561 -0.692082
el 0.751400 -0.135193 0.568582 0.323094 0.383541 -0.012516 0.453106 0.637836 -0.552261 -0.824209 0.308864 0.441221 0.625460 0.277127 -0.592214 -0.824430 0.048504 -0.381532 -0.246271 0.380391 -0.793216 0.797299 -1.065328 0.021783 0.195361 0.143481 0.384108 1.386361 0.145945 0.388185 0.311704 -0.674998 -0.581488 -0.106048 0.292841 -0.598451 0.573525 0.045053 -0.667619 -0.052047 0.192445 -0.253458 -1.590328 0.939608 0.870872 -0.310357 -0.400997 0.156378 0.058121 0.706436 0.168689 0.155860 -0.882474 0.357161 0.036292 -0.734383 -0.398476 0.511690 -0.134387 -0.278521 -0.628718 0.177907 0.357417 0.859967
o 0.255355 -0.666702 0.375702 -0.231822 0.469470 -1.402624 0.524586 0.285662 0.615879 0.158738 0.458774 1.023627 0.424588 -0.206612 -0.640021 -0.360413 0.051598 0.480307 0.329915 0.452520 -0.710272 0.237767 -0.705986 -0.425363 0.014367 0.168762 0.028248 0.295915 0.944866 -0.005093 0.544851 0.060494 0.441012 0.392500 0.445266 0.226273 0.373241 0.162800 0.469765 -0.252456 -1.032904 0.647142 0.195169 0.707389 -0.323659 -0.285595 -0.419632 0.019454 -0.636047 0.052609 -1.315720 1.468542 -0.444471 -0.118665 0.319026 -0.830325 -0.158245 0.583499 1.400498 -0.881919 -0.487232 0.766737 0.077576 -0.623137
lo 0.495385 -1.076553 -0.824066 0.101216 0.576312 0.149347 0.023110 -0.268394 0.605805 0.887682 0.105800 0.437749 -0.116115 -0.491104 0.677009 -0.309018 0.647689 -0.240156 0.444407 -0.456328 -0.672187 0.510715 -0.969381 -1.846061 -0.542140 -0.753347 0.135530 0.060854 0.019015 0.615319 0.140341 -0.569752 0.357655 -0.254344 0.582504 0.625130 -0.780937 0.250860 0.597521 0.673753 -0.655177 -0.918444 0.610517 -0.355140 0.087269 0.358190 -0.141326 0.137567 0.061390 -0.304917 -0.808518 -0.014060 -0.695971 -0.647883 0.758347 -0.545743 1.024653 -0.932167 0.556521 0.626309 -0.430857 -0.065597 -0.118095 -0.473851
pero -1.048074 0.007321 0.330194 0.222866 0.099887 -0.423804 0.325922 0.173606 0.546124 0.120919 -0.600472 -0.019405 -0.013739 -0.309283 -0.567767 0.305677 0.337091 0.162937 0.342317 -0.778886 -0.747390 -0.385163 -0.152041 0.416770 -0.229739 0.205381 -0.061885 0.170985 -0.410855 0.662042 -0.207646 -0.840413 -0.223024 0.044122 0.536722 -0.449538 0.732456 -0.528017 0.048814 0.708724 1.292225 0.592454 1.328731 -0.216612 -0.399917 -0.094461 0.572615 0.290004 -0.470722 0.072854 -0.344913 -0.824153 0.233368 -0.644491 0.337128 -0.040319 0.705784 -0.340481 -0.461407 1.182120 0.522528 -0.997766 -0.015659 -0.218087
me -0.146220 -0.470202 -0.428812 -0.971203 1.074387 -0.191500 0.559850 0.406422 -0.987599 0.024098 -1.096281 -0.393605 0.431658 1.223855 0.332845 0.277636 0.211906 -0.291313 0.749756 0.362464 -0.360836 0.545079 -0.223865 -0.690318 -0.217008 -0.312292 0.685045 -0.279244 0.362264 -0.008447 0.150980 -0.416868 -0.556044 0.242110 -0.089397 0.556210 -0.126956 -0.090257 0.061949 0.164471 -0.165680 -0.071381 -0.215679 0.101820 -0.085037 0.508227 0.553934 -0.532131 -0.197701 -0.215279 -0.502207 0.476444 -1.194263 -0.306071 0.307438 -1.662594 0.714075 0.538462 1.040946 0.066245 -0.673319 -0.642787 0.484178 0.737285
ah 0.400395 -1.182047 -0.121624 -0.537633 -0.813819 0.333794 0.133964 0.449351 0.072948 1.152430 -0.671754 -0.174027 0.720551 -0.350113 0.627337 -0.168201 0.170609 0.377805 -0.544232 0.145643 -0.020463 -0.662054 -0.411216 -0.734573 0.150149 -1.173701 0.683320 0.625664 0.072592 -0.233784 0.313495 0.281455 0.148928 -0.724768 -0.159342 0.328263 -0.102762 0.165883 0.803937 0.845582 0.354504 0.332708 -0.373644 -0.008394 -0.348250 0.295364 -0.048250 0.072435 0.127669 -1.094499 0.302083 0.032229 -0.262712 0.125120 1.484777 -0.308600 1.340189 -0.101547 0.142999 0.089696 0.557287 -0.767140 -0.189033 0.104453
se -0.569874 0.007267 0.499476 0.032724 -0.775642 -0.092571 -0.935081 -0.161032 0.299801 0.459469 -1.239715 0.063234 0.595014 0.973216 -0.601214 -0.423625 -0.313432 0.771274 0.731191 -0.260332 -0.322778 -0.297931 -0.378873 0.470207 0.079700 -1.026825 0.961010 0.616148 -0.321175 1.233958 0.381828 -0.085550 -0.051344 0.264818 0.702515 0.601333 0.188827 -0.287019 -0.039933 0.000616 0.179029 -0.050778 0.786558 -0.111955 0.427675 0.012705 -0.251217 -0.213741 0.266220 0.419715 -0.719948 0.695239 -1.314193 -0.438657 -0.714782 -0.673262 -0.832596 0.180098 0.757261 0.399700 0.101835 0.551195 -1.125064 0.063097
un 0.302996 -1.138975 0.232370 0.690961 0.538218 -0.390632 -0.414148 0.130328 -0.361782 0.476502 -0.352966 -0.662817 0.541784 0.537156 0.206651 -1.173524 -0.257630 0.254801 -0.762182 -0.309874 0.510858 -0.307679 0.479183 0.420370 1.104016 -0.348561 0.437432 0.210981 0.150093 0.640681 0.495740 0.880401 -0.640497 -0.059225 -0.591901 0.159800 -0.716797 0.163654 0.467937 0.517653 0.830587 0.509818 -0.115225 -0.422800 0.397425 -0.348529 0.420064 1.636352 0.858798 -0.459892 0.140775 0.181383 0.396349 0.160253 0.329135 1.105880 0.053415 -0.705351 -0.860743 0.431191 0.239040 -0.639420 -0.112373 -0.641576
los -0.623492 0.873295 0.329167 0.284635 0.360079 0.669948 0.619043 -0.167472 -0.560005 -0.142222 0.359778 0.345898 -0.922345 0.264605 -0.644697 0.626240 0.782695 0.073596 -0.089684 -0.107542 -0.868892 0.375336 0.136600 0.453413 -1.209862 0.190228 -0.289500 0.208151 -0.562137 0.577790 -0.810300 0.008575 -0.479854 0.487898 0.998006 0.049622 0.183126 -0.727423 -0.409041 0.365667 -0.062996 0.000182 -0.017703 -0.164306 0.076335 0.217709 -0.355042 0.250870 0.656117 1.102426 0.541906 -0.848604 -0.928126 0.162518 0.139444 -0.672366 -0.106478 -0.748986 -0.267396 0.682283 -0.163912 0.245041 0.251098 0.942123
como 0.406068 -0.330939 -0.188150 0.290362 -0.260558 -0.647335 0.061662 -0.464395 1.083653 1.242581 0.155836 1.178123 0.493104 -0.425429 0.408828 -0.434925 -0.063005 -0.073754 -0.165646 0.320157 -0.205146 -0.755630 -0.212315 0.214045 0.273785 -0.423688 0.338647 -1.329623 0.197697 -0.012653 1.407700 0.580673 0.924578 0.567364 -0.583889 0.204230 0.247561 -0.064815 0.076255 0.286232 0.031847 0.729026 0.457122 0.153859 -0.440238 0.778270 0.018133 -0.171160 -0.791445 -0.710118 -0.562231 0.217002 -0.100648 0.125987 -0.285655 0.255847 0.773054 0.576940 -0.215962 -0.281720 0.255630 0.546199 -0.887439 -0.313163
por -0.339023 -0.684928 -0.734237 -0.048276 -0.064578 0.189302 -0.757433 0.000878 0.516236 0.339413 -0.259069 -0.700367 0.288656 -0.025323 0.453829 1.722573 0.125777 0.593471 -0.304705 0.752323 -0.383215 -0.057276 -0.397561 -0.967564 0.080876 -0.407039 -0.160208 0.018152 0.963183 0.053516 -0.211030 0.083139 0.077564 0.877114 -0.317168 -0.323430 -0.374260 0.584762 0.573693 -0.120390 -1.056010 -0.642259 0.096403 -0.692572 -0.958311 0.204844 0.204869 -0.040789 0.448100 0.434444 -0.211830 -0.286749 0.400735 -0.321442 -0.270535 0.041123 0.577568 -1.494815 0.793543 0.075757 -0.484792 -0.989341 0.201589 0.399255
eh -1.026540 0.066482 0.160626 0.086905 0.604559 0.446836 0.175688 0.082332 0.051147 0.351915 0.260127 -0.170768 0.239737 -0.324571 0.620885 -0.330405 0.679126 -0.103034 -0.320371 -0.438262 0.376166 -0.345422 0.500826 -0.124711 -0.471341 0.217138 0.205571 -0.214865 -1.123693 -0.092209 -0.116316 0.352277 -0.368822 -0.709296 -0.359441 -0.261736 0.584636 -0.538044 -0.182107 0.459589 0.974025 -0.643495 -0.185600 0.320949 -0.236642 -0.252588 -0.393084 -0.448878 -0.312862 -0.400817 0.317745 -0.116804 -0.121055 -0.017790 0.226826 0.811351 -0.145288 -0.075277 -0.413830 -0.016816 -0.307642 0.433208 0.044477 -0.672507
eso 0.691559 -0.380291 -0.282995 -0.466204 -0.529153 0.562343 0.419708 -0.495004 0.007394 0.678408 -0.212892 0.253599 -0.248217 0.976498 0.056573 0.441963 -0.108690 -0.093247 0.532971 0.281264 -0.786503 -0.107139 0.353300 1.361852 -0.540242 0.151707 0.840014 0.684790 0.879797 0.335750 0.673256 -0.118302 -0.776253 -0.452074 -0.415116 -0.709079 0.263520 -0.433453 0.673500 0.093442 -0.197577 -0.594629 -0.260933 0.969865 -0.024770 -1.046573 -1.098210 0.764119 0.098686 -0.116229 -0.399271 -0.652028 0.093725 -0.237241 -0.755885 -0.561917 -0.192032 -0.502636 -1.061089 0.392009 -0.513123 -0.282334 0.099876 0.339451
ya -0.663660 0.504005 0.017442 -0.021694 0.530928 0.296292 -0.042542 0.173612 -0.375804 -0.036721 0.145424 -0.579757 -0.912860 -0.181248 -0.132274 -0.212226 0.132582 -0.178957 -0.074433 -0.390662 -0.387583 0.203104 0.035095 -0.031683 0.062764 0.103148 -0.363040 0.220929 -0.455349 -0.227117 -0.212058 0.179548 -0.376890 -0.213158 -0.003555 -0.344095 0.079495 -0.082876 -0.340351 0.374126 0.099494 0.336959 0.249205 0.356180 0.068709 0.225113 0.172829 -0.854349 -0.106213 0.369718 0.470226 -0.283140 0.408890 -0.217468 0.627800 0.289973 -0.845602 0.093036 -0.274492 -0.024792 -0.037928 0.642345 0.536037 0.093640
una 1.103772 -0.546966 -1.258301 0.551636 -0.640913 0.211734 -0.128239 -1.084316 0.290815 0.707057 -0.057833 0.270288 0.248891 -0.373844 0.612209 0.596436 -0.265940 0.215263 -0.841713 0.118688 -0.082551 0.368990 -0.765880 -0.181967 0.273282 -0.716483 -0.144824 -0.129293 0.132258 1.252829 -0.380213 0.412788 1.235355 0.335620 -0.727727 -0.075546 0.519428 -0.460227 0.542939 0.638870 -0.829608 0.712078 0.395758 -0.567383 -0.212385 -0.179633 -0.000283 0.182427 -0.465660 0.330107 -0.410815 1.238167 0.761831 -0.859730 0.201311 -0.371495 0.506544 -0.495612 -0.000668 -0.791291 -0.247196 -0.785309 -0.006207 -0.121168
ajá -0.055985 0.369681 0.822517 1.207916 0.924059 0.784321 0.039208 0.270329 -0.216443 0.008173 -0.539059 0.650813 0.621721 0.106233 -0.183846 -0.067292 0.037997 0.260733 -0.490335 -0.532543 -0.076463 0.076743 -0.647915 -0.452385 -0.646847 0.223582 -0.327433 -0.102159 -1.034876 0.308603 -0.023592 0.634913 0.536778 -1.099428 0.784765 0.151681 0.393617 -0.375339 0.506959 -0.433360 -0.016079 0.082843 0.302606 0.468004 0.376614 -0.062856 -0.569165 -0.515465 -0.139569 -0.651057 0.110509 0.242445 0.600703 -0.131054 0.102869 0.344071 -0.418370 0.072957 -0.580741 0.097677 0.206583 0.143349 0.650758 0.280896
porque -0.076555 -0.254473 -0.369550 -0.854299 0.505047 0.088587 -0.820454 0.181028 -0.070351 0.791721 0.348540 -0.576106 0.023066 -0.560602 -0.292384 0.236575 0.423186 0.534450 -0.153327 -1.040702 -0.809877 -0.160116 0.485272 -0.233367 -0.230260 -0.654563 -0.352078 -0.001668 -0.661034 -0.307743 -0.551503 0.440672 -0.954771 1.667576 -0.543561 0.933253 -0.718112 0.119480 0.703913 0.225384 -0.106129 -0.130692 -0.023366 0.324169 -0.193947 -0.561449 0.446519 -0.393984 -0.458077 0.176121 0.882013 -0.347689 0.039379 -0.546353 0.867450 1.285167 -0.411351 -1.111844 -0.264196 -0.377196 0.836248 0.598276 -0.025084 -0.217557
te 0.089535 -1.562384 -0.959655 0.522438 -0.637874 1.342871 0.183738 0.255295 0.595101 0.510999 -0.731749 -0.318955 0.196347 0.054513 0.424907 0.483158 0.002180 -0.286065 -0.901828 -0.003924 -0.101671 -0.220746 0.732749 -0.469790 0.238875 0.831495 0.075288 0.914379 -0.051035 0.831772 0.771519 -0.183216 0.063117 0.038425 -0.299665 -0.258029 0.244728 -0.311442 0.050299 -1.252054 0.030428 0.053161 -0.111249 0.434161 0.906729 0.228675 0.718229 -0.460386 -0.260462 -1.097075 -1.056867 1.009205 0.273662 0.173603 0.177803 -0.443961 0.874663 0.743447 0.530704 -0.794107 -0.438492 -0.680717 0.042429 -0.041486
si -0.040214 -0.288658 0.081951 -0.237934 -0.368499 0.400796 0.233435 -0.236573 1.084680 0.845806 -0.798060 0.840792 0.197616 -0.349126 -0.649083 0.482316 0.260255 0.553185 -0.288777 0.718231 -1.183990 0.387352 -0.430648 -1.393096 0.528347 -0.017915 0.912410 -0.328357 0.122341 0.228190 -0.117583 -0.782127 0.250730 0.272718 0.055837 0.431451 0.642316 0.085702 1.252627 -0.058437 0.829338 0.015136 -0.090001 -0.065220 -0.487518 0.863951 -0.110719 -0.176439 -0.069818 -0.521578 0.591694 0.026136 -0.586058 -0.185523 0.134929 -0.938340 0.166056 0.075423 0.405850 0.029906 -1.780218 -1.164893 -0.592584 0.073194
as 0.330524 -0.184640 -0.632390 0.380811 -0.777177 -0.398888 -0.092220 -0.196156 -0.304145 0.130166 0.743571 0.175038 0.037839 0.231096 0.399508 0.179696 0.289636 0.417306 0.061175 0.470272 -0.042083 -1.179661 -0.346527 -0.050439 -0.710683 -1.110753 1.839354 -0.535140 1.123042 -0.209750 0.930001 -0.576772 0.471520 -0.663831 -0.461046 0.300204 -0.669280 0.569726 -0.167194 -0.665170 -0.589159 -0.344373 -0.027660 -0.245989 0.418876 0.123663 -0.193836 0.503579 0.472204 0.577369 -0.627163 0.846693 0.122058 0.307168 0.076241 -0.378805 1.372866 0.334346 0.358673 -0.914246 0.455493 0.716967 -0.136299 -1.070832
más 0.199414 -1.300362 -0.739798 0.039720 -0.161517 -0.502110 0.078035 -0.732786 -0.625490 -0.174253 -1.083874 -0.442855 -0.384297 0.286196 0.347784 0.656967 0.131639 0.268264 -0.341295 0.340338 0.271537 0.249273 -0.858977 -0.035607 0.167632 -1.069577 -0.266322 -0.671396 0.364115 -0.258306 -0.533286 -0.875952 -0.467956 0.234241 1.023940 0.180769 -1.002367 0.623689 0.225549 0.443586 -1.472662 -0.315633 0.544927 -0.682050 -0.050094 0.223824 -0.302659 1.286592 0.152240 0.031222 -0.717700 0.948817 0.225375 -0.065970 0.122175 -0.753231 0.497360 0.041429 0.989715 -0.470323 -0.098033 -0.521383 0.270532 -0.622538
con 0.800625 -1.231093 -0.686096 -0.303904 -0.389045 -0.338903 0.141983 -0.242694 1.928600 0.066826 0.359622 -0.469913 -0.553912 0.583696 -0.120943 0.357285 -0.166673 0.357940 0.261088 0.039661 -0.039702 -0.839297 -0.340952 0.273457 -0.061381 0.081986 0.265219 -0.223464 0.031554 -0.211866 -0.159216 0.386626 -0.139187 0.746481 -0.468349 -0.605685 -0.404930 -0.909912 -0.013076 -0.239294 -1.221743 -0.585353 -0.106293 -0.483665 -0.506992 -0.215839 -0.829172 0.451883 -0.027683 -0.705845 -0.002370 0.582986 0.969311 -0.225450 -0.409479 0.145554 0.905830 0.170245 0.203309 -0.693676 -0.303754 -0.276047 -0.571096 -0.935790
para 0.459006 1.194256 1.297416 -0.540989 0.406019 -1.021299 -0.554444 0.270923 -0.805643 -0.726514 0.148618 0.160724 0.007103 -0.404728 -0.606585 -0.163366 -0.639574 0.339270 0.926381 0.633599 0.418035 0.526265 -0.053692 1.203450 0.746160 -0.894550 0.077946 -0.613314 0.515194 -0.314147 0.458505 -0.665294 -0.697086 0.272608 0.615095 0.635124 0.065545 0.973805 0.233888 -0.052379 -0.237855 -0.458231 -0.313259 0.345849 -0.104022 1.010428 -0.010528 0.257089 -0.617097 0.087773 -0.731940 0.235233 -0.476352 0.225674 -0.330688 -0.010869 0.464469 1.285560 0.506795 0.233998 0.741629 1.356686 -0.215075 0.528140
qué -0.310209 0.456021 0.248853 0.489517 -0.126208 0.508159 -0.077673 0.377081 -0.245663 -0.036600 0.134738 0.202958 -1.058883 -0.005363 -0.121804 0.443809 0.315085 -0.018936 -0.062866 -0.593079 -0.838129 0.246492 0.102992 -0.384866 -0.179111 0.228042 -0.034900 -0.049132 -0.410760 -0.068753 -0.695507 0.369333 -0.493778 -0.144906 0.441636 -0.379024 0.271155 -0.122659 -0.497496 0.482752 -0.256364 -0.099190 0.276084 0.168127 0.251334 -0.185174 -0.175645 0.189112 0.071206 -0.155153 0.449000 -0.352770 -0.406100 -0.488929 0.087030 0.149516 -0.525720 0.525975 -0.367927 0.488761 0.262262 0.406199 0.234889 0.294952
tu -0.381523 0.031706 -0.552840 0.323083 -0.528156 0.355425 0.269679 0.797773 1.025567 0.652364 0.074924 -0.195973 0.269518 -0.700756 0.323823 0.563458 0.190636 1.173174 -0.022428 -0.918188 -0.855108 -0.279135 -0.255807 -0.483501 -1.112396 0.527989 0.087784 -0.403322 -0.588412 -0.242074 0.433272 0.788691 -0.333719 0.061599 -0.763072 0.475835 -0.697116 -0.471659 0.275539 0.166769 0.116074 -0.246407 0.816596 -0.145082 0.131829 0.197008 -0.147102 -0.357340 -0.046043 -0.632270 0.308937 -0.615080 0.300633 -0.398684 0.440293 0.597296 0.155399 -0.366361 0.058340 0.711108 0.242390 -0.094997 -0.208851 0.200933
e@@ -1.013814 0.665710 0.514288 -0.054781 0.234935 0.509444 -0.038491 0.013513 0.366938 0.070049 0.669749 0.035162 0.204930 -0.124320 0.266920 -0.522455 0.291980 -0.043651 -0.181180 -0.870399 0.209857 -0.327225 0.471649 0.071185 -0.100802 0.120124 0.306484 -0.097899 -0.966550 -0.334580 -0.097454 0.543258 0.078522 -0.652098 -0.364156 -0.837306 0.320955 0.020526 -0.272759 0.225208 0.642369 -0.618067 0.393995 0.141711 0.005441 -0.003510 -0.544704 -0.358584 -0.527915 -0.435379 0.707647 -0.151010 0.379181 0.302180 0.174218 0.893439 -0.261450 -0.342127 -0.160764 0.324653 -0.101952 0.105744 -0.050448 -0.236959
a@@ 0.492233 -0.521619 -0.559431 0.323226 0.596295 -0.887290 -0.520875 -0.569192 0.017533 0.601915 -0.819166 0.948525 0.660519 -0.101613 1.315722 0.223469 0.140967 0.242474 -0.274068 0.432964 0.176639 0.942259 0.366690 -1.511158 0.030833 -0.316349 0.104290 0.193423 0.691237 0.311781 -0.072056 -0.131412 0.625615 0.158006 -0.001054 0.020211 -1.239373 -0.636151 0.184898 0.167512 0.016771 1.116653 0.256927 -0.224498 -1.163691 0.235450 0.912524 0.466586 -1.071827 -1.072105 -0.515565 1.325424 0.110206 -0.678171 0.211221 -0.412726 0.482451 -0.653334 0.509465 -0.340525 0.219004 -0.693901 0.313355 -0.175497
e -0.072033 0.808597 0.284926 0.218857 1.225610 0.065154 0.058992 -0.169512 -0.403814 -0.355511 0.288045 -0.100506 0.195962 -0.347897 -0.519176 0.130167 0.358815 0.823963 0.331548 0.101386 0.163566 -0.048494 -0.728410 0.450417 0.161233 -0.453686 -0.780464 0.536781 -0.035587 0.701615 -0.703518 -0.448644 -0.496104 0.272159 0.528750 -0.096032 0.167174 -0.797872 -0.212652 0.042086 -0.431169 -0.488847 1.263266 0.174377 -1.073168 0.515578 -0.217538 -0.043923 -0.745729 0.349680 0.958451 -0.955267 0.260064 -0.296867 0.928388 -0.035155 -0.150188 0.417010 -0.859366 -0.409476 -0.554568 -0.662396 0.243759 0.053786
mi -0.088303 0.680999 0.673161 0.798503 1.012672 -0.832631 -0.828605 -0.165192 -1.408671 -1.052740 0.375357 -0.600963 -1.555594 0.562274 0.158809 -1.248406 -1.135872 -0.430612 0.263223 0.619859 0.362618 -0.113301 -0.540369 1.155750 0.156749 0.267637 0.342859 0.374465 0.332073 -0.241715 -0.242624 -0.589377 0.392247 -0.054030 0.117049 0.399678 0.530816 0.301435 -0.736172 -0.209152 -0.526513 -0.292203 -0.230349 0.559817 0.288246 0.312364 0.518047 0.499094 -0.170033 0.253589 -0.065085 1.086739 -0.129361 0.234260 -0.244645 -0.902607 -1.234419 0.966689 0.483236 0.074749 -0.340880 1.152382 1.177662 0.395974
bueno -0.815582 0.769227 0.717195 -0.086212 0.558842 0.094228 0.459366 0.011429 -0.530357 -1.107495 0.106801 -0.345167 -0.741010 0.592268 0.073134 -0.042322 -0.187618 -0.466324 -0.223408 -0.333559 -0.237871 -0.390904 0.652060 0.085621 0.161950 0.205391 -0.036777 0.354221 -0.793235 -0.166149 -0.279627 0.280011 -0.066763 -0.236621 -0.078150 0.065745 -0.331529 0.714597 -0.417902 -0.336570 -0.014047 0.678005 0.116498 0.820150 0.151677 -0.339407 -0.163690 0.169557 -0.195327 -0.160761 -0.097560 -0.002335 0.370059 0.631051 -0.171845 0.555431 -0.615511 -0.099942 -0.089187 0.064471 0.355015 0.079312 0.675013 0.305829
i@@ -1.142953 -0.635652 -0.513619 0.624730 -0.411530 -0.531759 -0.378365 -0.361153 0.125994 0.116139 0.026334 -1.083572 -0.817389 -0.213175 -0.259474 -0.083586 -0.700660 -0.643146 -0.615862 -1.430173 0.898884 0.179524 -0.457292 0.235211 -0.975705 -0.822675 0.841128 0.490581 0.491623 1.116554 -0.027785 -0.151144 -0.226414 -0.574985 -0.467509 -0.886654 -0.464703 0.120185 -0.174811 0.502023 -0.531771 -0.558412 -1.386430 0.185819 0.305665 -0.587237 0.074469 1.013382 -0.053304 0.368810 0.281056 0.219894 0.206442 -0.461406 -0.566480 -0.324615 -0.201646 -0.353364 0.339035 -0.727064 -1.304549 -0.640917 -0.477830 0.207932
las -0.471483 0.456720 0.752940 0.130234 -0.504893 0.117276 0.258612 0.097358 -0.749895 -0.209305 0.714891 0.116925 -0.790193 -0.274254 1.139047 -0.770388 0.376082 0.066346 0.610221 -0.308961 -0.731011 0.543307 0.151394 -0.323957 -0.562515 0.342552 -0.620461 0.211856 -0.909001 -0.836261 0.038047 0.126148 -0.414179 -0.549384 -0.536562 0.385401 -0.486010 -0.433289 -0.776764 0.036661 -0.406543 0.233872 0.689379 0.357749 1.113738 -0.763386 -0.299211 -0.753612 0.915787 -0.548870 1.006981 -0.594839 -0.485511 -0.026267 0.463041 0.599541 -0.518843 0.553161 0.123940 0.956967 0.507090 0.648222 -0.160913 -0.047169
pues -0.615260 0.634023 0.362236 -0.199490 0.592463 -0.137858 -0.030551 0.483259 -0.298682 0.184730 0.180140 0.679953 -0.176174 -0.239575 -0.299185 -0.525288 0.628356 0.590407 0.202822 -0.405852 -0.405767 -0.497626 0.261514 -0.538795 0.136942 0.015469 -0.005257 -0.617217 -0.116888 -1.024072 0.109086 0.417212 -0.485292 0.375723 -0.298299 -0.326132 0.239285 0.174483 -0.138940 -0.088512 0.033197 0.158282 0.026246 0.215996 -0.208704 -0.336300 0.043236 -0.358279 -0.125760 0.120197 -0.080244 -0.911562 -0.198014 -0.022434 0.767049 0.302903 -0.158055 0.132063 0.187301 0.162914 0.498868 0.440504 -0.167015 -0.247774
hay -0.371853 0.651341 0.474786 0.348140 -0.740104 -0.224513 0.694389 0.541346 -0.312725 -0.371535 0.432195 0.381381 0.200387 -0.028600 0.154723 -0.803413 -0.028601 0.187123 -0.030485 -0.516473 -0.428313 -0.411255 -0.420524 0.381584 -0.189484 -0.163409 0.208816 -0.060092 -0.705550 -0.306558 0.560937 0.031035 -0.070236 -0.517200 0.503566 -0.219028 1.050445 0.048017 0.534202 -1.057519 -0.270708 -0.109028 0.029374 0.397395 -0.372935 -0.553056 -1.639642 -0.869612 -0.200979 -0.627714 -0.553575 -0.033183 0.288110 0.310422 -0.227312 0.017246 -0.566363 -0.480521 -0.614155 0.148435 -0.105384 1.190047 0.008949 -0.228468
ar 0.772759 -0.015555 0.221224 0.657223 -0.310643 1.224656 0.735916 0.838779 0.400664 0.365498 0.303530 0.048988 0.956534 0.519201 -0.683010 -0.417469 -0.726772 0.080970 -0.332536 0.142923 -0.545705 -1.222847 0.167103 -0.547105 -0.001553 -0.748318 -0.515604 0.509848 -0.192127 -0.084994 0.832503 -0.207211 0.372982 -0.010619 -0.143996 -0.176736 0.243306 -0.517011 1.070917 -0.758960 0.799862 0.191841 -0.126733 -0.280361 0.446761 0.626837 0.025800 -0.165894 0.345023 -0.225123 -0.507346 -1.190282 -0.109234 0.278059 -1.096400 0.127286 0.090402 -0.242383 -0.009287 -0.310527 -0.230706 -0.254221 0.001459 -0.230758
d@@ -0.951033 -0.316838 0.963877 0.553202 0.875762 0.686612 0.153981 0.133918 -0.501222 0.526797 -0.142884 -0.188834 -0.194327 0.387041 -0.246840 -0.239909 -0.055297 0.439146 -0.671539 -0.471183 0.648340 -0.631973 0.166864 -0.665012 -0.005742 0.588327 -0.908525 -0.225262 -0.684636 0.417599 -0.637501 0.266859 -0.351794 0.609908 -0.414032 -0.166317 -0.435993 -0.080194 -0.556483 1.304348 0.370535 0.194146 -0.027314 -0.442705 -0.997194 0.281335 -0.026569 -0.036885 0.351947 0.028879 0.066338 -0.534172 0.364465 -0.663588 0.222826 0.560475 -0.528579 0.025222 -0.893430 -0.232030 -0.160498 0.473140 0.272472 0.011586
t@@ -0.052199 0.296386 1.256076 0.309426 0.482274 -1.058756 -0.157413 -1.196695 -0.695859 -0.152045 -0.326245 1.273611 -0.432135 0.649159 -0.394495 -0.359631 -1.024450 -0.103201 -0.119363 -0.019153 1.706901 0.203090 0.169955 0.705463 -0.283017 -0.025244 -0.091229 0.387959 -0.158487 0.609006 0.647665 0.012914 0.098973 -0.254311 -0.585814 -0.064296 0.883347 0.063372 -0.376511 -0.660783 1.140010 0.951091 0.350513 0.891092 1.029527 -0.120221 0.459996 0.048088 0.661529 -0.243850 -0.451847 0.919392 0.217160 1.131405 0.063649 0.669360 -0.713881 0.405780 -0.237446 -0.452386 0.112901 0.700241 -0.242253 0.297831
r@@ -1.156115 0.617145 0.311502 -0.349205 0.576612 0.007485 0.132470 0.070810 -0.587290 -0.944860 -0.190268 -0.041938 0.165642 0.351402 -0.556773 0.549549 0.979677 -0.768113 0.388971 -1.023056 -0.082393 0.254814 -0.287542 -0.147811 -0.216371 -0.149851 0.170673 -0.419440 -0.131615 0.419100 -0.143979 -0.467334 -0.783730 -0.663036 -0.164336 0.712291 0.391047 0.019358 -1.022599 -0.305553 1.105691 0.087847 0.971784 -0.232966 -0.155682 -0.921171 0.287707 0.493565 -0.195475 -0.496172 -0.233263 -0.612776 -0.173716 0.054518 -0.037339 0.353445 -0.457160 -0.283934 -0.454992 0.213067 0.251518 0.261952 0.203290 -0.000889
claro -0.716681 -0.545449 -0.373455 -0.108651 -0.614714 -0.134021 0.062474 0.027336 -1.232485 -0.195852 -0.794483 -0.938512 -0.160739 0.238646 0.167958 0.042238 -0.206846 -0.322208 -0.683473 0.533239 0.552365 -0.197444 -0.209550 -0.403635 -0.641698 0.305668 -0.102578 -0.019107 0.319544 -0.337851 -0.929195 0.290789 -0.012339 -0.649387 -0.036523 -0.289851 -0.598688 0.732138 -0.985533 0.891474 0.433622 -0.241614 0.152235 0.813682 -0.054624 -0.971177 -0.788285 -0.307669 0.092284 0.682998 0.241659 -0.766107 0.521929 0.310199 -0.239785 0.426481 -0.128553 0.362945 -0.223414 0.250368 -0.392827 0.406181 0.158902 -0.175549
m@@ -0.767254 0.602604 0.107821 0.187945 0.497516 -0.819046 0.590659 -0.315571 -0.102376 -0.841278 0.595179 0.729924 -0.821954 -0.112854 -0.343006 -0.617282 -0.155848 0.140622 0.532169 -0.503434 0.286399 -0.047590 -0.024405 0.314704 0.239228 0.524043 0.078732 -0.007731 0.001800 0.067010 0.403052 0.391927 -0.120783 -0.737473 0.135879 -0.647607 0.627303 -0.178266 -0.925570 -0.492082 -0.180882 0.149667 -0.775336 0.773134 -0.380929 0.086199 -0.561952 -0.088774 -0.177873 0.791368 -0.330908 -0.629876 0.282098 -0.014354 -0.513508 0.083954 -0.424844 0.234467 -0.209006 0.712412 0.809121 0.333766 -1.190073 0.054768
le 1.141003 -0.116416 -1.102649 -0.187358 -0.012876 -0.607447 -1.039811 0.332778 0.483924 0.020513 -0.408309 0.170282 0.129478 1.236601 -0.408460 0.724976 -0.453555 -0.383637 -0.780277 0.282167 -0.006473 -0.341640 -0.236852 0.584673 -0.312796 -0.400621 -0.361413 0.465966 0.488751 0.216383 -0.915580 -0.504078 0.655500 -0.867959 0.040455 0.185984 0.103619 0.643660 -0.418955 -0.844313 -0.359617 0.049104 -0.276609 0.755192 -0.425104 0.779291 0.971785 -0.959226 -0.319675 -0.003601 -1.043852 1.737609 0.102960 -0.036577 -0.186235 0.583683 -0.211435 0.174695 0.276392 -0.219499 -0.845160 -0.030306 -0.825271 -0.275089
c@@ -0.693853 1.337117 1.325925 -0.599535 0.376462 -0.311731 0.345219 -0.028871 -0.921981 -0.263462 0.114891 0.299444 0.086892 0.462461 0.354140 -0.901153 0.615533 -1.030810 0.813996 0.506497 -0.285924 0.069368 0.602543 -0.282918 -0.657065 0.427393 0.096309 -0.119810 0.044686 -0.185549 -0.378056 0.300261 -0.070553 0.134246 0.371296 -0.296789 0.411402 0.355894 -0.529527 0.200683 0.773183 0.743612 0.478967 -0.410163 0.585479 -0.229628 0.179402 -0.728703 -0.674875 -0.934390 -0.093208 -0.649083 -0.364103 0.051034 -0.230853 0.719098 -0.532342 0.705048 -0.308897 0.687705 -0.335453 0.491391 -0.207370 0.164192
mhm 0.353858 -0.248470 -0.515519 -0.027778 0.463301 -0.607336 0.530934 0.076247 -0.035622 0.577773 -0.886438 -0.009369 -0.718195 1.006890 -0.251187 0.093096 0.289983 -0.247811 0.775712 1.128306 0.453690 0.871307 -0.460302 -0.819678 -0.179706 -0.845408 0.037056 0.536977 0.704632 1.622642 0.089221 -0.755313 0.399999 0.097177 0.549402 0.179894 -0.304464 -0.290976 1.107624 -0.494950 0.683058 1.120972 0.532754 -0.413464 -0.370505 1.210153 -0.167575 0.241479 -0.737689 -0.318138 -0.955546 0.605012 -0.589812 0.350747 -1.353746 -0.343049 0.998677 0.078929 -0.580544 0.655510 -0.253375 -0.530681 -0.256481 0.523719
vi@@ 1.142961 -0.005864 1.102371 -0.815207 0.604137 -1.095447 0.397247 0.703197 0.207114 0.583671 -0.039816 0.733983 0.921323 0.269382 -0.733599 0.936499 -0.662306 0.995040 0.646287 0.146109 -0.372886 -0.331443 -0.438923 0.241848 0.238458 -0.057094 -0.335371 0.104915 0.123409 -0.475651 -0.768914 -0.589673 -0.150332 0.668959 0.275585 0.312723 -0.018454 0.814484 0.894910 -0.619882 -0.157362 -0.705342 -0.063714 -0.727347 -1.087669 -0.007738 -0.328824 -1.421808 -0.702742 0.809307 -0.075420 0.244704 -0.999855 -0.789191 -0.452555 -1.188985 0.258966 -0.045189 0.539053 0.199745 0.246135 -0.016363 0.294392 -0.217447
está -0.608690 0.532521 0.451666 0.544212 -0.176655 -0.010196 -0.624197 0.315995 -0.291910 0.168328 0.314130 -0.283651 -0.520932 0.251198 -0.307514 -0.312553 0.282429 0.035716 -0.004556 -0.884784 -0.002934 -0.309207 0.237750 -0.604971 -0.170927 -0.073576 0.244504 -0.076073 -0.384470 -0.138762 -0.201077 0.875486 -0.175065 -0.350705 -0.381934 -0.124602 0.788458 0.150890 -0.160310 0.473554 0.300501 -0.512123 -0.009451 0.403702 0.095985 0.037445 -0.597380 -0.625986 0.441886 -0.420432 0.020546 -0.102581 0.113428 -0.803177 0.544868 0.832301 -0.388738 0.436702 -0.348179 0.076278 -0.543704 0.430784 0.367016 -0.107136
así -0.490892 -0.357696 0.164514 -0.111378 -0.075192 -0.249005 0.060023 -1.055558 0.639803 -1.162839 -0.333997 -0.000902 -0.402374 0.883145 -0.095331 -0.097336 -0.026002 0.061205 0.117556 -0.231905 1.037751 1.213184 -0.987088 0.620838 -0.153200 -0.645696 -0.305348 -0.070422 0.205507 0.319387 -0.155881 -0.605136 0.362482 0.686620 -0.245914 -1.191969 0.291798 -0.378478 -0.786507 0.571915 -1.237218 -0.210851 -0.522877 0.806509 -0.152104 0.736942 -0.084776 1.261996 -0.042527 -0.181317 -1.475942 1.279748 0.037246 0.091101 0.503748 -0.188884 0.632851 0.517509 -0.419121 -0.352430 0.104623 1.007292 0.401929 -0.148257
entonces -0.409240 0.170436 0.606399 -0.464088 0.257358 0.308545 0.302463 0.575908 -0.380974 -0.768575 0.557091 0.499375 -0.808845 -0.206515 -0.208128 0.655806 0.501598 0.266701 0.041618 0.003704 -0.472301 0.276549 0.624353 0.275406 -0.492965 0.018496 -0.383442 0.258117 -0.318857 0.366534 -0.673236 0.245386 -0.370635 -0.020534 0.634785 0.032078 0.543183 -0.060966 0.182936 0.063778 1.047988 -0.123700 0.317896 0.081221 -0.392240 -0.056997 -0.137713 -0.119504 0.807189 0.420325 0.505306 -1.183019 0.321548 -0.459416 0.215850 -0.522589 -0.313523 -0.756167 -0.116913 0.613206 -0.799223 -0.650419 -0.094145 -0.212286
muy -0.023844 0.150458 0.737613 -0.640560 1.745350 -0.398576 -0.422671 -0.863700 -0.996467 -1.946274 0.195502 -0.490546 0.050392 0.870105 0.208480 -0.057987 0.031804 -0.907312 -0.428904 0.545226 1.146529 0.727059 0.062769 0.542108 0.704633 0.459031 -0.744691 1.336462 0.315861 0.275137 -0.980266 -0.260088 0.079233 0.729074 0.424440 -0.351485 0.016293 -0.769663 0.040830 0.459192 0.515205 0.365208 -0.805516 -0.182628 -0.321455 0.405053 0.198903 0.402716 -0.948016 0.326863 -0.178007 0.953699 -0.659127 0.553392 -0.039603 -0.125621 -1.018853 0.345819 0.112984 -0.446884 -0.053294 0.514663 0.547372 1.127117
g@@ 0.378218 -0.361941 -1.052005 0.180758 -1.136743 0.393306 -0.399075 0.169831 1.604493 1.723127 0.214659 0.335698 -0.056675 -0.432739 -0.333327 0.625119 -0.182456 0.422511 0.495194 -0.583248 -0.510959 -0.523289 -1.079139 -0.079567 0.204625 -0.019283 -0.118294 -1.291758 0.027778 -0.636763 0.529021 0.141737 0.423223 0.693884 0.067773 0.011454 0.203528 -0.130735 1.598188 -0.570007 0.244100 -0.564117 -0.464849 -0.940403 -0.026398 0.329108 0.548522 0.619216 0.698877 0.651648 -0.694290 -0.557230 0.187464 -1.371200 -1.227593 0.584924 0.409676 -0.387058 -0.594097 0.063505 0.238525 -0.158688 -1.039762 -0.140331
di@@ -0.040200 0.429439 0.069450 0.012205 -0.607432 0.306039 0.241747 -0.803177 -0.716586 -0.232584 0.735094 -0.279541 -1.515462 0.100545 0.863694 0.052600 0.394664 -0.469880 0.138224 -0.532564 -0.285759 -0.187624 0.655673 0.283601 -0.057339 0.790848 0.187437 -0.141115 -0.393365 -0.072912 -0.163674 0.579578 0.236312 -0.213404 -0.250607 -0.338298 -0.006702 0.127961 -0.414141 0.481759 -0.246561 -0.094346 -0.172656 -0.277304 0.349936 -1.264832 -0.285650 -0.694930 0.363690 0.012900 0.620993 -0.294274 0.585846 -0.105364 0.052210 0.516547 -0.614864 0.827140 -0.225131 0.176105 0.903221 -0.177198 0.016785 0.106033
o@@ -0.534601 0.351585 0.443533 0.091890 0.396811 0.510937 -0.440791 -0.603822 -0.614610 -0.286317 -0.357653 0.805227 -0.246646 -0.085538 -0.015396 -0.030129 -0.684450 0.749390 -0.096058 -0.142066 -0.143503 0.347263 -0.319997 -0.377441 -0.450886 0.532620 -0.527691 -1.108215 -1.082125 0.453281 0.150094 -0.114467 0.699228 -0.722275 -0.053617 0.153045 0.105811 -0.556171 -0.470240 -0.141878 -0.534515 0.201825 -0.303321 -0.334214 0.389620 0.500901 -0.070541 -0.430278 -0.042556 -0.294654 -0.370849 -0.025923 -0.351088 -0.688648 0.193171 0.374647 0.263920 -0.053956 -0.026327 -0.431881 1.054921 0.958539 0.022812 -1.095465
bien -0.794393 0.222894 0.010855 0.410297 -0.152674 -0.180082 0.094093 0.155233 0.418431 -0.630075 -0.045303 0.049863 -0.049622 -0.270190 -0.275880 0.543670 0.357160 -0.116259 -0.329402 0.092193 -0.502085 -0.764089 0.570020 0.713160 -0.121655 -0.002704 0.232761 -0.031976 -0.687189 -0.414811 0.176492 0.110132 -0.050235 0.176418 0.292413 0.249073 0.410731 0.273538 -0.324542 0.323257 0.216053 0.057940 -0.084241 0.348716 -0.040099 -0.168185 -0.241179 -0.527368 -0.742505 0.274613 0.235219 -0.344605 0.419052 0.200795 -0.150058 -0.106701 -0.225737 -0.163227 -0.131661 -0.238311 -0.759005 0.360907 0.019790 -0.526142
s@@ -0.950385 0.153600 0.394020 -0.032816 0.565119 -0.443463 0.547264 -0.024850 0.180190 -0.762693 0.002805 -0.283089 -1.176127 -0.162761 0.013738 0.046356 0.885568 -0.421045 -0.035529 -0.684584 0.033025 0.117804 0.144344 -0.271953 0.218939 0.190335 0.262020 -0.027547 -0.068294 0.444335 -0.382450 -0.262945 0.061393 -0.497905 -0.358656 -0.149003 -0.018055 -0.216942 -0.329426 0.225027 -0.636093 0.498908 0.043114 0.274492 -0.054456 -0.413363 0.082247 0.043381 -0.248532 -0.188277 -0.140620 -0.104992 -0.004098 0.209006 -0.024509 0.326169 -0.118745 -0.294977 0.562092 0.241525 0.629694 0.639185 -0.354747 0.270791
b@@ -0.264358 0.199094 0.659039 0.932023 0.420068 -0.277260 -1.124239 0.478698 -0.346208 0.029382 -0.160932 -0.567103 -0.607942 0.630996 0.394640 0.002647 0.300399 -0.173754 0.314472 -0.318613 -0.043151 -0.053780 0.067117 -0.244113 -0.004134 0.219674 -0.170187 -0.298383 -0.247353 -0.726028 0.385589 0.412366 0.066177 -0.368438 0.180126 0.063254 -0.017527 0.063724 -0.180796 1.379279 0.297993 -0.636650 0.408180 0.446460 0.795271 0.058595 0.054699 -0.586525 0.212097 -0.129497 0.407167 -0.407227 0.346216 -0.272456 0.421624 0.705165 0.197739 0.463673 -0.353120 0.299413 0.179693 -0.039255 0.740481 0.013304
al -0.033364 0.236844 0.418126 0.709067 0.175263 -0.183916 -0.348726 0.262692 -0.731037 -0.563050 -0.201866 -0.685051 -0.457603 -0.143981 -0.687171 -0.486221 0.267462 -0.464343 -0.289123 -0.924199 -0.148499 -0.026905 0.679192 -0.414604 0.352856 -0.169246 -0.223034 -0.647023 -0.292610 -0.783846 0.348345 -0.307843 -0.616562 0.008428 -0.150314 0.193836 -0.455536 0.431398 -0.602764 -0.382001 0.731956 -0.077470 0.183442 -0.260337 0.684125 0.158438 -0.294401 -0.205054 0.930849 -0.197056 0.507716 0.159748 -0.902741 -0.670963 0.420186 0.518893 0.197484 1.284122 0.208251 -0.049576 0.379518 0.927448 -0.017484 0.784583
in@@ -0.976487 -0.763690 -0.627678 -0.011881 -0.837495 -0.203908 0.234918 -0.238238 0.175817 0.004510 -0.237760 0.667709 0.539576 -0.231958 -0.185261 0.493599 0.772518 -0.276471 -0.466940 -0.383830 -0.137310 0.335221 0.282415 -0.649942 -0.805216 0.296602 0.187465 -0.588004 -0.448150 0.434739 0.009448 0.063065 0.048982 -0.557725 -0.984417 -0.140967 0.641372 0.532393 -0.731655 0.492491 0.493481 0.318310 0.119839 -0.161375 -0.591384 -0.848046 -0.371278 0.768803 0.295553 0.157658 0.165235 -0.549484 -0.162278 0.176410 -0.185353 -0.004009 0.181473 0.427501 -0.790707 0.808417 -0.263611 -1.420220 -0.703700 -0.791565
también 0.228956 -0.686158 -0.204199 0.225327 0.545028 -1.063689 -0.773794 -0.177132 -1.351225 -1.015587 -0.694153 -0.146490 0.329494 -0.044146 -0.369848 0.571378 -0.213051 -0.655147 0.950051 1.510513 0.452438 0.821770 -0.120699 0.659852 0.564633 -0.646517 0.642253 -0.195834 0.788934 -0.161986 0.541604 0.308529 -0.662591 -0.483069 0.733352 0.465499 -0.470666 -0.670898 0.049744 -0.150388 0.076465 0.443170 -0.846166 0.000119 0.165338 0.987980 0.208945 0.395717 0.393338 0.422961 0.517385 -0.097112 0.053077 0.172229 -0.226386 0.607778 0.936937 0.627269 -0.299658 -0.191162 -0.934132 0.499037 0.209703 -0.021926
p@@ -0.567008 0.208376 -0.299733 -0.176373 -0.077986 0.287716 0.212667 1.121280 -0.228197 0.441866 -0.603517 -1.040443 0.202116 -0.426037 0.108688 0.404188 0.451936 0.365226 -0.410934 -0.616182 0.819595 -0.651363 0.942328 -0.292438 0.783205 0.306997 0.411042 -0.046029 -0.534756 -0.861907 0.038429 0.660051 0.136484 0.330502 -0.186166 0.899348 -0.686765 0.604808 0.395579 0.816637 1.202108 -0.477282 -0.283318 -0.448207 -0.436640 0.155282 0.750635 -0.274664 0.987779 0.149679 1.508054 -1.312054 0.141220 -0.086689 -0.105699 1.031133 0.091406 -0.091071 -0.507278 0.824810 -0.368655 -0.109276 -0.102072 0.189017
os -0.672159 0.527897 0.081774 -0.042776 0.136902 0.726655 -0.172185 0.756421 -0.544010 0.238493 0.287737 0.013016 0.594121 0.034104 -0.609309 0.189678 0.040641 -0.578577 -0.146734 -0.260678 -0.003562 0.305496 0.529689 -0.207287 -0.017857 0.069183 -0.040022 0.153512 -0.262091 -0.419030 -0.990180 0.246515 0.600095 -0.504699 -0.505129 0.272966 0.611268 0.333770 -0.030617 -0.174140 0.647348 -0.088109 0.576892 -0.064100 0.040286 -0.540015 0.193780 -0.306773 0.344450 -0.513030 0.881434 -0.524538 -0.728791 0.372061 0.072757 -0.174266 -0.653451 -0.041411 0.243740 -0.152966 -0.051348 0.442509 -0.271247 -0.025581
mm 0.354972 -0.378775 -0.414779 0.314464 -0.751745 0.317299 -0.064286 -0.511549 0.255442 0.185077 -0.179074 -0.189309 -0.200601 -0.070708 0.287751 -0.235895 0.425822 -0.711649 0.451793 -0.381093 -0.492644 -0.156247 0.652804 0.688566 -0.402041 0.392930 0.485943 -0.567626 -0.172840 -0.609419 0.467065 1.206913 -0.019697 -0.920944 0.333124 0.185498 -0.095494 0.542413 -1.036470 -0.095601 -0.429002 -0.059608 0.443281 0.080335 0.277777 -0.747706 -0.354547 -0.228907 0.480073 -0.875550 0.583900 -0.752300 0.126463 -0.382811 -0.509187 0.726260 -0.174006 0.943064 0.096654 -0.397827 0.099815 0.222257 0.127445 -0.066283
oh -0.302455 0.383139 0.524844 0.291128 -0.326276 0.158088 0.116882 0.601000 -0.347439 0.187946 -0.635913 -0.805316 -0.408445 -0.124642 -0.252220 0.311064 0.022835 0.058493 -0.202737 -0.317067 -0.638114 0.190421 -0.265408 -0.171596 -0.507221 0.300844 -0.492500 0.185016 -0.314680 -0.189259 -0.329577 -0.015205 -0.372290 -0.192339 0.380936 0.271711 -0.204391 -0.053521 -0.589291 0.404444 -0.340397 -0.403403 0.580639 0.122354 0.486156 -0.083370 -0.308331 -0.807442 0.122633 -0.196562 0.291515 -0.637290 -0.017532 -0.659285 0.574145 0.274053 -0.195364 0.700891 -0.228443 0.002957 0.147458 0.381327 0.606683 0.060387
ta 0.827235 -0.220789 -0.323872 1.166581 -0.841212 -0.132590 0.856313 -0.016352 -0.505951 0.392847 0.068629 -0.654869 0.680850 -0.699723 0.246602 0.335074 -1.045245 -0.014747 0.272926 0.855346 0.355536 -0.805461 0.359652 1.660639 0.810652 -0.361515 -0.148145 0.024910 0.764111 -0.799334 0.156963 0.268589 0.005857 0.452541 -0.199413 -0.133099 -0.469504 0.814828 -0.261197 -0.650787 0.330135 -1.277328 -0.292639 0.341685 0.527331 0.560951 0.470123 0.672240 0.680798 1.677152 1.028072 -0.399939 -0.178019 1.083704 -0.693343 -0.354751 -0.264982 0.505758 -0.581882 -0.701150 0.187449 0.434133 0.094080 -0.233884
sé -0.192455 0.429425 0.813906 -0.176202 -0.037374 0.189411 0.445081 0.518474 -0.549294 -0.353496 0.748524 -0.012445 -0.546312 -0.842336 0.641062 -0.076401 0.908750 0.549987 1.059912 -0.198352 -0.890842 -0.107678 0.759941 -0.166107 0.022154 0.922052 0.189942 0.079196 -0.532838 -1.276434 -0.774186 -0.130306 -0.326622 0.229245 -0.450548 0.262901 -0.479167 0.318814 -0.888626 -0.010911 -0.217931 -0.608184 0.101912 0.322473 0.571703 -0.522536 0.290964 -0.647070 0.919400 0.351009 1.349713 -1.315710 -0.234290 0.031131 0.498395 0.415675 -1.091550 0.454635 0.125885 0.440428 0.350926 0.347674 -0.158978 0.102901
l@@ 0.003469 0.371551 -0.003912 -0.117218 0.298192 0.829881 -0.166393 -0.512809 0.602055 0.067171 -0.282851 -0.169277 -0.186871 0.088663 -0.612983 0.230735 -0.061698 0.429722 0.286088 1.128551 0.612778 0.416126 0.322243 0.621811 0.443130 -0.211215 -0.698130 -0.153688 -0.280632 0.669124 -0.681250 0.373441 -0.191066 0.612000 -0.738984 0.449125 -0.192766 -0.528358 0.293642 0.710200 1.198114 0.355814 -0.657402 -0.687891 -1.269105 -0.256722 0.024375 0.745756 -0.479640 -0.445812 -0.662336 0.261672 0.178011 0.820614 -0.456583 0.435763 -1.179296 -1.592432 -0.536561 1.144644 0.017137 -1.122879 0.139173 0.107460
ci@@ 0.114234 0.810747 0.921815 -0.467633 0.463582 -0.020829 -0.500557 0.108544 -0.168248 0.604930 -0.143894 1.495129 -0.097276 -0.200219 0.348398 -0.977105 -0.317964 -0.773542 -0.052391 0.548596 -0.097497 0.923565 0.406675 -0.065151 -0.131106 1.360103 -0.794135 0.198066 -0.249246 -0.411342 -0.313156 -0.278882 0.404112 0.656619 -0.579828 -0.202930 1.009117 -0.915976 0.309251 -0.515458 0.509848 0.582694 -0.728305 0.596143 -0.093968 1.062121 -0.219926 -0.650242 -0.197445 0.348682 -0.161625 0.522387 -0.856722 0.176616 -0.127307 -0.571361 -0.971005 0.581868 -0.562337 0.044099 -0.130569 -0.629032 -0.691208 0.312913
uno 0.231774 -0.018457 -0.422851 -0.496138 -0.842595 -0.528272 0.694215 0.149219 -0.160499 0.067794 0.531322 -0.914381 -0.566881 -0.606115 0.072896 0.132667 0.928101 0.201793 0.055896 -0.085287 -0.604874 -0.251912 0.503661 -0.104650 -1.081346 -0.517927 -0.122499 -0.153688 -0.016047 -0.737712 -0.536242 -0.402549 -1.030437 -0.178170 0.425141 0.214046 0.094276 0.845759 0.225423 -0.112081 -0.777216 -0.582817 -0.144003 0.062269 0.313886 -0.686989 -0.129952 0.020437 1.330528 1.574610 0.710358 -1.219547 -0.940565 -0.336678 -0.017632 -0.052536 0.076303 0.932256 -0.730856 0.827266 0.117033 -0.616597 -0.055591 0.073314
todo -0.045961 0.645260 -0.615491 0.066900 0.024454 -0.154953 -0.999842 -0.896712 -0.173486 -0.519994 -0.461467 0.090869 -0.605392 -0.135227 -0.231267 0.533069 -1.156371 0.261112 0.785710 0.967759 -0.098386 1.079582 -0.549458 -0.980456 -0.518349 -0.671210 -0.511170 0.241963 0.632196 0.436164 -0.235439 -0.842269 0.387554 0.746186 0.009913 0.165640 -0.191971 -0.347714 -0.422935 0.224717 -0.796055 -0.170037 0.431252 0.594574 -0.591913 0.734918 0.097906 -0.756096 -1.156808 0.433379 -0.580263 0.871106 -0.547247 0.454574 0.894653 -0.896639 -0.511381 -0.229453 0.535553 -0.693154 0.869370 -0.142278 -0.468945 0.211778
u@@ 0.633188 -0.766825 -0.073532 0.808823 0.792945 -0.991684 0.238542 -0.420378 -0.253079 -0.169049 -0.089829 -0.671979 0.128958 0.895165 0.230978 0.357811 -0.338250 -0.690524 -0.199993 1.131697 1.111153 0.217480 -0.003381 0.751953 0.043585 0.026633 -0.098575 -0.899830 1.302443 0.620951 1.003721 -0.312006 0.465220 0.551824 0.877540 0.638149 -0.051989 -0.587882 0.490338 0.632390 -0.016019 1.527834 -1.035687 -0.053955 -0.390442 -0.000067 -0.026568 0.736207 -0.115773 -0.113142 -0.346103 1.245293 0.602864 -0.259002 0.620633 -0.018589 -0.475589 -0.755350 0.315879 -1.104121 0.106521 0.653358 -0.061058 0.125612
to -0.290481 0.539644 -0.032843 0.302448 -0.035555 0.743208 0.387926 0.367968 -0.213725 -0.053857 -0.384878 -0.490506 -0.273888 -0.621932 -0.473375 0.482086 0.280491 0.291178 0.194804 -0.572377 0.168665 -0.377723 0.665394 -0.000786 -0.367496 0.267056 -0.070772 -0.655551 0.017369 -0.648155 -0.021363 -0.026437 0.296651 0.158106 0.455528 0.355602 -0.367947 -0.359323 0.172620 -0.331462 -0.090339 -0.562025 0.621275 0.273537 -0.342735 0.198129 0.399851 -0.194229 -0.098034 0.330946 -0.001916 -0.241666 0.108884 -0.228548 -0.031576 0.881664 0.374366 0.192166 -0.574323 0.161856 0.239911 0.030087 -0.281383 -0.185360
f@@ -0.420800 0.387189 0.485768 0.281391 0.320732 0.348422 -0.048436 0.394421 0.138121 -0.238161 -0.129715 -0.221645 -0.116014 -0.102987 -0.199838 0.016913 -0.046811 -0.281622 -0.091603 -0.305756 -0.121462 0.237796 0.208999 -0.022926 -0.123652 0.235767 -0.268367 0.085398 -0.399064 -0.334157 -0.423391 0.212339 -0.006097 -0.007944 0.294031 0.056830 0.109661 -0.000506 -0.634909 0.499142 0.005069 0.756490 0.404137 0.416731 -0.021434 -0.262912 -0.454955 -0.645941 -0.199647 -0.234066 0.246290 -0.075395 0.224493 0.066813 0.211346 0.114488 -0.547710 -0.800636 -0.044318 0.028570 0.188958 0.370440 0.130742 0.000592
er@@ -0.395614 0.882188 1.060548 0.215234 0.415369 -0.025468 0.155324 0.642413 -0.409859 -0.781827 0.333651 0.160071 -0.182634 0.625964 -1.086954 0.397454 0.423389 0.232580 0.879027 -0.195606 -0.027871 -0.368240 -0.038072 1.083842 0.777269 -0.231180 0.023957 -0.352929 0.342519 -0.107991 -0.270783 -0.761634 -0.696603 0.286528 0.906483 0.122004 0.618270 -0.711522 -0.904774 -0.854910 -0.246290 0.074859 1.200233 0.079764 0.021173 -0.180339 0.132419 -0.514239 0.245434 0.328286 0.578909 -0.039765 -0.230559 0.001491 -0.015028 -0.021411 0.044811 0.294295 0.261480 0.451322 -0.122793 1.169206 0.214725 -0.058591
sea -0.086846 0.662730 0.414509 -0.090004 0.144236 0.247679 -1.002130 0.315680 -0.083645 -0.302544 0.602358 -0.429703 -0.482670 0.345839 -0.234589 0.334365 -0.227348 -0.103639 -0.128977 -0.227435 0.314359 -0.188996 0.711670 0.098558 -0.108551 0.660832 -0.486211 -0.683219 -0.552624 -0.635590 -0.491212 0.098491 0.178299 0.150333 -0.205787 -0.316474 0.462594 -0.098783 -0.158782 0.556186 0.284260 -0.190850 -0.182794 0.506599 -0.022174 0.200452 -0.079345 -0.887670 0.019723 0.888965 0.827689 -0.646306 0.277628 -0.213742 -0.528596 0.771867 -0.505245 0.856012 -0.364535 0.037709 0.793816 0.684140 0.294760 -0.089095
ti@@ 0.069587 -0.132895 -0.037080 -0.088087 -0.794381 -1.254032 -0.336678 -0.526628 0.568342 -0.560919 -0.471206 -0.190417 0.253749 0.560659 -0.228093 -0.554392 0.084565 0.037980 -0.063482 -0.542712 0.965171 0.084340 0.594507 -0.710938 0.093141 -0.545054 -0.047896 -0.496422 0.589220 0.109017 0.412619 -0.025157 0.653162 0.059030 0.305930 0.537372 0.035865 -0.105420 -0.384996 -0.437330 -0.379769 -0.822773 0.401759 -0.914505 0.982327 1.035744 0.634607 0.527328 0.320419 -0.538474 -1.612634 0.551322 1.599077 -0.034037 -0.248198 0.485827 0.388641 1.240611 -0.212454 0.067693 0.092430 0.057267 0.158744 0.259856
v@@ -0.332212 0.572611 0.118158 -0.197132 0.404282 -0.356835 -0.175074 0.486817 -0.537409 0.050279 0.025598 -0.295245 -0.453472 -0.022134 0.059926 -0.145176 -0.041278 -0.299102 0.155835 -0.602533 0.103735 0.066212 0.397092 0.064363 0.239218 0.077906 -0.068260 0.137612 -0.409900 -0.192569 -0.185933 -0.054856 -0.085788 -0.025159 -0.050954 0.182289 -0.292872 0.487598 -0.632821 -0.221032 0.182939 -0.056598 0.041868 0.395922 0.469634 -0.354446 0.096559 0.163864 0.004943 0.197426 0.368718 -0.370150 0.129654 0.165307 0.007335 0.032631 -0.733452 -0.097081 -0.496767 0.113521 -0.050877 0.235746 0.008039 0.156391
an@@ -0.345155 -0.249840 -0.522573 -0.902055 0.516051 0.548650 0.862013 0.126330 0.019950 0.235946 0.214834 -0.849637 -0.113564 -0.068852 0.020329 -0.245501 0.060083 0.148253 -0.147731 0.302192 0.174385 -0.018378 0.274566 0.108435 0.628117 0.881054 -0.144915 0.462924 -0.670970 -0.313086 -1.472942 0.558825 -1.116586 -0.275583 -0.353437 -0.395575 -0.262362 -0.197044 0.767768 0.403595 -0.103505 -0.286768 -0.474198 -0.168900 -0.165621 0.263333 0.385460 -0.660673 0.004410 0.200869 0.134038 -0.531245 1.414788 -0.808132 0.381255 0.266812 -0.680194 -0.737656 0.263135 0.237236 -0.537672 -0.367307 0.667232 -0.326054
aquí 0.096380 -1.018443 -0.734427 -0.350464 -0.777895 -0.636411 0.878402 -0.123086 1.124492 0.495267 -0.257250 1.374698 -0.232048 0.438269 -0.458422 0.614558 -0.022243 0.167120 0.356363 -0.033740 -0.234272 -0.778425 -0.491703 0.518726 0.002982 -0.597796 0.494902 -0.350450 0.131451 0.041051 0.497760 0.332640 0.519081 1.288786 0.490176 -0.146663 0.373266 -0.110302 0.986851 -0.759088 -0.536862 -0.628113 0.271726 -0.288140 -0.507231 1.072803 0.021760 -0.124365 -0.523639 0.668413 -0.933237 0.126356 0.412376 -0.060702 -0.961580 -0.701306 0.460977 0.115541 0.048561 -0.047625 -0.248715 -0.108585 -0.597743 -0.033661
an 0.140156 0.509896 -0.285604 -0.592773 0.055663 0.186479 0.002736 -0.936307 -0.831738 0.048040 -0.112989 -0.277790 0.540003 0.488314 -0.005518 0.197844 -0.505072 -0.370916 -0.536169 -0.142794 0.609606 1.083433 -0.429209 0.516846 0.227315 0.176191 -0.112173 1.192561 0.627415 0.368016 0.142553 -0.759619 -0.086181 0.103757 0.537106 -0.162169 -0.673603 -0.814284 0.326452 0.215981 0.859029 0.344769 0.370300 -0.126143 -0.421993 0.283061 0.234469 0.425682 -0.012308 -0.100006 0.422175 -0.245176 -0.294702 -0.218213 0.344148 0.215823 -0.242799 -0.910352 -0.353850 -0.006607 0.088328 -0.948633 0.077077 1.864693
son -0.460673 0.019968 0.210425 0.286178 0.397393 0.284157 0.716061 0.225998 -0.201467 -0.485120 -0.031923 -0.356790 -0.533375 -0.060434 -0.225170 0.252065 0.524626 0.015245 -0.144938 -0.721437 -0.037738 0.181763 -0.204011 -0.284408 0.140060 -0.122575 -0.027176 0.200562 -0.380679 0.185756 -0.854753 -0.462723 -0.514396 -0.277058 0.132812 -0.185759 -0.059687 0.004062 -0.343606 0.390460 0.075998 0.029460 0.667183 0.322183 0.266245 -0.433478 -0.313545 -0.001123 -0.101153 0.489646 0.147798 -0.518052 0.478776 0.061848 0.525415 -0.211654 -0.125504 -0.343604 -0.112769 0.213913 -0.234250 -0.196642 0.367166 0.226310
si@@ -0.122061 0.346639 1.270500 0.153883 0.470733 -0.076226 0.567580 0.900061 -0.464659 -0.283118 0.679527 0.262326 0.358978 -0.361722 0.594254 -0.322607 0.490522 0.497385 -0.179192 -0.018606 -0.324689 0.780223 -0.400809 -0.674261 0.057153 0.070655 -0.831882 -0.036896 -0.628218 -1.013594 0.404278 -0.101483 -0.709874 0.724537 0.076676 0.122490 -0.106043 -0.041324 -0.221375 0.258922 0.002739 -0.040948 0.619466 -0.071231 0.063737 -0.377466 0.318596 0.679788 0.452078 -0.460906 -0.023385 -0.781588 -0.634868 -0.914766 0.153585 0.311021 0.141678 0.463291 -0.378879 0.755028 0.393598 0.489833 0.483875 -0.203879
ar@@ 0.125581 0.248902 -0.902910 -0.635845 -0.339722 -0.056613 -1.237912 -0.397018 -0.144656 0.253705 -0.051413 -1.121450 -1.422971 -0.019191 -0.276080 0.010833 0.032970 -1.057737 -0.448393 0.518095 0.947715 -0.057649 -0.417751 0.019603 -0.024830 0.111657 -1.497869 -0.677615 0.218574 0.732791 0.440301 -0.785012 -0.257678 -0.255132 -0.162245 -0.069868 -0.512854 -0.397753 -0.426628 0.487340 -1.169968 0.689223 0.345729 0.585004 -0.748926 -0.268323 0.169592 1.574560 -0.146300 0.338828 -0.498479 0.401221 1.269520 0.064075 -0.344457 -0.892678 -0.205663 -0.303454 0.127308 -1.035857 1.244026 -0.883428 -0.336278 0.845725
re@@ 0.305489 0.831769 -0.150077 -0.662360 -0.073551 -1.063055 0.981315 -0.694192 -0.645169 -0.198951 0.644646 -0.308128 0.147396 0.924105 -0.814362 0.752869 -0.222294 -0.388390 0.734986 0.311051 -0.422056 0.090021 -0.651143 1.008418 0.514120 -0.327512 1.227728 0.897766 0.755244 0.420120 0.305057 0.157266 0.420110 0.934584 0.504063 -0.861172 0.311437 -0.895308 0.361270 -0.687739 0.223258 0.580918 -0.150256 0.253413 -0.348418 -0.449571 -0.401283 0.332909 -0.303397 0.535836 -0.247368 0.756636 0.245680 0.543031 -0.694451 -0.288361 0.477833 -0.172385 -0.192360 0.125999 -0.971669 0.082449 0.606050 0.230851
do -0.788002 0.248342 0.465487 0.258282 0.260926 -0.380459 0.491426 0.032279 0.090282 0.040151 0.033235 0.837735 0.298524 0.284203 -0.210478 -0.065358 0.411202 0.582762 -0.130338 -0.483000 0.070675 0.620408 -0.126673 0.195786 -0.223232 0.538957 0.283406 0.259475 -1.073871 0.344997 0.005228 0.233507 -0.198988 -0.504647 0.196587 0.118961 0.014925 -0.047853 -0.267564 -0.513742 0.396290 0.074650 0.749382 0.105176 0.130561 -0.619606 -1.268488 -0.258884 -0.497693 -0.949513 -0.267848 0.113299 -0.004132 0.091607 -0.404644 0.230707 -0.522627 -0.288456 -0.005005 -0.012086 -0.435372 0.313446 0.332709 -0.415540
ado 0.866274 0.187190 0.086666 -0.236806 -0.485482 -0.103410 -0.255698 0.433791 -0.063082 1.206919 -0.787698 0.305246 0.576777 0.107479 0.174266 0.490477 -1.211704 0.319423 -0.103590 0.847557 0.110835 0.095869 -0.435910 -0.852760 0.928065 -0.290636 -0.977041 -0.650935 0.093054 0.721679 0.588503 0.074176 1.023584 0.642700 0.517388 0.234097 1.351252 -0.112674 0.757299 -0.979015 0.333485 -0.290465 0.825374 -0.683757 0.068578 0.631310 0.126838 0.094620 -0.506299 0.593675 -0.083291 0.151024 -0.664486 0.362241 -0.693651 0.238442 0.997215 -0.447861 -0.565849 0.271913 0.126480 0.298461 0.333787 -0.165875
gente 0.669567 0.039147 -0.643780 -0.267548 -0.293520 0.271010 0.151802 0.415912 -0.478137 0.212227 -0.633959 -0.228199 -0.519613 -0.113218 -0.423134 0.649138 0.219174 -0.574919 0.162645 0.688549 -0.225641 -0.277318 -0.345176 -0.783333 -0.614283 -0.839450 1.276286 -0.557364 1.366240 -0.346099 -0.152759 -0.513737 -0.287385 -0.047778 -0.091260 1.019335 0.019591 0.665027 1.234275 -0.918167 -1.611157 -0.880873 -0.675304 -0.721230 -0.653899 -0.087346 0.902985 0.524375 0.639797 1.674250 0.694531 -0.477873 -0.502422 -0.242862 -0.920155 -0.138789 0.344815 0.152108 -0.430184 -0.146116 -0.226974 -0.517400 -0.530469 0.226798
en@@ 0.163730 -0.149697 -0.346193 -1.121577 0.683258 -0.371393 0.178277 0.626229 0.017006 -0.664036 -0.320440 -0.101412 0.634235 -0.534719 -0.669983 -0.328864 -0.589441 0.033814 -0.373757 -0.150927 0.676525 0.704162 -0.294702 0.517298 0.731636 0.853369 -0.350165 0.787203 0.038622 0.968790 -0.394725 0.030883 -0.420553 -0.046916 -0.032368 -0.175314 0.437682 -0.116335 -0.117820 0.385316 1.139864 0.047583 -1.021652 0.074817 0.551284 0.234695 -0.085639 -0.022164 -0.819150 -0.272887 0.267404 -0.701269 0.420992 1.038156 -0.176729 -0.095157 -0.605466 -0.746910 0.026897 0.347088 -0.955228 -0.299713 0.626329 1.713459
ando -1.185395 0.096414 -0.464631 0.238739 0.173249 -0.428257 -0.040601 -0.670514 -0.703219 -0.414313 -0.440307 -0.356509 0.766450 -0.005907 0.040286 0.058331 0.146433 -0.112564 -0.014048 -0.277725 0.582143 0.424373 -0.349340 -0.341640 -0.205561 -0.523937 -0.319258 -0.401963 -0.665880 0.125162 -0.064481 -0.263581 0.221855 -0.460485 -0.325579 0.736442 0.196034 -0.323037 -0.401865 1.208605 0.148878 0.193714 -0.087005 0.619009 0.469954 -0.826139 -0.943996 0.840291 -0.394937 -0.013354 0.500776 -0.298584 0.961236 0.420261 -0.752752 1.173243 0.051676 -0.162567 -0.020899 0.414944 -0.636871 -0.477098 -0.393138 -1.083098
tiene -0.311918 0.379314 0.170206 0.203923 0.203228 0.226710 -0.318022 0.203771 -0.220271 -0.330282 0.543089 -0.492482 -0.289062 -0.391681 0.170079 0.041954 0.376779 -0.165929 0.109518 -0.106828 -0.302650 -0.154300 0.272562 -0.389148 0.007928 0.314406 -0.038649 0.117903 -0.759775 -0.583719 -0.821992 0.280414 -0.302123 -0.211595 0.416040 -0.220290 -0.185359 0.100577 -0.033971 -0.024811 -0.309010 0.006038 0.298534 -0.151148 0.073087 0.079921 0.165758 -0.701838 0.341578 0.239687 0.771075 -0.411864 0.315130 -0.173273 0.107851 0.438719 -0.145340 -0.252412 -0.205877 0.363468 0.166121 0.330427 0.086743 0.211786
mucho -0.241996 0.257052 0.033236 0.484811 0.101741 0.223559 0.109132 -0.250067 0.003676 -0.025528 0.239782 -0.626651 -1.008294 -0.031344 -0.352515 0.185414 0.103645 -0.024483 -0.092955 -0.522148 -0.179994 0.127728 0.806712 -0.025196 -0.396614 -0.205933 -0.008272 -0.103761 -0.361363 -0.332039 -0.661679 0.659994 -0.308110 -0.043415 0.551156 -0.040299 0.104448 0.527177 0.050664 -0.157713 -0.201505 0.023693 0.310381 -0.183425 0.445691 -0.029701 0.216028 -0.395818 0.140240 0.156008 0.356942 -0.641005 0.760044 -0.309800 -0.311136 0.124762 0.076201 0.221529 -0.187611 0.082930 0.269242 0.376859 0.463905 -0.120694
era -0.671355 -0.044131 0.598672 0.021130 0.087000 0.425066 -0.159546 0.174510 0.920872 -0.244046 1.428510 1.168776 0.118114 -0.104916 0.586106 -1.009100 0.541011 0.042832 -0.108959 -0.878179 -0.232861 -1.198003 0.134636 0.067655 0.652735 0.573435 0.739443 -0.575024 -0.691830 -0.887788 0.483783 0.561292 -0.575455 -0.416785 -0.672075 -0.154036 1.226476 0.490879 0.367447 -0.621899 1.077877 -0.228876 -0.461731 -0.096252 -0.633402 -0.164481 0.128895 -0.157264 0.506880 0.266528 -0.439521 -0.315829 -0.501651 0.124721 0.092800 0.155627 -0.303600 0.452544 -0.805599 0.761566 0.455337 -0.415493 -0.817520 -0.202074
cómo -0.514727 0.138667 -0.161486 0.192628 -0.570941 0.189525 0.249824 0.163465 0.045102 -0.236820 0.278825 -0.382723 -0.673092 -0.286620 0.048060 0.223057 0.265548 0.042651 0.322753 0.076133 -0.532709 0.287579 -0.109585 -0.843477 -0.845500 -0.027267 -0.393009 -0.595097 -0.274401 -0.327059 0.225203 0.405746 0.583551 -0.520183 0.121352 -0.197374 0.081484 -0.215835 -0.658199 0.629718 -0.920239 -0.494010 0.201212 -0.068633 0.134165 0.120537 -0.383869 -0.476003 -0.200195 -0.087367 0.002136 -0.600313 0.263686 -0.210027 -0.031119 0.473431 -0.296439 0.026647 -0.021307 0.293897 0.101869 -0.042245 0.215123 -0.378022
cuando -0.573766 0.222692 0.447719 0.002545 0.107979 0.080710 0.218500 0.014523 -0.238851 -0.259592 -0.417443 -0.322167 -0.565018 -0.068963 -0.099603 0.001290 -0.026150 0.123266 0.282779 -0.189137 -0.269418 -0.126855 0.602963 0.227638 -0.156418 -0.029901 -0.334010 -0.007309 -0.405747 -0.300713 -0.317423 0.196621 -0.393818 0.057059 0.320213 -0.248890 0.251871 0.377022 -0.503438 0.227198 -0.105090 0.180232 0.069185 0.236449 0.321813 -0.168985 -0.117415 -0.630398 -0.168283 0.049912 0.306354 -0.515836 0.140520 0.178635 0.000076 0.078564 -0.587778 0.121259 -0.423233 0.161246 -0.322594 0.230063 0.278533 0.126757
h@@ -0.057103 0.446628 0.172277 -0.835750 -0.245384 -0.013406 0.267395 0.130664 0.042326 -1.029920 0.508053 -0.901968 0.107507 -0.022574 0.650629 -0.231145 0.257890 -0.886908 -0.812989 0.362455 0.477403 -0.114504 1.369951 0.217180 -0.267368 0.612306 -0.477269 -0.587694 -0.430805 -0.608585 -0.716430 0.848120 -0.072427 -0.392556 -0.772650 0.450852 0.161762 0.437769 -0.455258 0.613025 0.704652 0.488821 -0.198776 0.173183 0.155968 -0.658358 0.176520 0.225648 0.921528 0.285801 -0.071853 0.067743 -0.036346 1.067402 -0.551564 0.340943 -0.333884 0.498544 0.082665 -0.064318 0.107584 0.412217 0.139110 0.165657
creo -0.313376 0.386035 0.264036 -0.451922 -0.315838 0.035797 -0.766052 0.122510 0.208747 -0.319861 -0.004541 -0.397626 -0.539201 0.148220 0.184498 0.067035 0.459713 -0.456468 -0.323271 -0.076187 0.316425 -0.102022 0.315873 -0.230987 -0.368309 0.325228 -0.026704 -0.405328 -0.497492 -0.518529 -0.775967 0.519096 -0.160846 -0.278808 0.007731 -0.362114 0.315650 0.017382 -0.237088 0.623715 0.004486 -0.241507 -0.212853 0.847948 0.293414 -0.378192 0.013622 -0.515236 -0.138511 0.336802 0.371298 -0.584183 0.419510 0.009901 -0.509898 0.445011 -0.454252 0.871655 -0.031306 0.029863 -0.133430 0.429448 -0.129130 0.107256
este -0.213666 0.993872 0.296885 0.273077 -0.046084 0.693647 -0.050134 -0.265744 0.157125 -0.238451 -0.539382 0.175838 -0.554911 -0.003498 -0.987634 0.251426 0.421318 -0.418323 0.407974 -0.517842 -0.603396 0.477219 0.182523 0.376068 -0.202649 0.170747 -0.915073 -0.087219 -0.232589 0.819157 -1.131627 -0.030570 -0.345063 -0.683433 0.737045 -0.538114 0.491655 0.020664 0.030500 0.117450 0.746189 0.408923 1.241520 0.265431 -0.652668 0.101967 -0.232738 0.123590 0.655910 0.087842 0.270173 0.183425 -0.059776 -0.138257 -0.034726 -0.728653 0.093657 -0.222591 0.156461 -0.248882 0.313260 -0.312850 0.338957 0.587949
ó 0.233227 1.354431 0.046011 -0.857567 0.077802 -0.448790 -1.053213 -0.133317 -0.613798 -0.012010 -0.594804 -0.431481 -0.384473 0.545359 -0.526213 0.523286 -0.971810 -1.078055 0.858029 0.302482 0.769798 0.173038 -0.042378 -0.190146 0.104594 0.706070 0.071395 0.186850 0.691699 0.360695 -0.950423 0.040805 -0.283691 0.520978 0.279609 -0.934404 -0.028690 0.278136 -1.024636 -1.103856 -1.459906 0.224699 -1.280747 0.485473 -0.081849 0.801392 0.218630 0.036251 -1.129954 0.209270 -0.195670 0.950097 -0.165227 0.438985 -0.767880 -0.854929 -0.820582 0.102158 0.255303 -0.950372 0.195557 0.226014 -0.201895 0.749928
ía -0.338020 0.010347 -0.058318 0.060236 0.004119 -0.477327 0.031701 0.137523 -0.115592 -0.168974 -0.001031 -0.342484 -0.802211 -0.262521 -0.047328 0.196903 0.672820 0.148417 0.091061 -0.447866 -0.327258 -0.275383 0.168974 -0.067522 0.096124 -0.051409 -0.254815 -0.313992 -0.157563 -0.328139 -0.316663 -0.035647 -0.256414 -0.046778 0.262690 -0.082728 -0.269896 -0.015205 -0.787115 -0.000317 -0.446361 0.074099 0.383616 0.133604 0.469871 -0.303384 -0.034396 -0.552381 -0.033011 0.429639 -0.019130 -0.349093 0.069841 -0.736264 0.178409 0.025348 0.095934 0.558194 0.226928 0.108536 -0.136427 -0.010099 0.153369 -0.178708
al@@ -0.265910 0.378783 0.368074 0.143419 -0.201463 -0.817509 0.000394 0.293119 -0.335088 -0.156539 -0.185267 -0.196870 -0.140618 0.407265 -0.227649 0.438188 0.044013 0.867052 -0.930284 0.037140 -0.031342 -0.285323 0.983164 -0.369474 0.528725 0.191451 -0.069401 -0.004279 -0.511896 -0.493660 -0.202534 0.123219 -0.003331 -0.522921 -0.039352 -0.069057 -0.058286 0.244125 -0.489806 0.804027 0.826639 -0.678646 1.024920 0.413912 0.118011 -0.604655 -0.191244 0.143606 1.320393 0.041979 0.363670 0.057469 -0.484828 -0.736227 0.579217 -0.188205 -0.146097 0.287270 -0.849102 -0.568749 -0.165291 0.489244 0.890792 -0.267138
verdad 0.241736 -0.757452 -0.350291 0.092062 -0.473929 0.663014 0.339352 0.727595 1.069573 0.828902 0.172149 -0.727313 0.733965 -0.972145 -0.251087 0.039367 0.020262 0.229880 -0.608409 -0.539257 0.330269 -0.814812 0.344317 0.422970 0.551145 -0.786952 0.329857 0.555791 -0.185715 0.562245 0.243601 0.372535 -0.119637 0.143594 -0.029223 -0.633737 -0.008101 0.218666 0.405939 0.292836 0.973202 -0.298326 -0.391062 -0.576336 -0.469234 0.424062 0.535585 1.563084 0.691360 0.590217 0.788758 -0.537249 0.373727 0.584723 -0.346309 0.089724 0.508847 -0.611020 -0.897070 0.023399 -0.564712 -1.061360 0.786879 0.533220
cu@@ -1.061550 0.811526 0.770385 -0.395231 0.376734 -0.182740 0.603590 0.743540 -0.312958 -1.055092 -0.384775 0.276614 -0.093328 -0.454663 -1.211028 0.385011 0.112151 -0.254348 0.721020 0.011251 -0.496560 0.300105 0.210062 -0.004401 0.229930 0.013286 0.445712 0.232852 0.183510 0.021536 -0.039923 -0.518234 -0.617336 -0.353913 0.397111 0.160197 -0.234191 -0.043052 -0.405488 -0.688983 0.179664 -0.286709 0.919171 0.260650 0.240796 -0.201833 0.061669 -0.294385 -0.454811 -0.316446 0.297570 -1.191240 -0.749800 -0.067363 0.274782 -0.055763 -0.009241 0.098260 0.047171 0.915088 -0.059868 0.566481 -0.165029 0.126956
da 0.168366 0.799993 0.040301 -0.290494 -0.533690 0.129658 -0.754650 -0.175362 0.837917 0.401940 0.188991 0.841068 -0.106569 0.383136 -0.607648 0.276047 -0.683820 0.147638 0.348554 0.485465 -0.063512 -0.447484 0.170018 0.250637 -0.141253 0.817329 -0.018083 -0.807424 -0.193395 0.596141 1.022953 -0.325661 -0.020499 0.958700 0.333699 -1.660284 0.931668 -0.852941 0.742818 -1.020593 -0.334842 0.272585 -0.046788 -0.508193 -0.286436 0.825743 -0.032096 -0.757805 -0.091065 -0.079607 -0.859944 0.178898 0.085121 -0.229643 -1.134053 -0.663526 -0.370942 0.184113 -0.464926 0.831784 0.371947 -0.457629 -1.096885 -0.331415
del 0.865864 -0.938589 -0.901102 0.251016 -0.526326 -0.270159 -0.060560 -0.656122 -0.570297 0.376977 0.134015 -0.200377 -0.206166 -0.344285 0.190311 -0.221341 0.299527 0.179191 -0.322519 -0.225381 1.388181 -0.870482 0.255654 0.969379 0.115213 -0.736979 -0.153547 -0.347942 0.219606 0.172004 0.682770 0.121549 0.399844 0.140112 0.057285 0.011667 0.196113 0.213812 0.578263 -0.108342 -0.185535 -0.225293 -0.375624 -0.614294 -0.726530 0.356180 0.291570 1.502396 -0.037013 0.598852 0.020743 0.393049 0.505167 -0.534198 -0.647861 0.534575 0.957971 0.215976 -0.107150 -0.253473 1.015609 -0.507838 -0.250681 0.024154
su@@ 1.135107 0.630020 -0.127624 0.085096 -0.369655 -0.359622 0.414501 -0.447540 -0.822467 -0.638657 -0.566637 -0.124695 0.550009 1.183822 -0.623968 -0.124039 -0.978896 -0.810318 -0.331907 0.574675 0.003784 0.507050 0.152519 1.146317 0.606852 0.271007 0.167340 0.211120 0.311547 1.221928 0.788609 0.750642 0.943815 0.626087 -0.055379 0.170182 0.242263 -0.486725 0.391094 -0.660300 1.233963 -0.013885 -0.088845 0.425468 0.800635 -0.317859 -0.075181 0.599524 -0.296192 0.453825 0.255942 0.193242 -0.395539 0.931516 -0.546872 -0.270032 -0.528537 -0.512972 0.043890 -0.301232 -0.483228 -0.450806 -0.256253 1.090152
con@@ 0.896659 0.610812 0.204179 0.785098 -0.308417 -0.149182 -0.169196 -0.134572 -0.011043 0.582423 0.228101 0.468760 1.383154 0.764668 -0.062609 -1.762704 -0.281071 0.411242 0.237760 -0.293324 0.816491 0.073805 -0.147652 0.330844 0.363044 -0.188074 -0.678367 -0.061168 -0.047647 -1.143716 1.480346 0.621253 0.015062 -0.055141 -1.058923 0.321586 -0.179020 -0.647419 -0.279531 -0.396246 0.802335 0.344654 -0.136122 -0.027532 0.275338 -0.226199 -0.442673 0.145897 -0.488583 -0.995173 -0.117661 0.174962 -0.576401 0.485493 0.731263 1.131003 0.271891 0.101093 -0.168423 -0.128329 -0.018372 0.150659 -0.019357 -0.953148
ahí -0.996692 0.447752 0.175370 0.031679 -0.158678 -0.002111 -0.264915 0.259651 -0.086404 -0.111195 0.127775 -0.233182 -0.198845 -0.133909 0.064329 0.325782 0.030313 -0.234822 0.221886 -0.517237 -0.039588 -0.305250 0.650672 0.052207 -0.369075 0.382663 -0.099606 -0.531016 -0.730731 -0.209876 -0.081188 0.402992 -0.517670 -0.285887 -0.549476 -0.067504 0.026131 0.040559 -0.666241 0.361208 0.257726 0.037856 0.238085 0.498116 0.335361 -0.374879 -0.043622 -0.392909 0.387189 0.147187 0.250343 -0.845277 0.266371 0.046947 -0.072202 0.527602 -0.417610 0.158633 -0.575812 0.423527 -0.206601 0.384282 0.041218 -0.185077
mi@@ 0.311315 -0.245980 -0.213265 -0.545341 1.075961 0.674547 -0.275939 0.358031 -1.021214 -0.422508 0.120470 -0.245110 0.827108 0.271198 0.875182 -0.328381 -0.512910 -0.474061 -0.107815 0.815251 0.157366 0.878952 -0.279989 0.214275 0.697825 0.222412 -0.184132 1.421877 0.129200 0.219232 -0.395753 -0.435096 -0.866737 -0.279965 -0.116033 -0.282854 -0.936585 -0.182525 0.065550 0.480653 1.412638 -0.286309 -0.594845 0.844620 0.296132 -0.804033 0.222828 0.481218 0.120352 -0.451188 0.912493 -0.130197 -0.126435 0.770020 1.159080 -0.737172 -0.303340 -0.192968 0.031543 -0.059041 -0.058579 -0.701192 1.011184 0.184681
tengo 0.125088 0.057842 -0.232455 0.015704 -0.726893 0.476669 1.512805 0.692273 0.143581 0.053768 0.194252 -0.497963 -0.298001 -0.374439 0.074610 0.471704 0.591604 0.428532 -0.324011 0.380483 -0.908981 0.642259 0.068649 0.331892 -0.725392 -0.148587 0.482628 0.535002 -0.546807 -0.101913 -0.836012 -0.036088 -0.854115 -0.993316 -0.037050 0.310679 -0.314930 0.208335 -0.548673 -0.731843 -0.634562 -0.502369 0.041247 0.169839 0.560687 0.258715 -0.267720 -0.024111 0.380855 0.634579 0.006488 -0.300857 -0.324404 0.223634 -0.278391 -0.579415 0.223894 0.062542 0.561506 0.065993 0.118690 0.380401 0.443322 1.006206
estoy -0.412072 -0.012128 -0.203142 -0.074989 0.115164 -0.087633 -0.134324 0.307288 0.295763 -1.562557 0.120143 -0.768540 -0.844584 -0.292512 0.361097 0.047088 -0.184986 0.331916 0.347100 -0.298867 0.014700 -0.417658 -0.105728 0.598815 -0.349533 0.137178 -0.033558 0.458379 -0.453120 0.056927 -0.574090 0.004118 -0.579871 -0.785029 -0.435817 0.026328 -0.919084 -0.179212 -0.949350 -0.140684 -1.433220 0.377627 0.728126 -0.023228 0.331776 0.089632 0.006303 -0.641109 0.546061 0.142586 -0.200273 0.791855 0.384047 -0.823860 -0.265021 0.461698 -0.154441 0.737437 0.694172 -0.896143 0.013689 0.983148 0.594771 -0.783461
n@@ -0.199630 0.288891 0.835578 0.536244 0.364336 -0.504349 -0.838052 0.620313 -0.510239 0.394438 0.020114 -0.758886 -0.662098 0.318508 -0.010100 0.147563 0.413200 0.033861 -0.228778 -0.288792 -0.084035 0.472111 0.215736 -0.541686 -0.236453 0.087735 -0.431691 -0.097230 -0.356716 -0.521891 -0.116871 0.215450 0.179925 -0.322508 0.308040 -0.126440 0.088750 -0.038915 -0.227947 1.037234 0.079538 -0.261123 -0.038115 0.259991 0.852509 -0.434547 0.062057 -0.316826 0.247674 0.136331 0.582553 -0.608919 0.239819 -0.232782 0.607544 0.791769 0.169459 1.064422 -0.511466 0.477833 -0.080086 0.446263 0.438653 0.155562
ac@@ -0.141510 0.290694 -0.029834 -0.795471 0.439324 -0.212891 0.149552 -0.293178 -0.949794 -1.264616 0.578564 0.509581 -0.276112 -0.126983 0.650296 0.092648 -0.137887 0.291007 0.682941 0.106659 0.257118 0.203552 0.612391 -0.257979 0.792431 -0.378478 -0.700660 0.114460 0.072277 -0.171457 -0.032786 -0.650561 0.723325 0.894642 0.223071 0.248263 -0.437656 -0.278469 -0.879387 0.091168 0.180624 -0.114337 -0.307536 0.039359 0.521592 -0.465860 0.378572 -0.916593 0.447641 -0.287039 0.339186 -1.109151 0.397511 0.265574 0.603457 1.143104 -0.319476 -0.102774 -0.163505 0.914899 -0.143411 -0.437198 0.047644 -0.173787
va -0.834708 0.449114 0.727223 -0.346767 -0.523459 0.872442 0.296242 0.453701 -0.193284 -0.209553 -0.239231 -0.276479 -0.929274 -0.532721 0.044731 0.411349 0.733616 -0.102225 -0.353187 -0.807464 -0.328613 0.154880 0.755027 -0.337219 0.567758 -0.065053 -0.093861 0.029089 -0.921239 0.299238 -0.295810 0.177704 -0.027014 0.274411 -0.414738 0.585750 -0.707014 -0.050876 -0.071639 0.608706 1.117105 -0.744906 0.152245 -0.134627 0.030661 -0.172269 -0.095021 -0.353085 1.219832 -0.129033 0.853785 -1.555645 -0.332919 -0.388038 -0.849773 0.675382 -0.847633 -0.445090 -0.781650 1.126917 -0.042010 0.312312 0.221906 0.598634
j@@ 0.221903 0.086636 0.103415 0.734157 -0.856990 -0.154583 -0.248388 0.611728 0.252264 0.429461 0.403564 0.723729 0.086980 -0.533225 0.049323 0.380763 0.503772 1.013773 1.140362 0.061956 -0.135119 -0.589229 -0.075095 -0.141085 -0.397993 -0.341142 -0.028331 -0.811284 -0.213066 -0.853027 0.026849 -0.144281 -0.414545 -0.192201 -0.039070 0.258388 -0.232035 0.179648 -0.337642 -0.470219 -0.271600 -1.011195 0.210810 0.225703 0.497491 0.059904 0.284321 -0.249727 1.113208 0.769286 0.308589 -0.898993 -0.513260 -0.553712 -0.867279 0.355066 0.486976 0.400323 -0.726290 0.254440 0.012928 0.778043 -0.221454 -0.581728
ellos 0.132727 -0.346351 -0.976512 -0.098596 -0.364003 0.431784 0.020402 0.561974 -0.184845 0.255526 -0.429242 -1.145442 -0.294979 0.074606 -0.191849 0.490868 0.613391 0.262302 0.136224 -0.441281 0.165222 -0.349243 0.817950 -0.901596 0.149352 0.084129 0.316140 -0.205575 -0.015398 -0.636159 -0.471435 -0.629929 -0.548813 -0.196326 0.320402 0.669185 -0.951567 0.547537 -0.119421 0.584777 -0.301569 -0.356737 0.479855 -0.052521 0.174490 0.042466 0.837841 -0.605584 0.073229 0.812333 0.932184 -0.396690 0.241435 -0.325412 0.151209 0.759920 0.099859 0.415827 0.399210 0.258440 0.019283 0.637314 0.669532 0.225959
él -0.162017 -0.392679 -0.337298 -0.560702 -0.091737 0.119182 -0.888803 -0.965053 0.876106 0.568714 0.162642 0.147596 -0.701530 0.379330 0.031980 -0.082036 -0.272650 0.211436 -0.822075 -0.154327 0.957405 -0.329338 -0.016833 1.263838 -0.818422 -0.073000 -0.583504 -0.430268 0.138305 1.068936 1.056654 0.488069 0.571660 0.822476 0.060681 -0.356243 -0.206260 -0.515808 0.844062 -0.186348 0.684039 0.817177 0.207610 -0.758491 -0.461098 -0.510887 0.283399 0.916549 -0.198495 0.830076 -0.241669 0.142567 1.145869 -0.352804 -0.974907 -0.106539 0.001767 0.085415 -0.540816 0.559416 0.455806 -0.625053 -1.094797 0.347953
ab@@ -0.740604 0.800850 1.020622 -0.366485 0.816711 1.111561 -0.148621 0.431071 -0.706584 -0.942918 0.193435 -0.145635 0.184728 -0.231706 -0.039621 -0.504439 -0.123610 0.169401 0.163757 -0.129111 0.379656 0.346551 0.332454 0.207400 0.837340 0.967956 0.016368 0.044013 -0.336263 -0.716446 -0.898449 -0.326588 -0.073275 -0.352324 -0.138173 0.295840 -0.517946 0.617629 -0.669431 -0.058402 0.685853 0.095194 -0.138381 -0.108442 0.333213 -0.825274 0.095991 -0.235955 0.479433 0.033497 0.981980 -0.458722 -0.408500 1.161345 0.305008 0.187495 -1.125693 0.356881 0.454904 -0.002510 -0.009721 0.929670 0.353259 0.501486
ahora 0.979739 -0.072588 -0.963363 -0.302814 0.964170 -0.687291 -0.352286 -0.887882 -0.516813 -0.932768 -0.833928 -0.764631 -0.298422 0.496969 -0.207333 0.378233 -0.725690 -0.323798 -0.024703 0.560118 0.910904 0.370517 0.335193 -0.249118 0.658853 -0.192245 -0.800032 0.663895 0.696239 0.628234 0.668296 -0.497510 0.136840 0.941852 -0.042719 0.768252 -0.775372 -0.425511 0.261275 0.540125 0.121204 0.743491 -0.165108 -0.558640 -0.315829 0.783841 0.097517 0.133650 -1.093090 -0.419749 -0.456239 0.806681 0.519537 0.519614 0.564921 0.053220 -0.102852 -0.746500 0.111242 -0.518413 0.181883 -1.079426 0.069014 0.633340
er -1.070285 0.130723 0.731678 0.192781 -1.144164 0.035472 -0.135008 -0.211992 0.324131 0.129726 1.162691 -0.130635 -0.067763 -0.077678 0.063305 -0.653771 -0.518088 0.330368 0.380950 -0.789464 -0.462217 -1.252189 0.872953 0.392682 -0.400620 0.372999 -0.160627 -0.380035 -0.616445 -0.307189 -0.032918 0.514490 -0.438337 -0.674238 -0.507726 -0.127795 0.711660 0.875740 -0.375747 -0.211148 0.588251 -0.541444 -0.521287 0.737212 0.267486 -0.881845 -0.045349 -0.742198 1.066548 0.449609 0.737896 -0.991557 0.673645 -0.121828 -0.645132 0.247930 -0.535525 0.925176 -0.674088 0.478404 0.355077 0.529245 -0.617836 -0.573092
uh -0.885923 0.114414 -0.607889 -0.147434 -0.489008 0.116778 0.207970 0.163963 0.483703 0.578708 0.428116 0.209192 0.313189 -0.854878 0.436449 -0.117704 0.258438 0.429692 -0.233596 -0.831274 -0.261467 -1.042050 -0.061957 -0.945507 -0.788254 0.106164 0.580927 -0.770135 -0.563638 0.138082 0.093387 0.533743 0.266734 -0.492343 -0.702581 -0.020960 -0.555055 0.013309 0.336628 0.411310 0.393572 -0.145045 0.490897 -0.728393 -0.198784 -0.402179 -0.071639 -0.591847 0.240636 -0.323504 0.479802 -0.585354 0.609978 -0.650806 -0.267229 0.697455 0.519283 0.087071 0.158524 0.832206 -0.176074 0.089627 -0.107814 -0.623975
dos 0.863133 0.270790 -0.206068 0.006314 -0.603099 0.224525 -0.570039 0.010868 0.087847 -0.751468 -0.654154 -0.113932 0.206709 -0.336273 -0.084716 0.159487 0.070701 -0.796094 0.046713 0.180426 -0.061035 0.051252 -0.297094 -0.005408 -0.430239 0.702345 0.239341 -0.715937 -0.618103 -0.333281 0.526709 0.335187 0.285153 -1.061206 0.581312 0.222409 -0.754886 0.207332 -0.867167 -0.413682 -0.239152 0.166852 0.155689 -0.064364 0.160191 -0.329875 0.458879 -0.428765 0.146382 -0.092940 0.086864 -0.445372 0.625361 -0.094543 0.398595 0.637153 -0.648392 -0.014375 -0.179793 -0.004421 0.180158 0.001127 0.469966 -0.785992
ri@@ -0.410711 0.024538 -0.176134 -0.368570 0.142662 0.632949 0.302590 -0.297584 0.437771 0.138499 0.967230 -0.207423 -0.468172 -1.134184 1.251604 -0.315916 0.819107 0.472654 -0.715227 -0.719619 0.345452 0.212808 0.254121 -0.317764 -0.078735 0.710376 -0.440326 0.037034 -1.523918 -0.349945 -0.398477 0.594701 0.351232 -0.391392 -0.138075 -0.580144 -0.114620 -0.336110 0.122504 0.336868 0.702979 0.425707 -0.000027 -0.444604 0.332505 -0.225158 -0.203832 0.010139 0.154591 -0.530969 0.319018 -0.527011 0.650030 0.398821 -0.037117 0.819387 -0.434243 -0.454541 0.470259 0.972436 0.347538 -0.216789 0.442355 0.668442
años 0.579171 0.123653 -0.798784 -1.203632 -0.565821 0.636710 -0.774115 -0.342550 -0.502784 0.536139 -0.489386 -0.707904 0.659592 -0.248747 0.201686 0.034069 -0.278110 0.255090 -0.022784 -0.051186 0.469335 -0.336695 0.009913 -0.589100 -0.004391 -0.001696 0.197034 0.339984 0.146033 0.198402 1.044097 0.465479 0.004987 0.559837 -0.726048 -0.184371 -0.531051 -0.514147 1.157102 -0.761096 0.756468 0.604452 0.098432 -0.927776 -0.810291 0.172096 0.656849 0.431582 0.323568 0.401363 -0.304816 0.351720 -0.335633 -0.256282 -0.651074 0.493628 0.506935 -0.386895 -0.915811 0.932932 0.084345 -0.789020 -0.576574 0.052873
í@@ -0.397035 0.866559 0.506585 0.180328 -0.574654 -0.079055 0.195034 -0.031489 -0.175089 -0.333750 0.390185 0.675012 0.857079 -0.120050 -0.904690 -0.334760 -0.441765 0.725983 0.338432 -0.084648 0.020178 -0.186592 -0.056679 -1.045861 -0.008468 0.262343 -0.099280 -0.658651 -0.481746 0.296013 0.304692 0.087414 1.072897 -0.388231 -0.295781 0.630751 -0.029701 -0.085463 -0.255656 -0.372320 0.327800 0.524924 0.481724 -0.353258 0.198844 0.365311 0.553732 -0.511835 -0.192968 -0.065727 0.748476 0.222371 -0.989387 -0.136103 -0.164599 0.693313 0.545350 0.258874 0.193606 0.229081 0.505838 0.011887 0.370413 0.154444
cosas -1.010849 1.299250 0.748341 0.206067 -0.271080 0.410158 0.927276 0.019738 0.825631 0.406001 0.609932 1.084981 0.206808 0.231198 -0.869073 -0.103750 -0.350396 0.584447 0.478870 -0.470818 -0.358221 1.356964 -0.036953 0.337649 -0.759702 0.457893 0.473260 -0.251253 -0.558785 0.788740 -0.195831 0.830152 0.417868 0.350489 -0.927445 -0.655060 -0.325656 -1.228172 -0.080094 0.765431 -0.214775 0.511382 0.309634 -0.012914 0.086918 -0.047601 -1.171411 -0.489781 -0.937579 -0.673566 -0.268571 -0.210019 -0.131994 -0.378983 -0.458032 0.547483 -0.706201 -0.152231 0.053599 0.938403 0.616547 0.635752 -0.668217 -0.082041
ch@@ -0.351973 0.150663 0.150978 -0.601494 -0.230737 0.242235 -0.369391 -0.216893 -0.096641 -0.593285 0.783611 0.095106 -0.237935 0.101611 0.801445 -0.129043 0.901443 -0.666600 -0.290404 -0.365678 0.273234 -0.337234 0.888553 0.380007 -0.216324 0.910967 -0.332146 0.007328 -0.351377 -0.539344 -0.947348 0.581250 0.134597 -0.753097 -0.066241 -0.084279 0.408807 -0.099924 -0.262628 0.179755 0.043663 0.062350 0.092325 0.187343 0.108071 -0.614670 -0.076355 0.220546 0.502533 -0.183742 0.056722 -0.324991 -0.227070 -0.200941 -0.261185 0.031648 -0.502494 0.641917 0.074419 0.209420 0.569736 0.246218 0.066918 0.477544
es@@ 0.442071 -0.874981 -1.376874 0.427192 -0.562887 0.400187 -0.784608 -0.303721 -0.402795 -0.122500 0.180352 -0.386026 0.486608 0.392287 0.434514 -0.099338 -0.216984 -1.003851 -1.427723 0.191900 0.559546 -0.276479 -0.016214 0.218418 -0.319677 -0.028255 0.003417 0.766113 0.503955 0.439203 0.020328 0.089730 0.055438 -1.141832 -0.340319 0.065700 -0.306419 0.405129 -0.309107 0.269304 0.109767 -0.117219 0.162844 -0.922942 -0.130091 0.448752 -0.420694 0.557069 -0.067758 -0.662303 0.057881 1.198536 -0.098278 0.718539 0.824503 -0.625552 0.748841 0.173534 0.608725 -0.866473 -0.628019 -0.433822 0.418718 0.342685
á@@ 0.280423 0.170889 -0.458307 -0.215805 -0.005192 -0.020487 -0.198586 -0.633341 0.861004 -0.504942 -0.173478 0.523356 0.216892 0.899364 -1.252001 -0.559160 -0.334012 -0.897841 1.000268 0.440113 0.259591 -0.297904 0.444502 1.430473 0.144509 -0.406276 -0.010339 -0.145405 1.253579 -0.560364 -0.447618 0.112070 -0.061511 -0.423416 -0.171156 -0.067912 0.272586 -0.286516 0.133732 -1.202769 -0.683090 -0.185112 0.999792 -0.125156 -0.184298 -0.398865 -0.440813 0.064553 0.056025 0.140542 -1.021662 0.402419 0.561427 0.150334 -0.865984 0.471578 -1.140206 -0.345733 0.366674 -0.785122 0.312826 0.552445 -0.045481 -0.598788
gr@@ 0.233948 -0.021695 -0.108271 0.452264 0.649561 -0.346844 0.595772 0.086997 -0.732022 -0.230578 -0.439045 0.877702 0.387322 0.853290 -0.027893 -0.856607 -1.548303 -0.462952 -0.109055 0.939195 0.365519 0.665355 -0.232144 0.031673 -0.450030 -1.163181 0.521286 0.566815 0.269576 -0.348062 0.465084 0.078938 0.727189 0.051893 0.128267 0.725666 0.096233 0.402126 -0.007259 -0.627557 0.516735 -0.578936 -0.303829 0.123661 0.431278 -0.214851 0.445524 0.179076 0.570992 -0.010296 -0.103473 0.133182 -1.022805 0.837026 0.395362 -0.333596 -0.063787 1.127729 0.004809 -0.131067 0.431861 0.132286 -0.677667 -0.465542
tr@@ 0.043002 0.298247 0.912814 -0.241073 -0.644137 0.617086 -0.042415 -0.481072 0.046615 0.463748 0.153882 0.683506 -0.934125 -0.011307 -0.483196 0.523099 -0.923665 -0.120186 0.193098 0.211961 0.175867 -0.446121 -0.078496 0.384331 -0.061840 0.412477 -0.421388 -0.451222 0.370132 1.109232 -0.007980 -0.117249 0.496491 0.005056 0.761593 -0.529134 1.342100 0.335363 0.410589 -0.344243 -0.416511 -0.639325 -0.406816 -0.543918 -1.087335 0.238860 0.417345 0.389664 -0.892416 1.653375 -0.158601 -0.136237 -0.261442 0.186303 -1.151832 0.025141 -0.698858 0.164652 -0.552666 -0.017797 -0.354866 -0.709647 0.000640 0.845013
tu@@ -0.785543 0.387022 0.201189 0.012305 0.237400 0.078401 -0.251320 0.001431 -0.753286 -0.463283 0.072213 -0.857236 -0.712088 -0.013708 0.033162 -0.001629 0.069158 -0.005903 -0.085294 -0.251545 0.305754 0.228749 0.632465 -0.065479 0.089246 0.450674 -0.686407 0.008219 -0.489026 0.013558 -0.726377 0.041123 -0.098175 -0.203120 -0.455407 -0.303799 -0.399198 -0.017261 -0.443260 0.472473 -0.022976 0.257871 0.118849 0.101571 0.295751 -0.134144 0.193912 -0.287518 -0.021499 -0.562941 0.371416 -0.209358 0.247534 0.113058 0.324610 0.218998 -0.389875 -0.464052 0.008833 -0.370564 0.718121 0.329578 0.241744 -0.089507
nada -1.040675 -0.077944 0.190341 0.457024 0.065791 -0.135698 0.323890 -0.528788 -0.011208 -0.416579 -0.094966 0.093777 -0.490959 0.075865 -0.524142 -0.073164 -0.057893 0.440113 0.505842 -0.308276 0.426649 0.342523 0.036102 -0.304704 0.078556 0.834060 0.355224 -0.033250 -0.819445 0.233681 -0.021782 0.319201 -0.524191 -0.277304 0.048237 -0.003628 -0.219475 -0.274114 -0.355723 -0.645333 -0.423336 0.109948 0.326254 -0.074550 0.438392 -0.512895 -0.832247 -0.423637 -0.540833 -1.005903 -0.278077 -0.029857 0.009370 -0.696378 -0.805927 0.370148 -0.470304 -0.200712 -0.100815 -0.041779 -0.371674 0.932549 0.424794 -0.428423
est@@ 0.074387 -0.781327 -0.146175 0.165521 -0.137613 -0.466728 0.439318 -0.362242 0.380266 -0.898062 0.272886 0.140226 0.744797 0.152485 -0.310508 0.046441 -0.173215 -0.032944 -0.678095 0.379221 1.150020 -1.005134 0.644373 1.117107 -0.304729 -0.478845 0.048849 -0.178435 0.298214 -0.222358 0.449742 0.331928 -0.024141 -1.108530 0.050696 -0.349962 -0.081046 0.067094 -0.833796 0.144605 -0.009134 -0.881352 -0.814969 0.292156 0.686009 -0.426395 0.386641 0.531930 0.675658 0.582646 -0.995685 0.206812 0.841103 0.772745 -0.026192 0.783678 -0.623728 0.253963 0.532284 -0.719277 0.192285 0.205683 -0.199146 -0.056845
algo 1.013771 -0.408487 -0.876916 0.400840 -0.318232 0.485600 -0.382603 -0.513009 0.770259 0.596940 -0.337966 0.178422 0.593933 1.032736 0.119701 -0.190574 -0.310232 -0.673622 -0.944764 0.421811 1.074181 -0.181351 0.283235 0.471704 0.698818 0.654875 -0.425128 -0.201246 -0.175738 0.252048 0.587899 0.098058 0.982697 0.083582 -0.736924 -0.415104 -0.485225 0.234948 0.058533 0.385488 0.812105 0.447715 -0.187453 -0.369763 -0.856501 -0.225128 0.131302 0.059825 -0.808021 -0.349220 -0.292581 1.205836 0.242689 0.721221 0.195792 0.616153 -0.045073 -0.648070 0.022385 -0.452142 0.237976 -0.876261 0.329407 0.253414
gu@@ 1.091881 0.175785 0.300586 0.216776 -0.854204 0.353800 -0.172327 0.615667 0.624076 1.005720 0.364060 0.727078 1.161555 -0.601222 -0.716404 -0.041795 -0.619129 -0.108431 -0.133533 0.699875 -0.267193 -1.121543 -0.135577 0.631877 0.391184 -0.243423 0.419745 -0.745732 0.761031 -1.171357 0.242114 0.372678 0.180682 -0.269555 -0.354825 -0.136231 -0.065641 0.839343 0.332946 -0.679751 -0.775850 -1.454826 0.025773 -0.132082 -0.105404 -0.387687 0.180393 -0.470100 0.701105 1.218927 0.046471 -0.318201 -0.497147 0.385758 -0.118616 -0.137182 -0.049784 0.533080 0.163677 -0.285280 -0.181035 0.535170 -0.379125 -0.343278
tos -0.357261 -0.035952 0.303330 0.041726 0.135805 -0.065287 0.342350 0.319063 -0.555781 -0.232593 -0.099177 -0.436530 -0.448125 -0.268776 -0.012301 0.542414 0.514779 0.116042 0.539104 -0.185609 -0.428554 -0.265400 0.160323 -0.235152 -0.135829 0.117089 -0.032714 -0.042754 -0.172919 -0.249240 -0.563294 0.003748 -0.255884 -0.152483 0.376493 0.177512 -0.200674 0.248401 -0.258442 0.198696 -0.205053 -0.053645 0.587500 -0.190524 0.146082 -0.382699 -0.071864 -0.292467 0.245693 0.396700 0.581903 -0.643497 -0.043270 -0.339420 0.228963 0.335227 -0.196587 0.376810 -0.033671 0.230143 0.236653 0.200820 0.213356 0.007400
pi@@ -0.219288 0.036469 0.094050 -0.230886 0.093419 0.310973 -0.037167 0.559367 0.129255 1.063685 0.221905 -0.686759 -0.380564 -0.710888 -0.011000 0.300677 0.233849 0.775465 -0.373384 -0.133695 -1.089590 0.080125 -0.047739 -0.956124 -0.201742 0.044393 -0.399473 -0.332278 0.029512 -0.145794 -0.720108 0.250903 -0.514148 -0.365613 -0.441076 -0.186631 -0.991361 -0.173916 0.744084 0.724783 -0.952451 -0.730519 -0.112636 -0.311275 -0.065667 -0.001291 0.108308 -0.236254 0.182889 -0.040499 0.670081 -0.618789 -0.212292 -1.237234 0.284465 0.380375 -0.082247 -0.709244 0.395446 0.309599 0.432941 -0.082058 0.430900 -0.552137
é 0.004215 0.350036 0.362509 0.065820 -0.142751 0.058925 -0.005531 0.461099 -0.220315 -0.404022 0.281514 -0.013732 -0.415753 0.192778 -0.627995 0.308158 0.487339 -0.439528 0.173984 0.238713 -0.048997 0.114674 0.191020 0.285865 0.002160 0.164646 -0.011785 -0.309293 -0.188913 -0.014323 -0.421331 0.078105 -0.469731 -0.289477 0.218185 -0.351462 -0.122748 -0.177083 -0.651412 -0.036574 -0.229390 0.049659 0.300543 0.356166 0.330617 -0.663424 0.036092 -0.159647 -0.105985 0.329758 0.205959 -0.099868 0.087665 -0.155745 0.119036 -0.388306 -0.244900 0.555164 0.230637 -0.302359 0.320597 0.513705 0.153971 -0.049395
ese -0.403701 0.491847 -0.755465 0.067794 -0.513432 -0.052320 -0.248039 0.351334 -0.388931 0.098688 0.582667 -1.172955 -1.273101 -0.317692 -0.422677 0.229266 0.851831 -0.438360 -0.728132 -0.301472 0.440551 0.049258 1.294792 0.489211 0.375146 -0.000925 -0.276995 0.130805 -0.310686 -0.112735 -0.908850 0.166291 0.185193 -0.625446 0.159839 -0.321187 0.398577 1.004876 -0.565331 0.041623 -0.381522 0.469184 -0.304852 0.052795 0.583851 -0.300417 -0.120405 0.626801 -0.068503 0.423657 0.559691 -0.717846 1.218398 1.120974 -0.367864 0.161184 -0.641589 0.241009 -0.695119 -0.102729 -0.166957 -0.181920 0.216131 0.408324
ad@@ 0.675782 0.698383 1.194299 -0.923136 1.235380 -0.389342 -0.238843 -0.442642 -0.652435 -1.001911 -0.086924 0.162560 0.422640 0.857887 -0.351403 -0.358995 -1.084059 -0.668195 0.400083 0.691519 0.281480 0.882941 0.093118 0.909821 0.192540 0.340006 -0.492706 0.312904 0.134227 0.376028 0.074043 0.155065 0.583827 0.698972 0.243090 0.078200 0.768095 -0.021457 0.268300 -0.917555 0.506519 1.059189 -0.850298 0.633586 -0.348566 0.445020 0.341201 0.052141 -0.759573 0.444181 0.092528 1.077384 -0.539771 0.693818 -0.467607 -0.815713 -0.060493 0.294292 0.154286 -0.686482 0.507859 0.131660 -0.679824 0.731883
li@@ 0.385287 -0.876910 -1.019238 -0.007968 -0.702303 -0.657723 0.988925 -0.338039 0.460884 0.437829 0.074725 0.351875 1.283785 0.400131 0.431108 0.210169 -0.358165 -0.044169 0.413327 0.418124 0.591867 0.337315 -0.693926 -0.451485 0.030324 -0.240603 1.096222 0.292700 0.772085 0.556140 1.242057 0.177045 0.379965 0.396186 0.064494 -0.518371 0.300828 -0.157693 0.884012 -0.536771 0.348290 0.807061 -0.086366 -1.308172 -0.426839 0.313988 -0.082050 0.323635 -0.658636 -0.289964 -0.866505 0.450150 0.027330 0.127279 -0.289121 -1.020323 1.159842 -0.586248 0.608748 0.338380 -0.630690 -0.869519 -0.465566 -0.429712
ic@@ 1.355008 -0.754577 -0.171695 -0.528882 0.132254 -0.762659 0.519484 0.226808 -0.648127 -0.211186 -0.185710 -0.382950 0.768716 -0.152546 -0.093551 0.422067 0.300635 -0.243184 -0.180562 1.150005 0.711883 0.304044 0.458925 -0.259401 0.189861 -0.577994 -0.274062 0.753716 0.874986 0.355006 -0.772632 -0.654638 0.376955 -1.259833 0.607402 0.462581 -0.360295 0.766760 -0.124916 -0.451226 -0.333954 -0.520928 -0.562211 0.519629 -0.828542 0.056047 1.142107 0.213928 -0.362984 0.846867 0.674880 0.617611 0.298369 -0.251537 0.380100 -0.955362 0.177190 -0.226534 0.629940 -1.111894 -0.176661 -0.431831 0.180133 0.561303
ten@@ -0.579253 0.316959 -0.067812 -0.134585 -0.368868 0.064929 0.172133 0.240227 -0.819310 -0.134550 0.453755 -0.651405 0.041600 0.267540 -0.188770 0.230775 0.057055 -0.432079 -0.376154 -0.006219 0.117530 -0.350573 1.235326 -0.338580 -0.280226 0.127269 -0.412244 0.071201 -0.627004 -0.141052 -0.060485 0.441900 0.227998 -1.014044 0.114349 -0.082041 0.802434 0.315059 -0.260816 -0.102511 1.146206 0.070924 -0.143709 0.535769 0.746071 -0.899012 -0.136813 0.270686 0.540103 -0.085541 0.593783 -0.360947 -0.141606 -0.172059 -0.191754 -0.019372 -0.355935 0.784757 -0.684784 0.410870 0.247703 -0.219470 0.015454 0.102564
el@@ -0.011314 0.985873 0.822976 -0.649641 -0.015001 0.417979 0.260123 0.750762 -0.256421 -0.185545 0.178997 1.248108 -0.114316 -0.625263 -0.409809 0.326138 0.601112 0.562153 0.416387 0.753489 -0.915682 -0.523318 -0.249171 -0.151043 0.405258 -0.065578 -1.154609 -0.228388 -0.513982 -0.203604 -0.677826 -0.523533 -0.331908 0.816269 0.109624 0.205883 0.162460 0.355701 0.261030 -0.052274 0.539364 -0.122304 -0.331224 0.117556 -0.583513 -0.634672 0.572988 -0.413543 1.206114 0.612992 0.426648 -0.622691 -0.830283 0.508485 0.038321 -0.913117 -0.295906 -0.189305 -0.529166 0.781103 0.075794 0.457579 -0.123583 0.118498
hace 0.399928 0.360978 -0.151775 0.553054 0.028909 -0.053648 -0.018469 -0.287423 -0.344998 -1.312303 0.445183 -1.227161 -0.116203 0.784951 0.375196 0.256421 -0.285093 -0.874421 -0.116404 -0.055305 -0.211884 0.067017 0.759555 0.605113 0.541526 0.934288 -0.574434 0.302885 -0.416451 -0.120229 -0.020160 -0.101428 -0.023489 -0.235868 1.048285 -0.043782 -0.381975 0.295121 -0.734152 -0.192473 -0.183455 -0.683930 0.388814 0.684120 0.510402 0.030405 0.024894 -0.060851 -0.443617 -0.333078 0.340048 -0.397189 0.956630 -0.218402 -0.453785 0.728488 -0.696115 -0.325385 0.157173 -0.606960 0.147429 0.555427 0.164167 -0.082490
están 0.414926 -0.142960 0.262741 0.251688 -0.360035 -0.005335 -0.916453 -0.762962 -0.309618 0.124828 -0.339069 -0.201331 -0.101710 -0.639763 0.407163 0.289254 -0.285251 -0.019773 -0.740506 -0.224947 0.970912 0.661354 0.268762 -1.413471 0.240020 -0.198397 -0.535930 0.223763 0.143977 0.990116 -0.406370 -0.233774 0.773496 -0.043793 -0.209336 0.653454 0.840644 -0.571297 0.447711 0.819322 0.471220 0.497378 -0.476270 -0.562286 -0.832534 1.150221 0.530267 -0.256148 0.354673 0.169940 -0.128735 0.734088 0.384500 -0.262239 -0.201572 0.092000 -0.224959 -0.953327 0.290353 -0.717208 0.167741 -1.060441 0.515027 0.615532
s 0.093862 0.174811 0.230618 0.281200 -1.062572 -0.243731 -0.130324 0.407597 0.579773 -0.471973 0.148172 0.734598 -0.440441 -0.652996 -0.212102 0.186722 0.570930 0.491766 -0.306553 -0.840544 -0.002592 -0.687237 0.247417 0.452926 0.185663 0.265010 -0.286097 -0.605668 0.021638 -0.027795 1.056727 -0.206203 0.498192 -0.354287 0.094627 0.013702 0.841737 0.480332 -0.406182 0.312127 0.215463 0.187538 -0.103881 0.026514 -0.352374 -0.307890 -0.494168 0.167408 -0.221900 -0.025954 -0.294353 -0.614455 0.168442 0.283382 -0.143204 0.198150 0.382701 0.451832 -0.917270 1.286696 0.710873 -0.116540 -0.830306 -0.395322
am@@ -0.025547 -0.183244 -0.009464 1.023773 -0.683788 0.060886 -0.572538 0.171727 1.179124 0.513850 0.404895 0.309355 0.352879 -0.558501 0.229221 -0.805769 -1.024395 -0.564146 -0.657848 -0.257366 -0.114612 -0.998288 -0.090054 0.406504 -0.472533 0.540865 -0.600580 -0.417713 0.428865 -0.088573 0.922069 0.116079 0.681065 -0.519587 -0.563612 -0.610995 -0.107498 0.165722 -0.518357 -0.267903 -0.515795 -0.946074 -0.284932 0.021127 0.221979 -0.376883 -0.161641 0.144961 0.320251 0.004313 -0.754510 1.018612 0.604302 0.710438 -0.033422 0.618043 -0.066073 0.211055 -0.788740 -0.472459 0.544989 0.342503 -0.287948 -0.575587
tan -0.904700 0.515542 0.141284 -0.345767 0.269523 0.167029 -0.442500 -0.235300 -0.411772 -0.057959 -0.081361 -0.291334 -0.470545 0.441950 -0.043041 -0.393594 -0.037475 -0.154579 -0.213081 -0.497873 0.677369 0.513506 0.799591 0.787933 0.440330 0.860267 -0.879572 -0.201187 -0.914343 0.231654 -0.591599 0.253942 -0.112807 -0.087807 -0.601528 -0.276554 -0.332684 0.043316 0.044375 0.610974 0.764326 0.327879 0.068291 -0.246839 0.153148 -0.471580 -0.398184 0.392624 -0.560603 -0.239985 0.098710 0.100701 0.732036 0.148284 0.098223 0.323610 -0.375474 -0.492814 -0.100925 -0.076457 0.211981 0.188168 0.317687 0.066199
or 0.628990 0.188625 0.963255 -0.589325 0.612206 0.302777 -0.377727 0.297347 -0.301737 0.456595 -0.765847 0.952527 0.603600 -0.233203 0.078145 -0.627141 -0.117573 0.000346 0.794527 1.158805 0.063939 -0.582273 -0.295136 0.241147 0.601010 0.559979 -0.491122 0.666247 0.375253 0.186228 0.624191 0.270497 0.147700 0.886732 -0.096158 -0.003609 -0.511443 -0.720406 0.802673 -0.641809 0.495257 0.459615 -0.326521 -0.470972 0.013286 0.790249 0.668709 -1.080294 -0.140312 -0.136925 0.782192 0.432145 -0.617367 0.786587 0.337391 -0.029248 0.336323 0.078016 -0.136297 -0.430117 0.094684 -0.465341 -0.439769 0.038448
soy -0.774458 0.427916 0.545174 -0.014918 -0.099773 0.477989 -0.039259 0.549897 -0.152606 -0.145448 0.426554 -0.319525 -0.269597 0.067038 -0.169779 -0.129190 0.414698 -0.297598 0.115632 -0.553865 -0.324006 -0.303311 0.206530 0.020418 -0.126328 0.274610 0.168703 -0.023599 -0.435016 -0.538476 -0.151038 0.089589 -0.475226 -0.388816 -0.123282 -0.168750 0.416318 0.222724 -0.443245 -0.106339 0.275441 -0.174442 0.380926 0.162371 0.298167 -0.254159 -0.069801 -0.291239 0.640810 -0.065508 0.429119 -0.866218 -0.049514 -0.083725 0.283314 0.277830 -0.408683 0.479381 -0.262737 0.409821 -0.109689 0.552787 -0.160593 -0.339919
okay -0.031111 0.371921 0.049187 0.035070 0.117893 0.045072 0.020084 0.024661 -0.177215 -0.045108 0.172691 -0.491822 -0.396721 -0.260683 0.127134 -0.051372 0.424276 -0.051631 0.027415 -0.132137 0.125919 -0.131968 0.275869 -0.221295 0.322775 0.227691 -0.624364 -0.396711 -0.195501 -0.673999 -0.379655 -0.111399 0.008622 0.020337 0.195799 0.258221 -0.046497 0.089892 -0.258073 0.102031 -0.468104 0.159772 0.237787 -0.200202 -0.076662 -0.312187 0.174481 -0.189375 -0.010537 -0.187285 0.321143 -0.444048 0.381884 -0.125294 0.540426 0.380921 -0.072902 0.105897 -0.037439 0.000306 0.240071 0.266353 0.313564 -0.082900
go 0.546764 0.148244 0.271968 -0.070129 -0.532325 -0.032827 -0.027920 -0.577371 0.301771 -0.080079 0.967285 -0.529466 0.077049 1.155108 -0.500781 -0.637631 -0.494195 -1.111881 -1.133954 -0.265864 1.395981 -0.215544 0.291899 0.934809 0.534290 0.970498 0.265018 -0.131221 -0.022378 0.164345 1.005986 0.481758 0.634586 0.284271 -0.278019 -0.429150 -0.018180 -0.111940 -0.347271 -0.241840 0.062427 0.915714 -0.420485 0.618997 -0.121450 -0.072079 -0.224189 1.120048 -0.981706 -0.690450 -0.677792 0.495778 -0.140873 0.207877 -0.458154 -0.408184 -0.137776 0.474914 0.029581 -0.443087 0.503507 0.270029 -0.073504 -0.327865
he -0.070771 0.329238 0.141262 -0.251517 0.351692 -0.072781 -0.293679 0.355556 -0.857691 -0.273765 0.121130 -0.459304 -0.164266 0.045286 0.113585 -0.042958 0.032546 0.132666 0.598879 0.069959 -0.385699 -0.177323 0.038824 0.077172 0.061344 0.105894 -0.073938 0.056087 -0.116022 -0.452088 -0.576440 -0.358802 -0.522746 -0.340381 0.507082 0.077436 -0.238374 0.381808 -0.781080 0.100317 -0.580106 -0.550568 0.250457 0.120496 0.053521 -0.263059 -0.031540 -0.344640 0.244767 0.274233 0.354768 -0.382350 0.058498 -0.540641 0.314374 0.358442 -0.337657 0.687009 -0.357910 -0.246454 0.119935 0.639669 0.027629 0.061719
