<unk> -0.018805 0.084158 0.087417 0.078533 0.088791 0.002797 -0.060276 -0.062582 0.074849 0.062648 0.007652 0.003904 0.058033 -0.074984 0.009225 0.061598 -0.078106 0.078242 0.070917 0.035071 0.074401 -0.037861 -0.035455 -0.046985 0.031307 0.061243 -0.052172 0.041332 -0.026672 0.032790 0.077464 -0.027245 -0.095682 -0.059744 0.035545 -0.055762 0.094016 0.087828 0.013303 -0.061975 0.010933 0.067446 -0.047881 0.050823 -0.011698 -0.007074 -0.027052 0.020052 0.042139 0.034233 -0.005787 -0.038850 -0.034370 0.072684 0.072185 -0.053207 -0.033366 -0.026163 -0.009050 0.064528 -0.004079 -0.009644 -0.007949 0.030840
<blank> 0.024199 0.022394 0.055907 -0.090772 0.085042 -0.053011 0.062602 0.078916 0.063234 -0.007752 -0.047768 -0.031892 0.022755 0.021110 -0.088183 0.071487 -0.054247 -0.096855 -0.007718 0.055396 0.015540 0.085745 -0.047293 -0.016004 -0.040131 0.070265 -0.027239 -0.042136 0.073477 -0.064998 -0.082737 -0.003927 0.056074 -0.043435 0.003250 -0.023616 0.034962 -0.003895 0.079064 -0.021434 -0.074757 0.009453 -0.003692 -0.012585 0.043542 0.009903 0.043419 0.064130 -0.060727 0.009074 -0.063104 -0.018624 -0.075414 0.062193 -0.089071 -0.055234 -0.076382 -0.029244 0.060674 0.033692 0.026134 0.032823 -0.044998 -0.090464
que -0.187910 -0.027884 0.865586 0.595053 0.735097 0.275843 -0.104290 -0.316745 0.105612 0.259073 -0.213796 -0.603056 -0.294104 0.048046 0.317035 -0.172173 -0.185888 0.030111 0.212780 -0.242176 -0.350754 -0.339602 -0.309959 -0.712184 0.193088 -0.536499 0.158516 -0.104161 0.277127 -0.517430 0.011302 -0.169290 -0.449534 -0.315742 0.060878 0.173435 0.485577 0.174388 0.010265 0.338646 0.109330 0.324821 -0.086784 0.509734 0.500751 -0.525149 -0.489773 -0.250891 -0.189379 0.514862 0.067205 0.052520 0.079007 0.070620 0.085603 -0.193876 0.337211 -0.006324 -0.316350 -0.169937 -0.475005 -0.072379 -0.249160 -0.023516
no -0.017424 -0.079199 0.067898 0.020610 -0.070593 0.007183 -0.054429 -0.004476 0.071186 0.029565 0.081896 -0.018653 0.030380 0.053946 -0.091681 0.007893 -0.044372 -0.049174 0.092043 -0.054659 0.084528 0.076077 0.075025 -0.079841 0.085497 -0.078597 0.043004 -0.037857 0.098947 0.038172 0.039496 0.013304 -0.093511 -0.074421 0.051981 -0.008622 0.076594 -0.031969 -0.068797 -0.033934 -0.099988 -0.093104 -0.062857 -0.048001 0.096956 -0.098260 -0.012982 -0.069278 -0.029777 -0.043823 0.017218 0.098846 -0.012758 -0.084355 -0.027934 -0.087741 -0.030238 -0.075623 0.099186 -0.084249 0.019049 0.084254 -0.081488 0.084280
y -0.660464 -1.039234 -0.039893 -0.048584 -0.861849 0.997067 0.971192 0.237707 0.894365 0.975140 0.719301 0.255163 -0.123191 -0.641779 0.001451 0.204585 0.083282 0.067033 -0.747875 -0.644801 -0.736491 -0.389793 0.276684 -0.797555 -0.559821 -0.117914 0.224677 -0.791554 0.004816 -0.440042 -0.457701 0.471404 -0.355730 -0.099281 -0.648935 -0.471507 -0.229358 -0.375004 -0.042026 -0.275859 -0.248928 -0.142376 0.694729 -0.467696 -0.282034 0.348506 -0.301577 -0.543012 0.529434 0.321121 0.324933 -0.656155 0.528011 -1.298150 0.055364 0.374039 0.993984 -0.293337 0.240050 0.663400 0.343587 0.773949 -0.323136 -1.152865
sí 0.206453 -0.151359 -0.308143 0.021809 0.021098 0.282128 0.668972 0.173574 -0.194529 -0.669024 -0.238793 -0.759653 -0.830445 -0.583892 0.105682 1.000208 0.152090 0.062266 0.700891 -0.263622 -0.848956 0.064758 -0.596586 -0.188699 -0.390130 0.339388 -0.226209 0.235711 0.183497 -0.138018 -0.564459 -0.030761 -0.708474 -0.442046 0.975889 -0.669972 -0.090407 0.725754 -0.538245 -0.078520 -1.324628 -0.427908 0.899441 -0.023344 0.587488 0.501939 0.290974 -0.685361 0.271229 0.431375 0.294624 -0.401496 0.276119 -0.367078 0.710807 -0.592050 -0.300992 -0.149772 0.648841 -0.354600 0.368260 0.861972 -0.144306 -0.244641
de -0.473828 0.394946 0.519339 0.447426 0.171035 0.144307 0.160653 0.887172 -0.043351 0.016398 0.681528 -0.047982 -0.564089 -0.187686 0.248596 -0.911467 0.540852 0.144460 -0.080772 -0.310728 -0.797438 0.362889 -0.547812 -0.513135 -0.394345 0.045261 -0.599744 0.027050 -0.649404 -0.787227 -0.418690 0.357057 -0.214307 -0.116562 -0.752921 0.377398 0.288331 0.209270 -0.474619 -0.030719 -0.408378 0.381739 0.532718 0.783711 0.143637 -0.688299 -0.146916 -0.335527 0.734639 -0.940182 -0.087954 -0.911649 -0.852538 -0.513649 1.019701 -1.029485 -0.135349 0.053314 -0.641259 0.250048 0.335539 0.645778 0.444144 -0.489547
a -0.439509 0.885600 -0.194396 -0.564214 0.049257 0.087547 0.000189 -0.045671 -0.530116 -0.029958 0.638981 -0.964783 -0.399786 0.590008 0.431326 -0.198866 -0.159663 -1.048996 -0.217812 -0.694446 -0.756202 -0.641250 -0.029602 -0.482846 -1.469638 0.361566 -0.306940 0.149351 -1.119476 0.162656 -0.134383 0.571239 -0.519560 -0.881528 -0.240608 0.441135 1.205850 0.734819 -0.524607 -0.405745 0.268418 0.483958 0.111829 0.552695 0.215043 -0.265026 0.234739 0.226551 0.117627 -0.144741 0.668629 -0.475627 1.135870 0.033792 -0.169513 0.214676 -0.421570 0.950568 -0.255822 0.458747 -0.178749 -0.285403 -0.303212 0.213743
es 0.047275 -0.428114 -0.049796 -0.721860 -0.429401 1.533312 0.181524 1.190060 0.706869 -0.642146 -0.504647 0.390230 -0.829043 -0.351491 -0.068930 1.075255 -0.363294 0.296215 0.733631 0.224731 -0.464290 -0.467581 -0.142918 -0.325301 -0.123092 0.166925 0.515352 0.641345 -0.716086 -0.133742 -0.031328 0.396755 -0.664331 -0.247268 0.606878 0.465526 -0.242271 0.526379 0.158521 -0.119500 0.296258 0.577645 0.121487 -0.452364 -0.290707 0.806960 -0.358401 -0.830988 -0.367331 0.996356 0.596119 -1.166290 0.476481 -0.350298 0.040473 0.135705 -0.054497 -0.233626 -0.067412 0.605038 -0.849402 -0.016374 0.874583 0.411501
en -0.367238 -0.583325 -0.092191 0.312814 0.005209 -0.947934 -0.230265 0.277582 0.307898 0.620002 -0.237469 -1.226240 -0.164804 0.036228 0.249491 -0.256651 0.639346 0.266368 0.051515 0.014591 -0.599850 -0.115342 1.011486 -0.304573 0.184833 -0.309607 0.377295 0.046664 -0.536122 -0.516612 -0.176145 0.174260 -0.278858 0.062992 0.083932 0.305134 0.091972 1.054378 -0.540879 -0.213342 -0.710622 -0.438475 0.059076 -0.486333 0.487073 -0.530926 0.090514 -0.016183 -0.190892 -0.040908 0.463092 -1.784181 0.861990 -0.657832 1.105536 0.815322 0.029016 -0.190326 0.393040 -0.414024 0.008604 0.318004 0.153164 0.152979
la 0.386514 0.256981 -0.258863 0.412456 0.715309 -0.343114 -0.679727 0.151049 -0.286181 -0.142057 0.082701 0.813112 0.970589 -1.124773 0.294171 -0.474533 -0.445165 -0.056605 -0.031993 0.135338 -0.234005 0.518604 -0.033570 -0.968734 -0.044735 0.239519 0.373353 0.976446 0.166359 -0.754761 -0.495385 -0.379401 -0.775246 0.722100 -0.495671 0.357270 -0.493429 -0.125255 0.160695 1.245535 -0.574163 0.410504 -0.266653 0.422752 0.277317 0.728264 0.094194 -0.178503 0.560319 -0.858182 0.090379 0.132435 -0.855445 0.301020 1.156419 -0.758899 0.397790 -1.054958 0.414521 -0.477407 -0.467991 -0.649609 0.162713 0.116605
yo -0.332095 0.286785 -0.577100 0.280633 -0.457665 0.905105 0.640818 -0.273646 0.483320 0.991650 -0.109111 0.034699 -0.096025 -0.152437 0.465390 -0.151807 0.945767 0.354818 -0.339258 -1.392891 0.103861 -0.070314 0.349387 -0.332520 -0.019542 0.414190 0.600627 -0.390609 -0.070777 -0.116433 -0.270901 1.079224 -0.145138 0.383801 -0.495203 -0.184908 -0.070312 0.130620 0.250752 0.596417 0.345436 0.395141 0.105456 -0.659732 -0.300463 0.060691 -0.046322 -0.778902 -0.109172 0.080299 0.050478 -0.629839 1.216208 -0.406211 -0.073337 0.956905 0.223619 -0.786499 -0.148958 -0.460117 0.442166 -0.224875 0.440678 -0.692039
el 0.751277 -0.135205 0.568785 0.323136 0.383515 -0.012478 0.453182 0.637931 -0.552270 -0.824170 0.308883 0.441079 0.625563 0.277241 -0.592262 -0.824453 0.048540 -0.381508 -0.246316 0.380361 -0.793242 0.797073 -1.065298 0.021850 0.195379 0.143346 0.384184 1.386408 0.145987 0.388320 0.311790 -0.674967 -0.581411 -0.106123 0.292891 -0.598393 0.573574 0.045110 -0.667579 -0.052120 0.192648 -0.253493 -1.590258 0.939523 0.870816 -0.310504 -0.401044 0.156479 0.058175 0.706632 0.168762 0.155682 -0.882543 0.357221 0.036087 -0.734349 -0.398385 0.511702 -0.134595 -0.278286 -0.628670 0.177834 0.357367 0.859979
o 0.255338 -0.666579 0.375816 -0.231855 0.469691 -1.402714 0.524687 0.285747 0.615771 0.158596 0.458823 1.023657 0.424583 -0.206639 -0.640240 -0.360376 0.051645 0.480192 0.330048 0.452643 -0.710285 0.237905 -0.706043 -0.425454 0.014446 0.168785 0.028233 0.295904 0.945020 -0.005037 0.544713 0.060369 0.440986 0.392549 0.445399 0.226268 0.373341 0.162758 0.469753 -0.252471 -1.032918 0.647224 0.195243 0.707563 -0.323777 -0.285473 -0.419550 0.019434 -0.636136 0.052642 -1.315637 1.468643 -0.444626 -0.118642 0.318983 -0.830470 -0.158204 0.583598 1.400626 -0.881958 -0.487262 0.766833 0.077654 -0.623008
lo 0.495346 -1.076329 -0.824059 0.101338 0.576486 0.149428 0.023068 -0.268371 0.605888 0.887658 0.105855 0.437644 -0.116007 -0.491143 0.676950 -0.309181 0.647613 -0.240260 0.444281 -0.456452 -0.672158 0.510839 -0.969310 -1.846198 -0.542055 -0.753189 0.135441 0.060945 0.018876 0.615407 0.140289 -0.569613 0.357806 -0.254258 0.582351 0.625125 -0.780915 0.250679 0.597570 0.673839 -0.654888 -0.918360 0.610391 -0.355124 0.087322 0.358139 -0.141294 0.137546 0.061317 -0.304932 -0.808377 -0.014088 -0.695912 -0.647807 0.758253 -0.545665 1.024548 -0.932285 0.556498 0.626335 -0.431089 -0.065629 -0.118045 -0.473722
pero -1.048135 0.007196 0.330008 0.222863 0.099847 -0.423695 0.325821 0.173674 0.546230 0.120901 -0.600500 -0.019514 -0.013833 -0.309390 -0.567613 0.305900 0.337259 0.162840 0.342251 -0.779019 -0.747502 -0.385197 -0.151979 0.416665 -0.229715 0.205543 -0.061868 0.171027 -0.410994 0.661959 -0.207812 -0.840334 -0.223080 0.044043 0.536752 -0.449532 0.732376 -0.527848 0.048710 0.708971 1.292246 0.592384 1.328714 -0.216531 -0.399903 -0.094626 0.572625 0.289895 -0.470575 0.072824 -0.344772 -0.824324 0.233565 -0.644631 0.337155 -0.040286 0.705687 -0.340568 -0.461361 1.182071 0.522466 -0.997859 -0.015634 -0.218152
me -0.146359 -0.470109 -0.428769 -0.971133 1.074467 -0.191404 0.559665 0.406379 -0.987722 0.023911 -1.096356 -0.393786 0.431485 1.223885 0.332872 0.277667 0.211942 -0.291381 0.749772 0.362375 -0.360862 0.545092 -0.223864 -0.690197 -0.217240 -0.312260 0.685036 -0.279157 0.362131 -0.008534 0.150854 -0.416781 -0.556241 0.241907 -0.089483 0.556224 -0.127015 -0.090237 0.061704 0.164551 -0.165738 -0.071234 -0.215671 0.101986 -0.084926 0.508113 0.553926 -0.532223 -0.197728 -0.215155 -0.502026 0.476477 -1.194167 -0.305992 0.307421 -1.662474 0.713927 0.538458 1.040970 0.066132 -0.673328 -0.642742 0.484231 0.737253
ah 0.400290 -1.182205 -0.121500 -0.537802 -0.813631 0.333790 0.133970 0.449433 0.072923 1.152395 -0.671971 -0.174068 0.720330 -0.350194 0.627339 -0.168149 0.170722 0.377946 -0.544064 0.145709 -0.020519 -0.661946 -0.411294 -0.734932 0.150173 -1.173699 0.683247 0.625842 0.072606 -0.233765 0.313262 0.281185 0.148688 -0.724744 -0.159235 0.328359 -0.102813 0.165938 0.804015 0.845610 0.354288 0.332629 -0.373529 -0.008367 -0.348236 0.295557 -0.048176 0.072352 0.127729 -1.094595 0.302004 0.032265 -0.262844 0.125090 1.485126 -0.308799 1.340219 -0.101593 0.143087 0.089738 0.557293 -0.767159 -0.188980 0.104534
se -0.570084 0.007393 0.499772 0.032772 -0.775382 -0.092613 -0.935286 -0.160914 0.299651 0.459387 -1.239666 0.063215 0.595112 0.973117 -0.601077 -0.423991 -0.313527 0.771344 0.731286 -0.260455 -0.322760 -0.298034 -0.378931 0.470212 0.079761 -1.026928 0.961056 0.616215 -0.321408 1.233762 0.381890 -0.085408 -0.051525 0.264772 0.702607 0.601556 0.188819 -0.287073 -0.039975 0.000769 0.179180 -0.050779 0.786595 -0.111887 0.427841 0.012760 -0.251302 -0.213806 0.266402 0.419633 -0.719876 0.695189 -1.314333 -0.438660 -0.714696 -0.673170 -0.832666 0.180149 0.757230 0.399873 0.101944 0.551467 -1.125094 0.063065
un 0.302943 -1.139051 0.232396 0.690986 0.538384 -0.390601 -0.413928 0.130352 -0.361849 0.476516 -0.352980 -0.662840 0.541816 0.537166 0.206816 -1.173480 -0.257532 0.254881 -0.762118 -0.309767 0.510660 -0.307545 0.479099 0.420106 1.104033 -0.348534 0.437517 0.211087 0.150164 0.640613 0.495658 0.880384 -0.640541 -0.059252 -0.591900 0.159818 -0.716890 0.163579 0.468012 0.517715 0.830625 0.509883 -0.115173 -0.422826 0.397444 -0.348535 0.419971 1.636335 0.858796 -0.459992 0.140851 0.181357 0.396237 0.160297 0.329281 1.105731 0.053589 -0.705393 -0.860567 0.431263 0.238859 -0.639499 -0.112236 -0.641631
los -0.623522 0.873269 0.329185 0.284724 0.360138 0.670047 0.619050 -0.167550 -0.560039 -0.142143 0.359808 0.345844 -0.922512 0.264565 -0.644582 0.626247 0.782832 0.073574 -0.089703 -0.107632 -0.869010 0.375365 0.136627 0.453331 -1.209920 0.190252 -0.289565 0.208113 -0.562241 0.577773 -0.810347 0.008689 -0.479884 0.487978 0.997954 0.049626 0.183115 -0.727422 -0.409095 0.365792 -0.063024 0.000198 -0.017614 -0.164256 0.076334 0.217632 -0.355088 0.250811 0.656158 1.102522 0.542062 -0.848774 -0.928063 0.162395 0.139596 -0.672309 -0.106479 -0.749037 -0.267547 0.682277 -0.163857 0.245015 0.251118 0.942097
como 0.406037 -0.330932 -0.188110 0.290374 -0.260626 -0.647361 0.061634 -0.464383 1.083765 1.242570 0.155955 1.178166 0.493096 -0.425461 0.408840 -0.434843 -0.063193 -0.073742 -0.165786 0.320221 -0.205197 -0.755608 -0.212485 0.214031 0.273710 -0.423713 0.338677 -1.329621 0.197757 -0.012734 1.407726 0.580652 0.924679 0.567430 -0.583953 0.204199 0.247433 -0.064817 0.076273 0.286224 0.031667 0.729012 0.457195 0.153828 -0.440297 0.778402 0.018056 -0.171064 -0.791501 -0.710293 -0.562315 0.217164 -0.100671 0.125966 -0.285551 0.255821 0.773149 0.576908 -0.215828 -0.281939 0.255688 0.546395 -0.887336 -0.313209
por -0.339330 -0.684749 -0.734038 -0.048275 -0.064359 0.189375 -0.757304 0.001142 0.516215 0.339359 -0.258964 -0.700395 0.288646 -0.025454 0.453893 1.722390 0.125848 0.593462 -0.304774 0.752158 -0.383219 -0.057242 -0.397459 -0.967649 0.080735 -0.406877 -0.160270 0.018220 0.962958 0.053439 -0.211205 0.083259 0.077436 0.876949 -0.317230 -0.323428 -0.374246 0.584802 0.573617 -0.120178 -1.055716 -0.642136 0.096455 -0.692560 -0.958307 0.204847 0.204873 -0.040939 0.448096 0.434160 -0.211775 -0.287031 0.400735 -0.321435 -0.270549 0.041332 0.577383 -1.494893 0.793601 0.075994 -0.484914 -0.989376 0.201661 0.399315
eh -1.026505 0.066436 0.160579 0.086955 0.604513 0.446856 0.175672 0.082335 0.051242 0.351954 0.260075 -0.170708 0.239802 -0.324572 0.620867 -0.330406 0.679103 -0.102954 -0.320377 -0.438282 0.376076 -0.345462 0.500796 -0.124749 -0.471418 0.217146 0.205586 -0.214981 -1.123718 -0.092115 -0.116240 0.352299 -0.368773 -0.709315 -0.359413 -0.261679 0.584539 -0.538060 -0.182121 0.459649 0.973974 -0.643441 -0.185519 0.320894 -0.236601 -0.252534 -0.393042 -0.448997 -0.312833 -0.400835 0.317797 -0.116842 -0.120993 -0.017879 0.226938 0.811404 -0.145184 -0.075223 -0.413803 -0.016755 -0.307594 0.433242 0.044487 -0.672621
eso 0.691528 -0.380348 -0.283063 -0.466300 -0.529171 0.562257 0.419650 -0.494991 0.007382 0.678435 -0.212885 0.253453 -0.248293 0.976503 0.056665 0.442022 -0.108615 -0.093313 0.532948 0.281342 -0.786365 -0.107141 0.353376 1.361920 -0.540118 0.151732 0.839840 0.684664 0.879898 0.335707 0.673235 -0.118292 -0.776191 -0.452110 -0.415131 -0.708957 0.263682 -0.433345 0.673558 0.093507 -0.197479 -0.594547 -0.260831 0.969938 -0.024889 -1.046483 -1.097992 0.764101 0.098607 -0.116028 -0.399169 -0.652104 0.093822 -0.237307 -0.755915 -0.561946 -0.192063 -0.502635 -1.061015 0.392019 -0.513017 -0.282378 0.099699 0.339582
ya -0.663776 0.504012 0.017520 -0.021656 0.531003 0.296217 -0.042570 0.173506 -0.375841 -0.036738 0.145375 -0.579808 -0.912905 -0.181214 -0.132275 -0.212277 0.132546 -0.179035 -0.074359 -0.390690 -0.387552 0.203178 0.035162 -0.031757 0.062854 0.103177 -0.363029 0.220857 -0.455360 -0.227098 -0.212055 0.179502 -0.376851 -0.213159 -0.003571 -0.343997 0.079504 -0.082823 -0.340483 0.374213 0.099637 0.336957 0.249207 0.356227 0.068726 0.225049 0.172835 -0.854364 -0.106225 0.369757 0.470273 -0.283122 0.408811 -0.217440 0.627856 0.290018 -0.845741 0.093068 -0.274487 -0.024787 -0.037962 0.642449 0.536004 0.093606
una 1.103772 -0.546959 -1.258192 0.551566 -0.640836 0.211654 -0.128165 -1.084081 0.290756 0.707026 -0.057744 0.270367 0.248841 -0.373941 0.612113 0.596562 -0.265882 0.215423 -0.841576 0.118755 -0.082705 0.368956 -0.765887 -0.182014 0.273394 -0.716514 -0.144772 -0.129328 0.132137 1.252640 -0.380165 0.412868 1.235255 0.335796 -0.727709 -0.075444 0.519433 -0.460269 0.543079 0.638858 -0.829675 0.712110 0.395763 -0.567399 -0.212448 -0.179470 -0.000252 0.182265 -0.465675 0.330059 -0.410705 1.238144 0.761667 -0.859894 0.201455 -0.371470 0.506717 -0.495516 -0.000632 -0.791177 -0.247261 -0.785147 -0.006181 -0.121154
ajá -0.056131 0.369641 0.822493 1.207984 0.923995 0.784251 0.039238 0.270380 -0.216417 0.008242 -0.539026 0.650574 0.621636 0.106159 -0.183801 -0.067284 0.038164 0.260732 -0.490291 -0.532746 -0.076667 0.076558 -0.647903 -0.452683 -0.647038 0.223551 -0.327350 -0.102334 -1.034976 0.308274 -0.023647 0.635018 0.536598 -1.099451 0.784778 0.151704 0.393561 -0.375243 0.506789 -0.433239 -0.016320 0.082914 0.302782 0.467928 0.376764 -0.062923 -0.569204 -0.515755 -0.139501 -0.650888 0.110618 0.242300 0.600847 -0.131386 0.103022 0.344167 -0.418218 0.073062 -0.580656 0.097587 0.206639 0.143471 0.650746 0.280734
porque -0.076503 -0.254446 -0.369498 -0.854233 0.504931 0.088573 -0.820463 0.181021 -0.070351 0.791645 0.348528 -0.576071 0.023107 -0.560568 -0.292439 0.236685 0.423297 0.534537 -0.153243 -1.040703 -0.809928 -0.160299 0.485269 -0.233210 -0.230191 -0.654623 -0.352158 -0.001907 -0.660992 -0.307748 -0.551436 0.440697 -0.954673 1.667584 -0.543476 0.933322 -0.718033 0.119563 0.703933 0.225321 -0.106192 -0.130723 -0.023112 0.324053 -0.194048 -0.561533 0.446530 -0.393923 -0.458014 0.176264 0.881935 -0.347743 0.039474 -0.546340 0.867403 1.285292 -0.411352 -1.111902 -0.264352 -0.377083 0.836413 0.598312 -0.025172 -0.217568
te 0.089625 -1.562297 -0.959693 0.522447 -0.637902 1.342897 0.183758 0.255361 0.595179 0.510994 -0.731755 -0.318911 0.196540 0.054451 0.424829 0.483225 0.002122 -0.286114 -0.901956 -0.003866 -0.101508 -0.220839 0.732883 -0.469705 0.238850 0.831640 0.075121 0.914386 -0.051085 0.831771 0.771415 -0.183180 0.063234 0.038492 -0.299625 -0.258116 0.244636 -0.311553 0.050264 -1.252121 0.030459 0.053197 -0.111191 0.434074 0.906623 0.228788 0.718335 -0.460373 -0.260487 -1.097188 -1.056835 1.009352 0.273708 0.173767 0.177788 -0.443970 0.874824 0.743518 0.530746 -0.794183 -0.438415 -0.680833 0.042455 -0.041466
si -0.040250 -0.288492 0.082085 -0.237990 -0.368539 0.400939 0.233387 -0.236579 1.084676 0.845825 -0.798136 0.840847 0.197598 -0.349221 -0.649166 0.482366 0.260373 0.553250 -0.288771 0.718227 -1.184032 0.387353 -0.430588 -1.393083 0.528349 -0.017907 0.912334 -0.328249 0.122258 0.228164 -0.117713 -0.782129 0.250733 0.272782 0.055859 0.431498 0.642239 0.085725 1.252620 -0.058359 0.829434 0.015174 -0.089931 -0.065206 -0.487555 0.863906 -0.110751 -0.176542 -0.069806 -0.521543 0.591821 0.025978 -0.586084 -0.185476 0.134906 -0.938208 0.165899 0.075293 0.405844 0.029928 -1.780173 -1.164949 -0.592556 0.073276
as 0.330680 -0.184623 -0.632393 0.380727 -0.777169 -0.398979 -0.092320 -0.196064 -0.304277 0.130215 0.743711 0.175110 0.037913 0.230969 0.399548 0.179712 0.289768 0.417332 0.061119 0.470329 -0.042150 -1.179740 -0.346550 -0.050375 -0.710740 -1.110753 1.839355 -0.535183 1.123022 -0.209912 0.929954 -0.576827 0.471537 -0.663888 -0.461069 0.300350 -0.669260 0.569877 -0.167120 -0.665262 -0.589266 -0.344452 -0.027720 -0.245993 0.418874 0.123739 -0.193807 0.503541 0.472145 0.577385 -0.627110 0.846758 0.121873 0.307091 0.076255 -0.378861 1.372961 0.334452 0.358806 -0.914364 0.455542 0.716994 -0.136271 -1.070745
más 0.199547 -1.300442 -0.739824 0.039718 -0.161440 -0.502049 0.077936 -0.732970 -0.625426 -0.174152 -1.083875 -0.442802 -0.384345 0.286049 0.347832 0.656970 0.131652 0.268225 -0.341430 0.340353 0.271707 0.249447 -0.859028 -0.035636 0.167665 -1.069562 -0.266454 -0.671434 0.364138 -0.258160 -0.533413 -0.876034 -0.467894 0.234344 1.023930 0.180699 -1.002506 0.623580 0.225689 0.443672 -1.472693 -0.315510 0.544841 -0.682182 -0.050201 0.223789 -0.302541 1.286750 0.152299 0.031354 -0.717569 0.948854 0.225507 -0.065986 0.122260 -0.753229 0.497339 0.041239 0.989749 -0.470329 -0.097936 -0.521533 0.270547 -0.622498
con 0.800560 -1.231173 -0.686082 -0.303886 -0.389030 -0.338769 0.141919 -0.242648 1.928736 0.066991 0.359530 -0.469821 -0.553986 0.583648 -0.120936 0.357421 -0.166583 0.358034 0.261169 0.039646 -0.039984 -0.839366 -0.341070 0.273269 -0.061542 0.082026 0.265351 -0.223354 0.031465 -0.211720 -0.159326 0.386623 -0.139354 0.746403 -0.468334 -0.605739 -0.404885 -0.909923 -0.012977 -0.239173 -1.221811 -0.585387 -0.106330 -0.483612 -0.507091 -0.215858 -0.829324 0.451868 -0.027753 -0.705819 -0.002235 0.582952 0.969281 -0.225555 -0.409472 0.145409 0.905898 0.170065 0.203244 -0.693672 -0.303796 -0.276130 -0.571102 -0.935763
para 0.458964 1.194241 1.297558 -0.540931 0.405902 -1.021313 -0.554297 0.270920 -0.805568 -0.726590 0.148807 0.160810 0.007080 -0.404764 -0.606534 -0.163538 -0.639619 0.339320 0.926330 0.633579 0.418070 0.526092 -0.053649 1.203809 0.746257 -0.894487 0.077957 -0.613368 0.515181 -0.314318 0.458565 -0.665292 -0.697122 0.272471 0.615037 0.634995 0.065616 0.973866 0.233732 -0.052439 -0.237836 -0.458325 -0.313263 0.345935 -0.104010 1.010250 -0.010633 0.257125 -0.617041 0.087776 -0.731968 0.235183 -0.476185 0.225726 -0.330738 -0.010826 0.464408 1.285762 0.506766 0.233944 0.741693 1.356837 -0.215080 0.528076
qué -0.310237 0.455871 0.248871 0.489527 -0.126232 0.508310 -0.077635 0.377236 -0.245527 -0.036437 0.134714 0.202970 -1.058893 -0.005550 -0.121715 0.443854 0.315185 -0.018839 -0.062890 -0.593199 -0.838289 0.246511 0.102990 -0.385140 -0.179094 0.228032 -0.034904 -0.049140 -0.410890 -0.068812 -0.695609 0.369367 -0.493941 -0.144898 0.441619 -0.379004 0.271013 -0.122590 -0.497407 0.482952 -0.256385 -0.099286 0.276143 0.168092 0.251407 -0.185205 -0.175715 0.189050 0.071341 -0.155264 0.449053 -0.352984 -0.406069 -0.489083 0.087203 0.149514 -0.525610 0.525872 -0.367883 0.488811 0.262219 0.406210 0.234946 0.294934
tu -0.381534 0.031589 -0.553048 0.323040 -0.528163 0.355478 0.269647 0.797627 1.025747 0.652601 0.074869 -0.195902 0.269620 -0.700686 0.323917 0.563535 0.190700 1.173256 -0.022545 -0.918228 -0.855101 -0.279105 -0.255878 -0.483517 -1.112465 0.528030 0.087853 -0.403363 -0.588286 -0.241919 0.433375 0.788770 -0.333655 0.061919 -0.763191 0.475760 -0.697157 -0.471832 0.275868 0.166877 0.116161 -0.246395 0.816619 -0.145158 0.131673 0.197005 -0.147113 -0.357181 -0.046081 -0.632401 0.308744 -0.615048 0.300717 -0.398730 0.440281 0.597252 0.155517 -0.366660 0.058333 0.711084 0.242302 -0.095284 -0.208900 0.200999
e@@ -1.013827 0.665739 0.514231 -0.054908 0.234912 0.509471 -0.038440 0.013553 0.366971 0.069954 0.669708 0.035130 0.204932 -0.124316 0.267001 -0.522437 0.291968 -0.043690 -0.181106 -0.870349 0.209930 -0.327232 0.471696 0.071282 -0.100820 0.120160 0.306500 -0.097836 -0.966552 -0.334587 -0.097453 0.543219 0.078464 -0.652083 -0.364230 -0.837321 0.320973 0.020500 -0.272825 0.225177 0.642430 -0.618072 0.393973 0.141791 0.005433 -0.003500 -0.544703 -0.358594 -0.527923 -0.435422 0.707654 -0.151045 0.379274 0.302249 0.174209 0.893395 -0.261484 -0.342107 -0.160755 0.324688 -0.101984 0.105720 -0.050445 -0.236933
a@@ 0.492229 -0.521675 -0.559622 0.323318 0.596377 -0.887494 -0.520876 -0.569363 0.017531 0.601805 -0.819099 0.948387 0.660331 -0.101436 1.315730 0.223478 0.141040 0.242373 -0.274101 0.432969 0.176801 0.942340 0.366733 -1.510970 0.030866 -0.316377 0.104335 0.193471 0.691403 0.311876 -0.072009 -0.131368 0.625628 0.158054 -0.000978 0.020161 -1.239468 -0.636178 0.184838 0.167531 0.016546 1.116722 0.256901 -0.224469 -1.163701 0.235373 0.912513 0.466849 -1.071948 -1.072168 -0.515788 1.325565 0.110367 -0.678181 0.211143 -0.412679 0.482253 -0.653454 0.509607 -0.340591 0.218949 -0.693890 0.313432 -0.175488
e -0.072115 0.808624 0.284871 0.218747 1.225624 0.065269 0.058925 -0.169524 -0.403725 -0.355410 0.288030 -0.100661 0.195821 -0.347811 -0.519213 0.130274 0.358878 0.823891 0.331495 0.101276 0.163559 -0.048531 -0.728319 0.450374 0.161175 -0.453621 -0.780544 0.536698 -0.035689 0.701658 -0.703595 -0.448526 -0.496135 0.272179 0.528602 -0.096066 0.167259 -0.797847 -0.212643 0.042082 -0.431135 -0.488878 1.263479 0.174376 -1.073270 0.515556 -0.217480 -0.043924 -0.745773 0.349723 0.958450 -0.955380 0.260154 -0.297003 0.928378 -0.035158 -0.150195 0.416943 -0.859452 -0.409498 -0.554449 -0.662428 0.243710 0.053807
mi -0.088154 0.680946 0.673124 0.798493 1.012847 -0.832751 -0.828686 -0.165274 -1.408855 -1.052879 0.375314 -0.600873 -1.555644 0.562328 0.158843 -1.248406 -1.135985 -0.430581 0.263319 0.620030 0.362613 -0.113224 -0.540532 1.155741 0.156787 0.267587 0.342949 0.374539 0.332256 -0.241640 -0.242759 -0.589532 0.392243 -0.054028 0.117098 0.399813 0.530741 0.301472 -0.736246 -0.209106 -0.526695 -0.292204 -0.230320 0.559826 0.288253 0.312402 0.518109 0.499121 -0.170125 0.253682 -0.065045 1.086941 -0.129465 0.234223 -0.244562 -0.902868 -1.234440 0.966679 0.483454 0.074574 -0.340993 1.152445 1.177840 0.395958
bueno -0.815684 0.769199 0.717196 -0.086162 0.558719 0.094339 0.459415 0.011566 -0.530241 -1.107335 0.106815 -0.345105 -0.741071 0.592175 0.073126 -0.042229 -0.187551 -0.466206 -0.223442 -0.333663 -0.238065 -0.391007 0.652122 0.085476 0.161838 0.205354 -0.036833 0.354172 -0.793319 -0.166197 -0.279709 0.280073 -0.066710 -0.236680 -0.078035 0.065777 -0.331527 0.714689 -0.417848 -0.336635 -0.014122 0.677864 0.116577 0.820158 0.151647 -0.339464 -0.163690 0.169401 -0.195249 -0.160704 -0.097489 -0.002457 0.370053 0.630912 -0.171926 0.555531 -0.615522 -0.099943 -0.089181 0.064542 0.355004 0.079378 0.675027 0.305754
i@@ -1.143004 -0.635651 -0.513459 0.624593 -0.411396 -0.531799 -0.378277 -0.361121 0.125846 0.116101 0.026173 -1.083591 -0.817337 -0.213021 -0.259553 -0.083500 -0.700622 -0.643109 -0.615749 -1.430147 0.898905 0.179548 -0.457337 0.235198 -0.975718 -0.822741 0.841099 0.490637 0.491617 1.116661 -0.027858 -0.151281 -0.226501 -0.574955 -0.467367 -0.886582 -0.464572 0.120204 -0.174705 0.501960 -0.531639 -0.558350 -1.386344 0.185759 0.305490 -0.587155 0.074413 1.013375 -0.053457 0.368974 0.280997 0.219962 0.206297 -0.461444 -0.566599 -0.324808 -0.201584 -0.353381 0.339028 -0.726978 -1.304660 -0.640897 -0.477836 0.208045
las -0.471489 0.456646 0.752908 0.130241 -0.504915 0.117282 0.258667 0.097332 -0.749913 -0.209282 0.714925 0.116850 -0.790250 -0.274236 1.139118 -0.770380 0.376142 0.066369 0.610258 -0.308973 -0.731043 0.543300 0.151418 -0.324007 -0.562552 0.342529 -0.620361 0.211921 -0.909044 -0.836275 0.038005 0.126122 -0.414292 -0.549452 -0.536615 0.385402 -0.486071 -0.433248 -0.776765 0.036660 -0.406535 0.233806 0.689364 0.357760 1.113788 -0.763471 -0.299199 -0.753625 0.915844 -0.548830 1.007103 -0.594900 -0.485485 -0.026266 0.463032 0.599529 -0.518833 0.553171 0.123920 0.956984 0.507070 0.648196 -0.160957 -0.047233
pues -0.615194 0.633953 0.362190 -0.199486 0.592427 -0.137867 -0.030545 0.483241 -0.298736 0.184799 0.180117 0.679987 -0.176046 -0.239497 -0.299192 -0.525284 0.628232 0.590448 0.202780 -0.405788 -0.405721 -0.497672 0.261541 -0.538714 0.136992 0.015444 -0.005213 -0.617248 -0.116827 -1.024074 0.109148 0.417282 -0.485225 0.375748 -0.298302 -0.326160 0.239283 0.174505 -0.138855 -0.088598 0.033253 0.158161 0.026120 0.216005 -0.208675 -0.336249 0.043268 -0.358272 -0.125661 0.120288 -0.080157 -0.911489 -0.198078 -0.022445 0.766957 0.302867 -0.158030 0.132143 0.187314 0.162777 0.498825 0.440482 -0.167063 -0.247792
hay -0.371915 0.651300 0.474764 0.348200 -0.740116 -0.224325 0.694344 0.541418 -0.312675 -0.371374 0.432093 0.381359 0.200409 -0.028575 0.154745 -0.803333 -0.028484 0.187106 -0.030590 -0.516504 -0.428343 -0.411339 -0.420505 0.381485 -0.189490 -0.163370 0.208886 -0.060177 -0.705642 -0.306582 0.560924 0.031073 -0.070210 -0.517267 0.503581 -0.218971 1.050455 0.048025 0.534345 -1.057451 -0.270580 -0.109039 0.029362 0.397338 -0.372961 -0.553167 -1.639724 -0.869683 -0.201007 -0.627754 -0.553475 -0.033140 0.288180 0.310412 -0.227280 0.017302 -0.566279 -0.480631 -0.614166 0.148406 -0.105420 1.190029 0.009068 -0.228463
ar 0.772755 -0.015400 0.221322 0.657296 -0.310608 1.224795 0.736072 0.838928 0.400530 0.365327 0.303677 0.049107 0.956550 0.519098 -0.683086 -0.417514 -0.726720 0.080907 -0.332466 0.142918 -0.545775 -1.222832 0.167217 -0.547172 -0.001541 -0.748224 -0.515624 0.509910 -0.192222 -0.085140 0.832458 -0.207259 0.372892 -0.010773 -0.143877 -0.176712 0.243253 -0.517021 1.070778 -0.759119 0.799821 0.191809 -0.126635 -0.280325 0.446892 0.626808 0.025747 -0.166002 0.345116 -0.225215 -0.507282 -1.190550 -0.109380 0.278076 -1.096353 0.127283 0.090336 -0.242250 -0.009266 -0.310502 -0.230645 -0.254150 0.001521 -0.230701
d@@ -0.951052 -0.316860 0.963832 0.553254 0.875568 0.686679 0.154111 0.133909 -0.501112 0.526932 -0.142805 -0.188627 -0.194459 0.387074 -0.246833 -0.239826 -0.055340 0.439196 -0.671465 -0.471249 0.648241 -0.632021 0.166776 -0.664982 -0.005929 0.588359 -0.908426 -0.225356 -0.684618 0.417696 -0.637355 0.266949 -0.351707 0.609993 -0.414139 -0.166423 -0.435935 -0.080252 -0.556455 1.304391 0.370556 0.194136 -0.027300 -0.442652 -0.997274 0.281390 -0.026648 -0.036819 0.351991 0.028969 0.066385 -0.534282 0.364420 -0.663680 0.222714 0.560401 -0.528473 0.025244 -0.893554 -0.231975 -0.160408 0.473181 0.272392 0.011531
t@@ -0.052153 0.296334 1.256162 0.309354 0.482309 -1.058727 -0.157341 -1.196684 -0.695813 -0.151996 -0.326200 1.273735 -0.432101 0.649197 -0.394489 -0.359684 -1.024474 -0.103173 -0.119307 -0.019069 1.706957 0.203118 0.169941 0.705469 -0.282928 -0.025164 -0.091244 0.388049 -0.158468 0.609087 0.647646 0.012759 0.099021 -0.254302 -0.585791 -0.064361 0.883397 0.063288 -0.376406 -0.660840 1.140094 0.951237 0.350460 0.891069 1.029604 -0.120160 0.459971 0.048001 0.661504 -0.243892 -0.451925 0.919575 0.217096 1.131470 0.063663 0.669252 -0.713844 0.405815 -0.237340 -0.452443 0.112897 0.700284 -0.242204 0.297939
r@@ -1.156148 0.617099 0.311471 -0.349202 0.576577 0.007503 0.132521 0.070811 -0.587347 -0.944877 -0.190276 -0.041984 0.165620 0.351368 -0.556707 0.549586 0.979665 -0.768075 0.388907 -1.023086 -0.082354 0.254813 -0.287462 -0.147879 -0.216382 -0.149838 0.170791 -0.419315 -0.131683 0.419083 -0.144013 -0.467246 -0.783808 -0.663102 -0.164456 0.712306 0.390995 0.019445 -1.022629 -0.305563 1.105694 0.087882 0.971751 -0.232903 -0.155572 -0.921142 0.287743 0.493478 -0.195422 -0.496113 -0.233200 -0.612787 -0.173672 0.054550 -0.037337 0.353453 -0.457180 -0.283923 -0.454924 0.213088 0.251493 0.261884 0.203304 -0.000823
claro -0.716714 -0.545309 -0.373278 -0.108633 -0.614625 -0.134046 0.062393 0.027465 -1.232612 -0.195936 -0.794444 -0.938462 -0.160718 0.238643 0.167996 0.042123 -0.206827 -0.322221 -0.683445 0.533251 0.552269 -0.197481 -0.209587 -0.403707 -0.641764 0.305737 -0.102559 -0.019017 0.319488 -0.337991 -0.929319 0.290843 -0.012395 -0.649533 -0.036487 -0.289834 -0.598624 0.732179 -0.985529 0.891476 0.433657 -0.241602 0.152283 0.813830 -0.054603 -0.971251 -0.788269 -0.307754 0.092409 0.682984 0.241674 -0.766090 0.521880 0.310196 -0.239693 0.426454 -0.128591 0.362979 -0.223428 0.250380 -0.392805 0.406242 0.158957 -0.175542
m@@ -0.767364 0.602449 0.107711 0.188017 0.497505 -0.818979 0.590530 -0.315634 -0.102156 -0.841117 0.595103 0.729896 -0.821937 -0.112951 -0.342974 -0.617264 -0.155899 0.140638 0.532130 -0.503581 0.286426 -0.047704 -0.024421 0.314621 0.239257 0.524173 0.078728 -0.007766 0.001780 0.067112 0.403102 0.391905 -0.120785 -0.737365 0.135774 -0.647681 0.627217 -0.178368 -0.925468 -0.491991 -0.180847 0.149701 -0.775291 0.773086 -0.381011 0.086276 -0.561909 -0.088818 -0.177906 0.791237 -0.330971 -0.629843 0.282214 -0.014498 -0.513513 0.084003 -0.424785 0.234284 -0.208970 0.712338 0.809131 0.333722 -1.190120 0.054670
le 1.141022 -0.116492 -1.102641 -0.187409 -0.012801 -0.607419 -1.039880 0.332800 0.484036 0.020645 -0.408470 0.170216 0.129580 1.236560 -0.408486 0.725066 -0.453571 -0.383519 -0.780182 0.282206 -0.006578 -0.341640 -0.236953 0.584543 -0.312778 -0.400693 -0.361475 0.465958 0.488829 0.216488 -0.915699 -0.504094 0.655548 -0.867813 0.040488 0.185973 0.103596 0.643596 -0.418795 -0.844351 -0.359752 0.049100 -0.276529 0.755135 -0.425213 0.779482 0.971880 -0.959373 -0.319809 -0.003580 -1.043899 1.737876 0.102868 -0.036663 -0.186238 0.583640 -0.211229 0.174647 0.276490 -0.219566 -0.845236 -0.030359 -0.825302 -0.275151
c@@ -0.693889 1.337194 1.326093 -0.599493 0.376543 -0.311823 0.345261 -0.028867 -0.922054 -0.263481 0.114946 0.299570 0.086907 0.462469 0.354140 -0.901242 0.615518 -1.030785 0.813998 0.506544 -0.286000 0.069462 0.602466 -0.282928 -0.657012 0.427396 0.096289 -0.119791 0.044674 -0.185516 -0.378070 0.300286 -0.070434 0.134256 0.371375 -0.296848 0.411445 0.355818 -0.529507 0.200720 0.773176 0.743617 0.478969 -0.410136 0.585530 -0.229540 0.179395 -0.728730 -0.674938 -0.934379 -0.093265 -0.649078 -0.364132 0.051007 -0.230803 0.719098 -0.532411 0.705047 -0.308944 0.687696 -0.335387 0.491532 -0.207350 0.164190
mhm 0.353877 -0.248557 -0.515641 -0.027854 0.463187 -0.607242 0.530950 0.076249 -0.035597 0.577831 -0.886385 -0.009404 -0.718186 1.006851 -0.251069 0.093247 0.289965 -0.247836 0.775656 1.128342 0.453756 0.871261 -0.460280 -0.819815 -0.179728 -0.845498 0.037104 0.536986 0.704722 1.622620 0.089286 -0.755384 0.400038 0.097152 0.549369 0.179924 -0.304439 -0.290906 1.107726 -0.495039 0.683041 1.120946 0.532716 -0.413584 -0.370597 1.210241 -0.167525 0.241510 -0.737722 -0.318043 -0.955546 0.605052 -0.589751 0.350747 -1.353759 -0.343086 0.998811 0.078925 -0.580550 0.655512 -0.253423 -0.530806 -0.256450 0.523733
vi@@ 1.143008 -0.005911 1.102398 -0.815193 0.604074 -1.095543 0.397322 0.703207 0.207223 0.583709 -0.039779 0.734114 0.921314 0.269325 -0.733569 0.936468 -0.662289 0.995204 0.646378 0.146107 -0.372970 -0.331452 -0.438920 0.241852 0.238391 -0.057105 -0.335377 0.104876 0.123417 -0.475719 -0.768774 -0.589636 -0.150344 0.668906 0.275614 0.312774 -0.018408 0.814518 0.894920 -0.619946 -0.157420 -0.705445 -0.063637 -0.727360 -1.087568 -0.007748 -0.328821 -1.421931 -0.702625 0.809201 -0.075495 0.244625 -0.999834 -0.789249 -0.452514 -1.188981 0.259099 -0.045040 0.539065 0.199846 0.246227 -0.016325 0.294306 -0.217601
está -0.608657 0.532560 0.451691 0.544238 -0.176643 -0.010240 -0.624189 0.315998 -0.291979 0.168365 0.314101 -0.283643 -0.520939 0.251162 -0.307442 -0.312513 0.282404 0.035726 -0.004540 -0.884815 -0.002927 -0.309196 0.237733 -0.604991 -0.170977 -0.073613 0.244495 -0.076026 -0.384508 -0.138725 -0.201074 0.875532 -0.174972 -0.350732 -0.381937 -0.124613 0.788509 0.150887 -0.160266 0.473652 0.300529 -0.512115 -0.009479 0.403759 0.096024 0.037448 -0.597363 -0.626021 0.441824 -0.420415 0.020591 -0.102532 0.113437 -0.803161 0.544888 0.832343 -0.388788 0.436664 -0.348264 0.076268 -0.543684 0.430762 0.367043 -0.107089
así -0.490789 -0.357669 0.164474 -0.111387 -0.075250 -0.249034 0.059949 -1.055633 0.639858 -1.162799 -0.333975 -0.000865 -0.402305 0.883239 -0.095341 -0.097458 -0.026087 0.061111 0.117509 -0.231857 1.037862 1.213096 -0.987060 0.620975 -0.153195 -0.645715 -0.305430 -0.070482 0.205618 0.319478 -0.155772 -0.605134 0.362571 0.686744 -0.245925 -1.191917 0.291795 -0.378529 -0.786450 0.571828 -1.237162 -0.210781 -0.522828 0.806442 -0.152152 0.737053 -0.084606 1.262136 -0.042551 -0.181333 -1.476066 1.279873 0.037237 0.091158 0.503621 -0.188888 0.632794 0.517499 -0.419129 -0.352508 0.104761 1.007300 0.401818 -0.148153
entonces -0.409405 0.170529 0.606544 -0.464061 0.257529 0.308571 0.302405 0.575886 -0.381084 -0.768693 0.557139 0.499192 -0.808978 -0.206437 -0.208063 0.655681 0.501598 0.266619 0.041544 0.003503 -0.472151 0.276638 0.624519 0.275355 -0.492888 0.018641 -0.383570 0.258107 -0.319018 0.366496 -0.673332 0.245486 -0.370743 -0.020589 0.634697 0.032034 0.543167 -0.060900 0.182834 0.063922 1.048123 -0.123681 0.317944 0.081344 -0.392131 -0.057160 -0.137759 -0.119541 0.807249 0.420225 0.505349 -1.183114 0.321641 -0.459409 0.215906 -0.522417 -0.313712 -0.756136 -0.117025 0.613254 -0.799184 -0.650337 -0.094135 -0.212301
muy -0.023870 0.150512 0.737654 -0.640554 1.745442 -0.398527 -0.422743 -0.863673 -0.996464 -1.946370 0.195480 -0.490535 0.050449 0.870161 0.208539 -0.058005 0.031852 -0.907351 -0.428883 0.545181 1.146450 0.727033 0.062739 0.542078 0.704585 0.459108 -0.744723 1.336467 0.315869 0.275075 -0.980299 -0.260128 0.079223 0.729099 0.424437 -0.351470 0.016330 -0.769559 0.040799 0.459178 0.515277 0.365176 -0.805432 -0.182628 -0.321426 0.404963 0.198887 0.402719 -0.948001 0.326818 -0.178014 0.953669 -0.659200 0.553446 -0.039600 -0.125574 -1.018829 0.345896 0.112888 -0.446817 -0.053370 0.514670 0.547452 1.127104
g@@ 0.378309 -0.361980 -1.052094 0.180695 -1.136708 0.393269 -0.399140 0.169868 1.604583 1.723187 0.214557 0.335852 -0.056418 -0.432811 -0.333371 0.625130 -0.182552 0.422525 0.495224 -0.583097 -0.511042 -0.523268 -1.079213 -0.079699 0.204680 -0.019348 -0.118258 -1.291694 0.027859 -0.636802 0.529074 0.141685 0.423316 0.693967 0.067795 0.011573 0.203481 -0.130771 1.598302 -0.569927 0.244242 -0.564137 -0.464924 -0.940454 -0.026416 0.329146 0.548616 0.619215 0.698960 0.651575 -0.694356 -0.557237 0.187323 -1.371117 -1.227526 0.584860 0.409688 -0.387217 -0.594057 0.063491 0.238424 -0.158802 -1.039824 -0.140324
di@@ -0.040282 0.429539 0.069506 0.012205 -0.607389 0.306003 0.241637 -0.803215 -0.716561 -0.232603 0.735066 -0.279440 -1.515448 0.100621 0.863668 0.052564 0.394636 -0.469869 0.138185 -0.532685 -0.285690 -0.187605 0.655666 0.283628 -0.057250 0.790872 0.187446 -0.141197 -0.393456 -0.072890 -0.163527 0.579611 0.236319 -0.213312 -0.250654 -0.338261 -0.006722 0.127875 -0.414124 0.481807 -0.246430 -0.094298 -0.172642 -0.277345 0.349919 -1.264916 -0.285713 -0.694979 0.363712 0.012762 0.620933 -0.294227 0.585854 -0.105386 0.052202 0.516703 -0.614911 0.827166 -0.225185 0.176236 0.903219 -0.177217 0.016747 0.105979
o@@ -0.534651 0.351743 0.443601 0.091847 0.396859 0.511000 -0.440786 -0.603763 -0.614659 -0.286388 -0.357700 0.805293 -0.246646 -0.085572 -0.015475 -0.030160 -0.684471 0.749391 -0.095977 -0.141975 -0.143593 0.347237 -0.320025 -0.377454 -0.450974 0.532609 -0.527638 -1.108172 -1.082093 0.453207 0.150101 -0.114563 0.699117 -0.722471 -0.053579 0.153089 0.105774 -0.556085 -0.470279 -0.141892 -0.534458 0.201778 -0.303331 -0.334201 0.389673 0.500869 -0.070632 -0.430330 -0.042532 -0.294529 -0.370780 -0.026073 -0.351207 -0.688605 0.193161 0.374576 0.263927 -0.053974 -0.026387 -0.431838 1.054881 0.958540 0.022852 -1.095474
bien -0.794350 0.222872 0.010893 0.410310 -0.152555 -0.180147 0.094063 0.155243 0.418429 -0.630158 -0.045277 0.049843 -0.049629 -0.270168 -0.275840 0.543613 0.357166 -0.116323 -0.329495 0.092212 -0.502023 -0.764090 0.569972 0.713173 -0.121615 -0.002700 0.232779 -0.031855 -0.687158 -0.414781 0.176481 0.110112 -0.050269 0.176445 0.292424 0.249024 0.410729 0.273515 -0.324547 0.323305 0.216017 0.057997 -0.084378 0.348752 -0.040040 -0.168105 -0.241096 -0.527303 -0.742557 0.274639 0.235201 -0.344599 0.419132 0.200798 -0.150002 -0.106686 -0.225674 -0.163226 -0.131693 -0.238305 -0.759037 0.360871 0.019778 -0.526059
s@@ -0.950393 0.153542 0.393979 -0.032848 0.565089 -0.443475 0.547242 -0.024908 0.180170 -0.762648 0.002744 -0.283135 -1.176127 -0.162727 0.013794 0.046325 0.885527 -0.421075 -0.035599 -0.684589 0.033122 0.117817 0.144396 -0.271990 0.218924 0.190344 0.261968 -0.027545 -0.068330 0.444394 -0.382407 -0.262921 0.061432 -0.497943 -0.358686 -0.148991 -0.018020 -0.217000 -0.329452 0.224993 -0.636028 0.499023 0.043022 0.274458 -0.054435 -0.413315 0.082341 0.043393 -0.248511 -0.188258 -0.140632 -0.104942 -0.004020 0.209006 -0.024523 0.326213 -0.118725 -0.294913 0.562074 0.241464 0.629755 0.639134 -0.354774 0.270804
b@@ -0.264383 0.199041 0.659053 0.932046 0.420088 -0.277255 -1.124277 0.478676 -0.346196 0.029422 -0.160947 -0.567099 -0.607928 0.630937 0.394637 0.002645 0.300397 -0.173657 0.314562 -0.318636 -0.043166 -0.053790 0.067078 -0.244103 -0.004045 0.219678 -0.170244 -0.298420 -0.247373 -0.726047 0.385596 0.412394 0.066133 -0.368362 0.180086 0.063288 -0.017658 0.063740 -0.180775 1.379366 0.298012 -0.636656 0.408258 0.446419 0.795227 0.058614 0.054708 -0.586536 0.212124 -0.129451 0.407215 -0.407320 0.346196 -0.272519 0.421668 0.705213 0.197753 0.463590 -0.353094 0.299408 0.179757 -0.039208 0.740463 0.013271
al -0.033499 0.236840 0.418183 0.709101 0.175388 -0.183910 -0.348751 0.262787 -0.731123 -0.563018 -0.201913 -0.685083 -0.457487 -0.143954 -0.687150 -0.486291 0.267489 -0.464331 -0.289150 -0.924283 -0.148531 -0.026796 0.679100 -0.414732 0.352768 -0.169300 -0.222991 -0.646959 -0.292648 -0.783785 0.348352 -0.307913 -0.616559 0.008287 -0.150306 0.193915 -0.455549 0.431355 -0.602822 -0.381893 0.732050 -0.077442 0.183558 -0.260313 0.684112 0.158388 -0.294467 -0.205034 0.930764 -0.197237 0.507704 0.159748 -0.902848 -0.671038 0.420371 0.518871 0.197520 1.284108 0.208286 -0.049566 0.379472 0.927495 -0.017466 0.784521
in@@ -0.976610 -0.763639 -0.627675 -0.011877 -0.837482 -0.203885 0.235000 -0.238248 0.175767 0.004435 -0.237636 0.667710 0.539544 -0.231960 -0.185226 0.493547 0.772575 -0.276466 -0.466970 -0.383926 -0.137277 0.335244 0.282499 -0.649813 -0.805212 0.296703 0.187440 -0.587984 -0.448245 0.434738 0.009366 0.063159 0.048955 -0.557809 -0.984534 -0.141058 0.641376 0.532423 -0.731688 0.492495 0.493557 0.318311 0.119848 -0.161314 -0.591320 -0.848173 -0.371307 0.768755 0.295583 0.157627 0.165293 -0.549554 -0.162187 0.176426 -0.185380 -0.003952 0.181322 0.427453 -0.790729 0.808441 -0.263576 -1.420096 -0.703693 -0.791589
también 0.229017 -0.686139 -0.204190 0.225316 0.545099 -1.063689 -0.773806 -0.177192 -1.351320 -1.015620 -0.694141 -0.146430 0.329570 -0.044110 -0.369781 0.571321 -0.213093 -0.655243 0.950073 1.510570 0.452513 0.821822 -0.120632 0.659865 0.564652 -0.646379 0.642246 -0.195847 0.789020 -0.161981 0.541639 0.308542 -0.662624 -0.483103 0.733279 0.465532 -0.470604 -0.670830 0.049791 -0.150353 0.076548 0.443262 -0.846309 0.000206 0.165365 0.987935 0.208960 0.395718 0.393246 0.422958 0.517409 -0.097105 0.053143 0.172311 -0.226451 0.607761 0.936900 0.627307 -0.299697 -0.191180 -0.934094 0.499006 0.209673 -0.021812
p@@ -0.567094 0.208460 -0.299679 -0.176379 -0.078083 0.287732 0.212770 1.121282 -0.228192 0.441755 -0.603517 -1.040491 0.202008 -0.426067 0.108614 0.404239 0.451931 0.365214 -0.410908 -0.616229 0.819638 -0.651433 0.942422 -0.292272 0.783226 0.307047 0.411048 -0.046052 -0.534723 -0.861916 0.038351 0.660018 0.136452 0.330495 -0.186069 0.899231 -0.686756 0.604850 0.395495 0.816584 1.202116 -0.477327 -0.283297 -0.448242 -0.436651 0.155212 0.750625 -0.274604 0.987795 0.149813 1.508091 -1.312099 0.141239 -0.086651 -0.105865 1.031213 0.091329 -0.091008 -0.507270 0.824899 -0.368617 -0.109260 -0.102130 0.189024
os -0.672191 0.527763 0.081789 -0.042724 0.136954 0.726679 -0.172094 0.756471 -0.544004 0.238554 0.287755 0.013051 0.594143 0.034025 -0.609327 0.189638 0.040697 -0.578481 -0.146748 -0.260678 -0.003594 0.305529 0.529661 -0.207338 -0.017798 0.069217 -0.039968 0.153598 -0.262081 -0.419024 -0.990267 0.246544 0.600081 -0.504597 -0.505186 0.272958 0.611137 0.333758 -0.030528 -0.174059 0.647295 -0.088044 0.576891 -0.064161 0.040284 -0.540045 0.193719 -0.306703 0.344466 -0.513061 0.881461 -0.524547 -0.728855 0.372105 0.072812 -0.174332 -0.653472 -0.041551 0.243740 -0.152979 -0.051367 0.442514 -0.271178 -0.025605
mm 0.354867 -0.378666 -0.414728 0.314502 -0.751713 0.317337 -0.064228 -0.511669 0.255400 0.185147 -0.178979 -0.189333 -0.200602 -0.070710 0.287828 -0.235972 0.425878 -0.711702 0.451672 -0.381302 -0.492580 -0.156206 0.652833 0.688537 -0.402134 0.392967 0.485842 -0.567678 -0.172965 -0.609379 0.467085 1.207101 -0.019654 -0.921007 0.333010 0.185444 -0.095269 0.542343 -1.036478 -0.095458 -0.428810 -0.059497 0.443224 0.080402 0.277736 -0.747830 -0.354647 -0.228897 0.480034 -0.875503 0.583921 -0.752341 0.126625 -0.382738 -0.509232 0.726459 -0.174069 0.942979 0.096515 -0.397805 0.099842 0.222187 0.127438 -0.066222
oh -0.302547 0.383163 0.524886 0.291098 -0.326247 0.158086 0.116895 0.600953 -0.347392 0.187935 -0.635865 -0.805296 -0.408458 -0.124637 -0.252185 0.311067 0.022890 0.058504 -0.202766 -0.317112 -0.638131 0.190464 -0.265384 -0.171620 -0.507207 0.300927 -0.492543 0.185000 -0.314718 -0.189255 -0.329627 -0.015169 -0.372273 -0.192299 0.380894 0.271642 -0.204377 -0.053584 -0.589360 0.404558 -0.340320 -0.403358 0.580667 0.122381 0.486115 -0.083395 -0.308349 -0.807439 0.122622 -0.196661 0.291530 -0.637327 -0.017501 -0.659304 0.574178 0.274146 -0.195409 0.700895 -0.228450 0.003021 0.147518 0.381299 0.606655 0.060333
ta 0.827309 -0.220899 -0.323951 1.166595 -0.841318 -0.132569 0.856374 -0.016289 -0.505764 0.392898 0.068673 -0.654903 0.680932 -0.699739 0.246573 0.335029 -1.045257 -0.014751 0.272955 0.855304 0.355489 -0.805616 0.359595 1.660669 0.810661 -0.361503 -0.148047 0.024896 0.764116 -0.799334 0.157170 0.268699 0.005819 0.452591 -0.199388 -0.133154 -0.469546 0.814776 -0.261114 -0.650868 0.330232 -1.277401 -0.292664 0.341578 0.527381 0.560976 0.470113 0.672278 0.680857 1.677077 1.028110 -0.400055 -0.177960 1.083729 -0.693362 -0.354688 -0.264897 0.505721 -0.581899 -0.701067 0.187413 0.434108 0.094016 -0.233953
sé -0.192493 0.429493 0.813953 -0.176128 -0.037355 0.189380 0.445101 0.518520 -0.549314 -0.353426 0.748591 -0.012480 -0.546320 -0.842302 0.641004 -0.076450 0.908837 0.549949 1.059848 -0.198432 -0.890907 -0.107698 0.759981 -0.166113 0.022081 0.922041 0.189889 0.079160 -0.532881 -1.276468 -0.774220 -0.130216 -0.326624 0.229202 -0.450586 0.262948 -0.479118 0.318894 -0.888620 -0.010861 -0.217929 -0.608163 0.101992 0.322526 0.571720 -0.522626 0.290913 -0.647059 0.919468 0.351020 1.349703 -1.315828 -0.234281 0.031106 0.498378 0.415696 -1.091562 0.454683 0.125813 0.440433 0.350947 0.347667 -0.158981 0.102900
l@@ 0.003495 0.371571 -0.003910 -0.117263 0.298209 0.829921 -0.166335 -0.512898 0.602071 0.067200 -0.282850 -0.169217 -0.186831 0.088794 -0.612984 0.230691 -0.061764 0.429681 0.286153 1.128514 0.612796 0.416164 0.322200 0.621958 0.443102 -0.211281 -0.698035 -0.153717 -0.280614 0.669213 -0.681171 0.373492 -0.191080 0.612071 -0.738989 0.449159 -0.192780 -0.528403 0.293671 0.710173 1.198159 0.355864 -0.657437 -0.687911 -1.269126 -0.256759 0.024340 0.745837 -0.479674 -0.445823 -0.662432 0.261778 0.178003 0.820657 -0.456572 0.435710 -1.179352 -1.592470 -0.536579 1.144653 0.017157 -1.122886 0.139124 0.107396
ci@@ 0.114204 0.810728 0.921760 -0.467656 0.463514 -0.020794 -0.500480 0.108535 -0.168166 0.605035 -0.143914 1.495176 -0.097263 -0.200194 0.348325 -0.977076 -0.317989 -0.773500 -0.052352 0.548563 -0.097522 0.923543 0.406641 -0.065172 -0.131118 1.360166 -0.794107 0.198021 -0.249217 -0.411326 -0.313177 -0.278857 0.404176 0.656719 -0.579838 -0.202914 1.009077 -0.916077 0.309323 -0.515521 0.509799 0.582732 -0.728229 0.596106 -0.094012 1.062194 -0.219994 -0.650328 -0.197571 0.348692 -0.161710 0.522444 -0.856775 0.176520 -0.127421 -0.571372 -0.971000 0.581812 -0.562255 0.044083 -0.130595 -0.629032 -0.691250 0.312876
uno 0.231901 -0.018434 -0.422916 -0.496234 -0.842623 -0.528404 0.694048 0.149201 -0.160498 0.067792 0.531250 -0.914295 -0.566858 -0.606194 0.072833 0.132712 0.928009 0.201844 0.056043 -0.085205 -0.604881 -0.251883 0.503547 -0.104649 -1.081379 -0.517960 -0.122495 -0.153684 -0.015974 -0.737734 -0.536252 -0.402648 -1.030390 -0.178008 0.425263 0.214078 0.094217 0.845756 0.225457 -0.112161 -0.777442 -0.582893 -0.143969 0.062225 0.313833 -0.686883 -0.129916 0.020305 1.330531 1.574676 0.710308 -1.219441 -0.940631 -0.336774 -0.017642 -0.052531 0.076293 0.932342 -0.730820 0.827167 0.117104 -0.616495 -0.055635 0.073279
todo -0.045798 0.645195 -0.615553 0.066845 0.024333 -0.155010 -0.999789 -0.896756 -0.173532 -0.520034 -0.461501 0.090870 -0.605443 -0.135241 -0.231327 0.533263 -1.156400 0.261119 0.785778 0.967896 -0.098359 1.079533 -0.549487 -0.980266 -0.518312 -0.671322 -0.511158 0.241897 0.632299 0.436152 -0.235423 -0.842320 0.387629 0.746212 0.009978 0.165631 -0.192044 -0.347640 -0.422913 0.224566 -0.796168 -0.170037 0.431327 0.594506 -0.592005 0.735038 0.097986 -0.756027 -1.156871 0.433524 -0.580228 0.871168 -0.547281 0.454591 0.894587 -0.896639 -0.511222 -0.229363 0.535482 -0.693207 0.869484 -0.142235 -0.468969 0.211774
u@@ 0.633220 -0.766921 -0.073483 0.808859 0.792919 -0.991741 0.238522 -0.420338 -0.253005 -0.168950 -0.089822 -0.671973 0.128877 0.895099 0.230988 0.357874 -0.338248 -0.690439 -0.200026 1.131774 1.111193 0.217387 -0.003449 0.751985 0.043572 0.026526 -0.098631 -0.899950 1.302472 0.620927 1.003694 -0.312070 0.465257 0.551857 0.877625 0.638205 -0.052038 -0.587829 0.490391 0.632512 -0.016100 1.527770 -1.035644 -0.054008 -0.390583 -0.000026 -0.026559 0.736281 -0.115770 -0.112983 -0.346118 1.245276 0.602911 -0.259049 0.620634 -0.018618 -0.475560 -0.755370 0.315845 -1.104149 0.106548 0.653391 -0.061061 0.125587
to -0.290507 0.539510 -0.032889 0.302499 -0.035506 0.743157 0.387852 0.367889 -0.213655 -0.053770 -0.384969 -0.490487 -0.273837 -0.621938 -0.473277 0.481992 0.280443 0.291145 0.194772 -0.572396 0.168705 -0.377750 0.665380 -0.000817 -0.367484 0.266965 -0.070731 -0.655546 0.017420 -0.648054 -0.021198 -0.026401 0.296753 0.158107 0.455492 0.355614 -0.367889 -0.359363 0.172698 -0.331396 -0.090285 -0.561990 0.621252 0.273553 -0.342726 0.198101 0.399851 -0.194124 -0.098096 0.330931 -0.002083 -0.241634 0.108873 -0.228495 -0.031553 0.881685 0.374391 0.192150 -0.574367 0.161918 0.239899 0.029967 -0.281483 -0.185356
f@@ -0.420837 0.387100 0.485752 0.281457 0.320789 0.348381 -0.048479 0.394428 0.138115 -0.238151 -0.129741 -0.221688 -0.116002 -0.103050 -0.199803 0.016924 -0.046810 -0.281594 -0.091541 -0.305770 -0.121474 0.237755 0.208962 -0.022983 -0.123612 0.235727 -0.268247 0.085422 -0.399009 -0.334180 -0.423320 0.212261 -0.006186 -0.007978 0.294020 0.056840 0.109654 -0.000480 -0.634904 0.499207 0.005076 0.756487 0.404079 0.416784 -0.021441 -0.262962 -0.454975 -0.645863 -0.199661 -0.234063 0.246298 -0.075430 0.224537 0.066821 0.211410 0.114467 -0.547712 -0.800760 -0.044297 0.028514 0.188915 0.370377 0.130711 0.000536
er@@ -0.395584 0.882203 1.060516 0.215229 0.415275 -0.025380 0.155389 0.642480 -0.409848 -0.781850 0.333790 0.160023 -0.182657 0.625905 -1.086914 0.397535 0.423475 0.232664 0.879045 -0.195663 -0.027867 -0.368327 -0.037967 1.083952 0.777294 -0.231158 0.023938 -0.353040 0.342553 -0.108145 -0.270890 -0.761653 -0.696610 0.286587 0.906473 0.122012 0.618259 -0.711517 -0.904866 -0.855002 -0.246471 0.074754 1.200277 0.079718 0.021164 -0.180388 0.132468 -0.514246 0.245580 0.328375 0.579014 -0.039889 -0.230587 0.001465 -0.015076 -0.021414 0.044832 0.294289 0.261482 0.451386 -0.122784 1.169139 0.214653 -0.058653
sea -0.086850 0.662764 0.414556 -0.089985 0.144289 0.247684 -1.002099 0.315683 -0.083710 -0.302510 0.602327 -0.429744 -0.482712 0.345875 -0.234592 0.334411 -0.227331 -0.103600 -0.128957 -0.227422 0.314318 -0.188929 0.711666 0.098532 -0.108520 0.660789 -0.486172 -0.683228 -0.552619 -0.635629 -0.491251 0.098459 0.178231 0.150341 -0.205784 -0.316452 0.462584 -0.098777 -0.158770 0.556239 0.284234 -0.190849 -0.182769 0.506627 -0.022158 0.200438 -0.079349 -0.887682 0.019698 0.889000 0.827712 -0.646310 0.277639 -0.213754 -0.528550 0.771869 -0.505238 0.855993 -0.364552 0.037711 0.793820 0.684186 0.294810 -0.089080
ti@@ 0.069708 -0.133037 -0.037341 -0.088107 -0.794466 -1.254066 -0.336795 -0.526715 0.568489 -0.560891 -0.471246 -0.190488 0.253730 0.560686 -0.228079 -0.554329 0.084551 0.037912 -0.063529 -0.542671 0.965222 0.084339 0.594541 -0.711050 0.093110 -0.545085 -0.047891 -0.496437 0.589350 0.109030 0.412644 -0.025238 0.653195 0.059073 0.305924 0.537361 0.035842 -0.105423 -0.384909 -0.437346 -0.379880 -0.822856 0.401627 -0.914525 0.982276 1.035753 0.634729 0.527436 0.320396 -0.538475 -1.612767 0.551437 1.599189 -0.034062 -0.248287 0.485690 0.388713 1.240532 -0.212376 0.067631 0.092307 0.057016 0.158767 0.259895
v@@ -0.332224 0.572574 0.118141 -0.197129 0.404274 -0.356838 -0.175055 0.486807 -0.537380 0.050304 0.025623 -0.295258 -0.453471 -0.022171 0.059989 -0.145221 -0.041234 -0.299061 0.155802 -0.602565 0.103746 0.066235 0.397099 0.064380 0.239283 0.077880 -0.068283 0.137618 -0.409925 -0.192578 -0.185964 -0.054857 -0.085760 -0.025192 -0.050936 0.182269 -0.292883 0.487618 -0.632819 -0.220992 0.182945 -0.056621 0.041963 0.395904 0.469635 -0.354502 0.096531 0.163920 0.004941 0.197398 0.368724 -0.370176 0.129662 0.165254 0.007364 0.032634 -0.733462 -0.097075 -0.496770 0.113549 -0.050895 0.235739 0.008056 0.156386
an@@ -0.345179 -0.249794 -0.522548 -0.902022 0.516118 0.548656 0.861981 0.126312 0.019930 0.235922 0.214871 -0.849507 -0.113510 -0.068799 0.020301 -0.245549 0.060059 0.148207 -0.147754 0.302227 0.174377 -0.018379 0.274542 0.108468 0.628126 0.881078 -0.144954 0.462974 -0.670973 -0.313062 -1.472897 0.558810 -1.116563 -0.275588 -0.353490 -0.395574 -0.262380 -0.197139 0.767770 0.403574 -0.103399 -0.286672 -0.474136 -0.168899 -0.165637 0.263362 0.385530 -0.660693 0.004475 0.200825 0.133959 -0.531168 1.414705 -0.808174 0.381328 0.266830 -0.680202 -0.737664 0.263031 0.237269 -0.537605 -0.367268 0.667198 -0.326044
aquí 0.096368 -1.018524 -0.734515 -0.350474 -0.777831 -0.636521 0.878392 -0.123107 1.124492 0.495383 -0.257389 1.374666 -0.232032 0.438286 -0.458443 0.614596 -0.022158 0.167143 0.356389 -0.033722 -0.234315 -0.778392 -0.491779 0.518539 0.003026 -0.597928 0.494942 -0.350438 0.131501 0.041086 0.497704 0.332596 0.519039 1.288881 0.490218 -0.146598 0.373209 -0.110319 0.986970 -0.759010 -0.536961 -0.628002 0.271840 -0.288214 -0.507342 1.072896 0.021759 -0.124343 -0.523733 0.668423 -0.933267 0.126413 0.412397 -0.060831 -0.961506 -0.701311 0.461125 0.115467 0.048605 -0.047670 -0.248758 -0.108638 -0.597725 -0.033678
an 0.140102 0.509897 -0.285649 -0.592776 0.055597 0.186554 0.002765 -0.936333 -0.831857 0.047989 -0.113041 -0.277811 0.539945 0.488299 -0.005432 0.197916 -0.504987 -0.370930 -0.536217 -0.142864 0.609576 1.083427 -0.429216 0.516769 0.227220 0.176163 -0.112094 1.192557 0.627426 0.367978 0.142545 -0.759670 -0.086165 0.103617 0.537186 -0.162049 -0.673647 -0.814215 0.326434 0.215997 0.858959 0.344717 0.370417 -0.126176 -0.421935 0.283065 0.234493 0.425632 -0.012264 -0.100058 0.422205 -0.245186 -0.294716 -0.218276 0.344260 0.215829 -0.242744 -0.910290 -0.353834 -0.006641 0.088375 -0.948624 0.077112 1.864667
son -0.460667 0.019937 0.210432 0.286213 0.397384 0.284083 0.716064 0.226035 -0.201419 -0.485052 -0.031958 -0.356680 -0.533366 -0.060399 -0.225239 0.252016 0.524593 0.015275 -0.144849 -0.721441 -0.037839 0.181786 -0.204156 -0.284473 0.140033 -0.122636 -0.027095 0.200563 -0.380616 0.185757 -0.854707 -0.462772 -0.514449 -0.276990 0.132820 -0.185773 -0.059667 0.004099 -0.343557 0.390419 0.075990 0.029379 0.667172 0.322171 0.266235 -0.433441 -0.313602 -0.001124 -0.101166 0.489708 0.147746 -0.518119 0.478651 0.061821 0.525372 -0.211715 -0.125498 -0.343554 -0.112789 0.213929 -0.234302 -0.196691 0.367074 0.226297
si@@ -0.122094 0.346607 1.270531 0.153901 0.470760 -0.076143 0.567592 0.900076 -0.464572 -0.283097 0.679519 0.262332 0.358947 -0.361769 0.594329 -0.322665 0.490571 0.497410 -0.179208 -0.018644 -0.324686 0.780231 -0.400864 -0.674318 0.057203 0.070717 -0.831962 -0.036879 -0.628332 -1.013655 0.404261 -0.101416 -0.709956 0.724597 0.076625 0.122529 -0.106109 -0.041302 -0.221375 0.258903 0.002673 -0.040924 0.619522 -0.071251 0.063709 -0.377459 0.318580 0.679798 0.452050 -0.461022 -0.023412 -0.781611 -0.634809 -0.914816 0.153630 0.311058 0.141626 0.463199 -0.378910 0.754995 0.393589 0.489861 0.483939 -0.203949
ar@@ 0.125547 0.248869 -0.902915 -0.635877 -0.339761 -0.056616 -1.237846 -0.397017 -0.144687 0.253735 -0.051465 -1.121545 -1.423004 -0.019174 -0.276079 0.010914 0.033016 -1.057741 -0.448406 0.518082 0.947672 -0.057734 -0.417760 0.019583 -0.024840 0.111624 -1.497863 -0.677657 0.218540 0.732843 0.440292 -0.784999 -0.257754 -0.255176 -0.162242 -0.069888 -0.512821 -0.397762 -0.426658 0.487326 -1.170014 0.689192 0.345781 0.585002 -0.748913 -0.268312 0.169575 1.574554 -0.146278 0.338878 -0.498478 0.401210 1.269577 0.064035 -0.344473 -0.892694 -0.205572 -0.303421 0.127294 -1.035867 1.243976 -0.883478 -0.336305 0.845763
re@@ 0.305601 0.831812 -0.150056 -0.662377 -0.073437 -1.063172 0.981228 -0.694242 -0.645395 -0.199064 0.644652 -0.308192 0.147351 0.924166 -0.814305 0.752907 -0.222385 -0.388523 0.734923 0.311147 -0.421907 0.090096 -0.651101 1.008433 0.514080 -0.327552 1.227706 0.897872 0.755364 0.420158 0.305021 0.157311 0.420190 0.934633 0.504062 -0.861148 0.311477 -0.895306 0.361276 -0.687762 0.223308 0.580980 -0.150369 0.253446 -0.348340 -0.449471 -0.401103 0.332932 -0.303417 0.535948 -0.247254 0.756774 0.245669 0.543173 -0.694480 -0.288330 0.477832 -0.172295 -0.192363 0.125957 -0.971755 0.082406 0.606069 0.230984
do -0.788040 0.248409 0.465583 0.258261 0.261012 -0.380440 0.491434 0.032278 0.090212 0.040048 0.033247 0.837749 0.298526 0.284173 -0.210466 -0.065377 0.411286 0.582745 -0.130296 -0.483005 0.070659 0.620485 -0.126674 0.195804 -0.223212 0.538958 0.283514 0.259532 -1.073919 0.345013 0.005164 0.233460 -0.199136 -0.504686 0.196611 0.119004 0.014910 -0.047829 -0.267663 -0.513734 0.396313 0.074682 0.749293 0.105244 0.130619 -0.619669 -1.268513 -0.258845 -0.497679 -0.949430 -0.267790 0.113223 -0.004174 0.091612 -0.404691 0.230695 -0.522743 -0.288478 -0.004991 -0.012027 -0.435410 0.313488 0.332698 -0.415475
ado 0.866318 0.187129 0.086627 -0.236904 -0.485486 -0.103314 -0.255714 0.433815 -0.063026 1.206898 -0.787674 0.305386 0.576804 0.107464 0.174328 0.490535 -1.211691 0.319375 -0.103639 0.847603 0.110753 0.095811 -0.435916 -0.852719 0.928023 -0.290532 -0.977081 -0.650918 0.092992 0.721689 0.588502 0.074187 1.023636 0.642698 0.517410 0.234097 1.351425 -0.112647 0.757295 -0.979074 0.333508 -0.290418 0.825287 -0.683741 0.068531 0.631363 0.126860 0.094552 -0.506332 0.593745 -0.083313 0.151074 -0.664521 0.362294 -0.693708 0.238398 0.997172 -0.447851 -0.565843 0.271893 0.126479 0.298452 0.333761 -0.165789
gente 0.669509 0.039184 -0.643760 -0.267578 -0.293543 0.271036 0.151847 0.415932 -0.478156 0.212215 -0.633997 -0.228220 -0.519645 -0.113266 -0.423150 0.649176 0.219219 -0.574923 0.162615 0.688526 -0.225649 -0.277292 -0.345135 -0.783307 -0.614277 -0.839388 1.276334 -0.557314 1.366221 -0.346063 -0.152776 -0.513708 -0.287436 -0.047799 -0.091247 1.019304 0.019602 0.665011 1.234325 -0.918201 -1.611109 -0.880884 -0.675390 -0.721246 -0.653921 -0.087353 0.902991 0.524412 0.639744 1.674297 0.694635 -0.478001 -0.502345 -0.242864 -0.920169 -0.138749 0.344825 0.152051 -0.430232 -0.146090 -0.227000 -0.517461 -0.530420 0.226864
en@@ 0.163807 -0.149776 -0.346245 -1.121658 0.683279 -0.371452 0.178328 0.626292 0.016978 -0.664035 -0.320525 -0.101433 0.634172 -0.534682 -0.670048 -0.328737 -0.589463 0.033838 -0.373701 -0.150839 0.676474 0.704242 -0.294699 0.517294 0.731667 0.853344 -0.350134 0.787200 0.038714 0.968850 -0.394808 0.030856 -0.420580 -0.046849 -0.032294 -0.175220 0.437581 -0.116282 -0.117793 0.385294 1.139809 0.047539 -1.021670 0.074790 0.551242 0.234732 -0.085635 -0.022208 -0.819174 -0.272818 0.267348 -0.701197 0.420944 1.038100 -0.176776 -0.095240 -0.605435 -0.746950 0.026998 0.347100 -0.955243 -0.299703 0.626348 1.713521
ando -1.185571 0.096472 -0.464462 0.238766 0.173288 -0.428272 -0.040593 -0.670563 -0.703263 -0.414253 -0.440386 -0.356384 0.766619 -0.005882 0.040137 0.058254 0.146370 -0.112498 -0.014011 -0.277654 0.582241 0.424369 -0.349423 -0.341577 -0.205431 -0.523991 -0.319342 -0.402001 -0.665912 0.125319 -0.064450 -0.263661 0.221970 -0.460420 -0.325570 0.736466 0.196189 -0.323081 -0.401760 1.208673 0.149231 0.193784 -0.086944 0.618999 0.469817 -0.826196 -0.944005 0.840460 -0.395005 -0.013281 0.500744 -0.298579 0.961133 0.420408 -0.752977 1.173240 0.051676 -0.162606 -0.021054 0.415093 -0.636952 -0.477222 -0.393166 -1.083084
tiene -0.311945 0.379279 0.170157 0.203936 0.203213 0.226702 -0.318038 0.203783 -0.220252 -0.330261 0.543079 -0.492499 -0.289001 -0.391685 0.170117 0.041900 0.376794 -0.165964 0.109473 -0.106895 -0.302623 -0.154287 0.272561 -0.389193 0.007903 0.314442 -0.038669 0.117908 -0.759808 -0.583713 -0.821978 0.280473 -0.302103 -0.211619 0.415963 -0.220323 -0.185342 0.100559 -0.034011 -0.024808 -0.309041 0.006084 0.298555 -0.151134 0.073139 0.079922 0.165798 -0.701856 0.341621 0.239573 0.771041 -0.411858 0.315126 -0.173295 0.107868 0.438743 -0.145347 -0.252384 -0.205854 0.363464 0.166160 0.330425 0.086749 0.211793
mucho -0.241922 0.257114 0.033262 0.484801 0.101771 0.223570 0.109190 -0.250059 0.003623 -0.025677 0.239814 -0.626677 -1.008324 -0.031319 -0.352507 0.185379 0.103655 -0.024511 -0.092960 -0.522065 -0.179981 0.127727 0.806743 -0.025163 -0.396591 -0.205914 -0.008329 -0.103714 -0.361403 -0.332049 -0.661718 0.659962 -0.308117 -0.043468 0.551162 -0.040244 0.104465 0.527193 0.050585 -0.157763 -0.201519 0.023756 0.310308 -0.183388 0.445670 -0.029724 0.216041 -0.395812 0.140222 0.156046 0.356989 -0.641013 0.760044 -0.309719 -0.311106 0.124792 0.076150 0.221549 -0.187652 0.082895 0.269284 0.376845 0.463914 -0.120687
era -0.671230 -0.044226 0.598649 0.021085 0.087027 0.425041 -0.159546 0.174469 0.920863 -0.244013 1.428465 1.168770 0.118174 -0.104890 0.586140 -1.009037 0.541011 0.042908 -0.108973 -0.878110 -0.232814 -1.197998 0.134627 0.067630 0.652768 0.573404 0.739412 -0.574978 -0.691803 -0.887805 0.483808 0.561278 -0.575393 -0.416725 -0.672063 -0.154008 1.226513 0.490882 0.367553 -0.621869 1.077945 -0.228845 -0.461804 -0.096320 -0.633432 -0.164502 0.128927 -0.157290 0.506868 0.266589 -0.439540 -0.315837 -0.501645 0.124754 0.092857 0.155607 -0.303573 0.452553 -0.805565 0.761540 0.455359 -0.415644 -0.817537 -0.202024
cómo -0.514705 0.138658 -0.161443 0.192629 -0.570907 0.189536 0.249830 0.163455 0.045098 -0.236754 0.278759 -0.382755 -0.673109 -0.286596 0.048049 0.223072 0.265513 0.042687 0.322801 0.076168 -0.532750 0.287600 -0.109548 -0.843546 -0.845489 -0.027271 -0.393016 -0.595016 -0.274433 -0.327069 0.225167 0.405738 0.583508 -0.520152 0.121360 -0.197320 0.081519 -0.215842 -0.658127 0.629710 -0.920184 -0.494001 0.201251 -0.068649 0.134188 0.120571 -0.383885 -0.476085 -0.200240 -0.087312 0.002166 -0.600331 0.263657 -0.210040 -0.031068 0.473393 -0.296481 0.026613 -0.021330 0.293870 0.101847 -0.042277 0.215138 -0.377963
cuando -0.573747 0.222644 0.447718 0.002612 0.108026 0.080644 0.218453 0.014466 -0.238860 -0.259614 -0.417499 -0.322197 -0.565005 -0.068968 -0.099586 0.001276 -0.026220 0.123259 0.282732 -0.189095 -0.269401 -0.126844 0.602928 0.227636 -0.156418 -0.029938 -0.334056 -0.007321 -0.405697 -0.300728 -0.317379 0.196636 -0.393802 0.057057 0.320238 -0.248912 0.251853 0.376985 -0.503488 0.227232 -0.105152 0.180319 0.069182 0.236488 0.321861 -0.168933 -0.117414 -0.630388 -0.168320 0.049901 0.306362 -0.515749 0.140598 0.178632 0.000113 0.078576 -0.587745 0.121274 -0.423251 0.161191 -0.322611 0.230048 0.278537 0.126724
h@@ -0.057144 0.446692 0.172295 -0.835739 -0.245376 -0.013456 0.267433 0.130754 0.042304 -1.029933 0.508108 -0.901911 0.107625 -0.022606 0.650656 -0.231190 0.257899 -0.886904 -0.813010 0.362495 0.477408 -0.114485 1.369923 0.217168 -0.267432 0.612314 -0.477285 -0.587764 -0.430833 -0.608638 -0.716402 0.848158 -0.072393 -0.392576 -0.772679 0.450874 0.161795 0.437744 -0.455332 0.613031 0.704701 0.488767 -0.198776 0.173249 0.156003 -0.658443 0.176470 0.225656 0.921589 0.285734 -0.071855 0.067746 -0.036416 1.067433 -0.551586 0.340900 -0.333883 0.498620 0.082659 -0.064315 0.107517 0.412269 0.139146 0.165646
creo -0.313350 0.386023 0.264031 -0.451927 -0.315840 0.035802 -0.766069 0.122472 0.208736 -0.319867 -0.004568 -0.397664 -0.539209 0.148203 0.184541 0.067023 0.459723 -0.456463 -0.323299 -0.076155 0.316442 -0.102007 0.315901 -0.231005 -0.368256 0.325220 -0.026735 -0.405298 -0.497504 -0.518553 -0.776014 0.519114 -0.160849 -0.278786 0.007740 -0.362116 0.315623 0.017390 -0.237069 0.623785 0.004492 -0.241495 -0.212845 0.847916 0.293431 -0.378189 0.013654 -0.515240 -0.138511 0.336797 0.371309 -0.584223 0.419576 0.009921 -0.509892 0.445042 -0.454287 0.871600 -0.031298 0.029847 -0.133463 0.429394 -0.129117 0.107248
este -0.213637 0.993913 0.296898 0.273019 -0.046101 0.693714 -0.050189 -0.265753 0.157162 -0.238460 -0.539407 0.175874 -0.554829 -0.003459 -0.987660 0.251396 0.421294 -0.418364 0.407983 -0.517811 -0.603358 0.477189 0.182507 0.376124 -0.202602 0.170766 -0.915067 -0.087229 -0.232591 0.819171 -1.131611 -0.030525 -0.345032 -0.683415 0.737031 -0.538137 0.491720 0.020676 0.030536 0.117365 0.746319 0.409022 1.241456 0.265386 -0.652710 0.102023 -0.232664 0.123634 0.655938 0.087816 0.270187 0.183456 -0.059810 -0.138175 -0.034811 -0.728690 0.093677 -0.222559 0.156455 -0.248873 0.313259 -0.312936 0.338939 0.588002
ó 0.233101 1.354479 0.046047 -0.857576 0.077821 -0.448764 -1.053269 -0.133370 -0.613824 -0.012032 -0.594768 -0.431511 -0.384507 0.545416 -0.526270 0.523246 -0.971806 -1.078136 0.857969 0.302395 0.769874 0.172970 -0.042306 -0.190029 0.104654 0.706173 0.071347 0.186902 0.691636 0.360759 -0.950468 0.040840 -0.283761 0.520964 0.279563 -0.934553 -0.028617 0.278124 -1.024701 -1.103828 -1.459852 0.224762 -1.280754 0.485507 -0.081897 0.801336 0.218610 0.036337 -1.129933 0.209248 -0.195652 0.950011 -0.165175 0.439028 -0.767900 -0.854984 -0.820684 0.102104 0.255245 -0.950368 0.195633 0.225955 -0.201907 0.749978
ía -0.337999 0.010294 -0.058388 0.060252 0.004176 -0.477339 0.031693 0.137537 -0.115649 -0.168935 -0.001193 -0.342512 -0.802204 -0.262585 -0.047317 0.196978 0.672860 0.148452 0.091111 -0.447833 -0.327322 -0.275328 0.168941 -0.067638 0.096195 -0.051448 -0.254738 -0.313970 -0.157475 -0.328092 -0.316676 -0.035737 -0.256468 -0.046685 0.262727 -0.082655 -0.269980 -0.015217 -0.787071 -0.000232 -0.446315 0.074129 0.383623 0.133603 0.469805 -0.303348 -0.034360 -0.552407 -0.033038 0.429673 -0.019071 -0.349065 0.069805 -0.736317 0.178504 0.025299 0.095971 0.558134 0.226961 0.108568 -0.136481 -0.010225 0.153379 -0.178648
al@@ -0.265838 0.378748 0.368047 0.143394 -0.201422 -0.817504 0.000372 0.293161 -0.335036 -0.156476 -0.185264 -0.196942 -0.140503 0.407211 -0.227599 0.438135 0.043969 0.867102 -0.930376 0.037241 -0.031335 -0.285330 0.983169 -0.369545 0.528784 0.191448 -0.069431 -0.004246 -0.511867 -0.493685 -0.202557 0.123206 -0.003327 -0.522940 -0.039377 -0.069057 -0.058318 0.244120 -0.489729 0.804089 0.826735 -0.678653 1.024857 0.413927 0.117960 -0.604588 -0.191190 0.143674 1.320430 0.042002 0.363659 0.057514 -0.484832 -0.736229 0.579273 -0.188267 -0.146010 0.287207 -0.849061 -0.568804 -0.165309 0.489204 0.890825 -0.267132
verdad 0.241821 -0.757484 -0.350329 0.092095 -0.474016 0.663113 0.339363 0.727567 1.069654 0.828998 0.172153 -0.727284 0.734019 -0.972179 -0.251047 0.039377 0.020178 0.229870 -0.608435 -0.539211 0.330205 -0.814817 0.344272 0.422976 0.551101 -0.786974 0.329877 0.555826 -0.185671 0.562274 0.243646 0.372513 -0.119579 0.143594 -0.029264 -0.633757 -0.008131 0.218632 0.406014 0.292826 0.973248 -0.298318 -0.391086 -0.576339 -0.469210 0.423987 0.535575 1.563100 0.691360 0.590192 0.788759 -0.537236 0.373697 0.584742 -0.346347 0.089710 0.508844 -0.611077 -0.897086 0.023345 -0.564783 -1.061428 0.786887 0.533245
cu@@ -1.061605 0.811544 0.770434 -0.395190 0.376807 -0.182872 0.603543 0.743543 -0.313028 -1.055129 -0.384833 0.276644 -0.093324 -0.454628 -1.211116 0.385003 0.112167 -0.254362 0.721018 0.011223 -0.496495 0.300123 0.210099 -0.004361 0.229936 0.013300 0.445731 0.232881 0.183511 0.021575 -0.039902 -0.518249 -0.617359 -0.353935 0.397109 0.160207 -0.234161 -0.043066 -0.405577 -0.689008 0.179735 -0.286633 0.919223 0.260712 0.240860 -0.201873 0.061690 -0.294360 -0.454813 -0.316465 0.297542 -1.191256 -0.749864 -0.067350 0.274825 -0.055749 -0.009278 0.098325 0.047128 0.915117 -0.059813 0.566528 -0.165066 0.126994
da 0.168383 0.799916 0.040347 -0.290537 -0.533649 0.129587 -0.754665 -0.175312 0.837862 0.401984 0.188923 0.841161 -0.106436 0.383170 -0.607643 0.275985 -0.683855 0.147591 0.348504 0.485466 -0.063458 -0.447479 0.170004 0.250637 -0.141187 0.817309 -0.018090 -0.807405 -0.193445 0.596219 1.023011 -0.325725 -0.020434 0.958743 0.333657 -1.660210 0.931710 -0.852917 0.742864 -1.020598 -0.334718 0.272631 -0.046806 -0.508253 -0.286425 0.825818 -0.032058 -0.757825 -0.091035 -0.079577 -0.859974 0.178989 0.085039 -0.229643 -1.134052 -0.663548 -0.370895 0.184196 -0.464950 0.831762 0.371902 -0.457603 -1.096865 -0.331425
del 0.865830 -0.938635 -0.901165 0.251054 -0.526330 -0.270120 -0.060535 -0.656076 -0.570334 0.377037 0.133969 -0.200349 -0.206114 -0.344312 0.190311 -0.221347 0.299543 0.179195 -0.322574 -0.225416 1.388147 -0.870514 0.255624 0.969261 0.115194 -0.737066 -0.153508 -0.347910 0.219657 0.172009 0.682801 0.121483 0.399791 0.140053 0.057271 0.011706 0.196055 0.213858 0.578263 -0.108308 -0.185537 -0.225295 -0.375627 -0.614253 -0.726529 0.356167 0.291569 1.502468 -0.036947 0.598839 0.020705 0.393015 0.505126 -0.534207 -0.647825 0.534504 0.958060 0.215919 -0.107126 -0.253523 1.015547 -0.507926 -0.250677 0.024177
su@@ 1.135021 0.629970 -0.127672 0.085144 -0.369711 -0.359604 0.414515 -0.447494 -0.822496 -0.638643 -0.566637 -0.124869 0.549951 1.183705 -0.623935 -0.124039 -0.978750 -0.810289 -0.332023 0.574607 0.003761 0.506920 0.152545 1.146336 0.606844 0.270952 0.167330 0.211150 0.311441 1.221884 0.788549 0.750708 0.943758 0.626013 -0.055377 0.170185 0.242189 -0.486683 0.391104 -0.660239 1.233929 -0.013872 -0.088742 0.425400 0.800642 -0.317984 -0.075178 0.599579 -0.296078 0.453811 0.256058 0.193151 -0.395388 0.931482 -0.546768 -0.269899 -0.528521 -0.513036 0.043780 -0.301177 -0.483239 -0.450824 -0.256214 1.090129
con@@ 0.896741 0.610843 0.204149 0.785128 -0.308545 -0.149258 -0.169262 -0.134570 -0.010990 0.582384 0.228183 0.468699 1.383179 0.764722 -0.062669 -1.762748 -0.281032 0.411197 0.237786 -0.293271 0.816563 0.073771 -0.147633 0.330999 0.363101 -0.188035 -0.678311 -0.061141 -0.047513 -1.143768 1.480424 0.621242 0.014980 -0.055080 -1.058919 0.321468 -0.179058 -0.647411 -0.279625 -0.396303 0.802203 0.344526 -0.136153 -0.027514 0.275455 -0.226213 -0.442713 0.145955 -0.488565 -0.995158 -0.117740 0.174991 -0.576383 0.485540 0.731191 1.130988 0.271849 0.101171 -0.168384 -0.128412 -0.018413 0.150730 -0.019385 -0.953180
ahí -0.996707 0.447720 0.175369 0.031662 -0.158700 -0.002121 -0.264940 0.259677 -0.086446 -0.111232 0.127749 -0.233189 -0.198827 -0.133945 0.064338 0.325760 0.030327 -0.234837 0.221869 -0.517262 -0.039549 -0.305215 0.650766 0.052174 -0.369056 0.382717 -0.099629 -0.531001 -0.730759 -0.209843 -0.081195 0.402974 -0.517636 -0.285960 -0.549483 -0.067513 0.026106 0.040535 -0.666287 0.361206 0.257782 0.037859 0.238049 0.498082 0.335377 -0.374893 -0.043601 -0.392936 0.387250 0.147141 0.250427 -0.845315 0.266360 0.046957 -0.072105 0.527637 -0.417614 0.158649 -0.575796 0.423526 -0.206606 0.384260 0.041235 -0.185068
mi@@ 0.311295 -0.245996 -0.213259 -0.545345 1.075948 0.674595 -0.275851 0.358118 -1.021250 -0.422420 0.120550 -0.245152 0.827081 0.271162 0.875255 -0.328328 -0.512861 -0.473969 -0.107788 0.815289 0.157302 0.878882 -0.279960 0.214205 0.697798 0.222367 -0.184118 1.421825 0.129165 0.219113 -0.395807 -0.435022 -0.866745 -0.279974 -0.116062 -0.282830 -0.936634 -0.182449 0.065604 0.480688 1.412605 -0.286341 -0.594828 0.844580 0.296132 -0.804050 0.222844 0.481140 0.120421 -0.451125 0.912592 -0.130312 -0.126445 0.769987 1.159102 -0.737134 -0.303303 -0.192969 0.031557 -0.059012 -0.058535 -0.701096 1.011202 0.184639
tengo 0.125028 0.057831 -0.232443 0.015710 -0.726932 0.476681 1.512853 0.692264 0.143605 0.053782 0.194232 -0.497996 -0.298058 -0.374398 0.074599 0.471741 0.591676 0.428527 -0.324032 0.380416 -0.908985 0.642224 0.068685 0.331899 -0.725386 -0.148584 0.482681 0.535002 -0.546846 -0.101930 -0.835998 -0.036062 -0.854149 -0.993299 -0.037034 0.310650 -0.314943 0.208319 -0.548706 -0.731845 -0.634584 -0.502310 0.041338 0.169786 0.560677 0.258736 -0.267764 -0.024086 0.380831 0.634535 0.006432 -0.300828 -0.324375 0.223564 -0.278412 -0.579392 0.223902 0.062557 0.561567 0.066035 0.118726 0.380443 0.443266 1.006227
estoy -0.411978 -0.012161 -0.203160 -0.075044 0.115102 -0.087600 -0.134352 0.307300 0.295824 -1.562507 0.120108 -0.768447 -0.844521 -0.292529 0.361101 0.047131 -0.184989 0.331931 0.347126 -0.298837 0.014660 -0.417622 -0.105748 0.598759 -0.349559 0.137212 -0.033592 0.458348 -0.453110 0.056905 -0.574067 0.004141 -0.579827 -0.784996 -0.435868 0.026345 -0.919114 -0.179231 -0.949317 -0.140740 -1.433272 0.377652 0.728136 -0.023258 0.331797 0.089630 0.006320 -0.641150 0.546058 0.142543 -0.200286 0.791866 0.384035 -0.823877 -0.265053 0.461727 -0.154399 0.737422 0.694200 -0.896201 0.013677 0.983111 0.594767 -0.783507
n@@ -0.199664 0.288962 0.835582 0.536230 0.364290 -0.504356 -0.837961 0.620318 -0.510212 0.394428 0.020142 -0.758871 -0.662122 0.318480 -0.010069 0.147548 0.413246 0.033818 -0.228690 -0.288833 -0.084114 0.472143 0.215694 -0.541717 -0.236485 0.087742 -0.431649 -0.097273 -0.356741 -0.521907 -0.116858 0.215454 0.179839 -0.322473 0.308009 -0.126430 0.088763 -0.038893 -0.227999 1.037193 0.079553 -0.261149 -0.038114 0.260010 0.852509 -0.434557 0.062030 -0.316802 0.247665 0.136374 0.582569 -0.609025 0.239791 -0.232785 0.607465 0.791742 0.169445 1.064445 -0.511454 0.477882 -0.080097 0.446261 0.438599 0.155540
ac@@ -0.141478 0.290732 -0.030008 -0.795496 0.439228 -0.212901 0.149459 -0.293256 -0.949697 -1.264615 0.578599 0.509427 -0.276154 -0.127069 0.650337 0.092758 -0.137862 0.290982 0.682915 0.106617 0.257099 0.203506 0.612387 -0.258077 0.792422 -0.378530 -0.700687 0.114349 0.072301 -0.171544 -0.032868 -0.650645 0.723384 0.894682 0.223154 0.248348 -0.437786 -0.278454 -0.879453 0.091167 0.180508 -0.114325 -0.307456 0.039251 0.521640 -0.465866 0.378628 -0.916583 0.447645 -0.287099 0.339209 -1.109156 0.397666 0.265514 0.603494 1.143163 -0.319489 -0.102843 -0.163335 0.914848 -0.143441 -0.437275 0.047664 -0.173817
va -0.834693 0.449108 0.727221 -0.346809 -0.523444 0.872470 0.296192 0.453740 -0.193262 -0.209581 -0.239239 -0.276509 -0.929309 -0.532732 0.044739 0.411397 0.733677 -0.102227 -0.353177 -0.807467 -0.328702 0.154866 0.755034 -0.337234 0.567762 -0.065035 -0.093899 0.029124 -0.921300 0.299229 -0.295860 0.177693 -0.027065 0.274454 -0.414659 0.585789 -0.707017 -0.050843 -0.071613 0.608750 1.117100 -0.744916 0.152271 -0.134644 0.030620 -0.172280 -0.094974 -0.353138 1.219876 -0.128998 0.853835 -1.555722 -0.332888 -0.388076 -0.849759 0.675342 -0.847710 -0.445086 -0.781637 1.126903 -0.042004 0.312272 0.221936 0.598705
j@@ 0.221926 0.086568 0.103392 0.734103 -0.857019 -0.154609 -0.248455 0.611739 0.252369 0.429503 0.403549 0.723689 0.086941 -0.533264 0.049359 0.380808 0.503880 1.013911 1.140322 0.061982 -0.135142 -0.589299 -0.075119 -0.141195 -0.397932 -0.341229 -0.028393 -0.811364 -0.213115 -0.853156 0.026784 -0.144334 -0.414592 -0.192130 -0.039101 0.258466 -0.232103 0.179679 -0.337615 -0.470131 -0.271746 -1.011185 0.210868 0.225616 0.497431 0.059939 0.284284 -0.249737 1.113293 0.769317 0.308565 -0.899067 -0.513220 -0.553811 -0.867196 0.355124 0.487062 0.400252 -0.726227 0.254463 0.012889 0.777971 -0.221456 -0.581755
ellos 0.132797 -0.346404 -0.976621 -0.098566 -0.364100 0.431766 0.020375 0.562009 -0.184766 0.255589 -0.429260 -1.145414 -0.294901 0.074534 -0.191895 0.490903 0.613419 0.262372 0.136206 -0.441228 0.165178 -0.349229 0.817957 -0.901681 0.149319 0.084078 0.316189 -0.205562 -0.015338 -0.636169 -0.471439 -0.629965 -0.548798 -0.196281 0.320408 0.669254 -0.951672 0.547620 -0.119417 0.584759 -0.301675 -0.356832 0.479904 -0.052573 0.174452 0.042533 0.837936 -0.605587 0.073276 0.812341 0.932210 -0.396700 0.241336 -0.325422 0.151207 0.759922 0.099899 0.415803 0.399301 0.258420 0.019204 0.637284 0.669544 0.225918
él -0.162052 -0.392627 -0.337334 -0.560710 -0.091805 0.119236 -0.888778 -0.965059 0.876171 0.568617 0.162735 0.147502 -0.701723 0.379335 0.032007 -0.081989 -0.272635 0.211400 -0.822114 -0.154398 0.957384 -0.329291 -0.016893 1.263825 -0.818556 -0.072920 -0.583570 -0.430287 0.138257 1.068895 1.056666 0.488045 0.571660 0.822403 0.060605 -0.356355 -0.206210 -0.515815 0.843901 -0.186384 0.683876 0.817124 0.207589 -0.758401 -0.461009 -0.510949 0.283371 0.916557 -0.198486 0.830056 -0.241727 0.142560 1.145975 -0.352810 -0.974875 -0.106563 0.001722 0.085459 -0.540797 0.559425 0.455795 -0.625010 -1.094809 0.347924
ab@@ -0.740666 0.800810 1.020566 -0.366530 0.816687 1.111577 -0.148559 0.431097 -0.706603 -0.942871 0.193506 -0.145605 0.184641 -0.231772 -0.039609 -0.504382 -0.123564 0.169476 0.163733 -0.129156 0.379594 0.346546 0.332451 0.207361 0.837323 0.967921 0.016404 0.043956 -0.336271 -0.716520 -0.898487 -0.326598 -0.073309 -0.352330 -0.138210 0.295852 -0.517990 0.617714 -0.669428 -0.058334 0.685747 0.095177 -0.138348 -0.108499 0.333167 -0.825366 0.095923 -0.235947 0.479481 0.033510 0.982012 -0.458843 -0.408494 1.161309 0.305085 0.187502 -1.125625 0.356809 0.454907 -0.002503 -0.009698 0.929705 0.353254 0.501401
ahora 0.979761 -0.072648 -0.963373 -0.302779 0.964206 -0.687327 -0.352284 -0.887896 -0.516872 -0.932771 -0.833922 -0.764692 -0.298369 0.496965 -0.207276 0.378154 -0.725714 -0.323787 -0.024755 0.560137 0.911039 0.370536 0.335261 -0.249083 0.658935 -0.192201 -0.800018 0.663926 0.696292 0.628160 0.668289 -0.497516 0.136842 0.941931 -0.042815 0.768350 -0.775440 -0.425496 0.261332 0.540138 0.121229 0.743490 -0.165183 -0.558702 -0.315834 0.783844 0.097585 0.133742 -1.092998 -0.419796 -0.456245 0.806764 0.519519 0.519671 0.565021 0.053232 -0.102865 -0.746477 0.111281 -0.518505 0.181889 -1.079458 0.069098 0.633352
er -1.070268 0.130708 0.731671 0.192747 -1.144176 0.035552 -0.135028 -0.211976 0.324176 0.129719 1.162746 -0.130627 -0.067758 -0.077753 0.063334 -0.653789 -0.518075 0.330422 0.380957 -0.789468 -0.462234 -1.252209 0.873025 0.392686 -0.400556 0.373064 -0.160692 -0.379989 -0.616474 -0.307198 -0.032966 0.514485 -0.438373 -0.674226 -0.507757 -0.127780 0.711627 0.875759 -0.375716 -0.211158 0.588257 -0.541485 -0.521286 0.737231 0.267493 -0.881821 -0.045304 -0.742264 1.066639 0.449602 0.737946 -0.991633 0.673692 -0.121824 -0.645079 0.248004 -0.535571 0.925129 -0.674109 0.478387 0.355074 0.529270 -0.617754 -0.573092
uh -0.885869 0.114414 -0.607902 -0.147531 -0.488983 0.116811 0.207994 0.163940 0.483686 0.578726 0.428132 0.209146 0.313231 -0.854865 0.436460 -0.117756 0.258451 0.429666 -0.233629 -0.831225 -0.261477 -1.042047 -0.061950 -0.945565 -0.788195 0.106172 0.580944 -0.770077 -0.563612 0.138075 0.093334 0.533750 0.266705 -0.492319 -0.702618 -0.020944 -0.555083 0.013300 0.336701 0.411405 0.393650 -0.144990 0.490963 -0.728404 -0.198805 -0.402223 -0.071636 -0.591796 0.240647 -0.323545 0.479822 -0.585396 0.609987 -0.650798 -0.267174 0.697417 0.519289 0.087055 0.158530 0.832309 -0.176082 0.089532 -0.107806 -0.623914
dos 0.863126 0.270786 -0.206111 0.006281 -0.603208 0.224628 -0.570006 0.010848 0.087914 -0.751423 -0.654173 -0.113902 0.206681 -0.336310 -0.084673 0.159503 0.070689 -0.796059 0.046653 0.180343 -0.061017 0.051159 -0.297161 -0.005453 -0.430233 0.702298 0.239388 -0.716022 -0.618183 -0.333271 0.526765 0.335264 0.285210 -1.061283 0.581275 0.222431 -0.754857 0.207360 -0.867160 -0.413712 -0.239062 0.166910 0.155741 -0.064418 0.160129 -0.329910 0.458863 -0.428789 0.146361 -0.092988 0.086919 -0.445448 0.625436 -0.094522 0.398570 0.637284 -0.648360 -0.014370 -0.179857 -0.004346 0.180147 0.001072 0.469918 -0.786039
ri@@ -0.410618 0.024459 -0.176144 -0.368559 0.142751 0.632913 0.302588 -0.297588 0.437723 0.138495 0.967225 -0.207404 -0.468195 -1.134169 1.251597 -0.315915 0.819144 0.472653 -0.715226 -0.719570 0.345452 0.212873 0.254062 -0.317734 -0.078753 0.710289 -0.440366 0.037077 -1.523911 -0.349910 -0.398526 0.594652 0.351181 -0.391353 -0.138013 -0.580077 -0.114606 -0.336086 0.122556 0.336875 0.702988 0.425707 -0.000041 -0.444577 0.332561 -0.225105 -0.203800 0.010157 0.154586 -0.530836 0.318940 -0.526930 0.650026 0.398818 -0.037138 0.819363 -0.434232 -0.454517 0.470241 0.972373 0.347511 -0.216770 0.442445 0.668465
años 0.579247 0.123578 -0.798826 -1.203613 -0.565917 0.636723 -0.774141 -0.342502 -0.502730 0.536269 -0.489384 -0.707845 0.659700 -0.248843 0.201694 0.034136 -0.278120 0.255207 -0.022815 -0.051141 0.469238 -0.336759 0.009897 -0.589169 -0.004382 -0.001703 0.197027 0.339997 0.146072 0.198459 1.044112 0.465405 0.005018 0.559854 -0.726024 -0.184397 -0.531055 -0.514157 1.157177 -0.761112 0.756444 0.604362 0.098414 -0.927799 -0.810289 0.172093 0.656867 0.431548 0.323662 0.401384 -0.304826 0.351725 -0.335718 -0.256336 -0.651040 0.493525 0.507037 -0.386934 -0.915805 0.932880 0.084284 -0.788977 -0.576555 0.052814
í@@ -0.397025 0.866618 0.506577 0.180326 -0.574589 -0.079046 0.194968 -0.031520 -0.175247 -0.333820 0.390245 0.674979 0.857067 -0.120130 -0.904571 -0.334704 -0.441748 0.725993 0.338429 -0.084620 0.020189 -0.186564 -0.056666 -1.045947 -0.008469 0.262404 -0.099345 -0.658647 -0.481760 0.296019 0.304635 0.087430 1.073013 -0.388198 -0.295746 0.630793 -0.029752 -0.085493 -0.255669 -0.372132 0.327751 0.525038 0.481727 -0.353278 0.198865 0.365337 0.553841 -0.511900 -0.192980 -0.065844 0.748534 0.222402 -0.989391 -0.136190 -0.164426 0.693293 0.545316 0.258817 0.193704 0.229033 0.505896 0.011851 0.370541 0.154456
cosas -1.010916 1.299337 0.748446 0.206056 -0.271003 0.410191 0.927382 0.019751 0.825647 0.405912 0.610082 1.085001 0.206760 0.231156 -0.869053 -0.103812 -0.350365 0.584419 0.478896 -0.470839 -0.358210 1.356977 -0.036943 0.337694 -0.759700 0.457975 0.473273 -0.251274 -0.558872 0.788681 -0.195874 0.830213 0.417819 0.350437 -0.927501 -0.655089 -0.325626 -1.228156 -0.080125 0.765449 -0.214742 0.511409 0.309615 -0.012906 0.086928 -0.047668 -1.171468 -0.489832 -0.937609 -0.673549 -0.268517 -0.210048 -0.131983 -0.378951 -0.458065 0.547485 -0.706277 -0.152212 0.053587 0.938440 0.616552 0.635791 -0.668207 -0.082020
ch@@ -0.352018 0.150687 0.150999 -0.601537 -0.230764 0.242268 -0.369405 -0.216920 -0.096618 -0.593275 0.783641 0.095191 -0.237953 0.101586 0.801453 -0.129069 0.901484 -0.666578 -0.290416 -0.365695 0.273284 -0.337221 0.888521 0.380016 -0.216333 0.910994 -0.332143 0.007311 -0.351401 -0.539303 -0.947329 0.581276 0.134628 -0.753062 -0.066248 -0.084323 0.408809 -0.100017 -0.262596 0.179791 0.043683 0.062342 0.092275 0.187279 0.108062 -0.614644 -0.076346 0.220563 0.502530 -0.183751 0.056708 -0.325032 -0.227075 -0.200960 -0.261230 0.031675 -0.502521 0.641910 0.074408 0.209455 0.569802 0.246172 0.066880 0.477561
es@@ 0.441984 -0.874971 -1.376827 0.427227 -0.562819 0.400225 -0.784541 -0.303678 -0.402837 -0.122460 0.180361 -0.385985 0.486548 0.392336 0.434485 -0.099339 -0.216988 -1.003903 -1.427740 0.191925 0.559416 -0.276415 -0.016242 0.218301 -0.319697 -0.028276 0.003477 0.766178 0.503946 0.439212 0.020333 0.089704 0.055365 -1.141804 -0.340330 0.065728 -0.306315 0.405118 -0.309079 0.269326 0.109843 -0.117145 0.162815 -0.922890 -0.130099 0.448748 -0.420745 0.557053 -0.067791 -0.662339 0.057929 1.198468 -0.098393 0.718527 0.824519 -0.625726 0.748810 0.173550 0.608781 -0.866399 -0.628171 -0.433882 0.418750 0.342811
á@@ 0.280514 0.170869 -0.458330 -0.215847 -0.005195 -0.020440 -0.198677 -0.633418 0.861047 -0.504868 -0.173563 0.523453 0.216941 0.899380 -1.251957 -0.559158 -0.334067 -0.897843 1.000247 0.440184 0.259742 -0.297904 0.444511 1.430513 0.144533 -0.406343 -0.010450 -0.145464 1.253603 -0.560340 -0.447665 0.112058 -0.061382 -0.423377 -0.171174 -0.067854 0.272581 -0.286572 0.133881 -1.202809 -0.683050 -0.184971 0.999870 -0.125289 -0.184406 -0.398782 -0.440766 0.064577 0.055992 0.140573 -1.021708 0.402523 0.561465 0.150372 -0.866063 0.471575 -1.140176 -0.345794 0.366671 -0.785176 0.312916 0.552386 -0.045499 -0.598772
gr@@ 0.234064 -0.021668 -0.108321 0.452289 0.649546 -0.346774 0.595788 0.086907 -0.731949 -0.230481 -0.438994 0.877808 0.387411 0.853310 -0.027837 -0.856721 -1.548365 -0.463022 -0.109104 0.939219 0.365627 0.665360 -0.232134 0.031794 -0.450085 -1.163262 0.521294 0.566847 0.269622 -0.348033 0.465149 0.078976 0.727238 0.051880 0.128124 0.725668 0.096211 0.402097 -0.007196 -0.627514 0.516816 -0.578973 -0.303933 0.123655 0.431218 -0.214910 0.445482 0.179126 0.570929 -0.010312 -0.103473 0.133260 -1.022814 0.837099 0.395319 -0.333611 -0.063762 1.127691 0.004736 -0.131108 0.431928 0.132165 -0.677806 -0.465526
tr@@ 0.042994 0.298216 0.912894 -0.241124 -0.644027 0.617026 -0.042372 -0.481064 0.046496 0.463729 0.153857 0.683493 -0.934081 -0.011294 -0.483225 0.523094 -0.923642 -0.120236 0.193079 0.211996 0.175951 -0.446033 -0.078492 0.384260 -0.061755 0.412421 -0.421451 -0.451202 0.370211 1.109306 -0.008019 -0.117284 0.496529 0.005146 0.761651 -0.529098 1.342110 0.335364 0.410631 -0.344167 -0.416456 -0.639280 -0.406944 -0.543976 -1.087402 0.238853 0.417406 0.389776 -0.892469 1.653481 -0.158585 -0.136247 -0.261464 0.186299 -1.151843 0.025162 -0.698829 0.164629 -0.552640 -0.017793 -0.354958 -0.709710 0.000704 0.845106
tu@@ -0.785536 0.387059 0.201188 0.012249 0.237393 0.078397 -0.251327 0.001409 -0.753306 -0.463311 0.072205 -0.857231 -0.712152 -0.013632 0.033147 -0.001628 0.069175 -0.005926 -0.085265 -0.251493 0.305719 0.228751 0.632431 -0.065456 0.089212 0.450682 -0.686422 0.008222 -0.489014 0.013600 -0.726340 0.041099 -0.098173 -0.203114 -0.455393 -0.303799 -0.399153 -0.017295 -0.443233 0.472412 -0.022938 0.257901 0.118844 0.101570 0.295790 -0.134121 0.193938 -0.287519 -0.021479 -0.562898 0.371378 -0.209363 0.247511 0.113036 0.324546 0.218943 -0.389859 -0.464007 0.008824 -0.370524 0.718137 0.329545 0.241674 -0.089479
nada -1.040743 -0.077897 0.190392 0.457060 0.065809 -0.135732 0.323927 -0.528837 -0.011252 -0.416579 -0.095053 0.093834 -0.490964 0.075896 -0.524275 -0.073130 -0.057942 0.440173 0.505958 -0.308267 0.426625 0.342625 0.036018 -0.304750 0.078559 0.834021 0.355291 -0.033193 -0.819419 0.233769 -0.021768 0.319137 -0.524246 -0.277309 0.048302 -0.003629 -0.219422 -0.274130 -0.355743 -0.645340 -0.423381 0.109885 0.326295 -0.074508 0.438409 -0.512817 -0.832320 -0.423676 -0.540924 -1.005804 -0.278069 -0.029826 0.009260 -0.696409 -0.805969 0.370065 -0.470328 -0.200739 -0.100870 -0.041786 -0.371716 0.932595 0.424766 -0.428415
est@@ 0.074345 -0.781256 -0.146128 0.165514 -0.137594 -0.466626 0.439308 -0.362264 0.380304 -0.898040 0.272937 0.140275 0.744797 0.152457 -0.310475 0.046389 -0.173179 -0.032936 -0.678173 0.379139 1.150026 -1.005175 0.644409 1.117042 -0.304715 -0.478737 0.048886 -0.178463 0.298149 -0.222376 0.449753 0.331988 -0.024105 -1.108656 0.050586 -0.349952 -0.080997 0.067105 -0.833842 0.144658 -0.009043 -0.881329 -0.814994 0.292255 0.686001 -0.426445 0.386654 0.531842 0.675631 0.582592 -0.995642 0.206783 0.841111 0.772761 -0.026153 0.783776 -0.623798 0.253974 0.532234 -0.719253 0.192270 0.205668 -0.199151 -0.056814
algo 1.013823 -0.408576 -0.877005 0.400777 -0.318249 0.485607 -0.382596 -0.513087 0.770272 0.596871 -0.338060 0.178378 0.593857 1.032798 0.119659 -0.190431 -0.310298 -0.673636 -0.944709 0.421867 1.074168 -0.181378 0.283169 0.471775 0.698843 0.654850 -0.425135 -0.201261 -0.175632 0.252120 0.587825 0.098021 0.982724 0.083648 -0.736853 -0.415121 -0.485203 0.234969 0.058575 0.385482 0.811939 0.447712 -0.187455 -0.369787 -0.856609 -0.225036 0.131307 0.059809 -0.808051 -0.348998 -0.292586 1.205851 0.242778 0.721210 0.195701 0.616111 -0.045068 -0.648073 0.022399 -0.452204 0.237932 -0.876337 0.329387 0.253433
gu@@ 1.091774 0.175860 0.300657 0.216749 -0.854157 0.353803 -0.172290 0.615742 0.623971 1.005677 0.364083 0.727055 1.161536 -0.601238 -0.716523 -0.041752 -0.619097 -0.108457 -0.133548 0.699838 -0.267178 -1.121517 -0.135510 0.631908 0.391184 -0.243371 0.419739 -0.745676 0.761042 -1.171376 0.242035 0.372674 0.180641 -0.269606 -0.354776 -0.136238 -0.065631 0.839397 0.332888 -0.679744 -0.775743 -1.454886 0.025734 -0.132027 -0.105404 -0.387773 0.180430 -0.470095 0.701134 1.219005 0.046545 -0.318325 -0.497176 0.385754 -0.118612 -0.137137 -0.049835 0.533106 0.163583 -0.285181 -0.181058 0.535190 -0.379113 -0.343196
tos -0.357220 -0.035936 0.303371 0.041709 0.135819 -0.065313 0.342304 0.319120 -0.555759 -0.232637 -0.099134 -0.436541 -0.448144 -0.268799 -0.012336 0.542382 0.514746 0.116085 0.539101 -0.185578 -0.428555 -0.265398 0.160322 -0.235134 -0.135790 0.117122 -0.032829 -0.042713 -0.172957 -0.249239 -0.563357 0.003738 -0.255924 -0.152422 0.376487 0.177493 -0.200673 0.248369 -0.258438 0.198704 -0.205133 -0.053606 0.587463 -0.190548 0.146083 -0.382652 -0.071813 -0.292514 0.245743 0.396715 0.581876 -0.643490 -0.043286 -0.339426 0.228992 0.335171 -0.196651 0.376818 -0.033663 0.230129 0.236706 0.200897 0.213354 0.007447
pi@@ -0.219315 0.036480 0.094028 -0.230859 0.093358 0.310961 -0.037230 0.559355 0.129334 1.063721 0.221921 -0.686763 -0.380566 -0.710881 -0.010967 0.300653 0.233832 0.775484 -0.373401 -0.133770 -1.089604 0.080105 -0.047724 -0.956130 -0.201774 0.044432 -0.399453 -0.332327 0.029485 -0.145801 -0.720032 0.250968 -0.514139 -0.365665 -0.441150 -0.186664 -0.991377 -0.173971 0.744050 0.724782 -0.952421 -0.730476 -0.112639 -0.311257 -0.065642 -0.001346 0.108265 -0.236224 0.182894 -0.040581 0.670095 -0.618750 -0.212256 -1.237195 0.284458 0.380474 -0.082231 -0.709264 0.395426 0.309601 0.432986 -0.082105 0.430890 -0.552178
é 0.004307 0.350008 0.362536 0.065859 -0.142711 0.058868 -0.005554 0.461107 -0.220377 -0.404041 0.281481 -0.013777 -0.415653 0.192749 -0.627999 0.308164 0.487318 -0.439570 0.173960 0.238756 -0.048884 0.114689 0.191028 0.285830 0.002225 0.164612 -0.011783 -0.309266 -0.188835 -0.014324 -0.421265 0.078105 -0.469712 -0.289441 0.218215 -0.351401 -0.122781 -0.177059 -0.651388 -0.036580 -0.229325 0.049677 0.300548 0.356149 0.330659 -0.663393 0.036121 -0.159622 -0.106003 0.329778 0.205956 -0.099821 0.087628 -0.155684 0.119082 -0.388321 -0.244812 0.555128 0.230652 -0.302411 0.320583 0.513660 0.153981 -0.049361
ese -0.403748 0.491834 -0.755508 0.067880 -0.513526 -0.052302 -0.248038 0.351317 -0.388868 0.098750 0.582707 -1.173000 -1.273103 -0.317771 -0.422675 0.229267 0.851861 -0.438319 -0.728104 -0.301541 0.440467 0.049228 1.294777 0.489166 0.375123 -0.000941 -0.276981 0.130714 -0.310745 -0.112828 -0.908815 0.166392 0.185187 -0.625471 0.159810 -0.321195 0.398530 1.004915 -0.565360 0.041571 -0.381641 0.469146 -0.304702 0.052784 0.583912 -0.300432 -0.120433 0.626815 -0.068466 0.423556 0.559710 -0.717884 1.218446 1.120924 -0.367831 0.161249 -0.641608 0.241037 -0.695150 -0.102761 -0.166886 -0.181879 0.216084 0.408224
ad@@ 0.675749 0.698443 1.194355 -0.923184 1.235408 -0.389313 -0.238920 -0.442666 -0.652456 -1.001954 -0.086917 0.162490 0.422606 0.857893 -0.351394 -0.359001 -1.084132 -0.668279 0.400079 0.691500 0.281472 0.882976 0.093158 0.909742 0.192498 0.340040 -0.492785 0.312919 0.134221 0.376013 0.074005 0.155046 0.583863 0.698924 0.243083 0.078202 0.768171 -0.021447 0.268328 -0.917515 0.506576 1.059219 -0.850384 0.633628 -0.348559 0.445021 0.341246 0.052217 -0.759526 0.444201 0.092574 1.077391 -0.539741 0.693842 -0.467648 -0.815734 -0.060485 0.294307 0.154225 -0.686458 0.507887 0.131571 -0.679858 0.731957
li@@ 0.385274 -0.876992 -1.019344 -0.008008 -0.702274 -0.657680 0.988983 -0.337967 0.460813 0.437905 0.074712 0.351894 1.283835 0.400082 0.431182 0.210117 -0.358065 -0.044137 0.413261 0.418138 0.591884 0.337335 -0.693927 -0.451560 0.030312 -0.240603 1.096269 0.292760 0.772105 0.556045 1.242005 0.177010 0.379912 0.396180 0.064473 -0.518363 0.300695 -0.157693 0.884087 -0.536639 0.348305 0.807085 -0.086358 -1.308200 -0.426915 0.313939 -0.082101 0.323666 -0.658639 -0.290045 -0.866473 0.450087 0.027263 0.127255 -0.289018 -1.020393 1.159920 -0.586324 0.608725 0.338418 -0.630732 -0.869585 -0.465490 -0.429710
ic@@ 1.354993 -0.754486 -0.171635 -0.528942 0.132300 -0.762629 0.519476 0.226784 -0.648140 -0.211202 -0.185700 -0.382989 0.768689 -0.152513 -0.093603 0.421994 0.300651 -0.243252 -0.180509 1.149979 0.711864 0.304108 0.458905 -0.259433 0.189879 -0.577980 -0.274058 0.753794 0.874943 0.355039 -0.772651 -0.654663 0.376883 -1.259831 0.607459 0.462566 -0.360241 0.766767 -0.124907 -0.451242 -0.333916 -0.520953 -0.562220 0.519694 -0.828525 0.056042 1.142073 0.213939 -0.362995 0.846871 0.674868 0.617546 0.298356 -0.251584 0.380079 -0.955395 0.177076 -0.226546 0.629921 -1.111828 -0.176708 -0.431859 0.180147 0.561373
ten@@ -0.579331 0.316958 -0.067764 -0.134545 -0.368854 0.064928 0.172193 0.240292 -0.819272 -0.134487 0.453832 -0.651340 0.041543 0.267503 -0.188784 0.230747 0.057107 -0.432020 -0.376062 -0.006261 0.117412 -0.350648 1.235254 -0.338686 -0.280273 0.127213 -0.412175 0.071164 -0.627025 -0.141087 -0.060448 0.441927 0.227948 -1.014035 0.114366 -0.082013 0.802474 0.315068 -0.260772 -0.102503 1.146132 0.070894 -0.143653 0.535750 0.746040 -0.898975 -0.136827 0.270596 0.540117 -0.085550 0.593801 -0.361038 -0.141634 -0.172168 -0.191683 -0.019384 -0.355904 0.784788 -0.684775 0.410939 0.247685 -0.219424 0.015432 0.102521
el@@ -0.011321 0.985905 0.822982 -0.649608 -0.015000 0.418071 0.260122 0.750717 -0.256430 -0.185579 0.178997 1.248148 -0.114319 -0.625265 -0.409753 0.326141 0.601090 0.562191 0.416376 0.753495 -0.915608 -0.523348 -0.249220 -0.151037 0.405290 -0.065505 -1.154723 -0.228436 -0.514049 -0.203586 -0.677788 -0.523530 -0.331846 0.816293 0.109629 0.205863 0.162424 0.355642 0.260975 -0.052252 0.539376 -0.122285 -0.331211 0.117530 -0.583512 -0.634663 0.573056 -0.413581 1.206199 0.613016 0.426651 -0.622680 -0.830246 0.508494 0.038319 -0.913071 -0.295947 -0.189308 -0.529209 0.781131 0.075874 0.457597 -0.123525 0.118419
hace 0.399930 0.360925 -0.151813 0.553009 0.028855 -0.053658 -0.018461 -0.287460 -0.344999 -1.312294 0.445138 -1.227159 -0.116251 0.784949 0.375279 0.256461 -0.285121 -0.874431 -0.116358 -0.055283 -0.211885 0.067031 0.759521 0.605141 0.541493 0.934266 -0.574418 0.302890 -0.416400 -0.120157 -0.020194 -0.101416 -0.023443 -0.235885 1.048290 -0.043811 -0.382020 0.295094 -0.734137 -0.192485 -0.183503 -0.683924 0.388845 0.684065 0.510391 0.030417 0.024900 -0.060851 -0.443653 -0.333112 0.340065 -0.397196 0.956626 -0.218414 -0.453824 0.728467 -0.696052 -0.325402 0.157176 -0.606958 0.147432 0.555414 0.164153 -0.082522
están 0.414943 -0.143024 0.262686 0.251690 -0.360034 -0.005336 -0.916492 -0.762963 -0.309596 0.124802 -0.339089 -0.201350 -0.101721 -0.639810 0.407188 0.289243 -0.285247 -0.019790 -0.740531 -0.224941 0.970939 0.661345 0.268781 -1.413529 0.240060 -0.198400 -0.535983 0.223771 0.143993 0.990069 -0.406391 -0.233816 0.773471 -0.043810 -0.209329 0.653478 0.840602 -0.571229 0.447695 0.819378 0.471198 0.497318 -0.476334 -0.562344 -0.832542 1.150249 0.530304 -0.256103 0.354748 0.169969 -0.128729 0.734027 0.384575 -0.262238 -0.201526 0.092043 -0.224966 -0.953325 0.290360 -0.717204 0.167711 -1.060526 0.515072 0.615551
s 0.093821 0.174736 0.230581 0.281204 -1.062560 -0.243683 -0.130284 0.407577 0.579835 -0.471903 0.148113 0.734572 -0.440426 -0.652952 -0.212155 0.186729 0.570911 0.491796 -0.306614 -0.840600 -0.002708 -0.687153 0.247377 0.452784 0.185684 0.265044 -0.286082 -0.605610 0.021621 -0.027698 1.056716 -0.206187 0.498120 -0.354282 0.094562 0.013658 0.841742 0.480250 -0.406190 0.312198 0.215405 0.187540 -0.103863 0.026501 -0.352393 -0.307890 -0.494251 0.167396 -0.221946 -0.026078 -0.294393 -0.614427 0.168470 0.283293 -0.143109 0.198115 0.382738 0.451687 -0.917231 1.286704 0.710849 -0.116620 -0.830254 -0.395359
am@@ -0.025562 -0.183304 -0.009487 1.023689 -0.683823 0.060889 -0.572531 0.171783 1.179162 0.513878 0.404924 0.309208 0.352811 -0.558488 0.229256 -0.805695 -1.024344 -0.564162 -0.657863 -0.257400 -0.114658 -0.998348 -0.090059 0.406520 -0.472532 0.540822 -0.600578 -0.417731 0.428856 -0.088599 0.922049 0.116104 0.681016 -0.519570 -0.563633 -0.610960 -0.107463 0.165778 -0.518347 -0.267849 -0.515853 -0.946148 -0.284991 0.021191 0.221967 -0.376902 -0.161616 0.145034 0.320257 0.004391 -0.754474 1.018626 0.604321 0.710428 -0.033409 0.617999 -0.066018 0.211053 -0.788719 -0.472488 0.545016 0.342510 -0.287961 -0.575550
tan -0.904761 0.515559 0.141244 -0.345745 0.269519 0.167029 -0.442483 -0.235366 -0.411785 -0.057985 -0.081304 -0.291356 -0.470668 0.441959 -0.043059 -0.393570 -0.037439 -0.154546 -0.213062 -0.497876 0.677271 0.513490 0.799592 0.787949 0.440263 0.860252 -0.879582 -0.201206 -0.914397 0.231647 -0.591659 0.253976 -0.112845 -0.087818 -0.601507 -0.276535 -0.332616 0.043336 0.044382 0.610985 0.764234 0.327837 0.068330 -0.246826 0.153151 -0.471598 -0.398230 0.392620 -0.560655 -0.239866 0.098781 0.100695 0.732081 0.148256 0.098225 0.323586 -0.375499 -0.492780 -0.100918 -0.076496 0.211950 0.188172 0.317663 0.066199
or 0.629088 0.188548 0.963206 -0.589279 0.612088 0.302755 -0.377744 0.297438 -0.301628 0.456745 -0.765849 0.952536 0.603739 -0.233267 0.078230 -0.627197 -0.117552 0.000389 0.794432 1.158765 0.063915 -0.582293 -0.295169 0.241045 0.601010 0.559994 -0.491128 0.666209 0.375255 0.186191 0.624298 0.270587 0.147789 0.886737 -0.096290 -0.003616 -0.511545 -0.720421 0.802689 -0.641780 0.495247 0.459528 -0.326521 -0.471037 0.013313 0.790256 0.668765 -1.080353 -0.140271 -0.137049 0.782169 0.432217 -0.617393 0.786537 0.337426 -0.029153 0.336448 0.078085 -0.136276 -0.430157 0.094704 -0.465338 -0.439770 0.038371
soy -0.774435 0.427875 0.545175 -0.014903 -0.099764 0.477964 -0.039323 0.549917 -0.152637 -0.145487 0.426522 -0.319571 -0.269591 0.067039 -0.169790 -0.129177 0.414681 -0.297595 0.115621 -0.553841 -0.323987 -0.303315 0.206528 0.020428 -0.126300 0.274607 0.168712 -0.023564 -0.435008 -0.538477 -0.151035 0.089556 -0.475249 -0.388832 -0.123219 -0.168751 0.416303 0.222754 -0.443273 -0.106338 0.275434 -0.174485 0.380862 0.162409 0.298188 -0.254162 -0.069729 -0.291196 0.640844 -0.065487 0.429129 -0.866184 -0.049500 -0.083696 0.283348 0.277810 -0.408700 0.479381 -0.262720 0.409754 -0.109706 0.552745 -0.160582 -0.339912
okay -0.031164 0.371927 0.049210 0.035121 0.117846 0.045086 0.020085 0.024658 -0.177199 -0.045113 0.172755 -0.491838 -0.396745 -0.260704 0.127144 -0.051431 0.424272 -0.051642 0.027383 -0.132181 0.125966 -0.132017 0.275901 -0.221248 0.322799 0.227715 -0.624398 -0.396697 -0.195546 -0.674020 -0.379654 -0.111343 0.008624 0.020317 0.195761 0.258180 -0.046478 0.089905 -0.258128 0.102042 -0.468092 0.159721 0.237767 -0.200154 -0.076601 -0.312220 0.174479 -0.189373 -0.010513 -0.187267 0.321170 -0.444082 0.381913 -0.125269 0.540394 0.380953 -0.072945 0.105935 -0.037493 0.000277 0.240088 0.266372 0.313565 -0.082925
go 0.546891 0.148228 0.271952 -0.070106 -0.532301 -0.032786 -0.027915 -0.577333 0.301761 -0.079979 0.967242 -0.529372 0.077231 1.155106 -0.500791 -0.637595 -0.494204 -1.111830 -1.134016 -0.265766 1.396008 -0.215560 0.291900 0.934775 0.534375 0.970528 0.264956 -0.131339 -0.022390 0.164246 1.006066 0.481843 0.634684 0.284408 -0.278121 -0.429116 -0.018120 -0.112004 -0.347161 -0.241828 0.062466 0.915826 -0.420435 0.618985 -0.121538 -0.072013 -0.224189 1.119921 -0.981835 -0.690481 -0.677810 0.495827 -0.140923 0.207899 -0.458084 -0.408150 -0.137660 0.474863 0.029550 -0.443097 0.503518 0.269967 -0.073514 -0.327933
he -0.070832 0.329240 0.141258 -0.251516 0.351650 -0.072760 -0.293682 0.355536 -0.857701 -0.273768 0.121122 -0.459311 -0.164335 0.045268 0.113600 -0.042923 0.032617 0.132668 0.598860 0.069966 -0.385716 -0.177318 0.038832 0.077188 0.061334 0.105882 -0.073904 0.056060 -0.116063 -0.452096 -0.576453 -0.358798 -0.522729 -0.340433 0.507097 0.077433 -0.238390 0.381835 -0.781089 0.100348 -0.580110 -0.550551 0.250501 0.120469 0.053525 -0.263132 -0.031581 -0.344645 0.244786 0.274223 0.354793 -0.382400 0.058488 -0.540691 0.314359 0.358493 -0.337677 0.687006 -0.357954 -0.246418 0.119952 0.639713 0.027600 0.061682
