<unk> 0.057684 0.039612 0.039692 0.051665 0.067073 0.084506 0.051521 0.038880 -0.040000 0.067339 -0.071502 -0.095960 0.002612 -0.055272 -0.061278 0.067209 -0.061353 -0.068667 0.043058 0.011723 -0.062949 0.028868 -0.030264 0.021885 0.050827 -0.016372 -0.095548 0.088176 -0.098832 -0.058968 -0.062665 0.075042 -0.032268 0.022321 -0.065453 -0.011179 -0.018392 0.089924 -0.077890 0.081049 -0.018194 0.083429 -0.081054 -0.049919 0.061967 0.035505 0.039370 0.013683 0.013491 0.052715 -0.015380 0.099622 -0.026297 -0.099872 0.080765 -0.069007 -0.049613 0.042223 0.039210 0.093912 -0.098857 -0.027342 -0.094045 0.094896
<blank> 0.055233 -0.019931 -0.069931 0.074532 -0.016402 0.097133 0.049957 -0.089440 0.045562 -0.085480 0.000814 0.027102 -0.009622 0.062434 0.015444 -0.031519 -0.078229 -0.012217 -0.060161 0.057304 0.032006 0.020420 -0.099813 0.026362 0.022508 0.031772 0.086292 0.039654 0.000104 0.087939 -0.039028 -0.037445 -0.040708 0.091159 0.050193 -0.035368 0.021239 -0.018281 -0.099244 -0.002315 -0.036166 0.046121 -0.019849 -0.075081 0.050513 -0.012005 -0.033504 0.099833 -0.011903 -0.077237 0.030752 -0.053539 0.093393 0.084889 0.063626 -0.016955 -0.068659 0.015541 0.079640 0.084009 0.056810 0.098545 -0.026690 0.041821
<s> 0.131942 0.503237 -0.390143 -0.672168 -0.056818 0.181789 0.119017 0.110098 0.271086 0.324591 -0.045957 0.309990 -0.004663 0.096363 -0.160586 0.201159 0.390747 -0.036804 -0.008031 0.627695 0.358161 -0.177790 -1.031481 -0.406519 0.642238 0.180994 0.714188 -0.905033 -0.391184 0.135623 0.133048 0.405053 -0.896338 0.610207 -0.159718 -0.431569 -0.506074 0.522254 -0.309344 -0.637687 -0.874614 -0.262640 -0.582111 -0.721002 0.370974 -0.138419 -0.776223 -0.703077 -0.498059 0.731541 0.470976 -0.570233 0.469293 0.316695 0.036460 0.594916 -0.137654 0.125181 0.397231 -0.434108 0.297937 -0.231393 -0.011810 0.740485
</s> 0.253881 0.478295 -0.053649 0.028957 0.263826 1.041346 -0.299182 0.612946 0.254982 0.296948 0.076960 0.334446 -0.118490 1.081715 -0.461884 0.183091 -0.081323 -0.642628 0.481677 0.843703 -0.388617 -0.802131 -0.148119 0.351119 0.918628 -0.753282 -0.467468 0.367183 -0.877267 -0.536263 -0.888145 -0.034231 -0.142254 -0.110733 -0.755291 0.143298 0.125594 1.045621 0.038765 -1.020368 -0.586541 0.109151 -0.093034 1.014044 0.438266 -0.049748 -0.297932 -0.160687 -0.351083 0.058322 0.283163 -0.301284 0.750675 -0.419497 -0.240412 0.131444 -0.738519 -0.827307 0.177874 0.126282 -0.009374 -0.179660 -0.547270 0.719664
i 0.834831 -0.306528 0.970051 0.647142 0.522449 0.044462 0.045280 0.021131 -0.010882 0.049572 -0.183633 0.522605 0.732357 0.523842 -0.376563 0.190910 0.560255 -0.484065 0.471680 -0.151000 0.145554 -0.632789 0.145010 -0.452079 -0.506009 -0.758695 -0.007103 -0.028963 0.849174 0.031342 0.014391 0.317810 0.174679 0.682857 0.100238 0.032236 -0.272789 1.138425 0.775925 -0.440800 -0.268971 0.045591 0.854258 0.103287 0.059637 0.057428 -0.625012 -0.984210 -0.626858 -0.201978 0.237444 0.922136 0.242918 0.846583 0.238226 0.455540 -0.395608 0.724534 -0.800008 -0.443318 -0.366892 0.374634 -0.267002 -0.198002
the -0.492954 -0.975928 0.835160 -1.277733 -0.590001 0.368872 -0.426641 -0.570759 0.009029 -0.272274 0.108495 0.529382 -0.805844 0.695532 0.111267 0.213449 0.532018 -0.845615 0.542253 0.755273 -0.162026 -0.004355 0.436273 -0.061704 1.602039 0.280437 -0.066220 -0.233538 -0.197633 0.064792 -0.490791 -1.202495 -0.830710 -0.212810 -0.361167 0.424164 0.184665 0.985406 -0.411057 -0.938679 -0.565193 1.366097 -1.298844 0.137947 -0.717494 -0.233187 0.832238 0.365282 0.356792 -0.159864 0.071584 -0.223446 0.195392 -0.321408 -0.402637 1.046424 0.052586 -0.065965 -0.850480 -0.465297 0.261456 0.098490 -0.093518 0.125479
and -0.013513 -0.159735 0.318151 0.597008 -0.096393 0.336964 1.101364 -0.042649 0.065710 -0.013691 0.112123 -0.046478 0.580116 -0.423167 -0.016504 -0.208005 0.309394 -0.322659 0.051925 0.380718 0.062197 0.722561 -0.187895 -0.968414 0.066602 -0.409690 0.472403 -0.290235 0.293657 1.004034 -0.542074 0.687889 -0.299809 0.098196 0.542181 -0.036750 0.039285 -0.126879 0.004646 -0.404770 0.054422 0.708284 -0.355526 0.298770 0.353933 -0.233331 -0.271499 -0.259756 -0.680391 0.329239 0.415365 0.484602 0.430954 0.785935 0.364932 -0.081908 -0.287123 0.850531 -0.231417 -0.582861 0.545375 0.118461 0.647712 -0.001153
yes -0.454642 0.065318 0.858094 0.118351 0.113960 0.320910 0.380965 -0.083462 0.294078 -0.356052 -0.419304 -0.032947 0.058082 0.833705 -0.243188 0.411126 -0.869800 -0.407993 -0.182745 0.608714 0.144183 -0.105451 0.469659 -1.007571 -0.268405 -0.540056 0.056340 0.044476 0.306171 0.189461 -0.506183 -0.154561 -0.703858 -0.007041 0.358592 -0.711731 -0.271772 0.085797 0.215847 -0.508220 -0.499964 0.735483 0.337041 0.061862 -0.277673 -0.090522 0.151914 0.080365 -0.514058 1.135710 0.630766 0.608558 1.114519 0.102525 0.498275 0.118926 -0.325810 0.698968 0.071700 -0.486178 -0.383125 0.352045 -0.275222 0.575021
a -0.035093 -0.361753 -0.372178 0.101803 0.042431 0.206870 -0.485052 0.726498 0.080363 0.172951 -0.196945 0.296731 -0.171988 -0.373111 0.352245 0.560711 0.053132 -0.604281 -0.235917 0.866377 -0.123800 -0.930794 0.059322 -0.341468 0.747602 -0.007150 0.467749 -0.497567 -0.850994 0.525816 -0.088869 -0.389036 -0.440684 0.487247 -0.024634 0.579504 0.156502 -0.004683 0.480395 0.023479 0.369118 0.631042 -0.724074 -0.387020 0.055063 -0.194546 -0.271411 0.659540 -0.277674 -0.267783 0.951964 -0.915551 -0.629251 -0.146318 -1.279502 0.460688 -0.386838 -0.302109 -0.371772 -0.085398 0.056869 -0.571877 0.195907 -0.204699
that 0.688915 0.131869 0.029839 0.934831 0.638940 0.063604 0.705988 0.672931 0.141995 0.224274 -0.269019 -0.011981 0.515760 0.190804 -0.124665 0.215376 0.171841 -0.371672 -0.430219 -0.351338 0.278472 0.502373 0.308466 -0.898691 0.362395 -0.603824 0.537927 -0.416345 0.680382 0.837064 -0.119486 1.055219 0.080736 0.461706 0.275187 -0.289244 -0.086872 -0.461093 0.235429 -0.583551 -0.087186 -0.332523 0.476045 0.238915 -0.574348 0.093582 0.157651 -0.469096 -0.306255 0.901475 0.284850 0.712900 -0.151347 0.530469 0.281028 -0.232312 -0.207247 0.746551 -0.462722 -1.003887 -0.223950 -0.033121 -0.656479 -0.391524
s@@ 0.808498 -0.095486 -0.247170 0.608074 0.735955 -0.001717 0.479608 0.304558 -0.162054 -0.042793 -0.581833 -0.385393 0.618909 -0.726387 -0.216458 -0.047996 -0.123445 -0.330254 -0.348868 -0.687635 -0.224331 -0.087385 -0.170088 -0.697597 0.475260 -0.427826 0.711374 -0.381024 -0.033088 0.777440 -0.542984 -0.335357 0.012765 0.452972 0.733312 -0.311097 -0.406788 0.101769 0.204813 0.667753 -0.596935 0.000374 -0.342949 0.582008 0.151478 0.389949 -0.584070 -0.393940 0.032185 0.345666 0.379590 0.146067 -0.396778 -0.098819 0.186036 -0.359557 -0.373571 0.535870 -0.330094 -0.384781 0.591729 -0.502338 -0.612112 0.664785
you -0.038519 0.605271 0.310385 -0.083785 -0.119362 -0.028483 -0.449675 0.769087 -0.398497 0.334661 -0.271140 -0.143149 0.439700 1.278625 -0.245692 0.796889 -0.444798 -0.286531 0.392757 0.027565 -0.333604 -0.371913 -0.357450 0.026103 0.137190 -0.072963 0.261294 0.395183 0.177905 -0.463237 -0.430315 0.250361 0.553095 1.426894 0.938636 -0.171807 0.431833 0.522134 0.410131 -0.614359 -0.009911 -0.373093 0.589213 0.031978 1.185329 0.437416 -0.006633 -0.535883 -0.595060 0.172082 -0.149246 1.193426 0.427272 0.508987 0.435860 -0.016771 -0.746206 -0.217823 0.709878 -0.314201 -0.564881 0.737956 -0.319886 0.225207
i@@ -0.063526 0.203751 -0.111633 0.349110 0.242587 0.376122 0.485588 0.144380 0.594134 -0.048865 -0.549275 -0.229542 0.668257 -0.114146 0.590810 -0.097625 -0.420520 -0.156710 -0.576599 -0.439687 -0.614298 -0.362241 0.291039 -0.982406 0.430100 -0.340175 0.848974 -0.369901 0.347404 0.671315 0.076744 -0.134621 0.154930 -0.153547 0.965768 -0.169359 0.047440 0.328034 0.015154 0.319717 0.074091 -0.501664 -0.211221 0.136593 -0.069226 -0.092350 -0.268329 -0.685877 -0.485494 0.432952 -0.593249 -0.172343 0.070364 0.609897 -0.085988 -0.075924 -0.273358 0.296556 -0.018461 -0.631112 0.144022 -0.225509 -0.734836 0.371890
t@@ -0.076437 0.142977 0.123209 0.339239 0.056623 -0.303861 0.375592 -0.370280 -0.319221 -0.177655 0.417616 0.170643 0.536594 -0.033483 -0.274139 0.159634 -0.319739 0.794202 0.098611 0.749604 0.436468 0.001210 0.193444 -0.179527 -0.317374 0.169554 -0.147319 -0.626548 1.019785 -0.355252 -0.895144 0.472505 -0.311613 0.425748 0.143051 -0.292589 -0.287994 1.540935 -0.454477 -0.447359 0.319719 0.089082 0.785908 0.311096 0.055565 0.354059 -0.210687 -1.020647 -0.460975 1.025228 0.520688 0.620876 0.074616 0.027644 -0.275117 0.136553 -0.168051 0.348352 -0.256215 -0.561829 -0.387086 0.700734 0.310226 0.398836
c@@ 0.235377 0.291739 0.064512 0.004761 0.225397 0.248595 -0.270993 0.121190 -0.341743 0.923893 0.559399 -0.815081 0.568115 -0.404282 -0.054817 0.895640 0.231444 0.280564 -0.526515 -0.506738 -0.197818 -1.044456 -0.815221 -0.658061 1.150676 0.635749 0.020129 -0.245937 0.091581 1.145065 0.261817 -0.354825 0.026116 -0.108807 0.523025 -0.598402 0.076400 -0.336054 0.237068 -0.193505 0.089997 0.334420 -0.112487 0.851297 0.651386 0.912150 -1.042523 -0.108866 0.067929 0.494363 0.620916 -0.180422 -0.315296 -0.068525 0.356425 0.317731 -0.286729 -0.251915 -0.201116 -1.231038 0.204393 -0.780935 -0.502253 1.015946
to 0.987448 0.615789 0.063818 0.139815 0.540577 -0.228087 0.938970 -0.095484 0.316712 0.341624 -0.379850 0.658946 0.733027 0.364509 -0.330770 -0.537096 0.903770 0.352019 0.151891 0.208149 -0.016563 -0.499992 -0.255441 -0.950235 -1.121876 -0.183828 -0.330312 -0.041265 0.523472 0.159190 0.076230 0.702974 -0.115175 -0.015165 0.013167 -0.033388 0.331000 0.982301 0.594277 -1.026065 0.051506 0.455111 0.475715 0.300769 0.249491 0.144127 -1.505602 -0.833911 -0.023825 0.428286 0.015019 1.013737 0.792184 0.449834 -0.245965 0.162913 -0.520152 -0.213549 -0.494579 -0.053493 -0.539581 0.824251 -0.530375 0.498582
m@@ 0.231853 0.021094 0.048400 0.679808 0.710968 -0.200439 0.296614 -0.171125 -0.048353 0.561723 0.035799 -0.093101 0.810318 0.688943 -0.890275 0.576311 -0.340468 -0.478032 0.206500 0.087092 0.131044 -0.720833 -0.751806 0.039549 0.318003 -0.690820 0.126229 -0.017277 -0.733800 0.123485 0.494061 -0.619212 -0.763128 0.596265 -0.596915 0.082704 0.524992 0.008581 -0.168674 0.296714 0.290398 -0.588903 0.091996 0.999030 0.831530 0.164994 -0.912606 0.030647 -0.594362 -0.373928 0.242890 0.571585 0.585896 0.673289 0.257185 -0.057759 -0.508239 -0.185163 -0.235306 -0.395212 -0.410034 0.470586 -0.915764 1.162116
h@@ -0.406380 -0.128754 0.707908 -1.121897 -0.187789 0.004209 0.207038 -0.293999 -0.323236 -0.264471 -0.337667 0.882176 -0.884800 0.914345 0.525492 0.018775 -0.082275 0.093440 0.217906 0.596064 0.528815 0.138599 1.103580 -0.833799 -0.414389 -0.000531 0.070785 -0.534704 0.120785 0.147043 -1.345274 0.663268 -0.837720 0.320622 -0.347469 0.356415 0.266812 1.091134 -0.447458 -1.254799 0.401783 0.650556 -0.053767 -0.391955 -0.081892 -0.040796 -0.478702 -0.160118 -0.557971 0.815032 0.592028 -0.023849 1.024505 0.222594 0.383656 0.252271 -0.352708 0.452487 -0.594632 0.199813 0.308019 0.415210 0.616502 0.375120
e@@ -0.277095 -0.001427 0.268416 -0.229272 0.309643 0.830602 -0.309787 0.324044 0.445047 0.417892 -0.014677 -0.270705 0.402692 0.679870 -0.638529 1.274002 -0.067049 -0.212416 0.083870 -0.121151 0.058201 -0.875210 -1.197912 -0.170941 0.737197 -0.053380 0.342776 -0.142380 -0.893540 0.034275 -0.114765 -0.839025 -0.456697 0.606103 -0.510822 -0.224014 -0.197256 -0.478589 -0.357210 -0.082283 0.218733 0.204654 -0.867480 0.655761 0.223679 0.104472 -0.691956 -0.020727 -0.191083 0.386889 0.348189 -0.137638 -0.395798 -0.106218 0.393963 0.714094 -1.435227 -0.323505 0.064219 0.297352 0.609390 -0.597246 -0.172114 -0.346492
u@@ -0.801125 -1.142868 0.116641 -0.021014 -0.361717 0.798628 0.134912 -0.347293 -0.352611 0.193226 -0.722126 -0.289463 -0.102323 -0.070485 0.160204 0.019818 -0.606768 -0.437197 -0.130768 0.342119 0.204583 0.008397 0.944220 -0.747065 0.572881 -0.664647 0.705718 -0.482040 -0.509068 0.537610 -0.481662 -0.313017 0.099512 0.092274 0.728059 -0.123849 -0.370149 0.340959 0.040701 -0.157959 0.185983 0.200281 -0.601080 -0.215078 -0.374452 -0.235969 0.441801 0.403088 0.061186 0.447215 -0.129266 -0.745179 0.329687 -0.632588 0.029035 0.467258 0.114347 0.828254 0.330587 -1.225057 0.285346 -0.491761 -0.326095 -0.262722
in 0.344107 -0.329951 0.182936 0.334490 0.478882 0.456748 0.548045 0.375373 -0.595463 -0.239947 -0.627115 -0.063779 0.444508 -0.892339 -0.319415 0.022606 0.410308 -0.132906 -0.125184 -0.023457 -0.181215 -0.028303 -0.270912 0.168647 0.550445 -0.256741 0.721272 -0.107993 0.227877 0.657812 -0.049413 0.214598 -0.125016 -0.145938 0.277899 -0.883212 -0.739476 -0.630738 0.032385 0.093891 -0.758876 -0.161543 0.017192 0.212418 0.335087 0.799124 -0.587095 -0.589358 -0.046782 0.141662 -0.441044 -0.183093 0.038448 0.645393 -0.649382 -0.311381 -0.079058 0.507141 0.520601 -1.143928 0.555374 -0.718421 -0.863418 0.360705
w@@ 0.552117 -0.243057 -0.131331 -0.599642 -0.218303 0.552141 0.253853 0.848496 0.197004 0.554994 -0.558107 0.264655 -0.606034 0.133586 -0.402726 0.831047 -0.404673 -0.482423 -1.025130 0.704900 0.465566 -0.479557 -0.575670 -0.944534 0.373382 0.271862 0.015862 -0.501095 0.309137 -0.659960 -0.579763 0.102632 -0.466811 0.081760 -0.432437 -0.074516 0.509865 -0.043753 -0.175115 -0.947216 -0.595277 0.517101 -0.391910 -0.383541 0.998028 -0.038537 -0.226563 0.066521 0.252153 0.096204 -0.629552 -1.122473 0.396871 -0.812003 -0.320338 0.361026 -0.225355 0.714188 0.483562 0.131676 -0.186825 -0.249733 -0.348694 0.509223
p@@ 0.410574 0.611547 -0.301860 0.324502 0.269548 0.193679 0.585818 0.224595 -0.608625 0.648385 -0.940677 0.344341 0.061586 -0.001773 -0.030315 0.207198 -0.174528 0.028547 -0.591820 0.023659 0.094968 0.042660 -0.493077 -1.559950 -0.157673 -0.525576 0.125488 -0.471379 0.417526 1.042236 -0.642643 0.687348 -0.869494 -0.432266 0.164587 0.702671 -0.430454 0.055815 0.286841 -0.494781 -0.308415 -0.314830 0.632245 0.229761 -0.134583 -0.467242 -0.207986 -0.051101 0.232325 0.928154 -0.577575 0.667145 0.843331 0.015350 -0.289487 -0.043503 -0.501798 0.173574 0.046753 -1.103199 0.536649 0.311562 0.315785 0.122146
s 0.211314 0.700890 0.572286 -0.346286 -0.001218 0.132408 0.328084 0.273351 -0.489734 -0.051479 -0.849015 0.310309 0.393655 0.914167 -0.522484 -0.666446 0.341694 0.001631 0.052336 0.550623 -0.215795 -0.026574 0.249608 -0.901553 -0.391009 -0.398056 0.187108 0.116883 0.531250 -0.602500 -0.652152 0.421349 -0.540178 0.691348 -0.820004 0.504635 -0.011715 1.499595 -0.198615 -1.024263 -0.079054 0.419187 0.422132 -0.089370 -0.182835 0.168565 -0.866401 -0.103908 -0.909596 0.585763 0.340784 0.283739 0.845502 0.234898 -0.139642 -0.242151 -0.581939 -0.188800 -0.394250 0.243123 -0.235828 0.722416 0.234599 0.086494
a@@ -0.420660 0.705606 -0.504051 -0.826967 -0.154519 0.512505 0.050562 0.746600 -0.441339 0.060715 -0.438628 0.642825 -0.020965 -0.467686 0.193998 0.180360 0.901779 0.386369 0.129267 0.362147 0.191291 -0.005212 -0.959113 -0.826809 0.281489 0.422824 0.701590 -0.658078 -0.202827 0.902713 0.065857 -0.626633 -0.060936 -0.399879 0.492596 -0.100280 -0.389196 0.058643 -0.051237 -0.858497 0.355975 0.679280 -0.895841 -0.078935 -0.625624 0.482984 -0.605405 -0.742671 0.419797 0.058077 -0.104000 -0.554829 0.696347 -0.241673 -0.319781 -0.167171 -0.148515 0.184557 -0.126614 -0.303372 0.207724 -0.778177 0.110700 0.972706
e -0.228197 -0.160642 -0.338012 -0.562904 -0.467338 0.039972 -0.493662 -0.216516 -0.049035 0.002472 -0.007021 -0.130456 -0.260531 0.867413 0.203979 1.323863 -0.448257 -1.212645 0.883144 -0.108097 -0.378860 -0.812270 0.394480 0.528352 1.185729 -0.067590 0.240178 0.394264 -0.543248 -0.682187 -0.437767 -0.468077 -0.954905 0.510460 0.089798 -0.489476 0.752744 0.620463 0.249648 -0.192373 -0.339369 1.002656 -0.585139 0.682941 -0.270630 -0.211198 0.323371 -0.244722 0.194520 0.150438 0.657224 -0.386932 0.055210 -0.043966 -0.196889 0.269807 -0.028970 0.269647 0.237204 1.265542 0.079152 -0.073411 -0.344481 0.385876
d@@ -0.723883 -0.643027 -0.134567 -0.403973 -0.147008 0.734251 0.544101 0.007281 0.407814 0.177723 -0.816585 -0.076040 -0.397450 -0.032569 -0.188790 0.494804 -0.569058 -0.517464 0.005492 0.562318 0.101378 0.100436 0.350409 0.014763 0.106670 -0.878320 0.294708 -0.713299 -0.207953 0.469707 -0.462141 -0.305576 -0.062167 -0.341795 0.746630 0.307548 -0.462152 0.472378 0.117564 -0.669903 0.165224 0.520144 -0.239012 -0.079036 -0.296987 -0.134182 0.743161 0.400760 0.263678 -0.270874 0.386301 -0.401012 0.292758 -0.144732 -0.146757 0.382119 0.186834 0.838981 0.308408 -1.026411 -0.190117 -0.418476 -0.569228 0.260809
is 0.253702 0.142268 0.757818 -0.563616 -0.047003 0.266751 -0.404183 0.040392 -0.051220 0.354700 0.095469 0.890510 -0.754622 1.619357 -0.196501 0.161272 0.712593 0.098279 0.943804 -0.038078 -0.092693 -0.887245 0.955456 0.148565 -0.052399 -0.048373 -0.378713 0.497841 -0.614331 -1.204721 -1.017699 0.396624 -0.710519 0.793306 -1.333275 0.649467 0.045420 1.145652 -0.055681 -0.873907 0.107191 0.884020 -0.366603 -0.028857 0.006170 -0.300133 0.702042 0.456932 -0.445222 -0.148315 0.024840 -0.106961 0.672628 -0.721641 0.431216 0.112632 -0.268862 -0.526327 -0.572216 1.291487 -0.828756 0.365990 0.551205 -0.135879
it 0.920542 0.994523 0.041234 -0.193262 0.342641 0.031305 0.485244 0.554418 0.194816 0.326777 -0.496603 0.301004 0.571542 0.065096 -0.110306 0.240161 0.298756 0.791568 -0.591195 -0.218195 0.553554 -0.835662 -0.569924 -0.833225 -0.566733 0.070143 -0.126436 -0.792562 0.589992 0.216873 0.020099 0.819567 -0.027184 0.162930 0.503785 0.186631 0.016362 1.191024 0.087863 -0.820975 -0.191524 -0.401142 1.231235 -0.014325 0.368221 0.271607 -0.847394 -1.203676 -0.432301 0.402748 0.065678 -0.019940 0.834774 -0.003481 -0.206571 -0.134975 -0.380028 0.241464 0.070331 -0.321754 -0.034476 -0.036274 -0.010706 1.050273
r@@ 0.178625 -0.109415 0.292949 0.031741 0.252531 0.389932 0.394517 0.277275 -0.219488 0.429507 0.785088 0.362717 0.157122 0.774106 -0.296772 0.367793 -0.549902 0.310162 0.996944 0.732955 -0.034937 -0.457078 -0.019572 0.064417 1.189066 -0.132673 -0.906915 -0.325346 -0.137580 0.389674 0.239677 -0.115618 -0.762778 0.515672 -0.302398 -0.234275 -0.545572 0.170310 0.914447 0.368969 -0.512768 0.234520 -0.595353 0.779646 0.269432 -0.009433 -0.852846 0.050431 0.058686 -0.234923 0.635171 0.115940 -0.214035 0.496585 0.959469 -0.101125 0.062063 -0.232139 -0.506724 0.805905 0.293805 -0.614764 -0.711427 0.949977
l@@ -0.197410 -0.433383 0.172456 -1.272495 -0.935713 0.703453 -0.532155 -0.724164 -0.288945 -0.040194 -0.382981 0.768734 -1.596355 0.609086 -0.711567 0.798961 0.190548 -0.431830 0.746998 0.947727 0.003052 -0.801370 0.166096 0.189116 1.314873 -0.068334 0.587170 -0.311377 -0.196234 -0.393337 -0.572030 -0.915699 -0.402168 0.031508 0.077116 0.167558 -0.223357 0.635064 -0.073655 -0.786290 -0.474875 1.128325 -1.433394 0.119361 -0.165414 -0.275915 0.403067 0.897053 0.806707 -0.063058 0.517876 -0.960095 -0.093468 -1.039882 -0.522356 0.398181 0.390165 -0.345494 0.194235 -0.282527 0.168302 -0.593964 -0.441845 -0.672279
f@@ -0.150847 -0.320100 -0.263165 -0.049776 -0.219939 0.263713 0.217463 0.773457 -0.005882 -0.077937 0.367278 0.247152 -0.496149 0.013630 -0.322807 -0.178141 -0.339352 0.271642 0.406365 0.506040 -0.153756 -0.853892 0.101336 -0.199448 0.312729 0.618438 -0.277943 -0.288480 -0.044231 0.171625 -0.629688 0.531819 -1.006359 -0.097069 0.200196 0.246123 -0.029101 0.004050 0.100721 0.066224 -0.775712 0.759482 0.292666 -0.209507 0.061665 0.359563 -0.464641 -0.228425 -0.302374 0.183372 0.580373 -0.352217 0.249297 -0.197253 0.217818 -0.238923 0.221262 -0.328687 -0.202199 -0.052001 -0.016337 0.395217 0.131030 0.409362
g@@ -0.513276 -0.763436 -0.676387 -0.426055 -0.054514 1.459756 0.132585 0.327824 -0.246517 0.032060 -0.149232 -0.051849 0.080855 -0.733595 -0.035273 0.269368 -0.749093 -0.080995 -0.375415 0.533722 -0.085480 -0.309588 -0.742237 -0.013633 0.938279 -0.326005 0.392639 -0.677481 0.059180 0.507835 -0.067949 -0.278355 -0.183285 -0.916772 -0.724549 -0.316128 0.002449 -0.828185 -0.191256 -0.026667 -0.460538 0.515937 -0.719009 0.043427 -0.557561 0.470683 0.759149 -0.174251 0.670533 -0.535134 0.536866 -0.462585 0.233469 -0.741385 -0.006165 1.104908 0.616265 -0.113118 0.374006 -0.037994 0.911246 -0.317436 0.161142 -0.305808
b@@ 0.233191 0.460067 0.343902 -0.037057 0.274803 -0.069807 1.114937 0.365288 0.462527 0.872829 -0.801643 -0.068298 0.127173 0.511556 0.114848 -0.189953 0.267641 0.138382 0.014906 -0.180131 0.097874 0.488335 -0.583966 -0.775399 -0.606787 -0.334163 0.380774 0.423474 0.557239 0.207126 -0.430522 0.356955 -0.380629 -0.148522 0.254202 0.334756 -0.199175 0.302182 0.043059 -0.162996 -0.195473 -0.027478 0.712135 -0.525584 0.255676 0.159947 -0.130565 -0.767744 -0.029959 0.940946 -0.332265 -0.065698 0.618125 0.143565 0.227652 0.420538 -1.191993 0.816840 0.581324 -0.476681 0.279635 0.436734 -0.827642 0.464637
an@@ 0.147906 0.645377 -0.325647 -0.247076 -0.354801 -0.100392 0.868955 0.013708 -0.050238 -0.087182 -0.877996 0.322183 0.538906 0.413831 -0.190396 -0.842982 0.105438 -0.063958 -0.052508 -0.079108 0.475209 0.303796 0.283782 -0.503020 -0.030362 -0.359498 0.487657 -0.249944 1.044536 0.594365 -0.517007 0.420717 -0.601677 -0.246074 -0.070432 -0.079767 -0.569313 -0.130304 -0.258108 -0.684546 -0.117429 -0.429360 0.436634 -0.101036 0.439439 -0.043882 0.062929 -0.336760 0.340586 0.548304 0.060915 0.581936 1.436278 0.099805 -0.180851 0.806579 -0.547558 0.779263 -0.323704 -0.809034 -0.024144 0.024844 -0.090777 0.575932
y -0.104606 0.565178 -0.399760 -0.014228 0.813843 0.214288 0.201770 0.328948 -0.395568 -0.265730 0.229737 0.544207 0.319039 -0.532660 0.068401 -0.093168 0.681473 0.265728 -0.192232 0.232948 -0.194320 -0.499051 -0.409810 -0.794311 0.436601 1.215869 -0.199288 -1.013314 -0.180119 0.478805 -0.160320 0.118644 0.071876 -0.080439 -0.022299 0.258292 0.037193 0.334845 -0.350228 -1.120052 -0.224821 -0.715877 -0.865943 -0.784451 0.065463 -0.104718 -0.824493 -0.357804 -0.213121 0.359320 0.853179 -0.006714 -0.182493 0.031088 0.363916 0.385426 -0.527092 -0.533116 -0.150889 0.037769 0.359289 -0.810256 0.409962 0.904594
they -0.036252 -0.491222 0.572131 0.440014 -0.142962 0.405942 0.095934 -0.191011 0.040460 -0.013561 0.481580 0.656645 -0.233899 0.645973 -0.826849 0.006728 0.021703 0.241214 0.641704 0.426231 -0.473360 -1.086763 0.659878 0.034068 1.005571 0.792716 0.028794 0.102066 -0.373798 -0.591118 -0.365128 -0.153248 -0.076174 1.014306 0.554039 -0.095148 -0.373551 -0.240406 0.459012 -0.235037 -0.102821 0.052603 0.444995 -0.116345 0.646673 -0.100017 -0.525513 -0.340392 -0.598395 0.044390 0.291473 -0.158350 -0.761321 0.405424 0.223267 0.328610 -0.063865 -0.779196 -0.241146 -0.217116 0.122211 -0.435736 0.330331 -0.621413
es -0.815203 -0.520764 0.513333 -0.298289 -0.523412 0.383052 -0.137208 -0.416034 0.309332 -0.034832 -0.174183 0.298341 -0.922186 0.586598 0.126358 -0.950768 -0.829168 -0.706981 0.696542 0.104011 0.136081 0.844295 0.726936 0.285303 -0.131139 -0.461868 0.133353 0.485882 0.052618 -0.023817 -1.103564 -0.563994 -0.310682 0.588467 -0.329409 -0.140839 -0.140891 -0.277727 -0.064696 -0.236343 0.531984 0.227554 -0.248883 0.140878 -0.817784 -0.220698 0.601603 1.171820 0.451361 -0.244686 -0.090006 0.089726 0.856962 0.201230 -0.008693 0.288864 0.575017 0.838123 0.052786 -0.131172 -0.071106 -0.000454 -0.238159 -0.424168
st@@ -0.532878 -0.759450 0.209482 -0.429689 0.036862 0.242519 -0.099490 -0.342360 0.906483 0.395221 -0.231271 0.341857 0.020090 0.483953 0.012617 -0.305911 0.032301 -0.383594 0.117956 -0.320579 0.215054 0.505954 0.545736 -0.036670 -0.574021 0.376391 0.456878 -0.023430 0.022857 0.328893 -0.835605 0.780549 -0.374510 0.570185 -0.741034 -0.420763 -0.299622 0.483452 -0.209369 0.316584 -0.054031 0.275822 0.244371 -0.115239 -0.148191 0.327517 0.173691 0.288662 0.471816 -0.415132 -0.621864 1.020847 1.049349 0.445722 0.705212 0.295336 0.641690 0.209809 0.115447 0.155993 -0.431116 0.405897 -0.065196 -0.036449
of -0.120311 0.706756 0.561986 0.092741 0.132899 0.292203 0.025021 0.098103 -0.040386 0.196578 -0.005853 -0.245906 0.057245 0.463058 -0.254836 0.593017 -0.006715 -0.819786 0.751421 0.012392 -0.372928 -0.724326 -0.194711 -0.741467 0.264744 -0.580764 0.405375 -0.522244 -0.007783 -0.140634 -0.528175 0.545281 -0.895902 0.451633 0.099068 0.127779 0.020166 0.931274 0.107598 0.392472 0.263537 0.328962 0.075559 0.729127 0.383958 0.749668 -0.564553 0.561866 -1.151154 0.654524 -0.003211 0.523327 0.989757 -0.072677 -0.074642 0.045112 -0.123463 0.037402 -0.468123 -0.113422 -0.109370 0.117199 -0.544359 -0.055184
in@@ 0.475642 1.167039 0.211082 0.583921 0.163518 -0.154794 0.450060 0.383219 0.530936 -0.097725 -0.489492 -0.345291 0.777066 -0.302039 0.149361 -0.060528 -0.081085 0.162841 -0.644569 -0.576728 0.158985 -0.874710 -0.647580 -0.391347 -0.069422 0.325681 0.173419 0.333828 -0.015552 -0.072234 -0.249386 0.451596 -0.004753 0.969500 0.222626 -0.119746 0.614708 0.200599 0.197119 0.650813 0.270409 -0.382529 0.666307 0.828447 0.566513 0.221301 -0.602712 -0.592613 -0.503817 0.238910 -0.042968 0.191639 -0.498398 1.169648 0.195240 0.182211 -0.650953 -0.215655 -0.094302 -0.972474 -0.138427 -0.213051 -0.118726 0.418505
ed -0.196143 -0.026085 0.086725 -1.036846 -0.706135 0.268011 -0.059635 0.502533 0.058000 0.258463 0.202164 0.871492 -1.052737 0.048608 0.453595 0.571951 0.579684 -0.306604 -0.041212 -0.024015 -0.065380 -0.719253 0.744202 -0.248450 -0.254228 0.488119 -0.275853 -0.254663 -0.067601 0.421930 -0.393254 -0.356168 -0.390006 0.199498 -0.135899 0.847140 0.437095 0.736321 -0.578693 -1.629054 -0.484011 0.682190 -0.652497 -0.358473 -0.082475 -0.311600 0.226725 -0.172498 -0.193055 -0.185171 -0.195105 -0.948916 0.570615 -0.835452 -0.378672 0.053057 0.523588 -0.242011 -0.373565 0.627827 -0.012296 -0.361725 0.523079 0.434922
re@@ -0.738388 0.016353 0.296973 0.205119 -0.436197 -0.621441 -0.986352 -0.760805 0.613731 0.001295 0.325840 -0.103797 0.579551 -0.144167 0.308115 1.084341 -0.428991 -0.861060 0.528618 0.086633 -0.224494 -0.088848 0.814219 0.279085 0.273819 0.647031 0.473283 0.366771 -0.578608 -0.427813 -0.025793 -0.724107 -0.260366 0.847764 0.141282 -0.226586 -0.178834 -0.370000 0.034391 0.950551 -0.173859 0.425778 -0.040616 0.502408 -0.094183 -0.246457 -0.189190 0.952718 0.102734 -0.369102 0.547205 0.599263 -0.394313 -0.360014 0.683429 -0.076906 -0.262437 -0.007789 -0.654256 -0.432772 0.360393 -0.124673 -0.154954 0.259975
but 0.148854 -0.385550 -0.335947 0.408348 0.436060 0.185389 0.780199 0.542513 0.033093 -0.251923 -0.385062 -0.310643 0.638915 -0.590633 -0.154302 0.054419 -0.296848 -0.288317 0.253970 -0.002185 -0.152049 0.003358 -0.338168 -0.198155 0.726569 -0.774479 0.400565 -0.131806 0.254151 0.510178 -0.188025 -0.258969 -0.380062 -0.288730 0.617536 -0.899199 -0.275650 -0.343671 -0.063450 -0.159615 -0.412651 -0.135667 -0.160662 0.204505 0.360779 1.071814 -0.893960 -0.390064 -0.036421 0.350473 -0.293180 0.100458 0.015366 0.886081 -0.747000 -0.034436 0.297272 -0.087522 0.236284 -0.776098 0.006007 -0.359401 -0.404475 0.199923
d -0.218019 -0.119409 0.036656 -0.735026 0.002381 0.231367 -0.127555 0.261136 -0.457286 -0.308985 -0.321592 0.404345 -0.786459 -0.049234 -0.330995 0.427057 0.599492 0.247262 0.170701 0.931966 0.259235 -0.651619 0.037927 -0.407259 0.601418 0.194316 0.516521 -0.384368 0.058837 -0.044098 -0.151732 -0.390750 -0.599988 0.670824 -0.358717 0.339656 0.240975 1.173665 -0.486427 -1.096714 -0.766816 0.619148 -0.956972 -0.862391 0.042743 0.317806 0.196093 -0.117248 -0.446045 0.073051 0.229484 -0.743253 0.896051 -0.100460 -0.567835 0.159203 0.045581 -0.528944 -0.096608 0.544543 -0.134361 -0.324725 0.857191 0.326773
are -0.110115 -0.055794 -0.524703 -0.439819 0.359474 -0.198702 0.022952 -0.401149 -0.685536 -0.741000 0.264011 -0.111736 0.449427 -0.049812 0.855004 -0.410873 0.738732 0.692376 0.811454 1.073677 -0.278046 -0.108111 0.676746 0.005540 0.315625 0.964738 0.112063 -0.911003 -0.202614 0.332890 -0.537653 0.899970 -0.631262 0.110629 -0.409279 0.897341 -0.791679 0.328721 -0.641505 -0.557198 0.826515 0.831665 -0.494325 -0.789099 -0.406541 -0.508509 -0.115278 0.324229 -0.337220 0.215609 0.000943 -0.436863 0.931813 -0.591134 -0.324685 -0.041801 -0.446308 0.460688 -0.125709 -0.319719 -0.177906 -0.080356 -0.014349 0.117596
o@@ -0.022995 -0.557060 0.136428 -0.560272 0.724227 0.287778 0.763037 0.284357 0.260632 -0.245097 -0.673120 -0.173780 -0.439497 -0.126368 -0.076288 -0.076328 -0.333715 0.205058 0.172119 0.188923 -0.187012 0.150360 -0.010889 0.062665 -0.083070 -0.681789 0.353564 0.086951 0.161323 0.094421 -0.031222 0.174299 -0.247206 -0.040335 -0.791785 -0.366722 -0.523189 0.327116 0.335253 -0.437535 -0.113497 0.670509 0.717684 0.234354 -0.373673 0.186521 0.209344 -0.041849 -0.432068 0.710307 0.141535 -0.320341 1.278495 0.235871 -0.059454 0.050701 -0.511246 0.218976 0.638776 0.218111 -0.131794 0.559453 -0.327376 -0.141726
me 0.331381 -0.057161 0.564592 0.033701 -0.243640 0.027352 -0.217354 0.371553 1.076160 0.087335 0.029152 0.001740 0.417796 0.402003 0.138389 0.232054 -0.833042 -0.402571 0.437958 0.218376 -0.038879 0.287989 -0.257350 0.697351 -0.505908 0.127187 0.550724 0.990836 -0.702721 -0.299481 -0.371839 -0.233223 -0.410696 0.961324 -0.256553 0.518612 -0.566489 -0.511351 0.190720 -0.034581 -0.245878 -0.362630 0.477351 0.529697 0.263498 0.134118 0.037911 0.227689 -0.307774 0.438020 0.253876 0.751825 -0.216388 0.725115 0.580935 0.044816 0.379326 0.028035 -0.017840 -0.163715 -0.721984 0.188840 -0.019148 0.172518
en@@ -0.935859 -0.531181 -0.071195 0.334968 -0.501483 -0.287563 -0.391635 -0.288385 0.324169 -0.059996 -0.366416 0.229461 0.113647 -0.164505 0.466589 -0.318773 -0.252828 -0.538098 -0.378591 -0.483510 0.322694 0.707616 -0.319487 -0.088691 0.057246 -0.690520 0.638303 -0.008590 -0.848570 0.613287 -0.068165 -0.417229 -1.209386 0.147431 0.797984 -0.486982 -0.019664 0.156092 -0.540604 0.306776 0.208108 -0.373748 -0.345192 0.169181 -0.959313 -0.031160 -0.023092 0.684883 0.241495 0.745701 0.472311 -0.074330 -0.118657 0.401765 0.584345 0.456158 0.555927 0.828362 -0.389677 -0.369854 0.357595 -0.136864 -0.132681 -0.114272
ing -0.608086 -0.845967 -0.019011 0.108280 -0.207033 0.202461 -0.346041 -0.751976 0.551131 0.049576 0.021351 -0.348711 -0.091284 0.236058 -0.069755 -0.327105 -0.428268 -0.623622 0.509557 0.757296 -0.205431 0.714142 0.205447 0.292513 0.656722 -0.584025 0.198074 0.848636 -1.299781 -0.267504 -0.077998 -0.331027 -0.165781 -0.665739 -0.188853 -0.061396 -0.909498 -0.601825 -0.258570 0.447174 -0.031164 0.397435 -0.131657 0.272928 -0.381756 -0.180604 0.983944 1.146536 -0.310410 -0.317291 0.430434 0.356128 0.035519 0.059461 0.258079 -0.332062 -0.003851 0.493488 0.112219 -0.038372 -0.311286 -0.260531 0.203596 -0.670590
no -0.669478 0.205694 0.117447 -1.111962 0.107331 -0.117942 0.685309 -0.264030 -0.828885 -0.615810 -0.575443 1.084378 -1.028180 -0.903324 -0.073981 -0.082003 0.644196 0.294360 0.479870 0.303108 0.071266 0.129717 0.478210 -0.654266 0.587524 0.609645 -0.343348 -0.861714 0.093086 1.045471 -1.057198 -0.099992 -0.480943 -0.628756 0.518894 0.535891 0.895289 0.930969 -0.004896 -1.929707 -0.182954 1.202086 -0.590818 -0.398350 -0.632976 -0.365056 0.056147 -0.642334 0.478997 0.019602 0.019804 -0.979240 0.414764 -0.286287 -0.210614 0.063128 0.294856 0.096168 -0.609825 0.108058 0.630469 -0.360356 1.295926 0.531842
have 0.197388 0.343600 0.735945 0.282132 -0.073847 -0.789828 0.137183 -0.189455 0.475847 0.098804 0.196119 -0.023817 0.722536 0.172546 0.624432 -0.113553 -0.014202 -0.996672 -0.016507 -0.782185 -0.188247 0.799235 -0.107787 -0.037714 -0.718023 -0.080668 -0.131280 0.842788 -0.391199 0.251700 -0.499439 -0.127663 -0.650837 0.441400 -0.758750 0.109965 0.139575 0.032424 0.578871 0.517496 1.166070 -0.414261 -0.328998 0.397544 0.001754 0.182915 -0.583347 0.628773 -0.134413 0.695781 0.192967 0.251453 -0.388070 0.932474 1.427603 0.057920 -0.510819 -0.839357 -0.654902 -0.041200 0.046946 -0.019513 0.483764 0.896979
n@@ 0.732512 0.359183 -0.029251 -0.113533 0.069830 -0.227682 -0.322203 0.128745 0.395479 0.317348 0.270282 -0.112156 0.956783 0.219655 -0.118556 0.393431 -0.514092 -0.224804 0.067790 0.677531 -0.016646 -0.957757 -0.788246 0.030198 0.318255 0.102494 -0.014380 -0.750731 -0.249148 0.194698 -0.114853 -0.616911 -0.518054 0.087310 0.188898 -0.239267 -0.635686 0.235977 -0.054001 0.735617 -0.328335 -0.468396 -0.893074 0.246783 0.341043 0.297403 -1.345284 0.306261 -0.210291 0.420230 0.597038 0.265129 0.064971 0.714456 0.059213 0.352960 -0.011499 0.007640 -0.235874 -0.392299 0.240843 -0.899130 -0.710100 0.666681
like -0.239118 -0.577314 0.111099 0.429806 0.566246 0.297729 0.002543 -0.482709 0.107574 -0.197525 0.694300 0.412879 0.412339 -0.678186 0.235769 -0.694971 0.565246 -0.580223 0.356882 -1.349815 -0.811362 -0.078682 0.658866 0.275684 1.049153 0.328860 0.386982 0.175180 -0.444110 1.222352 -0.089879 -0.356424 -0.272339 0.434747 0.257883 0.167587 -0.080919 -0.153344 0.659191 0.399611 0.490719 0.375781 -0.530622 0.349543 -0.157453 0.078506 -0.057304 0.148621 0.188644 -0.425438 0.054711 0.589564 -0.957326 0.482407 0.501230 -0.096157 0.320999 -0.163356 0.041664 -0.914682 -0.007670 -0.110479 0.375047 -0.302884
v@@ 0.917915 1.021927 0.480143 0.032360 0.744415 -0.750806 -0.493642 0.329159 0.520887 0.722944 0.139941 0.593899 0.297180 0.961947 0.334300 0.415354 0.779972 0.298755 0.521380 -0.542834 -0.739381 -0.950066 0.402434 0.029880 -0.574481 0.435585 -0.467114 0.023035 -0.344685 -0.556956 -0.200317 -0.052884 -0.499227 0.831860 -1.142998 0.298040 0.683013 1.275648 0.197069 -0.877351 0.394913 0.271297 0.020687 0.125051 0.263882 0.074563 -0.608367 -0.184596 -0.556549 0.348892 0.128225 0.178918 0.414165 0.462946 0.445378 -0.414900 -1.305922 -1.182356 -1.112830 0.813709 -0.142066 0.450820 0.940205 0.349099
y@@ 0.269230 -0.633055 0.432445 0.583751 -0.436937 -0.047517 -0.483788 -0.015059 0.438473 0.139729 0.819622 -0.131746 0.745795 0.692342 0.119308 -0.729208 -0.241869 -0.804183 -0.105157 -0.362326 -0.567988 -0.065436 0.101038 0.879490 -0.183318 -0.176660 0.289738 1.059376 0.034875 -0.339266 0.112714 0.012076 0.481359 0.241969 -0.032866 -0.219754 -0.060585 -0.727203 -0.033209 0.988826 0.057681 -0.765843 -0.184413 0.367158 0.170501 0.441076 -0.148028 0.762779 -0.350410 -0.528461 0.883702 0.888863 -0.839746 0.145583 0.215603 0.003519 -0.045160 -0.505426 0.059140 -0.029493 -0.029067 -0.100648 -0.918635 -0.564513
m -0.670702 0.167535 -0.069679 0.203086 -0.218894 0.541675 -0.168322 0.240207 0.264384 0.075307 0.291522 0.531181 0.299010 0.066134 0.551161 0.370646 0.426833 0.320010 0.057680 0.162081 -0.245867 -0.780494 0.429211 0.019938 0.570536 -0.068890 -0.068803 -0.482679 -1.057631 -0.217471 -0.167381 -0.926887 -0.617345 -0.058142 0.240105 0.541929 0.107362 -0.251591 -0.968355 0.361755 -0.799314 0.343796 -0.992706 -0.288407 0.244834 -0.068881 -0.036988 0.395794 0.504539 -0.047299 0.319281 -0.877358 0.132875 -0.521228 -0.317694 -0.155345 -0.712402 -0.110957 -0.291310 0.115771 0.417681 -0.771095 0.086865 -0.201919
ar@@ -0.211398 0.298187 -0.474593 -0.118523 0.082758 0.947648 0.633935 0.368483 -0.296576 0.008743 -0.756962 0.475938 -0.462872 -0.064631 0.093118 0.951451 -0.361442 0.342724 0.048352 0.348000 0.339144 -0.054199 -1.093769 -0.509797 -0.007627 -0.348252 -0.106301 -0.279540 -0.118471 0.195913 -0.003444 -0.732090 -0.820780 0.060856 -0.096316 0.477998 -0.181020 0.911579 -0.202377 -0.814052 -0.192916 -0.115773 0.151165 -0.230860 -0.216116 0.061120 -0.237804 -0.694704 -0.019605 0.662890 0.205459 -0.337946 2.078266 -1.046898 -0.530584 -0.049796 -0.450050 0.391071 -0.396221 0.505269 0.449622 -0.010179 -0.071109 0.333076
on 0.587875 0.689173 0.158569 -0.597877 0.376537 -0.011275 0.256452 0.054481 0.049558 0.339193 -0.193220 0.509251 -0.009304 0.681290 0.183814 -0.465955 0.344956 0.697996 0.548993 0.514362 0.358083 -1.166089 -0.215849 -0.334508 0.311241 0.244879 -0.164423 -0.590875 0.585189 -0.790265 0.267078 -0.403738 -0.586883 0.489564 -0.403134 0.794193 0.328131 1.062838 -0.649547 -1.294533 -0.247693 0.042484 0.142676 -0.317780 0.237668 0.427851 0.142073 -0.884684 -0.648149 0.041024 0.220807 -0.585691 1.010624 0.347561 -0.410136 0.431588 -0.287087 -0.569564 -0.158853 0.488943 0.398133 -0.458539 0.350651 0.386096
on@@ -0.968591 -0.748965 -0.708903 -0.423289 0.252803 -0.281075 -0.026617 -0.065850 0.052165 -0.215583 -0.426792 0.193260 -0.563051 0.211668 -0.121895 -0.045549 0.178419 -0.271466 0.104198 0.140947 0.035898 -0.179593 0.649408 -0.628429 -0.421962 -0.996462 0.529854 -0.653729 -0.857978 -0.150188 -1.189534 -0.194775 -0.593703 0.052738 -0.585792 0.401908 0.129375 -0.271905 -0.407739 -0.337654 -0.063921 0.918212 -0.962351 -0.147563 -0.240215 -0.604639 0.356992 0.233126 -0.326390 -0.185122 -0.360511 -0.489423 0.276037 -0.306039 -0.228705 0.739460 0.403808 -0.317807 -0.456675 0.463986 -0.289608 -0.468834 0.587454 -0.141415
al@@ -0.689013 -0.839226 1.078677 0.245503 -0.183743 -0.355841 -0.381581 -0.568373 -0.127642 -0.100597 0.292772 0.356033 -0.199071 -0.013034 0.260424 0.083070 -0.133766 -0.764530 0.306712 0.057248 -0.169634 -0.413900 1.357116 -0.029003 -0.155588 0.000840 0.731500 -0.358032 -0.461061 0.708691 -1.128621 -0.091699 0.029113 0.101528 0.623683 0.595354 -0.903665 -0.075313 -0.234777 -0.009259 0.485120 0.280601 -0.151196 -0.041157 -0.014559 -0.363760 0.536499 0.527663 0.170628 -0.019620 -0.224130 -0.112833 -0.409047 -0.083440 1.050574 -0.554989 0.038687 0.073918 -0.075034 -0.295554 -0.448130 -0.502159 0.307317 -0.095398
well 0.266061 -0.155978 -0.453758 0.086170 0.375742 0.276651 -0.056570 0.340312 0.071290 -0.525682 0.805346 0.237555 0.608525 -0.410119 0.580523 0.306921 -0.588820 -0.593149 -0.307231 0.295111 -0.251580 -0.038024 -0.103575 0.803721 0.231675 0.000477 0.171229 0.506153 -0.951352 -0.183876 -0.042112 -0.694158 0.297049 0.291861 -0.742199 0.377908 -0.702056 -0.461448 -0.045403 0.332880 0.054683 -0.178821 -1.052443 -0.073554 0.162029 0.494747 0.467491 0.342863 -0.577685 -0.219344 0.518185 -0.385091 -0.672174 0.999020 0.086045 0.213609 0.026717 0.153783 -0.699801 0.156417 0.300878 -0.529015 0.090871 -0.532664
it's -0.403725 0.092554 0.438224 -0.430713 -0.507157 -0.013142 0.079168 -0.411769 -0.148813 0.150940 0.829692 1.038791 -0.094131 0.101464 0.262410 -0.043796 -0.121746 -0.679566 0.486494 0.640108 -0.445204 0.192667 0.845056 0.928399 -0.769598 0.390802 -0.041616 0.710539 0.475867 0.350741 -0.624984 -0.539579 -0.524601 0.124004 -0.382933 0.377390 -0.349851 0.813202 0.081228 -0.547442 0.118388 -0.194892 -0.006390 -0.524673 -0.664874 -0.093725 0.161185 0.190094 0.088637 0.623969 0.262504 0.526265 0.070855 -0.003837 0.848222 0.227276 0.352091 0.537346 0.346375 -0.373073 -0.153991 0.160109 0.158204 0.052038
t -0.859190 -0.456724 -0.205029 -0.708780 -0.214987 0.062325 -0.343037 -0.155102 -0.260523 -0.437228 -0.053199 0.358532 -0.937828 0.101540 0.449247 0.121977 0.134753 -0.447577 0.030702 0.308060 -1.182027 -0.247878 0.684226 -0.448881 0.054263 0.523888 -0.581586 -0.787501 -0.300246 -0.031167 -0.191683 -0.657122 -0.749101 -0.147437 -0.535240 0.623157 0.682557 -0.509824 0.168027 -0.938463 0.053702 0.995334 -0.579935 -0.514660 -0.762603 0.111022 0.112690 -0.080017 0.124707 -0.204818 0.444113 -0.433606 0.663294 -0.338842 0.181221 -0.034208 0.256322 -0.250633 -0.269161 0.893561 0.247534 -0.701298 1.186558 0.127394
ve -0.482034 -0.014350 0.163303 -0.529278 0.073260 0.618812 -0.455689 0.237669 0.166379 0.412871 0.192753 0.505575 0.254197 -0.628796 0.364078 0.212300 -0.768067 0.306200 -0.006334 0.766401 -0.555724 0.476359 0.179235 0.540637 0.889458 0.419370 0.323371 0.212594 -0.140915 0.497805 -0.383290 -0.301458 -0.272947 0.074253 0.560296 -0.967275 -0.747431 -0.250580 -0.586002 0.931239 0.075829 -0.264072 0.077148 -0.394523 -0.258170 0.177409 -0.100576 0.571700 0.047924 0.707321 0.121974 -0.104394 -0.475830 0.525470 0.680325 0.649773 -0.529747 0.474485 0.709141 -0.407222 -0.644328 0.442614 -0.151932 -0.228057
ah -0.721494 -0.345143 -0.347366 0.477351 0.411910 0.297423 -0.466724 -0.693920 0.439803 -0.472159 -0.218442 0.107713 0.825682 0.200892 0.125624 -1.079157 -0.154105 -0.390590 -0.237752 -0.758883 -0.434906 0.316844 -0.323278 0.587866 0.516016 -0.668324 0.178128 -0.382028 -0.724149 0.031180 0.261558 -0.475209 -0.244814 -0.124584 -0.083879 -0.881824 -0.273058 -1.014269 0.063513 0.490454 0.496996 -0.082124 -0.274142 0.280682 0.078403 0.203513 -0.014447 0.554467 0.166675 -0.137727 0.143109 0.587344 -0.698053 0.453023 0.569871 0.412756 0.196393 0.605095 0.117394 -0.391398 0.299440 -0.593477 -0.783579 -0.101459
oh -0.089589 0.241632 0.187445 -0.326345 -0.011415 -0.218281 0.521868 -0.409896 -0.165653 -0.362938 -0.822468 -0.265353 0.173254 -0.275144 0.048905 0.452207 -1.002322 -0.214068 -0.800907 -0.575650 -0.218551 0.082924 0.204928 -0.728152 0.385598 -0.546473 0.096263 0.053460 0.971878 0.859355 -0.243016 0.100910 0.690517 -0.572379 1.206063 0.103729 -0.286822 0.131134 0.347200 -0.145529 0.374957 0.179506 0.704879 0.302598 0.185932 0.360743 -0.929251 -0.364592 -0.062011 0.433432 0.288256 0.287754 0.675346 -0.212681 -0.163006 0.265676 0.157299 1.092374 0.104596 -1.075817 -0.073748 0.078543 -0.401034 -0.131194
don't -0.383365 -0.507536 -0.426925 -0.297708 -0.217062 0.356151 -0.545664 0.224150 0.652860 -0.107542 0.000832 0.661601 0.020065 -0.414605 -0.079038 0.072859 -0.071897 -0.791399 0.032445 -0.050539 -0.384719 -0.151950 -0.442522 -0.299068 0.747311 0.265020 0.372459 -0.340583 -0.732098 0.229205 -0.141673 -0.768138 -0.440883 0.297755 0.280110 0.225956 -0.121668 -0.800419 -0.543854 0.307694 -0.091227 -0.529083 -0.883469 0.165005 0.018837 -0.434751 0.304912 0.244502 0.449885 -0.408852 -0.077888 -0.826800 -0.811078 0.464462 0.772238 0.204167 0.657078 -0.097590 -0.203459 -0.073157 0.634986 -0.489698 0.535288 0.262911
er@@ -0.307180 0.172303 -0.493183 0.595565 0.394729 -0.651127 0.168034 0.608564 0.121715 0.432987 0.552057 -0.800494 0.293576 -0.054210 0.533773 0.066708 0.777957 0.025508 -0.421344 -0.130440 -0.451521 -0.381080 -0.494584 0.081265 -0.706817 0.431470 -0.074866 -0.298718 -0.217107 -0.170232 0.055484 -0.697258 -0.588631 0.182650 -0.635551 0.256812 0.677990 0.603621 -0.463732 -0.616702 -0.622819 0.245901 -0.277216 0.042974 0.343297 0.525049 -1.374296 -0.508908 0.370904 0.096966 0.124347 -0.153937 0.685150 0.367362 -0.169564 0.077409 -1.136307 -1.063375 -0.177470 0.660764 1.173983 0.149866 -0.601793 0.758082
there -0.420545 -0.221281 0.081081 0.405197 -0.155749 -0.384992 -0.271633 -0.725094 0.633527 -0.212734 -0.005292 -0.534500 0.368870 -0.582843 0.089374 -0.593631 -0.976372 -0.580501 -0.859035 -0.162347 0.153979 0.745877 -0.426903 -0.335028 0.301106 -0.352752 0.657936 0.150240 -0.046296 0.222247 -0.647786 0.151361 0.048344 -0.677543 0.684919 -0.792117 -0.272627 -0.046328 0.361363 0.937446 -0.357123 -0.363541 0.197346 0.182198 -0.320346 0.562565 0.416119 0.234001 0.261099 0.374553 0.405333 0.590176 -0.177188 0.045730 0.483350 -0.089664 0.038819 0.741867 0.213115 -1.236868 0.125865 0.386466 -0.320208 0.390530
know 0.082492 -0.372600 0.907438 0.206160 0.326417 0.628239 -0.518103 1.020731 -0.136211 -0.447480 0.327368 0.498242 0.356493 0.464481 -0.102557 -0.262839 0.115968 -0.090230 0.348868 0.180198 -0.414182 -0.953853 -0.366809 -0.038801 -0.305782 0.484492 0.502863 -0.553282 -0.094226 0.059935 -0.616105 0.291196 0.014600 0.233667 -0.353358 0.410212 -0.148798 -0.235846 0.193438 -0.624324 -0.181725 0.707385 0.275050 -0.090320 -0.766509 0.305978 0.076601 -0.459368 -0.192271 0.344727 -0.303300 -0.412330 0.478374 0.298227 -0.654530 -0.164848 -0.010888 -0.262838 0.334100 -0.122402 0.322735 -0.169149 0.447199 -0.420474
so 0.019726 0.264720 0.914219 -0.280529 0.175846 -0.228653 -0.477586 0.381382 0.305467 0.178588 0.604677 0.640834 0.353030 0.554460 0.479716 0.408934 0.923153 -0.436007 0.246811 0.695659 -0.358358 -0.872691 0.175637 0.093837 -0.717369 1.033130 -0.350239 -0.048357 -0.193877 -0.594606 -0.363449 -0.121343 -0.420013 0.722814 -0.867165 0.671031 0.556724 0.977571 0.359506 -0.336543 0.242772 0.073651 -0.270600 0.779383 -0.126783 -0.037014 -0.075861 -0.210865 -0.576734 -0.380221 0.041980 0.329033 -0.205342 0.311476 -0.100972 -0.039144 -0.627792 -0.880180 -0.833879 0.536232 0.087971 0.267789 0.781565 -0.051277
o -0.082435 0.848778 0.638693 -0.336140 0.050460 -0.640071 0.416767 -0.245019 -0.476931 0.334332 -0.383023 0.709053 0.151944 0.224941 0.297804 -0.069669 0.378076 0.698191 0.172790 0.053993 0.275686 -0.414547 1.007610 -1.021708 -1.022395 0.284911 -0.016954 -0.635679 0.871881 0.103177 -0.997383 0.543171 -0.668314 0.056344 0.354135 0.765677 -0.207900 1.472429 -0.369535 -1.228954 -0.247213 0.448984 0.456726 -0.067085 -0.164024 0.034070 -0.477857 -0.353828 -0.253026 0.581672 -0.213212 0.287838 0.879357 -0.090483 0.304181 0.637553 -0.176235 -0.282221 -0.395298 -0.182003 -0.290542 -0.273050 1.168932 0.650528
ou@@ -0.475585 -0.226855 -0.186163 -0.319697 -0.124791 -0.115766 -0.076143 -0.065690 -0.064905 0.081897 -0.434655 0.040670 -0.209062 0.368760 -0.427593 -0.297016 -0.518114 -0.505013 -0.117811 0.025670 0.045676 0.064567 0.283432 -0.985746 0.518405 -1.122596 0.018123 -0.467153 -0.263136 0.633362 -0.165691 -0.100535 -0.336709 0.176641 0.323287 0.011359 -0.072504 0.442821 0.345566 0.394593 -0.029276 0.732677 -0.883962 0.075328 -0.156647 0.190068 0.324854 -0.390852 -0.755150 0.244511 0.442376 -0.110910 0.089057 0.133928 -0.421435 0.114244 -0.546587 -0.211921 -0.837328 -0.253423 0.351524 0.416060 0.093988 -0.057574
because 0.851488 0.882653 -0.035291 0.451426 0.427964 0.043227 -0.702251 0.135030 0.541673 0.355582 0.241941 -0.022353 0.927860 -0.059402 -0.188953 0.665311 0.826669 -0.091315 0.024684 -0.006138 -0.102955 -1.357808 -0.642064 0.396423 0.405353 0.080858 -0.140633 0.191269 -0.419320 -0.909300 0.649069 0.135709 0.170779 0.272273 -0.388574 0.060649 -0.158757 0.264467 0.662251 -0.189398 0.008785 -0.205423 0.321630 0.983268 0.544695 0.494508 -0.119978 -0.427877 0.232837 -0.481051 0.533871 -0.160963 -0.316432 0.100536 -0.212177 0.661790 -0.638836 -1.027726 -0.500145 0.567464 -0.127273 -0.146332 -0.834199 -0.083505
li@@ -0.352004 -0.069688 0.378809 0.765071 0.286969 -0.409040 -0.190813 -0.854712 0.305661 0.413241 0.753125 0.221025 0.709563 0.249972 0.298771 -0.004400 -0.203430 -1.152752 0.464465 -0.605765 -0.015926 0.730985 0.338933 0.245255 -0.205618 -0.105698 -0.061587 0.621267 -0.374246 -0.043832 -0.527543 0.552177 0.157785 0.329897 0.759048 -0.337369 0.094191 0.114727 0.693999 0.319567 0.491088 -0.495194 0.238435 0.570440 -0.476059 0.121288 -0.045360 0.857309 -0.572713 0.295338 -0.325816 0.799222 -0.368338 0.274829 0.619513 0.172363 0.438124 -0.071226 0.009892 0.027159 -0.106268 -0.459174 0.308183 -0.090886
di@@ -0.077328 0.078947 -0.043821 0.893037 0.040807 -0.207315 -0.333043 0.164517 0.392979 0.412765 -0.151367 -0.144497 0.616190 0.243078 -0.598554 0.057027 -0.926752 -0.530496 -0.812891 -0.544253 -0.320993 0.462132 -0.272392 0.783734 -0.231968 0.537266 0.566128 0.248033 -0.688072 0.908559 -0.351282 -0.307066 -0.130204 1.031245 0.312609 -0.238005 0.375940 -0.585246 0.219560 0.254355 0.438195 -0.002864 -0.335977 0.127566 0.154323 -0.600604 0.359545 0.759495 -0.128305 -0.263632 -0.444314 -0.048936 -0.901543 0.360612 0.404083 -0.364952 0.098126 -0.163544 -0.359309 0.199918 0.702147 0.505563 0.440897 0.076095
what -0.393722 -0.286954 0.792677 -0.581137 -0.440861 0.100810 -0.404873 0.486594 -0.056399 0.835274 0.102022 0.228266 -0.123978 1.323205 -0.282209 -0.510595 0.556455 -0.397923 0.915903 0.778238 0.385471 -0.298482 -0.047882 0.453978 0.161887 -0.420242 -0.501683 -0.333224 -0.212781 -0.403730 -0.668056 0.142781 -0.165619 0.588940 0.057578 0.349445 0.343267 -0.901018 0.064682 -0.259861 -0.095189 0.393760 0.197008 -0.087401 0.251533 -0.835374 0.301067 -0.062936 -0.975920 -0.464503 0.519250 -0.278423 -0.062486 -0.218822 -0.113409 -0.329004 0.030018 -0.429702 0.307937 -0.063403 0.168120 0.047073 -0.051854 -0.709003
k@@ 0.172071 -0.729617 -0.835710 -1.173072 0.295134 0.818954 0.034048 0.276872 -0.439538 -0.933837 -0.576537 0.223058 -0.222445 -0.455794 -0.394589 -0.281924 0.170117 -0.056718 -0.133592 -0.206502 0.671949 -0.140568 0.366135 -0.422330 0.490595 0.025123 -0.110909 -0.687999 0.255001 -0.093418 -0.106708 -0.030820 -0.183018 0.216747 0.104764 0.686323 0.513987 0.004817 0.192460 -0.448855 -0.354251 0.392696 -0.236032 -0.405057 -0.402302 0.149264 0.325819 -0.072935 0.200942 -0.173236 0.003761 -0.757698 0.987810 -0.580122 -0.163232 -0.105271 0.194525 -0.297186 0.289616 0.218878 0.477085 -0.295015 -0.012622 0.354952
at@@ -0.379801 0.504774 0.198282 -0.100397 0.116292 -0.211939 -0.673289 -0.542508 0.912402 0.075849 0.161149 0.726766 -0.284366 0.436889 0.506918 -0.586253 0.526905 -0.207154 0.539787 -0.163632 0.054469 1.157752 0.242719 -0.118566 -1.215156 0.273695 0.094278 -0.068019 -0.380883 -0.672606 -1.153270 -0.588789 -0.522431 0.659461 -0.544441 0.155850 0.076275 0.253504 -0.356536 -0.439074 0.325317 0.297393 0.323899 0.269027 -0.009028 -0.426344 0.513001 0.978376 -0.512127 0.004608 -0.039815 0.585971 0.464460 0.468531 -0.078736 -0.268641 -0.238616 0.188320 -0.219271 0.092247 -0.805381 0.315704 0.610827 0.195883
st 0.166673 0.379073 0.230728 0.004143 -0.486117 0.720753 0.131486 -0.513407 0.094297 0.209718 -0.738903 0.072698 -0.055605 0.081098 -0.542872 -0.283577 -0.471222 -0.021260 0.037489 -0.040725 0.429065 -0.511150 -0.616886 -0.410076 0.275829 -0.879451 -0.063692 -0.191901 -0.054648 0.030612 -0.381556 0.164474 -0.167929 0.116491 0.383960 -0.570780 -0.401175 0.327847 0.435262 -0.229142 -0.056884 0.771147 -0.326142 0.147948 0.107464 0.443286 0.328761 -0.743864 -0.151995 0.330787 0.167437 0.036575 0.253148 -0.559346 0.104040 -0.247476 0.080131 0.056644 -0.371789 0.097040 0.067954 0.046488 0.107683 0.636206
en 0.638302 -0.518541 -0.025184 0.655232 0.652344 -0.213651 -0.201661 -0.120641 0.877029 0.159564 -0.992494 0.004976 0.970833 -0.054914 -0.635704 -0.341138 -0.481243 -0.331210 0.007159 -0.795399 0.068951 0.431390 -0.126516 -0.327379 0.255102 -0.933460 0.206771 0.404254 -0.262752 0.375977 -0.676691 0.133844 0.166203 -0.591499 -0.852381 -0.515174 -0.023555 0.127136 -0.021066 0.371854 0.370090 -0.337636 0.248495 -0.448984 -0.504722 0.159639 -0.399472 0.905709 -0.306578 0.001273 -0.671419 0.847320 0.217514 0.833374 0.229876 0.077412 0.606581 0.510526 0.416368 -0.318610 0.181657 -0.033638 -0.272874 -0.346601
for -0.508683 0.047076 -0.688686 -0.535282 -0.020120 -0.116618 -0.827490 -0.629427 0.360286 -0.147023 0.472561 0.669080 0.224455 -0.049840 0.496645 -0.368934 0.199826 0.258896 0.140219 0.138556 0.065764 0.912060 -0.021143 0.433331 -0.070546 0.023767 -0.307267 -0.091318 -0.614656 -0.099617 -0.934805 -0.020276 -1.022970 -0.164967 -0.933259 0.190857 0.051999 -0.393076 -0.164883 -0.006793 0.264435 0.477272 -0.626483 0.003196 -0.118208 -0.087121 0.434659 1.195023 -0.441779 0.242049 0.351305 -0.262629 0.431526 0.255093 0.481345 -0.146885 -0.104348 -0.250832 -0.307678 0.456874 -0.229205 -0.287516 0.266873 0.175866
mm 0.807145 0.746774 0.157299 0.298037 0.245258 0.337614 -0.842694 0.523190 0.308260 0.489264 -0.906920 -0.844602 0.167355 0.353078 0.054027 0.222240 0.645911 0.327748 0.012138 -0.408011 -0.102699 -1.296394 -0.276883 0.509651 -0.030884 0.334212 0.218698 0.542118 -0.904848 -1.488449 -0.175785 -0.207702 -0.869094 0.624096 -1.777341 0.673341 -0.308031 0.646668 0.441986 0.133893 0.398682 0.098551 -0.074097 0.352457 0.044480 0.581841 -0.244832 0.349540 -0.759690 -0.497484 0.570488 -0.073075 0.561456 -0.009372 -0.454446 0.524986 -1.370964 -0.609289 -0.023921 1.092907 0.421588 0.436299 -0.434530 -0.401423
or@@ -0.034293 -0.876928 -0.048728 -0.272454 -0.082754 -0.257313 -0.120909 -0.850152 -0.416738 -0.888901 -0.389177 0.042348 0.288036 0.337839 0.475193 -0.208467 -0.466436 -0.400897 0.045780 -0.556201 -0.544189 0.810911 -0.278593 0.379380 0.129044 -0.465230 0.778970 -0.197510 -0.577639 1.116289 -0.556976 0.177966 -0.284664 -0.068468 0.354490 -0.876801 -0.716673 -0.113145 -0.312735 0.531721 -0.398156 0.262238 0.030832 0.020843 -0.912258 0.406502 0.322678 0.642440 0.195887 -0.118075 -0.489649 -0.157238 0.137886 0.206600 0.219394 0.371240 0.091765 0.544589 0.165943 -0.554691 -0.412297 -0.371395 0.025564 -0.469734
k 0.304107 -0.463514 0.760315 0.360673 -0.428403 0.203358 -0.049420 -0.049740 0.667759 0.430974 0.510430 -0.513167 0.625167 0.572820 0.096281 -0.101227 -1.164357 -1.431947 0.241873 -0.087181 -0.156065 0.203696 0.311567 0.441383 0.158091 -0.718503 -0.245829 0.726160 -0.100396 -0.432514 0.516273 0.179449 -0.679298 0.286475 -0.420561 -0.473164 -0.882444 -0.187470 0.222029 1.001922 -0.408238 -0.295312 0.329059 0.094101 0.582436 0.446950 -0.141143 0.879478 -0.290357 -0.153215 -0.177794 0.301223 -0.090009 -0.145784 0.847325 -0.236158 -0.186633 -0.007090 0.197768 -0.520814 -1.221825 0.903795 -0.493594 -0.875038
one -0.573232 -0.066000 -0.005173 -0.638149 -0.294661 -0.527943 -0.059304 0.057653 0.594896 -0.077943 0.608856 0.922897 0.006677 0.571617 0.589510 -0.356770 0.167854 -0.184259 0.008641 0.149071 -0.519571 1.116995 0.289507 0.339766 -0.885043 0.857961 0.535641 -0.432254 0.184116 -0.178685 -0.354692 -0.368802 -0.531472 0.105363 0.252685 0.310141 -0.458904 -0.236348 -0.624173 -0.149760 -0.121291 -0.114796 -0.598966 -0.171030 -0.161967 -0.281288 0.101313 0.384218 -0.130221 0.157382 -0.104670 -0.355707 -0.533143 0.654416 0.049068 0.622622 -0.472624 -0.128604 0.045147 -0.232591 0.145002 -0.373200 0.770471 0.215789
th@@ 0.791453 0.266014 0.088851 0.800195 0.434589 -0.651613 0.444832 0.172162 -0.197577 0.818147 -0.617084 -0.202433 0.806821 0.058645 0.086346 0.097379 0.240766 0.309811 -0.037512 0.088008 0.248875 -0.226395 0.104608 -0.515778 -0.675148 0.301473 -0.035603 0.105295 0.793093 0.453134 0.711950 0.387510 0.392085 -0.046785 0.325651 -0.169821 0.176269 0.019743 -0.040659 0.371207 -0.020692 -0.043481 1.086184 0.046075 0.404875 0.155207 -0.747106 -1.309436 -0.504224 0.253172 0.033188 0.636994 0.271815 0.696851 -0.155979 0.361550 -0.487542 0.192057 0.054721 -0.151394 0.861426 0.256803 -0.284318 0.729178
ri@@ 0.721862 -0.395407 -0.090787 -0.208231 -0.085779 0.765551 0.289297 0.833261 0.128565 0.231025 -0.193311 -0.261517 0.194628 -0.358305 -0.614136 -0.416462 -0.192362 0.464286 -0.130103 0.183798 -0.313785 -0.636572 -0.450047 -0.664206 0.043650 -0.279611 0.254137 -0.522202 -0.249188 -0.119127 -0.786302 0.386637 -0.703305 -0.418370 -0.463278 -0.388994 -0.374597 -0.311195 -0.061378 0.235105 -0.016714 -0.129040 0.061360 -0.012869 -0.222652 0.495052 -0.820133 -0.066234 -0.700070 0.224317 -0.067059 -0.407320 0.507453 -0.485576 -0.297939 0.405944 -0.445558 -0.287547 -0.202444 -0.264402 -0.114816 0.013033 -0.652443 -0.487051
r 0.351205 -1.070826 -0.178389 -0.151296 0.008759 0.040827 -0.426616 1.226050 -0.193861 -0.117495 -0.071583 0.248422 0.332502 -0.143939 -0.057261 0.000560 0.660295 0.470988 -0.029265 0.606989 -0.224397 -0.801466 -0.481387 -0.150961 0.246946 0.219273 0.125691 -0.795777 -0.283240 0.110380 -0.061153 -0.367019 -0.366085 -0.062049 -0.454016 0.313719 0.149538 0.189070 -0.229791 0.005621 -0.035228 0.418454 -0.649635 0.059507 0.072001 -0.185971 -0.229899 -0.194526 0.169523 -0.600382 -0.205442 -0.530245 -0.234828 -0.511211 -0.905099 0.440763 -0.104848 -0.427681 -0.019929 -0.098568 -0.307487 -0.703288 0.047713 -0.727590
or -0.021704 0.475906 -0.178185 -0.387401 -0.119630 -0.146133 -0.517684 -0.108196 0.493322 -0.082141 -0.187720 0.150962 0.888751 0.379220 -0.187118 -0.811931 -0.095608 -0.107742 -0.342758 0.617699 -0.059399 0.841409 -0.507454 -0.373043 -0.019913 -0.044053 0.065125 -0.025621 -0.678512 0.016527 -0.984438 0.644609 -0.115215 0.400189 -0.217187 -1.367441 -0.240503 -0.425715 -0.087881 0.717638 0.313279 -0.837708 0.410884 -0.149505 -0.045306 -0.307698 0.387454 0.678581 0.285689 -0.190637 0.050103 -0.014434 -0.132256 0.193345 0.355865 0.212043 -0.377320 0.567305 -0.285910 0.146384 0.237057 -0.080103 -0.448393 0.116906
ac@@ -0.753923 -0.224502 -0.466004 -0.455899 -0.081166 0.218434 0.443297 -0.316601 -0.064117 0.164850 -0.547534 0.013931 -0.231285 0.542682 0.146018 -0.068238 -0.100122 -0.714036 -0.270159 -0.226716 0.093927 1.376082 -0.032297 -0.025226 -0.494347 -0.494634 0.013361 0.502722 -0.688005 -0.094318 -0.704086 -0.638961 -0.486112 -0.490852 -0.117157 -0.291819 -0.124416 -0.149765 -0.165664 -0.086831 0.236111 -0.453540 0.279898 -0.159629 0.287640 0.030850 0.671659 1.215244 -0.663190 0.060617 -0.072068 0.164294 1.021499 -0.129801 0.133622 0.422723 -0.592462 1.396722 0.385202 -0.363078 -0.685199 0.089365 0.183520 0.365950
be@@ -0.190374 -0.884782 0.466899 -0.106728 -0.525751 0.553473 -0.383053 -0.099025 0.222309 0.823581 -1.058582 -0.038175 0.113881 0.235777 -0.095716 0.340628 -0.214808 -0.855651 -0.189003 -0.462297 -0.358986 0.003240 0.136857 0.437942 0.634397 -1.122077 -0.035884 0.560362 -0.262335 -0.567179 -0.790005 -0.014751 -0.517992 -0.254414 -0.511571 -0.708214 0.237792 -0.052819 0.225436 0.229735 0.699172 0.154423 -0.328727 0.269049 0.088030 0.075514 1.062769 1.070445 0.397032 -0.240210 0.561618 0.182226 0.288181 -0.219556 0.010201 0.095799 0.329727 0.150112 0.264607 -0.192826 -0.366750 0.567580 -0.025969 -0.596428
was 0.276248 0.546258 0.481155 0.591172 0.032560 0.267969 0.212278 0.038590 0.518903 -0.055196 -0.050121 0.369578 0.282585 0.463619 -0.338987 -0.251189 0.285364 -0.072843 0.572403 0.532622 0.287286 -0.458402 -0.339142 -0.136395 0.234149 -0.188084 0.503248 0.811254 0.544621 -0.098516 -0.329438 0.378590 0.130484 0.096765 -0.240941 -0.413044 0.114504 -0.028368 0.324828 -0.166324 -0.345976 0.504944 0.187279 0.299008 -0.304842 0.094518 0.059874 -0.425047 -0.258669 0.552897 0.056669 0.001700 1.133959 0.121895 -0.131187 -0.208738 -0.372987 0.187250 -0.076956 -0.250794 0.126010 0.827708 -0.306539 -0.038869
el@@ 0.385596 0.501890 -0.196797 -0.095977 -0.054104 0.232438 0.269412 0.201966 0.167515 0.401233 -0.530134 0.293756 0.110081 0.381823 -0.002770 -0.060874 0.262906 0.099515 0.056985 -0.260657 -0.179411 -0.214788 -0.362506 -0.444704 0.085943 -0.447510 -0.091680 0.022555 0.172112 0.146533 -0.261834 0.252772 0.025002 0.360069 -0.330676 -0.125969 0.282548 0.317800 -0.116107 0.362747 -0.047884 0.208554 -0.185928 -0.295131 0.133160 0.138541 0.470645 -0.396738 -0.305884 0.607523 0.465147 0.200584 0.227154 0.108476 -0.489229 -0.010683 -0.683006 0.247698 -0.418921 -0.109488 -0.104968 0.381520 0.160746 0.073545
ex@@ -0.197002 0.341526 -0.017848 0.088571 0.081373 -0.020947 1.048104 1.233355 -0.592618 -0.460436 -0.416851 -0.220195 -0.130741 -0.940772 -0.448678 -0.574697 0.592251 0.788181 -0.258710 -0.135215 0.018313 -0.187039 -0.429368 0.270457 -0.368837 -0.000594 0.322391 -0.632984 0.579501 1.054886 0.080912 0.000294 -0.025846 -0.681464 0.834541 0.478429 -0.032022 -0.402079 -0.956162 -0.913772 -0.175519 0.239627 0.040664 -0.961455 -0.494653 0.228253 -0.473695 -0.836146 -0.100751 0.008814 0.300530 -0.166086 0.221979 -0.029255 -0.511634 -0.014642 -0.014173 0.132304 0.269383 -0.308564 0.983032 -0.389925 0.545478 0.337844
si@@ -0.241592 -1.159094 0.473002 -0.705503 0.680551 0.634875 -0.711668 -0.646163 0.585676 0.922717 0.346140 0.669748 -0.066465 0.213979 -0.458255 -0.069890 0.425342 -0.611994 0.120465 -0.184360 -0.234350 0.457468 -0.771949 0.326144 0.336318 -0.027805 -0.388805 -0.074872 0.443686 0.366053 0.374570 0.207994 0.325184 0.090082 -0.326992 -0.339653 0.153770 -0.341916 -0.853269 -0.102476 -0.439060 0.022982 -0.093806 -0.018517 -0.313623 0.017859 -0.348893 0.618338 0.472022 0.200029 -0.503750 -0.514764 -0.363341 1.126137 -0.043270 0.337463 0.277099 -0.261277 0.220062 0.087098 -0.315430 -0.219174 0.274266 -0.442246
not 0.287530 0.102162 0.195306 -0.184607 0.031090 0.035288 0.771747 0.041232 -0.210089 0.535271 -0.119215 -0.309719 -0.066071 0.287986 -0.029243 -0.041514 -0.023088 0.124889 0.406676 0.629261 0.321110 0.660524 0.257167 -0.315752 -0.473730 -0.286362 0.167317 0.316612 0.734666 -0.118118 -0.079802 0.450017 -0.236908 0.268250 0.162335 -0.671518 0.143356 0.344658 0.529972 -0.119728 -0.404331 0.128133 0.431724 -0.060595 -0.468160 -0.020404 0.148919 0.240498 0.205085 0.063212 -0.085270 0.070633 0.430503 -0.171531 -0.210925 -0.071628 -0.676349 0.661583 0.643771 0.041839 -0.132361 0.115106 -0.538979 -0.138526
se -0.068131 -0.416241 0.106390 0.070322 0.063104 0.448101 -0.704520 0.146039 0.419822 -0.156715 0.088775 0.180020 -0.167478 0.462970 -0.268863 0.107956 -0.121903 -0.162744 0.077706 0.582676 -0.041190 -1.081904 0.289230 0.279207 0.730214 -0.300958 0.519311 -0.279625 -0.571510 -1.063201 0.775052 0.201541 -0.131692 -0.103528 -0.397789 -0.000788 -0.308162 0.202190 -0.412803 0.624365 -0.000332 0.302337 -0.814241 -0.405133 0.165695 -0.319964 -0.038412 0.039081 -0.081645 -0.897211 0.748373 -0.812472 -0.394639 -0.509287 -0.829327 0.099131 -0.573743 -0.346084 -0.098294 0.184509 -0.259531 -0.308251 -0.269813 -0.642603
er -0.772109 -0.936109 -0.710294 -0.646591 -0.215686 0.393866 0.227277 -0.180062 -0.245857 -0.367027 0.204307 0.634994 -0.659630 -0.369781 -0.057603 -0.453280 -0.425363 -0.012686 0.648620 0.277977 0.313544 0.354192 0.385321 -0.314436 0.263582 -0.355909 -0.110877 -0.785860 -0.206088 0.468685 -0.362564 -0.186147 -0.172430 -0.434593 -0.081347 0.796175 0.409002 0.244365 0.008515 -0.041048 -0.209614 1.279792 -0.717699 -0.470408 -0.405940 0.089087 0.574705 -0.000869 0.299118 -0.485468 0.014796 -0.555351 -0.100486 -0.404716 -0.339400 0.415917 -0.093169 0.006025 -0.256940 -0.133453 0.614691 -0.089759 0.346033 -0.413967
do 0.675948 -0.126384 -0.019757 -0.223006 0.224608 0.144790 0.521408 0.310221 0.031813 0.137803 -0.983540 -0.480089 0.254164 0.532702 -0.208643 0.686929 -0.811573 0.093516 -0.313493 0.922835 0.088544 -0.975869 -0.215703 0.397948 -0.065264 -0.555457 -0.116323 0.298929 0.053340 -0.430427 0.007627 0.401474 0.384217 0.084711 0.311469 -0.188452 0.620601 0.605440 0.129849 0.366813 -0.133805 0.112665 -0.064332 -0.525408 0.620016 0.282269 -0.368799 -0.094583 -0.145644 0.109145 0.383934 -0.176705 0.803594 -0.369974 -0.823060 0.439001 -0.543178 0.574531 0.081205 0.478653 -0.919530 0.184718 -0.357406 0.178546
ly -0.405455 0.260832 -0.650022 0.016443 0.258467 -0.240276 -0.429031 0.508669 -0.508180 -0.117383 0.627587 1.010047 -0.518115 -0.534149 -0.003719 -0.017047 0.209364 -0.068171 0.160599 0.323516 0.242590 -0.342639 0.012809 -0.526810 -0.126079 1.077693 0.544713 -1.105348 0.450005 0.033097 0.481319 0.366500 0.037972 0.152985 -0.139608 0.427764 0.454647 0.313609 0.224746 -1.366925 -0.397141 0.251958 -0.304283 -0.170812 0.137103 -0.191637 -0.364601 -0.325961 0.504678 0.507849 0.212425 -0.396875 0.578541 0.031663 0.616480 -0.243980 -0.511229 -0.107924 0.118468 0.317362 0.350515 -1.282433 0.713312 0.330395
le 0.771836 0.649710 0.196757 0.196527 0.322040 -0.339212 0.674158 0.808848 -0.209485 0.451795 -0.287322 0.216531 -0.120283 0.162663 -0.082075 0.157453 0.574799 0.890821 0.310455 0.399541 0.052926 -0.505013 -0.022627 -0.097766 -0.550843 0.442980 -0.142420 -0.569071 1.001376 -0.107808 0.024504 0.429988 0.187801 0.180666 0.254502 0.108606 0.197578 0.767945 -0.389148 -1.111529 -0.780986 -0.421313 0.511399 -0.168949 0.556188 0.082808 -1.052084 -0.847565 0.130624 0.592213 -0.224761 -0.242772 0.786974 0.384711 -0.400286 0.141462 -0.211997 -0.253582 0.368267 0.076947 -0.017827 -0.376626 0.135377 0.745099
right -0.061271 0.843194 1.317542 0.604613 0.401485 -0.504597 -0.025168 0.526999 0.448183 -0.231331 0.817005 0.385734 0.316791 -0.314114 0.457721 -0.548107 0.523953 -0.378939 -0.000810 0.101880 0.173366 0.182489 -0.352483 0.261869 -0.155630 1.013281 -0.369752 0.212584 0.053780 0.227182 -0.964449 -0.145244 -0.864458 0.914680 0.069843 -0.136931 -0.076398 0.186052 0.104114 -0.531295 -0.247157 -0.024492 -0.447615 -0.114963 0.097743 0.055617 -1.036869 0.400056 0.181715 0.367907 0.317167 0.540145 0.281837 0.466756 0.383370 -0.289216 0.151329 -0.418717 -0.167756 -0.215783 -0.699209 0.402538 0.232161 0.577455
aha 1.170177 0.700273 -0.038390 0.658504 0.316466 -0.203105 0.027406 0.458263 -0.101280 0.554546 0.194863 -0.356221 0.435585 0.543520 -0.137666 0.107296 0.288220 0.860547 -0.228978 0.003694 -0.628738 -1.305790 -1.262538 0.179776 -0.347792 0.006566 -0.297942 0.209512 0.216358 -0.487527 0.487626 0.522597 0.315370 0.052761 -0.743789 -0.083526 0.398971 0.189228 0.299262 -0.241846 -0.213213 -0.796952 1.012614 0.141341 0.776931 0.348053 -0.307324 -0.463930 0.106076 -0.050607 0.311194 0.131906 0.198667 0.112787 -0.566993 0.235882 -1.018291 -0.420442 0.003061 0.263585 0.110102 0.280728 -0.693950 0.151236
from -0.476929 0.540344 0.163798 -0.425104 0.286007 0.519067 0.074248 0.239137 0.062321 -0.514288 -0.487074 0.259537 0.225666 0.104443 0.405711 -0.205071 0.227056 -0.031278 -0.632162 -0.176873 -0.313661 0.219942 -0.055500 -0.237529 0.067607 0.359437 0.421910 -0.470133 -0.874774 0.330424 -0.422035 -0.459305 -0.398840 0.935676 -0.166725 -0.203671 0.578853 0.012313 -0.266778 -0.678243 -0.011374 0.159705 -0.652806 0.185514 -0.310470 -0.039302 -0.215596 -0.022122 -1.094569 0.588178 0.009436 -0.835763 0.981470 0.562696 -0.970471 0.464765 0.020675 0.266637 -0.985249 -0.189416 0.609369 -0.156385 0.213359 0.345797
un@@ 0.305821 0.977507 0.377169 -0.345063 -0.001112 0.032501 0.429976 0.413404 -0.001745 0.419192 -0.591752 -0.343407 0.092001 0.383775 0.170358 0.176595 -0.589351 0.234339 0.216402 -0.126480 -0.292955 -0.264469 -0.755415 0.074088 0.177333 0.028137 -0.200096 0.509324 0.382262 -0.235822 -0.007220 0.668842 -0.447402 0.012152 -0.357182 0.301884 0.105768 0.434250 -0.370757 -0.065402 -0.277968 -0.342402 -0.262662 -0.248012 0.176467 -0.098611 -0.171738 -0.325232 -0.581541 0.569427 -0.660144 -0.102191 0.433509 -0.052304 0.199058 -0.731790 -1.035774 -0.243404 -0.114241 -0.167076 -0.708099 0.263467 -0.278940 0.310190
l 0.328118 0.155308 0.244190 0.618235 -0.340843 0.198118 -0.058585 -0.389757 0.380181 0.325381 -0.404571 -0.065649 0.186635 0.037151 -0.019518 0.570563 -0.098394 -0.279743 -0.448376 0.717845 0.283134 -0.168578 -0.598934 0.286707 -0.736990 -0.074300 -0.178390 -0.261927 -0.161667 -0.218812 -0.034153 0.308115 -0.590454 0.117030 -0.500359 -0.047863 0.124870 0.632734 -0.134168 0.202773 0.279704 0.019132 -0.296594 0.450054 -0.252257 -0.273942 -0.033494 -0.298226 -0.297033 0.746389 0.527068 0.524836 0.438034 0.259730 -0.292784 0.537088 -0.847965 0.429332 -0.015870 0.433632 0.474620 0.471385 -0.358660 0.539730
uh -0.075910 0.004780 0.590886 -0.051859 0.026160 -1.018330 0.051628 -0.832773 0.270363 0.119062 0.894567 0.564697 0.387271 -0.526515 0.107261 -0.177625 1.030575 -0.221495 -0.161144 0.212153 -0.534905 0.799437 1.267340 0.600894 -0.708075 1.547429 0.268284 -0.398339 0.139361 0.649333 -0.906168 0.501287 -0.214356 0.026669 0.626582 0.449209 -0.329889 0.238617 0.016926 -0.508257 0.022862 0.132710 -0.522876 0.194682 -0.045544 0.225484 -0.431216 -0.093569 -0.513322 0.365615 0.428014 0.604592 -0.456775 0.852485 1.261613 -0.327567 0.059736 -0.418288 -0.427075 -0.217101 -0.600362 -0.401230 1.066194 0.316642
hi@@ -0.759837 -0.081922 -0.467931 -0.884507 -0.588663 0.211049 -0.470794 -0.513894 -0.510880 -0.397098 -0.101160 0.571984 -0.711402 -0.131415 0.618385 0.835082 0.055835 0.050488 0.131847 -0.111804 0.082227 -0.137942 -0.195550 -0.669492 0.906958 0.496717 -0.942293 -1.393499 -0.000725 -0.160515 -0.765859 -0.522074 0.088486 -0.439561 0.491120 0.755686 -0.148382 0.294121 0.138061 -1.039138 0.043811 0.141721 -0.282888 0.137486 0.423086 0.285569 0.344013 -0.186695 -0.123143 -0.122310 0.215745 -0.681333 -0.034079 -0.996507 -0.423476 0.470199 0.774625 -0.028401 -0.000463 0.496722 0.234323 -0.716205 1.008328 0.398074
with -0.428230 -0.062573 -0.512023 0.633425 0.018461 -0.322406 -0.472053 -0.419863 0.349038 -0.168256 -0.014696 0.435629 0.911287 -0.257289 0.280592 -0.868834 0.900589 -0.654140 0.308801 -0.754840 -0.252156 1.333441 -0.420983 -0.257982 -0.349338 -0.115983 -0.105631 -0.496196 -0.504023 1.213254 -0.036705 -0.250584 0.273789 -0.129088 0.383515 0.255769 0.473103 0.068746 0.037553 -0.037001 0.152826 0.014554 -0.757617 0.772608 -0.063125 -0.608393 0.515763 0.078994 -0.070125 -0.000936 0.273619 0.663677 -0.188163 0.336963 0.659339 -0.594782 -0.002005 -0.037530 -0.765635 -0.938628 -0.446219 0.076442 0.385573 -0.098461
ne@@ 0.551700 -0.080237 0.813977 -0.121948 0.085475 -0.097569 0.013251 -0.574369 0.326878 0.174782 0.089325 -0.115794 0.860986 0.270998 -0.500743 -0.186267 -0.219357 0.443586 0.027603 0.152417 -0.528289 -0.499673 0.196493 -0.011399 0.414107 -0.690323 0.046357 -0.788445 -0.152571 -0.136405 0.108747 0.047176 -0.123712 -0.247375 -0.244383 0.602714 -0.325675 -0.024163 0.323138 0.175029 0.058680 0.730776 -0.396542 0.100170 -0.133894 0.176189 -0.336935 -0.041722 -0.375180 0.152737 0.529757 -0.099052 0.292668 -0.133669 -0.504130 -0.066750 -0.284538 0.076396 -0.253515 0.016002 -0.055100 -0.439929 -0.226818 -0.615265
ic@@ -0.577466 0.323574 -0.193248 0.291630 0.147881 0.107492 1.298547 -0.072880 0.161494 0.046596 -0.211369 0.362812 0.425129 -1.023944 0.148081 -0.086120 0.166784 0.214941 -0.760825 -0.267593 0.031423 0.191090 -0.212673 -0.876534 -0.237888 -0.173135 0.610072 -0.304710 0.880200 1.288334 -0.050484 0.540597 0.103196 -0.582968 0.674874 -0.146716 -0.078279 0.341755 0.223516 0.161531 0.060645 0.052885 0.063406 0.191797 -0.330391 -0.091955 -0.381154 -0.300731 -0.199838 0.650703 -0.020491 0.210896 -0.304470 0.769638 0.356645 -0.256585 0.147723 0.345505 -0.176712 -0.576778 0.312073 -0.539261 -0.193741 -0.036754
ea@@ 0.331795 0.271929 0.149714 -0.334138 -0.030431 0.715013 -0.503595 0.110386 0.513111 0.035473 0.518581 0.103492 -0.303350 -0.624775 -0.636496 0.702250 -0.759811 -0.411565 0.214060 -0.660323 0.122491 1.087829 0.012981 -0.240204 0.771517 -0.366380 0.172733 0.724973 -1.001148 0.790024 0.592730 -0.154713 0.366881 -0.822552 0.061200 -0.258619 0.283623 -0.012769 -0.384774 0.059919 0.311618 0.178603 -0.800480 0.336876 -0.253817 -0.531061 0.271110 0.507183 -0.355892 0.216860 0.050786 -0.159053 0.864861 0.388686 -0.027372 -0.185546 -0.677684 0.351085 0.431338 0.600443 0.227342 -0.401439 -0.106921 0.844158
lo@@ 0.167246 -1.435204 -0.793899 -0.452138 0.042593 0.832165 -0.022701 0.008731 0.275446 -0.032567 -0.143555 -0.475640 -0.586762 -0.051801 -0.006601 -0.225110 -0.786398 0.144093 0.031170 0.227704 0.479596 0.235800 -0.238526 0.527915 0.721048 -1.085721 0.232918 0.524277 -0.493059 0.134041 -0.903277 -0.004410 0.168797 -0.423427 0.350912 -0.248665 -0.402718 -0.717639 -0.098133 0.134886 -0.029988 0.152333 -0.642950 -0.092193 -0.536545 -0.147673 -0.256587 0.646019 0.616880 -0.003881 -0.645355 -0.033831 0.459512 0.150952 0.261523 0.245357 0.489154 0.795007 0.408334 -0.561161 -0.268610 0.448069 -0.877750 -0.255834
ay -0.697063 0.375521 -0.023849 -0.786538 -0.066054 -0.163723 0.356826 0.358931 -0.507926 -0.146415 -0.025235 -0.001235 -0.629014 0.062497 0.503711 0.369250 0.091960 0.439711 0.312430 0.535602 0.368596 0.737873 -0.258943 -0.127786 -0.620373 0.562972 0.100815 -0.857053 0.552831 0.481555 0.075654 -0.071417 -0.109412 0.584700 0.148585 0.410100 0.255081 0.855599 -0.418035 -0.432979 -0.331019 0.434636 -0.050111 -0.024874 -0.870316 0.094682 -0.133419 -0.610427 -0.450992 0.589766 0.189127 -0.244048 1.323077 0.072971 -0.344364 0.062548 -0.195204 0.364888 0.008801 -0.083311 0.290730 0.319370 0.471955 0.621876
ti@@ -0.075964 0.644443 0.008048 0.554554 0.092307 -0.412950 -0.432672 -0.212569 1.660474 0.458618 0.106646 -0.023184 0.232221 0.131363 0.936802 0.178712 0.430071 -0.496932 -0.353455 -0.792152 -0.293234 0.777330 -0.219126 -0.393334 -0.294723 0.620478 0.261755 0.455064 -0.349918 0.645825 -0.279130 -0.185269 0.247753 0.105283 -0.036947 0.334191 0.084918 0.138994 -0.632104 0.448730 0.602345 -0.501441 -0.094855 0.605445 0.800112 0.153405 -0.212828 -0.092680 -0.084428 0.206616 0.665437 0.605590 0.007270 -0.054002 -0.201481 0.257572 -0.493376 0.015585 -0.500925 0.176183 0.074359 -0.352163 0.315671 -0.110936
my 0.894914 -0.042168 0.245720 0.770084 0.453026 -0.186587 -0.192802 0.691103 0.433128 0.866830 0.092561 -0.500995 0.943087 0.961014 -0.606123 0.064851 0.011226 -0.229293 -0.371592 0.189940 -0.161572 -1.156003 -0.170975 0.276654 0.422733 -0.339571 0.268970 0.508209 0.088797 -0.853204 0.640824 0.797354 0.406018 0.381864 -0.419128 0.136470 -0.141317 0.191419 0.336852 0.738378 -0.107755 -0.170658 1.008000 0.310187 0.422159 0.695756 -0.234337 -0.642271 -0.537950 -0.446747 -0.219098 0.518203 -0.167483 -0.025373 -0.870862 0.222590 -1.037630 -0.361638 0.170287 0.315226 -0.695727 0.358449 -0.484086 -0.469020
an 0.857289 0.754233 0.176924 0.662225 0.654589 -0.421716 -0.095216 0.066662 0.229771 0.915605 0.602378 -0.643133 0.933238 0.437119 -0.097644 0.463532 0.098179 0.093451 0.558739 0.236705 -0.305433 -0.650020 0.305303 0.283949 -0.455106 0.151369 -0.426839 0.391082 0.432536 -1.020285 0.331645 1.476084 0.206561 0.659636 -0.012332 0.146585 0.094184 0.512442 0.418717 0.240940 0.071860 -0.506580 0.950874 0.210178 0.858536 0.243531 -0.189930 -0.222133 -0.177872 -0.050521 -0.069660 1.049296 0.359612 0.080073 0.079150 -0.492664 -0.065010 0.215122 -0.181484 0.160405 -0.469244 0.620356 -0.707458 0.219020
eh -0.608851 -0.610245 1.211186 0.118762 -0.057570 0.105218 -1.484493 0.403830 0.267862 0.461793 0.437320 -0.017740 0.086367 -0.388821 0.072610 0.584512 0.104304 -0.464430 -0.320332 -0.548880 -0.019700 0.033457 0.185674 0.267820 -0.292917 0.409924 -0.616974 0.365980 -0.233443 -0.415617 -0.161559 -0.279749 -0.571136 0.828903 -0.111434 0.270781 0.517475 0.193247 0.042073 0.124787 0.037905 -0.608356 -0.969090 0.662269 0.108312 -0.375564 0.408742 0.797202 -0.616106 -0.059308 -0.106337 0.008142 -0.619781 0.468518 0.504108 0.041734 0.553691 -0.284099 0.010122 0.144795 -0.167130 -0.075124 0.436211 -0.010542
all 0.148868 -0.888521 0.650557 0.366806 -0.770863 0.519549 -0.783422 0.160128 0.187251 0.374788 0.610701 -0.075453 -0.309154 -0.047600 -0.368128 -0.132672 -0.201073 -1.106187 0.512606 -0.369160 -0.173685 -0.377104 0.630299 0.728256 0.907390 0.258376 0.534082 0.485613 -0.837305 0.363688 0.227430 -0.338021 -0.412933 -0.117902 1.022511 -0.183618 0.095782 -0.349421 0.596103 0.298921 -0.067451 -0.027356 0.113447 -0.165437 -0.087031 0.058891 0.375678 0.344802 0.140224 -0.716145 -0.018004 0.088513 -1.363796 -0.551509 0.530365 0.277729 0.548501 -0.620726 0.271394 -0.427701 0.321137 0.442594 -0.498245 -1.052104
here -0.491981 0.154609 0.085042 -0.163694 -0.243079 -0.151428 0.340409 0.466308 0.051252 0.047273 0.446685 0.133448 -0.055973 0.258637 0.588190 0.539640 -0.139606 -0.092350 -0.123556 0.079608 -0.115260 -0.407956 -0.230183 0.029331 0.554715 -0.373025 -0.459329 0.058182 0.028854 -0.484577 0.327970 -1.067543 -1.086322 -0.182159 -0.347469 0.170253 -0.402132 0.221995 -0.379155 0.667867 0.129736 0.039389 -1.046970 0.022573 0.351736 -0.293837 -0.423310 0.434259 -0.183671 -0.089686 0.112383 -0.061169 0.145155 -0.648151 -0.438731 0.147934 -0.569671 0.005705 -0.566994 1.120496 -0.587322 -0.515032 -0.227524 0.534512
how 0.055037 0.254042 1.395990 0.631340 -0.377238 -0.797107 -0.168276 -0.402354 0.130854 0.040167 0.194501 0.138584 0.216879 0.254951 0.477486 -0.000749 -0.017766 -0.302364 -0.304650 -0.651250 -0.694174 0.409634 0.836667 -0.243553 -0.204794 0.645353 0.129925 -0.045869 0.149503 0.175768 -0.575988 -0.116432 0.711996 0.153665 0.506862 0.231875 0.346750 0.518938 -0.242543 0.543615 -0.040244 -0.155968 -0.222094 0.342984 0.090159 0.391710 -0.331376 0.063511 -0.000899 0.818965 -0.307401 0.807994 -0.708558 1.319483 1.105891 -0.385524 0.565889 0.551031 -0.671341 -0.605951 -0.110432 0.053631 -0.119706 -0.504021
this 0.735076 -0.253501 0.337137 -0.121238 -0.286221 -0.097392 -0.410474 0.690477 0.227622 -0.364549 -0.126905 0.152001 0.646077 -0.247642 -0.933289 -0.106463 -0.509164 0.215379 -0.260611 0.151110 0.406580 -0.640716 -0.617272 0.100072 0.195879 -0.278212 0.655100 -0.740629 0.424962 -0.368668 -0.439571 -0.359337 0.135588 0.232101 0.495386 -0.066327 -0.384700 -0.316169 0.354680 -0.606342 -0.104232 -0.690022 0.242395 -0.162547 -0.161406 0.016738 -0.554813 -0.318625 -0.194441 -0.922825 -0.020705 -0.482787 0.418750 0.048113 -1.137988 0.387596 -0.231400 -0.669309 0.163843 -0.831615 0.261408 -0.274996 -0.522256 -0.651524
le@@ 0.007636 1.046327 0.846221 0.067425 -0.225356 -0.253095 -0.276491 0.526191 -0.045365 0.301109 0.178207 -0.076163 0.577367 0.184085 0.429603 0.282701 0.493599 0.938629 0.682424 0.356002 0.553263 -0.470241 -0.805242 0.503094 0.006491 0.866681 -0.096303 0.433450 0.694532 -0.553135 -0.239113 -0.019795 -0.507015 0.417813 0.591655 0.836033 -0.420943 0.361398 -0.218049 0.145532 -0.298429 -0.617165 0.214505 -0.542047 0.186840 0.083210 -0.872753 -0.804420 -0.011208 0.681878 -0.396698 -0.100578 0.328163 0.683118 -0.010550 -0.136744 -0.588990 -0.143557 -0.362243 0.140568 -0.746557 -0.179010 0.405071 -0.221011
think 0.325044 -0.593319 0.915731 -0.268586 0.216045 0.082448 -0.276473 -1.113289 0.194489 0.116781 -0.335105 -0.547194 0.064767 0.814924 -0.494426 -0.636988 0.167624 -0.094870 0.412572 0.281118 0.646082 0.725762 0.376177 0.575410 0.066062 0.784686 0.485518 0.487626 0.081476 0.200537 -0.008331 0.531153 0.276365 0.445083 -0.429638 0.002413 -0.541955 -0.799704 0.128796 -0.455337 -0.044351 -0.571775 0.627796 0.025956 -0.139363 -0.064044 -0.081832 -0.388715 0.427135 -0.146055 -0.561888 0.873669 -0.054332 0.915328 1.011570 -0.529379 0.104408 -0.388397 0.379642 -0.409784 -0.078201 -0.073616 -0.201729 0.128891
it@@ -0.186013 0.184144 0.103134 -0.018358 0.089784 0.095110 -0.090698 0.184461 -0.550980 -0.169153 -0.210216 0.799627 -0.861551 0.682517 -0.221493 0.291683 0.465867 0.141134 0.309991 0.678489 0.355939 -1.169949 0.482579 0.303159 -0.352222 0.410959 -0.311099 0.187913 0.326468 -1.135922 0.126089 -0.325954 -0.519355 0.126037 -0.465032 0.235730 0.231272 0.441401 0.153069 -0.556939 -0.699749 0.320551 -0.028491 0.432410 0.169423 0.200447 0.138200 0.145448 -0.409507 -0.080317 0.160153 -0.796072 0.939903 -0.517791 -0.490640 0.207997 0.356205 -0.389270 0.090130 0.633909 0.001449 0.393993 0.066613 -0.358299
if 0.081748 -0.125631 0.003421 -0.019251 0.294051 0.424691 0.293846 0.116820 0.131425 0.031971 -0.361573 0.687463 -0.136760 0.349843 -0.156243 -0.279591 -0.287768 -0.033579 0.176048 0.123273 0.354696 -0.210544 0.600932 -0.241002 0.069781 -0.590524 0.236085 0.191422 0.331450 -0.465713 -0.256788 0.284449 -0.141794 0.255939 0.173901 -0.410192 -0.329661 0.558840 -0.047876 -0.409576 -0.175286 0.400291 0.700743 0.471517 0.042175 0.221851 0.228440 -0.139902 -0.186819 0.543198 0.385664 0.203128 0.792978 -0.393930 -0.292983 0.701324 -0.103176 0.523870 0.445190 -0.135055 -0.323682 0.253116 -0.689261 0.117434
we 0.061428 0.614005 0.600944 -0.105908 0.282972 -0.430264 0.279044 -0.088998 0.077171 0.383022 0.084185 0.516796 -0.344508 0.981924 0.392011 -0.085402 0.928969 -0.355401 0.541411 -0.353190 0.339686 0.191491 0.285262 -0.424019 -0.775806 0.710971 -0.173204 -0.146627 -0.187161 0.001972 -1.181909 -0.267746 -0.717017 0.387674 -0.925375 1.188599 0.279800 1.140587 0.082740 -1.474325 0.024759 0.120915 0.214595 0.179309 0.088386 0.152138 -0.404862 0.385913 -0.999567 0.246472 -0.058422 -0.122472 0.955010 0.226989 0.295162 -0.189101 -0.493416 -0.323694 -0.696928 0.485290 -0.779720 0.612901 0.428510 0.281557
very 0.430574 0.535457 0.462941 0.461903 0.142688 0.027192 0.329137 0.689720 0.071160 0.221547 -0.271738 0.059605 -0.148160 0.412949 -0.071719 -0.899248 0.033024 0.502965 0.121949 0.179320 0.456823 -0.166225 -0.449919 0.200802 -0.479349 0.058612 0.038224 -0.534406 1.133769 0.195482 0.297195 0.579699 0.271792 0.151976 0.086272 -0.341780 0.024692 -0.206598 -0.444965 0.317602 -0.380966 -0.761987 0.803242 -0.535166 -0.155623 0.334682 -0.169169 -0.735538 0.382871 -0.104583 0.254352 0.356661 0.104624 0.396242 -0.075590 -0.163156 -0.413119 0.456535 0.067713 -0.122583 -0.046031 0.215762 -0.015250 -0.305955
people -0.461034 -0.301186 0.495995 0.207484 -0.327554 -0.187031 -0.931589 -0.396484 0.528930 0.260641 -0.144961 -0.063786 0.351893 -0.241054 0.266123 0.268896 -0.138596 -1.430022 -0.408829 -0.813068 -0.441661 0.574155 0.308678 0.949777 0.291839 0.138510 -0.364750 0.677202 -0.692189 -0.743119 -0.530121 -0.082098 0.063714 -0.367400 0.348237 -0.816630 -0.630453 -0.120596 0.096750 0.350956 0.278894 0.032069 -0.329040 0.279539 0.099823 -0.467964 0.391149 0.592573 0.423908 -0.271320 0.307063 0.371035 -0.494823 -0.866932 0.298663 -0.238404 0.389586 0.718080 0.066592 0.598789 0.436980 0.282111 -0.002604 -0.256366
to@@ 0.153934 0.103798 0.559987 0.468187 0.579524 -0.333198 0.204570 -0.244501 0.102244 0.195460 -0.401934 -0.515568 0.643768 0.411376 -0.419074 0.120024 -0.087073 -0.820073 -0.262973 -0.098097 0.071938 -0.787088 0.117983 0.321977 -0.101332 -0.616163 -0.108273 0.375512 0.809926 -0.658322 0.610024 0.589851 0.527877 0.275005 0.449571 -0.643348 0.083081 -0.120789 0.500258 0.541706 0.352126 0.619961 0.735788 0.254358 0.055134 0.675531 0.414356 -0.804015 0.501523 -0.191756 0.088367 1.356890 -0.062295 0.338168 0.312827 0.010279 -0.176687 0.054141 -0.152282 0.358668 0.376672 0.514423 -0.541578 -0.380219
that's -0.033797 -0.087160 -0.181890 0.330696 -0.487357 0.054536 -1.058828 -0.846419 0.210736 -0.199700 -0.055735 0.185505 0.190164 -0.088433 0.289807 0.352123 -0.203382 -0.146229 0.415430 0.356613 -0.778066 -0.358804 -0.323602 0.077917 0.720511 0.322089 0.323278 0.126531 -0.709524 0.366851 -0.092854 -0.256700 -0.468560 0.488240 -0.433264 -0.207223 0.043788 -0.392363 -0.168418 0.222609 0.256749 -0.457053 -0.643900 0.642512 -0.096902 0.479320 0.155833 0.414303 0.364585 0.026117 0.779940 -0.146208 -0.083220 -0.184314 0.605239 -0.223155 0.161986 -0.660256 -0.674556 -0.029367 0.107840 -0.240439 0.660001 -0.196500
i'm 0.351478 0.069536 -0.090838 0.089397 0.210118 0.908689 0.593946 1.092186 -0.037180 -0.139184 -0.239502 -0.356774 -0.607817 -0.571359 -0.300168 -0.586956 -0.280359 0.380260 0.182037 -0.126110 -0.060320 0.129985 0.245670 0.088637 0.059834 -0.042046 0.070324 -0.826543 0.292552 0.450359 0.410137 0.132848 0.259532 0.020120 -0.627033 0.036506 0.554363 -0.508390 -0.025581 -0.883722 -0.027487 0.232061 0.141810 -0.718703 -0.440194 -0.060434 0.358983 -0.902432 -0.524681 0.185003 0.042362 -0.732656 0.462806 0.166270 -0.178883 -0.477428 0.145464 -0.220275 0.512762 -0.308141 0.078853 0.157748 0.441739 0.451517
sure -0.382293 -0.799436 0.614039 0.362205 0.214674 -0.034739 0.112848 0.078845 0.192335 -0.069278 0.016939 -0.190956 -0.401581 -1.062477 -0.011706 -0.042555 -0.118315 -0.592870 0.289980 -0.403362 -0.255475 0.206900 0.442774 -0.229701 0.460813 -0.355315 0.149167 0.055475 0.256102 0.344055 0.294971 0.131024 0.006756 -0.349457 1.236726 -0.472474 0.137075 -0.314554 -0.399178 0.408220 0.532202 0.064150 -0.045365 0.736285 -0.130232 1.097100 0.089656 0.059346 0.122786 0.142817 -0.127564 0.371538 -0.988231 0.364062 1.017323 0.129649 0.152315 0.008185 -0.094618 -0.589649 0.632937 -0.197656 -0.011501 0.340718
tr@@ 0.089192 0.031948 0.305360 -0.041130 -0.519998 0.004297 -0.813380 -0.089788 0.465688 0.435537 0.151218 0.057330 0.640812 -0.206355 -0.072920 0.859840 -0.841254 0.065154 -0.019690 0.214692 -0.557850 0.537323 0.230341 0.698146 0.152556 -0.262404 0.893273 0.456008 0.168192 -0.301765 -0.909070 -0.476960 -0.311124 0.536436 -0.250938 -0.135686 -0.208472 0.176063 -0.241875 -0.265597 0.122417 -0.342539 -0.540097 0.680746 0.719818 0.103939 0.427864 0.074185 0.742037 0.278589 -0.343135 -0.422528 -0.058016 0.221201 0.446756 0.124164 -0.176689 0.471900 0.173371 0.183182 -0.561298 -0.418840 0.092991 -0.210012
sa@@ -0.774943 -0.155062 0.014869 0.071491 0.099317 -0.900234 -0.367995 -0.838419 0.422733 -0.244616 -0.264072 0.190237 -0.160773 0.260836 -0.421770 -0.493234 -0.922786 -0.602667 0.227128 0.118649 0.488361 1.003026 0.202853 0.025971 -0.255847 0.419441 -0.215017 -0.095575 -0.290200 0.271337 -0.819687 -0.088983 0.087872 0.262746 -0.168393 -0.138858 -0.544463 -0.122083 -0.636607 -0.152916 -0.293260 0.251540 0.040710 0.277599 0.156327 0.510867 -0.017337 0.367156 0.330628 0.095812 -0.274695 0.546528 1.151162 0.257943 0.236126 0.135958 0.221121 0.974216 -0.017215 -0.180213 -0.037002 0.503687 -0.231641 0.538002
ma@@ -0.607317 -1.704529 -0.163942 0.002417 0.052276 -0.075889 -0.667110 -0.330593 -0.176282 -0.578651 0.329542 -0.021977 0.165225 -0.466012 -0.250305 -0.062301 0.476540 -0.410224 -0.439685 -0.527216 -0.314011 0.111985 0.805801 0.504251 0.320774 -0.533175 0.264180 -0.126133 -0.886662 0.218287 0.109941 0.109313 -0.029818 -0.379255 -0.413011 0.133444 0.188197 -0.228373 0.302469 -0.298315 0.476367 0.046499 -0.684538 -0.197524 -1.095720 -0.289809 0.965306 0.771987 0.178133 -0.358106 -0.555092 0.176834 -0.431709 0.498725 0.119543 -0.255817 0.414525 -0.065144 0.738146 0.318744 -0.413635 -0.271569 0.454191 -0.583468
ha@@ -0.061017 -0.796036 -0.656967 -0.625354 0.096287 0.285843 -0.590594 -0.210026 -0.356725 0.257488 -0.091298 -0.172813 -0.088207 -0.488856 0.047960 0.109053 -1.096008 -1.060680 -0.636516 -0.003750 0.144101 0.857275 -0.125756 0.230092 0.713766 -0.584782 0.337541 -0.114808 -0.545087 -0.342571 0.088825 -0.851360 0.085666 -0.340032 -0.010353 -0.502225 -0.025500 -0.710244 -0.152719 0.964490 0.094493 -0.190191 -0.386027 0.067161 -0.300370 0.067040 -0.085323 1.262692 0.341086 0.169357 0.077630 -0.665387 -1.023013 -0.031842 0.575292 0.049202 0.465289 0.331620 0.116747 -0.081289 0.190851 -0.404890 -0.087716 -0.496649
ent 0.140110 -0.661853 0.282326 0.220094 -0.209865 -0.223923 -1.052167 -0.337063 -0.278217 0.484707 0.307928 0.544960 -0.034999 1.345260 0.152352 -0.637159 -0.011274 -0.004061 0.981799 0.456614 -0.056790 0.192811 0.547566 1.131407 -0.685335 0.454026 -0.326757 0.690447 -0.194512 -0.873713 -0.362516 -0.159678 -0.630231 0.804734 -1.097821 -0.229937 -1.075630 -0.204342 0.121697 0.113631 -0.051474 -0.558043 -0.054949 0.557714 -0.106151 0.058859 -0.265161 0.691535 -0.789927 -0.658492 -0.311629 0.161979 0.160393 0.538786 0.258053 0.086374 0.062962 -0.275468 0.011104 -0.029734 -0.684722 -0.433569 0.467483 0.073677
be -0.011853 0.121316 -0.858459 0.360944 -0.076072 0.403148 0.093700 0.158584 -0.249075 -0.325542 -0.761613 -0.049304 -0.411494 -0.168427 0.377444 0.148056 -0.512501 0.074748 -0.293562 -0.217135 0.307119 -0.110429 -0.669274 -0.692578 0.653735 -0.572651 -0.597636 -0.512416 -0.206853 0.485363 -0.155417 -0.276360 0.577675 -1.115116 0.135680 -0.205013 0.676224 0.252177 -0.314551 -0.939226 -0.222886 0.456861 -0.537269 -0.214384 -0.177839 0.160971 0.513012 0.119237 0.326898 -0.081963 -0.028550 -0.266571 0.872418 -0.445162 -0.653091 -0.203696 0.456389 -0.048069 -0.021035 -0.031540 0.229857 0.345542 -0.417434 0.780158
ca@@ 0.373048 -0.108056 -0.384353 -0.413063 0.268935 0.018949 -0.492126 0.192607 0.668845 0.052220 0.575076 0.475718 0.206656 0.685858 -0.766885 -0.634963 -0.909262 0.235022 0.286082 0.532129 -0.070794 0.481812 -0.123878 0.015444 -0.307817 0.109527 0.163871 0.475630 -0.398068 0.009303 -0.682971 -0.486071 -0.492343 1.142506 -0.520038 -0.220807 -0.642884 -0.858112 -0.660474 0.061433 -0.085516 -0.092378 -0.293173 -0.417943 -0.389971 0.063957 -0.201727 0.998942 0.363440 -0.116297 0.102689 -0.498706 0.890447 -0.276540 -0.149893 0.520480 0.274531 0.152837 -0.040245 0.584236 -0.590676 0.542433 -0.096335 -0.616300
wa@@ 0.140362 0.210291 -1.032117 -0.682657 0.029699 0.521301 0.733077 0.376085 -0.301267 -0.485995 -0.823080 0.062705 -0.374149 0.236511 -0.120518 -0.484171 -0.559859 0.699363 -0.424030 0.072939 0.677395 0.416443 0.087298 -0.528373 0.049390 -0.277769 -0.022900 -0.883788 0.057168 0.106336 -0.336709 0.104039 0.415725 -0.471924 0.378909 0.342713 -0.368723 0.481222 -0.007643 -0.800688 -0.174635 0.359586 0.179251 -0.719551 -0.165321 0.020366 0.184775 -0.253312 0.011713 0.292335 0.039001 -1.029689 1.266640 -0.228389 -0.601740 0.088730 0.105076 0.379493 0.677586 -0.227911 -0.355419 -0.084558 -0.001771 0.290487
cou@@ -0.724950 -0.372802 0.253241 -0.489279 -0.085615 -0.266634 -0.475016 -1.222528 0.370549 -0.023761 0.534748 0.452384 -0.567740 0.031053 0.359082 0.121831 0.063142 -0.413329 0.609008 -0.318305 -0.239810 0.627022 0.821592 0.310030 -0.358977 -0.533995 -0.243818 0.019623 -0.484377 0.489785 -0.481299 0.352124 -0.132742 0.328842 0.301001 0.346942 0.475812 0.157509 -0.720283 -0.246211 0.798699 0.352719 0.134437 0.141354 -0.252763 -1.004555 0.898970 0.965535 -0.379941 0.187540 0.137017 0.184707 0.077157 0.114611 0.703874 -0.293637 -0.067398 -0.012066 -0.981293 0.203265 0.182590 -0.295102 0.613449 -0.036218
h -0.095964 -0.504140 0.147018 -0.545202 0.133882 0.421309 0.051605 0.192289 -0.270852 -0.099230 -0.279750 0.134505 0.107285 0.281339 -0.443982 -0.379280 -0.120338 0.008034 0.372193 0.288783 0.004944 0.391085 -0.308101 -0.122399 0.284840 -0.091611 0.397560 -0.628200 0.191132 0.124051 -0.207639 -0.086065 -0.070969 0.369493 0.483985 -0.097834 -0.057109 0.322894 0.019477 -0.684154 -0.329606 0.937841 -0.056849 -0.190002 -0.497082 0.157116 0.114959 -0.323897 -0.080160 -0.274813 0.407707 -0.081255 0.376924 -0.044975 -0.162051 0.199871 0.531820 -0.090995 -0.119216 0.111956 0.134507 -0.240970 0.795537 -0.589002
he 0.341276 -0.278320 0.194384 0.002456 -0.178027 -0.134896 0.159159 -0.588539 0.280659 -0.304392 -0.505565 -0.759458 0.530219 -0.613719 0.198853 -0.167102 -0.569563 -0.148375 -0.142864 -1.061094 -0.222724 0.460545 -0.165840 0.289580 -0.307753 0.282173 0.127808 -0.742916 -0.351980 0.547088 -0.209474 0.464031 1.092698 0.037854 0.056274 -0.579932 -1.049750 0.050152 -0.373248 0.325812 0.140592 -0.709015 0.007993 -0.270049 0.283080 -0.181395 -0.193618 0.421821 -0.186392 0.809071 -0.207240 0.265154 -0.405822 0.258795 -0.307544 -0.183666 -0.459035 0.154061 0.278113 0.133657 -0.848517 -0.072610 -0.121327 0.687677
w 0.548090 0.763042 0.148264 0.140261 -0.058293 0.010363 0.714579 0.667193 0.048251 0.544393 -0.313425 0.078649 0.112906 0.670750 -0.193263 0.050301 -0.024813 0.221389 0.257296 -0.124971 -0.483991 -0.078926 -0.270812 -0.137939 -0.469095 0.211202 0.115794 0.480463 -0.023345 -0.870638 -0.182123 0.730339 -0.173609 0.217958 -0.740015 0.179032 0.049316 0.218113 0.435361 0.069514 -0.046960 0.220341 0.348669 0.100328 0.219777 0.046082 -0.156462 -0.278261 -0.380613 0.390669 -0.104866 0.292680 0.685617 -0.005625 0.164097 -0.389433 -0.628877 -0.128516 0.016812 0.261894 -0.051868 0.177463 -0.017097 -0.219943
good -0.626712 0.416927 -0.158369 -0.681922 0.189710 0.309538 0.255446 0.379263 -0.020722 -0.276386 -0.831288 0.528152 -0.168748 -0.602483 0.198787 0.223095 -0.071683 0.435849 -0.818261 -0.011319 0.257192 -0.247908 -0.574057 -0.878744 -0.092056 0.060557 0.622016 -0.496620 -0.520215 0.765809 -0.145013 -0.514446 -0.486116 0.136710 0.619421 -0.163991 0.205043 0.047144 -0.661741 -0.498004 0.093156 0.230039 -0.459551 -0.069353 -0.080049 0.185165 -0.240924 -0.618381 0.292403 0.643409 -0.315972 -0.657374 0.247929 -0.078155 -0.278167 -0.041781 -0.660905 0.511358 -0.003858 -0.158512 0.127108 -0.294640 0.082839 0.070423
mu@@ -0.751512 0.353762 0.301487 -0.129182 -0.617502 -0.083159 -0.263673 -0.162082 0.509465 0.018383 0.018429 -0.159544 0.153216 0.428380 0.489272 -0.462590 -0.246904 -0.258517 0.117232 -0.226484 0.125923 1.259753 0.162764 0.449113 -1.187377 0.673845 0.243048 -0.228110 -0.067300 0.441351 -0.818326 0.341174 0.071808 -0.025634 0.378262 -0.491090 -0.010508 0.122025 -0.528925 0.041714 -0.103306 -0.547020 0.010613 0.377468 -0.001352 -0.482474 -0.061898 0.698672 0.189626 0.296454 0.211397 0.008918 0.423656 0.660175 0.630538 0.063050 0.223122 0.333974 0.238842 0.164668 -0.313186 0.292920 -0.050819 0.741902
sp@@ 0.169005 -0.069425 0.471877 0.629001 0.162026 -0.221163 -0.508057 -0.469341 0.521496 0.314602 0.508428 -0.606418 0.091029 -0.188104 0.340328 0.507461 -0.554195 -0.507224 0.347552 -0.536990 -0.187016 0.013847 0.433917 -0.065023 0.198384 0.186357 0.079366 1.009172 -0.422871 0.419788 -0.910274 -0.063803 0.125744 -0.310364 0.097159 -0.127917 -0.028645 -0.249846 0.713778 0.164175 0.848577 -0.000064 0.547043 0.761605 0.161568 0.127135 0.309682 -0.155800 0.064077 -0.109792 -0.001556 0.837011 -0.641591 -0.272970 0.801461 -0.429073 0.452020 -0.020310 -0.110662 -0.507638 -0.242649 0.223277 0.075368 -0.642903
am@@ 0.219104 -0.001953 0.329324 0.572525 0.029302 -0.266304 -0.257405 -0.157565 0.335311 -0.400451 0.190675 -0.227703 0.547142 -0.462998 0.426797 -0.021912 0.274378 -0.628961 0.182974 -0.494694 -0.114216 0.086526 -0.096491 0.489404 0.578760 0.009503 0.007919 0.036295 -0.573528 0.214076 0.217276 -0.320190 0.370481 0.306731 0.394663 -0.216347 0.268318 0.319886 0.195986 0.464182 -0.004764 -0.265248 -0.074436 0.148553 0.290473 0.021917 -0.075405 -0.240147 0.251369 -0.058582 0.683733 0.105697 -1.018269 0.362406 0.540216 -0.524476 0.085304 -0.256900 -0.275276 -0.400434 -0.473638 0.447890 0.349189 0.241282
yeah -0.138495 -1.216707 0.067599 -0.089888 -0.381461 0.804495 -0.434044 -0.462894 -0.004724 -0.439968 0.447735 0.263352 -0.005595 0.314428 -0.509670 -0.327617 -0.146136 0.150353 0.296236 0.673218 -0.085367 -0.793195 -0.065751 1.262502 0.682463 -0.140697 0.433201 0.552972 -0.135642 -0.971838 0.228813 -0.025123 0.176826 0.637503 0.153241 -0.328145 -0.929538 -0.656561 0.438571 0.586275 -0.633907 -0.129670 -0.434048 -0.075244 -0.463131 0.528687 0.411278 0.491718 0.413676 -0.672357 0.440643 -0.435490 -0.280317 -0.170133 0.210106 0.732535 0.238082 0.134998 0.218893 0.093207 -0.635329 -0.375030 -0.749211 -0.817577
at -0.466679 -0.083717 0.265743 -0.153546 -0.132216 -0.337049 -0.543612 0.348855 0.750343 0.113938 -0.058357 -0.072663 -0.204034 -0.783654 -0.196229 0.718703 -0.163262 0.041804 0.155811 -0.275930 0.143611 0.367638 -0.081160 -0.093441 0.782422 0.695164 -0.217755 0.200035 0.260368 0.320237 -0.558073 -0.654972 -0.322461 0.340801 -0.285700 -0.096506 0.332077 -0.124952 -0.322036 -0.339824 0.352566 -0.187234 -0.087931 0.086075 -0.744146 -0.474984 0.211722 0.681827 0.396111 -0.403056 -1.023587 -0.024924 0.507415 1.041352 0.755938 -0.716772 0.592648 -0.398671 -0.130536 -0.305472 0.014828 0.033367 -0.185966 -0.079748
more 0.211438 -0.716801 0.058149 -0.070572 0.231374 0.071662 -0.500039 -0.034012 -0.220040 -0.448996 -0.316432 -0.356409 0.406187 0.135524 -0.332362 0.760988 0.141754 -0.496878 0.277538 0.301373 -0.265728 -0.217621 0.114286 0.331933 0.906779 -0.451774 -0.623319 0.334435 -0.626386 -0.000641 -0.069783 -0.415663 0.052863 -0.676274 -0.356476 0.172379 0.541171 -0.458320 0.877507 0.195614 -0.059367 0.179976 -0.457427 -0.421485 -0.524575 0.353600 -0.158402 -0.574513 -0.751612 -0.051579 0.032380 -0.305614 -0.217111 -0.801965 -0.265904 -0.624436 0.046889 -0.278299 -0.195750 0.295174 0.083498 0.107872 -0.386963 -0.180313
ad@@ 0.186657 -0.655984 -0.756947 -0.269702 0.094405 0.370822 -0.005167 0.514131 0.015493 -0.021323 0.342153 0.159520 0.307959 -0.054136 0.307606 0.172495 0.430199 0.141985 0.097183 0.341416 -0.132563 -0.828990 -0.140939 0.111452 0.437296 -0.147302 -0.115319 -0.659925 -0.150820 0.077288 0.273722 -0.099215 -0.167300 0.392813 -0.462209 -0.070595 0.020212 -0.552623 -0.586398 0.160667 -0.882674 -0.116257 -0.605405 -0.342857 -0.264737 -0.165763 -0.217950 0.067256 0.424430 -0.269780 -0.157867 -0.700819 -0.000562 -0.427079 -0.519543 0.241475 -0.139128 -0.899740 -0.308300 0.081209 0.175692 -0.475632 0.013089 0.000946
can -0.096127 -0.030205 0.668604 -0.149688 0.325379 0.096708 -0.657470 0.447445 0.268122 0.012747 0.159950 0.142153 0.450603 -0.465592 -0.457983 0.215370 -0.107133 0.167417 0.048067 -0.121456 0.105138 -1.033527 0.459756 -0.576667 0.752573 0.534648 0.437449 0.025954 0.038281 0.320047 -0.503411 -0.029629 -0.590807 0.558924 0.483353 0.383259 -0.245282 0.334014 -0.069723 0.212480 0.172710 0.852786 -0.179991 0.224389 0.147238 -0.151188 -0.927534 -0.077966 -0.513861 -0.230274 0.030909 -0.646768 0.218068 0.098998 -0.319495 -0.129793 0.609037 -0.609861 -0.034540 -0.067039 -0.338229 -0.473992 0.175784 -0.298139
co@@ -0.459175 0.225581 -0.355562 -0.140345 0.400410 -0.658917 0.714135 -0.492676 0.322994 -0.129313 -0.500747 0.015446 0.305472 -0.565395 -0.042562 -0.147613 -0.365353 -0.262626 0.318132 -0.197747 -0.556998 0.980652 0.631432 -0.649681 -0.321853 0.261556 -0.168781 0.460280 0.812482 0.201320 0.419180 0.438207 -0.145351 0.073524 -0.705511 0.214703 -0.165039 -0.316838 -0.602770 0.781178 1.197641 0.688234 0.248536 0.122070 -0.341149 -0.019631 -0.064033 0.531066 -0.266901 0.706946 -0.339427 0.330415 -0.203468 0.290840 0.634359 -0.569027 0.035647 0.016989 -0.334939 -0.225336 0.784485 0.189038 0.353060 0.688798
go 0.038259 -0.176587 -0.830305 -0.485543 0.031310 -0.047546 0.241023 0.456834 0.241559 0.366209 -0.334090 -0.170705 0.082913 0.192372 -0.452663 -0.367491 0.049964 0.360633 -0.812042 0.375201 0.048957 -0.303700 -0.410798 -0.635856 -0.419200 -0.496022 0.784698 -0.545665 -0.512752 0.050175 -0.485475 -0.001212 -0.448177 -0.483335 -1.137888 -0.271023 0.128065 0.597558 -0.203943 -0.898229 0.033436 -0.512919 -0.368973 -0.334511 -0.428413 0.314403 -0.568535 0.060416 0.426906 -0.137633 -0.418544 -0.528843 0.435021 -0.059248 0.041526 0.246213 -0.520036 -0.694738 -0.506153 0.580803 -0.052202 -0.235766 0.294546 0.277269
do@@ 0.458374 0.360865 0.221915 0.329449 0.260816 -0.453762 0.195003 0.179523 -0.454460 0.141095 -0.120649 0.007344 -0.073436 0.015188 -0.053178 -0.190186 -0.355125 0.054683 -0.057466 0.231187 0.560735 0.474491 0.246077 -0.548261 -0.764689 0.172350 0.106208 -0.083645 1.007130 -0.138332 -0.824836 0.454874 0.525987 -0.078405 0.229403 0.336485 0.000748 0.410840 -0.086349 -0.466626 -0.107756 0.301093 0.294285 -0.157683 -0.135952 0.263443 -0.486284 -0.595261 0.049698 -0.119746 -0.327538 0.266099 0.487232 0.035389 -0.023888 -0.181294 -0.343159 -0.135090 -0.156829 -0.167543 -0.039671 0.546150 0.794793 0.246964
ce 0.832636 0.474616 0.189502 0.922873 0.417427 -0.298173 0.098435 0.294545 -0.131846 0.867340 0.264413 -0.548412 0.876348 0.330097 0.124253 0.041075 0.013285 -0.128241 0.563599 0.071356 -0.892408 -0.714680 0.580517 -0.073011 -0.038811 0.390731 0.098129 0.436526 0.341000 -0.562929 -0.184631 1.249208 0.241449 0.251950 0.087282 0.064845 -0.023380 0.315171 0.354473 0.594947 0.831060 -0.270525 0.808170 -0.067430 0.805513 -0.038290 -0.280427 -0.165364 -0.856377 -0.077445 0.091521 0.900326 -0.134109 -0.027554 -0.237940 0.012121 -0.681087 0.037407 -0.126227 0.614070 -0.724605 0.345573 -0.209568 0.127733
c -0.568024 0.239448 0.580524 -0.430698 -0.308784 0.021694 -0.563889 -0.437210 -0.171874 0.059591 0.549624 0.788480 -1.078493 0.829884 0.655542 0.097387 0.544519 -0.327300 0.719224 0.062813 -0.029885 -0.547341 1.051746 0.150365 -0.332293 0.722104 -0.864397 -0.287297 0.006968 -0.824105 -0.363008 -0.039922 -0.464225 -0.017549 -0.051357 0.970105 0.503679 1.015861 0.454215 -1.033772 0.213652 0.601858 -0.129500 0.202573 -0.325606 -0.267059 0.464667 -0.185191 0.056503 -0.451928 -0.025989 0.237841 0.431611 -0.481573 0.099326 -0.001131 0.630738 -0.836707 -0.742147 0.725802 -0.162350 -0.041818 0.890003 -0.264220
wor@@ 0.575650 -0.022146 0.587544 0.216461 0.037399 0.163243 0.342621 0.190801 -0.286319 0.376679 0.285892 0.462208 0.377805 0.668046 -0.277274 -0.135660 0.159551 0.107412 0.026221 -0.069049 -0.194594 -1.057127 0.841401 -0.215657 -0.369007 0.183206 -0.199478 0.630606 0.144118 -0.835644 -0.034112 0.477383 -0.278477 0.070509 -0.538715 0.429762 -0.119463 0.505123 0.820594 0.323725 0.324858 0.308473 0.641273 0.214259 0.110384 0.176547 0.179772 -0.311183 -0.488329 -0.172454 0.193347 0.621889 0.013566 -0.351474 -0.047639 0.219232 -0.632675 -0.486042 -0.012658 0.276425 0.008858 0.664993 -0.102261 -0.087244
ch 0.945084 0.417649 0.634593 0.474042 -0.313250 0.204122 -0.705371 -0.037945 0.022264 0.390256 -0.365736 -0.394359 0.395316 0.310733 -0.861170 0.152538 -0.175046 0.210779 0.322315 -0.398328 0.064277 -0.731002 -0.524490 0.249711 0.456921 -0.423806 0.428451 0.614746 -0.218383 -1.152485 0.038939 0.828289 0.129807 0.484164 0.182175 -0.761563 -0.324617 -0.174841 0.591922 0.614243 -0.620469 -0.047411 0.588959 0.509265 0.433409 0.779485 -0.390641 0.061270 0.459980 -0.227966 -0.205206 0.532509 0.108816 0.404217 -0.310727 0.214534 -0.212057 0.410650 0.400490 0.367256 -0.350519 0.133575 -1.660142 -0.122831
