<unk> -0.018805 0.084158 0.087417 0.078533 0.088791 0.002797 -0.060276 -0.062582 0.074849 0.062648 0.007652 0.003904 0.058033 -0.074984 0.009225 0.061598 -0.078106 0.078242 0.070917 0.035071 0.074401 -0.037861 -0.035455 -0.046985 0.031307 0.061243 -0.052172 0.041332 -0.026672 0.032790 0.077464 -0.027245 -0.095682 -0.059744 0.035545 -0.055762 0.094016 0.087828 0.013303 -0.061975 0.010933 0.067446 -0.047881 0.050823 -0.011698 -0.007074 -0.027052 0.020052 0.042139 0.034233 -0.005787 -0.038850 -0.034370 0.072684 0.072185 -0.053207 -0.033366 -0.026163 -0.009050 0.064528 -0.004079 -0.009644 -0.007949 0.030840
<blank> 0.024199 0.022394 0.055907 -0.090772 0.085042 -0.053011 0.062602 0.078916 0.063234 -0.007752 -0.047768 -0.031892 0.022755 0.021110 -0.088183 0.071487 -0.054247 -0.096855 -0.007718 0.055396 0.015540 0.085745 -0.047293 -0.016004 -0.040131 0.070265 -0.027239 -0.042136 0.073477 -0.064998 -0.082737 -0.003927 0.056074 -0.043435 0.003250 -0.023616 0.034962 -0.003895 0.079064 -0.021434 -0.074757 0.009453 -0.003692 -0.012585 0.043542 0.009903 0.043419 0.064130 -0.060727 0.009074 -0.063104 -0.018624 -0.075414 0.062193 -0.089071 -0.055234 -0.076382 -0.029244 0.060674 0.033692 0.026134 0.032823 -0.044998 -0.090464
que -0.188042 -0.027838 0.865586 0.595010 0.734966 0.275985 -0.104258 -0.316654 0.105672 0.259038 -0.213558 -0.603201 -0.294270 0.047984 0.317158 -0.172359 -0.185834 0.030068 0.212798 -0.242239 -0.350786 -0.339878 -0.310018 -0.712080 0.192921 -0.536472 0.158610 -0.104092 0.277089 -0.517660 0.011270 -0.169282 -0.449587 -0.316073 0.060753 0.173338 0.485664 0.174553 0.010109 0.338409 0.109190 0.324562 -0.086754 0.509811 0.500893 -0.525248 -0.489798 -0.250871 -0.189227 0.515007 0.067267 0.052364 0.078938 0.070595 0.085630 -0.193933 0.337223 -0.006048 -0.316325 -0.169951 -0.474956 -0.072226 -0.249188 -0.023629
no -0.017424 -0.079199 0.067898 0.020610 -0.070593 0.007183 -0.054429 -0.004476 0.071186 0.029565 0.081896 -0.018653 0.030380 0.053946 -0.091681 0.007893 -0.044372 -0.049174 0.092043 -0.054659 0.084528 0.076077 0.075025 -0.079841 0.085497 -0.078597 0.043004 -0.037857 0.098947 0.038172 0.039496 0.013304 -0.093511 -0.074421 0.051981 -0.008622 0.076594 -0.031969 -0.068797 -0.033934 -0.099988 -0.093104 -0.062857 -0.048001 0.096956 -0.098260 -0.012982 -0.069278 -0.029777 -0.043823 0.017218 0.098846 -0.012758 -0.084355 -0.027934 -0.087741 -0.030238 -0.075623 0.099186 -0.084249 0.019049 0.084254 -0.081488 0.084280
y -0.660468 -1.039251 -0.039919 -0.048499 -0.861937 0.997150 0.971243 0.237695 0.894482 0.975176 0.719378 0.255194 -0.123115 -0.641775 0.001468 0.204539 0.083258 0.066960 -0.747895 -0.644816 -0.736615 -0.389786 0.276579 -0.797618 -0.559939 -0.117931 0.224778 -0.791590 0.004865 -0.440063 -0.457570 0.471398 -0.355762 -0.099307 -0.648982 -0.471492 -0.229334 -0.374992 -0.042045 -0.275943 -0.248929 -0.142360 0.694749 -0.467673 -0.281942 0.348507 -0.301600 -0.542951 0.529478 0.321148 0.324830 -0.656135 0.527914 -1.298139 0.055257 0.373913 0.994044 -0.293334 0.240110 0.663478 0.343548 0.773937 -0.323170 -1.152829
sí 0.206290 -0.151300 -0.308070 0.021776 0.021097 0.282254 0.669044 0.173632 -0.194545 -0.669118 -0.238776 -0.759586 -0.830407 -0.583881 0.105721 1.000176 0.152086 0.062262 0.700856 -0.263684 -0.848934 0.064742 -0.596595 -0.188774 -0.390153 0.339541 -0.226275 0.235742 0.183348 -0.138029 -0.564521 -0.030641 -0.708431 -0.442077 0.975801 -0.669993 -0.090363 0.725715 -0.538308 -0.078577 -1.324539 -0.427849 0.899500 -0.023340 0.587487 0.502002 0.290973 -0.685464 0.271120 0.431252 0.294634 -0.401516 0.276179 -0.367024 0.710806 -0.591991 -0.301037 -0.149763 0.648848 -0.354563 0.368303 0.861984 -0.144236 -0.244625
de -0.473839 0.394917 0.519420 0.447429 0.171074 0.144363 0.160696 0.887218 -0.043368 0.016475 0.681487 -0.048014 -0.564089 -0.187679 0.248557 -0.911386 0.540841 0.144497 -0.080766 -0.310689 -0.797509 0.362829 -0.547892 -0.513188 -0.394341 0.045212 -0.599735 0.027094 -0.649411 -0.787269 -0.418756 0.357081 -0.214382 -0.116523 -0.752923 0.377390 0.288380 0.209335 -0.474631 -0.030708 -0.408377 0.381741 0.532783 0.783710 0.143552 -0.688263 -0.146946 -0.335586 0.734571 -0.940138 -0.087869 -0.911746 -0.852549 -0.513681 1.019773 -1.029522 -0.135323 0.053300 -0.641299 0.250015 0.335567 0.645817 0.444165 -0.489559
a -0.439445 0.885605 -0.194376 -0.564200 0.049243 0.087495 0.000215 -0.045637 -0.530160 -0.029997 0.639039 -0.964816 -0.399837 0.589936 0.431318 -0.198874 -0.159619 -1.048963 -0.217796 -0.694439 -0.756243 -0.641334 -0.029597 -0.482848 -1.469616 0.361582 -0.306985 0.149345 -1.119472 0.162540 -0.134328 0.571220 -0.519614 -0.881453 -0.240584 0.441190 1.205825 0.734873 -0.524629 -0.405781 0.268387 0.483880 0.111869 0.552731 0.215069 -0.265027 0.234771 0.226519 0.117723 -0.144720 0.668702 -0.475701 1.135858 0.033791 -0.169490 0.214713 -0.421541 0.950656 -0.255846 0.458793 -0.178730 -0.285388 -0.303238 0.213762
es 0.047310 -0.428023 -0.049705 -0.721876 -0.429306 1.533306 0.181477 1.190074 0.706775 -0.642238 -0.504630 0.390185 -0.829135 -0.351417 -0.068997 1.075261 -0.363279 0.296140 0.733715 0.224740 -0.464292 -0.467561 -0.142890 -0.325350 -0.123020 0.166917 0.515404 0.641368 -0.716027 -0.133760 -0.031350 0.396670 -0.664421 -0.247203 0.606911 0.465597 -0.242217 0.526370 0.158524 -0.119471 0.296306 0.577776 0.121517 -0.452299 -0.290645 0.806995 -0.358307 -0.830931 -0.367372 0.996354 0.596199 -1.166342 0.476517 -0.350258 0.040549 0.135728 -0.054515 -0.233629 -0.067367 0.605078 -0.849405 -0.016322 0.874662 0.411633
en -0.367276 -0.583342 -0.092166 0.312839 0.005241 -0.947932 -0.230265 0.277539 0.307885 0.620000 -0.237500 -1.226310 -0.164936 0.036300 0.249508 -0.256582 0.639355 0.266381 0.051522 0.014568 -0.599876 -0.115334 1.011455 -0.304579 0.184841 -0.309622 0.377337 0.046691 -0.536142 -0.516601 -0.176189 0.174275 -0.278843 0.063065 0.084004 0.305102 0.091984 1.054348 -0.540945 -0.213428 -0.710700 -0.438484 0.059174 -0.486361 0.487087 -0.530936 0.090460 -0.016205 -0.190987 -0.040802 0.463147 -1.784169 0.862026 -0.657856 1.105591 0.815346 0.028929 -0.190349 0.393038 -0.414038 0.008567 0.318084 0.153223 0.153048
la 0.386630 0.256893 -0.258866 0.412391 0.715398 -0.343153 -0.679661 0.151106 -0.286087 -0.141909 0.082720 0.813067 0.970731 -1.124779 0.294211 -0.474533 -0.445108 -0.056612 -0.032080 0.135384 -0.234002 0.518574 -0.033459 -0.968624 -0.044665 0.239569 0.373351 0.976439 0.166361 -0.754804 -0.495443 -0.379281 -0.775243 0.722137 -0.495678 0.357263 -0.493360 -0.125206 0.160866 1.245500 -0.574020 0.410601 -0.266656 0.422732 0.277240 0.728265 0.094325 -0.178473 0.560280 -0.858165 0.090419 0.132438 -0.855334 0.301031 1.156382 -0.758909 0.397825 -1.054950 0.414556 -0.477402 -0.468016 -0.649682 0.162666 0.116599
yo -0.332156 0.286952 -0.576971 0.280663 -0.457437 0.905089 0.640740 -0.273600 0.483215 0.991556 -0.109105 0.034679 -0.096012 -0.152427 0.465431 -0.151976 0.945824 0.354770 -0.339247 -1.392935 0.103932 -0.070219 0.349543 -0.332578 -0.019358 0.414389 0.600622 -0.390451 -0.070863 -0.116570 -0.271014 1.079225 -0.145217 0.383742 -0.495231 -0.184898 -0.070264 0.130734 0.250589 0.596502 0.345577 0.395229 0.105402 -0.659690 -0.300369 0.060603 -0.046324 -0.779009 -0.109213 0.080160 0.050544 -0.629884 1.216233 -0.406125 -0.073166 0.956964 0.223456 -0.786430 -0.148910 -0.460205 0.442110 -0.224821 0.440787 -0.692017
el 0.751251 -0.135252 0.568799 0.323195 0.383479 -0.012424 0.453218 0.637989 -0.552280 -0.824189 0.308906 0.440980 0.625583 0.277272 -0.592296 -0.824436 0.048532 -0.381546 -0.246346 0.380351 -0.793284 0.797034 -1.065300 0.021929 0.195389 0.143306 0.384261 1.386499 0.146017 0.388384 0.311852 -0.674970 -0.581436 -0.106169 0.292812 -0.598452 0.573538 0.045061 -0.667581 -0.052133 0.192756 -0.253529 -1.590280 0.939485 0.870860 -0.310622 -0.401078 0.156628 0.058240 0.706637 0.168784 0.155629 -0.882577 0.357261 0.035983 -0.734306 -0.398356 0.511599 -0.134690 -0.278219 -0.628726 0.177786 0.357393 0.860015
o 0.255390 -0.666697 0.375714 -0.231805 0.469528 -1.402684 0.524803 0.285779 0.615871 0.158750 0.458859 1.023683 0.424805 -0.206691 -0.640314 -0.360374 0.051625 0.480253 0.329967 0.452552 -0.710360 0.237781 -0.706034 -0.425393 0.014410 0.168751 0.028352 0.295983 0.945067 -0.004961 0.544815 0.060424 0.441043 0.392481 0.445359 0.226187 0.373384 0.162803 0.469835 -0.252578 -1.032893 0.647202 0.195243 0.707632 -0.323754 -0.285607 -0.419627 0.019518 -0.636140 0.052622 -1.315721 1.468693 -0.444651 -0.118651 0.318906 -0.830483 -0.158064 0.583611 1.400558 -0.881985 -0.487301 0.766786 0.077667 -0.623025
lo 0.495404 -1.076254 -0.824136 0.101411 0.576506 0.149475 0.023001 -0.268454 0.605877 0.887684 0.105899 0.437729 -0.115970 -0.491181 0.676922 -0.309317 0.647573 -0.240315 0.444299 -0.456454 -0.672115 0.510975 -0.969341 -1.846257 -0.542072 -0.753170 0.135385 0.060945 0.018871 0.615465 0.140409 -0.569579 0.357847 -0.254293 0.582242 0.625154 -0.780969 0.250629 0.597582 0.673847 -0.654864 -0.918323 0.610381 -0.355040 0.087379 0.358072 -0.141259 0.137652 0.061366 -0.305103 -0.808432 -0.014084 -0.696009 -0.647771 0.758253 -0.545657 1.024470 -0.932386 0.556488 0.626338 -0.431090 -0.065677 -0.118083 -0.473809
pero -1.048077 0.007221 0.330062 0.222885 0.099725 -0.423738 0.325817 0.173700 0.546275 0.120885 -0.600534 -0.019447 -0.013828 -0.309412 -0.567644 0.305871 0.337199 0.162791 0.342329 -0.778902 -0.747593 -0.385237 -0.152074 0.416751 -0.229779 0.205473 -0.061843 0.171070 -0.410844 0.661971 -0.207742 -0.840422 -0.223090 0.044045 0.536809 -0.449560 0.732446 -0.527832 0.048680 0.708915 1.292214 0.592423 1.328729 -0.216409 -0.399888 -0.094671 0.572586 0.289868 -0.470587 0.072916 -0.344923 -0.824231 0.233393 -0.644604 0.337070 -0.040504 0.705705 -0.340420 -0.461375 1.182069 0.522425 -0.997895 -0.015705 -0.218111
me -0.146320 -0.470071 -0.428911 -0.971164 1.074453 -0.191348 0.559646 0.406397 -0.987642 0.023877 -1.096385 -0.393762 0.431524 1.223938 0.332791 0.277720 0.211911 -0.291442 0.749780 0.362458 -0.360923 0.545064 -0.223823 -0.690190 -0.217326 -0.312223 0.684946 -0.279150 0.362103 -0.008561 0.150863 -0.416751 -0.556249 0.241903 -0.089532 0.556221 -0.127067 -0.090307 0.061599 0.164449 -0.165804 -0.071292 -0.215650 0.102094 -0.084927 0.508117 0.553963 -0.532325 -0.197764 -0.215218 -0.502044 0.476519 -1.194162 -0.305928 0.307425 -1.662478 0.713879 0.538493 1.041032 0.066054 -0.673351 -0.642777 0.484172 0.737178
ah 0.400199 -1.182368 -0.121545 -0.537867 -0.813614 0.333848 0.133995 0.449408 0.072965 1.152364 -0.672012 -0.174285 0.720250 -0.350200 0.627426 -0.168153 0.170818 0.377890 -0.544144 0.145638 -0.020430 -0.661967 -0.411167 -0.734898 0.150242 -1.173648 0.683203 0.625869 0.072563 -0.233822 0.313173 0.281259 0.148575 -0.724803 -0.159258 0.328287 -0.102894 0.165958 0.803965 0.845710 0.354310 0.332577 -0.373480 -0.008414 -0.348176 0.295564 -0.048121 0.072379 0.127835 -1.094685 0.302132 0.032127 -0.262712 0.125101 1.485244 -0.308661 1.340205 -0.101593 0.143081 0.089808 0.557273 -0.767269 -0.188965 0.104492
se -0.570098 0.007333 0.499747 0.032866 -0.775452 -0.092600 -0.935425 -0.160889 0.299718 0.459451 -1.239694 0.063255 0.595248 0.973128 -0.601016 -0.424039 -0.313589 0.771402 0.731252 -0.260463 -0.322696 -0.298148 -0.378896 0.470200 0.079757 -1.026933 0.961122 0.616204 -0.321400 1.233789 0.382039 -0.085392 -0.051454 0.264841 0.702509 0.601598 0.188872 -0.287131 -0.039941 0.000704 0.179214 -0.050702 0.786601 -0.111913 0.427885 0.012813 -0.251250 -0.213853 0.266350 0.419610 -0.719901 0.695346 -1.314413 -0.438612 -0.714791 -0.673193 -0.832648 0.180164 0.757331 0.399793 0.101900 0.551442 -1.125188 0.063001
un 0.303001 -1.139264 0.232239 0.691003 0.538374 -0.390727 -0.413834 0.130318 -0.361758 0.476578 -0.352954 -0.662722 0.541888 0.537130 0.206817 -1.173411 -0.257471 0.254969 -0.762159 -0.309806 0.510640 -0.307525 0.479046 0.420156 1.103984 -0.348583 0.437610 0.211011 0.150189 0.640757 0.495697 0.880470 -0.640550 -0.059193 -0.591895 0.159744 -0.716950 0.163489 0.468091 0.517781 0.830518 0.509934 -0.115135 -0.423005 0.397336 -0.348563 0.419884 1.636499 0.858798 -0.460029 0.140764 0.181382 0.396279 0.160219 0.329342 1.105702 0.053796 -0.705564 -0.860552 0.431282 0.238874 -0.639600 -0.112262 -0.641743
los -0.623516 0.873256 0.329137 0.284805 0.360123 0.670121 0.619041 -0.167527 -0.560032 -0.142016 0.359836 0.345785 -0.922596 0.264548 -0.644514 0.626228 0.782915 0.073581 -0.089702 -0.107686 -0.869123 0.375341 0.136599 0.453256 -1.210011 0.190266 -0.289517 0.208084 -0.562293 0.577753 -0.810308 0.008714 -0.479899 0.487951 0.997960 0.049598 0.183113 -0.727435 -0.409120 0.365788 -0.063101 0.000208 -0.017573 -0.164239 0.076368 0.217602 -0.355134 0.250790 0.656097 1.102544 0.542108 -0.848839 -0.928028 0.162340 0.139659 -0.672281 -0.106463 -0.749069 -0.267639 0.682269 -0.163826 0.245067 0.251174 0.942104
como 0.406211 -0.331150 -0.188243 0.290304 -0.260693 -0.647342 0.061742 -0.464370 1.083953 1.242705 0.155962 1.178184 0.493131 -0.425418 0.408895 -0.434733 -0.063161 -0.073688 -0.165793 0.320293 -0.205157 -0.755698 -0.212477 0.214044 0.273729 -0.423810 0.338758 -1.329592 0.197899 -0.012802 1.407792 0.580711 0.924704 0.567554 -0.583926 0.204174 0.247386 -0.064788 0.076517 0.286154 0.031532 0.728954 0.457099 0.153745 -0.440347 0.778522 0.018085 -0.171009 -0.791538 -0.710238 -0.562379 0.217226 -0.100631 0.125919 -0.285637 0.255766 0.773307 0.576875 -0.215763 -0.282035 0.255648 0.546358 -0.887314 -0.313180
por -0.339369 -0.684753 -0.734056 -0.048286 -0.064196 0.189254 -0.757300 0.001168 0.516164 0.339315 -0.258920 -0.700427 0.288696 -0.025509 0.453898 1.722241 0.125815 0.593427 -0.304820 0.752193 -0.383238 -0.057168 -0.397539 -0.967738 0.080686 -0.406884 -0.160365 0.018286 0.962931 0.053457 -0.211308 0.083206 0.077364 0.876961 -0.317241 -0.323429 -0.374273 0.584758 0.573535 -0.120137 -1.055792 -0.642060 0.096399 -0.692535 -0.958278 0.204845 0.204902 -0.040875 0.448063 0.434118 -0.211832 -0.286916 0.400752 -0.321399 -0.270442 0.041322 0.577381 -1.494921 0.793711 0.075948 -0.484928 -0.989390 0.201724 0.399340
eh -1.026488 0.066464 0.160612 0.086938 0.604525 0.446802 0.175695 0.082350 0.051246 0.351956 0.260073 -0.170749 0.239852 -0.324566 0.620831 -0.330438 0.679114 -0.102950 -0.320375 -0.438271 0.376082 -0.345460 0.500758 -0.124712 -0.471392 0.217084 0.205585 -0.214958 -1.123691 -0.092089 -0.116257 0.352252 -0.368797 -0.709260 -0.359397 -0.261678 0.584493 -0.538096 -0.182105 0.459693 0.973954 -0.643427 -0.185556 0.320926 -0.236578 -0.252517 -0.393010 -0.448983 -0.312830 -0.400813 0.317806 -0.116803 -0.120973 -0.017897 0.226954 0.811397 -0.145158 -0.075228 -0.413843 -0.016743 -0.307565 0.433271 0.044528 -0.672595
eso 0.691590 -0.380479 -0.283175 -0.466334 -0.529348 0.562352 0.419699 -0.495017 0.007535 0.678568 -0.212934 0.253435 -0.248252 0.976559 0.056596 0.442164 -0.108664 -0.093229 0.532934 0.281411 -0.786508 -0.107294 0.353417 1.361999 -0.540157 0.151743 0.839881 0.684622 0.879981 0.335702 0.673293 -0.118255 -0.776167 -0.452076 -0.415168 -0.709015 0.263659 -0.433406 0.673672 0.093362 -0.197634 -0.594639 -0.260738 0.969928 -0.024908 -1.046502 -1.098017 0.764037 0.098643 -0.115988 -0.399209 -0.652104 0.093859 -0.237420 -0.755980 -0.561986 -0.192040 -0.502665 -1.060964 0.391894 -0.512934 -0.282298 0.099650 0.339495
ya -0.663834 0.504118 0.017566 -0.021662 0.530983 0.296231 -0.042582 0.173473 -0.375891 -0.036760 0.145398 -0.579777 -0.912934 -0.181187 -0.132333 -0.212286 0.132549 -0.179003 -0.074317 -0.390751 -0.387566 0.203237 0.035191 -0.031710 0.062812 0.103169 -0.363019 0.220867 -0.455390 -0.227068 -0.212084 0.179456 -0.376810 -0.213117 -0.003546 -0.343991 0.079501 -0.082834 -0.340501 0.374184 0.099662 0.336918 0.249167 0.356235 0.068781 0.225041 0.172870 -0.854412 -0.106164 0.369861 0.470331 -0.283180 0.408749 -0.217445 0.627824 0.290032 -0.845853 0.093068 -0.274539 -0.024761 -0.037948 0.642519 0.535977 0.093631
una 1.103767 -0.546975 -1.258197 0.551543 -0.640778 0.211664 -0.128105 -1.083994 0.290793 0.707021 -0.057724 0.270444 0.248976 -0.373931 0.612091 0.596566 -0.265876 0.215464 -0.841558 0.118781 -0.082736 0.369014 -0.765899 -0.182044 0.273425 -0.716510 -0.144749 -0.129269 0.132064 1.252622 -0.380154 0.412881 1.235247 0.335828 -0.727795 -0.075404 0.519412 -0.460297 0.543074 0.638937 -0.829653 0.712156 0.395740 -0.567416 -0.212508 -0.179541 -0.000299 0.182159 -0.465701 0.329996 -0.410651 1.238179 0.761534 -0.859912 0.201521 -0.371522 0.506698 -0.495511 -0.000654 -0.791124 -0.247318 -0.785234 -0.006154 -0.121209
ajá -0.056186 0.369710 0.822540 1.208089 0.923968 0.784178 0.039178 0.270424 -0.216496 0.008167 -0.539060 0.650495 0.621611 0.106145 -0.183834 -0.067292 0.038120 0.260711 -0.490317 -0.532804 -0.076739 0.076507 -0.647879 -0.452796 -0.647144 0.223468 -0.327336 -0.102375 -1.034986 0.308199 -0.023703 0.634974 0.536640 -1.099530 0.784853 0.151775 0.393578 -0.375126 0.506712 -0.433190 -0.016365 0.082898 0.302787 0.467969 0.376818 -0.062965 -0.569184 -0.515827 -0.139427 -0.650792 0.110707 0.242334 0.600833 -0.131427 0.103003 0.344139 -0.418237 0.073154 -0.580593 0.097542 0.206660 0.143518 0.650764 0.280769
porque -0.076523 -0.254455 -0.369532 -0.854284 0.504900 0.088504 -0.820414 0.180957 -0.070352 0.791603 0.348499 -0.576008 0.023077 -0.560581 -0.292528 0.236760 0.423348 0.534562 -0.153284 -1.040724 -0.809967 -0.160270 0.485267 -0.233220 -0.230214 -0.654659 -0.352197 -0.002005 -0.661012 -0.307693 -0.551473 0.440653 -0.954599 1.667624 -0.543433 0.933362 -0.718021 0.119597 0.703927 0.225345 -0.106206 -0.130724 -0.023074 0.324064 -0.194125 -0.561575 0.446535 -0.393884 -0.458053 0.176317 0.881947 -0.347744 0.039526 -0.546299 0.867434 1.285277 -0.411363 -1.111920 -0.264422 -0.377050 0.836437 0.598327 -0.025229 -0.217559
te 0.089732 -1.562270 -0.959683 0.522505 -0.637871 1.342925 0.183722 0.255391 0.595243 0.510994 -0.731756 -0.318807 0.196678 0.054414 0.424817 0.483200 0.002065 -0.286163 -0.901995 -0.003804 -0.101487 -0.220811 0.732877 -0.469689 0.238917 0.831789 0.075030 0.914393 -0.051141 0.831782 0.771477 -0.183168 0.063288 0.038519 -0.299609 -0.258161 0.244690 -0.311621 0.050271 -1.252152 0.030511 0.053227 -0.111208 0.434056 0.906567 0.228799 0.718383 -0.460362 -0.260540 -1.097270 -1.056883 1.009396 0.273659 0.173813 0.177843 -0.443978 0.874834 0.743508 0.530760 -0.794195 -0.438403 -0.680859 0.042442 -0.041435
si -0.040227 -0.288452 0.082086 -0.238012 -0.368604 0.400939 0.233398 -0.236622 1.084680 0.845837 -0.798210 0.840876 0.197540 -0.349229 -0.649241 0.482457 0.260366 0.553250 -0.288667 0.718242 -1.184073 0.387431 -0.430688 -1.393056 0.528313 -0.017961 0.912355 -0.328220 0.122290 0.228277 -0.117717 -0.782277 0.250732 0.272836 0.055974 0.431426 0.642154 0.085663 1.252567 -0.058369 0.829359 0.015097 -0.089980 -0.065235 -0.487550 0.863994 -0.110782 -0.176416 -0.069769 -0.521530 0.591835 0.025964 -0.586127 -0.185562 0.134895 -0.938310 0.165937 0.075250 0.405836 0.029945 -1.780187 -1.164950 -0.592501 0.073338
as 0.330717 -0.184694 -0.632496 0.380660 -0.777270 -0.398968 -0.092429 -0.196083 -0.304285 0.130245 0.743685 0.175053 0.037950 0.231020 0.399553 0.179713 0.289685 0.417371 0.061052 0.470372 -0.042001 -1.179810 -0.346559 -0.050202 -0.710737 -1.110785 1.839467 -0.535170 1.123031 -0.209842 0.930012 -0.576845 0.471612 -0.663833 -0.461156 0.300345 -0.669289 0.569854 -0.167077 -0.665292 -0.589295 -0.344441 -0.027782 -0.246044 0.418901 0.123845 -0.193773 0.503629 0.472091 0.577352 -0.627284 0.846963 0.121900 0.307117 0.076193 -0.378950 1.372983 0.334504 0.358919 -0.914486 0.455566 0.716998 -0.136274 -1.070748
más 0.199616 -1.300588 -0.739935 0.039672 -0.161374 -0.501990 0.077956 -0.732964 -0.625408 -0.174097 -1.083895 -0.442824 -0.384306 0.285991 0.347903 0.657050 0.131780 0.268239 -0.341515 0.340376 0.271795 0.249474 -0.859041 -0.035724 0.167705 -1.069611 -0.266416 -0.671454 0.364196 -0.258118 -0.533412 -0.876086 -0.467895 0.234405 1.023924 0.180710 -1.002635 0.623605 0.225808 0.443793 -1.472669 -0.315428 0.544755 -0.682261 -0.050328 0.223804 -0.302447 1.286883 0.152220 0.031336 -0.717600 0.948891 0.225579 -0.066039 0.122260 -0.753279 0.497404 0.041099 0.989801 -0.470291 -0.097957 -0.521687 0.270598 -0.622432
con 0.800606 -1.231302 -0.686191 -0.303942 -0.388997 -0.338745 0.141942 -0.242603 1.928731 0.067015 0.359449 -0.469792 -0.553907 0.583650 -0.120952 0.357554 -0.166528 0.358080 0.261163 0.039703 -0.040025 -0.839395 -0.341130 0.273204 -0.061499 0.082000 0.265526 -0.223220 0.031521 -0.211644 -0.159370 0.386566 -0.139427 0.746393 -0.468292 -0.605744 -0.404909 -0.909903 -0.012902 -0.239181 -1.221809 -0.585390 -0.106341 -0.483681 -0.507160 -0.215870 -0.829369 0.451954 -0.027797 -0.705836 -0.002224 0.583005 0.969243 -0.225557 -0.409435 0.145270 0.905973 0.169950 0.203291 -0.693706 -0.303941 -0.276271 -0.571088 -0.935700
para 0.459035 1.194241 1.297573 -0.540963 0.405817 -1.021289 -0.554230 0.270919 -0.805523 -0.726557 0.148827 0.160916 0.007107 -0.404800 -0.606555 -0.163563 -0.639719 0.339341 0.926387 0.633679 0.418048 0.526116 -0.053734 1.203860 0.746290 -0.894470 0.077902 -0.613411 0.515198 -0.314380 0.458575 -0.665290 -0.697075 0.272547 0.615073 0.634993 0.065651 0.973855 0.233805 -0.052512 -0.237908 -0.458324 -0.313289 0.345915 -0.104045 1.010338 -0.010656 0.257083 -0.617080 0.087787 -0.731994 0.235203 -0.476160 0.225733 -0.330743 -0.010887 0.464446 1.285828 0.506777 0.233875 0.741715 1.356877 -0.215091 0.528054
qué -0.310247 0.455865 0.248869 0.489579 -0.126292 0.508317 -0.077617 0.377202 -0.245473 -0.036414 0.134697 0.202998 -1.058913 -0.005552 -0.121691 0.443914 0.315126 -0.018787 -0.062860 -0.593251 -0.838303 0.246467 0.102978 -0.385125 -0.179091 0.228013 -0.034877 -0.049208 -0.410867 -0.068818 -0.695573 0.369404 -0.493891 -0.144870 0.441633 -0.379009 0.270989 -0.122579 -0.497382 0.482956 -0.256423 -0.099337 0.276188 0.168094 0.251417 -0.185221 -0.175706 0.189046 0.071312 -0.155223 0.449026 -0.352962 -0.406014 -0.489125 0.087146 0.149555 -0.525600 0.525874 -0.367884 0.488783 0.262240 0.406265 0.234953 0.294907
tu -0.381549 0.031541 -0.553186 0.323044 -0.528200 0.355480 0.269640 0.797588 1.025795 0.652585 0.074914 -0.195916 0.269591 -0.700718 0.324006 0.563571 0.190716 1.173250 -0.022554 -0.918221 -0.855100 -0.279093 -0.255888 -0.483492 -1.112521 0.528096 0.087881 -0.403338 -0.588290 -0.241906 0.433396 0.788796 -0.333667 0.061962 -0.763185 0.475734 -0.697187 -0.471867 0.275856 0.166909 0.116107 -0.246460 0.816644 -0.145160 0.131745 0.197031 -0.147109 -0.357184 -0.046082 -0.632469 0.308731 -0.615090 0.300800 -0.398706 0.440357 0.597285 0.155495 -0.366705 0.058390 0.711068 0.242265 -0.095336 -0.208897 0.200994
e@@ -1.013837 0.665691 0.514190 -0.054927 0.234910 0.509455 -0.038366 0.013561 0.367015 0.069988 0.669650 0.035125 0.204899 -0.124287 0.267030 -0.522359 0.291989 -0.043663 -0.181074 -0.870341 0.209904 -0.327209 0.471703 0.071270 -0.100854 0.120155 0.306543 -0.097844 -0.966583 -0.334545 -0.097449 0.543268 0.078473 -0.652100 -0.364237 -0.837313 0.321008 0.020513 -0.272811 0.225168 0.642461 -0.618110 0.394040 0.141796 0.005382 -0.003506 -0.544691 -0.358637 -0.527923 -0.435422 0.707673 -0.151095 0.379308 0.302191 0.174180 0.893392 -0.261507 -0.342099 -0.160751 0.324747 -0.101982 0.105705 -0.050464 -0.236917
a@@ 0.492098 -0.521621 -0.559576 0.323222 0.596385 -0.887486 -0.520858 -0.569263 0.017517 0.601802 -0.819187 0.948441 0.660251 -0.101430 1.315656 0.223594 0.141067 0.242391 -0.274002 0.432952 0.176694 0.942381 0.366723 -1.511057 0.030766 -0.316404 0.104358 0.193487 0.691355 0.311992 -0.072130 -0.131380 0.625613 0.157999 -0.000853 0.020198 -1.239428 -0.636135 0.184853 0.167539 0.016524 1.116762 0.256974 -0.224484 -1.163777 0.235405 0.912465 0.466739 -1.072050 -1.072136 -0.515775 1.325463 0.110419 -0.678257 0.211110 -0.412754 0.482174 -0.653502 0.509662 -0.340530 0.218903 -0.693869 0.313475 -0.175422
e -0.072143 0.808605 0.284878 0.218734 1.225609 0.065369 0.058941 -0.169450 -0.403699 -0.355365 0.288060 -0.100661 0.195846 -0.347835 -0.519182 0.130244 0.358902 0.823960 0.331479 0.101197 0.163516 -0.048558 -0.728331 0.450348 0.161124 -0.453610 -0.780565 0.536719 -0.035771 0.701615 -0.703591 -0.448517 -0.496163 0.272092 0.528592 -0.096018 0.167241 -0.797860 -0.212660 0.042040 -0.431127 -0.488975 1.263630 0.174404 -1.073230 0.515530 -0.217513 -0.043953 -0.745730 0.349692 0.958441 -0.955415 0.260045 -0.297031 0.928413 -0.035163 -0.150167 0.416970 -0.859473 -0.409476 -0.554379 -0.662365 0.243670 0.053773
mi -0.088105 0.680900 0.673047 0.798446 1.012866 -0.832736 -0.828726 -0.165256 -1.408870 -1.052922 0.375256 -0.600955 -1.555640 0.562315 0.158818 -1.248375 -1.136060 -0.430573 0.263349 0.620063 0.362646 -0.113264 -0.540596 1.155787 0.156829 0.267645 0.342937 0.374542 0.332262 -0.241635 -0.242790 -0.589556 0.392238 -0.054077 0.117129 0.399745 0.530654 0.301453 -0.736263 -0.209143 -0.526783 -0.292281 -0.230314 0.559821 0.288243 0.312496 0.518158 0.499106 -0.170159 0.253679 -0.064986 1.086973 -0.129390 0.234221 -0.244590 -0.902876 -1.234439 0.966646 0.483490 0.074529 -0.341008 1.152478 1.178001 0.395939
bueno -0.815704 0.769201 0.717185 -0.086185 0.558676 0.094341 0.459409 0.011599 -0.530207 -1.107283 0.106839 -0.345074 -0.741052 0.592145 0.073148 -0.042188 -0.187557 -0.466208 -0.223413 -0.333699 -0.238106 -0.391053 0.652125 0.085482 0.161786 0.205320 -0.036805 0.354139 -0.793315 -0.166281 -0.279681 0.280107 -0.066693 -0.236645 -0.078036 0.065782 -0.331574 0.714757 -0.417845 -0.336661 -0.014141 0.677813 0.116591 0.820152 0.151628 -0.339520 -0.163693 0.169404 -0.195247 -0.160691 -0.097460 -0.002524 0.370030 0.630900 -0.171938 0.555566 -0.615493 -0.099936 -0.089158 0.064586 0.355025 0.079420 0.674980 0.305733
i@@ -1.143109 -0.635646 -0.513348 0.624555 -0.411321 -0.531808 -0.378223 -0.361037 0.125795 0.116097 0.026213 -1.083685 -0.817318 -0.213086 -0.259525 -0.083494 -0.700585 -0.643035 -0.615751 -1.430207 0.898882 0.179489 -0.457362 0.235157 -0.975716 -0.822799 0.841080 0.490585 0.491539 1.116626 -0.027886 -0.151268 -0.226550 -0.574958 -0.467365 -0.886590 -0.464578 0.120242 -0.174656 0.501992 -0.531596 -0.558363 -1.386345 0.185733 0.305399 -0.587189 0.074372 1.013329 -0.053469 0.369007 0.281125 0.219835 0.206288 -0.461542 -0.566521 -0.324808 -0.201509 -0.353417 0.339061 -0.726917 -1.304636 -0.640817 -0.477870 0.208029
las -0.471482 0.456589 0.752907 0.130242 -0.504954 0.117267 0.258685 0.097304 -0.749876 -0.209278 0.714948 0.116841 -0.790296 -0.274241 1.139176 -0.770400 0.376156 0.066384 0.610256 -0.308972 -0.731112 0.543311 0.151387 -0.324030 -0.562619 0.342487 -0.620334 0.211972 -0.909032 -0.836269 0.037991 0.126112 -0.414345 -0.549482 -0.536613 0.385417 -0.486079 -0.433230 -0.776751 0.036682 -0.406609 0.233819 0.689377 0.357736 1.113798 -0.763502 -0.299246 -0.753616 0.915890 -0.548849 1.007084 -0.594887 -0.485485 -0.026283 0.463063 0.599504 -0.518841 0.553137 0.123957 0.957008 0.507056 0.648179 -0.160986 -0.047250
pues -0.615165 0.633931 0.362228 -0.199510 0.592463 -0.137886 -0.030517 0.483237 -0.298833 0.184762 0.180146 0.679968 -0.176049 -0.239514 -0.299167 -0.525288 0.628249 0.590396 0.202742 -0.405735 -0.405728 -0.497671 0.261545 -0.538697 0.136979 0.015471 -0.005224 -0.617280 -0.116817 -1.024101 0.109081 0.417295 -0.485235 0.375682 -0.298264 -0.326195 0.239286 0.174540 -0.138850 -0.088588 0.033306 0.158199 0.026076 0.216027 -0.208661 -0.336248 0.043254 -0.358231 -0.125592 0.120345 -0.080077 -0.911496 -0.198086 -0.022439 0.766968 0.302876 -0.157993 0.132197 0.187253 0.162764 0.498808 0.440517 -0.167029 -0.247775
hay -0.371845 0.651284 0.474741 0.348243 -0.740121 -0.224339 0.694325 0.541401 -0.312600 -0.371270 0.432029 0.381466 0.200528 -0.028587 0.154728 -0.803304 -0.028546 0.187141 -0.030634 -0.516433 -0.428316 -0.411275 -0.420575 0.381500 -0.189444 -0.163379 0.208855 -0.060230 -0.705640 -0.306533 0.560977 0.031027 -0.070148 -0.517236 0.503593 -0.218977 1.050461 0.047982 0.534489 -1.057452 -0.270524 -0.109053 0.029327 0.397352 -0.372982 -0.553127 -1.639790 -0.869671 -0.201025 -0.627813 -0.553524 -0.033044 0.288162 0.310450 -0.227341 0.017273 -0.566288 -0.480723 -0.614144 0.148344 -0.105547 1.189995 0.009090 -0.228454
ar 0.772793 -0.015421 0.221334 0.657359 -0.310542 1.224746 0.735935 0.838862 0.400462 0.365323 0.303682 0.049115 0.956609 0.519138 -0.683110 -0.417672 -0.726873 0.080855 -0.332516 0.142918 -0.545684 -1.222824 0.167203 -0.547129 -0.001477 -0.748246 -0.515643 0.510012 -0.192157 -0.085065 0.832582 -0.207279 0.372925 -0.010690 -0.143977 -0.176746 0.243209 -0.517101 1.070815 -0.759121 0.799846 0.191871 -0.126774 -0.280275 0.446973 0.626795 0.025759 -0.165889 0.345159 -0.225220 -0.507339 -1.190503 -0.109418 0.278161 -1.096371 0.127274 0.090283 -0.242217 -0.009303 -0.310585 -0.230632 -0.254217 0.001468 -0.230694
d@@ -0.951066 -0.316850 0.963786 0.553260 0.875407 0.686754 0.154128 0.133939 -0.501030 0.527053 -0.142748 -0.188609 -0.194522 0.387020 -0.246839 -0.239825 -0.055372 0.439277 -0.671427 -0.471348 0.648171 -0.632117 0.166772 -0.664982 -0.006001 0.588344 -0.908401 -0.225389 -0.684629 0.417679 -0.637313 0.267034 -0.351731 0.610040 -0.414231 -0.166455 -0.435986 -0.080252 -0.556435 1.304416 0.370498 0.194091 -0.027297 -0.442668 -0.997286 0.281382 -0.026689 -0.036899 0.352116 0.028975 0.066422 -0.534428 0.364466 -0.663743 0.222676 0.560471 -0.528466 0.025236 -0.893595 -0.231922 -0.160389 0.473240 0.272373 0.011494
t@@ -0.052117 0.296260 1.256109 0.309324 0.482325 -1.058712 -0.157263 -1.196721 -0.695787 -0.151993 -0.326171 1.273700 -0.432123 0.649243 -0.394488 -0.359677 -1.024471 -0.103193 -0.119320 -0.019068 1.707018 0.203145 0.169942 0.705521 -0.282897 -0.025191 -0.091251 0.388062 -0.158463 0.609107 0.647672 0.012764 0.098968 -0.254270 -0.585772 -0.064400 0.883421 0.063253 -0.376324 -0.660853 1.140100 0.951268 0.350453 0.891019 1.029622 -0.120116 0.459926 0.048031 0.661455 -0.243957 -0.451937 0.919603 0.217137 1.131492 0.063694 0.669254 -0.713792 0.405764 -0.237328 -0.452406 0.112885 0.700303 -0.242188 0.298013
r@@ -1.156195 0.617094 0.311486 -0.349153 0.576558 0.007524 0.132527 0.070789 -0.587377 -0.944871 -0.190323 -0.042040 0.165569 0.351313 -0.556666 0.549620 0.979641 -0.768048 0.388859 -1.023097 -0.082350 0.254813 -0.287442 -0.147969 -0.216394 -0.149845 0.170808 -0.419280 -0.131677 0.419086 -0.144037 -0.467213 -0.783831 -0.663118 -0.164461 0.712281 0.390994 0.019466 -1.022611 -0.305529 1.105690 0.087925 0.971749 -0.232908 -0.155550 -0.921136 0.287686 0.493390 -0.195400 -0.496045 -0.233167 -0.612801 -0.173590 0.054518 -0.037337 0.353480 -0.457148 -0.283941 -0.454934 0.213078 0.251441 0.261852 0.203334 -0.000856
claro -0.716744 -0.545300 -0.373303 -0.108637 -0.614594 -0.134128 0.062321 0.027482 -1.232674 -0.195944 -0.794547 -0.938446 -0.160707 0.238686 0.167927 0.042137 -0.206862 -0.322164 -0.683384 0.533263 0.552305 -0.197439 -0.209676 -0.403733 -0.641764 0.305683 -0.102554 -0.018987 0.319522 -0.337952 -0.929317 0.290812 -0.012372 -0.649440 -0.036430 -0.289822 -0.598653 0.732180 -0.985515 0.891485 0.433660 -0.241646 0.152330 0.813826 -0.054640 -0.971220 -0.788259 -0.307731 0.092379 0.683074 0.241640 -0.766083 0.521853 0.310204 -0.239678 0.426477 -0.128569 0.362933 -0.223417 0.250414 -0.392765 0.406271 0.158964 -0.175497
m@@ -0.767325 0.602424 0.107708 0.188079 0.497493 -0.818948 0.590523 -0.315666 -0.102107 -0.841090 0.595095 0.729949 -0.821945 -0.112955 -0.342977 -0.617241 -0.155958 0.140643 0.532146 -0.503495 0.286426 -0.047707 -0.024470 0.314620 0.239273 0.524180 0.078755 -0.007777 0.001914 0.067180 0.403166 0.391865 -0.120752 -0.737353 0.135779 -0.647755 0.627199 -0.178414 -0.925438 -0.492018 -0.180874 0.149721 -0.775328 0.773080 -0.381084 0.086345 -0.561895 -0.088808 -0.177947 0.791270 -0.331024 -0.629763 0.282187 -0.014525 -0.513532 0.083922 -0.424753 0.234246 -0.208896 0.712316 0.809128 0.333752 -1.190159 0.054685
le 1.140985 -0.116536 -1.102669 -0.187385 -0.012746 -0.607429 -1.039945 0.332884 0.484002 0.020641 -0.408486 0.170125 0.129664 1.236472 -0.408484 0.725107 -0.453529 -0.383455 -0.780243 0.282156 -0.006618 -0.341681 -0.236913 0.584453 -0.312752 -0.400752 -0.361512 0.465990 0.488829 0.216424 -0.915761 -0.504154 0.655503 -0.867844 0.040499 0.186020 0.103511 0.643688 -0.418813 -0.844327 -0.359723 0.049023 -0.276504 0.755116 -0.425203 0.779392 0.971970 -0.959369 -0.319688 -0.003614 -1.043852 1.737804 0.102889 -0.036687 -0.186143 0.583751 -0.211180 0.174520 0.276515 -0.219544 -0.845294 -0.030397 -0.825256 -0.275222
c@@ -0.693923 1.337169 1.326158 -0.599449 0.376567 -0.311847 0.345244 -0.028859 -0.922110 -0.263395 0.114954 0.299564 0.086930 0.462460 0.354175 -0.901280 0.615508 -1.030792 0.813977 0.506605 -0.286037 0.069476 0.602489 -0.283013 -0.657046 0.427360 0.096280 -0.119773 0.044682 -0.185527 -0.378118 0.300305 -0.070444 0.134232 0.371404 -0.296863 0.411432 0.355889 -0.529477 0.200794 0.773164 0.743609 0.478977 -0.410119 0.585530 -0.229516 0.179394 -0.728696 -0.674892 -0.934416 -0.093288 -0.649069 -0.364160 0.051008 -0.230740 0.719050 -0.532368 0.705066 -0.308975 0.687684 -0.335401 0.491583 -0.207355 0.164156
mhm 0.353875 -0.248507 -0.515654 -0.027895 0.463229 -0.607255 0.530952 0.076263 -0.035662 0.577779 -0.886346 -0.009430 -0.718252 1.006875 -0.251045 0.093305 0.289950 -0.247872 0.775720 1.128331 0.453779 0.871288 -0.460243 -0.819835 -0.179717 -0.845517 0.037124 0.536979 0.704774 1.622587 0.089270 -0.755401 0.400027 0.097141 0.549398 0.179948 -0.304429 -0.290877 1.107697 -0.495086 0.683031 1.120960 0.532714 -0.413568 -0.370612 1.210208 -0.167499 0.241493 -0.737752 -0.317973 -0.955549 0.605022 -0.589721 0.350765 -1.353842 -0.343110 0.998764 0.078953 -0.580564 0.655550 -0.253448 -0.530863 -0.256444 0.523748
vi@@ 1.142982 -0.005934 1.102515 -0.815140 0.604089 -1.095556 0.397383 0.703294 0.207219 0.583685 -0.039737 0.734059 0.921329 0.269332 -0.733585 0.936396 -0.662240 0.995220 0.646402 0.146052 -0.373012 -0.331502 -0.438915 0.241874 0.238342 -0.057109 -0.335345 0.104910 0.123359 -0.475779 -0.768724 -0.589581 -0.150437 0.668835 0.275649 0.312786 -0.018371 0.814564 0.894895 -0.619977 -0.157357 -0.705485 -0.063699 -0.727362 -1.087482 -0.007775 -0.328848 -1.421960 -0.702551 0.809173 -0.075411 0.244466 -0.999814 -0.789258 -0.452490 -1.188918 0.259118 -0.044938 0.538980 0.199915 0.246231 -0.016267 0.294289 -0.217613
está -0.608634 0.532575 0.451732 0.544223 -0.176635 -0.010234 -0.624184 0.316035 -0.291982 0.168387 0.314069 -0.283572 -0.520895 0.251152 -0.307449 -0.312513 0.282380 0.035760 -0.004473 -0.884808 -0.002996 -0.309186 0.237677 -0.605061 -0.170986 -0.073638 0.244514 -0.075978 -0.384500 -0.138717 -0.201038 0.875506 -0.174955 -0.350717 -0.381899 -0.124623 0.788572 0.150871 -0.160205 0.473611 0.300516 -0.512167 -0.009501 0.403790 0.096052 0.037510 -0.597360 -0.626109 0.441842 -0.420407 0.020587 -0.102517 0.113386 -0.803161 0.544914 0.832319 -0.388773 0.436651 -0.348238 0.076266 -0.543723 0.430750 0.367028 -0.107081
así -0.490788 -0.357611 0.164512 -0.111393 -0.075225 -0.249035 0.059967 -1.055668 0.639926 -1.162744 -0.333952 -0.000794 -0.402308 0.883242 -0.095348 -0.097529 -0.026139 0.061114 0.117512 -0.231849 1.037903 1.213097 -0.987058 0.621003 -0.153214 -0.645651 -0.305416 -0.070546 0.205616 0.319501 -0.155687 -0.605068 0.362574 0.686841 -0.245985 -1.191981 0.291824 -0.378570 -0.786447 0.571876 -1.237135 -0.210684 -0.522917 0.806479 -0.152223 0.737109 -0.084616 1.262133 -0.042592 -0.181373 -1.476077 1.279896 0.037271 0.091180 0.503629 -0.188864 0.632758 0.517453 -0.419181 -0.352496 0.104740 1.007296 0.401819 -0.148137
entonces -0.409441 0.170500 0.606574 -0.464063 0.257591 0.308597 0.302422 0.575854 -0.381088 -0.768682 0.557136 0.499214 -0.808985 -0.206371 -0.208040 0.655651 0.501595 0.266609 0.041548 0.003453 -0.472161 0.276664 0.624521 0.275344 -0.492888 0.018629 -0.383596 0.258078 -0.319062 0.366538 -0.673337 0.245516 -0.370729 -0.020599 0.634645 0.032037 0.543192 -0.060922 0.182860 0.063940 1.048200 -0.123649 0.317929 0.081366 -0.392153 -0.057225 -0.137772 -0.119536 0.807231 0.420263 0.505314 -1.183151 0.321664 -0.459416 0.215910 -0.522395 -0.313728 -0.756177 -0.117059 0.613308 -0.799187 -0.650361 -0.094139 -0.212312
muy -0.023899 0.150512 0.737677 -0.640570 1.745496 -0.398472 -0.422757 -0.863667 -0.996464 -1.946452 0.195445 -0.490533 0.050398 0.870140 0.208517 -0.057975 0.031843 -0.907339 -0.428878 0.545167 1.146447 0.727050 0.062727 0.542055 0.704593 0.459171 -0.744760 1.336539 0.315868 0.275119 -0.980379 -0.260131 0.079229 0.729163 0.424481 -0.351486 0.016358 -0.769545 0.040842 0.459158 0.515328 0.365186 -0.805511 -0.182661 -0.321454 0.405019 0.198933 0.402694 -0.948012 0.326881 -0.177957 0.953618 -0.659181 0.553455 -0.039631 -0.125604 -1.018883 0.345879 0.112875 -0.446815 -0.053449 0.514592 0.547516 1.127174
g@@ 0.378367 -0.362010 -1.052169 0.180679 -1.136718 0.393258 -0.399206 0.169912 1.604571 1.723146 0.214513 0.335776 -0.056392 -0.432817 -0.333364 0.625172 -0.182562 0.422529 0.495204 -0.583021 -0.510972 -0.523287 -1.079170 -0.079674 0.204746 -0.019376 -0.118315 -1.291677 0.027885 -0.636855 0.529055 0.141696 0.423302 0.693995 0.067836 0.011622 0.203412 -0.130743 1.598323 -0.569921 0.244259 -0.564187 -0.464944 -0.940515 -0.026414 0.329188 0.548683 0.619232 0.699045 0.651599 -0.694335 -0.557242 0.187403 -1.371078 -1.227474 0.584884 0.409697 -0.387319 -0.594063 0.063442 0.238486 -0.158838 -1.039795 -0.140311
di@@ -0.040302 0.429570 0.069527 0.012219 -0.607416 0.305999 0.241615 -0.803215 -0.716554 -0.232600 0.735099 -0.279443 -1.515473 0.100633 0.863706 0.052559 0.394632 -0.469835 0.138184 -0.532681 -0.285690 -0.187620 0.655664 0.283617 -0.057240 0.790882 0.187458 -0.141188 -0.393542 -0.072906 -0.163483 0.579631 0.236339 -0.213273 -0.250723 -0.338202 -0.006720 0.127866 -0.414151 0.481805 -0.246436 -0.094280 -0.172643 -0.277371 0.349907 -1.264982 -0.285726 -0.695034 0.363731 0.012750 0.620967 -0.294228 0.585873 -0.105380 0.052273 0.516749 -0.614943 0.827181 -0.225170 0.176270 0.903285 -0.177209 0.016711 0.105984
o@@ -0.534684 0.351807 0.443671 0.091872 0.396841 0.511031 -0.440776 -0.603720 -0.614623 -0.286392 -0.357724 0.805316 -0.246720 -0.085545 -0.015554 -0.030211 -0.684493 0.749396 -0.095899 -0.141979 -0.143608 0.347201 -0.320025 -0.377372 -0.450989 0.532600 -0.527608 -1.108203 -1.082084 0.453170 0.150178 -0.114544 0.699077 -0.722546 -0.053581 0.153067 0.105770 -0.556048 -0.470321 -0.141914 -0.534420 0.201715 -0.303419 -0.334184 0.389722 0.500946 -0.070666 -0.430382 -0.042529 -0.294358 -0.370781 -0.026131 -0.351284 -0.688582 0.193056 0.374590 0.263952 -0.053898 -0.026459 -0.431789 1.054865 0.958595 0.022834 -1.095463
bien -0.794417 0.222928 0.010961 0.410290 -0.152546 -0.180151 0.094102 0.155260 0.418394 -0.630164 -0.045240 0.049905 -0.049617 -0.270229 -0.275793 0.543641 0.357201 -0.116323 -0.329464 0.092185 -0.502119 -0.764085 0.569981 0.713045 -0.121651 -0.002665 0.232825 -0.031815 -0.687175 -0.414843 0.176447 0.110067 -0.050280 0.176389 0.292395 0.249021 0.410777 0.273524 -0.324595 0.323332 0.216016 0.057993 -0.084309 0.348816 -0.040014 -0.168108 -0.241090 -0.527416 -0.742538 0.274610 0.235269 -0.344705 0.419084 0.200753 -0.149920 -0.106712 -0.225581 -0.163205 -0.131691 -0.238280 -0.759036 0.360895 0.019790 -0.526037
s@@ -0.950411 0.153531 0.393988 -0.032844 0.565102 -0.443468 0.547259 -0.024912 0.180176 -0.762628 0.002745 -0.283158 -1.176141 -0.162725 0.013839 0.046323 0.885546 -0.421093 -0.035629 -0.684593 0.033116 0.117820 0.144427 -0.272012 0.218919 0.190393 0.261950 -0.027517 -0.068407 0.444392 -0.382407 -0.262890 0.061439 -0.497967 -0.358677 -0.148991 -0.018012 -0.217008 -0.329465 0.225027 -0.636014 0.499042 0.043022 0.274452 -0.054435 -0.413347 0.082319 0.043384 -0.248524 -0.188326 -0.140608 -0.104961 -0.004006 0.209025 -0.024468 0.326237 -0.118727 -0.294896 0.562096 0.241471 0.629770 0.639134 -0.354734 0.270781
b@@ -0.264402 0.199042 0.659059 0.932085 0.420130 -0.277203 -1.124315 0.478685 -0.346200 0.029427 -0.161008 -0.567103 -0.607925 0.630890 0.394633 0.002667 0.300392 -0.173614 0.314573 -0.318621 -0.043174 -0.053772 0.067072 -0.244133 -0.004004 0.219719 -0.170321 -0.298395 -0.247402 -0.726001 0.385563 0.412383 0.066146 -0.368315 0.180095 0.063318 -0.017724 0.063717 -0.180731 1.379424 0.298045 -0.636692 0.408286 0.446377 0.795194 0.058649 0.054719 -0.586562 0.212135 -0.129433 0.407263 -0.407352 0.346192 -0.272524 0.421689 0.705248 0.197736 0.463511 -0.353082 0.299418 0.179765 -0.039259 0.740501 0.013297
al -0.033518 0.236825 0.418258 0.709123 0.175406 -0.183964 -0.348784 0.262781 -0.731124 -0.562995 -0.201975 -0.685103 -0.457467 -0.143920 -0.687149 -0.486335 0.267457 -0.464360 -0.289114 -0.924323 -0.148556 -0.026796 0.679064 -0.414773 0.352753 -0.169391 -0.222974 -0.646938 -0.292662 -0.783756 0.348413 -0.307953 -0.616579 0.008264 -0.150294 0.193956 -0.455526 0.431366 -0.602815 -0.381911 0.732133 -0.077415 0.183603 -0.260302 0.684167 0.158391 -0.294483 -0.205029 0.930776 -0.197236 0.507738 0.159707 -0.902879 -0.671076 0.420422 0.518861 0.197551 1.284162 0.208281 -0.049548 0.379451 0.927480 -0.017502 0.784518
in@@ -0.976628 -0.763653 -0.627702 -0.011921 -0.837488 -0.203927 0.234979 -0.238284 0.175731 0.004397 -0.237624 0.667702 0.539554 -0.231949 -0.185192 0.493555 0.772623 -0.276482 -0.466977 -0.383921 -0.137243 0.335259 0.282577 -0.649767 -0.805189 0.296707 0.187423 -0.588024 -0.448236 0.434728 0.009328 0.063142 0.048961 -0.557812 -0.984558 -0.141044 0.641389 0.532472 -0.731692 0.492521 0.493595 0.318314 0.119861 -0.161354 -0.591315 -0.848203 -0.371264 0.768785 0.295606 0.157649 0.165289 -0.549558 -0.162165 0.176427 -0.185408 -0.003972 0.181300 0.427446 -0.790684 0.808457 -0.263552 -1.420107 -0.703725 -0.791600
también 0.228849 -0.686134 -0.204079 0.225390 0.545121 -1.063644 -0.773814 -0.177170 -1.351305 -1.015622 -0.694113 -0.146454 0.329541 -0.044113 -0.369812 0.571223 -0.213092 -0.655210 0.950063 1.510426 0.452502 0.821808 -0.120598 0.659854 0.564634 -0.646370 0.642199 -0.195830 0.788924 -0.161948 0.541636 0.308559 -0.662685 -0.483183 0.733278 0.465536 -0.470581 -0.670820 0.049710 -0.150275 0.076626 0.443266 -0.846277 0.000214 0.165422 0.987879 0.208880 0.395693 0.393304 0.422948 0.517407 -0.097257 0.053162 0.172270 -0.226432 0.607851 0.936840 0.627316 -0.299745 -0.191102 -0.934097 0.499072 0.209663 -0.021842
p@@ -0.567052 0.208478 -0.299622 -0.176397 -0.078055 0.287725 0.212728 1.121322 -0.228220 0.441809 -0.603569 -1.040517 0.202038 -0.426055 0.108593 0.404239 0.451856 0.365263 -0.410903 -0.616232 0.819691 -0.651445 0.942437 -0.292272 0.783342 0.307044 0.411024 -0.046038 -0.534716 -0.861900 0.038379 0.659991 0.136453 0.330606 -0.186084 0.899257 -0.686759 0.604849 0.395549 0.816589 1.202186 -0.477325 -0.283355 -0.448243 -0.436649 0.155217 0.750658 -0.274606 0.987803 0.149818 1.508106 -1.312102 0.141201 -0.086666 -0.105853 1.031232 0.091264 -0.091033 -0.507276 0.824921 -0.368618 -0.109251 -0.102151 0.189044
os -0.672125 0.527732 0.081754 -0.042693 0.136902 0.726683 -0.172078 0.756463 -0.544005 0.238567 0.287787 0.013019 0.594148 0.033982 -0.609332 0.189610 0.040704 -0.578454 -0.146768 -0.260670 -0.003573 0.305510 0.529700 -0.207326 -0.017761 0.069202 -0.039962 0.153605 -0.262062 -0.419087 -0.990261 0.246574 0.600093 -0.504568 -0.505198 0.273020 0.611076 0.333780 -0.030498 -0.174094 0.647215 -0.088060 0.576923 -0.064190 0.040338 -0.540067 0.193726 -0.306666 0.344564 -0.513103 0.881465 -0.524511 -0.728887 0.372115 0.072826 -0.174348 -0.653514 -0.041577 0.243750 -0.153054 -0.051348 0.442521 -0.271145 -0.025635
mm 0.354882 -0.378678 -0.414747 0.314498 -0.751698 0.317347 -0.064280 -0.511719 0.255429 0.185182 -0.179018 -0.189336 -0.200623 -0.070711 0.287848 -0.235964 0.425859 -0.711767 0.451665 -0.381359 -0.492610 -0.156194 0.652815 0.688522 -0.402153 0.392990 0.485829 -0.567711 -0.172953 -0.609317 0.467087 1.207089 -0.019589 -0.921017 0.333048 0.185387 -0.095239 0.542292 -1.036491 -0.095450 -0.428823 -0.059474 0.443250 0.080400 0.277700 -0.747797 -0.354622 -0.228908 0.480054 -0.875495 0.583903 -0.752336 0.126642 -0.382782 -0.509236 0.726467 -0.174096 0.942976 0.096510 -0.397842 0.099847 0.222162 0.127402 -0.066196
oh -0.302563 0.383212 0.524893 0.291089 -0.326247 0.158104 0.116888 0.600951 -0.347416 0.187894 -0.635835 -0.805323 -0.408482 -0.124631 -0.252166 0.311071 0.022927 0.058449 -0.202790 -0.317126 -0.638122 0.190495 -0.265367 -0.171616 -0.507245 0.301001 -0.492569 0.184983 -0.314742 -0.189279 -0.329657 -0.015148 -0.372270 -0.192273 0.380879 0.271597 -0.204367 -0.053611 -0.589418 0.404587 -0.340315 -0.403357 0.580648 0.122426 0.486115 -0.083414 -0.308364 -0.807446 0.122611 -0.196688 0.291554 -0.637358 -0.017477 -0.659274 0.574192 0.274193 -0.195434 0.700903 -0.228495 0.003027 0.147528 0.381302 0.606701 0.060347
ta 0.827227 -0.220892 -0.323950 1.166636 -0.841328 -0.132529 0.856367 -0.016301 -0.505740 0.392925 0.068649 -0.654910 0.680928 -0.699736 0.246597 0.334948 -1.045322 -0.014787 0.272928 0.855255 0.355508 -0.805608 0.359615 1.660687 0.810649 -0.361463 -0.148019 0.024943 0.764084 -0.799297 0.157165 0.268785 0.005806 0.452552 -0.199414 -0.133207 -0.469557 0.814786 -0.261155 -0.650837 0.330342 -1.277400 -0.292711 0.341558 0.527448 0.560990 0.470115 0.672297 0.680904 1.677078 1.028164 -0.400107 -0.177907 1.083780 -0.693382 -0.354624 -0.264976 0.505736 -0.581938 -0.700988 0.187371 0.434058 0.093990 -0.233971
sé -0.192521 0.429532 0.813992 -0.176085 -0.037350 0.189384 0.445139 0.518552 -0.549269 -0.353371 0.748568 -0.012462 -0.546300 -0.842298 0.640952 -0.076443 0.908854 0.549955 1.059839 -0.198464 -0.890984 -0.107684 0.759910 -0.166180 0.022037 0.921996 0.189865 0.079109 -0.532926 -1.276463 -0.774220 -0.130188 -0.326644 0.229188 -0.450578 0.262966 -0.479044 0.318921 -0.888575 -0.010818 -0.217938 -0.608091 0.102059 0.322541 0.571690 -0.522585 0.290857 -0.647079 0.919401 0.351054 1.349683 -1.315833 -0.234325 0.031113 0.498381 0.415648 -1.091511 0.454691 0.125791 0.440441 0.350953 0.347681 -0.158996 0.102919
l@@ 0.003553 0.371535 -0.003894 -0.117265 0.298181 0.829988 -0.166321 -0.512927 0.602086 0.067228 -0.282888 -0.169180 -0.186811 0.088732 -0.612976 0.230728 -0.061778 0.429703 0.286152 1.128521 0.612757 0.416184 0.322201 0.621898 0.443119 -0.211299 -0.698063 -0.153721 -0.280610 0.669211 -0.681184 0.373460 -0.191100 0.612096 -0.739025 0.449160 -0.192805 -0.528412 0.293685 0.710166 1.198193 0.355796 -0.657516 -0.687936 -1.269161 -0.256759 0.024341 0.745846 -0.479609 -0.445800 -0.662393 0.261765 0.177969 0.820664 -0.456544 0.435721 -1.179350 -1.592515 -0.536611 1.144675 0.017152 -1.122936 0.139101 0.107392
ci@@ 0.114210 0.810705 0.921717 -0.467628 0.463477 -0.020819 -0.500504 0.108469 -0.168126 0.605141 -0.143968 1.495214 -0.097282 -0.200147 0.348293 -0.977039 -0.318001 -0.773483 -0.052386 0.548517 -0.097520 0.923536 0.406647 -0.065223 -0.131170 1.360182 -0.794122 0.197927 -0.249199 -0.411287 -0.313134 -0.278819 0.404243 0.656794 -0.579863 -0.202904 1.009071 -0.916136 0.309379 -0.515539 0.509744 0.582779 -0.728154 0.596092 -0.094038 1.062209 -0.220027 -0.650300 -0.197584 0.348674 -0.161799 0.522480 -0.856762 0.176431 -0.127433 -0.571362 -0.970957 0.581853 -0.562273 0.044097 -0.130562 -0.629063 -0.691306 0.312828
uno 0.231873 -0.018447 -0.422950 -0.496238 -0.842678 -0.528391 0.694032 0.149136 -0.160489 0.067826 0.531259 -0.914321 -0.566951 -0.606193 0.072815 0.132747 0.928024 0.201807 0.056057 -0.085239 -0.604919 -0.251898 0.503550 -0.104676 -1.081483 -0.517914 -0.122479 -0.153708 -0.015985 -0.737676 -0.536267 -0.402622 -1.030384 -0.178021 0.425273 0.214042 0.094212 0.845762 0.225404 -0.112179 -0.777548 -0.582897 -0.143937 0.062194 0.313832 -0.686868 -0.129936 0.020291 1.330510 1.574696 0.710300 -1.219434 -0.940584 -0.336840 -0.017675 -0.052508 0.076281 0.932394 -0.730812 0.827160 0.117157 -0.616471 -0.055642 0.073254
todo -0.045785 0.645241 -0.615503 0.066817 0.024371 -0.155018 -0.999856 -0.896832 -0.173590 -0.520078 -0.461510 0.090865 -0.605528 -0.135241 -0.231322 0.533323 -1.156432 0.261149 0.785805 0.967910 -0.098266 1.079603 -0.549455 -0.980247 -0.518316 -0.671325 -0.511194 0.241920 0.632316 0.436199 -0.235466 -0.842355 0.387649 0.746248 0.010014 0.165622 -0.192084 -0.347662 -0.422910 0.224639 -0.796121 -0.170052 0.431333 0.594467 -0.592020 0.735037 0.098007 -0.756000 -1.156879 0.433607 -0.580180 0.871162 -0.547274 0.454593 0.894568 -0.896628 -0.511273 -0.229382 0.535421 -0.693218 0.869535 -0.142256 -0.468933 0.211844
u@@ 0.633238 -0.766974 -0.073515 0.808914 0.792918 -0.991726 0.238515 -0.420323 -0.253010 -0.168933 -0.089814 -0.671999 0.128791 0.895157 0.231004 0.357881 -0.338246 -0.690481 -0.200055 1.131787 1.111190 0.217385 -0.003479 0.752021 0.043541 0.026503 -0.098608 -0.899955 1.302525 0.620996 1.003669 -0.312090 0.465269 0.551835 0.877653 0.638192 -0.052036 -0.587819 0.490413 0.632540 -0.016144 1.527793 -1.035678 -0.054008 -0.390619 -0.000027 -0.026589 0.736368 -0.115790 -0.112969 -0.346162 1.245337 0.602944 -0.259052 0.620602 -0.018676 -0.475594 -0.755362 0.315848 -1.104198 0.106525 0.653411 -0.061033 0.125573
to -0.290525 0.539425 -0.032973 0.302542 -0.035490 0.743171 0.387859 0.367882 -0.213625 -0.053695 -0.385013 -0.490509 -0.273857 -0.621995 -0.473221 0.482001 0.280448 0.291141 0.194704 -0.572515 0.168667 -0.377789 0.665319 -0.000940 -0.367554 0.266914 -0.070761 -0.655576 0.017404 -0.647998 -0.021192 -0.026395 0.296813 0.158078 0.455456 0.355652 -0.367893 -0.359373 0.172706 -0.331346 -0.090345 -0.561957 0.621295 0.273530 -0.342724 0.198095 0.399852 -0.194121 -0.098112 0.330904 -0.002125 -0.241614 0.108906 -0.228554 -0.031483 0.881723 0.374435 0.192076 -0.574364 0.161898 0.239887 0.029945 -0.281456 -0.185420
f@@ -0.420827 0.387109 0.485777 0.281468 0.320845 0.348363 -0.048508 0.394408 0.138060 -0.238156 -0.129792 -0.221700 -0.115996 -0.103004 -0.199830 0.016948 -0.046818 -0.281600 -0.091508 -0.305761 -0.121481 0.237751 0.208945 -0.022972 -0.123621 0.235678 -0.268254 0.085438 -0.398964 -0.334174 -0.423314 0.212220 -0.006190 -0.007957 0.294050 0.056868 0.109657 -0.000472 -0.634918 0.499218 0.005071 0.756543 0.404095 0.416805 -0.021451 -0.262984 -0.454958 -0.645830 -0.199685 -0.234075 0.246247 -0.075386 0.224512 0.066846 0.211392 0.114462 -0.547699 -0.800776 -0.044282 0.028493 0.188945 0.370380 0.130722 0.000507
er@@ -0.395598 0.882292 1.060565 0.215256 0.415314 -0.025319 0.155388 0.642485 -0.409861 -0.781865 0.333886 0.160009 -0.182638 0.625921 -1.086895 0.397495 0.423456 0.232664 0.878994 -0.195673 -0.027865 -0.368321 -0.037944 1.083965 0.777284 -0.231114 0.023885 -0.353020 0.342530 -0.108147 -0.270881 -0.761656 -0.696575 0.286574 0.906469 0.121993 0.618288 -0.711570 -0.904908 -0.855058 -0.246428 0.074714 1.200256 0.079734 0.021185 -0.180439 0.132467 -0.514217 0.245585 0.328326 0.579044 -0.039908 -0.230593 0.001514 -0.015079 -0.021335 0.044783 0.294241 0.261443 0.451433 -0.122757 1.169133 0.214646 -0.058673
sea -0.086842 0.662767 0.414574 -0.089984 0.144308 0.247717 -1.002069 0.315701 -0.083723 -0.302500 0.602293 -0.429725 -0.482707 0.345870 -0.234594 0.334447 -0.227339 -0.103560 -0.128941 -0.227406 0.314294 -0.188908 0.711646 0.098495 -0.108506 0.660751 -0.486169 -0.683249 -0.552619 -0.635639 -0.491259 0.098414 0.178240 0.150342 -0.205764 -0.316410 0.462578 -0.098766 -0.158740 0.556263 0.284266 -0.190842 -0.182769 0.506597 -0.022205 0.200470 -0.079346 -0.887692 0.019681 0.889028 0.827730 -0.646318 0.277611 -0.213755 -0.528526 0.771846 -0.505204 0.855960 -0.364544 0.037720 0.793818 0.684172 0.294853 -0.089064
ti@@ 0.069697 -0.133047 -0.037377 -0.088149 -0.794500 -1.254120 -0.336847 -0.526731 0.568556 -0.560855 -0.471254 -0.190464 0.253693 0.560746 -0.228075 -0.554308 0.084524 0.037945 -0.063523 -0.542701 0.965233 0.084277 0.594591 -0.711040 0.093093 -0.545103 -0.047911 -0.496467 0.589338 0.109023 0.412642 -0.025224 0.653206 0.059118 0.305912 0.537379 0.035828 -0.105446 -0.384914 -0.437301 -0.379898 -0.822934 0.401656 -0.914516 0.982228 1.035747 0.634696 0.527393 0.320374 -0.538538 -1.612847 0.551480 1.599205 -0.034096 -0.248297 0.485649 0.388710 1.240528 -0.212355 0.067626 0.092325 0.057008 0.158745 0.259849
v@@ -0.332236 0.572587 0.118130 -0.197127 0.404251 -0.356771 -0.175025 0.486829 -0.537350 0.050354 0.025656 -0.295234 -0.453519 -0.022209 0.060003 -0.145220 -0.041168 -0.299030 0.155799 -0.602605 0.103721 0.066245 0.397174 0.064373 0.239303 0.077932 -0.068297 0.137605 -0.409992 -0.192582 -0.185984 -0.054830 -0.085749 -0.025199 -0.050952 0.182219 -0.292889 0.487600 -0.632833 -0.221018 0.182976 -0.056638 0.042028 0.395872 0.469656 -0.354504 0.096550 0.163902 0.004972 0.197398 0.368750 -0.370242 0.129667 0.165227 0.007366 0.032704 -0.733474 -0.097098 -0.496796 0.113627 -0.050866 0.235743 0.008078 0.156410
an@@ -0.345104 -0.249820 -0.522581 -0.902026 0.516107 0.548696 0.861982 0.126346 0.019948 0.235958 0.214895 -0.849443 -0.113495 -0.068882 0.020333 -0.245565 0.060094 0.148225 -0.147771 0.302300 0.174340 -0.018389 0.274528 0.108393 0.628159 0.881074 -0.144964 0.462956 -0.670961 -0.313130 -1.472917 0.558835 -1.116531 -0.275592 -0.353511 -0.395567 -0.262429 -0.197118 0.767815 0.403566 -0.103462 -0.286658 -0.474126 -0.168891 -0.165671 0.263422 0.385559 -0.660790 0.004501 0.200854 0.133936 -0.531150 1.414673 -0.808211 0.381413 0.266811 -0.680182 -0.737664 0.263048 0.237247 -0.537570 -0.367222 0.667244 -0.326094
aquí 0.096300 -1.018564 -0.734538 -0.350421 -0.777847 -0.636546 0.878401 -0.123078 1.124562 0.495393 -0.257414 1.374687 -0.232012 0.438236 -0.458411 0.614583 -0.022135 0.167181 0.356393 -0.033801 -0.234349 -0.778415 -0.491838 0.518453 0.003054 -0.597979 0.494964 -0.350489 0.131497 0.041045 0.497679 0.332586 0.519030 1.288908 0.490225 -0.146571 0.373173 -0.110309 0.986951 -0.758948 -0.537035 -0.628021 0.271924 -0.288252 -0.507347 1.072936 0.021730 -0.124382 -0.523785 0.668395 -0.933286 0.126404 0.412400 -0.060881 -0.961424 -0.701281 0.461162 0.115476 0.048658 -0.047718 -0.248727 -0.108555 -0.597732 -0.033724
an 0.140141 0.509938 -0.285596 -0.592803 0.055613 0.186547 0.002775 -0.936381 -0.831855 0.047952 -0.113069 -0.277665 0.540006 0.488412 -0.005508 0.197909 -0.505085 -0.370940 -0.536163 -0.142801 0.609588 1.083436 -0.429250 0.516895 0.227242 0.176201 -0.112074 1.192604 0.627487 0.367997 0.142600 -0.759703 -0.086114 0.103676 0.537220 -0.162088 -0.673601 -0.814266 0.326464 0.215883 0.858942 0.344726 0.370444 -0.126123 -0.421943 0.283117 0.234482 0.425621 -0.012284 -0.100049 0.422167 -0.245112 -0.294796 -0.218246 0.344198 0.215739 -0.242815 -0.910249 -0.353806 -0.006752 0.088369 -0.948579 0.077045 1.864683
son -0.460680 0.019915 0.210466 0.286241 0.397419 0.284054 0.716092 0.226011 -0.201416 -0.485069 -0.031989 -0.356661 -0.533398 -0.060321 -0.225295 0.252010 0.524575 0.015245 -0.144837 -0.721438 -0.037856 0.181836 -0.204214 -0.284462 0.140025 -0.122674 -0.027081 0.200613 -0.380601 0.185816 -0.854677 -0.462797 -0.514461 -0.276993 0.132829 -0.185766 -0.059634 0.004095 -0.343537 0.390420 0.076024 0.029398 0.667157 0.322217 0.266245 -0.433423 -0.313664 -0.001064 -0.101210 0.489751 0.147722 -0.518116 0.478616 0.061859 0.525344 -0.211736 -0.125504 -0.343553 -0.112823 0.213901 -0.234335 -0.196742 0.367037 0.226335
si@@ -0.122089 0.346520 1.270521 0.153930 0.470736 -0.076159 0.567574 0.900034 -0.464482 -0.283017 0.679508 0.262378 0.358944 -0.361749 0.594337 -0.322671 0.490574 0.497423 -0.179195 -0.018654 -0.324733 0.780238 -0.400923 -0.674352 0.057174 0.070653 -0.831935 -0.036905 -0.628312 -1.013621 0.404299 -0.101382 -0.709982 0.724674 0.076567 0.122524 -0.106094 -0.041315 -0.221339 0.258957 0.002613 -0.040926 0.619517 -0.071238 0.063664 -0.377471 0.318583 0.679877 0.452040 -0.461066 -0.023475 -0.781575 -0.634825 -0.914889 0.153593 0.311020 0.141650 0.463161 -0.378911 0.754971 0.393614 0.489845 0.483879 -0.204004
ar@@ 0.125484 0.248930 -0.902859 -0.635831 -0.339739 -0.056600 -1.237898 -0.396984 -0.144714 0.253719 -0.051428 -1.121589 -1.423036 -0.019232 -0.276110 0.010884 0.033006 -1.057777 -0.448388 0.518044 0.947673 -0.057767 -0.417779 0.019594 -0.024826 0.111613 -1.497870 -0.677628 0.218538 0.732843 0.440269 -0.785031 -0.257813 -0.255245 -0.162252 -0.069896 -0.512840 -0.397738 -0.426721 0.487370 -1.170017 0.689138 0.345778 0.585048 -0.748889 -0.268368 0.169573 1.574546 -0.146221 0.338922 -0.498435 0.401161 1.269559 0.064033 -0.344449 -0.892692 -0.205613 -0.303412 0.127258 -1.035878 1.243961 -0.883438 -0.336326 0.845779
re@@ 0.305455 0.831876 -0.150035 -0.662389 -0.073445 -1.063150 0.981242 -0.694255 -0.645359 -0.198997 0.644724 -0.308144 0.147250 0.924142 -0.814303 0.752821 -0.222320 -0.388534 0.734951 0.311027 -0.422001 0.090078 -0.651065 1.008326 0.514036 -0.327497 1.227768 0.897929 0.755295 0.420178 0.305039 0.157370 0.420169 0.934629 0.504020 -0.861246 0.311634 -0.895323 0.361274 -0.687781 0.223395 0.580993 -0.150352 0.253478 -0.348294 -0.449515 -0.401130 0.332859 -0.303377 0.535906 -0.247276 0.756621 0.245671 0.543126 -0.694496 -0.288328 0.477732 -0.172305 -0.192413 0.126082 -0.971844 0.082311 0.606052 0.230968
do -0.788050 0.248433 0.465624 0.258245 0.261009 -0.380347 0.491455 0.032311 0.090249 0.040045 0.033245 0.837796 0.298539 0.284105 -0.210450 -0.065351 0.411361 0.582763 -0.130311 -0.483057 0.070610 0.620485 -0.126733 0.195744 -0.223205 0.538994 0.283558 0.259517 -1.073977 0.345011 0.005165 0.233437 -0.199179 -0.504691 0.196621 0.119013 0.014938 -0.047825 -0.267653 -0.513776 0.396318 0.074673 0.749337 0.105210 0.130640 -0.619658 -1.268551 -0.258891 -0.497677 -0.949434 -0.267804 0.113158 -0.004153 0.091590 -0.404677 0.230715 -0.522734 -0.288532 -0.004998 -0.011976 -0.435443 0.313504 0.332729 -0.415498
ado 0.866290 0.187163 0.086624 -0.236928 -0.485448 -0.103284 -0.255724 0.433861 -0.063030 1.206898 -0.787715 0.305359 0.576778 0.107501 0.174332 0.490536 -1.211721 0.319321 -0.103659 0.847552 0.110725 0.095825 -0.435893 -0.852724 0.928008 -0.290479 -0.977116 -0.650895 0.092931 0.721719 0.588503 0.074199 1.023600 0.642662 0.517447 0.234094 1.351468 -0.112679 0.757251 -0.979069 0.333593 -0.290381 0.825323 -0.683768 0.068548 0.631342 0.126856 0.094552 -0.506347 0.593717 -0.083287 0.151014 -0.664495 0.362304 -0.693731 0.238428 0.997119 -0.447866 -0.565882 0.271946 0.126455 0.298390 0.333796 -0.165776
gente 0.669407 0.039229 -0.643720 -0.267571 -0.293546 0.271082 0.151866 0.416019 -0.478153 0.212222 -0.633942 -0.228214 -0.519699 -0.113340 -0.423145 0.649188 0.219277 -0.574867 0.162611 0.688460 -0.225700 -0.277341 -0.345112 -0.783309 -0.614344 -0.839334 1.276412 -0.557316 1.366171 -0.346109 -0.152818 -0.513684 -0.287524 -0.047877 -0.091276 1.019284 0.019584 0.665049 1.234298 -0.918185 -1.611110 -0.880962 -0.675421 -0.721234 -0.653921 -0.087382 0.902988 0.524343 0.639801 1.674364 0.694741 -0.478145 -0.502353 -0.242909 -0.920150 -0.138735 0.344785 0.152058 -0.430281 -0.146032 -0.227021 -0.517405 -0.530412 0.226853
en@@ 0.163837 -0.149780 -0.346269 -1.121694 0.683292 -0.371467 0.178323 0.626294 0.016980 -0.664080 -0.320538 -0.101437 0.634146 -0.534715 -0.670071 -0.328717 -0.589486 0.033834 -0.373712 -0.150835 0.676489 0.704227 -0.294705 0.517354 0.731701 0.853348 -0.350160 0.787204 0.038753 0.968871 -0.394825 0.030877 -0.420614 -0.046796 -0.032316 -0.175223 0.437561 -0.116257 -0.117784 0.385281 1.139806 0.047510 -1.021738 0.074772 0.551235 0.234738 -0.085610 -0.022180 -0.819163 -0.272756 0.267362 -0.701221 0.420954 1.038132 -0.176778 -0.095278 -0.605447 -0.746962 0.026971 0.347099 -0.955238 -0.299742 0.626319 1.713579
ando -1.185691 0.096506 -0.464473 0.238770 0.173285 -0.428253 -0.040641 -0.670644 -0.703200 -0.414163 -0.440369 -0.356350 0.766593 -0.005869 0.040083 0.058258 0.146391 -0.112512 -0.013984 -0.277686 0.582254 0.424348 -0.349459 -0.341556 -0.205451 -0.524050 -0.319348 -0.402063 -0.665937 0.125441 -0.064434 -0.263662 0.222016 -0.460374 -0.325576 0.736428 0.196255 -0.323150 -0.401714 1.208762 0.149337 0.193830 -0.086903 0.619028 0.469783 -0.826223 -0.944009 0.840533 -0.395004 -0.013261 0.500718 -0.298586 0.961144 0.420412 -0.753056 1.173239 0.051652 -0.162646 -0.021097 0.415147 -0.636961 -0.477294 -0.393217 -1.083128
tiene -0.311931 0.379274 0.170124 0.203947 0.203249 0.226671 -0.318065 0.203766 -0.220243 -0.330264 0.543088 -0.492437 -0.288912 -0.391672 0.170125 0.041862 0.376763 -0.165968 0.109502 -0.106860 -0.302582 -0.154292 0.272547 -0.389173 0.007927 0.314451 -0.038655 0.117909 -0.759801 -0.583706 -0.821965 0.280464 -0.302078 -0.211560 0.415936 -0.220334 -0.185348 0.100538 -0.034006 -0.024840 -0.309039 0.006105 0.298522 -0.151128 0.073136 0.079934 0.165821 -0.701863 0.341608 0.239546 0.770997 -0.411816 0.315091 -0.173243 0.107841 0.438725 -0.145370 -0.252395 -0.205844 0.363458 0.166151 0.330430 0.086749 0.211804
mucho -0.241909 0.257057 0.033238 0.484815 0.101827 0.223595 0.109176 -0.250048 0.003644 -0.025687 0.239779 -0.626678 -1.008282 -0.031297 -0.352508 0.185386 0.103686 -0.024504 -0.092996 -0.522061 -0.179976 0.127728 0.806723 -0.025205 -0.396567 -0.205941 -0.008318 -0.103750 -0.361403 -0.332058 -0.661707 0.659944 -0.308143 -0.043492 0.551136 -0.040198 0.104462 0.527203 0.050598 -0.157756 -0.201515 0.023791 0.310278 -0.183402 0.445621 -0.029753 0.216040 -0.395747 0.140199 0.156044 0.356953 -0.640980 0.760056 -0.309714 -0.311091 0.124813 0.076162 0.221536 -0.187640 0.082900 0.269279 0.376826 0.463929 -0.120703
era -0.671207 -0.044286 0.598623 0.021092 0.086999 0.425047 -0.159531 0.174423 0.920924 -0.243974 1.428462 1.168830 0.118184 -0.104916 0.586203 -1.009056 0.541022 0.042950 -0.108963 -0.878134 -0.232827 -1.197963 0.134572 0.067555 0.652754 0.573360 0.739419 -0.575002 -0.691818 -0.887836 0.483839 0.561301 -0.575337 -0.416666 -0.672065 -0.154007 1.226529 0.490834 0.367596 -0.621868 1.077909 -0.228802 -0.461820 -0.096367 -0.633434 -0.164476 0.128928 -0.157353 0.506796 0.266598 -0.439579 -0.315790 -0.501666 0.124738 0.092890 0.155621 -0.303542 0.452543 -0.805499 0.761512 0.455382 -0.415679 -0.817592 -0.202039
cómo -0.514693 0.138643 -0.161419 0.192668 -0.570870 0.189527 0.249813 0.163441 0.045061 -0.236746 0.278706 -0.382785 -0.673108 -0.286594 0.048077 0.223063 0.265499 0.042688 0.322786 0.076165 -0.532751 0.287614 -0.109566 -0.843587 -0.845492 -0.027303 -0.393005 -0.594983 -0.274440 -0.327100 0.225157 0.405717 0.583489 -0.520150 0.121387 -0.197272 0.081521 -0.215833 -0.658115 0.629754 -0.920166 -0.493999 0.201262 -0.068634 0.134201 0.120582 -0.383906 -0.476109 -0.200242 -0.087319 0.002168 -0.600315 0.263652 -0.210047 -0.031020 0.473387 -0.296483 0.026601 -0.021343 0.293855 0.101837 -0.042282 0.215172 -0.377948
cuando -0.573737 0.222602 0.447686 0.002611 0.108043 0.080643 0.218464 0.014453 -0.238854 -0.259585 -0.417514 -0.322215 -0.564987 -0.068965 -0.099563 0.001306 -0.026217 0.123285 0.282717 -0.189066 -0.269388 -0.126830 0.602921 0.227627 -0.156388 -0.029955 -0.334057 -0.007327 -0.405666 -0.300715 -0.317357 0.196660 -0.393806 0.057081 0.320212 -0.248901 0.251850 0.376956 -0.503464 0.227256 -0.105160 0.180351 0.069196 0.236483 0.321869 -0.168894 -0.117395 -0.630361 -0.168329 0.049897 0.306356 -0.515741 0.140626 0.178610 0.000136 0.078564 -0.587712 0.121220 -0.423269 0.161176 -0.322648 0.230016 0.278576 0.126724
h@@ -0.057142 0.446700 0.172270 -0.835723 -0.245399 -0.013452 0.267456 0.130778 0.042354 -1.029963 0.508109 -0.901940 0.107633 -0.022632 0.650677 -0.231171 0.257921 -0.886914 -0.813043 0.362487 0.477401 -0.114452 1.369954 0.217145 -0.267457 0.612360 -0.477315 -0.587791 -0.430868 -0.608620 -0.716397 0.848216 -0.072347 -0.392619 -0.772673 0.450861 0.161776 0.437722 -0.455382 0.613048 0.704679 0.488765 -0.198760 0.173234 0.156004 -0.658449 0.176454 0.225669 0.921586 0.285669 -0.071870 0.067702 -0.036380 1.067436 -0.551571 0.340918 -0.333868 0.498576 0.082661 -0.064325 0.107529 0.412267 0.139194 0.165632
creo -0.313341 0.386043 0.264030 -0.451969 -0.315828 0.035813 -0.766078 0.122464 0.208695 -0.319881 -0.004615 -0.397685 -0.539219 0.148201 0.184544 0.067060 0.459719 -0.456469 -0.323302 -0.076101 0.316463 -0.101965 0.315913 -0.231015 -0.368228 0.325221 -0.026756 -0.405277 -0.497503 -0.518539 -0.776071 0.519128 -0.160866 -0.278741 0.007750 -0.362114 0.315611 0.017392 -0.237046 0.623816 0.004529 -0.241486 -0.212848 0.847896 0.293413 -0.378176 0.013689 -0.515236 -0.138528 0.336821 0.371336 -0.584263 0.419579 0.009938 -0.509897 0.445012 -0.454303 0.871551 -0.031298 0.029844 -0.133478 0.429339 -0.129109 0.107285
este -0.213651 0.993943 0.296952 0.273013 -0.046120 0.693755 -0.050188 -0.265730 0.157130 -0.238464 -0.539442 0.175882 -0.554757 -0.003454 -0.987673 0.251369 0.421286 -0.418353 0.408018 -0.517806 -0.603363 0.477184 0.182482 0.376117 -0.202588 0.170743 -0.915065 -0.087200 -0.232583 0.819176 -1.131651 -0.030521 -0.345051 -0.683411 0.737015 -0.538128 0.491756 0.020667 0.030585 0.117349 0.746386 0.409046 1.241480 0.265380 -0.652729 0.102046 -0.232667 0.123638 0.656007 0.087813 0.270221 0.183423 -0.059845 -0.138174 -0.034857 -0.728700 0.093705 -0.222561 0.156431 -0.248839 0.313231 -0.312967 0.338926 0.588013
ó 0.233026 1.354460 0.046038 -0.857587 0.077837 -0.448772 -1.053332 -0.133408 -0.613839 -0.012003 -0.594800 -0.431585 -0.384596 0.545381 -0.526235 0.523245 -0.971780 -1.078159 0.857919 0.302315 0.769902 0.172974 -0.042253 -0.190106 0.104684 0.706206 0.071298 0.186924 0.691624 0.360806 -0.950554 0.040841 -0.283802 0.520954 0.279551 -0.934575 -0.028643 0.278171 -1.024723 -1.103802 -1.459840 0.224823 -1.280734 0.485502 -0.081911 0.801365 0.218674 0.036358 -1.129937 0.209220 -0.195656 0.950017 -0.165113 0.439013 -0.767872 -0.854988 -0.820754 0.102022 0.255252 -0.950381 0.195663 0.225914 -0.201876 0.749989
ía -0.337976 0.010269 -0.058409 0.060267 0.004204 -0.477375 0.031674 0.137529 -0.115648 -0.168935 -0.001235 -0.342541 -0.802197 -0.262596 -0.047329 0.196968 0.672861 0.148462 0.091091 -0.447832 -0.327306 -0.275276 0.168895 -0.067664 0.096225 -0.051485 -0.254760 -0.313947 -0.157437 -0.328064 -0.316663 -0.035776 -0.256489 -0.046647 0.262720 -0.082664 -0.270014 -0.015228 -0.787042 -0.000189 -0.446319 0.074132 0.383582 0.133609 0.469793 -0.303340 -0.034359 -0.552363 -0.033075 0.429675 -0.019103 -0.349004 0.069789 -0.736320 0.178513 0.025294 0.095998 0.558122 0.226945 0.108584 -0.136491 -0.010274 0.153411 -0.178616
al@@ -0.265820 0.378727 0.368054 0.143362 -0.201368 -0.817499 0.000373 0.293173 -0.335003 -0.156421 -0.185330 -0.196956 -0.140431 0.407211 -0.227581 0.438130 0.043958 0.867149 -0.930382 0.037286 -0.031340 -0.285280 0.983162 -0.369615 0.528830 0.191398 -0.069414 -0.004222 -0.511810 -0.493674 -0.202563 0.123182 -0.003331 -0.522923 -0.039375 -0.069060 -0.058384 0.244104 -0.489657 0.804134 0.826790 -0.678627 1.024867 0.413915 0.117907 -0.604546 -0.191183 0.143689 1.320439 0.041989 0.363641 0.057527 -0.484882 -0.736269 0.579316 -0.188326 -0.145938 0.287118 -0.849019 -0.568815 -0.165332 0.489151 0.890840 -0.267123
verdad 0.241787 -0.757484 -0.350340 0.092122 -0.473985 0.663106 0.339311 0.727520 1.069640 0.829021 0.172162 -0.727291 0.734032 -0.972178 -0.251032 0.039309 0.020186 0.229856 -0.608479 -0.539294 0.330253 -0.814806 0.344277 0.422988 0.551073 -0.786995 0.329875 0.555786 -0.185733 0.562291 0.243687 0.372543 -0.119560 0.143603 -0.029265 -0.633755 -0.008159 0.218605 0.406013 0.292896 0.973288 -0.298252 -0.391048 -0.576352 -0.469207 0.423984 0.535579 1.563120 0.691377 0.590128 0.788755 -0.537247 0.373713 0.584716 -0.346321 0.089752 0.508823 -0.611094 -0.897105 0.023340 -0.564762 -1.061415 0.786873 0.533236
cu@@ -1.061598 0.811526 0.770414 -0.395179 0.376829 -0.182888 0.603533 0.743533 -0.313016 -1.055131 -0.384861 0.276637 -0.093341 -0.454647 -1.211166 0.385023 0.112180 -0.254361 0.721019 0.011217 -0.496505 0.300147 0.210085 -0.004311 0.229945 0.013298 0.445746 0.232908 0.183522 0.021598 -0.039885 -0.518275 -0.617382 -0.353946 0.397128 0.160210 -0.234182 -0.043065 -0.405575 -0.689020 0.179729 -0.286625 0.919294 0.260722 0.240857 -0.201869 0.061695 -0.294336 -0.454843 -0.316480 0.297500 -1.191236 -0.749870 -0.067348 0.274890 -0.055765 -0.009280 0.098295 0.047162 0.915149 -0.059774 0.566576 -0.165045 0.126996
da 0.168401 0.799826 0.040322 -0.290608 -0.533662 0.129577 -0.754637 -0.175267 0.837807 0.402016 0.188902 0.841135 -0.106409 0.383200 -0.607635 0.276018 -0.683822 0.147608 0.348455 0.485451 -0.063450 -0.447464 0.169977 0.250565 -0.141166 0.817308 -0.018080 -0.807347 -0.193470 0.596255 1.022961 -0.325751 -0.020470 0.958764 0.333638 -1.660213 0.931730 -0.852898 0.742901 -1.020591 -0.334709 0.272672 -0.046840 -0.508273 -0.286456 0.825833 -0.032065 -0.757837 -0.091008 -0.079586 -0.859941 0.179004 0.085014 -0.229649 -1.134003 -0.663643 -0.370808 0.184206 -0.464921 0.831744 0.371878 -0.457625 -1.096836 -0.331400
del 0.865842 -0.938663 -0.901201 0.251059 -0.526325 -0.270126 -0.060554 -0.656092 -0.570357 0.377051 0.133896 -0.200374 -0.206124 -0.344284 0.190301 -0.221316 0.299529 0.179171 -0.322601 -0.225413 1.388139 -0.870490 0.255635 0.969238 0.115190 -0.737094 -0.153519 -0.347897 0.219661 0.172061 0.682789 0.121461 0.399791 0.140048 0.057279 0.011726 0.196032 0.213873 0.578239 -0.108260 -0.185538 -0.225266 -0.375615 -0.614226 -0.726528 0.356207 0.291583 1.502472 -0.036936 0.598815 0.020706 0.393029 0.505152 -0.534234 -0.647770 0.534491 0.958099 0.215919 -0.107099 -0.253549 1.015534 -0.507943 -0.250671 0.024202
su@@ 1.135018 0.630056 -0.127604 0.085095 -0.369715 -0.359607 0.414509 -0.447459 -0.822495 -0.638734 -0.566612 -0.124869 0.549925 1.183780 -0.623988 -0.124089 -0.978740 -0.810345 -0.331988 0.574604 0.003715 0.506921 0.152507 1.146387 0.606833 0.271002 0.167325 0.211163 0.311442 1.221893 0.788537 0.750685 0.943758 0.625975 -0.055351 0.170147 0.242245 -0.486661 0.391038 -0.660358 1.233896 -0.013963 -0.088734 0.425463 0.800682 -0.318016 -0.075189 0.599565 -0.296086 0.453832 0.256018 0.193132 -0.395427 0.931495 -0.546840 -0.269905 -0.528588 -0.512931 0.043760 -0.301171 -0.483300 -0.450768 -0.256255 1.090119
con@@ 0.896763 0.610857 0.204181 0.785152 -0.308569 -0.149206 -0.169302 -0.134545 -0.011039 0.582426 0.228226 0.468717 1.383239 0.764721 -0.062642 -1.762829 -0.281039 0.411190 0.237851 -0.293276 0.816538 0.073736 -0.147647 0.331011 0.363102 -0.188045 -0.678317 -0.061137 -0.047463 -1.143808 1.480491 0.621238 0.014945 -0.055067 -1.058961 0.321435 -0.179073 -0.647399 -0.279618 -0.396365 0.802217 0.344488 -0.136172 -0.027504 0.275512 -0.226208 -0.442710 0.145958 -0.488572 -0.995142 -0.117693 0.174974 -0.576424 0.485541 0.731250 1.130992 0.271871 0.101221 -0.168392 -0.128463 -0.018422 0.150795 -0.019410 -0.953196
ahí -0.996719 0.447763 0.175407 0.031636 -0.158668 -0.002109 -0.264950 0.259707 -0.086480 -0.111256 0.127744 -0.233169 -0.198874 -0.133973 0.064332 0.325819 0.030347 -0.234828 0.221909 -0.517306 -0.039598 -0.305206 0.650791 0.052131 -0.369101 0.382742 -0.099637 -0.530979 -0.730798 -0.209826 -0.081259 0.402963 -0.517658 -0.285971 -0.549453 -0.067514 0.026110 0.040533 -0.666311 0.361217 0.257778 0.037856 0.238075 0.498084 0.335359 -0.374899 -0.043608 -0.393030 0.387250 0.147165 0.250486 -0.845383 0.266327 0.046920 -0.072064 0.527617 -0.417638 0.158625 -0.575801 0.423548 -0.206623 0.384256 0.041247 -0.185057
mi@@ 0.311267 -0.245972 -0.213247 -0.545404 1.075937 0.674624 -0.275849 0.358202 -1.021233 -0.422370 0.120564 -0.245132 0.827106 0.271142 0.875231 -0.328306 -0.512824 -0.473943 -0.107758 0.815299 0.157240 0.878832 -0.279945 0.214161 0.697801 0.222348 -0.184079 1.421826 0.129134 0.219044 -0.395862 -0.434987 -0.866810 -0.279981 -0.116062 -0.282782 -0.936656 -0.182425 0.065622 0.480688 1.412610 -0.286339 -0.594801 0.844570 0.296099 -0.804082 0.222835 0.481064 0.120443 -0.451132 0.912630 -0.130363 -0.126476 0.769946 1.159096 -0.737149 -0.303316 -0.192971 0.031588 -0.059008 -0.058547 -0.701063 1.011205 0.184614
tengo 0.125013 0.057773 -0.232424 0.015750 -0.726943 0.476656 1.512896 0.692264 0.143627 0.053812 0.194224 -0.497983 -0.297986 -0.374387 0.074574 0.471723 0.591693 0.428514 -0.324112 0.380410 -0.908949 0.642221 0.068687 0.331917 -0.725369 -0.148603 0.482733 0.535025 -0.546824 -0.101895 -0.835988 -0.036052 -0.854155 -0.993315 -0.037072 0.310629 -0.314926 0.208338 -0.548711 -0.731821 -0.634573 -0.502292 0.041318 0.169794 0.560666 0.258710 -0.267791 -0.024034 0.380834 0.634491 0.006413 -0.300803 -0.324369 0.223616 -0.278374 -0.579400 0.223910 0.062511 0.561598 0.065985 0.118693 0.380436 0.443257 1.006279
estoy -0.411945 -0.012162 -0.203186 -0.075050 0.115101 -0.087574 -0.134338 0.307355 0.295816 -1.562516 0.120110 -0.768460 -0.844493 -0.292542 0.361085 0.047144 -0.185049 0.331940 0.347109 -0.298799 0.014659 -0.417592 -0.105782 0.598766 -0.349556 0.137186 -0.033634 0.458398 -0.453118 0.056933 -0.574068 0.004125 -0.579799 -0.785005 -0.435880 0.026326 -0.919137 -0.179217 -0.949286 -0.140746 -1.433272 0.377660 0.728081 -0.023272 0.331806 0.089647 0.006332 -0.641119 0.546042 0.142586 -0.200260 0.791883 0.384016 -0.823865 -0.265073 0.461683 -0.154377 0.737402 0.694221 -0.896249 0.013650 0.983069 0.594787 -0.783483
n@@ -0.199651 0.289021 0.835608 0.536211 0.364255 -0.504373 -0.837900 0.620347 -0.510234 0.394398 0.020175 -0.758891 -0.662133 0.318496 -0.010040 0.147551 0.413264 0.033757 -0.228672 -0.288786 -0.084130 0.472180 0.215688 -0.541712 -0.236498 0.087778 -0.431646 -0.097282 -0.356740 -0.521931 -0.116878 0.215449 0.179853 -0.322508 0.308018 -0.126467 0.088794 -0.038885 -0.228045 1.037146 0.079564 -0.261156 -0.038098 0.260006 0.852525 -0.434570 0.062025 -0.316784 0.247652 0.136382 0.582558 -0.609030 0.239798 -0.232757 0.607426 0.791714 0.169437 1.064529 -0.511435 0.477892 -0.080089 0.446283 0.438608 0.155552
ac@@ -0.141457 0.290729 -0.030063 -0.795483 0.439194 -0.212901 0.149439 -0.293272 -0.949678 -1.264609 0.578593 0.509359 -0.276203 -0.127125 0.650421 0.092794 -0.137824 0.291000 0.682932 0.106587 0.257043 0.203502 0.612373 -0.258112 0.792392 -0.378556 -0.700734 0.114365 0.072257 -0.171565 -0.032881 -0.650684 0.723375 0.894695 0.223204 0.248392 -0.437867 -0.278463 -0.879484 0.091195 0.180490 -0.114323 -0.307359 0.039197 0.521706 -0.465850 0.378645 -0.916579 0.447622 -0.287097 0.339246 -1.109201 0.397728 0.265454 0.603564 1.143216 -0.319450 -0.102869 -0.163339 0.914885 -0.143435 -0.437355 0.047724 -0.173820
va -0.834701 0.449091 0.727239 -0.346835 -0.523416 0.872502 0.296222 0.453755 -0.193270 -0.209607 -0.239214 -0.276547 -0.929333 -0.532771 0.044803 0.411377 0.733695 -0.102251 -0.353188 -0.807459 -0.328749 0.154913 0.755061 -0.337280 0.567768 -0.064996 -0.093933 0.029157 -0.921358 0.299178 -0.295908 0.177703 -0.027081 0.274451 -0.414661 0.585788 -0.707012 -0.050811 -0.071635 0.608772 1.117075 -0.744905 0.152258 -0.134636 0.030658 -0.172299 -0.094956 -0.353179 1.219891 -0.128994 0.853862 -1.555757 -0.332881 -0.388074 -0.849712 0.675365 -0.847733 -0.445053 -0.781617 1.126889 -0.041991 0.312282 0.221961 0.598743
j@@ 0.221953 0.086572 0.103381 0.734076 -0.857077 -0.154645 -0.248483 0.611710 0.252407 0.429510 0.403552 0.723740 0.086968 -0.533272 0.049349 0.380847 0.503871 1.013963 1.140332 0.062022 -0.135111 -0.589293 -0.075128 -0.141183 -0.397915 -0.341253 -0.028433 -0.811349 -0.213118 -0.853156 0.026793 -0.144365 -0.414545 -0.192038 -0.039094 0.258474 -0.232088 0.179672 -0.337575 -0.470142 -0.271734 -1.011216 0.210858 0.225582 0.497381 0.059968 0.284250 -0.249713 1.113274 0.769381 0.308534 -0.899076 -0.513225 -0.553806 -0.867229 0.355141 0.487042 0.400186 -0.726249 0.254481 0.012902 0.777931 -0.221467 -0.581719
ellos 0.132861 -0.346402 -0.976671 -0.098568 -0.364180 0.431813 0.020359 0.562081 -0.184685 0.255642 -0.429276 -1.145371 -0.294835 0.074469 -0.191908 0.490884 0.613395 0.262381 0.136190 -0.441220 0.165142 -0.349280 0.817976 -0.901727 0.149298 0.084070 0.316258 -0.205554 -0.015330 -0.636196 -0.471440 -0.629949 -0.548790 -0.196306 0.320381 0.669291 -0.951733 0.547680 -0.119369 0.584765 -0.301677 -0.356853 0.479885 -0.052576 0.174454 0.042601 0.838002 -0.605651 0.073345 0.812334 0.932265 -0.396708 0.241272 -0.325380 0.151206 0.759894 0.099937 0.415818 0.399319 0.258414 0.019171 0.637245 0.669546 0.225886
él -0.162136 -0.392551 -0.337310 -0.560732 -0.091781 0.119320 -0.888739 -0.965069 0.876204 0.568557 0.162790 0.147500 -0.701784 0.379326 0.032016 -0.081979 -0.272633 0.211349 -0.822113 -0.154443 0.957345 -0.329247 -0.016887 1.263834 -0.818632 -0.072803 -0.583602 -0.430261 0.138203 1.068876 1.056637 0.488053 0.571630 0.822394 0.060591 -0.356459 -0.206164 -0.515855 0.843845 -0.186385 0.683889 0.817147 0.207577 -0.758374 -0.461008 -0.511024 0.283339 0.916508 -0.198543 0.830061 -0.241668 0.142499 1.145985 -0.352807 -0.974883 -0.106587 0.001639 0.085411 -0.540800 0.559456 0.455796 -0.624988 -1.094823 0.347951
ab@@ -0.740702 0.800810 1.020589 -0.366552 0.816713 1.111552 -0.148526 0.431080 -0.706617 -0.942889 0.193543 -0.145575 0.184603 -0.231759 -0.039636 -0.504381 -0.123563 0.169483 0.163746 -0.129143 0.379550 0.346557 0.332474 0.207384 0.837344 0.967905 0.016424 0.044007 -0.336246 -0.716514 -0.898486 -0.326633 -0.073333 -0.352320 -0.138180 0.295839 -0.517994 0.617725 -0.669436 -0.058342 0.685738 0.095170 -0.138331 -0.108498 0.333172 -0.825392 0.095906 -0.235915 0.479481 0.033487 0.982005 -0.458854 -0.408518 1.161323 0.305113 0.187470 -1.125627 0.356794 0.454967 -0.002502 -0.009713 0.929742 0.353229 0.501398
ahora 0.979709 -0.072628 -0.963365 -0.302781 0.964214 -0.687361 -0.352296 -0.887885 -0.516867 -0.932760 -0.833942 -0.764691 -0.298317 0.496990 -0.207309 0.378135 -0.725705 -0.323779 -0.024740 0.560146 0.911023 0.370554 0.335274 -0.249071 0.658920 -0.192226 -0.799963 0.664019 0.696320 0.628199 0.668298 -0.497536 0.136811 0.941897 -0.042833 0.768362 -0.775454 -0.425472 0.261332 0.540153 0.121294 0.743470 -0.165181 -0.558667 -0.315820 0.783803 0.097583 0.133762 -1.092975 -0.419840 -0.456263 0.806781 0.519474 0.519718 0.565056 0.053212 -0.102890 -0.746468 0.111294 -0.518535 0.181850 -1.079453 0.069084 0.633355
er -1.070295 0.130712 0.731687 0.192740 -1.144177 0.035625 -0.135006 -0.211941 0.324166 0.129698 1.162771 -0.130654 -0.067746 -0.077804 0.063330 -0.653802 -0.518052 0.330442 0.380931 -0.789486 -0.462264 -1.252214 0.873065 0.392671 -0.400548 0.373129 -0.160738 -0.379984 -0.616496 -0.307220 -0.033010 0.514483 -0.438398 -0.674264 -0.507752 -0.127774 0.711600 0.875785 -0.375708 -0.211165 0.588277 -0.541527 -0.521278 0.737225 0.267499 -0.881825 -0.045262 -0.742302 1.066686 0.449596 0.737995 -0.991691 0.673733 -0.121832 -0.645061 0.248034 -0.535580 0.925102 -0.674133 0.478371 0.355069 0.529276 -0.617693 -0.573110
uh -0.885835 0.114399 -0.607968 -0.147588 -0.488994 0.116796 0.208034 0.163911 0.483694 0.578753 0.428126 0.209148 0.313294 -0.854844 0.436479 -0.117763 0.258434 0.429690 -0.233628 -0.831164 -0.261480 -1.042066 -0.061988 -0.945555 -0.788193 0.106153 0.580953 -0.770100 -0.563615 0.138100 0.093319 0.533753 0.266736 -0.492333 -0.702656 -0.020905 -0.555106 0.013290 0.336755 0.411408 0.393679 -0.144978 0.491024 -0.728443 -0.198847 -0.402234 -0.071618 -0.591779 0.240606 -0.323539 0.479809 -0.585371 0.610024 -0.650797 -0.267159 0.697385 0.519324 0.087065 0.158565 0.832334 -0.176060 0.089480 -0.107800 -0.623916
dos 0.863143 0.270742 -0.206128 0.006269 -0.603203 0.224683 -0.569978 0.010843 0.087948 -0.751391 -0.654186 -0.113905 0.206694 -0.336332 -0.084681 0.159521 0.070668 -0.796025 0.046618 0.180330 -0.061041 0.051128 -0.297218 -0.005474 -0.430226 0.702298 0.239439 -0.716037 -0.618199 -0.333259 0.526782 0.335254 0.285188 -1.061316 0.581294 0.222411 -0.754888 0.207332 -0.867122 -0.413711 -0.239052 0.166943 0.155758 -0.064398 0.160082 -0.329911 0.458830 -0.428755 0.146372 -0.092968 0.086911 -0.445448 0.625466 -0.094559 0.398572 0.637244 -0.648320 -0.014381 -0.179872 -0.004347 0.180142 0.001039 0.469909 -0.786076
ri@@ -0.410622 0.024492 -0.176112 -0.368558 0.142813 0.632853 0.302584 -0.297619 0.437673 0.138455 0.967241 -0.207393 -0.468202 -1.134177 1.251625 -0.315973 0.819146 0.472648 -0.715217 -0.719577 0.345461 0.212902 0.254043 -0.317738 -0.078754 0.710285 -0.440320 0.037113 -1.523915 -0.349901 -0.398525 0.594647 0.351119 -0.391386 -0.138028 -0.580047 -0.114627 -0.336052 0.122537 0.336904 0.702985 0.425724 -0.000093 -0.444521 0.332621 -0.225093 -0.203817 0.010144 0.154568 -0.530855 0.318912 -0.526900 0.649998 0.398853 -0.037136 0.819376 -0.434278 -0.454497 0.470247 0.972353 0.347502 -0.216721 0.442429 0.668493
años 0.579233 0.123536 -0.798856 -1.203581 -0.565891 0.636710 -0.774150 -0.342487 -0.502713 0.536320 -0.489404 -0.707778 0.659799 -0.248904 0.201752 0.034080 -0.278106 0.255272 -0.022856 -0.051150 0.469232 -0.336755 0.009896 -0.589254 -0.004374 -0.001763 0.196998 0.340015 0.146050 0.198452 1.044091 0.465425 0.005064 0.559863 -0.726077 -0.184348 -0.531124 -0.514145 1.157174 -0.761011 0.756443 0.604378 0.098470 -0.927819 -0.810307 0.172058 0.656887 0.431536 0.323689 0.401280 -0.304857 0.351744 -0.335748 -0.256345 -0.650888 0.493540 0.507075 -0.387004 -0.915779 0.932845 0.084285 -0.788970 -0.576547 0.052748
í@@ -0.397060 0.866630 0.506576 0.180358 -0.574597 -0.079086 0.194899 -0.031550 -0.175263 -0.333848 0.390310 0.675005 0.857045 -0.120125 -0.904582 -0.334727 -0.441758 0.725966 0.338382 -0.084663 0.020197 -0.186570 -0.056609 -1.045960 -0.008492 0.262478 -0.099394 -0.658669 -0.481770 0.296060 0.304614 0.087450 1.073051 -0.388192 -0.295773 0.630762 -0.029754 -0.085527 -0.255699 -0.372105 0.327746 0.525126 0.481714 -0.353232 0.198875 0.365339 0.553865 -0.511870 -0.192955 -0.065863 0.748479 0.222443 -0.989398 -0.136237 -0.164440 0.693273 0.545290 0.258795 0.193685 0.228999 0.505922 0.011873 0.370545 0.154463
cosas -1.010896 1.299362 0.748481 0.206033 -0.271002 0.410209 0.927416 0.019796 0.825662 0.405903 0.610123 1.084993 0.206727 0.231162 -0.869055 -0.103830 -0.350361 0.584423 0.478918 -0.470833 -0.358232 1.356947 -0.036956 0.337733 -0.759708 0.458000 0.473298 -0.251261 -0.558891 0.788640 -0.195860 0.830246 0.417783 0.350429 -0.927516 -0.655077 -0.325602 -1.228141 -0.080096 0.765434 -0.214735 0.511417 0.309607 -0.012913 0.086934 -0.047698 -1.171505 -0.489860 -0.937619 -0.673512 -0.268480 -0.210085 -0.131986 -0.378945 -0.458060 0.547472 -0.706295 -0.152196 0.053567 0.938442 0.616557 0.635810 -0.668200 -0.082002
ch@@ -0.351999 0.150684 0.151005 -0.601516 -0.230793 0.242286 -0.369386 -0.216922 -0.096598 -0.593254 0.783646 0.095195 -0.237946 0.101583 0.801467 -0.129100 0.901487 -0.666602 -0.290433 -0.365726 0.273261 -0.337235 0.888517 0.380028 -0.216352 0.911000 -0.332122 0.007354 -0.351392 -0.539317 -0.947305 0.581271 0.134618 -0.753072 -0.066259 -0.084333 0.408825 -0.100035 -0.262589 0.179778 0.043701 0.062331 0.092270 0.187290 0.108112 -0.614632 -0.076336 0.220574 0.502557 -0.183736 0.056702 -0.325022 -0.227079 -0.200965 -0.261236 0.031659 -0.502528 0.641943 0.074407 0.209416 0.569829 0.246180 0.066858 0.477565
es@@ 0.441976 -0.874935 -1.376895 0.427240 -0.562811 0.400241 -0.784603 -0.303730 -0.402819 -0.122428 0.180358 -0.385929 0.486560 0.392377 0.434479 -0.099367 -0.217017 -1.003967 -1.427765 0.191940 0.559461 -0.276369 -0.016274 0.218289 -0.319700 -0.028294 0.003515 0.766200 0.503982 0.439249 0.020401 0.089712 0.055395 -1.141777 -0.340373 0.065740 -0.306286 0.405034 -0.309047 0.269329 0.109902 -0.117088 0.162792 -0.922915 -0.130126 0.448773 -0.420764 0.557075 -0.067862 -0.662383 0.057891 1.198543 -0.098404 0.718565 0.824500 -0.625762 0.748803 0.173525 0.608794 -0.866415 -0.628211 -0.433942 0.418718 0.342838
á@@ 0.280538 0.170925 -0.458270 -0.215805 -0.005155 -0.020477 -0.198732 -0.633457 0.861065 -0.504888 -0.173585 0.523557 0.217015 0.899366 -1.251938 -0.559272 -0.334078 -0.897882 1.000261 0.440211 0.259763 -0.297880 0.444496 1.430455 0.144528 -0.406367 -0.010469 -0.145455 1.253628 -0.560351 -0.447639 0.112057 -0.061319 -0.423406 -0.171179 -0.067817 0.272616 -0.286582 0.133852 -1.202809 -0.683016 -0.184895 0.999873 -0.125275 -0.184375 -0.398776 -0.440773 0.064525 0.055972 0.140475 -1.021764 0.402554 0.561434 0.150411 -0.866034 0.471617 -1.140218 -0.345780 0.366679 -0.785178 0.312942 0.552401 -0.045527 -0.598819
gr@@ 0.234073 -0.021652 -0.108389 0.452279 0.649552 -0.346779 0.595823 0.086950 -0.731979 -0.230485 -0.439027 0.877732 0.387380 0.853302 -0.027822 -0.856630 -1.548338 -0.462990 -0.109052 0.939187 0.365544 0.665372 -0.232175 0.031701 -0.450148 -1.163367 0.521318 0.566804 0.269629 -0.348087 0.465118 0.078956 0.727182 0.051923 0.128174 0.725723 0.096185 0.402112 -0.007188 -0.627489 0.516707 -0.579009 -0.303853 0.123648 0.431199 -0.214850 0.445497 0.179037 0.570884 -0.010257 -0.103482 0.133246 -1.022857 0.837036 0.395363 -0.333655 -0.063636 1.127700 0.004788 -0.131088 0.431940 0.132204 -0.677844 -0.465551
tr@@ 0.042952 0.298219 0.912914 -0.241142 -0.644003 0.617005 -0.042366 -0.481054 0.046444 0.463742 0.153886 0.683467 -0.934155 -0.011275 -0.483222 0.523058 -0.923618 -0.120296 0.193035 0.211978 0.175957 -0.446051 -0.078426 0.384268 -0.061766 0.412440 -0.421444 -0.451230 0.370210 1.109293 -0.008022 -0.117269 0.496524 0.005152 0.761648 -0.529076 1.342129 0.335413 0.410627 -0.344170 -0.416485 -0.639281 -0.406969 -0.543984 -1.087427 0.238836 0.417456 0.389794 -0.892462 1.653506 -0.158599 -0.136281 -0.261458 0.186291 -1.151838 0.025174 -0.698856 0.164624 -0.552622 -0.017793 -0.354984 -0.709704 0.000689 0.845146
tu@@ -0.785554 0.387054 0.201208 0.012271 0.237387 0.078408 -0.251333 0.001400 -0.753284 -0.463280 0.072189 -0.857237 -0.712209 -0.013623 0.033107 -0.001616 0.069173 -0.005914 -0.085257 -0.251505 0.305653 0.228733 0.632408 -0.065491 0.089192 0.450667 -0.686421 0.008216 -0.489004 0.013623 -0.726327 0.041073 -0.098183 -0.203127 -0.455357 -0.303805 -0.399133 -0.017282 -0.443206 0.472399 -0.022952 0.257902 0.118867 0.101562 0.295780 -0.134112 0.193924 -0.287523 -0.021478 -0.562865 0.371376 -0.209407 0.247520 0.112984 0.324544 0.218914 -0.389854 -0.464025 0.008839 -0.370525 0.718140 0.329540 0.241638 -0.089483
nada -1.040729 -0.077875 0.190428 0.457130 0.065807 -0.135731 0.323895 -0.528841 -0.011244 -0.416532 -0.095096 0.093878 -0.490938 0.075895 -0.524305 -0.073131 -0.057961 0.440209 0.505982 -0.308261 0.426613 0.342641 0.036004 -0.304769 0.078550 0.834020 0.355280 -0.033225 -0.819410 0.233766 -0.021751 0.319137 -0.524265 -0.277327 0.048320 -0.003597 -0.219385 -0.274139 -0.355724 -0.645304 -0.423380 0.109889 0.326335 -0.074461 0.438430 -0.512812 -0.832333 -0.423683 -0.540912 -1.005776 -0.278091 -0.029780 0.009209 -0.696428 -0.806007 0.370032 -0.470341 -0.200737 -0.100906 -0.041804 -0.371697 0.932624 0.424741 -0.428431
est@@ 0.074351 -0.781273 -0.146146 0.165515 -0.137629 -0.466558 0.439342 -0.362225 0.380313 -0.898031 0.272929 0.140254 0.744847 0.152406 -0.310501 0.046383 -0.173170 -0.032927 -0.678185 0.379141 1.150016 -1.005186 0.644395 1.117056 -0.304666 -0.478723 0.048910 -0.178410 0.298121 -0.222379 0.449756 0.332007 -0.024109 -1.108680 0.050583 -0.349963 -0.081002 0.067126 -0.833847 0.144665 -0.009010 -0.881410 -0.815024 0.292277 0.686042 -0.426487 0.386679 0.531852 0.675673 0.582644 -0.995574 0.206726 0.841072 0.772802 -0.026152 0.783800 -0.623833 0.253952 0.532207 -0.719235 0.192213 0.205585 -0.199136 -0.056788
algo 1.013883 -0.408541 -0.876948 0.400723 -0.318289 0.485624 -0.382594 -0.513068 0.770299 0.596890 -0.338100 0.178417 0.593855 1.032838 0.119589 -0.190397 -0.310379 -0.673603 -0.944644 0.421906 1.074156 -0.181422 0.283138 0.471842 0.698883 0.654911 -0.425122 -0.201286 -0.175599 0.252111 0.587894 0.098031 0.982745 0.083724 -0.736821 -0.415146 -0.485175 0.234943 0.058639 0.385376 0.811912 0.447714 -0.187475 -0.369769 -0.856638 -0.224993 0.131310 0.059724 -0.808132 -0.348897 -0.292581 1.205890 0.242791 0.721207 0.195613 0.616164 -0.045096 -0.648047 0.022367 -0.452178 0.237934 -0.876314 0.329349 0.253443
gu@@ 1.091741 0.175902 0.300666 0.216760 -0.854172 0.353844 -0.172274 0.615788 0.623955 1.005676 0.364117 0.727063 1.161549 -0.601252 -0.716536 -0.041800 -0.619085 -0.108478 -0.133561 0.699783 -0.267204 -1.121541 -0.135494 0.631935 0.391164 -0.243342 0.419769 -0.745666 0.760987 -1.171405 0.242046 0.372734 0.180607 -0.269637 -0.354786 -0.136245 -0.065633 0.839413 0.332875 -0.679774 -0.775688 -1.454902 0.025762 -0.132013 -0.105372 -0.387801 0.180414 -0.470115 0.701141 1.219011 0.046569 -0.318379 -0.497188 0.385771 -0.118617 -0.137108 -0.049882 0.533103 0.163551 -0.285121 -0.181017 0.535203 -0.379110 -0.343215
tos -0.357157 -0.035984 0.303337 0.041687 0.135807 -0.065325 0.342310 0.319122 -0.555696 -0.232620 -0.099138 -0.436517 -0.448097 -0.268778 -0.012349 0.542359 0.514743 0.116099 0.539100 -0.185557 -0.428552 -0.265388 0.160307 -0.235118 -0.135776 0.117120 -0.032823 -0.042687 -0.172953 -0.249195 -0.563332 0.003748 -0.255914 -0.152393 0.376482 0.177509 -0.200689 0.248331 -0.258395 0.198709 -0.205135 -0.053600 0.587436 -0.190596 0.146097 -0.382609 -0.071789 -0.292499 0.245747 0.396676 0.581848 -0.643471 -0.043303 -0.339435 0.228991 0.335155 -0.196653 0.376821 -0.033621 0.230138 0.236701 0.200869 0.213341 0.007466
pi@@ -0.219278 0.036479 0.094038 -0.230860 0.093334 0.310949 -0.037275 0.559338 0.129323 1.063771 0.221921 -0.686718 -0.380574 -0.710871 -0.010994 0.300663 0.233804 0.775517 -0.373381 -0.133756 -1.089653 0.080118 -0.047755 -0.956161 -0.201756 0.044422 -0.399461 -0.332344 0.029523 -0.145784 -0.720007 0.250965 -0.514132 -0.365640 -0.441183 -0.186686 -0.991362 -0.173988 0.744088 0.724778 -0.952437 -0.730479 -0.112691 -0.311258 -0.065661 -0.001330 0.108244 -0.236208 0.182901 -0.040536 0.670128 -0.618721 -0.212292 -1.237218 0.284458 0.380471 -0.082219 -0.709284 0.395419 0.309589 0.433052 -0.082135 0.430864 -0.552193
é 0.004315 0.349993 0.362555 0.065872 -0.142690 0.058813 -0.005550 0.461111 -0.220379 -0.404018 0.281491 -0.013781 -0.415652 0.192747 -0.628008 0.308158 0.487348 -0.439564 0.173976 0.238742 -0.048896 0.114695 0.190971 0.285827 0.002245 0.164572 -0.011747 -0.309276 -0.188841 -0.014310 -0.421245 0.078100 -0.469736 -0.289406 0.218236 -0.351395 -0.122763 -0.177065 -0.651378 -0.036582 -0.229347 0.049668 0.300585 0.356150 0.330696 -0.663396 0.036070 -0.159619 -0.106038 0.329803 0.205937 -0.099817 0.087603 -0.155709 0.119090 -0.388335 -0.244769 0.555130 0.230639 -0.302392 0.320582 0.513676 0.153961 -0.049357
ese -0.403792 0.491841 -0.755516 0.067915 -0.513600 -0.052275 -0.248026 0.351288 -0.388828 0.098807 0.582738 -1.173038 -1.273127 -0.317777 -0.422677 0.229260 0.851897 -0.438333 -0.728121 -0.301597 0.440455 0.049189 1.294794 0.489144 0.375108 -0.000929 -0.277023 0.130641 -0.310775 -0.112885 -0.908829 0.166439 0.185209 -0.625514 0.159821 -0.321220 0.398550 1.004923 -0.565395 0.041553 -0.381636 0.469158 -0.304615 0.052792 0.583933 -0.300454 -0.120437 0.626825 -0.068431 0.423544 0.559717 -0.717890 1.218488 1.120892 -0.367876 0.161264 -0.641618 0.241055 -0.695163 -0.102771 -0.166854 -0.181873 0.216034 0.408188
ad@@ 0.675698 0.698509 1.194401 -0.923207 1.235462 -0.389337 -0.238941 -0.442701 -0.652462 -1.002008 -0.086873 0.162469 0.422554 0.857909 -0.351400 -0.359028 -1.084146 -0.668344 0.400091 0.691449 0.281489 0.882988 0.093188 0.909756 0.192475 0.340072 -0.492791 0.312928 0.134187 0.375999 0.074025 0.155048 0.583852 0.698916 0.243073 0.078187 0.768215 -0.021424 0.268293 -0.917507 0.506604 1.059230 -0.850393 0.633671 -0.348555 0.444977 0.341222 0.052275 -0.759534 0.444199 0.092570 1.077368 -0.539722 0.693857 -0.467639 -0.815717 -0.060565 0.294292 0.154198 -0.686458 0.507892 0.131598 -0.679869 0.731973
li@@ 0.385299 -0.877031 -1.019345 -0.008043 -0.702226 -0.657685 0.988956 -0.337964 0.460804 0.437962 0.074662 0.351876 1.283890 0.400061 0.431221 0.210111 -0.358046 -0.044088 0.413274 0.418141 0.591882 0.337336 -0.693925 -0.451657 0.030353 -0.240654 1.096264 0.292756 0.772089 0.556032 1.242008 0.176990 0.379888 0.396216 0.064492 -0.518318 0.300634 -0.157686 0.884175 -0.536593 0.348342 0.807094 -0.086313 -1.308250 -0.426970 0.313958 -0.082087 0.323669 -0.658646 -0.290090 -0.866458 0.450046 0.027249 0.127228 -0.288945 -1.020391 1.159995 -0.586376 0.608698 0.338465 -0.630707 -0.869624 -0.465469 -0.429710
ic@@ 1.355010 -0.754483 -0.171641 -0.528943 0.132287 -0.762664 0.519439 0.226758 -0.648101 -0.211181 -0.185683 -0.382963 0.768697 -0.152493 -0.093626 0.421968 0.300628 -0.243269 -0.180510 1.149958 0.711856 0.304102 0.458865 -0.259448 0.189857 -0.577972 -0.274055 0.753826 0.874936 0.355058 -0.772641 -0.654676 0.376903 -1.259860 0.607464 0.462544 -0.360234 0.766753 -0.124937 -0.451265 -0.333932 -0.520976 -0.562219 0.519724 -0.828524 0.056021 1.142055 0.213961 -0.363011 0.846885 0.674857 0.617568 0.298382 -0.251601 0.380074 -0.955393 0.177069 -0.226574 0.629926 -1.111844 -0.176725 -0.431862 0.180151 0.561342
ten@@ -0.579364 0.316956 -0.067742 -0.134536 -0.368859 0.064893 0.172192 0.240275 -0.819270 -0.134477 0.453880 -0.651325 0.041505 0.267482 -0.188771 0.230758 0.057116 -0.431998 -0.376026 -0.006268 0.117395 -0.350696 1.235278 -0.338731 -0.280275 0.127206 -0.412153 0.071114 -0.627027 -0.141158 -0.060423 0.441964 0.227957 -1.014034 0.114401 -0.081986 0.802474 0.315096 -0.260767 -0.102525 1.146080 0.070863 -0.143636 0.535742 0.746038 -0.898990 -0.136842 0.270547 0.540109 -0.085542 0.593799 -0.361070 -0.141612 -0.172219 -0.191678 -0.019350 -0.355891 0.784793 -0.684757 0.410935 0.247694 -0.219376 0.015428 0.102489
el@@ -0.011315 0.985854 0.822986 -0.649626 -0.014938 0.418079 0.260094 0.750755 -0.256421 -0.185543 0.178926 1.248174 -0.114316 -0.625239 -0.409756 0.326167 0.601091 0.562209 0.416374 0.753550 -0.915611 -0.523365 -0.249248 -0.151089 0.405310 -0.065546 -1.154727 -0.228432 -0.514042 -0.203555 -0.677800 -0.523557 -0.331861 0.816300 0.109658 0.205902 0.162423 0.355647 0.261003 -0.052205 0.539388 -0.122261 -0.331237 0.117540 -0.583516 -0.634650 0.573069 -0.413586 1.206201 0.613065 0.426627 -0.622612 -0.830266 0.508490 0.038332 -0.913132 -0.295936 -0.189323 -0.529178 0.781120 0.075816 0.457613 -0.123513 0.118438
hace 0.399853 0.360996 -0.151762 0.553002 0.028848 -0.053692 -0.018498 -0.287476 -0.344996 -1.312352 0.445190 -1.227171 -0.116306 0.784976 0.375289 0.256454 -0.285142 -0.874475 -0.116342 -0.055340 -0.211891 0.067021 0.759534 0.605153 0.541461 0.934259 -0.574447 0.302864 -0.416435 -0.120115 -0.020210 -0.101383 -0.023440 -0.235925 1.048269 -0.043821 -0.381980 0.295082 -0.734178 -0.192498 -0.183488 -0.683889 0.388890 0.684093 0.510405 0.030411 0.024893 -0.060852 -0.443686 -0.333145 0.340050 -0.397195 0.956646 -0.218420 -0.453864 0.728493 -0.696045 -0.325378 0.157138 -0.606943 0.147474 0.555470 0.164107 -0.082541
están 0.414951 -0.143012 0.262722 0.251705 -0.359985 -0.005389 -0.916514 -0.762978 -0.309596 0.124775 -0.339078 -0.201304 -0.101724 -0.639781 0.407186 0.289177 -0.285241 -0.019818 -0.740529 -0.224934 0.970951 0.661388 0.268784 -1.413522 0.240067 -0.198380 -0.536006 0.223803 0.143999 0.990081 -0.406380 -0.233836 0.773468 -0.043816 -0.209324 0.653471 0.840641 -0.571241 0.447689 0.819383 0.471231 0.497352 -0.476352 -0.562332 -0.832539 1.150222 0.530273 -0.256084 0.354763 0.169958 -0.128770 0.734060 0.384541 -0.262238 -0.201520 0.092046 -0.225001 -0.953316 0.290370 -0.717167 0.167702 -1.060552 0.515033 0.615566
s 0.093837 0.174713 0.230535 0.281170 -1.062593 -0.243674 -0.130270 0.407618 0.579860 -0.471912 0.148108 0.734562 -0.440432 -0.652941 -0.212196 0.186775 0.570889 0.491779 -0.306631 -0.840581 -0.002728 -0.687168 0.247399 0.452737 0.185718 0.265081 -0.286085 -0.605623 0.021650 -0.027723 1.056704 -0.206181 0.498116 -0.354260 0.094570 0.013643 0.841745 0.480245 -0.406200 0.312190 0.215380 0.187555 -0.103858 0.026491 -0.352417 -0.307862 -0.494231 0.167347 -0.221944 -0.026016 -0.294392 -0.614440 0.168490 0.283276 -0.143139 0.198116 0.382760 0.451645 -0.917228 1.286709 0.710852 -0.116638 -0.830292 -0.395362
am@@ -0.025630 -0.183279 -0.009471 1.023719 -0.683843 0.060946 -0.572520 0.171794 1.179210 0.513922 0.404916 0.309232 0.352694 -0.558522 0.229199 -0.805660 -1.024317 -0.564137 -0.657837 -0.257524 -0.114759 -0.998360 -0.090081 0.406514 -0.472578 0.540860 -0.600578 -0.417762 0.428816 -0.088554 0.922003 0.116132 0.680994 -0.519573 -0.563629 -0.610986 -0.107411 0.165780 -0.518362 -0.267871 -0.515881 -0.946159 -0.284987 0.021238 0.221964 -0.376887 -0.161642 0.144941 0.320221 0.004444 -0.754446 1.018583 0.604333 0.710370 -0.033412 0.618004 -0.066078 0.211018 -0.788762 -0.472456 0.545017 0.342545 -0.287985 -0.575567
tan -0.904780 0.515579 0.141228 -0.345734 0.269492 0.167072 -0.442482 -0.235311 -0.411759 -0.057939 -0.081305 -0.291317 -0.470670 0.441913 -0.043062 -0.393562 -0.037401 -0.154487 -0.213060 -0.497885 0.677209 0.513444 0.799621 0.787934 0.440266 0.860281 -0.879602 -0.201254 -0.914476 0.231581 -0.591684 0.254002 -0.112836 -0.087848 -0.601540 -0.276489 -0.332586 0.043388 0.044400 0.610982 0.764269 0.327805 0.068359 -0.246816 0.153161 -0.471618 -0.398222 0.392549 -0.560625 -0.239830 0.098844 0.100622 0.732066 0.148274 0.098239 0.323604 -0.375509 -0.492761 -0.100909 -0.076491 0.211962 0.188175 0.317648 0.066171
or 0.629110 0.188522 0.963243 -0.589231 0.612131 0.302719 -0.377731 0.297461 -0.301643 0.456822 -0.765880 0.952600 0.603823 -0.233249 0.078280 -0.627227 -0.117574 0.000405 0.794417 1.158744 0.063873 -0.582297 -0.295254 0.240994 0.601018 0.559958 -0.491089 0.666232 0.375294 0.186220 0.624380 0.270595 0.147830 0.886768 -0.096314 -0.003584 -0.511548 -0.720402 0.802748 -0.641756 0.495272 0.459514 -0.326502 -0.471026 0.013295 0.790262 0.668733 -1.080374 -0.140312 -0.137079 0.782124 0.432281 -0.617477 0.786529 0.337458 -0.029196 0.336514 0.078087 -0.136247 -0.430165 0.094694 -0.465336 -0.439789 0.038363
soy -0.774447 0.427836 0.545155 -0.014901 -0.099766 0.477961 -0.039365 0.549934 -0.152613 -0.145464 0.426491 -0.319604 -0.269606 0.067026 -0.169780 -0.129156 0.414691 -0.297571 0.115615 -0.553870 -0.323996 -0.303321 0.206500 0.020425 -0.126279 0.274603 0.168715 -0.023591 -0.435016 -0.538466 -0.151038 0.089572 -0.475265 -0.388823 -0.123211 -0.168751 0.416265 0.222762 -0.443261 -0.106298 0.275437 -0.174488 0.380872 0.162399 0.298154 -0.254160 -0.069726 -0.291203 0.640852 -0.065495 0.429128 -0.866174 -0.049479 -0.083733 0.283369 0.277824 -0.408690 0.479352 -0.262719 0.409755 -0.109699 0.552752 -0.160584 -0.339939
okay -0.031177 0.371923 0.049206 0.035131 0.117828 0.045099 0.020080 0.024660 -0.177194 -0.045096 0.172758 -0.491846 -0.396742 -0.260713 0.127157 -0.051427 0.424273 -0.051646 0.027372 -0.132197 0.125971 -0.132054 0.275908 -0.221229 0.322818 0.227710 -0.624376 -0.396701 -0.195549 -0.674037 -0.379665 -0.111333 0.008621 0.020317 0.195754 0.258175 -0.046461 0.089927 -0.258113 0.102047 -0.468082 0.159695 0.237757 -0.200151 -0.076600 -0.312223 0.174495 -0.189379 -0.010508 -0.187248 0.321204 -0.444121 0.381935 -0.125279 0.540380 0.380965 -0.072963 0.105938 -0.037514 0.000265 0.240080 0.266347 0.313546 -0.082939
go 0.546875 0.148208 0.271954 -0.070086 -0.532314 -0.032756 -0.027883 -0.577372 0.301771 -0.079944 0.967244 -0.529386 0.077232 1.155113 -0.500805 -0.637576 -0.494228 -1.111848 -1.134062 -0.265794 1.396024 -0.215538 0.291911 0.934737 0.534346 0.970536 0.264953 -0.131359 -0.022415 0.164289 1.006080 0.481826 0.634685 0.284372 -0.278114 -0.429154 -0.018138 -0.112031 -0.347167 -0.241787 0.062478 0.915823 -0.420446 0.618997 -0.121557 -0.072026 -0.224234 1.119965 -0.981847 -0.690487 -0.677814 0.495817 -0.140929 0.207876 -0.458086 -0.408159 -0.137666 0.474838 0.029554 -0.443065 0.503509 0.269947 -0.073544 -0.327962
he -0.070852 0.329215 0.141274 -0.251520 0.351702 -0.072788 -0.293661 0.355547 -0.857707 -0.273786 0.121093 -0.459325 -0.164311 0.045268 0.113596 -0.042935 0.032620 0.132672 0.598866 0.069973 -0.385722 -0.177313 0.038815 0.077189 0.061361 0.105856 -0.073874 0.056076 -0.116038 -0.452084 -0.576431 -0.358818 -0.522726 -0.340396 0.507105 0.077443 -0.238419 0.381854 -0.781071 0.100342 -0.580107 -0.550552 0.250488 0.120437 0.053554 -0.263144 -0.031571 -0.344640 0.244805 0.274248 0.354788 -0.382382 0.058456 -0.540660 0.314380 0.358476 -0.337688 0.686997 -0.357937 -0.246421 0.119926 0.639708 0.027597 0.061691
