<unk> -0.018805 0.084158 0.087417 0.078533 0.088791 0.002797 -0.060276 -0.062582 0.074849 0.062648 0.007652 0.003904 0.058033 -0.074984 0.009225 0.061598 -0.078106 0.078242 0.070917 0.035071 0.074401 -0.037861 -0.035455 -0.046985 0.031307 0.061243 -0.052172 0.041332 -0.026672 0.032790 0.077464 -0.027245 -0.095682 -0.059744 0.035545 -0.055762 0.094016 0.087828 0.013303 -0.061975 0.010933 0.067446 -0.047881 0.050823 -0.011698 -0.007074 -0.027052 0.020052 0.042139 0.034233 -0.005787 -0.038850 -0.034370 0.072684 0.072185 -0.053207 -0.033366 -0.026163 -0.009050 0.064528 -0.004079 -0.009644 -0.007949 0.030840
<blank> 0.024199 0.022394 0.055907 -0.090772 0.085042 -0.053011 0.062602 0.078916 0.063234 -0.007752 -0.047768 -0.031892 0.022755 0.021110 -0.088183 0.071487 -0.054247 -0.096855 -0.007718 0.055396 0.015540 0.085745 -0.047293 -0.016004 -0.040131 0.070265 -0.027239 -0.042136 0.073477 -0.064998 -0.082737 -0.003927 0.056074 -0.043435 0.003250 -0.023616 0.034962 -0.003895 0.079064 -0.021434 -0.074757 0.009453 -0.003692 -0.012585 0.043542 0.009903 0.043419 0.064130 -0.060727 0.009074 -0.063104 -0.018624 -0.075414 0.062193 -0.089071 -0.055234 -0.076382 -0.029244 0.060674 0.033692 0.026134 0.032823 -0.044998 -0.090464
que -0.188063 -0.027819 0.865597 0.595007 0.734932 0.275977 -0.104244 -0.316652 0.105712 0.258976 -0.213475 -0.603210 -0.294297 0.047998 0.317158 -0.172383 -0.185826 0.030054 0.212797 -0.242264 -0.350757 -0.339913 -0.310018 -0.711987 0.192900 -0.536444 0.158613 -0.104122 0.277081 -0.517690 0.011311 -0.169268 -0.449576 -0.316108 0.060757 0.173292 0.485701 0.174569 0.010065 0.338349 0.109170 0.324510 -0.086765 0.509827 0.500917 -0.525283 -0.489830 -0.250860 -0.189213 0.515036 0.067241 0.052342 0.078951 0.070604 0.085586 -0.193911 0.337192 -0.005972 -0.316350 -0.169939 -0.474952 -0.072169 -0.249220 -0.023639
no -0.017424 -0.079199 0.067898 0.020610 -0.070593 0.007183 -0.054429 -0.004476 0.071186 0.029565 0.081896 -0.018653 0.030380 0.053946 -0.091681 0.007893 -0.044372 -0.049174 0.092043 -0.054659 0.084528 0.076077 0.075025 -0.079841 0.085497 -0.078597 0.043004 -0.037857 0.098947 0.038172 0.039496 0.013304 -0.093511 -0.074421 0.051981 -0.008622 0.076594 -0.031969 -0.068797 -0.033934 -0.099988 -0.093104 -0.062857 -0.048001 0.096956 -0.098260 -0.012982 -0.069278 -0.029777 -0.043823 0.017218 0.098846 -0.012758 -0.084355 -0.027934 -0.087741 -0.030238 -0.075623 0.099186 -0.084249 0.019049 0.084254 -0.081488 0.084280
y -0.660470 -1.039265 -0.039929 -0.048503 -0.861923 0.997150 0.971246 0.237699 0.894486 0.975185 0.719380 0.255185 -0.123108 -0.641779 0.001468 0.204544 0.083255 0.066963 -0.747900 -0.644801 -0.736627 -0.389784 0.276587 -0.797637 -0.559944 -0.117927 0.224782 -0.791593 0.004867 -0.440085 -0.457588 0.471391 -0.355787 -0.099311 -0.649005 -0.471483 -0.229347 -0.374983 -0.042061 -0.275930 -0.248938 -0.142372 0.694758 -0.467669 -0.281936 0.348511 -0.301588 -0.542959 0.529504 0.321147 0.324831 -0.656142 0.527907 -1.298157 0.055280 0.373897 0.994059 -0.293330 0.240124 0.663473 0.343534 0.773939 -0.323149 -1.152853
sí 0.206266 -0.151291 -0.308051 0.021787 0.021092 0.282261 0.669068 0.173635 -0.194563 -0.669143 -0.238768 -0.759578 -0.830412 -0.583883 0.105714 1.000173 0.152095 0.062258 0.700861 -0.263700 -0.848940 0.064747 -0.596601 -0.188755 -0.390171 0.339549 -0.226270 0.235741 0.183328 -0.138014 -0.564509 -0.030625 -0.708435 -0.442104 0.975811 -0.669995 -0.090340 0.725712 -0.538327 -0.078578 -1.324526 -0.427840 0.899530 -0.023332 0.587493 0.502005 0.290952 -0.685459 0.271092 0.431237 0.294644 -0.401528 0.276180 -0.367016 0.710808 -0.591992 -0.301040 -0.149758 0.648840 -0.354550 0.368305 0.861994 -0.144241 -0.244621
de -0.473831 0.394937 0.519427 0.447427 0.171091 0.144374 0.160703 0.887228 -0.043369 0.016475 0.681501 -0.048007 -0.564079 -0.187684 0.248544 -0.911388 0.540834 0.144503 -0.080753 -0.310679 -0.797512 0.362840 -0.547903 -0.513177 -0.394320 0.045224 -0.599740 0.027122 -0.649414 -0.787276 -0.418762 0.357081 -0.214380 -0.116483 -0.752926 0.377382 0.288375 0.209331 -0.474634 -0.030718 -0.408358 0.381736 0.532756 0.783706 0.143543 -0.688246 -0.146931 -0.335614 0.734553 -0.940122 -0.087854 -0.911762 -0.852555 -0.513671 1.019772 -1.029516 -0.135331 0.053274 -0.641297 0.250008 0.335574 0.645817 0.444175 -0.489542
a -0.439442 0.885596 -0.194374 -0.564197 0.049250 0.087480 0.000218 -0.045633 -0.530177 -0.030002 0.639035 -0.964823 -0.399846 0.589937 0.431323 -0.198874 -0.159611 -1.048960 -0.217796 -0.694439 -0.756244 -0.641341 -0.029588 -0.482847 -1.469604 0.361577 -0.306988 0.149332 -1.119467 0.162527 -0.134324 0.571219 -0.519621 -0.881454 -0.240581 0.441200 1.205820 0.734879 -0.524641 -0.405774 0.268386 0.483882 0.111873 0.552737 0.215068 -0.265033 0.234774 0.226519 0.117722 -0.144720 0.668714 -0.475700 1.135859 0.033798 -0.169488 0.214732 -0.421532 0.950669 -0.255855 0.458804 -0.178729 -0.285381 -0.303236 0.213766
es 0.047321 -0.428018 -0.049684 -0.721870 -0.429295 1.533303 0.181480 1.190080 0.706774 -0.642238 -0.504633 0.390177 -0.829152 -0.351396 -0.069017 1.075270 -0.363284 0.296146 0.733737 0.224739 -0.464294 -0.467571 -0.142890 -0.325333 -0.123014 0.166912 0.515423 0.641380 -0.716021 -0.133769 -0.031365 0.396668 -0.664445 -0.247191 0.606920 0.465595 -0.242208 0.526385 0.158537 -0.119481 0.296305 0.577775 0.121513 -0.452304 -0.290644 0.807001 -0.358297 -0.830921 -0.367384 0.996391 0.596211 -1.166347 0.476531 -0.350271 0.040544 0.135719 -0.054521 -0.233619 -0.067376 0.605068 -0.849409 -0.016313 0.874672 0.411642
en -0.367259 -0.583354 -0.092160 0.312855 0.005232 -0.947933 -0.230248 0.277555 0.307885 0.619987 -0.237496 -1.226312 -0.164934 0.036314 0.249504 -0.256566 0.639345 0.266385 0.051532 0.014583 -0.599886 -0.115345 1.011446 -0.304574 0.184850 -0.309636 0.377345 0.046690 -0.536130 -0.516612 -0.176180 0.174269 -0.278845 0.063062 0.084019 0.305084 0.091992 1.054348 -0.540940 -0.213449 -0.710727 -0.438487 0.059168 -0.486364 0.487092 -0.530924 0.090444 -0.016208 -0.190989 -0.040784 0.463141 -1.784154 0.862013 -0.657859 1.105580 0.815313 0.028948 -0.190331 0.393044 -0.414055 0.008565 0.318083 0.153225 0.153038
la 0.386651 0.256900 -0.258854 0.412377 0.715383 -0.343150 -0.679651 0.151130 -0.286067 -0.141892 0.082743 0.813097 0.970726 -1.124816 0.294215 -0.474543 -0.445101 -0.056608 -0.032077 0.135400 -0.234024 0.518559 -0.033458 -0.968615 -0.044672 0.239576 0.373358 0.976442 0.166353 -0.754809 -0.495430 -0.379289 -0.775260 0.722149 -0.495670 0.357278 -0.493347 -0.125191 0.160877 1.245502 -0.574016 0.410612 -0.266640 0.422749 0.277227 0.728285 0.094321 -0.178480 0.560287 -0.858156 0.090427 0.132420 -0.855366 0.301042 1.156397 -0.758922 0.397841 -1.054936 0.414537 -0.477387 -0.468007 -0.649660 0.162657 0.116615
yo -0.332157 0.286965 -0.576958 0.280674 -0.457440 0.905087 0.640734 -0.273611 0.483213 0.991549 -0.109099 0.034681 -0.096009 -0.152433 0.465451 -0.151997 0.945827 0.354772 -0.339259 -1.392938 0.103941 -0.070222 0.349570 -0.332562 -0.019337 0.414403 0.600635 -0.390446 -0.070871 -0.116582 -0.271014 1.079240 -0.145223 0.383720 -0.495225 -0.184905 -0.070272 0.130745 0.250575 0.596524 0.345600 0.395244 0.105428 -0.659691 -0.300358 0.060583 -0.046335 -0.778990 -0.109188 0.080147 0.050535 -0.629885 1.216234 -0.406131 -0.073161 0.956974 0.223454 -0.786413 -0.148911 -0.460202 0.442121 -0.224816 0.440793 -0.692019
el 0.751249 -0.135269 0.568800 0.323191 0.383483 -0.012421 0.453220 0.637992 -0.552285 -0.824192 0.308887 0.440960 0.625592 0.277269 -0.592294 -0.824430 0.048518 -0.381552 -0.246351 0.380366 -0.793285 0.797052 -1.065309 0.021908 0.195385 0.143297 0.384270 1.386525 0.146020 0.388399 0.311851 -0.674974 -0.581439 -0.106155 0.292811 -0.598466 0.573541 0.045052 -0.667582 -0.052135 0.192765 -0.253525 -1.590297 0.939486 0.870873 -0.310620 -0.401081 0.156627 0.058249 0.706647 0.168788 0.155629 -0.882585 0.357269 0.035969 -0.734328 -0.398348 0.511602 -0.134687 -0.278219 -0.628752 0.177772 0.357388 0.860023
o 0.255398 -0.666696 0.375703 -0.231818 0.469540 -1.402685 0.524820 0.285769 0.615861 0.158762 0.458868 1.023684 0.424802 -0.206683 -0.640316 -0.360353 0.051620 0.480243 0.329975 0.452556 -0.710386 0.237794 -0.706055 -0.425395 0.014402 0.168755 0.028357 0.295991 0.945070 -0.004954 0.544801 0.060419 0.441045 0.392499 0.445356 0.226180 0.373399 0.162797 0.469845 -0.252590 -1.032918 0.647201 0.195236 0.707657 -0.323768 -0.285613 -0.419634 0.019518 -0.636158 0.052623 -1.315743 1.468704 -0.444674 -0.118665 0.318902 -0.830518 -0.158049 0.583611 1.400558 -0.882001 -0.487312 0.766801 0.077691 -0.623011
lo 0.495392 -1.076248 -0.824149 0.101425 0.576491 0.149492 0.023009 -0.268457 0.605877 0.887683 0.105909 0.437712 -0.116003 -0.491177 0.676928 -0.309296 0.647573 -0.240298 0.444319 -0.456473 -0.672117 0.510974 -0.969349 -1.846249 -0.542086 -0.753174 0.135392 0.060926 0.018857 0.615468 0.140420 -0.569565 0.357838 -0.254293 0.582252 0.625152 -0.781006 0.250621 0.597577 0.673838 -0.654882 -0.918345 0.610401 -0.355051 0.087395 0.358075 -0.141254 0.137658 0.061373 -0.305105 -0.808426 -0.014108 -0.696009 -0.647779 0.758237 -0.545628 1.024473 -0.932397 0.556485 0.626365 -0.431084 -0.065659 -0.118076 -0.473815
pero -1.048060 0.007212 0.330052 0.222891 0.099717 -0.423741 0.325824 0.173693 0.546287 0.120906 -0.600542 -0.019421 -0.013835 -0.309413 -0.567643 0.305877 0.337193 0.162790 0.342350 -0.778893 -0.747616 -0.385241 -0.152096 0.416767 -0.229785 0.205476 -0.061820 0.171063 -0.410824 0.661977 -0.207722 -0.840404 -0.223088 0.044056 0.536818 -0.449570 0.732446 -0.527834 0.048694 0.708916 1.292197 0.592429 1.328731 -0.216394 -0.399906 -0.094673 0.572568 0.289858 -0.470609 0.072932 -0.344941 -0.824213 0.233398 -0.644614 0.337052 -0.040508 0.705701 -0.340423 -0.461388 1.182069 0.522434 -0.997899 -0.015722 -0.218127
me -0.146300 -0.470070 -0.428922 -0.971151 1.074440 -0.191313 0.559648 0.406411 -0.987637 0.023879 -1.096399 -0.393755 0.431523 1.223946 0.332782 0.277744 0.211916 -0.291447 0.749766 0.362471 -0.360928 0.545068 -0.223837 -0.690208 -0.217345 -0.312215 0.684932 -0.279148 0.362097 -0.008551 0.150862 -0.416770 -0.556235 0.241893 -0.089520 0.556217 -0.127067 -0.090305 0.061591 0.164434 -0.165818 -0.071296 -0.215633 0.102095 -0.084941 0.508137 0.553970 -0.532356 -0.197770 -0.215209 -0.502054 0.476523 -1.194185 -0.305930 0.307442 -1.662493 0.713896 0.538497 1.041033 0.066039 -0.673339 -0.642784 0.484183 0.737182
ah 0.400191 -1.182382 -0.121555 -0.537871 -0.813606 0.333861 0.133994 0.449406 0.072952 1.152346 -0.672002 -0.174297 0.720242 -0.350210 0.627431 -0.168153 0.170824 0.377881 -0.544154 0.145632 -0.020422 -0.661956 -0.411153 -0.734892 0.150246 -1.173617 0.683204 0.625897 0.072566 -0.233833 0.313149 0.281257 0.148555 -0.724821 -0.159268 0.328270 -0.102903 0.165954 0.803947 0.845716 0.354296 0.332554 -0.373502 -0.008405 -0.348153 0.295557 -0.048123 0.072379 0.127853 -1.094701 0.302155 0.032106 -0.262709 0.125116 1.485279 -0.308662 1.340193 -0.101608 0.143089 0.089798 0.557266 -0.767285 -0.188953 0.104497
se -0.570090 0.007323 0.499737 0.032877 -0.775467 -0.092584 -0.935433 -0.160874 0.299756 0.459503 -1.239692 0.063290 0.595297 0.973109 -0.601005 -0.424055 -0.313600 0.771409 0.731248 -0.260476 -0.322720 -0.298163 -0.378905 0.470160 0.079741 -1.026953 0.961129 0.616202 -0.321407 1.233809 0.382059 -0.085407 -0.051429 0.264850 0.702493 0.601607 0.188886 -0.287141 -0.039905 0.000695 0.179231 -0.050705 0.786599 -0.111929 0.427881 0.012839 -0.251242 -0.213856 0.266360 0.419597 -0.719900 0.695349 -1.314432 -0.438627 -0.714796 -0.673201 -0.832625 0.180152 0.757329 0.399801 0.101888 0.551407 -1.125219 0.062984
un 0.302997 -1.139267 0.232246 0.690992 0.538383 -0.390727 -0.413824 0.130335 -0.361750 0.476587 -0.352955 -0.662726 0.541905 0.537116 0.206819 -1.173410 -0.257458 0.254981 -0.762142 -0.309811 0.510620 -0.307530 0.479039 0.420152 1.103990 -0.348583 0.437605 0.211019 0.150181 0.640754 0.495680 0.880461 -0.640574 -0.059198 -0.591899 0.159740 -0.716960 0.163479 0.468109 0.517788 0.830520 0.509933 -0.115120 -0.423012 0.397337 -0.348566 0.419881 1.636495 0.858815 -0.460033 0.140769 0.181363 0.396272 0.160225 0.329358 1.105706 0.053796 -0.705585 -0.860546 0.431294 0.238871 -0.639611 -0.112262 -0.641757
los -0.623514 0.873265 0.329135 0.284814 0.360129 0.670113 0.619036 -0.167530 -0.560046 -0.142019 0.359845 0.345774 -0.922600 0.264539 -0.644512 0.626222 0.782933 0.073571 -0.089704 -0.107692 -0.869123 0.375337 0.136603 0.453259 -1.210009 0.190268 -0.289514 0.208068 -0.562297 0.577739 -0.810300 0.008707 -0.479899 0.487933 0.997965 0.049602 0.183119 -0.727426 -0.409130 0.365791 -0.063106 0.000216 -0.017572 -0.164234 0.076364 0.217601 -0.355130 0.250799 0.656086 1.102541 0.542114 -0.848837 -0.928015 0.162345 0.139674 -0.672276 -0.106459 -0.749073 -0.267647 0.682265 -0.163816 0.245069 0.251179 0.942104
como 0.406226 -0.331156 -0.188252 0.290308 -0.260706 -0.647338 0.061749 -0.464369 1.083962 1.242724 0.155966 1.178175 0.493128 -0.425420 0.408907 -0.434735 -0.063174 -0.073684 -0.165798 0.320293 -0.205154 -0.755716 -0.212490 0.214034 0.273735 -0.423842 0.338765 -1.329587 0.197897 -0.012818 1.407812 0.580721 0.924707 0.567563 -0.583939 0.204187 0.247383 -0.064784 0.076523 0.286150 0.031529 0.728958 0.457109 0.153744 -0.440340 0.778539 0.018092 -0.171008 -0.791540 -0.710240 -0.562374 0.217231 -0.100636 0.125917 -0.285640 0.255766 0.773320 0.576880 -0.215751 -0.282042 0.255652 0.546366 -0.887323 -0.313199
por -0.339371 -0.684755 -0.734039 -0.048270 -0.064162 0.189245 -0.757292 0.001183 0.516135 0.339300 -0.258923 -0.700426 0.288721 -0.025506 0.453899 1.722215 0.125830 0.593428 -0.304832 0.752206 -0.383232 -0.057153 -0.397529 -0.967731 0.080699 -0.406900 -0.160375 0.018303 0.962926 0.053457 -0.211338 0.083197 0.077345 0.876943 -0.317231 -0.323415 -0.374273 0.584773 0.573529 -0.120103 -1.055790 -0.642053 0.096409 -0.692526 -0.958262 0.204836 0.204911 -0.040868 0.448086 0.434104 -0.211837 -0.286922 0.400736 -0.321397 -0.270428 0.041296 0.577363 -1.494927 0.793730 0.075937 -0.484915 -0.989381 0.201736 0.399346
eh -1.026499 0.066458 0.160599 0.086938 0.604513 0.446805 0.175696 0.082346 0.051259 0.351970 0.260063 -0.170747 0.239862 -0.324565 0.620828 -0.330432 0.679129 -0.102947 -0.320371 -0.438272 0.376070 -0.345463 0.500754 -0.124725 -0.471403 0.217076 0.205589 -0.214962 -1.123691 -0.092086 -0.116246 0.352250 -0.368802 -0.709260 -0.359396 -0.261679 0.584483 -0.538106 -0.182107 0.459703 0.973943 -0.643417 -0.185533 0.320919 -0.236578 -0.252520 -0.393014 -0.448984 -0.312838 -0.400834 0.317801 -0.116803 -0.120975 -0.017903 0.226966 0.811399 -0.145135 -0.075237 -0.413841 -0.016729 -0.307560 0.433264 0.044532 -0.672599
eso 0.691586 -0.380476 -0.283154 -0.466327 -0.529346 0.562346 0.419700 -0.495006 0.007526 0.678536 -0.212923 0.253420 -0.248260 0.976570 0.056585 0.442164 -0.108669 -0.093229 0.532939 0.281421 -0.786516 -0.107308 0.353431 1.362010 -0.540159 0.151764 0.839871 0.684622 0.879977 0.335692 0.673291 -0.118258 -0.776183 -0.452091 -0.415167 -0.709026 0.263670 -0.433405 0.673655 0.093364 -0.197645 -0.594640 -0.260751 0.969947 -0.024911 -1.046514 -1.098024 0.764021 0.098658 -0.115973 -0.399201 -0.652106 0.093868 -0.237413 -0.755977 -0.561998 -0.192048 -0.502644 -1.060968 0.391885 -0.512918 -0.282277 0.099664 0.339495
ya -0.663836 0.504109 0.017557 -0.021656 0.530983 0.296237 -0.042583 0.173466 -0.375892 -0.036743 0.145393 -0.579781 -0.912927 -0.181189 -0.132324 -0.212282 0.132547 -0.178997 -0.074315 -0.390745 -0.387573 0.203238 0.035183 -0.031720 0.062809 0.103157 -0.363014 0.220858 -0.455386 -0.227079 -0.212080 0.179456 -0.376814 -0.213118 -0.003553 -0.343995 0.079502 -0.082833 -0.340496 0.374192 0.099659 0.336906 0.249170 0.356235 0.068783 0.225046 0.172861 -0.854413 -0.106161 0.369864 0.470339 -0.283189 0.408744 -0.217451 0.627833 0.290029 -0.845845 0.093072 -0.274545 -0.024762 -0.037955 0.642510 0.535972 0.093624
una 1.103758 -0.546975 -1.258189 0.551547 -0.640777 0.211652 -0.128102 -1.083982 0.290806 0.707024 -0.057713 0.270459 0.248984 -0.373940 0.612075 0.596570 -0.265874 0.215482 -0.841556 0.118773 -0.082741 0.369007 -0.765896 -0.182057 0.273441 -0.716516 -0.144751 -0.129301 0.132058 1.252609 -0.380144 0.412887 1.235257 0.335852 -0.727798 -0.075389 0.519411 -0.460299 0.543079 0.638951 -0.829657 0.712157 0.395732 -0.567431 -0.212527 -0.179535 -0.000314 0.182149 -0.465708 0.330001 -0.410643 1.238171 0.761522 -0.859921 0.201523 -0.371519 0.506719 -0.495504 -0.000647 -0.791107 -0.247314 -0.785234 -0.006161 -0.121217
ajá -0.056203 0.369736 0.822552 1.208092 0.923973 0.784158 0.039175 0.270416 -0.216505 0.008167 -0.539082 0.650514 0.621621 0.106169 -0.183859 -0.067305 0.038091 0.260696 -0.490306 -0.532800 -0.076746 0.076521 -0.647897 -0.452800 -0.647155 0.223472 -0.327328 -0.102370 -1.034993 0.308208 -0.023694 0.634967 0.536660 -1.099532 0.784858 0.151776 0.393602 -0.375137 0.506706 -0.433198 -0.016345 0.082921 0.302794 0.467988 0.376835 -0.062951 -0.569185 -0.515844 -0.139445 -0.650793 0.110702 0.242362 0.600821 -0.131420 0.102990 0.344129 -0.418255 0.073171 -0.580585 0.097541 0.206669 0.143531 0.650756 0.280776
porque -0.076524 -0.254449 -0.369515 -0.854297 0.504905 0.088507 -0.820422 0.180956 -0.070371 0.791593 0.348491 -0.576002 0.023071 -0.560574 -0.292540 0.236762 0.423345 0.534564 -0.153277 -1.040717 -0.809974 -0.160277 0.485264 -0.233229 -0.230208 -0.654671 -0.352208 -0.002007 -0.661011 -0.307689 -0.551490 0.440645 -0.954605 1.667639 -0.543425 0.933366 -0.718015 0.119600 0.703926 0.225347 -0.106213 -0.130731 -0.023090 0.324072 -0.194126 -0.561563 0.446528 -0.393899 -0.458051 0.176340 0.881956 -0.347748 0.039519 -0.546290 0.867446 1.285260 -0.411373 -1.111917 -0.264446 -0.377058 0.836437 0.598342 -0.025232 -0.217538
te 0.089756 -1.562265 -0.959670 0.522522 -0.637859 1.342916 0.183701 0.255372 0.595242 0.510983 -0.731755 -0.318810 0.196680 0.054438 0.424806 0.483168 0.002043 -0.286188 -0.902023 -0.003806 -0.101439 -0.220832 0.732887 -0.469634 0.238946 0.831808 0.075021 0.914385 -0.051145 0.831790 0.771488 -0.183149 0.063309 0.038534 -0.299618 -0.258167 0.244708 -0.311630 0.050270 -1.252157 0.030522 0.053240 -0.111232 0.434051 0.906571 0.228794 0.718396 -0.460342 -0.260550 -1.097265 -1.056890 1.009432 0.273686 0.173847 0.177832 -0.443962 0.874808 0.743526 0.530748 -0.794213 -0.438390 -0.680851 0.042437 -0.041428
si -0.040233 -0.288429 0.082117 -0.238020 -0.368590 0.400930 0.233385 -0.236627 1.084658 0.845823 -0.798218 0.840884 0.197533 -0.349228 -0.649249 0.482460 0.260367 0.553248 -0.288657 0.718248 -1.184067 0.387426 -0.430691 -1.393050 0.528312 -0.017969 0.912354 -0.328216 0.122293 0.228288 -0.117728 -0.782296 0.250721 0.272838 0.055980 0.431428 0.642154 0.085659 1.252561 -0.058356 0.829365 0.015105 -0.089977 -0.065226 -0.487570 0.864002 -0.110782 -0.176403 -0.069767 -0.521534 0.591834 0.025979 -0.586144 -0.185544 0.134910 -0.938315 0.165932 0.075248 0.405828 0.029950 -1.780183 -1.164943 -0.592493 0.073342
as 0.330716 -0.184695 -0.632492 0.380667 -0.777258 -0.398962 -0.092438 -0.196081 -0.304289 0.130225 0.743680 0.175059 0.037934 0.231029 0.399547 0.179716 0.289687 0.417375 0.061056 0.470367 -0.042003 -1.179801 -0.346585 -0.050208 -0.710766 -1.110778 1.839460 -0.535156 1.123020 -0.209825 0.930014 -0.576869 0.471608 -0.663840 -0.461141 0.300333 -0.669290 0.569838 -0.167084 -0.665292 -0.589312 -0.344441 -0.027783 -0.246034 0.418906 0.123863 -0.193778 0.503626 0.472086 0.577353 -0.627300 0.846986 0.121886 0.307108 0.076189 -0.378992 1.372976 0.334507 0.358923 -0.914500 0.455572 0.717005 -0.136263 -1.070747
más 0.199615 -1.300586 -0.739936 0.039666 -0.161367 -0.501992 0.077961 -0.732971 -0.625429 -0.174089 -1.083904 -0.442827 -0.384305 0.286001 0.347906 0.657050 0.131782 0.268232 -0.341523 0.340380 0.271796 0.249497 -0.859053 -0.035738 0.167704 -1.069623 -0.266413 -0.671454 0.364188 -0.258098 -0.533395 -0.876096 -0.467892 0.234402 1.023921 0.180712 -1.002619 0.623606 0.225812 0.443800 -1.472661 -0.315427 0.544745 -0.682257 -0.050330 0.223800 -0.302464 1.286888 0.152205 0.031342 -0.717602 0.948889 0.225564 -0.066043 0.122260 -0.753291 0.497409 0.041097 0.989797 -0.470288 -0.097970 -0.521695 0.270592 -0.622424
con 0.800605 -1.231316 -0.686194 -0.303963 -0.388985 -0.338744 0.141956 -0.242607 1.928748 0.067017 0.359442 -0.469769 -0.553904 0.583644 -0.120962 0.357562 -0.166530 0.358098 0.261171 0.039719 -0.040051 -0.839389 -0.341150 0.273190 -0.061502 0.082001 0.265546 -0.223188 0.031530 -0.211625 -0.159385 0.386558 -0.139430 0.746400 -0.468292 -0.605755 -0.404907 -0.909921 -0.012883 -0.239178 -1.221821 -0.585383 -0.106354 -0.483664 -0.507176 -0.215862 -0.829387 0.451936 -0.027815 -0.705839 -0.002230 0.583020 0.969245 -0.225563 -0.409430 0.145228 0.905966 0.169927 0.203306 -0.693724 -0.303971 -0.276291 -0.571080 -0.935702
para 0.459040 1.194247 1.297590 -0.540953 0.405823 -1.021311 -0.554250 0.270905 -0.805527 -0.726563 0.148833 0.160911 0.007110 -0.404792 -0.606555 -0.163585 -0.639728 0.339342 0.926374 0.633670 0.418078 0.526117 -0.053733 1.203883 0.746299 -0.894491 0.077896 -0.613424 0.515199 -0.314366 0.458586 -0.665290 -0.697049 0.272538 0.615069 0.634999 0.065642 0.973856 0.233803 -0.052495 -0.237893 -0.458322 -0.313298 0.345910 -0.104051 1.010326 -0.010660 0.257112 -0.617083 0.087781 -0.732005 0.235217 -0.476152 0.225734 -0.330747 -0.010871 0.464436 1.285838 0.506767 0.233875 0.741731 1.356886 -0.215110 0.528052
qué -0.310252 0.455877 0.248882 0.489576 -0.126290 0.508329 -0.077605 0.377207 -0.245474 -0.036432 0.134698 0.203001 -1.058908 -0.005542 -0.121698 0.443924 0.315117 -0.018790 -0.062861 -0.593253 -0.838305 0.246463 0.102979 -0.385109 -0.179090 0.228018 -0.034884 -0.049219 -0.410876 -0.068825 -0.695575 0.369422 -0.493895 -0.144875 0.441637 -0.379012 0.270998 -0.122579 -0.497393 0.482954 -0.256417 -0.099341 0.276186 0.168109 0.251415 -0.185217 -0.175714 0.189040 0.071308 -0.155210 0.449030 -0.352965 -0.406008 -0.489120 0.087134 0.149560 -0.525599 0.525887 -0.367897 0.488779 0.262239 0.406286 0.234960 0.294908
tu -0.381556 0.031545 -0.553192 0.323058 -0.528196 0.355469 0.269630 0.797587 1.025807 0.652573 0.074918 -0.195918 0.269586 -0.700714 0.324006 0.563576 0.190708 1.173241 -0.022551 -0.918225 -0.855100 -0.279103 -0.255889 -0.483483 -1.112535 0.528106 0.087877 -0.403339 -0.588293 -0.241906 0.433413 0.788803 -0.333680 0.061962 -0.763180 0.475741 -0.697180 -0.471868 0.275839 0.166912 0.116102 -0.246466 0.816655 -0.145138 0.131750 0.197032 -0.147118 -0.357187 -0.046092 -0.632473 0.308720 -0.615093 0.300808 -0.398693 0.440360 0.597288 0.155482 -0.366699 0.058381 0.711069 0.242262 -0.095331 -0.208905 0.200987
e@@ -1.013832 0.665684 0.514192 -0.054939 0.234907 0.509449 -0.038355 0.013571 0.367017 0.069987 0.669652 0.035132 0.204906 -0.124291 0.267036 -0.522362 0.291990 -0.043658 -0.181069 -0.870337 0.209900 -0.327213 0.471712 0.071266 -0.100845 0.120160 0.306547 -0.097833 -0.966591 -0.334549 -0.097454 0.543265 0.078462 -0.652089 -0.364249 -0.837304 0.321007 0.020518 -0.272808 0.225164 0.642466 -0.618118 0.394042 0.141798 0.005380 -0.003510 -0.544685 -0.358637 -0.527914 -0.435428 0.707680 -0.151102 0.379307 0.302191 0.174187 0.893386 -0.261508 -0.342101 -0.160748 0.324755 -0.101988 0.105699 -0.050458 -0.236913
a@@ 0.492082 -0.521595 -0.559566 0.323226 0.596393 -0.887499 -0.520874 -0.569280 0.017491 0.601778 -0.819191 0.948436 0.660226 -0.101425 1.315652 0.223593 0.141068 0.242382 -0.273984 0.432944 0.176709 0.942385 0.366726 -1.511039 0.030758 -0.316403 0.104346 0.193479 0.691348 0.312003 -0.072130 -0.131378 0.625610 0.158001 -0.000836 0.020207 -1.239420 -0.636134 0.184842 0.167545 0.016529 1.116782 0.256987 -0.224470 -1.163777 0.235405 0.912468 0.466753 -1.072066 -1.072127 -0.515776 1.325462 0.110433 -0.678250 0.211098 -0.412741 0.482153 -0.653500 0.509651 -0.340532 0.218909 -0.693858 0.313478 -0.175412
e -0.072166 0.808612 0.284897 0.218742 1.225599 0.065397 0.058947 -0.169429 -0.403702 -0.355370 0.288064 -0.100664 0.195841 -0.347844 -0.519175 0.130241 0.358916 0.823968 0.331484 0.101177 0.163496 -0.048570 -0.728332 0.450332 0.161120 -0.453610 -0.780552 0.536720 -0.035792 0.701597 -0.703591 -0.448508 -0.496182 0.272069 0.528585 -0.096011 0.167249 -0.797857 -0.212683 0.042036 -0.431126 -0.488978 1.263664 0.174416 -1.073215 0.515511 -0.217521 -0.043962 -0.745713 0.349687 0.958458 -0.955451 0.260033 -0.297044 0.928436 -0.035162 -0.150169 0.416977 -0.859472 -0.409467 -0.554366 -0.662349 0.243664 0.053768
mi -0.088102 0.680896 0.673036 0.798449 1.012877 -0.832728 -0.828731 -0.165257 -1.408883 -1.052925 0.375255 -0.600969 -1.555666 0.562322 0.158821 -1.248367 -1.136071 -0.430574 0.263339 0.620067 0.362649 -0.113267 -0.540601 1.155782 0.156835 0.267661 0.342918 0.374545 0.332264 -0.241630 -0.242815 -0.589560 0.392242 -0.054085 0.117131 0.399737 0.530648 0.301458 -0.736263 -0.209135 -0.526790 -0.292287 -0.230312 0.559819 0.288231 0.312497 0.518165 0.499105 -0.170170 0.253682 -0.064971 1.086977 -0.129368 0.234204 -0.244597 -0.902881 -1.234446 0.966642 0.483496 0.074525 -0.341021 1.152475 1.178021 0.395941
bueno -0.815701 0.769194 0.717181 -0.086175 0.558673 0.094332 0.459416 0.011600 -0.530198 -1.107275 0.106822 -0.345057 -0.741047 0.592139 0.073147 -0.042183 -0.187557 -0.466202 -0.223408 -0.333702 -0.238116 -0.391046 0.652106 0.085473 0.161785 0.205308 -0.036798 0.354144 -0.793299 -0.166276 -0.279681 0.280093 -0.066688 -0.236633 -0.078028 0.065782 -0.331581 0.714765 -0.417837 -0.336665 -0.014147 0.677816 0.116605 0.820148 0.151623 -0.339513 -0.163680 0.169401 -0.195258 -0.160693 -0.097473 -0.002514 0.370011 0.630901 -0.171927 0.555559 -0.615484 -0.099950 -0.089136 0.064592 0.355023 0.079415 0.674980 0.305732
i@@ -1.143114 -0.635652 -0.513341 0.624546 -0.411302 -0.531802 -0.378221 -0.361045 0.125781 0.116093 0.026194 -1.083679 -0.817305 -0.213105 -0.259524 -0.083488 -0.700600 -0.643032 -0.615769 -1.430202 0.898892 0.179505 -0.457357 0.235132 -0.975709 -0.822793 0.841066 0.490606 0.491536 1.116649 -0.027892 -0.151275 -0.226536 -0.574931 -0.467366 -0.886595 -0.464592 0.120220 -0.174638 0.502006 -0.531578 -0.558346 -1.386358 0.185723 0.305384 -0.587170 0.074376 1.013327 -0.053476 0.369002 0.281140 0.219844 0.206290 -0.461541 -0.566516 -0.324805 -0.201503 -0.353442 0.339063 -0.726919 -1.304646 -0.640835 -0.477870 0.208041
las -0.471484 0.456581 0.752911 0.130242 -0.504957 0.117259 0.258688 0.097298 -0.749876 -0.209274 0.714948 0.116835 -0.790297 -0.274241 1.139181 -0.770404 0.376158 0.066389 0.610257 -0.308973 -0.731118 0.543306 0.151394 -0.324032 -0.562623 0.342481 -0.620337 0.211971 -0.909030 -0.836273 0.037985 0.126112 -0.414351 -0.549487 -0.536624 0.385427 -0.486077 -0.433229 -0.776751 0.036688 -0.406607 0.233821 0.689384 0.357735 1.113797 -0.763514 -0.299248 -0.753619 0.915897 -0.548847 1.007089 -0.594885 -0.485490 -0.026286 0.463061 0.599506 -0.518837 0.553143 0.123958 0.957013 0.507059 0.648175 -0.160994 -0.047254
pues -0.615172 0.633938 0.362234 -0.199502 0.592465 -0.137887 -0.030503 0.483240 -0.298842 0.184760 0.180146 0.679959 -0.176049 -0.239511 -0.299160 -0.525289 0.628243 0.590404 0.202747 -0.405748 -0.405733 -0.497679 0.261538 -0.538701 0.136973 0.015465 -0.005213 -0.617286 -0.116819 -1.024116 0.109092 0.417305 -0.485243 0.375679 -0.298265 -0.326201 0.239294 0.174546 -0.138854 -0.088582 0.033301 0.158199 0.026067 0.216043 -0.208656 -0.336254 0.043241 -0.358240 -0.125590 0.120351 -0.080065 -0.911510 -0.198076 -0.022439 0.766971 0.302883 -0.157988 0.132205 0.187248 0.162757 0.498805 0.440523 -0.167029 -0.247785
hay -0.371829 0.651288 0.474731 0.348245 -0.740123 -0.224349 0.694316 0.541398 -0.312595 -0.371260 0.432012 0.381475 0.200546 -0.028571 0.154720 -0.803288 -0.028555 0.187149 -0.030629 -0.516413 -0.428305 -0.411279 -0.420583 0.381517 -0.189445 -0.163387 0.208855 -0.060239 -0.705632 -0.306521 0.560989 0.031013 -0.070123 -0.517222 0.503609 -0.218973 1.050466 0.047972 0.534506 -1.057473 -0.270521 -0.109064 0.029331 0.397345 -0.372981 -0.553121 -1.639787 -0.869667 -0.201038 -0.627804 -0.553539 -0.033023 0.288166 0.310454 -0.227365 0.017273 -0.566291 -0.480735 -0.614136 0.148325 -0.105554 1.189995 0.009091 -0.228448
ar 0.772820 -0.015437 0.221331 0.657363 -0.310533 1.224759 0.735933 0.838863 0.400462 0.365330 0.303687 0.049123 0.956626 0.519123 -0.683100 -0.417666 -0.726861 0.080866 -0.332509 0.142924 -0.545681 -1.222834 0.167203 -0.547143 -0.001451 -0.748255 -0.515655 0.510024 -0.192160 -0.085067 0.832588 -0.207281 0.372917 -0.010667 -0.143974 -0.176750 0.243198 -0.517114 1.070834 -0.759115 0.799857 0.191880 -0.126774 -0.280295 0.446967 0.626801 0.025770 -0.165889 0.345158 -0.225219 -0.507320 -1.190522 -0.109417 0.278163 -1.096359 0.127302 0.090318 -0.242233 -0.009321 -0.310579 -0.230634 -0.254246 0.001469 -0.230697
d@@ -0.951079 -0.316841 0.963793 0.553281 0.875403 0.686766 0.154123 0.133932 -0.501043 0.527061 -0.142747 -0.188628 -0.194544 0.387034 -0.246831 -0.239813 -0.055375 0.439271 -0.671419 -0.471366 0.648164 -0.632131 0.166773 -0.664980 -0.006007 0.588335 -0.908394 -0.225391 -0.684623 0.417669 -0.637318 0.267032 -0.351738 0.610038 -0.414237 -0.166456 -0.435988 -0.080250 -0.556451 1.304426 0.370488 0.194085 -0.027291 -0.442649 -0.997276 0.281368 -0.026699 -0.036908 0.352131 0.028966 0.066433 -0.534427 0.364473 -0.663755 0.222683 0.560479 -0.528472 0.025250 -0.893598 -0.231929 -0.160395 0.473259 0.272376 0.011486
t@@ -0.052121 0.296260 1.256102 0.309323 0.482329 -1.058715 -0.157273 -1.196733 -0.695798 -0.151988 -0.326183 1.273704 -0.432128 0.649246 -0.394496 -0.359675 -1.024472 -0.103193 -0.119327 -0.019062 1.707043 0.203163 0.169936 0.705524 -0.282890 -0.025192 -0.091255 0.388068 -0.158468 0.609120 0.647669 0.012749 0.098961 -0.254263 -0.585775 -0.064402 0.883414 0.063245 -0.376322 -0.660848 1.140107 0.951282 0.350444 0.891014 1.029618 -0.120098 0.459930 0.048038 0.661443 -0.243964 -0.451939 0.919607 0.217134 1.131500 0.063701 0.669247 -0.713792 0.405758 -0.237327 -0.452403 0.112890 0.700287 -0.242178 0.298036
r@@ -1.156192 0.617101 0.311493 -0.349147 0.576564 0.007533 0.132531 0.070789 -0.587389 -0.944869 -0.190320 -0.042052 0.165557 0.351303 -0.556652 0.549609 0.979640 -0.768047 0.388851 -1.023109 -0.082352 0.254822 -0.287439 -0.147978 -0.216389 -0.149836 0.170801 -0.419263 -0.131689 0.419082 -0.144047 -0.467212 -0.783838 -0.663119 -0.164468 0.712280 0.390988 0.019460 -1.022612 -0.305520 1.105697 0.087934 0.971746 -0.232908 -0.155535 -0.921137 0.287684 0.493375 -0.195386 -0.496052 -0.233155 -0.612805 -0.173581 0.054515 -0.037315 0.353489 -0.457154 -0.283948 -0.454937 0.213075 0.251445 0.261849 0.203352 -0.000856
claro -0.716756 -0.545297 -0.373299 -0.108644 -0.614598 -0.134131 0.062326 0.027489 -1.232691 -0.195955 -0.794551 -0.938445 -0.160711 0.238692 0.167925 0.042139 -0.206847 -0.322172 -0.683383 0.533265 0.552299 -0.197425 -0.209675 -0.403725 -0.641773 0.305689 -0.102543 -0.018974 0.319521 -0.337953 -0.929332 0.290810 -0.012385 -0.649449 -0.036428 -0.289825 -0.598654 0.732181 -0.985523 0.891484 0.433659 -0.241638 0.152345 0.813836 -0.054643 -0.971233 -0.788265 -0.307720 0.092386 0.683062 0.241635 -0.766092 0.521844 0.310205 -0.239677 0.426474 -0.128573 0.362924 -0.223416 0.250431 -0.392763 0.406285 0.158975 -0.175489
m@@ -0.767310 0.602426 0.107715 0.188089 0.497497 -0.818937 0.590513 -0.315670 -0.102090 -0.841090 0.595095 0.729969 -0.821941 -0.112967 -0.342976 -0.617251 -0.155972 0.140648 0.532154 -0.503483 0.286421 -0.047710 -0.024473 0.314615 0.239288 0.524192 0.078739 -0.007783 0.001914 0.067177 0.403178 0.391857 -0.120735 -0.737340 0.135784 -0.647761 0.627196 -0.178431 -0.925432 -0.492025 -0.180873 0.149719 -0.775334 0.773077 -0.381082 0.086357 -0.561899 -0.088825 -0.177944 0.791267 -0.331023 -0.629757 0.282185 -0.014524 -0.513525 0.083927 -0.424757 0.234247 -0.208893 0.712304 0.809130 0.333763 -1.190163 0.054674
le 1.141007 -0.116548 -1.102681 -0.187392 -0.012746 -0.607422 -1.039946 0.332899 0.484006 0.020643 -0.408499 0.170115 0.129689 1.236465 -0.408487 0.725118 -0.453538 -0.383442 -0.780245 0.282167 -0.006617 -0.341693 -0.236906 0.584458 -0.312734 -0.400750 -0.361515 0.465989 0.488829 0.216420 -0.915766 -0.504153 0.655511 -0.867840 0.040505 0.186026 0.103502 0.643688 -0.418790 -0.844339 -0.359721 0.049014 -0.276507 0.755105 -0.425204 0.779398 0.971984 -0.959381 -0.319691 -0.003616 -1.043841 1.737806 0.102898 -0.036676 -0.186145 0.583762 -0.211172 0.174510 0.276520 -0.219555 -0.845294 -0.030400 -0.825254 -0.275232
c@@ -0.693914 1.337167 1.326172 -0.599454 0.376576 -0.311848 0.345248 -0.028859 -0.922117 -0.263398 0.114956 0.299564 0.086931 0.462463 0.354168 -0.901272 0.615505 -1.030789 0.813983 0.506622 -0.286039 0.069469 0.602489 -0.283006 -0.657043 0.427353 0.096264 -0.119776 0.044678 -0.185529 -0.378123 0.300300 -0.070449 0.134249 0.371415 -0.296872 0.411430 0.355895 -0.529467 0.200790 0.773168 0.743607 0.478981 -0.410130 0.585533 -0.229498 0.179401 -0.728701 -0.674899 -0.934402 -0.093288 -0.649065 -0.364163 0.051006 -0.230737 0.719047 -0.532350 0.705068 -0.308982 0.687689 -0.335401 0.491593 -0.207352 0.164150
mhm 0.353887 -0.248510 -0.515652 -0.027904 0.463238 -0.607249 0.530966 0.076270 -0.035655 0.577790 -0.886336 -0.009418 -0.718244 1.006875 -0.251054 0.093301 0.289951 -0.247868 0.775721 1.128343 0.453766 0.871287 -0.460250 -0.819842 -0.179716 -0.845515 0.037120 0.536988 0.704781 1.622579 0.089278 -0.755404 0.400026 0.097147 0.549403 0.179948 -0.304436 -0.290876 1.107706 -0.495097 0.683032 1.120963 0.532720 -0.413566 -0.370617 1.210202 -0.167511 0.241486 -0.737760 -0.317975 -0.955554 0.605012 -0.589725 0.350763 -1.353836 -0.343113 0.998763 0.078945 -0.580560 0.655548 -0.253448 -0.530856 -0.256440 0.523740
vi@@ 1.142984 -0.005922 1.102515 -0.815140 0.604084 -1.095554 0.397373 0.703292 0.207235 0.583682 -0.039736 0.734052 0.921328 0.269335 -0.733583 0.936401 -0.662240 0.995221 0.646410 0.146048 -0.373020 -0.331507 -0.438915 0.241874 0.238338 -0.057102 -0.335344 0.104913 0.123359 -0.475796 -0.768715 -0.589569 -0.150446 0.668846 0.275650 0.312779 -0.018369 0.814564 0.894894 -0.619983 -0.157354 -0.705481 -0.063697 -0.727368 -1.087487 -0.007771 -0.328850 -1.421979 -0.702558 0.809175 -0.075410 0.244456 -0.999806 -0.789264 -0.452491 -1.188904 0.259122 -0.044940 0.538971 0.199916 0.246229 -0.016272 0.294287 -0.217615
está -0.608627 0.532568 0.451738 0.544225 -0.176634 -0.010233 -0.624179 0.316040 -0.291978 0.168393 0.314066 -0.283576 -0.520901 0.251153 -0.307446 -0.312510 0.282381 0.035768 -0.004462 -0.884809 -0.003005 -0.309190 0.237681 -0.605069 -0.170993 -0.073652 0.244515 -0.075978 -0.384499 -0.138727 -0.201034 0.875508 -0.174962 -0.350721 -0.381895 -0.124621 0.788577 0.150877 -0.160202 0.473614 0.300509 -0.512175 -0.009502 0.403799 0.096056 0.037514 -0.597364 -0.626112 0.441850 -0.420401 0.020583 -0.102519 0.113384 -0.803164 0.544915 0.832322 -0.388765 0.436655 -0.348237 0.076262 -0.543728 0.430752 0.367031 -0.107082
así -0.490804 -0.357591 0.164530 -0.111398 -0.075223 -0.249029 0.059960 -1.055673 0.639928 -1.162753 -0.333946 -0.000778 -0.402322 0.883250 -0.095368 -0.097529 -0.026145 0.061119 0.117526 -0.231852 1.037915 1.213089 -0.987059 0.621022 -0.153226 -0.645653 -0.305421 -0.070545 0.205622 0.319506 -0.155683 -0.605073 0.362571 0.686850 -0.245991 -1.191994 0.291830 -0.378574 -0.786454 0.571872 -1.237136 -0.210681 -0.522923 0.806490 -0.152228 0.737099 -0.084619 1.262135 -0.042594 -0.181365 -1.476067 1.279898 0.037262 0.091196 0.503617 -0.188858 0.632749 0.517452 -0.419198 -0.352492 0.104752 1.007301 0.401812 -0.148132
entonces -0.409444 0.170500 0.606580 -0.464066 0.257606 0.308604 0.302425 0.575860 -0.381102 -0.768699 0.557133 0.499207 -0.808994 -0.206366 -0.208038 0.655648 0.501596 0.266610 0.041551 0.003452 -0.472158 0.276678 0.624523 0.275334 -0.492889 0.018628 -0.383615 0.258084 -0.319069 0.366542 -0.673353 0.245506 -0.370735 -0.020608 0.634648 0.032048 0.543183 -0.060924 0.182851 0.063937 1.048208 -0.123652 0.317938 0.081373 -0.392149 -0.057228 -0.137770 -0.119537 0.807239 0.420271 0.505313 -1.183154 0.321658 -0.459414 0.215919 -0.522399 -0.313734 -0.756176 -0.117064 0.613314 -0.799191 -0.650360 -0.094127 -0.212305
muy -0.023907 0.150512 0.737678 -0.640568 1.745488 -0.398473 -0.422778 -0.863662 -0.996464 -1.946457 0.195454 -0.490532 0.050394 0.870137 0.208514 -0.057970 0.031842 -0.907337 -0.428897 0.545160 1.146449 0.727043 0.062729 0.542059 0.704590 0.459176 -0.744751 1.336532 0.315870 0.275114 -0.980377 -0.260131 0.079227 0.729161 0.424470 -0.351492 0.016362 -0.769541 0.040838 0.459164 0.515328 0.365169 -0.805533 -0.182656 -0.321457 0.405008 0.198932 0.402706 -0.948010 0.326891 -0.177960 0.953613 -0.659185 0.553449 -0.039643 -0.125606 -1.018890 0.345889 0.112870 -0.446816 -0.053452 0.514597 0.547517 1.127183
g@@ 0.378369 -0.362016 -1.052175 0.180690 -1.136734 0.393254 -0.399211 0.169919 1.604577 1.723159 0.214498 0.335785 -0.056375 -0.432824 -0.333362 0.625167 -0.182574 0.422529 0.495198 -0.583012 -0.510978 -0.523285 -1.079188 -0.079692 0.204744 -0.019390 -0.118307 -1.291678 0.027892 -0.636851 0.529066 0.141694 0.423318 0.693997 0.067828 0.011628 0.203414 -0.130745 1.598333 -0.569919 0.244260 -0.564184 -0.464952 -0.940515 -0.026409 0.329198 0.548689 0.619233 0.699058 0.651588 -0.694343 -0.557239 0.187389 -1.371076 -1.227468 0.584871 0.409711 -0.387319 -0.594060 0.063430 0.238484 -0.158843 -1.039800 -0.140309
di@@ -0.040305 0.429579 0.069527 0.012219 -0.607410 0.305996 0.241613 -0.803213 -0.716561 -0.232605 0.735099 -0.279440 -1.515476 0.100634 0.863710 0.052548 0.394633 -0.469831 0.138184 -0.532685 -0.285691 -0.187619 0.655661 0.283616 -0.057238 0.790885 0.187455 -0.141188 -0.393552 -0.072910 -0.163463 0.579630 0.236339 -0.213271 -0.250726 -0.338190 -0.006723 0.127858 -0.414147 0.481797 -0.246438 -0.094271 -0.172631 -0.277378 0.349911 -1.264981 -0.285720 -0.695038 0.363736 0.012729 0.620952 -0.294222 0.585867 -0.105385 0.052282 0.516752 -0.614945 0.827190 -0.225166 0.176275 0.903298 -0.177208 0.016715 0.105984
o@@ -0.534695 0.351833 0.443679 0.091871 0.396850 0.511043 -0.440777 -0.603714 -0.614625 -0.286389 -0.357713 0.805314 -0.246727 -0.085548 -0.015550 -0.030222 -0.684488 0.749396 -0.095900 -0.141990 -0.143614 0.347199 -0.320010 -0.377371 -0.450995 0.532617 -0.527604 -1.108210 -1.082106 0.453148 0.150179 -0.114518 0.699055 -0.722565 -0.053595 0.153068 0.105770 -0.556046 -0.470335 -0.141906 -0.534404 0.201717 -0.303425 -0.334167 0.389735 0.500936 -0.070679 -0.430404 -0.042522 -0.294360 -0.370765 -0.026162 -0.351282 -0.688582 0.193054 0.374610 0.263943 -0.053889 -0.026478 -0.431779 1.054870 0.958596 0.022822 -1.095468
bien -0.794415 0.222928 0.010974 0.410297 -0.152514 -0.180169 0.094086 0.155248 0.418385 -0.630165 -0.045245 0.049893 -0.049610 -0.270228 -0.275784 0.543627 0.357191 -0.116337 -0.329463 0.092190 -0.502109 -0.764078 0.569975 0.713035 -0.121648 -0.002670 0.232830 -0.031805 -0.687164 -0.414845 0.176455 0.110053 -0.050288 0.176391 0.292386 0.249021 0.410769 0.273525 -0.324598 0.323344 0.216018 0.058005 -0.084315 0.348831 -0.040009 -0.168105 -0.241084 -0.527406 -0.742550 0.274615 0.235264 -0.344689 0.419077 0.200750 -0.149911 -0.106711 -0.225573 -0.163206 -0.131699 -0.238299 -0.759039 0.360898 0.019790 -0.526033
s@@ -0.950409 0.153533 0.393992 -0.032841 0.565098 -0.443466 0.547264 -0.024909 0.180175 -0.762624 0.002744 -0.283152 -1.176138 -0.162721 0.013842 0.046322 0.885545 -0.421097 -0.035632 -0.684595 0.033113 0.117816 0.144427 -0.272017 0.218914 0.190400 0.261952 -0.027513 -0.068420 0.444396 -0.382403 -0.262886 0.061435 -0.497972 -0.358669 -0.148983 -0.018007 -0.217005 -0.329466 0.225027 -0.636000 0.499046 0.043028 0.274453 -0.054434 -0.413342 0.082324 0.043379 -0.248518 -0.188328 -0.140599 -0.104971 -0.004009 0.209025 -0.024469 0.326238 -0.118722 -0.294885 0.562092 0.241477 0.629769 0.639129 -0.354735 0.270780
b@@ -0.264398 0.199031 0.659045 0.932083 0.420126 -0.277202 -1.124318 0.478681 -0.346193 0.029435 -0.161012 -0.567098 -0.607928 0.630882 0.394630 0.002676 0.300396 -0.173608 0.314581 -0.318620 -0.043181 -0.053770 0.067066 -0.244138 -0.004007 0.219716 -0.170323 -0.298400 -0.247398 -0.725992 0.385568 0.412386 0.066148 -0.368307 0.180101 0.063320 -0.017742 0.063706 -0.180726 1.379431 0.298038 -0.636700 0.408301 0.446368 0.795185 0.058650 0.054720 -0.586564 0.212139 -0.129436 0.407264 -0.407363 0.346185 -0.272536 0.421693 0.705252 0.197740 0.463497 -0.353077 0.299431 0.179770 -0.039271 0.740492 0.013292
al -0.033527 0.236844 0.418283 0.709121 0.175415 -0.183971 -0.348779 0.262786 -0.731129 -0.563020 -0.201965 -0.685089 -0.457466 -0.143916 -0.687147 -0.486351 0.267456 -0.464373 -0.289102 -0.924325 -0.148563 -0.026793 0.679065 -0.414767 0.352755 -0.169386 -0.222976 -0.646931 -0.292669 -0.783773 0.348421 -0.307959 -0.616577 0.008255 -0.150296 0.193961 -0.455514 0.431370 -0.602826 -0.381920 0.732147 -0.077408 0.183612 -0.260289 0.684177 0.158386 -0.294488 -0.205032 0.930777 -0.197238 0.507745 0.159695 -0.902892 -0.671068 0.420423 0.518864 0.197536 1.284181 0.208281 -0.049537 0.379453 0.927488 -0.017513 0.784516
in@@ -0.976634 -0.763650 -0.627699 -0.011923 -0.837483 -0.203924 0.234987 -0.238283 0.175725 0.004393 -0.237624 0.667700 0.539559 -0.231943 -0.185191 0.493551 0.772624 -0.276486 -0.466980 -0.383921 -0.137234 0.335265 0.282583 -0.649761 -0.805184 0.296712 0.187423 -0.588020 -0.448241 0.434729 0.009321 0.063142 0.048960 -0.557818 -0.984569 -0.141042 0.641387 0.532471 -0.731694 0.492521 0.493605 0.318321 0.119859 -0.161350 -0.591314 -0.848210 -0.371255 0.768784 0.295606 0.157644 0.165287 -0.549551 -0.162161 0.176433 -0.185414 -0.003971 0.181291 0.427439 -0.790683 0.808450 -0.263551 -1.420086 -0.703717 -0.791603
también 0.228854 -0.686139 -0.204088 0.225384 0.545110 -1.063641 -0.773806 -0.177174 -1.351301 -1.015624 -0.694110 -0.146446 0.329544 -0.044113 -0.369809 0.571234 -0.213097 -0.655214 0.950069 1.510429 0.452500 0.821810 -0.120605 0.659848 0.564629 -0.646373 0.642202 -0.195833 0.788935 -0.161944 0.541638 0.308555 -0.662680 -0.483182 0.733276 0.465532 -0.470582 -0.670815 0.049710 -0.150281 0.076610 0.443255 -0.846294 0.000215 0.165423 0.987885 0.208883 0.395691 0.393309 0.422956 0.517415 -0.097263 0.053156 0.172274 -0.226440 0.607837 0.936844 0.627319 -0.299742 -0.191108 -0.934096 0.499067 0.209660 -0.021839
p@@ -0.567050 0.208477 -0.299618 -0.176392 -0.078058 0.287722 0.212732 1.121317 -0.228218 0.441812 -0.603575 -1.040515 0.202041 -0.426052 0.108602 0.404234 0.451855 0.365269 -0.410895 -0.616236 0.819698 -0.651453 0.942436 -0.292265 0.783338 0.307037 0.411017 -0.046049 -0.534716 -0.861905 0.038389 0.659989 0.136454 0.330607 -0.186079 0.899260 -0.686758 0.604848 0.395548 0.816587 1.202176 -0.477331 -0.283354 -0.448243 -0.436645 0.155208 0.750661 -0.274598 0.987803 0.149818 1.508091 -1.312100 0.141201 -0.086665 -0.105864 1.031235 0.091261 -0.091028 -0.507272 0.824929 -0.368607 -0.109246 -0.102162 0.189035
os -0.672132 0.527728 0.081750 -0.042687 0.136904 0.726686 -0.172073 0.756457 -0.544009 0.238562 0.287785 0.013019 0.594148 0.033974 -0.609328 0.189609 0.040708 -0.578461 -0.146777 -0.260672 -0.003572 0.305525 0.529700 -0.207327 -0.017758 0.069205 -0.039974 0.153602 -0.262073 -0.419080 -0.990266 0.246578 0.600098 -0.504567 -0.505202 0.273021 0.611069 0.333774 -0.030505 -0.174080 0.647211 -0.088050 0.576925 -0.064191 0.040345 -0.540068 0.193718 -0.306657 0.344566 -0.513115 0.881473 -0.524521 -0.728877 0.372116 0.072838 -0.174333 -0.653515 -0.041587 0.243746 -0.153049 -0.051340 0.442527 -0.271139 -0.025637
mm 0.354869 -0.378644 -0.414740 0.314489 -0.751682 0.317338 -0.064297 -0.511724 0.255396 0.185153 -0.179010 -0.189328 -0.200630 -0.070717 0.287853 -0.235975 0.425871 -0.711781 0.451680 -0.381379 -0.492605 -0.156184 0.652828 0.688515 -0.402162 0.393011 0.485825 -0.567717 -0.172961 -0.609330 0.467081 1.207086 -0.019592 -0.921032 0.333057 0.185389 -0.095240 0.542288 -1.036530 -0.095445 -0.428821 -0.059473 0.443257 0.080403 0.277702 -0.747806 -0.354614 -0.228927 0.480063 -0.875510 0.583902 -0.752339 0.126639 -0.382783 -0.509220 0.726485 -0.174118 0.942995 0.096509 -0.397835 0.099851 0.222170 0.127418 -0.066194
oh -0.302555 0.383209 0.524890 0.291087 -0.326249 0.158099 0.116882 0.600952 -0.347418 0.187892 -0.635840 -0.805319 -0.408473 -0.124628 -0.252168 0.311073 0.022920 0.058444 -0.202790 -0.317123 -0.638119 0.190498 -0.265378 -0.171618 -0.507250 0.300999 -0.492571 0.184987 -0.314735 -0.189270 -0.329650 -0.015150 -0.372265 -0.192269 0.380882 0.271599 -0.204367 -0.053615 -0.589422 0.404590 -0.340313 -0.403350 0.580644 0.122428 0.486115 -0.083402 -0.308357 -0.807447 0.122608 -0.196689 0.291554 -0.637351 -0.017483 -0.659270 0.574189 0.274192 -0.195426 0.700912 -0.228492 0.003025 0.147526 0.381293 0.606698 0.060349
ta 0.827219 -0.220875 -0.323949 1.166644 -0.841348 -0.132536 0.856368 -0.016305 -0.505726 0.392936 0.068661 -0.654905 0.680929 -0.699737 0.246592 0.334930 -1.045325 -0.014789 0.272929 0.855246 0.355509 -0.805614 0.359621 1.660706 0.810642 -0.361470 -0.148017 0.024937 0.764090 -0.799302 0.157182 0.268794 0.005813 0.452555 -0.199421 -0.133212 -0.469554 0.814777 -0.261162 -0.650854 0.330341 -1.277404 -0.292692 0.341562 0.527465 0.560987 0.470115 0.672301 0.680913 1.677067 1.028154 -0.400108 -0.177906 1.083788 -0.693385 -0.354622 -0.264979 0.505748 -0.581943 -0.700980 0.187372 0.434068 0.093979 -0.233979
sé -0.192517 0.429533 0.813994 -0.176078 -0.037349 0.189373 0.445140 0.518555 -0.549266 -0.353361 0.748573 -0.012457 -0.546293 -0.842296 0.640949 -0.076452 0.908859 0.549954 1.059841 -0.198462 -0.890989 -0.107685 0.759904 -0.166183 0.022035 0.921989 0.189863 0.079104 -0.532925 -1.276464 -0.774215 -0.130189 -0.326639 0.229190 -0.450578 0.262965 -0.479037 0.318924 -0.888574 -0.010817 -0.217944 -0.608088 0.102063 0.322546 0.571692 -0.522588 0.290854 -0.647074 0.919397 0.351052 1.349671 -1.315831 -0.234327 0.031115 0.498384 0.415646 -1.091506 0.454698 0.125788 0.440440 0.350955 0.347679 -0.158999 0.102920
l@@ 0.003556 0.371539 -0.003891 -0.117274 0.298191 0.829987 -0.166319 -0.512929 0.602091 0.067227 -0.282889 -0.169179 -0.186802 0.088736 -0.612981 0.230731 -0.061782 0.429703 0.286155 1.128527 0.612765 0.416190 0.322186 0.621894 0.443115 -0.211311 -0.698061 -0.153723 -0.280606 0.669217 -0.681193 0.373453 -0.191100 0.612101 -0.739028 0.449166 -0.192796 -0.528404 0.293690 0.710161 1.198183 0.355792 -0.657523 -0.687937 -1.269175 -0.256764 0.024343 0.745854 -0.479610 -0.445793 -0.662400 0.261772 0.177968 0.820673 -0.456552 0.435712 -1.179355 -1.592518 -0.536605 1.144672 0.017146 -1.122935 0.139096 0.107394
ci@@ 0.114215 0.810706 0.921720 -0.467634 0.463489 -0.020828 -0.500511 0.108455 -0.168135 0.605158 -0.143982 1.495216 -0.097285 -0.200139 0.348289 -0.977028 -0.317997 -0.773481 -0.052381 0.548524 -0.097512 0.923545 0.406649 -0.065229 -0.131165 1.360176 -0.794131 0.197926 -0.249190 -0.411276 -0.313147 -0.278822 0.404252 0.656827 -0.579858 -0.202897 1.009084 -0.916148 0.309403 -0.515533 0.509760 0.582791 -0.728147 0.596083 -0.094052 1.062224 -0.220024 -0.650300 -0.197585 0.348689 -0.161801 0.522489 -0.856764 0.176423 -0.127441 -0.571372 -0.970951 0.581845 -0.562280 0.044103 -0.130571 -0.629084 -0.691307 0.312835
uno 0.231871 -0.018437 -0.422949 -0.496245 -0.842681 -0.528393 0.694029 0.149126 -0.160487 0.067828 0.531265 -0.914309 -0.566946 -0.606207 0.072818 0.132744 0.928019 0.201809 0.056062 -0.085235 -0.604919 -0.251901 0.503554 -0.104669 -1.081485 -0.517907 -0.122482 -0.153711 -0.015991 -0.737673 -0.536265 -0.402622 -1.030383 -0.178015 0.425276 0.214041 0.094212 0.845762 0.225403 -0.112189 -0.777549 -0.582900 -0.143936 0.062192 0.313821 -0.686862 -0.129935 0.020284 1.330510 1.574704 0.710299 -1.219440 -0.940579 -0.336835 -0.017687 -0.052502 0.076276 0.932397 -0.730818 0.827161 0.117161 -0.616469 -0.055646 0.073252
todo -0.045782 0.645260 -0.615497 0.066806 0.024373 -0.155027 -0.999851 -0.896834 -0.173610 -0.520101 -0.461499 0.090863 -0.605543 -0.135232 -0.231340 0.533333 -1.156442 0.261147 0.785811 0.967918 -0.098258 1.079605 -0.549457 -0.980224 -0.518317 -0.671333 -0.511197 0.241929 0.632326 0.436202 -0.235472 -0.842360 0.387643 0.746249 0.010024 0.165613 -0.192074 -0.347658 -0.422912 0.224637 -0.796117 -0.170058 0.431332 0.594477 -0.592028 0.735036 0.098006 -0.755985 -1.156884 0.433627 -0.580180 0.871149 -0.547275 0.454605 0.894557 -0.896632 -0.511281 -0.229376 0.535404 -0.693211 0.869533 -0.142255 -0.468936 0.211856
u@@ 0.633227 -0.766961 -0.073507 0.808916 0.792920 -0.991735 0.238525 -0.420326 -0.253024 -0.168956 -0.089804 -0.672001 0.128774 0.895161 0.231001 0.357883 -0.338243 -0.690485 -0.200052 1.131783 1.111198 0.217386 -0.003474 0.752040 0.043541 0.026513 -0.098605 -0.899951 1.302517 0.620996 1.003660 -0.312099 0.465264 0.551835 0.877663 0.638191 -0.052034 -0.587825 0.490400 0.632548 -0.016137 1.527789 -1.035679 -0.053999 -0.390617 -0.000033 -0.026601 0.736374 -0.115788 -0.112959 -0.346156 1.245326 0.602949 -0.259051 0.620590 -0.018687 -0.475610 -0.755355 0.315843 -1.104199 0.106519 0.653425 -0.061026 0.125579
to -0.290527 0.539412 -0.032970 0.302542 -0.035486 0.743175 0.387865 0.367889 -0.213627 -0.053697 -0.385016 -0.490510 -0.273852 -0.621989 -0.473224 0.482000 0.280447 0.291149 0.194694 -0.572524 0.168666 -0.377805 0.665316 -0.000937 -0.367549 0.266914 -0.070765 -0.655564 0.017400 -0.647986 -0.021190 -0.026395 0.296818 0.158080 0.455451 0.355643 -0.367880 -0.359384 0.172707 -0.331347 -0.090341 -0.561950 0.621298 0.273536 -0.342722 0.198096 0.399854 -0.194125 -0.098116 0.330909 -0.002128 -0.241608 0.108912 -0.228552 -0.031484 0.881719 0.374432 0.192076 -0.574356 0.161897 0.239884 0.029934 -0.281456 -0.185419
f@@ -0.420838 0.387100 0.485768 0.281486 0.320849 0.348361 -0.048511 0.394404 0.138058 -0.238150 -0.129797 -0.221696 -0.115991 -0.103010 -0.199824 0.016945 -0.046812 -0.281596 -0.091513 -0.305777 -0.121480 0.237752 0.208950 -0.022987 -0.123632 0.235669 -0.268258 0.085434 -0.398964 -0.334171 -0.423306 0.212225 -0.006186 -0.007967 0.294054 0.056875 0.109652 -0.000471 -0.634915 0.499223 0.005071 0.756548 0.404101 0.416803 -0.021443 -0.262983 -0.454959 -0.645825 -0.199683 -0.234086 0.246247 -0.075391 0.224517 0.066851 0.211400 0.114473 -0.547697 -0.800794 -0.044279 0.028494 0.188948 0.370366 0.130719 0.000499
er@@ -0.395614 0.882300 1.060581 0.215259 0.415326 -0.025326 0.155397 0.642491 -0.409866 -0.781870 0.333904 0.159998 -0.182649 0.625914 -1.086886 0.397491 0.423474 0.232661 0.878987 -0.195691 -0.027877 -0.368337 -0.037925 1.083967 0.777279 -0.231099 0.023889 -0.353029 0.342518 -0.108170 -0.270893 -0.761651 -0.696584 0.286559 0.906472 0.121988 0.618301 -0.711559 -0.904925 -0.855058 -0.246433 0.074704 1.200258 0.079745 0.021190 -0.180462 0.132456 -0.514226 0.245584 0.328321 0.579055 -0.039925 -0.230574 0.001517 -0.015065 -0.021322 0.044772 0.294243 0.261445 0.451440 -0.122756 1.169145 0.214647 -0.058679
sea -0.086831 0.662758 0.414581 -0.089979 0.144313 0.247715 -1.002068 0.315699 -0.083722 -0.302492 0.602281 -0.429724 -0.482701 0.345873 -0.234592 0.334448 -0.227344 -0.103553 -0.128942 -0.227401 0.314295 -0.188906 0.711644 0.098491 -0.108498 0.660742 -0.486165 -0.683250 -0.552614 -0.635643 -0.491254 0.098405 0.178237 0.150345 -0.205768 -0.316400 0.462571 -0.098768 -0.158737 0.556272 0.284269 -0.190841 -0.182773 0.506593 -0.022206 0.200475 -0.079346 -0.887693 0.019680 0.889030 0.827726 -0.646310 0.277608 -0.213752 -0.528513 0.771844 -0.505192 0.855960 -0.364542 0.037714 0.793818 0.684171 0.294858 -0.089063
ti@@ 0.069696 -0.133058 -0.037391 -0.088139 -0.794511 -1.254112 -0.336846 -0.526741 0.568555 -0.560863 -0.471260 -0.190458 0.253695 0.560751 -0.228072 -0.554307 0.084526 0.037942 -0.063530 -0.542704 0.965247 0.084278 0.594579 -0.711041 0.093083 -0.545103 -0.047907 -0.496455 0.589343 0.109032 0.412647 -0.025238 0.653216 0.059099 0.305911 0.537377 0.035834 -0.105447 -0.384928 -0.437303 -0.379898 -0.822946 0.401656 -0.914508 0.982241 1.035732 0.634690 0.527396 0.320375 -0.538547 -1.612863 0.551490 1.599203 -0.034086 -0.248297 0.485638 0.388711 1.240535 -0.212353 0.067622 0.092314 0.056996 0.158745 0.259845
v@@ -0.332236 0.572590 0.118130 -0.197130 0.404258 -0.356766 -0.175024 0.486834 -0.537352 0.050343 0.025668 -0.295232 -0.453524 -0.022209 0.060001 -0.145222 -0.041165 -0.299031 0.155794 -0.602605 0.103724 0.066243 0.397182 0.064373 0.239304 0.077941 -0.068305 0.137609 -0.409996 -0.192580 -0.185991 -0.054832 -0.085745 -0.025198 -0.050954 0.182214 -0.292887 0.487597 -0.632834 -0.221020 0.182982 -0.056636 0.042029 0.395869 0.469650 -0.354496 0.096553 0.163897 0.004971 0.197397 0.368754 -0.370248 0.129674 0.165231 0.007366 0.032709 -0.733486 -0.097102 -0.496794 0.113630 -0.050867 0.235746 0.008084 0.156415
an@@ -0.345101 -0.249809 -0.522580 -0.902038 0.516111 0.548700 0.861987 0.126340 0.019948 0.235964 0.214900 -0.849425 -0.113485 -0.068896 0.020332 -0.245574 0.060093 0.148230 -0.147768 0.302307 0.174336 -0.018378 0.274518 0.108392 0.628157 0.881076 -0.144971 0.462960 -0.670959 -0.313121 -1.472913 0.558828 -1.116525 -0.275590 -0.353511 -0.395572 -0.262432 -0.197136 0.767832 0.403554 -0.103460 -0.286649 -0.474121 -0.168899 -0.165682 0.263435 0.385559 -0.660794 0.004491 0.200851 0.133924 -0.531140 1.414664 -0.808223 0.381415 0.266800 -0.680178 -0.737672 0.263051 0.237255 -0.537560 -0.367226 0.667243 -0.326093
aquí 0.096304 -1.018582 -0.734551 -0.350416 -0.777846 -0.636558 0.878390 -0.123067 1.124570 0.495403 -0.257424 1.374680 -0.232006 0.438223 -0.458407 0.614596 -0.022127 0.167186 0.356400 -0.033806 -0.234363 -0.778414 -0.491846 0.518429 0.003061 -0.597992 0.494971 -0.350492 0.131503 0.041036 0.497661 0.332574 0.519025 1.288919 0.490229 -0.146561 0.373155 -0.110300 0.986953 -0.758938 -0.537061 -0.628037 0.271927 -0.288260 -0.507354 1.072940 0.021741 -0.124384 -0.523782 0.668391 -0.933286 0.126407 0.412399 -0.060900 -0.961404 -0.701284 0.461177 0.115467 0.048682 -0.047737 -0.248731 -0.108554 -0.597720 -0.033733
an 0.140123 0.509942 -0.285592 -0.592815 0.055607 0.186566 0.002772 -0.936380 -0.831846 0.047954 -0.113067 -0.277653 0.540003 0.488407 -0.005506 0.197916 -0.505090 -0.370937 -0.536170 -0.142817 0.609584 1.083429 -0.429242 0.516893 0.227237 0.176206 -0.112071 1.192611 0.627484 0.368000 0.142595 -0.759707 -0.086118 0.103676 0.537214 -0.162097 -0.673598 -0.814265 0.326469 0.215890 0.858952 0.344719 0.370442 -0.126127 -0.421953 0.283122 0.234482 0.425612 -0.012280 -0.100049 0.422176 -0.245132 -0.294793 -0.218250 0.344189 0.215737 -0.242816 -0.910261 -0.353810 -0.006744 0.088371 -0.948580 0.077042 1.864686
son -0.460673 0.019908 0.210469 0.286247 0.397421 0.284048 0.716098 0.226008 -0.201420 -0.485065 -0.031990 -0.356665 -0.533399 -0.060317 -0.225288 0.252007 0.524578 0.015241 -0.144837 -0.721437 -0.037854 0.181831 -0.204204 -0.284455 0.140033 -0.122678 -0.027082 0.200612 -0.380597 0.185810 -0.854673 -0.462794 -0.514463 -0.276994 0.132828 -0.185763 -0.059639 0.004101 -0.343535 0.390421 0.076027 0.029396 0.667153 0.322216 0.266249 -0.433431 -0.313664 -0.001051 -0.101207 0.489754 0.147722 -0.518123 0.478617 0.061870 0.525343 -0.211728 -0.125504 -0.343551 -0.112830 0.213894 -0.234333 -0.196744 0.367041 0.226334
si@@ -0.122084 0.346501 1.270517 0.153943 0.470741 -0.076154 0.567569 0.900033 -0.464474 -0.283002 0.679515 0.262385 0.358952 -0.361751 0.594338 -0.322678 0.490572 0.497435 -0.179194 -0.018657 -0.324742 0.780230 -0.400937 -0.674359 0.057173 0.070650 -0.831928 -0.036897 -0.628316 -1.013618 0.404304 -0.101385 -0.709994 0.724678 0.076557 0.122523 -0.106098 -0.041318 -0.221332 0.258961 0.002597 -0.040926 0.619516 -0.071239 0.063660 -0.377474 0.318579 0.679883 0.452040 -0.461081 -0.023482 -0.781572 -0.634822 -0.914903 0.153609 0.311021 0.141652 0.463141 -0.378908 0.754961 0.393618 0.489845 0.483886 -0.204012
ar@@ 0.125475 0.248943 -0.902848 -0.635827 -0.339736 -0.056589 -1.237897 -0.396973 -0.144718 0.253708 -0.051429 -1.121593 -1.423040 -0.019240 -0.276118 0.010884 0.033002 -1.057772 -0.448382 0.518037 0.947659 -0.057769 -0.417783 0.019595 -0.024825 0.111615 -1.497879 -0.677616 0.218525 0.732835 0.440263 -0.785036 -0.257826 -0.255248 -0.162248 -0.069893 -0.512844 -0.397738 -0.426728 0.487370 -1.170015 0.689125 0.345791 0.585055 -0.748872 -0.268369 0.169572 1.574539 -0.146210 0.338924 -0.498424 0.401140 1.269560 0.064033 -0.344443 -0.892690 -0.205625 -0.303414 0.127255 -1.035872 1.243956 -0.883441 -0.336325 0.845780
re@@ 0.305465 0.831885 -0.150039 -0.662390 -0.073440 -1.063156 0.981232 -0.694267 -0.645356 -0.198992 0.644732 -0.308140 0.147248 0.924149 -0.814304 0.752815 -0.222337 -0.388537 0.734954 0.311035 -0.421994 0.090074 -0.651068 1.008334 0.514032 -0.327500 1.227773 0.897932 0.755306 0.420183 0.305043 0.157368 0.420168 0.934633 0.504014 -0.861258 0.311640 -0.895327 0.361276 -0.687794 0.223394 0.580992 -0.150358 0.253482 -0.348289 -0.449515 -0.401122 0.332870 -0.303371 0.535908 -0.247292 0.756633 0.245676 0.543131 -0.694500 -0.288332 0.477721 -0.172306 -0.192417 0.126079 -0.971848 0.082300 0.606056 0.230965
do -0.788055 0.248438 0.465631 0.258237 0.261012 -0.380334 0.491450 0.032305 0.090250 0.040051 0.033241 0.837796 0.298544 0.284090 -0.210434 -0.065347 0.411369 0.582773 -0.130307 -0.483066 0.070605 0.620488 -0.126738 0.195730 -0.223211 0.538997 0.283564 0.259512 -1.073985 0.344996 0.005152 0.233447 -0.199190 -0.504680 0.196613 0.119020 0.014935 -0.047830 -0.267654 -0.513771 0.396309 0.074677 0.749340 0.105205 0.130641 -0.619655 -1.268558 -0.258907 -0.497674 -0.949434 -0.267787 0.113150 -0.004148 0.091581 -0.404670 0.230717 -0.522732 -0.288544 -0.004991 -0.011977 -0.435439 0.313501 0.332727 -0.415499
ado 0.866296 0.187147 0.086607 -0.236921 -0.485451 -0.103277 -0.255721 0.433866 -0.063020 1.206901 -0.787727 0.305362 0.576778 0.107503 0.174330 0.490546 -1.211723 0.319316 -0.103667 0.847556 0.110716 0.095823 -0.435903 -0.852741 0.928002 -0.290485 -0.977122 -0.650898 0.092930 0.721727 0.588510 0.074196 1.023603 0.642661 0.517449 0.234097 1.351472 -0.112679 0.757251 -0.979064 0.333591 -0.290388 0.825324 -0.683770 0.068553 0.631358 0.126862 0.094554 -0.506346 0.593715 -0.083288 0.151014 -0.664503 0.362309 -0.693731 0.238419 0.997137 -0.447863 -0.565884 0.271943 0.126445 0.298372 0.333791 -0.165778
gente 0.669406 0.039225 -0.643721 -0.267565 -0.293559 0.271084 0.151867 0.416028 -0.478150 0.212228 -0.633929 -0.228215 -0.519697 -0.113346 -0.423136 0.649183 0.219276 -0.574863 0.162600 0.688462 -0.225699 -0.277357 -0.345109 -0.783298 -0.614350 -0.839328 1.276419 -0.557319 1.366169 -0.346113 -0.152812 -0.513678 -0.287527 -0.047892 -0.091287 1.019278 0.019589 0.665057 1.234300 -0.918186 -1.611105 -0.880967 -0.675435 -0.721239 -0.653927 -0.087391 0.902986 0.524346 0.639810 1.674380 0.694753 -0.478152 -0.502343 -0.242908 -0.920149 -0.138730 0.344787 0.152061 -0.430291 -0.146029 -0.227017 -0.517402 -0.530413 0.226845
en@@ 0.163850 -0.149789 -0.346275 -1.121697 0.683283 -0.371467 0.178322 0.626289 0.016987 -0.664078 -0.320539 -0.101428 0.634149 -0.534721 -0.670074 -0.328720 -0.589493 0.033836 -0.373710 -0.150829 0.676497 0.704230 -0.294714 0.517368 0.731705 0.853346 -0.350161 0.787203 0.038761 0.968874 -0.394820 0.030882 -0.420613 -0.046786 -0.032325 -0.175228 0.437558 -0.116260 -0.117782 0.385275 1.139805 0.047506 -1.021747 0.074766 0.551239 0.234740 -0.085610 -0.022173 -0.819156 -0.272757 0.267358 -0.701217 0.420953 1.038140 -0.176780 -0.095278 -0.605442 -0.746962 0.026971 0.347100 -0.955234 -0.299746 0.626309 1.713578
ando -1.185714 0.096505 -0.464464 0.238775 0.173291 -0.428269 -0.040630 -0.670641 -0.703211 -0.414173 -0.440377 -0.356347 0.766597 -0.005859 0.040067 0.058248 0.146401 -0.112510 -0.013965 -0.277672 0.582260 0.424340 -0.349462 -0.341551 -0.205446 -0.524071 -0.319333 -0.402065 -0.665940 0.125438 -0.064434 -0.263676 0.222011 -0.460378 -0.325568 0.736443 0.196257 -0.323147 -0.401722 1.208769 0.149343 0.193822 -0.086894 0.619030 0.469791 -0.826228 -0.944010 0.840543 -0.394989 -0.013241 0.500709 -0.298589 0.961127 0.420413 -0.753068 1.173249 0.051651 -0.162630 -0.021099 0.415161 -0.636976 -0.477280 -0.393223 -1.083144
tiene -0.311933 0.379269 0.170124 0.203951 0.203246 0.226671 -0.318063 0.203772 -0.220247 -0.330262 0.543086 -0.492435 -0.288908 -0.391674 0.170132 0.041860 0.376766 -0.165974 0.109500 -0.106866 -0.302584 -0.154299 0.272551 -0.389177 0.007924 0.314451 -0.038650 0.117907 -0.759800 -0.583715 -0.821961 0.280467 -0.302086 -0.211567 0.415936 -0.220334 -0.185344 0.100546 -0.034010 -0.024841 -0.309035 0.006100 0.298530 -0.151122 0.073138 0.079932 0.165821 -0.701870 0.341618 0.239544 0.770998 -0.411826 0.315087 -0.173246 0.107843 0.438728 -0.145369 -0.252390 -0.205851 0.363458 0.166151 0.330436 0.086746 0.211803
mucho -0.241921 0.257051 0.033236 0.484825 0.101822 0.223596 0.109178 -0.250043 0.003660 -0.025666 0.239780 -0.626672 -1.008283 -0.031308 -0.352506 0.185381 0.103700 -0.024497 -0.092999 -0.522074 -0.179987 0.127728 0.806720 -0.025232 -0.396573 -0.205940 -0.008321 -0.103777 -0.361412 -0.332061 -0.661702 0.659954 -0.308131 -0.043501 0.551123 -0.040194 0.104469 0.527203 0.050600 -0.157751 -0.201527 0.023794 0.310287 -0.183410 0.445615 -0.029752 0.216027 -0.395757 0.140201 0.156027 0.356947 -0.640990 0.760058 -0.309729 -0.311086 0.124826 0.076170 0.221536 -0.187638 0.082907 0.269287 0.376831 0.463924 -0.120723
era -0.671207 -0.044283 0.598620 0.021090 0.087000 0.425051 -0.159525 0.174415 0.920928 -0.243976 1.428476 1.168841 0.118187 -0.104910 0.586209 -1.009058 0.541025 0.042955 -0.108963 -0.878133 -0.232823 -1.197962 0.134575 0.067560 0.652753 0.573362 0.739428 -0.575001 -0.691820 -0.887844 0.483843 0.561302 -0.575332 -0.416656 -0.672075 -0.154012 1.226533 0.490827 0.367604 -0.621874 1.077918 -0.228799 -0.461832 -0.096372 -0.633437 -0.164477 0.128935 -0.157351 0.506794 0.266601 -0.439582 -0.315789 -0.501678 0.124745 0.092885 0.155620 -0.303545 0.452541 -0.805502 0.761511 0.455387 -0.415686 -0.817600 -0.202033
cómo -0.514689 0.138635 -0.161425 0.192673 -0.570877 0.189530 0.249815 0.163436 0.045069 -0.236745 0.278708 -0.382785 -0.673104 -0.286596 0.048079 0.223069 0.265493 0.042687 0.322780 0.076178 -0.532743 0.287621 -0.109565 -0.843591 -0.845494 -0.027301 -0.393005 -0.594984 -0.274432 -0.327104 0.225160 0.405713 0.583496 -0.520160 0.121387 -0.197275 0.081517 -0.215838 -0.658113 0.629756 -0.920171 -0.493998 0.201266 -0.068635 0.134205 0.120586 -0.383907 -0.476109 -0.200245 -0.087333 0.002161 -0.600304 0.263657 -0.210042 -0.031013 0.473386 -0.296483 0.026601 -0.021338 0.293847 0.101834 -0.042288 0.215176 -0.377952
cuando -0.573744 0.222598 0.447688 0.002615 0.108046 0.080644 0.218464 0.014452 -0.238852 -0.259583 -0.417510 -0.322224 -0.564992 -0.068968 -0.099555 0.001304 -0.026219 0.123287 0.282714 -0.189069 -0.269388 -0.126835 0.602921 0.227620 -0.156390 -0.029958 -0.334065 -0.007329 -0.405671 -0.300716 -0.317359 0.196665 -0.393806 0.057080 0.320210 -0.248902 0.251857 0.376954 -0.503466 0.227260 -0.105161 0.180354 0.069204 0.236486 0.321874 -0.168887 -0.117397 -0.630365 -0.168323 0.049903 0.306356 -0.515744 0.140640 0.178602 0.000139 0.078569 -0.587709 0.121219 -0.423276 0.161175 -0.322650 0.230016 0.278575 0.126719
h@@ -0.057143 0.446697 0.172275 -0.835721 -0.245393 -0.013454 0.267457 0.130785 0.042358 -1.029961 0.508109 -0.901939 0.107639 -0.022640 0.650683 -0.231170 0.257924 -0.886911 -0.813042 0.362494 0.477391 -0.114457 1.369956 0.217137 -0.267459 0.612360 -0.477322 -0.587794 -0.430864 -0.608627 -0.716404 0.848218 -0.072347 -0.392618 -0.772670 0.450865 0.161781 0.437728 -0.455382 0.613051 0.704671 0.488765 -0.198752 0.173236 0.156005 -0.658450 0.176457 0.225660 0.921590 0.285673 -0.071874 0.067704 -0.036385 1.067439 -0.551565 0.340909 -0.333867 0.498574 0.082668 -0.064333 0.107527 0.412272 0.139198 0.165629
creo -0.313328 0.386040 0.264030 -0.451970 -0.315831 0.035813 -0.766080 0.122461 0.208693 -0.319884 -0.004619 -0.397693 -0.539222 0.148199 0.184553 0.067063 0.459719 -0.456470 -0.323302 -0.076086 0.316469 -0.101965 0.315921 -0.231010 -0.368217 0.325221 -0.026757 -0.405277 -0.497497 -0.518548 -0.776077 0.519128 -0.160864 -0.278737 0.007755 -0.362114 0.315608 0.017396 -0.237042 0.623810 0.004523 -0.241488 -0.212849 0.847891 0.293416 -0.378167 0.013702 -0.515238 -0.138528 0.336825 0.371337 -0.584261 0.419583 0.009939 -0.509897 0.445010 -0.454300 0.871553 -0.031293 0.029836 -0.133477 0.429341 -0.129104 0.107286
este -0.213652 0.993936 0.296953 0.273012 -0.046120 0.693756 -0.050189 -0.265730 0.157130 -0.238464 -0.539448 0.175884 -0.554746 -0.003451 -0.987673 0.251362 0.421286 -0.418354 0.408016 -0.517804 -0.603356 0.477184 0.182485 0.376124 -0.202586 0.170742 -0.915065 -0.087199 -0.232581 0.819180 -1.131650 -0.030514 -0.345047 -0.683413 0.737014 -0.538125 0.491759 0.020669 0.030588 0.117347 0.746396 0.409048 1.241475 0.265377 -0.652723 0.102044 -0.232666 0.123648 0.656014 0.087813 0.270221 0.183421 -0.059844 -0.138170 -0.034861 -0.728701 0.093709 -0.222558 0.156434 -0.248841 0.313231 -0.312975 0.338927 0.588013
ó 0.233030 1.354454 0.046027 -0.857589 0.077829 -0.448772 -1.053340 -0.133407 -0.613831 -0.012000 -0.594803 -0.431584 -0.384593 0.545378 -0.526233 0.523241 -0.971783 -1.078167 0.857921 0.302319 0.769906 0.172968 -0.042257 -0.190109 0.104687 0.706205 0.071297 0.186932 0.691631 0.360807 -0.950550 0.040839 -0.283800 0.520959 0.279554 -0.934584 -0.028647 0.278171 -1.024732 -1.103821 -1.459850 0.224822 -1.280725 0.485497 -0.081911 0.801380 0.218688 0.036354 -1.129938 0.209211 -0.195664 0.950030 -0.165108 0.439017 -0.767869 -0.854994 -0.820753 0.102025 0.255256 -0.950383 0.195661 0.225908 -0.201886 0.749982
ía -0.337978 0.010261 -0.058414 0.060263 0.004196 -0.477369 0.031678 0.137536 -0.115644 -0.168927 -0.001240 -0.342555 -0.802200 -0.262601 -0.047327 0.196977 0.672869 0.148469 0.091091 -0.447839 -0.327315 -0.275281 0.168891 -0.067667 0.096221 -0.051485 -0.254758 -0.313946 -0.157438 -0.328068 -0.316672 -0.035775 -0.256497 -0.046653 0.262718 -0.082666 -0.270015 -0.015223 -0.787043 -0.000195 -0.446324 0.074124 0.383591 0.133612 0.469793 -0.303343 -0.034362 -0.552375 -0.033075 0.429688 -0.019095 -0.349013 0.069794 -0.736329 0.178507 0.025299 0.095999 0.558123 0.226941 0.108593 -0.136492 -0.010274 0.153405 -0.178614
al@@ -0.265820 0.378725 0.368056 0.143356 -0.201367 -0.817501 0.000369 0.293177 -0.335002 -0.156410 -0.185336 -0.196965 -0.140424 0.407207 -0.227577 0.438125 0.043959 0.867151 -0.930389 0.037290 -0.031340 -0.285283 0.983166 -0.369620 0.528836 0.191401 -0.069420 -0.004221 -0.511811 -0.493680 -0.202570 0.123193 -0.003328 -0.522928 -0.039384 -0.069057 -0.058384 0.244103 -0.489650 0.804143 0.826799 -0.678621 1.024866 0.413914 0.117898 -0.604543 -0.191180 0.143688 1.320444 0.041987 0.363647 0.057521 -0.484880 -0.736277 0.579316 -0.188321 -0.145938 0.287116 -0.849020 -0.568815 -0.165334 0.489142 0.890841 -0.267122
verdad 0.241790 -0.757482 -0.350345 0.092122 -0.473993 0.663111 0.339313 0.727520 1.069658 0.829029 0.172172 -0.727277 0.734050 -0.972179 -0.251040 0.039305 0.020177 0.229859 -0.608491 -0.539289 0.330262 -0.814814 0.344273 0.423003 0.551078 -0.786991 0.329871 0.555779 -0.185733 0.562293 0.243703 0.372550 -0.119546 0.143612 -0.029272 -0.633761 -0.008151 0.218603 0.406019 0.292886 0.973301 -0.298253 -0.391048 -0.576360 -0.469214 0.423983 0.535583 1.563125 0.691375 0.590131 0.788747 -0.537244 0.373711 0.584726 -0.346339 0.089758 0.508818 -0.611094 -0.897111 0.023343 -0.564763 -1.061421 0.786866 0.533233
cu@@ -1.061599 0.811518 0.770417 -0.395171 0.376834 -0.182896 0.603537 0.743535 -0.313018 -1.055120 -0.384858 0.276643 -0.093334 -0.454648 -1.211168 0.385013 0.112187 -0.254353 0.721009 0.011206 -0.496512 0.300150 0.210081 -0.004307 0.229940 0.013288 0.445752 0.232915 0.183517 0.021604 -0.039880 -0.518279 -0.617387 -0.353953 0.397126 0.160210 -0.234181 -0.043071 -0.405574 -0.689022 0.179730 -0.286627 0.919297 0.260723 0.240859 -0.201876 0.061691 -0.294332 -0.454844 -0.316492 0.297495 -1.191232 -0.749877 -0.067348 0.274903 -0.055763 -0.009275 0.098290 0.047161 0.915152 -0.059770 0.566582 -0.165048 0.126994
da 0.168399 0.799829 0.040326 -0.290619 -0.533659 0.129556 -0.754640 -0.175273 0.837803 0.402011 0.188892 0.841146 -0.106405 0.383198 -0.607647 0.276035 -0.683833 0.147608 0.348461 0.485460 -0.063454 -0.447446 0.169965 0.250560 -0.141165 0.817306 -0.018084 -0.807351 -0.193464 0.596267 1.022957 -0.325762 -0.020467 0.958782 0.333648 -1.660215 0.931736 -0.852899 0.742904 -1.020588 -0.334716 0.272684 -0.046848 -0.508276 -0.286463 0.825841 -0.032069 -0.757846 -0.091018 -0.079569 -0.859942 0.179012 0.085007 -0.229654 -1.134013 -0.663660 -0.370808 0.184202 -0.464915 0.831739 0.371874 -0.457626 -1.096837 -0.331399
del 0.865830 -0.938665 -0.901206 0.251061 -0.526317 -0.270113 -0.060548 -0.656090 -0.570357 0.377051 0.133899 -0.200374 -0.206130 -0.344294 0.190300 -0.221311 0.299542 0.179169 -0.322614 -0.225427 1.388133 -0.870489 0.255647 0.969227 0.115193 -0.737086 -0.153526 -0.347888 0.219647 0.172061 0.682778 0.121464 0.399787 0.140043 0.057277 0.011725 0.196033 0.213873 0.578241 -0.108249 -0.185524 -0.225263 -0.375617 -0.614224 -0.726537 0.356207 0.291585 1.502473 -0.036935 0.598811 0.020720 0.393007 0.505167 -0.534240 -0.647766 0.534498 0.958100 0.215909 -0.107103 -0.253544 1.015530 -0.507958 -0.250664 0.024209
su@@ 1.135021 0.630038 -0.127616 0.085089 -0.369721 -0.359605 0.414521 -0.447463 -0.822496 -0.638728 -0.566620 -0.124875 0.549919 1.183786 -0.623986 -0.124076 -0.978731 -0.810346 -0.331996 0.574609 0.003718 0.506930 0.152501 1.146388 0.606834 0.270994 0.167335 0.211162 0.311448 1.221914 0.788532 0.750683 0.943754 0.625975 -0.055347 0.170143 0.242243 -0.486662 0.391046 -0.660355 1.233892 -0.013969 -0.088733 0.425453 0.800674 -0.318015 -0.075191 0.599577 -0.296075 0.453844 0.256018 0.193123 -0.395428 0.931485 -0.546841 -0.269908 -0.528575 -0.512943 0.043758 -0.301161 -0.483318 -0.450776 -0.256251 1.090121
con@@ 0.896769 0.610862 0.204175 0.785158 -0.308586 -0.149202 -0.169293 -0.134539 -0.011024 0.582435 0.228238 0.468742 1.383243 0.764711 -0.062641 -1.762835 -0.281044 0.411189 0.237869 -0.293271 0.816520 0.073731 -0.147662 0.331005 0.363097 -0.188046 -0.678305 -0.061146 -0.047459 -1.143817 1.480505 0.621236 0.014942 -0.055059 -1.058965 0.321433 -0.179068 -0.647398 -0.279614 -0.396373 0.802204 0.344484 -0.136182 -0.027502 0.275516 -0.226192 -0.442723 0.145947 -0.488574 -0.995140 -0.117693 0.174969 -0.576439 0.485545 0.731255 1.130970 0.271879 0.101221 -0.168387 -0.128469 -0.018426 0.150803 -0.019423 -0.953210
ahí -0.996721 0.447777 0.175412 0.031628 -0.158666 -0.002103 -0.264955 0.259704 -0.086487 -0.111266 0.127750 -0.233160 -0.198880 -0.133976 0.064332 0.325821 0.030344 -0.234839 0.221908 -0.517307 -0.039593 -0.305199 0.650793 0.052136 -0.369105 0.382751 -0.099647 -0.530980 -0.730806 -0.209826 -0.081267 0.402960 -0.517652 -0.285970 -0.549454 -0.067523 0.026119 0.040528 -0.666311 0.361207 0.257790 0.037868 0.238072 0.498085 0.335358 -0.374899 -0.043607 -0.393034 0.387248 0.147172 0.250491 -0.845381 0.266324 0.046928 -0.072073 0.527617 -0.417650 0.158627 -0.575803 0.423550 -0.206617 0.384256 0.041243 -0.185053
mi@@ 0.311260 -0.245963 -0.213247 -0.545404 1.075934 0.674626 -0.275851 0.358207 -1.021235 -0.422366 0.120568 -0.245138 0.827102 0.271137 0.875233 -0.328309 -0.512821 -0.473944 -0.107758 0.815293 0.157241 0.878832 -0.279941 0.214159 0.697805 0.222346 -0.184083 1.421832 0.129123 0.219035 -0.395869 -0.434985 -0.866812 -0.279983 -0.116063 -0.282780 -0.936660 -0.182427 0.065616 0.480694 1.412611 -0.286341 -0.594791 0.844565 0.296108 -0.804091 0.222827 0.481069 0.120441 -0.451140 0.912633 -0.130369 -0.126474 0.769949 1.159097 -0.737141 -0.303320 -0.192971 0.031589 -0.059001 -0.058543 -0.701059 1.011207 0.184614
tengo 0.125009 0.057771 -0.232427 0.015746 -0.726946 0.476654 1.512897 0.692266 0.143635 0.053816 0.194220 -0.497990 -0.297987 -0.374385 0.074578 0.471729 0.591697 0.428518 -0.324117 0.380408 -0.908945 0.642217 0.068682 0.331910 -0.725375 -0.148608 0.482735 0.535027 -0.546818 -0.101894 -0.835990 -0.036049 -0.854155 -0.993311 -0.037080 0.310629 -0.314930 0.208337 -0.548708 -0.731821 -0.634580 -0.502282 0.041319 0.169782 0.560660 0.258712 -0.267793 -0.024033 0.380835 0.634492 0.006408 -0.300798 -0.324368 0.223612 -0.278374 -0.579406 0.223920 0.062508 0.561601 0.065982 0.118693 0.380430 0.443252 1.006286
estoy -0.411945 -0.012162 -0.203187 -0.075054 0.115101 -0.087561 -0.134340 0.307364 0.295815 -1.562523 0.120109 -0.768468 -0.844507 -0.292547 0.361087 0.047151 -0.185054 0.331938 0.347110 -0.298801 0.014648 -0.417585 -0.105782 0.598760 -0.349563 0.137189 -0.033635 0.458398 -0.453125 0.056933 -0.574069 0.004124 -0.579808 -0.785011 -0.435877 0.026320 -0.919139 -0.179214 -0.949291 -0.140746 -1.433282 0.377654 0.728081 -0.023273 0.331810 0.089652 0.006325 -0.641121 0.546045 0.142586 -0.200253 0.791870 0.384017 -0.823869 -0.265074 0.461679 -0.154376 0.737404 0.694224 -0.896246 0.013648 0.983073 0.594792 -0.783482
n@@ -0.199648 0.289022 0.835605 0.536218 0.364251 -0.504372 -0.837893 0.620346 -0.510232 0.394398 0.020169 -0.758892 -0.662130 0.318496 -0.010038 0.147550 0.413269 0.033753 -0.228668 -0.288784 -0.084128 0.472193 0.215682 -0.541713 -0.236501 0.087773 -0.431649 -0.097285 -0.356734 -0.521930 -0.116882 0.215446 0.179858 -0.322509 0.308024 -0.126471 0.088792 -0.038887 -0.228049 1.037146 0.079561 -0.261158 -0.038095 0.260006 0.852523 -0.434569 0.062030 -0.316778 0.247649 0.136379 0.582551 -0.609025 0.239798 -0.232757 0.607422 0.791710 0.169439 1.064527 -0.511429 0.477891 -0.080091 0.446281 0.438610 0.155549
ac@@ -0.141471 0.290732 -0.030055 -0.795485 0.439208 -0.212894 0.149440 -0.293280 -0.949679 -1.264614 0.578589 0.509366 -0.276208 -0.127131 0.650420 0.092799 -0.137819 0.291007 0.682924 0.106576 0.257048 0.203510 0.612361 -0.258123 0.792390 -0.378561 -0.700741 0.114364 0.072244 -0.171554 -0.032887 -0.650682 0.723377 0.894709 0.223211 0.248396 -0.437879 -0.278468 -0.879482 0.091216 0.180503 -0.114307 -0.307350 0.039185 0.521700 -0.465854 0.378641 -0.916581 0.447615 -0.287101 0.339261 -1.109197 0.397727 0.265450 0.603576 1.143226 -0.319453 -0.102886 -0.163335 0.914896 -0.143438 -0.437353 0.047736 -0.173814
va -0.834708 0.449095 0.727244 -0.346842 -0.523420 0.872503 0.296228 0.453764 -0.193268 -0.209610 -0.239210 -0.276546 -0.929333 -0.532778 0.044808 0.411372 0.733701 -0.102248 -0.353186 -0.807463 -0.328755 0.154909 0.755059 -0.337286 0.567770 -0.064998 -0.093927 0.029156 -0.921362 0.299173 -0.295905 0.177707 -0.027084 0.274448 -0.414667 0.585786 -0.707008 -0.050808 -0.071639 0.608777 1.117082 -0.744906 0.152261 -0.134635 0.030661 -0.172296 -0.094954 -0.353185 1.219891 -0.128990 0.853865 -1.555767 -0.332880 -0.388077 -0.849712 0.675367 -0.847735 -0.445043 -0.781623 1.126897 -0.041986 0.312280 0.221957 0.598744
j@@ 0.221947 0.086570 0.103382 0.734076 -0.857081 -0.154650 -0.248483 0.611712 0.252410 0.429503 0.403558 0.723732 0.086952 -0.533279 0.049352 0.380849 0.503880 1.013966 1.140344 0.062022 -0.135115 -0.589282 -0.075130 -0.141181 -0.397916 -0.341254 -0.028424 -0.811351 -0.213121 -0.853165 0.026790 -0.144367 -0.414563 -0.192035 -0.039101 0.258474 -0.232094 0.179673 -0.337583 -0.470155 -0.271751 -1.011226 0.210852 0.225582 0.497395 0.059960 0.284250 -0.249711 1.113278 0.769388 0.308531 -0.899082 -0.513226 -0.553813 -0.867236 0.355140 0.487038 0.400184 -0.726248 0.254480 0.012896 0.777946 -0.221468 -0.581720
ellos 0.132865 -0.346410 -0.976683 -0.098564 -0.364203 0.431823 0.020359 0.562090 -0.184667 0.255658 -0.429274 -1.145369 -0.294809 0.074453 -0.191898 0.490879 0.613390 0.262395 0.136185 -0.441227 0.165142 -0.349295 0.817970 -0.901746 0.149293 0.084066 0.316267 -0.205567 -0.015334 -0.636207 -0.471426 -0.629941 -0.548776 -0.196316 0.320363 0.669306 -0.951747 0.547684 -0.119359 0.584773 -0.301665 -0.356859 0.479887 -0.052581 0.174452 0.042603 0.838009 -0.605659 0.073359 0.812324 0.932281 -0.396710 0.241272 -0.325375 0.151211 0.759903 0.099951 0.415828 0.399318 0.258423 0.019172 0.637240 0.669540 0.225862
él -0.162126 -0.392552 -0.337313 -0.560726 -0.091791 0.119328 -0.888739 -0.965074 0.876212 0.568551 0.162802 0.147495 -0.701794 0.379321 0.032026 -0.081981 -0.272638 0.211346 -0.822123 -0.154438 0.957344 -0.329246 -0.016886 1.263839 -0.818650 -0.072797 -0.583609 -0.430260 0.138201 1.068878 1.056644 0.488057 0.571638 0.822387 0.060592 -0.356471 -0.206164 -0.515856 0.843837 -0.186387 0.683876 0.817147 0.207565 -0.758370 -0.460999 -0.511018 0.283337 0.916506 -0.198542 0.830061 -0.241667 0.142504 1.145995 -0.352806 -0.974878 -0.106590 0.001635 0.085413 -0.540800 0.559448 0.455800 -0.624988 -1.094830 0.347947
ab@@ -0.740705 0.800802 1.020590 -0.366557 0.816711 1.111548 -0.148525 0.431079 -0.706616 -0.942883 0.193548 -0.145570 0.184600 -0.231758 -0.039636 -0.504384 -0.123560 0.169490 0.163748 -0.129146 0.379545 0.346551 0.332474 0.207384 0.837342 0.967902 0.016441 0.044010 -0.336237 -0.716525 -0.898482 -0.326637 -0.073340 -0.352321 -0.138183 0.295835 -0.517996 0.617731 -0.669433 -0.058347 0.685734 0.095164 -0.138332 -0.108496 0.333177 -0.825401 0.095898 -0.235918 0.479485 0.033487 0.982000 -0.458851 -0.408525 1.161318 0.305118 0.187468 -1.125621 0.356796 0.454971 -0.002504 -0.009720 0.929755 0.353224 0.501387
ahora 0.979713 -0.072625 -0.963356 -0.302774 0.964218 -0.687374 -0.352288 -0.887877 -0.516870 -0.932764 -0.833931 -0.764691 -0.298308 0.496991 -0.207309 0.378118 -0.725702 -0.323784 -0.024743 0.560149 0.911030 0.370561 0.335279 -0.249060 0.658922 -0.192219 -0.799967 0.664025 0.696316 0.628193 0.668307 -0.497537 0.136811 0.941888 -0.042831 0.768371 -0.775449 -0.425464 0.261322 0.540151 0.121295 0.743474 -0.165184 -0.558660 -0.315816 0.783798 0.097575 0.133769 -1.092981 -0.419851 -0.456271 0.806790 0.519472 0.519724 0.565067 0.053214 -0.102896 -0.746457 0.111296 -0.518547 0.181855 -1.079435 0.069087 0.633351
er -1.070293 0.130710 0.731681 0.192741 -1.144187 0.035638 -0.135001 -0.211936 0.324181 0.129710 1.162774 -0.130650 -0.067743 -0.077817 0.063331 -0.653799 -0.518046 0.330454 0.380934 -0.789489 -0.462273 -1.252224 0.873065 0.392668 -0.400550 0.373132 -0.160732 -0.379986 -0.616492 -0.307231 -0.033010 0.514486 -0.438404 -0.674264 -0.507758 -0.127776 0.711592 0.875788 -0.375702 -0.211167 0.588273 -0.541533 -0.521273 0.737224 0.267497 -0.881819 -0.045258 -0.742313 1.066692 0.449601 0.738002 -0.991709 0.673737 -0.121837 -0.645062 0.248040 -0.535574 0.925096 -0.674136 0.478375 0.355069 0.529273 -0.617694 -0.573118
uh -0.885832 0.114399 -0.607972 -0.147597 -0.488996 0.116799 0.208029 0.163910 0.483695 0.578755 0.428117 0.209142 0.313306 -0.854839 0.436478 -0.117767 0.258438 0.429691 -0.233634 -0.831159 -0.261468 -1.042069 -0.061986 -0.945550 -0.788183 0.106153 0.580957 -0.770094 -0.563618 0.138112 0.093317 0.533755 0.266736 -0.492330 -0.702651 -0.020902 -0.555111 0.013288 0.336770 0.411411 0.393690 -0.144975 0.491020 -0.728457 -0.198854 -0.402227 -0.071614 -0.591771 0.240604 -0.323545 0.479801 -0.585373 0.610038 -0.650795 -0.267160 0.697387 0.519324 0.087052 0.158566 0.832336 -0.176059 0.089468 -0.107795 -0.623903
dos 0.863151 0.270738 -0.206127 0.006269 -0.603200 0.224695 -0.569972 0.010840 0.087946 -0.751394 -0.654201 -0.113915 0.206690 -0.336325 -0.084678 0.159535 0.070656 -0.796030 0.046624 0.180341 -0.061044 0.051123 -0.297226 -0.005479 -0.430227 0.702300 0.239449 -0.716034 -0.618193 -0.333247 0.526786 0.335249 0.285183 -1.061327 0.581298 0.222411 -0.754889 0.207337 -0.867121 -0.413714 -0.239051 0.166943 0.155758 -0.064395 0.160085 -0.329902 0.458833 -0.428751 0.146367 -0.092955 0.086909 -0.445441 0.625468 -0.094553 0.398563 0.637235 -0.648319 -0.014387 -0.179874 -0.004346 0.180138 0.001034 0.469909 -0.786068
ri@@ -0.410622 0.024494 -0.176107 -0.368555 0.142815 0.632846 0.302583 -0.297622 0.437671 0.138453 0.967248 -0.207390 -0.468207 -1.134174 1.251621 -0.315982 0.819151 0.472652 -0.715216 -0.719578 0.345455 0.212901 0.254043 -0.317737 -0.078765 0.710285 -0.440320 0.037110 -1.523920 -0.349902 -0.398524 0.594651 0.351113 -0.391390 -0.138031 -0.580046 -0.114624 -0.336055 0.122536 0.336904 0.702985 0.425732 -0.000093 -0.444518 0.332629 -0.225095 -0.203819 0.010141 0.154567 -0.530860 0.318906 -0.526899 0.649999 0.398854 -0.037137 0.819381 -0.434281 -0.454495 0.470242 0.972356 0.347508 -0.216722 0.442425 0.668492
años 0.579237 0.123533 -0.798857 -1.203581 -0.565890 0.636705 -0.774145 -0.342483 -0.502713 0.536323 -0.489405 -0.707770 0.659811 -0.248906 0.201752 0.034075 -0.278098 0.255279 -0.022856 -0.051142 0.469236 -0.336756 0.009899 -0.589256 -0.004363 -0.001767 0.196986 0.340014 0.146047 0.198452 1.044093 0.465421 0.005069 0.559870 -0.726071 -0.184340 -0.531126 -0.514144 1.157179 -0.761010 0.756449 0.604383 0.098475 -0.927832 -0.810310 0.172062 0.656895 0.431543 0.323684 0.401279 -0.304859 0.351751 -0.335758 -0.256347 -0.650887 0.493531 0.507076 -0.387006 -0.915774 0.932844 0.084286 -0.788969 -0.576547 0.052751
í@@ -0.397058 0.866646 0.506592 0.180357 -0.574599 -0.079085 0.194903 -0.031544 -0.175275 -0.333856 0.390324 0.675012 0.857047 -0.120127 -0.904590 -0.334728 -0.441757 0.725960 0.338399 -0.084662 0.020197 -0.186589 -0.056599 -1.045944 -0.008492 0.262482 -0.099395 -0.658664 -0.481770 0.296042 0.304614 0.087453 1.073051 -0.388194 -0.295759 0.630756 -0.029738 -0.085523 -0.255703 -0.372117 0.327758 0.525136 0.481730 -0.353218 0.198881 0.365349 0.553873 -0.511879 -0.192961 -0.065850 0.748489 0.222433 -0.989407 -0.136233 -0.164448 0.693268 0.545288 0.258808 0.193681 0.229001 0.505932 0.011887 0.370540 0.154465
cosas -1.010893 1.299354 0.748489 0.206024 -0.270999 0.410217 0.927424 0.019798 0.825664 0.405905 0.610127 1.084983 0.206720 0.231163 -0.869052 -0.103831 -0.350356 0.584424 0.478909 -0.470831 -0.358232 1.356941 -0.036947 0.337742 -0.759709 0.458006 0.473296 -0.251254 -0.558896 0.788641 -0.195864 0.830257 0.417778 0.350432 -0.927518 -0.655087 -0.325597 -1.228136 -0.080093 0.765438 -0.214730 0.511421 0.309602 -0.012910 0.086933 -0.047706 -1.171512 -0.489861 -0.937616 -0.673502 -0.268476 -0.210094 -0.131975 -0.378941 -0.458058 0.547475 -0.706299 -0.152205 0.053567 0.938437 0.616561 0.635811 -0.668199 -0.081992
ch@@ -0.352000 0.150687 0.151003 -0.601521 -0.230797 0.242279 -0.369384 -0.216927 -0.096598 -0.593256 0.783650 0.095195 -0.237945 0.101589 0.801464 -0.129105 0.901485 -0.666603 -0.290432 -0.365727 0.273267 -0.337231 0.888521 0.380044 -0.216350 0.911001 -0.332122 0.007352 -0.351390 -0.539318 -0.947305 0.581273 0.134623 -0.753065 -0.066257 -0.084331 0.408825 -0.100038 -0.262593 0.179774 0.043705 0.062331 0.092269 0.187289 0.108115 -0.614629 -0.076333 0.220576 0.502554 -0.183734 0.056699 -0.325014 -0.227079 -0.200964 -0.261241 0.031663 -0.502530 0.641949 0.074411 0.209413 0.569843 0.246187 0.066848 0.477568
es@@ 0.441982 -0.874934 -1.376897 0.427235 -0.562805 0.400240 -0.784613 -0.303736 -0.402822 -0.122427 0.180360 -0.385925 0.486574 0.392385 0.434479 -0.099387 -0.217031 -1.003983 -1.427776 0.191949 0.559469 -0.276363 -0.016274 0.218283 -0.319695 -0.028286 0.003517 0.766216 0.503984 0.439256 0.020411 0.089719 0.055400 -1.141775 -0.340386 0.065738 -0.306271 0.405025 -0.309037 0.269332 0.109923 -0.117069 0.162771 -0.922915 -0.130130 0.448779 -0.420768 0.557074 -0.067874 -0.662396 0.057890 1.198553 -0.098402 0.718574 0.824502 -0.625768 0.748800 0.173522 0.608792 -0.866420 -0.628222 -0.433958 0.418715 0.342849
á@@ 0.280545 0.170934 -0.458267 -0.215804 -0.005156 -0.020486 -0.198736 -0.633462 0.861061 -0.504895 -0.173588 0.523564 0.217011 0.899381 -1.251942 -0.559271 -0.334076 -0.897892 1.000270 0.440224 0.259768 -0.297870 0.444496 1.430472 0.144525 -0.406372 -0.010471 -0.145465 1.253645 -0.560353 -0.447648 0.112048 -0.061316 -0.423404 -0.171172 -0.067821 0.272623 -0.286588 0.133846 -1.202819 -0.683025 -0.184896 0.999879 -0.125278 -0.184380 -0.398775 -0.440776 0.064531 0.055971 0.140479 -1.021773 0.402564 0.561421 0.150411 -0.866055 0.471609 -1.140221 -0.345764 0.366674 -0.785176 0.312941 0.552411 -0.045532 -0.598819
gr@@ 0.234087 -0.021667 -0.108411 0.452283 0.649553 -0.346776 0.595816 0.086944 -0.731979 -0.230479 -0.439043 0.877712 0.387387 0.853313 -0.027819 -0.856617 -1.548340 -0.462992 -0.109058 0.939192 0.365550 0.665365 -0.232168 0.031689 -0.450155 -1.163390 0.521307 0.566797 0.269640 -0.348073 0.465125 0.078954 0.727187 0.051931 0.128177 0.725736 0.096172 0.402108 -0.007176 -0.627481 0.516704 -0.579001 -0.303839 0.123641 0.431193 -0.214838 0.445503 0.179034 0.570884 -0.010258 -0.103491 0.133264 -1.022846 0.837037 0.395366 -0.333653 -0.063612 1.127688 0.004793 -0.131094 0.431952 0.132195 -0.677850 -0.465557
tr@@ 0.042940 0.298228 0.912924 -0.241146 -0.643999 0.617001 -0.042365 -0.481053 0.046441 0.463749 0.153894 0.683466 -0.934163 -0.011285 -0.483221 0.523054 -0.923603 -0.120293 0.193033 0.211964 0.175951 -0.446043 -0.078418 0.384266 -0.061768 0.412442 -0.421441 -0.451237 0.370208 1.109288 -0.008031 -0.117259 0.496513 0.005146 0.761645 -0.529076 1.342127 0.335412 0.410624 -0.344157 -0.416479 -0.639273 -0.406963 -0.543982 -1.087436 0.238821 0.417449 0.389795 -0.892467 1.653504 -0.158595 -0.136296 -0.261461 0.186281 -1.151833 0.025181 -0.698858 0.164610 -0.552628 -0.017778 -0.354985 -0.709699 0.000691 0.845146
tu@@ -0.785550 0.387053 0.201201 0.012273 0.237383 0.078410 -0.251337 0.001400 -0.753284 -0.463273 0.072183 -0.857242 -0.712213 -0.013621 0.033099 -0.001612 0.069172 -0.005915 -0.085262 -0.251500 0.305648 0.228734 0.632406 -0.065495 0.089192 0.450662 -0.686422 0.008216 -0.488997 0.013635 -0.726323 0.041066 -0.098176 -0.203129 -0.455351 -0.303805 -0.399129 -0.017279 -0.443207 0.472398 -0.022956 0.257898 0.118868 0.101561 0.295782 -0.134106 0.193930 -0.287525 -0.021480 -0.562857 0.371380 -0.209412 0.247517 0.112982 0.324544 0.218909 -0.389853 -0.464025 0.008837 -0.370527 0.718139 0.329532 0.241635 -0.089479
nada -1.040736 -0.077875 0.190438 0.457123 0.065813 -0.135724 0.323897 -0.528833 -0.011247 -0.416537 -0.095097 0.093883 -0.490940 0.075895 -0.524313 -0.073129 -0.057957 0.440212 0.505984 -0.308260 0.426613 0.342649 0.036002 -0.304776 0.078548 0.834028 0.355281 -0.033214 -0.819414 0.233765 -0.021755 0.319138 -0.524274 -0.277331 0.048327 -0.003593 -0.219381 -0.274138 -0.355717 -0.645305 -0.423381 0.109894 0.326335 -0.074461 0.438429 -0.512812 -0.832338 -0.423687 -0.540914 -1.005780 -0.278097 -0.029769 0.009196 -0.696426 -0.806014 0.370021 -0.470350 -0.200744 -0.100902 -0.041803 -0.371699 0.932627 0.424745 -0.428426
est@@ 0.074350 -0.781268 -0.146145 0.165515 -0.137631 -0.466547 0.439343 -0.362224 0.380318 -0.898027 0.272923 0.140258 0.744852 0.152405 -0.310505 0.046386 -0.173166 -0.032924 -0.678188 0.379145 1.150013 -1.005186 0.644391 1.117055 -0.304674 -0.478722 0.048912 -0.178401 0.298119 -0.222375 0.449755 0.332006 -0.024112 -1.108693 0.050580 -0.349969 -0.080999 0.067119 -0.833853 0.144664 -0.009009 -0.881415 -0.815027 0.292284 0.686049 -0.426490 0.386678 0.531845 0.675672 0.582647 -0.995578 0.206723 0.841073 0.772805 -0.026151 0.783799 -0.623835 0.253947 0.532203 -0.719238 0.192211 0.205574 -0.199136 -0.056792
algo 1.013889 -0.408545 -0.876943 0.400722 -0.318295 0.485620 -0.382601 -0.513063 0.770294 0.596891 -0.338100 0.178403 0.593850 1.032843 0.119587 -0.190400 -0.310389 -0.673596 -0.944644 0.421917 1.074168 -0.181431 0.283139 0.471855 0.698886 0.654908 -0.425128 -0.201292 -0.175593 0.252094 0.587902 0.098036 0.982742 0.083724 -0.736823 -0.415151 -0.485177 0.234950 0.058638 0.385374 0.811912 0.447710 -0.187489 -0.369762 -0.856641 -0.224996 0.131311 0.059726 -0.808127 -0.348875 -0.292575 1.205887 0.242804 0.721211 0.195612 0.616177 -0.045096 -0.648038 0.022356 -0.452180 0.237953 -0.876306 0.329348 0.253441
gu@@ 1.091735 0.175903 0.300668 0.216763 -0.854176 0.353846 -0.172269 0.615792 0.623948 1.005678 0.364116 0.727064 1.161548 -0.601257 -0.716544 -0.041802 -0.619082 -0.108483 -0.133564 0.699766 -0.267203 -1.121542 -0.135488 0.631929 0.391168 -0.243340 0.419779 -0.745671 0.760983 -1.171407 0.242044 0.372738 0.180605 -0.269647 -0.354783 -0.136241 -0.065636 0.839417 0.332878 -0.679779 -0.775672 -1.454906 0.025770 -0.132021 -0.105369 -0.387799 0.180419 -0.470115 0.701150 1.219011 0.046576 -0.318388 -0.497192 0.385770 -0.118618 -0.137097 -0.049882 0.533101 0.163550 -0.285109 -0.181012 0.535200 -0.379111 -0.343212
tos -0.357157 -0.035979 0.303339 0.041690 0.135807 -0.065324 0.342306 0.319122 -0.555692 -0.232619 -0.099141 -0.436518 -0.448095 -0.268775 -0.012352 0.542359 0.514738 0.116103 0.539101 -0.185561 -0.428554 -0.265387 0.160303 -0.235112 -0.135781 0.117122 -0.032826 -0.042688 -0.172961 -0.249188 -0.563330 0.003754 -0.255909 -0.152389 0.376485 0.177508 -0.200683 0.248323 -0.258393 0.198707 -0.205136 -0.053594 0.587438 -0.190599 0.146097 -0.382605 -0.071792 -0.292502 0.245737 0.396677 0.581842 -0.643470 -0.043297 -0.339436 0.228986 0.335158 -0.196659 0.376821 -0.033625 0.230140 0.236706 0.200869 0.213341 0.007466
pi@@ -0.219286 0.036471 0.094044 -0.230852 0.093328 0.310941 -0.037269 0.559345 0.129331 1.063774 0.221925 -0.686714 -0.380569 -0.710866 -0.010997 0.300656 0.233801 0.775532 -0.373375 -0.133760 -1.089659 0.080113 -0.047757 -0.956159 -0.201752 0.044419 -0.399450 -0.332351 0.029524 -0.145790 -0.720000 0.250965 -0.514132 -0.365649 -0.441184 -0.186687 -0.991368 -0.173985 0.744077 0.724779 -0.952439 -0.730494 -0.112692 -0.311257 -0.065658 -0.001345 0.108235 -0.236207 0.182908 -0.040531 0.670133 -0.618726 -0.212291 -1.237220 0.284461 0.380484 -0.082221 -0.709283 0.395421 0.309594 0.433059 -0.082124 0.430862 -0.552203
é 0.004321 0.349990 0.362571 0.065873 -0.142683 0.058802 -0.005544 0.461114 -0.220382 -0.404018 0.281495 -0.013772 -0.415644 0.192755 -0.628012 0.308156 0.487347 -0.439568 0.173969 0.238749 -0.048892 0.114693 0.190971 0.285827 0.002247 0.164569 -0.011746 -0.309281 -0.188845 -0.014310 -0.421237 0.078100 -0.469732 -0.289404 0.218241 -0.351394 -0.122751 -0.177065 -0.651376 -0.036584 -0.229339 0.049678 0.300578 0.356154 0.330702 -0.663396 0.036063 -0.159616 -0.106046 0.329801 0.205934 -0.099806 0.087600 -0.155705 0.119090 -0.388342 -0.244757 0.555141 0.230641 -0.302397 0.320580 0.513682 0.153955 -0.049353
ese -0.403792 0.491850 -0.755528 0.067913 -0.513604 -0.052277 -0.248024 0.351288 -0.388827 0.098796 0.582745 -1.173039 -1.273128 -0.317783 -0.422683 0.229263 0.851902 -0.438340 -0.728119 -0.301592 0.440459 0.049196 1.294796 0.489152 0.375108 -0.000923 -0.277030 0.130643 -0.310768 -0.112888 -0.908836 0.166438 0.185211 -0.625506 0.159826 -0.321224 0.398539 1.004928 -0.565411 0.041546 -0.381650 0.469149 -0.304608 0.052794 0.583939 -0.300456 -0.120430 0.626828 -0.068428 0.423541 0.559714 -0.717891 1.218490 1.120902 -0.367876 0.161260 -0.641630 0.241050 -0.695156 -0.102777 -0.166854 -0.181870 0.216033 0.408188
ad@@ 0.675692 0.698506 1.194395 -0.923213 1.235463 -0.389323 -0.238941 -0.442704 -0.652466 -1.002016 -0.086873 0.162460 0.422551 0.857911 -0.351402 -0.359025 -1.084151 -0.668357 0.400084 0.691444 0.281501 0.882991 0.093191 0.909760 0.192473 0.340082 -0.492795 0.312942 0.134178 0.376007 0.074020 0.155045 0.583852 0.698911 0.243069 0.078176 0.768220 -0.021429 0.268289 -0.917506 0.506621 1.059224 -0.850411 0.633676 -0.348552 0.444977 0.341228 0.052281 -0.759530 0.444210 0.092585 1.077360 -0.539710 0.693865 -0.467640 -0.815715 -0.060578 0.294286 0.154187 -0.686462 0.507882 0.131588 -0.679863 0.731979
li@@ 0.385308 -0.877042 -1.019355 -0.008044 -0.702231 -0.657685 0.988957 -0.337972 0.460798 0.437961 0.074655 0.351863 1.283888 0.400073 0.431221 0.210111 -0.358052 -0.044093 0.413280 0.418143 0.591894 0.337335 -0.693927 -0.451642 0.030353 -0.240661 1.096269 0.292767 0.772092 0.556042 1.242011 0.176987 0.379883 0.396220 0.064492 -0.518317 0.300627 -0.157694 0.884183 -0.536596 0.348340 0.807095 -0.086320 -1.308259 -0.426969 0.313963 -0.082087 0.323686 -0.658649 -0.290085 -0.866467 0.450058 0.027254 0.127236 -0.288954 -1.020390 1.159998 -0.586384 0.608692 0.338467 -0.630707 -0.869629 -0.465467 -0.429706
ic@@ 1.355006 -0.754490 -0.171650 -0.528936 0.132274 -0.762664 0.519434 0.226751 -0.648089 -0.211167 -0.185689 -0.382961 0.768702 -0.152493 -0.093627 0.421967 0.300633 -0.243268 -0.180516 1.149947 0.711861 0.304097 0.458866 -0.259456 0.189854 -0.577980 -0.274054 0.753825 0.874935 0.355072 -0.772636 -0.654675 0.376916 -1.259859 0.607467 0.462546 -0.360231 0.766753 -0.124936 -0.451261 -0.333929 -0.520982 -0.562212 0.519713 -0.828527 0.056022 1.142057 0.213970 -0.363010 0.846888 0.674847 0.617569 0.298387 -0.251608 0.380070 -0.955390 0.177065 -0.226587 0.629926 -1.111843 -0.176726 -0.431871 0.180146 0.561339
ten@@ -0.579365 0.316956 -0.067741 -0.134535 -0.368858 0.064899 0.172196 0.240271 -0.819272 -0.134476 0.453884 -0.651333 0.041497 0.267488 -0.188772 0.230762 0.057116 -0.432002 -0.376019 -0.006268 0.117394 -0.350703 1.235277 -0.338726 -0.280278 0.127204 -0.412149 0.071116 -0.627031 -0.141162 -0.060423 0.441966 0.227952 -1.014030 0.114407 -0.081987 0.802474 0.315091 -0.260766 -0.102527 1.146073 0.070854 -0.143634 0.535739 0.746048 -0.898984 -0.136845 0.270542 0.540111 -0.085541 0.593798 -0.361077 -0.141605 -0.172228 -0.191676 -0.019350 -0.355897 0.784794 -0.684755 0.410936 0.247694 -0.219368 0.015432 0.102493
el@@ -0.011309 0.985847 0.822996 -0.649622 -0.014932 0.418076 0.260085 0.750760 -0.256413 -0.185529 0.178923 1.248178 -0.114316 -0.625236 -0.409752 0.326158 0.601096 0.562215 0.416374 0.753554 -0.915610 -0.523380 -0.249254 -0.151095 0.405316 -0.065557 -1.154727 -0.228448 -0.514042 -0.203558 -0.677791 -0.523552 -0.331856 0.816305 0.109658 0.205912 0.162425 0.355653 0.261009 -0.052193 0.539393 -0.122260 -0.331243 0.117534 -0.583519 -0.634649 0.573066 -0.413589 1.206207 0.613067 0.426618 -0.622613 -0.830264 0.508490 0.038333 -0.913127 -0.295932 -0.189318 -0.529186 0.781125 0.075819 0.457622 -0.123523 0.118423
hace 0.399858 0.361000 -0.151757 0.552998 0.028855 -0.053695 -0.018491 -0.287476 -0.345009 -1.312361 0.445196 -1.227172 -0.116314 0.784983 0.375297 0.256456 -0.285139 -0.874486 -0.116349 -0.055327 -0.211889 0.067024 0.759539 0.605148 0.541462 0.934264 -0.574454 0.302858 -0.416439 -0.120107 -0.020212 -0.101383 -0.023431 -0.235933 1.048267 -0.043819 -0.381972 0.295083 -0.734179 -0.192502 -0.183482 -0.683881 0.388883 0.684096 0.510403 0.030420 0.024897 -0.060855 -0.443691 -0.333147 0.340054 -0.397197 0.956650 -0.218415 -0.453864 0.728488 -0.696034 -0.325365 0.157139 -0.606944 0.147482 0.555470 0.164107 -0.082536
están 0.414952 -0.143013 0.262722 0.251709 -0.359985 -0.005389 -0.916517 -0.762982 -0.309595 0.124772 -0.339075 -0.201305 -0.101728 -0.639775 0.407181 0.289174 -0.285249 -0.019820 -0.740535 -0.224931 0.970959 0.661392 0.268783 -1.413524 0.240067 -0.198383 -0.536012 0.223807 0.144000 0.990087 -0.406381 -0.233840 0.773475 -0.043821 -0.209324 0.653470 0.840647 -0.571244 0.447692 0.819380 0.471231 0.497350 -0.476360 -0.562335 -0.832536 1.150226 0.530273 -0.256081 0.354767 0.169956 -0.128777 0.734070 0.384545 -0.262237 -0.201527 0.092045 -0.225006 -0.953316 0.290377 -0.717169 0.167699 -1.060555 0.515039 0.615569
s 0.093844 0.174694 0.230519 0.281166 -1.062604 -0.243672 -0.130266 0.407617 0.579876 -0.471895 0.148104 0.734564 -0.440424 -0.652951 -0.212194 0.186783 0.570885 0.491785 -0.306644 -0.840584 -0.002734 -0.687180 0.247399 0.452725 0.185723 0.265076 -0.286082 -0.605634 0.021656 -0.027723 1.056710 -0.206173 0.498128 -0.354256 0.094563 0.013639 0.841749 0.480248 -0.406190 0.312198 0.215381 0.187557 -0.103859 0.026480 -0.352427 -0.307859 -0.494231 0.167348 -0.221943 -0.026004 -0.294389 -0.614446 0.168503 0.283269 -0.143133 0.198122 0.382775 0.451635 -0.917229 1.286705 0.710854 -0.116649 -0.830298 -0.395370
am@@ -0.025627 -0.183271 -0.009477 1.023717 -0.683847 0.060953 -0.572522 0.171802 1.179204 0.513923 0.404923 0.309219 0.352685 -0.558529 0.229203 -0.805655 -1.024312 -0.564138 -0.657835 -0.257531 -0.114766 -0.998362 -0.090074 0.406519 -0.472579 0.540864 -0.600579 -0.417758 0.428815 -0.088563 0.921981 0.116132 0.680985 -0.519580 -0.563630 -0.610987 -0.107412 0.165784 -0.518367 -0.267870 -0.515887 -0.946169 -0.284987 0.021244 0.221960 -0.376888 -0.161647 0.144931 0.320217 0.004452 -0.754422 1.018574 0.604337 0.710367 -0.033396 0.618002 -0.066075 0.211012 -0.788770 -0.472457 0.545015 0.342543 -0.287979 -0.575563
tan -0.904787 0.515582 0.141225 -0.345733 0.269479 0.167073 -0.442484 -0.235315 -0.411764 -0.057943 -0.081300 -0.291314 -0.470674 0.441900 -0.043053 -0.393566 -0.037392 -0.154484 -0.213056 -0.497888 0.677203 0.513436 0.799630 0.787939 0.440262 0.860282 -0.879607 -0.201266 -0.914481 0.231569 -0.591686 0.254004 -0.112840 -0.087853 -0.601545 -0.276487 -0.332584 0.043389 0.044397 0.610992 0.764277 0.327803 0.068369 -0.246815 0.153167 -0.471625 -0.398224 0.392549 -0.560614 -0.239825 0.098854 0.100601 0.732070 0.148273 0.098242 0.323615 -0.375508 -0.492761 -0.100919 -0.076485 0.211963 0.188174 0.317646 0.066164
or 0.629113 0.188524 0.963244 -0.589228 0.612129 0.302716 -0.377742 0.297465 -0.301634 0.456831 -0.765882 0.952616 0.603835 -0.233253 0.078293 -0.627225 -0.117576 0.000415 0.794411 1.158746 0.063873 -0.582296 -0.295260 0.240980 0.601018 0.559951 -0.491091 0.666232 0.375297 0.186215 0.624385 0.270587 0.147838 0.886773 -0.096319 -0.003579 -0.511552 -0.720395 0.802748 -0.641756 0.495262 0.459513 -0.326498 -0.471028 0.013288 0.790264 0.668739 -1.080382 -0.140323 -0.137086 0.782117 0.432299 -0.617491 0.786532 0.337469 -0.029208 0.336519 0.078090 -0.136230 -0.430177 0.094708 -0.465338 -0.439798 0.038360
soy -0.774449 0.427838 0.545154 -0.014909 -0.099767 0.477961 -0.039369 0.549935 -0.152614 -0.145468 0.426491 -0.319606 -0.269608 0.067027 -0.169789 -0.129155 0.414688 -0.297568 0.115614 -0.553870 -0.323986 -0.303317 0.206498 0.020436 -0.126272 0.274602 0.168714 -0.023591 -0.435013 -0.538460 -0.151038 0.089573 -0.475270 -0.388809 -0.123209 -0.168753 0.416261 0.222759 -0.443254 -0.106296 0.275439 -0.174486 0.380865 0.162397 0.298146 -0.254153 -0.069722 -0.291196 0.640853 -0.065493 0.429125 -0.866168 -0.049481 -0.083733 0.283364 0.277823 -0.408687 0.479349 -0.262720 0.409756 -0.109693 0.552756 -0.160586 -0.339934
okay -0.031174 0.371933 0.049209 0.035135 0.117828 0.045087 0.020082 0.024656 -0.177197 -0.045099 0.172763 -0.491845 -0.396744 -0.260709 0.127150 -0.051433 0.424269 -0.051649 0.027373 -0.132195 0.125975 -0.132058 0.275909 -0.221218 0.322823 0.227706 -0.624380 -0.396702 -0.195546 -0.674034 -0.379663 -0.111334 0.008622 0.020318 0.195760 0.258177 -0.046458 0.089928 -0.258111 0.102041 -0.468089 0.159700 0.237759 -0.200146 -0.076600 -0.312222 0.174496 -0.189368 -0.010518 -0.187246 0.321195 -0.444114 0.381935 -0.125280 0.540371 0.380965 -0.072969 0.105943 -0.037518 0.000263 0.240082 0.266350 0.313545 -0.082940
go 0.546884 0.148205 0.271953 -0.070092 -0.532316 -0.032753 -0.027880 -0.577366 0.301761 -0.079940 0.967241 -0.529402 0.077237 1.155117 -0.500811 -0.637562 -0.494231 -1.111850 -1.134064 -0.265783 1.396025 -0.215543 0.291917 0.934751 0.534352 0.970535 0.264951 -0.131356 -0.022412 0.164287 1.006076 0.481826 0.634679 0.284372 -0.278112 -0.429153 -0.018140 -0.112030 -0.347163 -0.241796 0.062475 0.915819 -0.420447 0.619001 -0.121560 -0.072032 -0.224231 1.119969 -0.981844 -0.690473 -0.677804 0.495811 -0.140929 0.207873 -0.458089 -0.408167 -0.137665 0.474838 0.029552 -0.443069 0.503509 0.269945 -0.073541 -0.327961
he -0.070851 0.329209 0.141268 -0.251524 0.351702 -0.072785 -0.293658 0.355546 -0.857695 -0.273782 0.121090 -0.459322 -0.164309 0.045266 0.113598 -0.042935 0.032622 0.132672 0.598867 0.069973 -0.385725 -0.177312 0.038811 0.077191 0.061361 0.105857 -0.073873 0.056076 -0.116040 -0.452083 -0.576432 -0.358817 -0.522721 -0.340393 0.507107 0.077437 -0.238421 0.381854 -0.781065 0.100340 -0.580110 -0.550554 0.250488 0.120428 0.053556 -0.263138 -0.031572 -0.344641 0.244805 0.274245 0.354781 -0.382384 0.058457 -0.540664 0.314376 0.358475 -0.337687 0.686998 -0.357935 -0.246423 0.119923 0.639704 0.027593 0.061687
