<unk> 0.057684 0.039612 0.039692 0.051665 0.067073 0.084506 0.051521 0.038880 -0.040000 0.067339 -0.071502 -0.095960 0.002612 -0.055272 -0.061278 0.067209 -0.061353 -0.068667 0.043058 0.011723 -0.062949 0.028868 -0.030264 0.021885 0.050827 -0.016372 -0.095548 0.088176 -0.098832 -0.058968 -0.062665 0.075042 -0.032268 0.022321 -0.065453 -0.011179 -0.018392 0.089924 -0.077890 0.081049 -0.018194 0.083429 -0.081054 -0.049919 0.061967 0.035505 0.039370 0.013683 0.013491 0.052715 -0.015380 0.099622 -0.026297 -0.099872 0.080765 -0.069007 -0.049613 0.042223 0.039210 0.093912 -0.098857 -0.027342 -0.094045 0.094896
<blank> 0.055233 -0.019931 -0.069931 0.074532 -0.016402 0.097133 0.049957 -0.089440 0.045562 -0.085480 0.000814 0.027102 -0.009622 0.062434 0.015444 -0.031519 -0.078229 -0.012217 -0.060161 0.057304 0.032006 0.020420 -0.099813 0.026362 0.022508 0.031772 0.086292 0.039654 0.000104 0.087939 -0.039028 -0.037445 -0.040708 0.091159 0.050193 -0.035368 0.021239 -0.018281 -0.099244 -0.002315 -0.036166 0.046121 -0.019849 -0.075081 0.050513 -0.012005 -0.033504 0.099833 -0.011903 -0.077237 0.030752 -0.053539 0.093393 0.084889 0.063626 -0.016955 -0.068659 0.015541 0.079640 0.084009 0.056810 0.098545 -0.026690 0.041821
<s> 0.131954 0.503232 -0.390139 -0.672151 -0.056826 0.181791 0.119056 0.110109 0.271073 0.324588 -0.045963 0.309970 -0.004648 0.096383 -0.160586 0.201184 0.390759 -0.036778 -0.008036 0.627675 0.358158 -0.177807 -1.031492 -0.406549 0.642246 0.180965 0.714195 -0.905045 -0.391167 0.135619 0.133077 0.405070 -0.896301 0.610186 -0.159697 -0.431581 -0.506073 0.522268 -0.309356 -0.637686 -0.874628 -0.262618 -0.582117 -0.721001 0.370977 -0.138431 -0.776228 -0.703093 -0.498034 0.731567 0.470966 -0.570243 0.469295 0.316683 0.036429 0.594919 -0.137664 0.125188 0.397233 -0.434094 0.297957 -0.231413 -0.011846 0.740471
</s> 0.253871 0.478283 -0.053675 0.028950 0.263849 1.041344 -0.299156 0.612984 0.254963 0.296919 0.076973 0.334437 -0.118502 1.081704 -0.461884 0.183093 -0.081320 -0.642614 0.481691 0.843715 -0.388635 -0.802138 -0.148110 0.351152 0.918625 -0.753273 -0.467489 0.367183 -0.877280 -0.536255 -0.888118 -0.034245 -0.142253 -0.110739 -0.755287 0.143305 0.125610 1.045600 0.038743 -1.020352 -0.586522 0.109142 -0.093028 1.014019 0.438259 -0.049790 -0.297924 -0.160693 -0.351074 0.058304 0.283150 -0.301283 0.750651 -0.419481 -0.240434 0.131424 -0.738532 -0.827311 0.177895 0.126311 -0.009361 -0.179663 -0.547274 0.719653
i 0.834836 -0.306517 0.970050 0.647148 0.522451 0.044467 0.045292 0.021166 -0.010887 0.049567 -0.183647 0.522595 0.732361 0.523880 -0.376580 0.190918 0.560257 -0.484085 0.471679 -0.150968 0.145558 -0.632790 0.144995 -0.452082 -0.506006 -0.758707 -0.007106 -0.028964 0.849154 0.031352 0.014375 0.317809 0.174660 0.682886 0.100229 0.032236 -0.272782 1.138416 0.775926 -0.440814 -0.268965 0.045607 0.854259 0.103285 0.059654 0.057411 -0.625026 -0.984241 -0.626871 -0.201986 0.237449 0.922154 0.242929 0.846596 0.238227 0.455545 -0.395625 0.724543 -0.800008 -0.443322 -0.366874 0.374649 -0.267008 -0.197996
the -0.492939 -0.975932 0.835163 -1.277739 -0.590004 0.368866 -0.426631 -0.570758 0.009036 -0.272287 0.108491 0.529361 -0.805849 0.695536 0.111260 0.213451 0.532033 -0.845612 0.542253 0.755274 -0.162025 -0.004366 0.436291 -0.061703 1.602045 0.280428 -0.066213 -0.233543 -0.197610 0.064772 -0.490777 -1.202495 -0.830697 -0.212808 -0.361181 0.424171 0.184658 0.985403 -0.411078 -0.938664 -0.565197 1.366093 -1.298847 0.137934 -0.717504 -0.233203 0.832240 0.365295 0.356773 -0.159883 0.071579 -0.223460 0.195378 -0.321424 -0.402660 1.046448 0.052575 -0.065969 -0.850482 -0.465301 0.261448 0.098480 -0.093542 0.125473
and -0.013493 -0.159771 0.318097 0.597036 -0.096407 0.336972 1.101402 -0.042621 0.065713 -0.013683 0.112104 -0.046528 0.580088 -0.423163 -0.016501 -0.207976 0.309402 -0.322665 0.051894 0.380698 0.062188 0.722614 -0.187908 -0.968379 0.066614 -0.409711 0.472408 -0.290231 0.293637 1.004051 -0.542040 0.687907 -0.299783 0.098197 0.542150 -0.036752 0.039292 -0.126912 0.004664 -0.404712 0.054453 0.708281 -0.355542 0.298740 0.353937 -0.233361 -0.271438 -0.259746 -0.680379 0.329219 0.415353 0.484610 0.430952 0.785930 0.364894 -0.081935 -0.287116 0.850545 -0.231365 -0.582844 0.545401 0.118457 0.647704 -0.001162
yes -0.454635 0.065322 0.858096 0.118342 0.113987 0.320905 0.380997 -0.083461 0.294068 -0.356066 -0.419331 -0.032967 0.058080 0.833729 -0.243178 0.411133 -0.869802 -0.407978 -0.182733 0.608707 0.144185 -0.105486 0.469671 -1.007584 -0.268403 -0.540087 0.056322 0.044469 0.306191 0.189439 -0.506178 -0.154557 -0.703842 -0.007038 0.358589 -0.711723 -0.271772 0.085794 0.215864 -0.508241 -0.499953 0.735509 0.337100 0.061866 -0.277662 -0.090528 0.151933 0.080346 -0.514054 1.135690 0.630781 0.608586 1.114522 0.102501 0.498243 0.118944 -0.325810 0.698967 0.071695 -0.486178 -0.383129 0.352088 -0.275230 0.575014
a -0.035104 -0.361774 -0.372209 0.101799 0.042440 0.206856 -0.485040 0.726513 0.080373 0.172956 -0.196968 0.296729 -0.171990 -0.373125 0.352255 0.560707 0.053107 -0.604290 -0.235942 0.866350 -0.123805 -0.930747 0.059326 -0.341450 0.747582 -0.007180 0.467738 -0.497539 -0.851000 0.525834 -0.088841 -0.389036 -0.440643 0.487223 -0.024623 0.579488 0.156504 -0.004730 0.480392 0.023521 0.369139 0.631035 -0.724064 -0.387049 0.055062 -0.194565 -0.271403 0.659534 -0.277676 -0.267759 0.951966 -0.915559 -0.629267 -0.146320 -1.279533 0.460682 -0.386834 -0.302067 -0.371761 -0.085375 0.056864 -0.571878 0.195909 -0.204697
that 0.688919 0.131871 0.029853 0.934820 0.638937 0.063601 0.705996 0.672927 0.141989 0.224288 -0.269029 -0.011979 0.515777 0.190839 -0.124662 0.215397 0.171845 -0.371652 -0.430222 -0.351324 0.278491 0.502377 0.308472 -0.898691 0.362400 -0.603839 0.537930 -0.416345 0.680365 0.837061 -0.119480 1.055199 0.080750 0.461713 0.275177 -0.289243 -0.086873 -0.461074 0.235427 -0.583573 -0.087181 -0.332518 0.476019 0.238909 -0.574350 0.093585 0.157658 -0.469107 -0.306276 0.901471 0.284867 0.712896 -0.151336 0.530459 0.280988 -0.232307 -0.207282 0.746549 -0.462730 -1.003893 -0.223933 -0.033117 -0.656489 -0.391507
s@@ 0.808484 -0.095509 -0.247162 0.608040 0.735940 -0.001735 0.479616 0.304542 -0.162068 -0.042811 -0.581834 -0.385359 0.618900 -0.726393 -0.216452 -0.047991 -0.123440 -0.330232 -0.348873 -0.687615 -0.224313 -0.087380 -0.170079 -0.697585 0.475263 -0.427812 0.711352 -0.381024 -0.033100 0.777425 -0.543021 -0.335388 0.012748 0.452978 0.733287 -0.311073 -0.406796 0.101777 0.204810 0.667738 -0.596937 0.000374 -0.342960 0.582000 0.151467 0.389908 -0.584086 -0.393928 0.032200 0.345650 0.379606 0.146040 -0.396789 -0.098850 0.186025 -0.359569 -0.373538 0.535859 -0.330102 -0.384794 0.591738 -0.502338 -0.612089 0.664773
you -0.038506 0.605289 0.310385 -0.083776 -0.119381 -0.028500 -0.449646 0.769083 -0.398505 0.334667 -0.271141 -0.143168 0.439717 1.278621 -0.245687 0.796905 -0.444812 -0.286518 0.392741 0.027551 -0.333624 -0.371902 -0.357444 0.026114 0.137186 -0.072979 0.261294 0.395199 0.177929 -0.463246 -0.430272 0.250382 0.553120 1.426885 0.938673 -0.171823 0.431826 0.522115 0.410145 -0.614320 -0.009914 -0.373103 0.589225 0.031985 1.185358 0.437423 -0.006628 -0.535895 -0.595063 0.172084 -0.149236 1.193443 0.427237 0.508990 0.435866 -0.016779 -0.746218 -0.217834 0.709896 -0.314211 -0.564892 0.737961 -0.319897 0.225186
i@@ -0.063482 0.203752 -0.111628 0.349115 0.242590 0.376113 0.485590 0.144388 0.594101 -0.048878 -0.549277 -0.229560 0.668266 -0.114139 0.590790 -0.097630 -0.420503 -0.156701 -0.576576 -0.439674 -0.614286 -0.362270 0.291029 -0.982395 0.430113 -0.340193 0.848951 -0.369909 0.347425 0.671299 0.076792 -0.134613 0.154949 -0.153544 0.965805 -0.169374 0.047443 0.328044 0.015173 0.319721 0.074057 -0.501649 -0.211213 0.136581 -0.069224 -0.092359 -0.268337 -0.685899 -0.485493 0.432931 -0.593232 -0.172329 0.070357 0.609877 -0.086021 -0.075934 -0.273342 0.296545 -0.018471 -0.631118 0.144035 -0.225499 -0.734859 0.371890
t@@ -0.076430 0.142974 0.123205 0.339232 0.056614 -0.303866 0.375592 -0.370284 -0.319242 -0.177664 0.417628 0.170638 0.536593 -0.033488 -0.274120 0.159627 -0.319744 0.794211 0.098611 0.749608 0.436465 0.001221 0.193454 -0.179513 -0.317374 0.169571 -0.147319 -0.626546 1.019799 -0.355266 -0.895129 0.472510 -0.311609 0.425749 0.143069 -0.292573 -0.287999 1.540944 -0.454474 -0.447340 0.319715 0.089073 0.785913 0.311088 0.055558 0.354072 -0.210687 -1.020645 -0.460957 1.025222 0.520682 0.620862 0.074600 0.027626 -0.275146 0.136544 -0.168064 0.348359 -0.256214 -0.561831 -0.387080 0.700747 0.310219 0.398819
c@@ 0.235388 0.291750 0.064517 0.004766 0.225422 0.248575 -0.271006 0.121195 -0.341742 0.923899 0.559392 -0.815088 0.568139 -0.404297 -0.054808 0.895624 0.231462 0.280574 -0.526522 -0.506756 -0.197835 -1.044475 -0.815241 -0.658065 1.150677 0.635746 0.020109 -0.245942 0.091586 1.145069 0.261823 -0.354806 0.026126 -0.108815 0.523021 -0.598404 0.076417 -0.336057 0.237066 -0.193492 0.090000 0.334405 -0.112478 0.851276 0.651380 0.912154 -1.042524 -0.108858 0.067907 0.494350 0.620926 -0.180428 -0.315278 -0.068530 0.356408 0.317733 -0.286732 -0.251928 -0.201125 -1.231051 0.204398 -0.780927 -0.502250 1.015939
to 0.987461 0.615799 0.063806 0.139808 0.540591 -0.228098 0.938962 -0.095489 0.316714 0.341623 -0.379855 0.658959 0.733028 0.364509 -0.330766 -0.537095 0.903783 0.352019 0.151879 0.208146 -0.016564 -0.500012 -0.255441 -0.950249 -1.121881 -0.183809 -0.330325 -0.041274 0.523468 0.159185 0.076246 0.702985 -0.115171 -0.015164 0.013165 -0.033388 0.331035 0.982321 0.594285 -1.026080 0.051508 0.455109 0.475722 0.300762 0.249499 0.144114 -1.505604 -0.833928 -0.023820 0.428294 0.015027 1.013734 0.792166 0.449820 -0.245964 0.162914 -0.520156 -0.213556 -0.494598 -0.053468 -0.539581 0.824259 -0.530371 0.498584
m@@ 0.231880 0.021079 0.048383 0.679813 0.710964 -0.200432 0.296614 -0.171117 -0.048356 0.561730 0.035796 -0.093096 0.810319 0.688954 -0.890295 0.576319 -0.340471 -0.478022 0.206488 0.087097 0.131025 -0.720835 -0.751799 0.039552 0.318003 -0.690816 0.126258 -0.017263 -0.733796 0.123480 0.494058 -0.619197 -0.763099 0.596280 -0.596912 0.082706 0.524982 0.008598 -0.168672 0.296712 0.290394 -0.588903 0.092016 0.999011 0.831558 0.164989 -0.912631 0.030645 -0.594382 -0.373924 0.242888 0.571586 0.585891 0.673294 0.257166 -0.057748 -0.508269 -0.185153 -0.235310 -0.395217 -0.410073 0.470588 -0.915790 1.162134
h@@ -0.406385 -0.128759 0.707917 -1.121897 -0.187793 0.004205 0.207022 -0.293991 -0.323230 -0.264475 -0.337658 0.882179 -0.884799 0.914351 0.525490 0.018759 -0.082283 0.093441 0.217917 0.596077 0.528817 0.138598 1.103583 -0.833791 -0.414390 -0.000537 0.070775 -0.534705 0.120772 0.147047 -1.345279 0.663278 -0.837710 0.320630 -0.347458 0.356412 0.266814 1.091141 -0.447451 -1.254799 0.401793 0.650562 -0.053769 -0.391958 -0.081897 -0.040804 -0.478709 -0.160113 -0.557983 0.815035 0.592044 -0.023852 1.024498 0.222584 0.383656 0.252255 -0.352707 0.452496 -0.594638 0.199803 0.308005 0.415220 0.616500 0.375112
e@@ -0.277096 -0.001421 0.268420 -0.229281 0.309631 0.830610 -0.309793 0.324050 0.445050 0.417893 -0.014676 -0.270690 0.402687 0.679881 -0.638528 1.274016 -0.067057 -0.212417 0.083881 -0.121165 0.058190 -0.875208 -1.197924 -0.170927 0.737204 -0.053383 0.342784 -0.142367 -0.893543 0.034264 -0.114747 -0.839034 -0.456684 0.606121 -0.510822 -0.224016 -0.197258 -0.478581 -0.357207 -0.082300 0.218737 0.204629 -0.867466 0.655767 0.223698 0.104467 -0.691951 -0.020743 -0.191083 0.386877 0.348214 -0.137631 -0.395811 -0.106222 0.393961 0.714108 -1.435230 -0.323511 0.064219 0.297371 0.609382 -0.597232 -0.172102 -0.346503
u@@ -0.801120 -1.142868 0.116627 -0.021013 -0.361714 0.798606 0.134913 -0.347298 -0.352617 0.193226 -0.722123 -0.289472 -0.102315 -0.070479 0.160205 0.019784 -0.606765 -0.437197 -0.130761 0.342112 0.204595 0.008397 0.944233 -0.747082 0.572862 -0.664641 0.705723 -0.482035 -0.509063 0.537623 -0.481683 -0.313009 0.099515 0.092271 0.728067 -0.123849 -0.370142 0.340951 0.040708 -0.157956 0.185986 0.200275 -0.601070 -0.215094 -0.374456 -0.235973 0.441793 0.403093 0.061196 0.447207 -0.129273 -0.745174 0.329710 -0.632584 0.029039 0.467249 0.114341 0.828256 0.330570 -1.225065 0.285342 -0.491753 -0.326075 -0.262737
in 0.344094 -0.329935 0.182923 0.334484 0.478881 0.456741 0.548059 0.375389 -0.595472 -0.239957 -0.627120 -0.063784 0.444508 -0.892370 -0.319400 0.022602 0.410332 -0.132893 -0.125192 -0.023467 -0.181207 -0.028313 -0.270920 0.168660 0.550440 -0.256728 0.721259 -0.108009 0.227881 0.657806 -0.049389 0.214603 -0.125008 -0.145935 0.277896 -0.883216 -0.739478 -0.630723 0.032370 0.093905 -0.758883 -0.161535 0.017188 0.212418 0.335104 0.799137 -0.587106 -0.589360 -0.046787 0.141674 -0.441031 -0.183104 0.038424 0.645408 -0.649409 -0.311366 -0.079069 0.507130 0.520605 -1.143921 0.555367 -0.718442 -0.863412 0.360714
w@@ 0.552141 -0.243041 -0.131318 -0.599643 -0.218299 0.552133 0.253858 0.848505 0.196996 0.555019 -0.558117 0.264655 -0.606041 0.133630 -0.402752 0.831058 -0.404672 -0.482418 -1.025124 0.704918 0.465563 -0.479600 -0.575678 -0.944528 0.373389 0.271859 0.015856 -0.501089 0.309152 -0.659997 -0.579759 0.102664 -0.466810 0.081780 -0.432449 -0.074528 0.509870 -0.043742 -0.175088 -0.947220 -0.595268 0.517097 -0.391885 -0.383520 0.998038 -0.038537 -0.226563 0.066518 0.252147 0.096179 -0.629543 -1.122454 0.396876 -0.812018 -0.320353 0.361055 -0.225355 0.714189 0.483572 0.131680 -0.186814 -0.249714 -0.348699 0.509227
p@@ 0.410565 0.611551 -0.301868 0.324491 0.269555 0.193678 0.585828 0.224595 -0.608615 0.648375 -0.940667 0.344343 0.061586 -0.001775 -0.030319 0.207185 -0.174516 0.028557 -0.591835 0.023670 0.094942 0.042659 -0.493072 -1.559965 -0.157656 -0.525555 0.125519 -0.471392 0.417532 1.042264 -0.642642 0.687358 -0.869515 -0.432257 0.164602 0.702675 -0.430471 0.055816 0.286841 -0.494777 -0.308421 -0.314829 0.632230 0.229746 -0.134584 -0.467240 -0.208003 -0.051108 0.232315 0.928180 -0.577566 0.667153 0.843327 0.015362 -0.289476 -0.043516 -0.501809 0.173581 0.046762 -1.103217 0.536652 0.311545 0.315791 0.122150
s 0.211311 0.700894 0.572286 -0.346309 -0.001225 0.132411 0.328078 0.273361 -0.489720 -0.051465 -0.849012 0.310317 0.393648 0.914174 -0.522487 -0.666449 0.341691 0.001631 0.052332 0.550640 -0.215798 -0.026564 0.249593 -0.901561 -0.390994 -0.398055 0.187105 0.116878 0.531245 -0.602500 -0.652151 0.421351 -0.540189 0.691366 -0.820013 0.504640 -0.011725 1.499604 -0.198618 -1.024276 -0.079059 0.419191 0.422136 -0.089386 -0.182830 0.168546 -0.866393 -0.103909 -0.909608 0.585764 0.340788 0.283732 0.845497 0.234897 -0.139635 -0.242157 -0.581942 -0.188803 -0.394249 0.243120 -0.235828 0.722409 0.234594 0.086498
a@@ -0.420663 0.705604 -0.504063 -0.826959 -0.154529 0.512517 0.050558 0.746615 -0.441336 0.060727 -0.438627 0.642828 -0.020963 -0.467681 0.194008 0.180342 0.901780 0.386365 0.129272 0.362152 0.191279 -0.005203 -0.959131 -0.826800 0.281492 0.422835 0.701591 -0.658068 -0.202832 0.902717 0.065857 -0.626631 -0.060949 -0.399868 0.492602 -0.100285 -0.389202 0.058630 -0.051238 -0.858490 0.355993 0.679264 -0.895840 -0.078940 -0.625618 0.482978 -0.605421 -0.742670 0.419790 0.058076 -0.104000 -0.554823 0.696337 -0.241672 -0.319770 -0.167177 -0.148518 0.184559 -0.126605 -0.303366 0.207714 -0.778177 0.110694 0.972710
e -0.228207 -0.160650 -0.338023 -0.562915 -0.467347 0.039975 -0.493661 -0.216510 -0.049039 0.002461 -0.007018 -0.130452 -0.260545 0.867398 0.204004 1.323857 -0.448272 -1.212655 0.883140 -0.108098 -0.378883 -0.812256 0.394489 0.528356 1.185743 -0.067566 0.240172 0.394260 -0.543249 -0.682184 -0.437774 -0.468097 -0.954900 0.510450 0.089822 -0.489465 0.752746 0.620449 0.249640 -0.192361 -0.339355 1.002675 -0.585152 0.682945 -0.270640 -0.211200 0.323386 -0.244703 0.194539 0.150447 0.657236 -0.386968 0.055184 -0.043980 -0.196898 0.269809 -0.028963 0.269640 0.237203 1.265552 0.079158 -0.073418 -0.344465 0.385866
d@@ -0.723878 -0.643030 -0.134572 -0.403988 -0.147008 0.734248 0.544107 0.007292 0.407812 0.177729 -0.816599 -0.076038 -0.397448 -0.032569 -0.188796 0.494808 -0.569052 -0.517457 0.005478 0.562320 0.101383 0.100426 0.350406 0.014757 0.106673 -0.878341 0.294704 -0.713305 -0.207939 0.469679 -0.462115 -0.305591 -0.062157 -0.341784 0.746634 0.307558 -0.462150 0.472389 0.117569 -0.669890 0.165235 0.520161 -0.238999 -0.079026 -0.296983 -0.134192 0.743167 0.400754 0.263680 -0.270881 0.386292 -0.401027 0.292754 -0.144739 -0.146795 0.382133 0.186840 0.838984 0.308410 -1.026404 -0.190115 -0.418476 -0.569248 0.260785
is 0.253699 0.142270 0.757815 -0.563613 -0.047000 0.266753 -0.404184 0.040396 -0.051216 0.354699 0.095467 0.890518 -0.754625 1.619364 -0.196507 0.161274 0.712587 0.098273 0.943805 -0.038073 -0.092700 -0.887253 0.955454 0.148567 -0.052392 -0.048376 -0.378709 0.497839 -0.614328 -1.204717 -1.017713 0.396623 -0.710515 0.793311 -1.333266 0.649469 0.045424 1.145665 -0.055687 -0.873905 0.107181 0.884024 -0.366602 -0.028857 0.006169 -0.300138 0.702038 0.456930 -0.445224 -0.148309 0.024842 -0.106963 0.672630 -0.721644 0.431216 0.112637 -0.268868 -0.526331 -0.572214 1.291483 -0.828752 0.365989 0.551204 -0.135875
it 0.920562 0.994528 0.041220 -0.193258 0.342657 0.031293 0.485248 0.554423 0.194820 0.326774 -0.496593 0.300984 0.571551 0.065093 -0.110305 0.240156 0.298765 0.791590 -0.591194 -0.218209 0.553549 -0.835663 -0.569925 -0.833201 -0.566738 0.070153 -0.126452 -0.792560 0.589988 0.216873 0.020114 0.819577 -0.027166 0.162927 0.503779 0.186632 0.016369 1.191026 0.087866 -0.820968 -0.191523 -0.401154 1.231249 -0.014318 0.368224 0.271601 -0.847391 -1.203686 -0.432294 0.402735 0.065683 -0.019943 0.834763 -0.003482 -0.206578 -0.134991 -0.380019 0.241448 0.070336 -0.321745 -0.034469 -0.036271 -0.010703 1.050270
r@@ 0.178636 -0.109410 0.292951 0.031755 0.252545 0.389913 0.394535 0.277283 -0.219482 0.429500 0.785080 0.362699 0.157133 0.774100 -0.296773 0.367789 -0.549895 0.310181 0.996947 0.732941 -0.034927 -0.457072 -0.019599 0.064408 1.189061 -0.132689 -0.906926 -0.325353 -0.137582 0.389684 0.239685 -0.115612 -0.762755 0.515656 -0.302402 -0.234272 -0.545567 0.170301 0.914458 0.368984 -0.512750 0.234513 -0.595362 0.779642 0.269428 -0.009437 -0.852853 0.050433 0.058674 -0.234921 0.635164 0.115947 -0.214041 0.496598 0.959461 -0.101139 0.062054 -0.232134 -0.506729 0.805913 0.293801 -0.614754 -0.711426 0.949988
l@@ -0.197409 -0.433370 0.172467 -1.272494 -0.935716 0.703443 -0.532155 -0.724161 -0.288945 -0.040189 -0.382982 0.768743 -1.596373 0.609091 -0.711572 0.798962 0.190557 -0.431825 0.747000 0.947727 0.003058 -0.801376 0.166090 0.189120 1.314862 -0.068323 0.587171 -0.311390 -0.196224 -0.393348 -0.572039 -0.915699 -0.402173 0.031515 0.077109 0.167564 -0.223355 0.635072 -0.073656 -0.786313 -0.474875 1.128320 -1.433390 0.119363 -0.165423 -0.275912 0.403061 0.897056 0.806716 -0.063051 0.517875 -0.960107 -0.093466 -1.039872 -0.522361 0.398169 0.390162 -0.345505 0.194234 -0.282529 0.168302 -0.593971 -0.441841 -0.672277
f@@ -0.150854 -0.320125 -0.263173 -0.049776 -0.219934 0.263720 0.217464 0.773469 -0.005900 -0.077936 0.367283 0.247135 -0.496173 0.013626 -0.322818 -0.178119 -0.339340 0.271644 0.406383 0.506042 -0.153767 -0.853917 0.101332 -0.199444 0.312730 0.618446 -0.277957 -0.288493 -0.044244 0.171626 -0.629674 0.531807 -1.006350 -0.097072 0.200198 0.246141 -0.029087 0.004043 0.100706 0.066229 -0.775728 0.759492 0.292658 -0.209509 0.061646 0.359566 -0.464637 -0.228424 -0.302371 0.183357 0.580357 -0.352218 0.249282 -0.197270 0.217797 -0.238938 0.221272 -0.328716 -0.202210 -0.051996 -0.016320 0.395208 0.131026 0.409353
g@@ -0.513277 -0.763441 -0.676385 -0.426045 -0.054501 1.459769 0.132593 0.327811 -0.246534 0.032063 -0.149227 -0.051830 0.080859 -0.733611 -0.035262 0.269355 -0.749081 -0.080989 -0.375411 0.533724 -0.085499 -0.309606 -0.742234 -0.013631 0.938291 -0.326006 0.392646 -0.677493 0.059183 0.507847 -0.067946 -0.278349 -0.183293 -0.916781 -0.724537 -0.316108 0.002453 -0.828185 -0.191258 -0.026653 -0.460541 0.515935 -0.719004 0.043432 -0.557562 0.470693 0.759147 -0.174263 0.670533 -0.535136 0.536885 -0.462601 0.233469 -0.741382 -0.006167 1.104918 0.616270 -0.113116 0.374014 -0.038011 0.911265 -0.317446 0.161139 -0.305816
b@@ 0.233193 0.460062 0.343906 -0.037053 0.274807 -0.069788 1.114930 0.365294 0.462523 0.872821 -0.801645 -0.068294 0.127169 0.511563 0.114838 -0.189961 0.267640 0.138376 0.014909 -0.180131 0.097870 0.488331 -0.583969 -0.775399 -0.606767 -0.334172 0.380772 0.423484 0.557232 0.207135 -0.430532 0.356955 -0.380623 -0.148534 0.254208 0.334754 -0.199168 0.302185 0.043060 -0.162999 -0.195473 -0.027462 0.712109 -0.525600 0.255663 0.159945 -0.130571 -0.767742 -0.029965 0.940937 -0.332254 -0.065694 0.618130 0.143575 0.227640 0.420526 -1.192003 0.816830 0.581324 -0.476681 0.279642 0.436731 -0.827647 0.464635
an@@ 0.147911 0.645390 -0.325653 -0.247080 -0.354789 -0.100408 0.868954 0.013717 -0.050240 -0.087180 -0.878007 0.322179 0.538921 0.413811 -0.190402 -0.842991 0.105439 -0.063941 -0.052518 -0.079129 0.475200 0.303807 0.283779 -0.503032 -0.030365 -0.359490 0.487656 -0.249942 1.044531 0.594386 -0.517007 0.420715 -0.601660 -0.246084 -0.070434 -0.079767 -0.569319 -0.130321 -0.258112 -0.684531 -0.117411 -0.429373 0.436633 -0.101035 0.439450 -0.043870 0.062912 -0.336762 0.340596 0.548302 0.060908 0.581943 1.436280 0.099808 -0.180844 0.806570 -0.547556 0.779246 -0.323706 -0.809049 -0.024136 0.024846 -0.090776 0.575927
y -0.104612 0.565176 -0.399758 -0.014230 0.813852 0.214271 0.201779 0.328934 -0.395578 -0.265726 0.229740 0.544222 0.319056 -0.532668 0.068406 -0.093161 0.681478 0.265722 -0.192235 0.232947 -0.194314 -0.499064 -0.409803 -0.794321 0.436602 1.215872 -0.199287 -1.013332 -0.180104 0.478826 -0.160321 0.118647 0.071879 -0.080435 -0.022265 0.258291 0.037183 0.334837 -0.350227 -1.120051 -0.224825 -0.715877 -0.865937 -0.784448 0.065468 -0.104727 -0.824508 -0.357813 -0.213107 0.359321 0.853191 -0.006710 -0.182502 0.031089 0.363918 0.385444 -0.527091 -0.533122 -0.150897 0.037757 0.359299 -0.810270 0.409966 0.904595
they -0.036254 -0.491230 0.572126 0.440012 -0.142969 0.405944 0.095931 -0.191018 0.040472 -0.013553 0.481586 0.656640 -0.233893 0.645986 -0.826854 0.006725 0.021704 0.241208 0.641709 0.426213 -0.473363 -1.086758 0.659884 0.034080 1.005581 0.792718 0.028802 0.102069 -0.373809 -0.591122 -0.365131 -0.153255 -0.076178 1.014310 0.554031 -0.095147 -0.373574 -0.240409 0.459014 -0.235038 -0.102817 0.052605 0.445002 -0.116339 0.646683 -0.100018 -0.525495 -0.340380 -0.598396 0.044388 0.291489 -0.158347 -0.761326 0.405423 0.223271 0.328621 -0.063890 -0.779194 -0.241145 -0.217122 0.122206 -0.435742 0.330331 -0.621411
es -0.815204 -0.520762 0.513324 -0.298295 -0.523418 0.383040 -0.137217 -0.416046 0.309343 -0.034830 -0.174185 0.298331 -0.922167 0.586620 0.126354 -0.950782 -0.829169 -0.706996 0.696541 0.103987 0.136084 0.844299 0.726913 0.285310 -0.131142 -0.461905 0.133354 0.485880 0.052591 -0.023812 -1.103575 -0.564002 -0.310683 0.588474 -0.329436 -0.140837 -0.140888 -0.277723 -0.064698 -0.236329 0.532000 0.227547 -0.248905 0.140881 -0.817787 -0.220698 0.601607 1.171818 0.451363 -0.244697 -0.089986 0.089728 0.856973 0.201232 -0.008711 0.288873 0.575006 0.838122 0.052765 -0.131154 -0.071085 -0.000446 -0.238155 -0.424181
st@@ -0.532885 -0.759463 0.209479 -0.429707 0.036853 0.242498 -0.099490 -0.342357 0.906508 0.395243 -0.231239 0.341840 0.020098 0.483959 0.012642 -0.305897 0.032288 -0.383618 0.117949 -0.320605 0.215057 0.505979 0.545774 -0.036645 -0.574036 0.376399 0.456874 -0.023424 0.022859 0.328901 -0.835564 0.780525 -0.374489 0.570168 -0.741027 -0.420774 -0.299608 0.483463 -0.209365 0.316635 -0.054016 0.275821 0.244363 -0.115242 -0.148211 0.327496 0.173703 0.288689 0.471831 -0.415160 -0.621852 1.020847 1.049319 0.445715 0.705234 0.295342 0.641690 0.209806 0.115430 0.156009 -0.431109 0.405908 -0.065195 -0.036460
of -0.120324 0.706768 0.561997 0.092744 0.132905 0.292190 0.025013 0.098099 -0.040386 0.196567 -0.005853 -0.245894 0.057256 0.463058 -0.254823 0.593016 -0.006692 -0.819786 0.751432 0.012388 -0.372927 -0.724330 -0.194708 -0.741490 0.264724 -0.580725 0.405376 -0.522274 -0.007769 -0.140603 -0.528201 0.545294 -0.895909 0.451637 0.099068 0.127796 0.020185 0.931314 0.107598 0.392430 0.263554 0.328965 0.075557 0.729135 0.383948 0.749676 -0.564575 0.561851 -1.151150 0.654535 -0.003219 0.523350 0.989779 -0.072666 -0.074633 0.045103 -0.123444 0.037386 -0.468142 -0.113427 -0.109364 0.117201 -0.544332 -0.055166
in@@ 0.475638 1.167051 0.211074 0.583920 0.163512 -0.154785 0.450068 0.383220 0.530925 -0.097722 -0.489495 -0.345282 0.777047 -0.302037 0.149351 -0.060529 -0.081090 0.162850 -0.644582 -0.576726 0.158978 -0.874712 -0.647578 -0.391360 -0.069414 0.325681 0.173418 0.333825 -0.015552 -0.072238 -0.249399 0.451598 -0.004755 0.969498 0.222631 -0.119749 0.614712 0.200597 0.197107 0.650807 0.270413 -0.382522 0.666304 0.828444 0.566507 0.221307 -0.602713 -0.592611 -0.503812 0.238919 -0.042959 0.191630 -0.498407 1.169642 0.195244 0.182212 -0.650944 -0.215659 -0.094308 -0.972481 -0.138423 -0.213057 -0.118722 0.418513
ed -0.196142 -0.026081 0.086721 -1.036834 -0.706142 0.268013 -0.059644 0.502543 0.057994 0.258465 0.202168 0.871488 -1.052742 0.048605 0.453602 0.571957 0.579693 -0.306609 -0.041213 -0.024010 -0.065377 -0.719266 0.744193 -0.248454 -0.254224 0.488124 -0.275861 -0.254667 -0.067600 0.421917 -0.393247 -0.356172 -0.390009 0.199506 -0.135904 0.847139 0.437100 0.736322 -0.578693 -1.629059 -0.484012 0.682190 -0.652496 -0.358468 -0.082473 -0.311602 0.226711 -0.172503 -0.193065 -0.185175 -0.195099 -0.948921 0.570623 -0.835456 -0.378677 0.053057 0.523592 -0.242005 -0.373571 0.627830 -0.012298 -0.361723 0.523074 0.434921
re@@ -0.738386 0.016345 0.296968 0.205134 -0.436190 -0.621454 -0.986368 -0.760805 0.613747 0.001297 0.325831 -0.103804 0.579562 -0.144168 0.308098 1.084323 -0.428981 -0.861051 0.528606 0.086621 -0.224502 -0.088853 0.814213 0.279107 0.273806 0.647035 0.473278 0.366771 -0.578622 -0.427831 -0.025792 -0.724100 -0.260354 0.847778 0.141268 -0.226595 -0.178827 -0.370019 0.034407 0.950556 -0.173862 0.425778 -0.040599 0.502422 -0.094177 -0.246449 -0.189201 0.952719 0.102730 -0.369124 0.547217 0.599285 -0.394303 -0.360008 0.683415 -0.076913 -0.262433 -0.007792 -0.654250 -0.432761 0.360400 -0.124660 -0.154959 0.259987
but 0.148868 -0.385562 -0.335945 0.408345 0.436052 0.185388 0.780196 0.542538 0.033093 -0.251921 -0.385053 -0.310632 0.638922 -0.590624 -0.154309 0.054405 -0.296846 -0.288316 0.253993 -0.002173 -0.152043 0.003348 -0.338186 -0.198146 0.726563 -0.774484 0.400561 -0.131813 0.254157 0.510174 -0.188025 -0.258986 -0.380074 -0.288704 0.617505 -0.899176 -0.275639 -0.343663 -0.063447 -0.159622 -0.412661 -0.135674 -0.160651 0.204490 0.360783 1.071836 -0.893963 -0.390070 -0.036427 0.350467 -0.293181 0.100447 0.015385 0.886093 -0.747017 -0.034439 0.297277 -0.087540 0.236287 -0.776098 0.006005 -0.359381 -0.404460 0.199902
d -0.218021 -0.119423 0.036659 -0.735033 0.002383 0.231360 -0.127556 0.261132 -0.457293 -0.308988 -0.321589 0.404351 -0.786469 -0.049225 -0.330991 0.427055 0.599509 0.247263 0.170707 0.931966 0.259236 -0.651623 0.037944 -0.407249 0.601427 0.194329 0.516501 -0.384377 0.058833 -0.044092 -0.151726 -0.390767 -0.599992 0.670826 -0.358728 0.339664 0.240985 1.173676 -0.486431 -1.096727 -0.766814 0.619157 -0.956970 -0.862402 0.042735 0.317798 0.196092 -0.117251 -0.446052 0.073040 0.229489 -0.743248 0.896048 -0.100458 -0.567845 0.159208 0.045589 -0.528955 -0.096609 0.544550 -0.134367 -0.324719 0.857212 0.326770
are -0.110113 -0.055795 -0.524712 -0.439813 0.359480 -0.198709 0.022967 -0.401139 -0.685556 -0.741008 0.264014 -0.111743 0.449430 -0.049814 0.855015 -0.410878 0.738744 0.692397 0.811456 1.073695 -0.278038 -0.108124 0.676745 0.005538 0.315620 0.964750 0.112053 -0.911015 -0.202599 0.332893 -0.537632 0.899983 -0.631253 0.110622 -0.409271 0.897348 -0.791679 0.328722 -0.641520 -0.557205 0.826530 0.831673 -0.494325 -0.789118 -0.406532 -0.508525 -0.115294 0.324220 -0.337229 0.215611 0.000941 -0.436876 0.931810 -0.591143 -0.324710 -0.041797 -0.446313 0.460690 -0.125717 -0.319719 -0.177899 -0.080362 -0.014341 0.117598
o@@ -0.022994 -0.557049 0.136425 -0.560281 0.724235 0.287782 0.763041 0.284367 0.260626 -0.245095 -0.673125 -0.173765 -0.439504 -0.126367 -0.076284 -0.076330 -0.333710 0.205073 0.172129 0.188938 -0.187002 0.150340 -0.010890 0.062660 -0.083074 -0.681787 0.353568 0.086936 0.161323 0.094418 -0.031240 0.174312 -0.247212 -0.040327 -0.791789 -0.366720 -0.523192 0.327130 0.335256 -0.437552 -0.113511 0.670512 0.717671 0.234355 -0.373665 0.186518 0.209335 -0.041865 -0.432072 0.710318 0.141551 -0.320367 1.278512 0.235870 -0.059454 0.050707 -0.511240 0.218976 0.638778 0.218108 -0.131790 0.559453 -0.327363 -0.141713
me 0.331360 -0.057179 0.564598 0.033696 -0.243644 0.027358 -0.217348 0.371543 1.076156 0.087324 0.029137 0.001734 0.417786 0.402001 0.138378 0.232048 -0.833042 -0.402565 0.437982 0.218371 -0.038864 0.288013 -0.257348 0.697354 -0.505911 0.127187 0.550710 0.990816 -0.702726 -0.299466 -0.371858 -0.233226 -0.410704 0.961320 -0.256552 0.518626 -0.566493 -0.511368 0.190741 -0.034597 -0.245875 -0.362613 0.477350 0.529696 0.263480 0.134132 0.037923 0.227707 -0.307770 0.438019 0.253870 0.751845 -0.216352 0.725132 0.580944 0.044822 0.379347 0.028046 -0.017847 -0.163710 -0.721985 0.188833 -0.019137 0.172526
en@@ -0.935851 -0.531209 -0.071208 0.334963 -0.501483 -0.287558 -0.391653 -0.288397 0.324188 -0.059988 -0.366406 0.229469 0.113637 -0.164475 0.466583 -0.318799 -0.252834 -0.538104 -0.378574 -0.483518 0.322694 0.707642 -0.319495 -0.088667 0.057222 -0.690528 0.638314 -0.008579 -0.848586 0.613265 -0.068160 -0.417237 -1.209395 0.147437 0.797971 -0.487008 -0.019676 0.156080 -0.540599 0.306801 0.208117 -0.373775 -0.345194 0.169187 -0.959304 -0.031156 -0.023081 0.684919 0.241507 0.745695 0.472298 -0.074323 -0.118671 0.401780 0.584366 0.456143 0.555932 0.828349 -0.389652 -0.369844 0.357577 -0.136850 -0.132699 -0.114281
ing -0.608108 -0.845979 -0.019038 0.108268 -0.207037 0.202453 -0.346061 -0.751983 0.551125 0.049563 0.021351 -0.348713 -0.091298 0.236040 -0.069734 -0.327120 -0.428266 -0.623625 0.509556 0.757278 -0.205430 0.714178 0.205431 0.292512 0.656727 -0.584019 0.198075 0.848633 -1.299801 -0.267470 -0.078001 -0.331051 -0.165752 -0.665763 -0.188832 -0.061408 -0.909478 -0.601830 -0.258594 0.447183 -0.031151 0.397432 -0.131652 0.272904 -0.381769 -0.180626 0.983967 1.146551 -0.310408 -0.317292 0.430421 0.356111 0.035487 0.059458 0.258062 -0.332057 -0.003821 0.493487 0.112222 -0.038381 -0.311268 -0.260537 0.203615 -0.670603
no -0.669478 0.205689 0.117443 -1.111971 0.107326 -0.117945 0.685311 -0.264021 -0.828874 -0.615805 -0.575446 1.084373 -1.028172 -0.903335 -0.073981 -0.082006 0.644188 0.294357 0.479868 0.303109 0.071261 0.129728 0.478208 -0.654263 0.587527 0.609638 -0.343343 -0.861715 0.093090 1.045490 -1.057209 -0.099991 -0.480940 -0.628756 0.518891 0.535889 0.895296 0.930968 -0.004896 -1.929707 -0.182956 1.202093 -0.590814 -0.398353 -0.632983 -0.365055 0.056151 -0.642327 0.479012 0.019601 0.019800 -0.979238 0.414764 -0.286293 -0.210615 0.063134 0.294860 0.096179 -0.609820 0.108053 0.630465 -0.360358 1.295925 0.531842
have 0.197371 0.343593 0.735951 0.282117 -0.073848 -0.789818 0.137188 -0.189448 0.475858 0.098804 0.196113 -0.023820 0.722538 0.172559 0.624438 -0.113545 -0.014203 -0.996674 -0.016491 -0.782174 -0.188239 0.799234 -0.107781 -0.037720 -0.718027 -0.080676 -0.131274 0.842783 -0.391223 0.251697 -0.499468 -0.127659 -0.650860 0.441412 -0.758764 0.109964 0.139580 0.032446 0.578862 0.517484 1.166072 -0.414246 -0.329010 0.397557 0.001745 0.182918 -0.583340 0.628771 -0.134428 0.695777 0.192982 0.251460 -0.388034 0.932482 1.427609 0.057934 -0.510828 -0.839344 -0.654909 -0.041191 0.046951 -0.019513 0.483769 0.896987
n@@ 0.732519 0.359183 -0.029259 -0.113525 0.069838 -0.227677 -0.322191 0.128749 0.395480 0.317342 0.270261 -0.112156 0.956781 0.219657 -0.118552 0.393433 -0.514096 -0.224799 0.067787 0.677531 -0.016636 -0.957765 -0.788234 0.030178 0.318239 0.102485 -0.014379 -0.750739 -0.249132 0.194697 -0.114852 -0.616900 -0.518044 0.087310 0.188917 -0.239264 -0.635676 0.235988 -0.054000 0.735607 -0.328326 -0.468398 -0.893055 0.246769 0.341031 0.297400 -1.345297 0.306246 -0.210288 0.420243 0.597037 0.265138 0.064990 0.714455 0.059211 0.352956 -0.011492 0.007660 -0.235871 -0.392301 0.240837 -0.899136 -0.710101 0.666685
like -0.239127 -0.577306 0.111090 0.429811 0.566263 0.297727 0.002536 -0.482717 0.107571 -0.197523 0.694301 0.412873 0.412341 -0.678192 0.235772 -0.694965 0.565260 -0.580236 0.356890 -1.349846 -0.811382 -0.078683 0.658864 0.275680 1.049159 0.328846 0.386991 0.175180 -0.444119 1.222349 -0.089867 -0.356423 -0.272336 0.434744 0.257887 0.167575 -0.080902 -0.153325 0.659181 0.399630 0.490729 0.375790 -0.530632 0.349572 -0.157441 0.078488 -0.057296 0.148632 0.188626 -0.425445 0.054715 0.589577 -0.957335 0.482417 0.501216 -0.096147 0.320990 -0.163358 0.041662 -0.914653 -0.007664 -0.110485 0.375045 -0.302876
v@@ 0.917911 1.021930 0.480147 0.032366 0.744413 -0.750815 -0.493641 0.329161 0.520888 0.722945 0.139940 0.593894 0.297186 0.961947 0.334301 0.415352 0.779970 0.298759 0.521383 -0.542839 -0.739376 -0.950060 0.402436 0.029884 -0.574493 0.435587 -0.467115 0.023031 -0.344687 -0.556953 -0.200318 -0.052882 -0.499230 0.831858 -1.142993 0.298037 0.683016 1.275658 0.197076 -0.877351 0.394914 0.271294 0.020699 0.125055 0.263883 0.074559 -0.608375 -0.184595 -0.556556 0.348890 0.128219 0.178928 0.414171 0.462950 0.445378 -0.414907 -1.305914 -1.182349 -1.112832 0.813706 -0.142073 0.450827 0.940204 0.349101
y@@ 0.269252 -0.633061 0.432431 0.583743 -0.436941 -0.047521 -0.483785 -0.015060 0.438466 0.139726 0.819631 -0.131744 0.745791 0.692332 0.119313 -0.729191 -0.241863 -0.804174 -0.105152 -0.362322 -0.567985 -0.065463 0.101048 0.879508 -0.183296 -0.176642 0.289742 1.059389 0.034871 -0.339277 0.112724 0.012082 0.481362 0.241964 -0.032869 -0.219746 -0.060592 -0.727202 -0.033219 0.988828 0.057677 -0.765848 -0.184424 0.367160 0.170509 0.441075 -0.148036 0.762777 -0.350396 -0.528481 0.883716 0.888846 -0.839754 0.145560 0.215603 0.003526 -0.045164 -0.505444 0.059144 -0.029486 -0.029068 -0.100649 -0.918639 -0.564522
m -0.670690 0.167543 -0.069667 0.203074 -0.218895 0.541671 -0.168310 0.240221 0.264378 0.075324 0.291502 0.531176 0.299009 0.066147 0.551156 0.370660 0.426836 0.320033 0.057686 0.162085 -0.245868 -0.780509 0.429215 0.019926 0.570548 -0.068906 -0.068806 -0.482694 -1.057624 -0.217466 -0.167406 -0.926873 -0.617357 -0.058138 0.240090 0.541939 0.107360 -0.251576 -0.968345 0.361730 -0.799322 0.343804 -0.992712 -0.288411 0.244837 -0.068886 -0.036986 0.395791 0.504527 -0.047293 0.319275 -0.877362 0.132900 -0.521243 -0.317720 -0.155349 -0.712420 -0.110971 -0.291326 0.115775 0.417672 -0.771084 0.086860 -0.201922
ar@@ -0.211407 0.298202 -0.474572 -0.118540 0.082752 0.947653 0.633935 0.368472 -0.296585 0.008736 -0.756964 0.475957 -0.462867 -0.064633 0.093127 0.951466 -0.361441 0.342715 0.048355 0.348005 0.339143 -0.054202 -1.093767 -0.509803 -0.007619 -0.348247 -0.106298 -0.279546 -0.118476 0.195936 -0.003454 -0.732104 -0.820789 0.060872 -0.096293 0.478004 -0.181027 0.911595 -0.202385 -0.814066 -0.192922 -0.115784 0.151158 -0.230864 -0.216123 0.061117 -0.237814 -0.694717 -0.019613 0.662913 0.205459 -0.337946 2.078279 -1.046892 -0.530575 -0.049800 -0.450047 0.391081 -0.396238 0.505250 0.449636 -0.010187 -0.071102 0.333094
on 0.587873 0.689177 0.158558 -0.597878 0.376539 -0.011277 0.256445 0.054482 0.049559 0.339184 -0.193213 0.509247 -0.009297 0.681288 0.183810 -0.465952 0.344948 0.698003 0.549001 0.514368 0.358082 -1.166097 -0.215859 -0.334504 0.311238 0.244881 -0.164420 -0.590875 0.585192 -0.790277 0.267090 -0.403734 -0.586882 0.489563 -0.403132 0.794191 0.328131 1.062830 -0.649549 -1.294527 -0.247690 0.042481 0.142685 -0.317779 0.237676 0.427857 0.142065 -0.884674 -0.648141 0.041016 0.220809 -0.585685 1.010628 0.347557 -0.410140 0.431589 -0.287081 -0.569566 -0.158848 0.488955 0.398130 -0.458543 0.350647 0.386104
on@@ -0.968586 -0.748969 -0.708901 -0.423285 0.252811 -0.281085 -0.026628 -0.065850 0.052179 -0.215579 -0.426786 0.193248 -0.563036 0.211671 -0.121892 -0.045562 0.178417 -0.271456 0.104202 0.140935 0.035900 -0.179588 0.649406 -0.628416 -0.421955 -0.996465 0.529853 -0.653726 -0.857982 -0.150187 -1.189526 -0.194777 -0.593696 0.052734 -0.585808 0.401907 0.129364 -0.271921 -0.407743 -0.337649 -0.063919 0.918209 -0.962344 -0.147560 -0.240218 -0.604634 0.356994 0.233123 -0.326389 -0.185128 -0.360520 -0.489409 0.276040 -0.306039 -0.228708 0.739459 0.403812 -0.317806 -0.456683 0.463991 -0.289617 -0.468832 0.587452 -0.141425
al@@ -0.689030 -0.839220 1.078660 0.245494 -0.183750 -0.355837 -0.381585 -0.568359 -0.127640 -0.100602 0.292760 0.356029 -0.199079 -0.013023 0.260433 0.083056 -0.133784 -0.764536 0.306709 0.057246 -0.169640 -0.413873 1.357112 -0.029003 -0.155582 0.000831 0.731511 -0.358034 -0.461062 0.708710 -1.128621 -0.091721 0.029129 0.101518 0.623685 0.595357 -0.903675 -0.075334 -0.234798 -0.009254 0.485124 0.280598 -0.151201 -0.041171 -0.014561 -0.363770 0.536512 0.527686 0.170637 -0.019612 -0.224140 -0.112839 -0.409031 -0.083435 1.050560 -0.554997 0.038683 0.073938 -0.075020 -0.295564 -0.448135 -0.502176 0.307304 -0.095388
well 0.266067 -0.155988 -0.453776 0.086168 0.375732 0.276649 -0.056590 0.340322 0.071297 -0.525706 0.805345 0.237569 0.608531 -0.410121 0.580525 0.306921 -0.588841 -0.593155 -0.307237 0.295113 -0.251591 -0.038021 -0.103576 0.803730 0.231678 0.000466 0.171242 0.506175 -0.951369 -0.183869 -0.042094 -0.694175 0.297073 0.291850 -0.742190 0.377887 -0.702072 -0.461479 -0.045422 0.332887 0.054675 -0.178837 -1.052451 -0.073560 0.162012 0.494724 0.467507 0.342869 -0.577667 -0.219348 0.518184 -0.385125 -0.672169 0.999027 0.086032 0.213609 0.026712 0.153784 -0.699805 0.156425 0.300870 -0.529029 0.090871 -0.532684
it's -0.403713 0.092529 0.438260 -0.430702 -0.507149 -0.013153 0.079149 -0.411780 -0.148807 0.150950 0.829699 1.038803 -0.094103 0.101466 0.262421 -0.043804 -0.121765 -0.679582 0.486509 0.640120 -0.445212 0.192642 0.845087 0.928414 -0.769602 0.390799 -0.041605 0.710553 0.475876 0.350726 -0.625016 -0.539568 -0.524588 0.124023 -0.382907 0.377411 -0.349882 0.813207 0.081236 -0.547435 0.118393 -0.194888 -0.006376 -0.524668 -0.664879 -0.093711 0.161188 0.190090 0.088636 0.623985 0.262508 0.526285 0.070841 -0.003842 0.848218 0.227291 0.352090 0.537352 0.346371 -0.373091 -0.154014 0.160114 0.158194 0.052015
t -0.859193 -0.456725 -0.205034 -0.708767 -0.214968 0.062335 -0.343031 -0.155096 -0.260517 -0.437227 -0.053203 0.358532 -0.937821 0.101529 0.449246 0.121969 0.134761 -0.447582 0.030704 0.308051 -1.182040 -0.247874 0.684226 -0.448896 0.054266 0.523888 -0.581589 -0.787498 -0.300244 -0.031170 -0.191680 -0.657120 -0.749110 -0.147456 -0.535249 0.623170 0.682566 -0.509833 0.168019 -0.938453 0.053717 0.995343 -0.579944 -0.514675 -0.762615 0.111015 0.112682 -0.080005 0.124692 -0.204816 0.444115 -0.433612 0.663287 -0.338841 0.181214 -0.034206 0.256307 -0.250630 -0.269169 0.893560 0.247541 -0.701298 1.186563 0.127393
ve -0.482053 -0.014364 0.163319 -0.529279 0.073263 0.618805 -0.455694 0.237665 0.166391 0.412876 0.192761 0.505594 0.254191 -0.628791 0.364107 0.212273 -0.768064 0.306167 -0.006330 0.766392 -0.555724 0.476405 0.179260 0.540633 0.889440 0.419376 0.323383 0.212587 -0.140922 0.497828 -0.383321 -0.301465 -0.272970 0.074251 0.560298 -0.967286 -0.747447 -0.250592 -0.586023 0.931239 0.075830 -0.264087 0.077138 -0.394541 -0.258200 0.177393 -0.100573 0.571727 0.047916 0.707326 0.121964 -0.104388 -0.475825 0.525471 0.680357 0.649778 -0.529737 0.474502 0.709127 -0.407236 -0.644340 0.442621 -0.151919 -0.228047
ah -0.721520 -0.345154 -0.347369 0.477330 0.411900 0.297407 -0.466715 -0.693933 0.439825 -0.472169 -0.218429 0.107734 0.825668 0.200897 0.125649 -1.079156 -0.154114 -0.390593 -0.237760 -0.758877 -0.434899 0.316866 -0.323273 0.587857 0.516011 -0.668314 0.178123 -0.382037 -0.724152 0.031173 0.261534 -0.475236 -0.244831 -0.124586 -0.083881 -0.881819 -0.273046 -1.014259 0.063492 0.490441 0.496999 -0.082116 -0.274165 0.280661 0.078391 0.203503 -0.014436 0.554482 0.166681 -0.137717 0.143112 0.587327 -0.698068 0.453030 0.569899 0.412755 0.196396 0.605111 0.117386 -0.391381 0.299455 -0.593489 -0.783555 -0.101440
oh -0.089572 0.241631 0.187444 -0.326336 -0.011398 -0.218280 0.521878 -0.409876 -0.165661 -0.362935 -0.822477 -0.265352 0.173263 -0.275136 0.048908 0.452196 -1.002309 -0.214075 -0.800901 -0.575655 -0.218557 0.082913 0.204911 -0.728151 0.385602 -0.546476 0.096262 0.053454 0.971884 0.859364 -0.243011 0.100931 0.690523 -0.572379 1.206063 0.103743 -0.286802 0.131133 0.347201 -0.145535 0.374947 0.179511 0.704882 0.302595 0.185940 0.360753 -0.929250 -0.364622 -0.062012 0.433438 0.288260 0.287758 0.675340 -0.212678 -0.163011 0.265677 0.157299 1.092363 0.104597 -1.075814 -0.073741 0.078540 -0.401033 -0.131199
don't -0.383380 -0.507542 -0.426930 -0.297724 -0.217071 0.356141 -0.545651 0.224139 0.652844 -0.107550 0.000835 0.661609 0.020061 -0.414616 -0.079019 0.072864 -0.071889 -0.791399 0.032442 -0.050546 -0.384715 -0.151946 -0.442503 -0.299073 0.747301 0.265025 0.372460 -0.340601 -0.732093 0.229208 -0.141691 -0.768137 -0.440896 0.297749 0.280113 0.225967 -0.121677 -0.800423 -0.543870 0.307696 -0.091219 -0.529073 -0.883475 0.164991 0.018835 -0.434773 0.304929 0.244502 0.449879 -0.408849 -0.077916 -0.826809 -0.811096 0.464454 0.772230 0.204183 0.657061 -0.097588 -0.203457 -0.073163 0.634985 -0.489719 0.535300 0.262906
er@@ -0.307192 0.172300 -0.493182 0.595566 0.394727 -0.651144 0.168035 0.608564 0.121713 0.432985 0.552050 -0.800506 0.293560 -0.054209 0.533783 0.066701 0.777956 0.025514 -0.421343 -0.130447 -0.451523 -0.381055 -0.494577 0.081274 -0.706831 0.431470 -0.074870 -0.298709 -0.217103 -0.170246 0.055477 -0.697274 -0.588634 0.182661 -0.635553 0.256819 0.678006 0.603621 -0.463750 -0.616708 -0.622811 0.245904 -0.277211 0.042972 0.343279 0.525043 -1.374276 -0.508903 0.370913 0.096965 0.124337 -0.153934 0.685156 0.367351 -0.169566 0.077413 -1.136298 -1.063384 -0.177471 0.660764 1.173976 0.149887 -0.601793 0.758074
there -0.420563 -0.221297 0.081073 0.405200 -0.155765 -0.384993 -0.271618 -0.725098 0.633533 -0.212740 -0.005302 -0.534516 0.368846 -0.582870 0.089374 -0.593631 -0.976382 -0.580504 -0.859050 -0.162342 0.153977 0.745877 -0.426907 -0.335029 0.301104 -0.352768 0.657952 0.150234 -0.046281 0.222263 -0.647772 0.151349 0.048354 -0.677544 0.684944 -0.792116 -0.272611 -0.046323 0.361375 0.937457 -0.357111 -0.363534 0.197342 0.182205 -0.320333 0.562570 0.416135 0.234002 0.261108 0.374545 0.405345 0.590181 -0.177209 0.045726 0.483346 -0.089662 0.038821 0.741879 0.213108 -1.236884 0.125878 0.386462 -0.320215 0.390540
know 0.082484 -0.372609 0.907437 0.206171 0.326413 0.628236 -0.518097 1.020714 -0.136213 -0.447498 0.327364 0.498247 0.356491 0.464472 -0.102565 -0.262851 0.115958 -0.090215 0.348870 0.180199 -0.414175 -0.953844 -0.366813 -0.038807 -0.305785 0.484482 0.502865 -0.553278 -0.094224 0.059943 -0.616102 0.291196 0.014610 0.233661 -0.353350 0.410200 -0.148804 -0.235853 0.193430 -0.624322 -0.181715 0.707399 0.275056 -0.090330 -0.766524 0.305985 0.076606 -0.459374 -0.192251 0.344724 -0.303300 -0.412331 0.478380 0.298219 -0.654548 -0.164854 -0.010881 -0.262823 0.334104 -0.122402 0.322734 -0.169146 0.447193 -0.420475
so 0.019731 0.264717 0.914223 -0.280527 0.175855 -0.228660 -0.477584 0.381379 0.305468 0.178592 0.604681 0.640832 0.353031 0.554467 0.479722 0.408934 0.923156 -0.436007 0.246807 0.695649 -0.358366 -0.872688 0.175646 0.093842 -0.717371 1.033122 -0.350239 -0.048352 -0.193869 -0.594605 -0.363453 -0.121340 -0.420007 0.722807 -0.867165 0.671034 0.556727 0.977573 0.359510 -0.336541 0.242780 0.073643 -0.270603 0.779381 -0.126780 -0.037023 -0.075856 -0.210864 -0.576735 -0.380226 0.041980 0.329031 -0.205355 0.311481 -0.100966 -0.039146 -0.627790 -0.880186 -0.833880 0.536233 0.087978 0.267783 0.781574 -0.051282
o -0.082430 0.848785 0.638703 -0.336123 0.050467 -0.640075 0.416768 -0.245024 -0.476938 0.334334 -0.383032 0.709053 0.151942 0.224938 0.297809 -0.069677 0.378079 0.698200 0.172793 0.053984 0.275686 -0.414546 1.007612 -1.021708 -1.022401 0.284904 -0.016964 -0.635675 0.871889 0.103174 -0.997384 0.543182 -0.668297 0.056338 0.354138 0.765679 -0.207890 1.472427 -0.369531 -1.228956 -0.247206 0.448988 0.456733 -0.067082 -0.164020 0.034065 -0.477848 -0.353835 -0.253026 0.581666 -0.213220 0.287844 0.879351 -0.090482 0.304181 0.637549 -0.176225 -0.282220 -0.395295 -0.182000 -0.290537 -0.273045 1.168948 0.650517
ou@@ -0.475586 -0.226849 -0.186147 -0.319704 -0.124801 -0.115786 -0.076158 -0.065690 -0.064901 0.081905 -0.434644 0.040670 -0.209050 0.368760 -0.427585 -0.297024 -0.518118 -0.505011 -0.117808 0.025679 0.045685 0.064587 0.283431 -0.985739 0.518394 -1.122582 0.018109 -0.467144 -0.263127 0.633355 -0.165689 -0.100535 -0.336718 0.176652 0.323288 0.011355 -0.072513 0.442803 0.345578 0.394602 -0.029254 0.732673 -0.883962 0.075323 -0.156646 0.190057 0.324857 -0.390841 -0.755145 0.244509 0.442374 -0.110902 0.089041 0.133932 -0.421428 0.114246 -0.546594 -0.211920 -0.837329 -0.253412 0.351506 0.416059 0.093993 -0.057587
because 0.851485 0.882651 -0.035306 0.451423 0.427975 0.043233 -0.702263 0.135025 0.541676 0.355577 0.241931 -0.022358 0.927873 -0.059397 -0.188962 0.665314 0.826675 -0.091334 0.024691 -0.006139 -0.102954 -1.357811 -0.642065 0.396421 0.405366 0.080858 -0.140628 0.191268 -0.419337 -0.909284 0.649063 0.135696 0.170774 0.272281 -0.388583 0.060648 -0.158756 0.264454 0.662261 -0.189408 0.008786 -0.205408 0.321612 0.983279 0.544688 0.494508 -0.119977 -0.427873 0.232839 -0.481052 0.533882 -0.160960 -0.316429 0.100531 -0.212179 0.661794 -0.638836 -1.027735 -0.500153 0.567462 -0.127263 -0.146335 -0.834211 -0.083500
li@@ -0.352011 -0.069670 0.378803 0.765075 0.286976 -0.409058 -0.190795 -0.854722 0.305657 0.413253 0.753121 0.221022 0.709573 0.249972 0.298772 -0.004375 -0.203418 -1.152758 0.464468 -0.605773 -0.015919 0.730986 0.338945 0.245234 -0.205611 -0.105709 -0.061593 0.621268 -0.374244 -0.043815 -0.527549 0.552166 0.157777 0.329894 0.759059 -0.337362 0.094189 0.114748 0.694002 0.319565 0.491081 -0.495181 0.238433 0.570454 -0.476061 0.121281 -0.045373 0.857296 -0.572716 0.295343 -0.325822 0.799231 -0.368326 0.274826 0.619499 0.172366 0.438112 -0.071222 0.009880 0.027157 -0.106273 -0.459194 0.308182 -0.090858
di@@ -0.077343 0.078948 -0.043825 0.893051 0.040791 -0.207294 -0.333070 0.164522 0.392968 0.412764 -0.151362 -0.144492 0.616188 0.243088 -0.598562 0.057022 -0.926776 -0.530508 -0.812874 -0.544249 -0.320979 0.462148 -0.272397 0.783748 -0.231948 0.537288 0.566118 0.248028 -0.688079 0.908552 -0.351286 -0.307080 -0.130204 1.031260 0.312604 -0.238008 0.375926 -0.585255 0.219568 0.254342 0.438192 -0.002866 -0.335978 0.127575 0.154322 -0.600598 0.359555 0.759505 -0.128299 -0.263635 -0.444297 -0.048931 -0.901534 0.360588 0.404083 -0.364956 0.098149 -0.163526 -0.359291 0.199923 0.702150 0.505572 0.440907 0.076101
what -0.393724 -0.286959 0.792680 -0.581134 -0.440869 0.100810 -0.404869 0.486602 -0.056390 0.835290 0.102024 0.228259 -0.123973 1.323201 -0.282207 -0.510603 0.556438 -0.397929 0.915894 0.778231 0.385461 -0.298459 -0.047884 0.453978 0.161879 -0.420240 -0.501684 -0.333235 -0.212790 -0.403716 -0.668046 0.142780 -0.165611 0.588928 0.057599 0.349438 0.343272 -0.901047 0.064682 -0.259850 -0.095190 0.393743 0.197013 -0.087400 0.251535 -0.835386 0.301068 -0.062937 -0.975911 -0.464495 0.519249 -0.278421 -0.062505 -0.218811 -0.113394 -0.329018 0.030029 -0.429696 0.307955 -0.063401 0.168122 0.047077 -0.051861 -0.709004
k@@ 0.172071 -0.729627 -0.835701 -1.173082 0.295134 0.818965 0.034048 0.276869 -0.439532 -0.933839 -0.576532 0.223072 -0.222465 -0.455795 -0.394597 -0.281911 0.170127 -0.056719 -0.133589 -0.206493 0.671952 -0.140573 0.366147 -0.422339 0.490599 0.025142 -0.110906 -0.687987 0.255005 -0.093408 -0.106723 -0.030825 -0.183037 0.216761 0.104756 0.686339 0.513977 0.004824 0.192454 -0.448868 -0.354256 0.392699 -0.236030 -0.405055 -0.402308 0.149262 0.325819 -0.072932 0.200938 -0.173241 0.003759 -0.757693 0.987822 -0.580117 -0.163226 -0.105252 0.194522 -0.297194 0.289614 0.218881 0.477076 -0.295018 -0.012618 0.354956
at@@ -0.379798 0.504777 0.198293 -0.100410 0.116285 -0.211944 -0.673288 -0.542509 0.912395 0.075844 0.161135 0.726772 -0.284376 0.436894 0.506921 -0.586267 0.526913 -0.207155 0.539786 -0.163628 0.054470 1.157759 0.242736 -0.118557 -1.215155 0.273707 0.094283 -0.068043 -0.380871 -0.672596 -1.153282 -0.588789 -0.522411 0.659464 -0.544423 0.155867 0.076276 0.253508 -0.356534 -0.439096 0.325313 0.297411 0.323902 0.269004 -0.009036 -0.426352 0.513008 0.978369 -0.512115 0.004601 -0.039825 0.585972 0.464442 0.468530 -0.078759 -0.268647 -0.238608 0.188323 -0.219266 0.092235 -0.805381 0.315702 0.610843 0.195882
st 0.166684 0.379066 0.230711 0.004146 -0.486115 0.720755 0.131477 -0.513402 0.094306 0.209726 -0.738908 0.072672 -0.055603 0.081093 -0.542867 -0.283574 -0.471229 -0.021276 0.037478 -0.040734 0.429062 -0.511138 -0.616910 -0.410053 0.275833 -0.879468 -0.063700 -0.191876 -0.054661 0.030605 -0.381543 0.164465 -0.167922 0.116482 0.383960 -0.570796 -0.401172 0.327822 0.435272 -0.229118 -0.056870 0.771148 -0.326142 0.147953 0.107469 0.443278 0.328767 -0.743840 -0.151989 0.330767 0.167427 0.036581 0.253132 -0.559342 0.104046 -0.247485 0.080141 0.056650 -0.371780 0.097059 0.067952 0.046475 0.107676 0.636202
en 0.638297 -0.518563 -0.025182 0.655250 0.652365 -0.213652 -0.201655 -0.120651 0.877035 0.159545 -0.992495 0.004982 0.970848 -0.054920 -0.635713 -0.341148 -0.481231 -0.331212 0.007166 -0.795407 0.068942 0.431388 -0.126498 -0.327398 0.255108 -0.933465 0.206788 0.404236 -0.262763 0.376010 -0.676715 0.133849 0.166207 -0.591510 -0.852376 -0.515168 -0.023557 0.127132 -0.021070 0.371843 0.370100 -0.337622 0.248499 -0.448989 -0.504723 0.159630 -0.399473 0.905716 -0.306600 0.001271 -0.671416 0.847314 0.217516 0.833385 0.229869 0.077424 0.606588 0.510530 0.416372 -0.318626 0.181662 -0.033641 -0.272863 -0.346611
for -0.508684 0.047083 -0.688696 -0.535280 -0.020119 -0.116607 -0.827479 -0.629407 0.360285 -0.147017 0.472569 0.669077 0.224451 -0.049838 0.496648 -0.368937 0.199819 0.258901 0.140227 0.138580 0.065763 0.912052 -0.021154 0.433342 -0.070532 0.023776 -0.307272 -0.091302 -0.614650 -0.099628 -0.934787 -0.020294 -1.022988 -0.164967 -0.933266 0.190853 0.051991 -0.393079 -0.164902 -0.006771 0.264427 0.477271 -0.626477 0.003191 -0.118195 -0.087118 0.434639 1.195019 -0.441782 0.242059 0.351318 -0.262651 0.431532 0.255098 0.481330 -0.146871 -0.104359 -0.250837 -0.307678 0.456864 -0.229205 -0.287508 0.266847 0.175867
mm 0.807145 0.746777 0.157298 0.298041 0.245255 0.337619 -0.842694 0.523204 0.308258 0.489258 -0.906917 -0.844600 0.167355 0.353079 0.054022 0.222239 0.645908 0.327741 0.012139 -0.408007 -0.102702 -1.296401 -0.276883 0.509653 -0.030884 0.334208 0.218696 0.542123 -0.904847 -1.488451 -0.175782 -0.207705 -0.869094 0.624100 -1.777340 0.673345 -0.308024 0.646669 0.441986 0.133890 0.398683 0.098560 -0.074088 0.352452 0.044479 0.581840 -0.244826 0.349537 -0.759697 -0.497484 0.570492 -0.073083 0.561459 -0.009379 -0.454456 0.524987 -1.370962 -0.609290 -0.023918 1.092915 0.421597 0.436298 -0.434528 -0.401430
or@@ -0.034288 -0.876926 -0.048741 -0.272444 -0.082754 -0.257314 -0.120927 -0.850156 -0.416748 -0.888903 -0.389175 0.042338 0.288042 0.337826 0.475196 -0.208469 -0.466430 -0.400885 0.045786 -0.556206 -0.544188 0.810914 -0.278620 0.379382 0.129038 -0.465224 0.778972 -0.197517 -0.577633 1.116280 -0.556977 0.177975 -0.284660 -0.068478 0.354496 -0.876814 -0.716670 -0.113158 -0.312724 0.531712 -0.398155 0.262227 0.030827 0.020848 -0.912258 0.406494 0.322675 0.642438 0.195902 -0.118093 -0.489656 -0.157242 0.137873 0.206600 0.219393 0.371235 0.091769 0.544579 0.165938 -0.554693 -0.412287 -0.371404 0.025563 -0.469746
k 0.304120 -0.463515 0.760307 0.360671 -0.428398 0.203351 -0.049415 -0.049733 0.667765 0.430966 0.510444 -0.513179 0.625185 0.572806 0.096287 -0.101239 -1.164359 -1.431942 0.241880 -0.087182 -0.156067 0.203710 0.311584 0.441368 0.158093 -0.718508 -0.245835 0.726155 -0.100394 -0.432502 0.516269 0.179457 -0.679287 0.286478 -0.420575 -0.473172 -0.882463 -0.187472 0.222019 1.001929 -0.408235 -0.295307 0.329064 0.094101 0.582427 0.446952 -0.141138 0.879486 -0.290358 -0.153209 -0.177790 0.301221 -0.090026 -0.145779 0.847328 -0.236162 -0.186638 -0.007081 0.197766 -0.520827 -1.221830 0.903794 -0.493599 -0.875042
one -0.573235 -0.065998 -0.005161 -0.638172 -0.294664 -0.527958 -0.059325 0.057622 0.594889 -0.077941 0.608859 0.922903 0.006663 0.571641 0.589514 -0.356773 0.167857 -0.184271 0.008651 0.149056 -0.519573 1.117018 0.289514 0.339786 -0.885039 0.857977 0.535634 -0.432247 0.184117 -0.178695 -0.354718 -0.368814 -0.531487 0.105354 0.252678 0.310127 -0.458915 -0.236320 -0.624163 -0.149771 -0.121291 -0.114804 -0.598968 -0.171012 -0.161977 -0.281272 0.101313 0.384233 -0.130229 0.157388 -0.104673 -0.355685 -0.533127 0.654404 0.049094 0.622609 -0.472623 -0.128610 0.045147 -0.232594 0.144987 -0.373192 0.770466 0.215794
th@@ 0.791464 0.266002 0.088857 0.800202 0.434587 -0.651614 0.444840 0.172156 -0.197567 0.818156 -0.617089 -0.202435 0.806830 0.058650 0.086339 0.097371 0.240758 0.309809 -0.037514 0.088002 0.248881 -0.226379 0.104620 -0.515768 -0.675158 0.301466 -0.035607 0.105314 0.793108 0.453132 0.711961 0.387514 0.392094 -0.046796 0.325637 -0.169826 0.176267 0.019734 -0.040668 0.371228 -0.020685 -0.043495 1.086184 0.046072 0.404876 0.155207 -0.747098 -1.309426 -0.504222 0.253164 0.033184 0.637004 0.271818 0.696855 -0.155976 0.361551 -0.487538 0.192062 0.054724 -0.151391 0.861423 0.256804 -0.284327 0.729172
ri@@ 0.721849 -0.395423 -0.090781 -0.208236 -0.085777 0.765553 0.289299 0.833243 0.128567 0.231030 -0.193311 -0.261523 0.194620 -0.358306 -0.614147 -0.416457 -0.192363 0.464277 -0.130093 0.183782 -0.313778 -0.636561 -0.450015 -0.664207 0.043651 -0.279626 0.254128 -0.522199 -0.249194 -0.119139 -0.786309 0.386643 -0.703299 -0.418381 -0.463283 -0.388992 -0.374598 -0.311188 -0.061363 0.235097 -0.016701 -0.129032 0.061361 -0.012865 -0.222662 0.495058 -0.820117 -0.066221 -0.700074 0.224315 -0.067063 -0.407313 0.507466 -0.485591 -0.297936 0.405942 -0.445556 -0.287548 -0.202449 -0.264393 -0.114822 0.013033 -0.652441 -0.487060
r 0.351214 -1.070842 -0.178407 -0.151299 0.008766 0.040825 -0.426596 1.226058 -0.193868 -0.117491 -0.071589 0.248431 0.332490 -0.143949 -0.057268 0.000556 0.660303 0.471002 -0.029287 0.606998 -0.224389 -0.801454 -0.481396 -0.150976 0.246939 0.219271 0.125688 -0.795783 -0.283230 0.110391 -0.061149 -0.367013 -0.366082 -0.062067 -0.454037 0.313732 0.149531 0.189074 -0.229798 0.005605 -0.035221 0.418458 -0.649621 0.059489 0.072004 -0.185975 -0.229894 -0.194538 0.169535 -0.600377 -0.205437 -0.530256 -0.234835 -0.511220 -0.905098 0.440769 -0.104862 -0.427690 -0.019929 -0.098578 -0.307488 -0.703289 0.047720 -0.727598
or -0.021706 0.475897 -0.178181 -0.387402 -0.119641 -0.146133 -0.517688 -0.108189 0.493318 -0.082129 -0.187716 0.150975 0.888741 0.379224 -0.187112 -0.811934 -0.095612 -0.107747 -0.342765 0.617719 -0.059395 0.841407 -0.507446 -0.373040 -0.019900 -0.044046 0.065116 -0.025625 -0.678517 0.016528 -0.984445 0.644596 -0.115207 0.400182 -0.217175 -1.367447 -0.240502 -0.425709 -0.087866 0.717617 0.313267 -0.837716 0.410885 -0.149493 -0.045294 -0.307703 0.387455 0.678570 0.285691 -0.190650 0.050119 -0.014440 -0.132263 0.193351 0.355865 0.212052 -0.377307 0.567311 -0.285913 0.146393 0.237051 -0.080091 -0.448393 0.116899
ac@@ -0.753911 -0.224523 -0.466021 -0.455882 -0.081155 0.218445 0.443300 -0.316584 -0.064120 0.164823 -0.547561 0.013919 -0.231285 0.542646 0.145999 -0.068254 -0.100141 -0.714050 -0.270189 -0.226753 0.093929 1.376088 -0.032318 -0.025242 -0.494330 -0.494659 0.013377 0.502732 -0.687996 -0.094299 -0.704095 -0.638969 -0.486082 -0.490865 -0.117142 -0.291845 -0.124406 -0.149788 -0.165646 -0.086818 0.236115 -0.453543 0.279910 -0.159620 0.287642 0.030869 0.671657 1.215246 -0.663183 0.060609 -0.072098 0.164292 1.021485 -0.129796 0.133621 0.422728 -0.592438 1.396722 0.385217 -0.363095 -0.685178 0.089340 0.183513 0.365953
be@@ -0.190393 -0.884792 0.466906 -0.106746 -0.525756 0.553478 -0.383062 -0.099040 0.222313 0.823577 -1.058585 -0.038167 0.113865 0.235765 -0.095712 0.340621 -0.214800 -0.855649 -0.189001 -0.462280 -0.358981 0.003257 0.136856 0.437944 0.634400 -1.122074 -0.035889 0.560368 -0.262336 -0.567174 -0.790022 -0.014768 -0.518014 -0.254405 -0.511583 -0.708202 0.237796 -0.052814 0.225402 0.229731 0.699175 0.154431 -0.328745 0.269047 0.088013 0.075506 1.062779 1.070467 0.397052 -0.240204 0.561630 0.182208 0.288186 -0.219557 0.010206 0.095805 0.329738 0.150119 0.264606 -0.192823 -0.366744 0.567572 -0.025949 -0.596426
was 0.276247 0.546271 0.481159 0.591176 0.032554 0.267976 0.212266 0.038595 0.518910 -0.055197 -0.050127 0.369596 0.282589 0.463631 -0.338986 -0.251189 0.285371 -0.072844 0.572413 0.532624 0.287279 -0.458404 -0.339136 -0.136398 0.234159 -0.188075 0.503243 0.811252 0.544613 -0.098511 -0.329449 0.378604 0.130482 0.096768 -0.240937 -0.413037 0.114507 -0.028345 0.324835 -0.166339 -0.345975 0.504958 0.187284 0.299028 -0.304830 0.094515 0.059869 -0.425049 -0.258679 0.552910 0.056678 0.001702 1.133976 0.121896 -0.131192 -0.208738 -0.372986 0.187249 -0.076961 -0.250793 0.126011 0.827706 -0.306540 -0.038847
el@@ 0.385598 0.501875 -0.196803 -0.095990 -0.054105 0.232450 0.269412 0.201964 0.167523 0.401236 -0.530134 0.293746 0.110084 0.381824 -0.002772 -0.060863 0.262907 0.099512 0.056990 -0.260655 -0.179408 -0.214790 -0.362507 -0.444706 0.085966 -0.447513 -0.091677 0.022544 0.172101 0.146538 -0.261826 0.252777 0.024999 0.360065 -0.330685 -0.125975 0.282537 0.317797 -0.116112 0.362753 -0.047878 0.208565 -0.185939 -0.295122 0.133170 0.138544 0.470652 -0.396741 -0.305887 0.607525 0.465159 0.200574 0.227152 0.108473 -0.489225 -0.010687 -0.683014 0.247704 -0.418921 -0.109490 -0.104967 0.381525 0.160737 0.073548
ex@@ -0.196999 0.341543 -0.017847 0.088581 0.081375 -0.020965 1.048119 1.233348 -0.592614 -0.460439 -0.416844 -0.220198 -0.130749 -0.940775 -0.448685 -0.574690 0.592252 0.788185 -0.258709 -0.135225 0.018316 -0.187039 -0.429373 0.270461 -0.368842 -0.000592 0.322391 -0.632984 0.579506 1.054893 0.080912 0.000303 -0.025837 -0.681464 0.834542 0.478425 -0.032023 -0.402073 -0.956165 -0.913780 -0.175512 0.239626 0.040672 -0.961454 -0.494650 0.228263 -0.473696 -0.836157 -0.100763 0.008827 0.300543 -0.166079 0.221974 -0.029249 -0.511621 -0.014650 -0.014179 0.132297 0.269376 -0.308568 0.983028 -0.389932 0.545487 0.337852
si@@ -0.241608 -1.159121 0.472993 -0.705488 0.680549 0.634872 -0.711677 -0.646170 0.585688 0.922716 0.346139 0.669745 -0.066484 0.213969 -0.458237 -0.069900 0.425361 -0.612023 0.120455 -0.184385 -0.234343 0.457520 -0.771932 0.326142 0.336310 -0.027823 -0.388811 -0.074857 0.443694 0.366056 0.374578 0.207995 0.325193 0.090056 -0.326995 -0.339664 0.153777 -0.341918 -0.853280 -0.102473 -0.439054 0.022979 -0.093816 -0.018529 -0.313637 0.017839 -0.348888 0.618347 0.472014 0.200032 -0.503757 -0.514761 -0.363358 1.126143 -0.043271 0.337448 0.277107 -0.261248 0.220065 0.087113 -0.315435 -0.219173 0.274271 -0.442260
not 0.287534 0.102168 0.195307 -0.184610 0.031089 0.035297 0.771740 0.041226 -0.210100 0.535274 -0.119224 -0.309711 -0.066070 0.287990 -0.029242 -0.041525 -0.023102 0.124878 0.406678 0.629259 0.321112 0.660514 0.257174 -0.315754 -0.473735 -0.286371 0.167323 0.316604 0.734664 -0.118126 -0.079815 0.450027 -0.236909 0.268261 0.162352 -0.671522 0.143355 0.344671 0.529982 -0.119736 -0.404343 0.128135 0.431729 -0.060599 -0.468158 -0.020387 0.148916 0.240504 0.205085 0.063212 -0.085274 0.070641 0.430507 -0.171528 -0.210914 -0.071625 -0.676361 0.661577 0.643781 0.041831 -0.132375 0.115107 -0.538988 -0.138527
se -0.068129 -0.416249 0.106388 0.070308 0.063105 0.448114 -0.704528 0.146028 0.419820 -0.156709 0.088769 0.180019 -0.167496 0.462996 -0.268863 0.107974 -0.121908 -0.162746 0.077709 0.582686 -0.041188 -1.081907 0.289244 0.279208 0.730221 -0.300975 0.519301 -0.279623 -0.571497 -1.063216 0.775059 0.201545 -0.131690 -0.103536 -0.397804 -0.000799 -0.308169 0.202197 -0.412799 0.624354 -0.000338 0.302347 -0.814253 -0.405129 0.165697 -0.319959 -0.038414 0.039080 -0.081644 -0.897212 0.748377 -0.812455 -0.394630 -0.509297 -0.829330 0.099124 -0.573752 -0.346080 -0.098287 0.184517 -0.259532 -0.308254 -0.269827 -0.642595
er -0.772111 -0.936118 -0.710311 -0.646592 -0.215690 0.393885 0.227267 -0.180060 -0.245852 -0.367019 0.204307 0.634991 -0.659619 -0.369785 -0.057607 -0.453263 -0.425370 -0.012677 0.648607 0.277970 0.313549 0.354189 0.385296 -0.314449 0.263592 -0.355925 -0.110873 -0.785851 -0.206095 0.468682 -0.362559 -0.186158 -0.172432 -0.434601 -0.081362 0.796171 0.409002 0.244359 0.008518 -0.041043 -0.209612 1.279791 -0.717716 -0.470395 -0.405938 0.089085 0.574718 -0.000865 0.299116 -0.485473 0.014788 -0.555360 -0.100478 -0.404704 -0.339406 0.415925 -0.093182 0.006032 -0.256938 -0.133447 0.614705 -0.089772 0.346021 -0.413965
do 0.675948 -0.126385 -0.019754 -0.223003 0.224606 0.144791 0.521424 0.310221 0.031818 0.137797 -0.983535 -0.480092 0.254170 0.532708 -0.208646 0.686937 -0.811575 0.093512 -0.313499 0.922834 0.088543 -0.975878 -0.215687 0.397963 -0.065260 -0.555457 -0.116328 0.298931 0.053342 -0.430430 0.007639 0.401467 0.384218 0.084704 0.311466 -0.188441 0.620600 0.605435 0.129857 0.366814 -0.133795 0.112661 -0.064324 -0.525408 0.620022 0.282270 -0.368794 -0.094594 -0.145651 0.109144 0.383942 -0.176711 0.803580 -0.369981 -0.823051 0.438999 -0.543188 0.574526 0.081208 0.478647 -0.919536 0.184716 -0.357393 0.178538
ly -0.405456 0.260839 -0.650025 0.016438 0.258473 -0.240280 -0.429042 0.508663 -0.508172 -0.117385 0.627572 1.010051 -0.518116 -0.534147 -0.003725 -0.017047 0.209345 -0.068186 0.160589 0.323519 0.242598 -0.342638 0.012817 -0.526819 -0.126073 1.077693 0.544727 -1.105356 0.450001 0.033089 0.481310 0.366500 0.037959 0.152992 -0.139599 0.427759 0.454648 0.313624 0.224753 -1.366931 -0.397140 0.251969 -0.304293 -0.170805 0.137103 -0.191636 -0.364605 -0.325943 0.504679 0.507856 0.212422 -0.396872 0.578561 0.031656 0.616478 -0.243977 -0.511222 -0.107906 0.118470 0.317356 0.350501 -1.282441 0.713304 0.330398
le 0.771841 0.649713 0.196750 0.196535 0.322046 -0.339215 0.674146 0.808850 -0.209495 0.451795 -0.287322 0.216525 -0.120282 0.162654 -0.082071 0.157454 0.574801 0.890811 0.310454 0.399534 0.052916 -0.505017 -0.022632 -0.097762 -0.550835 0.442976 -0.142425 -0.569069 1.001375 -0.107802 0.024516 0.429980 0.187802 0.180653 0.254497 0.108599 0.197585 0.767947 -0.389141 -1.111524 -0.780988 -0.421318 0.511393 -0.168944 0.556181 0.082804 -1.052076 -0.847569 0.130631 0.592220 -0.224764 -0.242776 0.786962 0.384704 -0.400278 0.141457 -0.211996 -0.253595 0.368269 0.076944 -0.017814 -0.376628 0.135369 0.745100
right -0.061276 0.843197 1.317540 0.604606 0.401488 -0.504605 -0.025174 0.526992 0.448169 -0.231351 0.816997 0.385736 0.316772 -0.314113 0.457730 -0.548119 0.523940 -0.378947 -0.000816 0.101881 0.173373 0.182500 -0.352474 0.261865 -0.155636 1.013290 -0.369750 0.212574 0.053776 0.227184 -0.964456 -0.145241 -0.864461 0.914672 0.069845 -0.136936 -0.076399 0.186051 0.104103 -0.531310 -0.247163 -0.024496 -0.447614 -0.114963 0.097736 0.055614 -1.036869 0.400058 0.181717 0.367910 0.317159 0.540136 0.281856 0.466757 0.383365 -0.289214 0.151335 -0.418713 -0.167758 -0.215783 -0.699197 0.402543 0.232164 0.577473
aha 1.170178 0.700273 -0.038402 0.658505 0.316469 -0.203103 0.027400 0.458266 -0.101282 0.554548 0.194862 -0.356230 0.435576 0.543526 -0.137665 0.107291 0.288221 0.860550 -0.228977 0.003692 -0.628737 -1.305798 -1.262538 0.179780 -0.347787 0.006564 -0.297946 0.209510 0.216351 -0.487528 0.487632 0.522595 0.315371 0.052748 -0.743792 -0.083533 0.398972 0.189223 0.299269 -0.241851 -0.213214 -0.796947 1.012618 0.141334 0.776934 0.348054 -0.307319 -0.463934 0.106079 -0.050612 0.311199 0.131902 0.198667 0.112779 -0.566998 0.235876 -1.018299 -0.420442 0.003070 0.263584 0.110113 0.280727 -0.693960 0.151236
from -0.476925 0.540338 0.163794 -0.425113 0.286002 0.519063 0.074247 0.239129 0.062321 -0.514302 -0.487075 0.259541 0.225664 0.104446 0.405718 -0.205087 0.227065 -0.031279 -0.632157 -0.176866 -0.313655 0.219960 -0.055491 -0.237531 0.067612 0.359437 0.421920 -0.470134 -0.874772 0.330434 -0.422052 -0.459291 -0.398838 0.935683 -0.166718 -0.203671 0.578840 0.012316 -0.266779 -0.678246 -0.011372 0.159708 -0.652809 0.185506 -0.310468 -0.039313 -0.215603 -0.022113 -1.094564 0.588183 0.009436 -0.835756 0.981471 0.562698 -0.970480 0.464775 0.020680 0.266658 -0.985254 -0.189430 0.609356 -0.156376 0.213360 0.345801
un@@ 0.305824 0.977500 0.377164 -0.345058 -0.001108 0.032497 0.429988 0.413408 -0.001742 0.419195 -0.591764 -0.343419 0.092004 0.383780 0.170360 0.176590 -0.589352 0.234337 0.216390 -0.126490 -0.292954 -0.264457 -0.755424 0.074086 0.177324 0.028126 -0.200094 0.509329 0.382269 -0.235819 -0.007211 0.668847 -0.447404 0.012147 -0.357183 0.301879 0.105773 0.434242 -0.370753 -0.065388 -0.277963 -0.342412 -0.262656 -0.248006 0.176468 -0.098617 -0.171731 -0.325232 -0.581546 0.569424 -0.660144 -0.102189 0.433503 -0.052305 0.199056 -0.731800 -1.035786 -0.243399 -0.114236 -0.167076 -0.708110 0.263472 -0.278944 0.310184
l 0.328117 0.155298 0.244184 0.618240 -0.340848 0.198103 -0.058583 -0.389764 0.380184 0.325370 -0.404577 -0.065653 0.186622 0.037148 -0.019523 0.570557 -0.098387 -0.279734 -0.448380 0.717852 0.283135 -0.168569 -0.598919 0.286726 -0.737022 -0.074299 -0.178388 -0.261926 -0.161662 -0.218817 -0.034168 0.308120 -0.590459 0.117032 -0.500361 -0.047848 0.124865 0.632728 -0.134173 0.202783 0.279711 0.019132 -0.296592 0.450046 -0.252263 -0.273958 -0.033492 -0.298214 -0.297037 0.746376 0.527063 0.524845 0.438046 0.259739 -0.292790 0.537090 -0.847956 0.429335 -0.015862 0.433640 0.474617 0.471387 -0.358655 0.539720
uh -0.075908 0.004769 0.590865 -0.051862 0.026165 -1.018332 0.051632 -0.832778 0.270375 0.119064 0.894565 0.564698 0.387262 -0.526518 0.107261 -0.177638 1.030574 -0.221507 -0.161170 0.212149 -0.534908 0.799451 1.267338 0.600892 -0.708087 1.547425 0.268294 -0.398323 0.139355 0.649334 -0.906177 0.501288 -0.214358 0.026663 0.626592 0.449198 -0.329898 0.238595 0.016927 -0.508255 0.022872 0.132707 -0.522871 0.194681 -0.045537 0.225474 -0.431217 -0.093555 -0.513312 0.365616 0.428005 0.604593 -0.456794 0.852485 1.261626 -0.327560 0.059728 -0.418276 -0.427058 -0.217114 -0.600368 -0.401238 1.066187 0.316644
hi@@ -0.759844 -0.081923 -0.467928 -0.884508 -0.588666 0.211043 -0.470808 -0.513909 -0.510879 -0.397101 -0.101164 0.571985 -0.711411 -0.131419 0.618384 0.835080 0.055824 0.050488 0.131854 -0.111797 0.082234 -0.137934 -0.195549 -0.669499 0.906964 0.496726 -0.942294 -1.393503 -0.000727 -0.160513 -0.765883 -0.522082 0.088478 -0.439557 0.491120 0.755694 -0.148392 0.294129 0.138062 -1.039145 0.043811 0.141728 -0.282892 0.137501 0.423083 0.285575 0.344009 -0.186691 -0.123148 -0.122308 0.215745 -0.681336 -0.034071 -0.996495 -0.423469 0.470198 0.774635 -0.028399 -0.000474 0.496720 0.234321 -0.716204 1.008336 0.398077
with -0.428241 -0.062557 -0.512039 0.633435 0.018465 -0.322408 -0.472050 -0.419877 0.349033 -0.168261 -0.014716 0.435620 0.911295 -0.257297 0.280598 -0.868829 0.900566 -0.654157 0.308790 -0.754854 -0.252152 1.333462 -0.420986 -0.257991 -0.349350 -0.115972 -0.105625 -0.496203 -0.504007 1.213276 -0.036713 -0.250594 0.273792 -0.129093 0.383527 0.255770 0.473103 0.068750 0.037553 -0.037002 0.152821 0.014549 -0.757615 0.772612 -0.063120 -0.608376 0.515749 0.078997 -0.070139 -0.000935 0.273627 0.663689 -0.188132 0.336979 0.659348 -0.594776 -0.001991 -0.037494 -0.765637 -0.938637 -0.446226 0.076446 0.385574 -0.098439
ne@@ 0.551707 -0.080228 0.813970 -0.121941 0.085486 -0.097578 0.013254 -0.574380 0.326880 0.174779 0.089319 -0.115807 0.860991 0.270990 -0.500735 -0.186280 -0.219366 0.443593 0.027599 0.152396 -0.528292 -0.499663 0.196483 -0.011389 0.414096 -0.690317 0.046363 -0.788450 -0.152568 -0.136394 0.108782 0.047175 -0.123684 -0.247384 -0.244367 0.602701 -0.325666 -0.024163 0.323154 0.175039 0.058676 0.730770 -0.396536 0.100171 -0.133896 0.176195 -0.336924 -0.041740 -0.375167 0.152739 0.529766 -0.099048 0.292649 -0.133664 -0.504123 -0.066755 -0.284547 0.076393 -0.253517 0.016011 -0.055092 -0.439924 -0.226815 -0.615269
ic@@ -0.577461 0.323580 -0.193245 0.291633 0.147884 0.107489 1.298542 -0.072883 0.161494 0.046601 -0.211368 0.362814 0.425139 -1.023935 0.148080 -0.086130 0.166778 0.214939 -0.760817 -0.267595 0.031424 0.191088 -0.212675 -0.876520 -0.237900 -0.173136 0.610069 -0.304710 0.880187 1.288325 -0.050504 0.540603 0.103202 -0.582966 0.674876 -0.146716 -0.078285 0.341747 0.223517 0.161543 0.060640 0.052879 0.063407 0.191802 -0.330395 -0.091959 -0.381157 -0.300723 -0.199844 0.650696 -0.020485 0.210903 -0.304457 0.769647 0.356645 -0.256584 0.147720 0.345503 -0.176713 -0.576783 0.312068 -0.539246 -0.193739 -0.036760
ea@@ 0.331796 0.271908 0.149722 -0.334126 -0.030422 0.715023 -0.503603 0.110391 0.513124 0.035476 0.518598 0.103499 -0.303318 -0.624785 -0.636505 0.702246 -0.759810 -0.411572 0.214049 -0.660323 0.122488 1.087838 0.012974 -0.240188 0.771525 -0.366388 0.172743 0.724978 -1.001181 0.790026 0.592738 -0.154711 0.366867 -0.822552 0.061181 -0.258631 0.283603 -0.012786 -0.384777 0.059936 0.311620 0.178593 -0.800508 0.336861 -0.253808 -0.531054 0.271100 0.507199 -0.355903 0.216859 0.050792 -0.159059 0.864845 0.388694 -0.027360 -0.185534 -0.677700 0.351088 0.431342 0.600429 0.227332 -0.401448 -0.106941 0.844167
lo@@ 0.167248 -1.435221 -0.793908 -0.452125 0.042596 0.832165 -0.022696 0.008720 0.275434 -0.032575 -0.143543 -0.475653 -0.586757 -0.051812 -0.006587 -0.225108 -0.786392 0.144085 0.031163 0.227702 0.479592 0.235784 -0.238510 0.527906 0.721050 -1.085712 0.232931 0.524261 -0.493051 0.134059 -0.903251 -0.004389 0.168810 -0.423434 0.350937 -0.248659 -0.402721 -0.717638 -0.098129 0.134907 -0.030003 0.152328 -0.642944 -0.092203 -0.536535 -0.147681 -0.256585 0.646020 0.616859 -0.003885 -0.645331 -0.033828 0.459492 0.150951 0.261536 0.245358 0.489155 0.795018 0.408323 -0.561169 -0.268606 0.448056 -0.877750 -0.255827
ay -0.697072 0.375523 -0.023847 -0.786550 -0.066052 -0.163706 0.356826 0.358940 -0.507924 -0.146421 -0.025228 -0.001228 -0.629013 0.062507 0.503706 0.369253 0.091953 0.439720 0.312435 0.535604 0.368591 0.737877 -0.258955 -0.127790 -0.620361 0.562970 0.100815 -0.857058 0.552825 0.481567 0.075658 -0.071427 -0.109419 0.584711 0.148582 0.410090 0.255079 0.855598 -0.418029 -0.432979 -0.331030 0.434630 -0.050123 -0.024868 -0.870323 0.094677 -0.133420 -0.610428 -0.451005 0.589773 0.189133 -0.244046 1.323082 0.072988 -0.344361 0.062542 -0.195197 0.364887 0.008802 -0.083313 0.290733 0.319370 0.471952 0.621878
ti@@ -0.075964 0.644445 0.008047 0.554569 0.092320 -0.412951 -0.432676 -0.212580 1.660477 0.458610 0.106640 -0.023204 0.232240 0.131361 0.936801 0.178725 0.430058 -0.496939 -0.353458 -0.792143 -0.293231 0.777317 -0.219124 -0.393329 -0.294707 0.620470 0.261764 0.455061 -0.349926 0.645826 -0.279123 -0.185266 0.247756 0.105274 -0.036947 0.334179 0.084905 0.138998 -0.632087 0.448737 0.602337 -0.501448 -0.094848 0.605465 0.800110 0.153408 -0.212835 -0.092689 -0.084430 0.206615 0.665457 0.605603 0.007279 -0.054014 -0.201477 0.257566 -0.493383 0.015581 -0.500923 0.176184 0.074371 -0.352165 0.315645 -0.110929
my 0.894920 -0.042183 0.245724 0.770095 0.453028 -0.186589 -0.192803 0.691095 0.433129 0.866833 0.092564 -0.500995 0.943096 0.961022 -0.606126 0.064852 0.011222 -0.229302 -0.371599 0.189940 -0.161570 -1.155998 -0.170974 0.276654 0.422726 -0.339577 0.268970 0.508211 0.088809 -0.853204 0.640822 0.797370 0.406020 0.381867 -0.419115 0.136465 -0.141318 0.191411 0.336855 0.738384 -0.107760 -0.170662 1.008010 0.310188 0.422158 0.695767 -0.234336 -0.642265 -0.537945 -0.446738 -0.219109 0.518216 -0.167484 -0.025357 -0.870859 0.222588 -1.037625 -0.361635 0.170290 0.315227 -0.695740 0.358444 -0.484093 -0.469018
an 0.857289 0.754228 0.176917 0.662222 0.654591 -0.421712 -0.095211 0.066664 0.229772 0.915605 0.602387 -0.643133 0.933241 0.437122 -0.097646 0.463530 0.098188 0.093453 0.558743 0.236711 -0.305432 -0.650018 0.305299 0.283955 -0.455102 0.151377 -0.426847 0.391087 0.432528 -1.020277 0.331650 1.476080 0.206565 0.659637 -0.012345 0.146587 0.094185 0.512436 0.418717 0.240939 0.071861 -0.506583 0.950878 0.210176 0.858537 0.243527 -0.189930 -0.222122 -0.177875 -0.050520 -0.069663 1.049302 0.359607 0.080076 0.079160 -0.492670 -0.065006 0.215122 -0.181481 0.160397 -0.469238 0.620351 -0.707451 0.219017
eh -0.608857 -0.610240 1.211171 0.118768 -0.057564 0.105195 -1.484499 0.403829 0.267869 0.461779 0.437319 -0.017759 0.086373 -0.388825 0.072614 0.584523 0.104311 -0.464433 -0.320338 -0.548887 -0.019706 0.033454 0.185676 0.267807 -0.292918 0.409917 -0.616988 0.365973 -0.233440 -0.415625 -0.161548 -0.279744 -0.571122 0.828886 -0.111437 0.270793 0.517477 0.193253 0.042072 0.124802 0.037930 -0.608371 -0.969086 0.662270 0.108319 -0.375583 0.408742 0.797205 -0.616111 -0.059322 -0.106341 0.008137 -0.619785 0.468503 0.504092 0.041736 0.553678 -0.284100 0.010122 0.144803 -0.167134 -0.075127 0.436212 -0.010539
all 0.148871 -0.888510 0.650567 0.366816 -0.770855 0.519546 -0.783421 0.160144 0.187242 0.374781 0.610722 -0.075453 -0.309164 -0.047607 -0.368128 -0.132680 -0.201065 -1.106180 0.512612 -0.369161 -0.173691 -0.377116 0.630305 0.728259 0.907376 0.258400 0.534070 0.485628 -0.837285 0.363684 0.227443 -0.338011 -0.412947 -0.117896 1.022516 -0.183599 0.095810 -0.349413 0.596121 0.298913 -0.067451 -0.027340 0.113463 -0.165444 -0.087021 0.058891 0.375675 0.344780 0.140209 -0.716148 -0.018013 0.088507 -1.363810 -0.551507 0.530372 0.277713 0.548516 -0.620754 0.271400 -0.427684 0.321140 0.442601 -0.498237 -1.052101
here -0.491989 0.154621 0.085033 -0.163701 -0.243098 -0.151430 0.340398 0.466296 0.051247 0.047272 0.446680 0.133469 -0.055978 0.258641 0.588202 0.539636 -0.139616 -0.092357 -0.123535 0.079610 -0.115260 -0.407949 -0.230174 0.029314 0.554710 -0.373022 -0.459335 0.058174 0.028862 -0.484580 0.327934 -1.067552 -1.086339 -0.182151 -0.347469 0.170268 -0.402129 0.222020 -0.379167 0.667849 0.129744 0.039393 -1.046960 0.022578 0.351725 -0.293835 -0.423307 0.434273 -0.183656 -0.089686 0.112379 -0.061180 0.145187 -0.648171 -0.438735 0.147952 -0.569664 0.005705 -0.567005 1.120515 -0.587320 -0.515023 -0.227517 0.534533
how 0.055030 0.254036 1.395986 0.631345 -0.377238 -0.797114 -0.168276 -0.402348 0.130857 0.040174 0.194500 0.138574 0.216867 0.254953 0.477492 -0.000756 -0.017770 -0.302364 -0.304664 -0.651262 -0.694184 0.409641 0.836667 -0.243558 -0.204812 0.645338 0.129923 -0.045872 0.149512 0.175755 -0.575977 -0.116422 0.712008 0.153655 0.506856 0.231871 0.346770 0.518921 -0.242565 0.543637 -0.040242 -0.155968 -0.222110 0.342981 0.090155 0.391701 -0.331364 0.063532 -0.000891 0.818964 -0.307413 0.807996 -0.708574 1.319483 1.105895 -0.385521 0.565898 0.551028 -0.671334 -0.605940 -0.110433 0.053624 -0.119704 -0.504028
this 0.735075 -0.253501 0.337131 -0.121235 -0.286221 -0.097392 -0.410468 0.690480 0.227629 -0.364554 -0.126913 0.152002 0.646073 -0.247644 -0.933294 -0.106466 -0.509169 0.215377 -0.260621 0.151106 0.406583 -0.640710 -0.617266 0.100071 0.195885 -0.278227 0.655108 -0.740626 0.424971 -0.368674 -0.439565 -0.359340 0.135604 0.232096 0.495398 -0.066342 -0.384698 -0.316165 0.354687 -0.606344 -0.104229 -0.690028 0.242407 -0.162545 -0.161402 0.016734 -0.554811 -0.318634 -0.194443 -0.922826 -0.020696 -0.482792 0.418749 0.048108 -1.137997 0.387603 -0.231404 -0.669297 0.163845 -0.831614 0.261412 -0.274991 -0.522259 -0.651526
le@@ 0.007633 1.046331 0.846232 0.067420 -0.225357 -0.253086 -0.276496 0.526191 -0.045374 0.301102 0.178209 -0.076161 0.577375 0.184094 0.429600 0.282695 0.493599 0.938635 0.682424 0.356007 0.553266 -0.470244 -0.805241 0.503097 0.006484 0.866681 -0.096301 0.433449 0.694529 -0.553151 -0.239126 -0.019791 -0.507019 0.417809 0.591644 0.836028 -0.420950 0.361408 -0.218049 0.145529 -0.298424 -0.617159 0.214500 -0.542040 0.186842 0.083215 -0.872755 -0.804417 -0.011206 0.681881 -0.396702 -0.100579 0.328175 0.683118 -0.010549 -0.136734 -0.588984 -0.143562 -0.362241 0.140562 -0.746572 -0.179009 0.405085 -0.221000
think 0.325050 -0.593327 0.915723 -0.268586 0.216052 0.082457 -0.276467 -1.113286 0.194492 0.116788 -0.335128 -0.547210 0.064777 0.814931 -0.494450 -0.637004 0.167614 -0.094860 0.412565 0.281116 0.646087 0.725744 0.376174 0.575426 0.066068 0.784668 0.485544 0.487621 0.081460 0.200517 -0.008328 0.531160 0.276358 0.445096 -0.429669 0.002409 -0.541974 -0.799716 0.128803 -0.455325 -0.044362 -0.571770 0.627794 0.025960 -0.139357 -0.064021 -0.081837 -0.388718 0.427133 -0.146052 -0.561887 0.873647 -0.054328 0.915326 1.011561 -0.529361 0.104386 -0.388406 0.379649 -0.409766 -0.078208 -0.073629 -0.201758 0.128886
it@@ -0.186016 0.184148 0.103126 -0.018351 0.089785 0.095107 -0.090693 0.184468 -0.550994 -0.169159 -0.210222 0.799621 -0.861557 0.682512 -0.221496 0.291681 0.465876 0.141136 0.309988 0.678487 0.355941 -1.169950 0.482582 0.303158 -0.352230 0.410962 -0.311104 0.187915 0.326478 -1.135921 0.126100 -0.325958 -0.519355 0.126031 -0.465035 0.235731 0.231283 0.441391 0.153073 -0.556941 -0.699746 0.320557 -0.028488 0.432418 0.169431 0.200444 0.138209 0.145440 -0.409503 -0.080316 0.160152 -0.796074 0.939896 -0.517793 -0.490645 0.207992 0.356207 -0.389276 0.090133 0.633911 0.001462 0.393999 0.066617 -0.358298
if 0.081752 -0.125623 0.003437 -0.019253 0.294056 0.424682 0.293848 0.116814 0.131435 0.031981 -0.361572 0.687468 -0.136738 0.349849 -0.156242 -0.279584 -0.287772 -0.033587 0.176052 0.123278 0.354702 -0.210561 0.600943 -0.241014 0.069778 -0.590525 0.236081 0.191413 0.331461 -0.465704 -0.256799 0.284455 -0.141798 0.255951 0.173917 -0.410197 -0.329654 0.558851 -0.047873 -0.409580 -0.175286 0.400301 0.700747 0.471528 0.042183 0.221855 0.228423 -0.139914 -0.186824 0.543205 0.385671 0.203149 0.792989 -0.393924 -0.292980 0.701333 -0.103174 0.523876 0.445176 -0.135062 -0.323688 0.253115 -0.689263 0.117445
we 0.061423 0.614015 0.600945 -0.105911 0.282969 -0.430262 0.279040 -0.089000 0.077172 0.383026 0.084185 0.516799 -0.344514 0.981927 0.392014 -0.085402 0.928974 -0.355405 0.541411 -0.353191 0.339685 0.191486 0.285264 -0.424023 -0.775803 0.710978 -0.173209 -0.146625 -0.187167 0.001971 -1.181914 -0.267752 -0.717022 0.387676 -0.925375 1.188603 0.279805 1.140594 0.082745 -1.474338 0.024764 0.120918 0.214588 0.179310 0.088389 0.152135 -0.404862 0.385918 -0.999566 0.246471 -0.058418 -0.122480 0.955013 0.226978 0.295155 -0.189103 -0.493415 -0.323701 -0.696931 0.485302 -0.779718 0.612897 0.428515 0.281564
very 0.430569 0.535462 0.462928 0.461893 0.142683 0.027201 0.329144 0.689740 0.071159 0.221553 -0.271742 0.059601 -0.148160 0.412954 -0.071719 -0.899245 0.033018 0.502968 0.121946 0.179333 0.456826 -0.166227 -0.449916 0.200811 -0.479349 0.058610 0.038229 -0.534416 1.133776 0.195474 0.297187 0.579687 0.271777 0.151973 0.086262 -0.341770 0.024684 -0.206607 -0.444969 0.317591 -0.380972 -0.761977 0.803222 -0.535167 -0.155620 0.334698 -0.169175 -0.735533 0.382870 -0.104583 0.254350 0.356650 0.104634 0.396241 -0.075600 -0.163158 -0.413138 0.456544 0.067721 -0.122588 -0.046028 0.215761 -0.015253 -0.305954
people -0.461018 -0.301197 0.495989 0.207478 -0.327564 -0.187029 -0.931573 -0.396488 0.528913 0.260634 -0.144984 -0.063796 0.351885 -0.241066 0.266113 0.268917 -0.138617 -1.430020 -0.408841 -0.813076 -0.441667 0.574150 0.308675 0.949771 0.291853 0.138488 -0.364748 0.677204 -0.692188 -0.743114 -0.530114 -0.082096 0.063725 -0.367422 0.348255 -0.816639 -0.630468 -0.120583 0.096758 0.350949 0.278894 0.032067 -0.329041 0.279541 0.099831 -0.467955 0.391155 0.592566 0.423900 -0.271322 0.307060 0.371031 -0.494821 -0.866943 0.298652 -0.238395 0.389596 0.718101 0.066599 0.598779 0.436978 0.282104 -0.002606 -0.256363
to@@ 0.153934 0.103791 0.559985 0.468186 0.579518 -0.333196 0.204568 -0.244501 0.102242 0.195452 -0.401932 -0.515565 0.643774 0.411380 -0.419070 0.120029 -0.087075 -0.820078 -0.262972 -0.098095 0.071945 -0.787096 0.117971 0.321991 -0.101321 -0.616177 -0.108273 0.375506 0.809925 -0.658316 0.610028 0.589836 0.527878 0.274999 0.449570 -0.643353 0.083077 -0.120786 0.500252 0.541701 0.352118 0.619957 0.735791 0.254362 0.055130 0.675531 0.414374 -0.804018 0.501528 -0.191760 0.088373 1.356891 -0.062299 0.338162 0.312818 0.010291 -0.176690 0.054137 -0.152283 0.358661 0.376668 0.514424 -0.541579 -0.380221
that's -0.033791 -0.087162 -0.181897 0.330685 -0.487354 0.054526 -1.058817 -0.846419 0.210726 -0.199696 -0.055722 0.185504 0.190156 -0.088442 0.289823 0.352129 -0.203378 -0.146228 0.415430 0.356620 -0.778075 -0.358801 -0.323592 0.077904 0.720508 0.322096 0.323271 0.126513 -0.709494 0.366870 -0.092858 -0.256688 -0.468578 0.488234 -0.433261 -0.207226 0.043794 -0.392373 -0.168431 0.222611 0.256753 -0.457037 -0.643905 0.642489 -0.096914 0.479322 0.155828 0.414301 0.364583 0.026130 0.779935 -0.146204 -0.083233 -0.184315 0.605241 -0.223154 0.161979 -0.660263 -0.674567 -0.029365 0.107844 -0.240437 0.660013 -0.196492
i'm 0.351467 0.069540 -0.090830 0.089406 0.210117 0.908692 0.593934 1.092177 -0.037172 -0.139190 -0.239497 -0.356771 -0.607819 -0.571371 -0.300161 -0.586964 -0.280360 0.380254 0.182041 -0.126114 -0.060324 0.129993 0.245678 0.088634 0.059829 -0.042031 0.070323 -0.826550 0.292550 0.450372 0.410130 0.132853 0.259526 0.020134 -0.627045 0.036509 0.554365 -0.508388 -0.025567 -0.883727 -0.027481 0.232057 0.141806 -0.718696 -0.440196 -0.060436 0.358992 -0.902427 -0.524685 0.185012 0.042362 -0.732646 0.462800 0.166281 -0.178869 -0.477437 0.145477 -0.220277 0.512756 -0.308136 0.078848 0.157748 0.441750 0.451514
sure -0.382284 -0.799449 0.614051 0.362211 0.214675 -0.034736 0.112849 0.078854 0.192342 -0.069272 0.016939 -0.190953 -0.401566 -1.062476 -0.011720 -0.042569 -0.118313 -0.592876 0.289980 -0.403360 -0.255488 0.206894 0.442771 -0.229711 0.460815 -0.355330 0.149168 0.055466 0.256105 0.344069 0.294956 0.131024 0.006746 -0.349454 1.236733 -0.472475 0.137074 -0.314552 -0.399186 0.408218 0.532206 0.064150 -0.045363 0.736281 -0.130246 1.097110 0.089637 0.059354 0.122791 0.142823 -0.127560 0.371534 -0.988224 0.364065 1.017325 0.129645 0.152308 0.008184 -0.094616 -0.589669 0.632942 -0.197651 -0.011508 0.340719
tr@@ 0.089199 0.031946 0.305351 -0.041120 -0.519985 0.004288 -0.813401 -0.089782 0.465677 0.435537 0.151210 0.057328 0.640818 -0.206354 -0.072907 0.859855 -0.841259 0.065150 -0.019694 0.214693 -0.557860 0.537322 0.230334 0.698141 0.152557 -0.262410 0.893277 0.456012 0.168182 -0.301788 -0.909066 -0.476963 -0.311121 0.536439 -0.250948 -0.135683 -0.208458 0.176068 -0.241884 -0.265577 0.122426 -0.342550 -0.540111 0.680755 0.719828 0.103935 0.427852 0.074181 0.742042 0.278593 -0.343136 -0.422546 -0.058029 0.221193 0.446748 0.124163 -0.176684 0.471893 0.173366 0.183187 -0.561286 -0.418846 0.093000 -0.210018
sa@@ -0.774963 -0.155073 0.014859 0.071494 0.099309 -0.900226 -0.368016 -0.838423 0.422744 -0.244615 -0.264059 0.190242 -0.160782 0.260834 -0.421776 -0.493237 -0.922788 -0.602676 0.227140 0.118655 0.488351 1.003036 0.202841 0.025986 -0.255830 0.419438 -0.215027 -0.095580 -0.290217 0.271333 -0.819678 -0.089002 0.087863 0.262756 -0.168421 -0.138851 -0.544454 -0.122092 -0.636609 -0.152928 -0.293256 0.251543 0.040685 0.277612 0.156322 0.510858 -0.017322 0.367173 0.330638 0.095794 -0.274697 0.546522 1.151176 0.257931 0.236119 0.135959 0.221120 0.974206 -0.017207 -0.180195 -0.037005 0.503680 -0.231639 0.537996
ma@@ -0.607315 -1.704524 -0.163924 0.002415 0.052275 -0.075910 -0.667090 -0.330614 -0.176293 -0.578668 0.329550 -0.021972 0.165223 -0.466037 -0.250296 -0.062306 0.476554 -0.410200 -0.439692 -0.527221 -0.314011 0.111993 0.805829 0.504241 0.320749 -0.533156 0.264164 -0.126135 -0.886643 0.218305 0.109932 0.109332 -0.029791 -0.379275 -0.412990 0.133458 0.188207 -0.228353 0.302465 -0.298331 0.476379 0.046498 -0.684526 -0.197539 -1.095737 -0.289816 0.965319 0.771968 0.178154 -0.358097 -0.555103 0.176841 -0.431724 0.498729 0.119557 -0.255836 0.414547 -0.065148 0.738142 0.318743 -0.413628 -0.271560 0.454220 -0.583466
ha@@ -0.061027 -0.796036 -0.656965 -0.625354 0.096291 0.285841 -0.590599 -0.210038 -0.356716 0.257490 -0.091306 -0.172820 -0.088211 -0.488871 0.047974 0.109059 -1.096007 -1.060681 -0.636519 -0.003755 0.144109 0.857284 -0.125764 0.230096 0.713753 -0.584783 0.337529 -0.114821 -0.545092 -0.342565 0.088813 -0.851372 0.085659 -0.340029 -0.010366 -0.502218 -0.025493 -0.710247 -0.152735 0.964483 0.094518 -0.190183 -0.386039 0.067158 -0.300369 0.067043 -0.085315 1.262693 0.341085 0.169370 0.077626 -0.665384 -1.023002 -0.031834 0.575297 0.049205 0.465288 0.331619 0.116746 -0.081282 0.190857 -0.404900 -0.087707 -0.496641
ent 0.140102 -0.661856 0.282338 0.220096 -0.209868 -0.223924 -1.052174 -0.337062 -0.278214 0.484709 0.307924 0.544956 -0.034990 1.345262 0.152358 -0.637157 -0.011265 -0.004058 0.981798 0.456604 -0.056789 0.192817 0.547550 1.131402 -0.685343 0.454023 -0.326753 0.690442 -0.194514 -0.873703 -0.362527 -0.159678 -0.630235 0.804734 -1.097831 -0.229928 -1.075624 -0.204345 0.121700 0.113640 -0.051465 -0.558054 -0.054955 0.557716 -0.106158 0.058861 -0.265158 0.691543 -0.789939 -0.658492 -0.311630 0.161974 0.160389 0.538799 0.258058 0.086366 0.062953 -0.275479 0.011096 -0.029737 -0.684718 -0.433567 0.467500 0.073675
be -0.011855 0.121305 -0.858469 0.360943 -0.076074 0.403148 0.093703 0.158582 -0.249070 -0.325540 -0.761616 -0.049301 -0.411495 -0.168436 0.377457 0.148059 -0.512501 0.074736 -0.293567 -0.217147 0.307117 -0.110421 -0.669269 -0.692583 0.653736 -0.572654 -0.597638 -0.512426 -0.206850 0.485369 -0.155412 -0.276352 0.577681 -1.115117 0.135686 -0.205016 0.676225 0.252174 -0.314551 -0.939222 -0.222875 0.456872 -0.537272 -0.214383 -0.177841 0.160970 0.513019 0.119236 0.326898 -0.081959 -0.028545 -0.266569 0.872409 -0.445166 -0.653089 -0.203692 0.456391 -0.048068 -0.021034 -0.031549 0.229857 0.345533 -0.417425 0.780152
ca@@ 0.373040 -0.108059 -0.384363 -0.413079 0.268936 0.018961 -0.492129 0.192603 0.668845 0.052218 0.575057 0.475718 0.206627 0.685860 -0.766896 -0.634955 -0.909283 0.235023 0.286073 0.532133 -0.070788 0.481814 -0.123876 0.015438 -0.307814 0.109505 0.163869 0.475637 -0.398080 0.009305 -0.682977 -0.486079 -0.492348 1.142489 -0.520046 -0.220803 -0.642863 -0.858093 -0.660463 0.061423 -0.085515 -0.092378 -0.293178 -0.417954 -0.389988 0.063950 -0.201718 0.998949 0.363439 -0.116302 0.102695 -0.498720 0.890470 -0.276551 -0.149905 0.520482 0.274536 0.152846 -0.040253 0.584258 -0.590666 0.542449 -0.096322 -0.616299
wa@@ 0.140356 0.210286 -1.032124 -0.682657 0.029705 0.521304 0.733076 0.376091 -0.301261 -0.485992 -0.823075 0.062710 -0.374147 0.236510 -0.120522 -0.484172 -0.559864 0.699362 -0.424035 0.072933 0.677398 0.416447 0.087298 -0.528376 0.049387 -0.277779 -0.022897 -0.883787 0.057159 0.106337 -0.336706 0.104035 0.415727 -0.471920 0.378915 0.342715 -0.368722 0.481226 -0.007639 -0.800689 -0.174632 0.359585 0.179247 -0.719553 -0.165317 0.020366 0.184777 -0.253311 0.011714 0.292338 0.038997 -1.029691 1.266640 -0.228382 -0.601741 0.088728 0.105072 0.379493 0.677590 -0.227911 -0.355427 -0.084559 -0.001772 0.290481
cou@@ -0.724957 -0.372824 0.253249 -0.489283 -0.085625 -0.266621 -0.475026 -1.222537 0.370541 -0.023762 0.534757 0.452389 -0.567757 0.031052 0.359078 0.121836 0.063139 -0.413330 0.609005 -0.318312 -0.239809 0.627011 0.821597 0.310039 -0.358960 -0.533996 -0.243824 0.019623 -0.484379 0.489780 -0.481283 0.352114 -0.132723 0.328836 0.301012 0.346940 0.475811 0.157492 -0.720281 -0.246212 0.798708 0.352724 0.134441 0.141352 -0.252759 -1.004565 0.898983 0.965541 -0.379923 0.187524 0.137011 0.184701 0.077143 0.114599 0.703883 -0.293635 -0.067391 -0.012069 -0.981282 0.203276 0.182591 -0.295124 0.613446 -0.036234
h -0.095957 -0.504145 0.147003 -0.545207 0.133875 0.421317 0.051600 0.192287 -0.270856 -0.099229 -0.279761 0.134514 0.107283 0.281341 -0.443975 -0.379275 -0.120335 0.008038 0.372185 0.288785 0.004951 0.391082 -0.308108 -0.122400 0.284842 -0.091614 0.397569 -0.628211 0.191127 0.124046 -0.207637 -0.086077 -0.070957 0.369486 0.483991 -0.097833 -0.057115 0.322898 0.019466 -0.684165 -0.329615 0.937835 -0.056859 -0.190000 -0.497080 0.157115 0.114965 -0.323904 -0.080154 -0.274819 0.407695 -0.081274 0.376926 -0.044985 -0.162068 0.199876 0.531820 -0.090995 -0.119214 0.111958 0.134502 -0.240987 0.795541 -0.589004
he 0.341262 -0.278318 0.194391 0.002466 -0.178031 -0.134893 0.159152 -0.588538 0.280674 -0.304385 -0.505552 -0.759458 0.530224 -0.613727 0.198853 -0.167086 -0.569561 -0.148391 -0.142858 -1.061101 -0.222724 0.460529 -0.165850 0.289597 -0.307744 0.282171 0.127803 -0.742906 -0.351985 0.547074 -0.209478 0.464015 1.092675 0.037854 0.056261 -0.579910 -1.049757 0.050149 -0.373243 0.325817 0.140582 -0.709006 0.007965 -0.270032 0.283088 -0.181379 -0.193623 0.421834 -0.186387 0.809070 -0.207234 0.265153 -0.405830 0.258788 -0.307547 -0.183658 -0.459037 0.154041 0.278108 0.133669 -0.848514 -0.072619 -0.121328 0.687675
w 0.548087 0.763039 0.148256 0.140261 -0.058288 0.010363 0.714585 0.667196 0.048251 0.544394 -0.313419 0.078651 0.112904 0.670755 -0.193265 0.050309 -0.024809 0.221394 0.257294 -0.124972 -0.483989 -0.078937 -0.270814 -0.137934 -0.469083 0.211204 0.115793 0.480465 -0.023348 -0.870655 -0.182114 0.730324 -0.173605 0.217957 -0.740037 0.179032 0.049313 0.218109 0.435359 0.069513 -0.046958 0.220339 0.348669 0.100335 0.219783 0.046082 -0.156464 -0.278259 -0.380618 0.390656 -0.104861 0.292674 0.685612 -0.005631 0.164096 -0.389426 -0.628885 -0.128526 0.016814 0.261912 -0.051863 0.177465 -0.017105 -0.219945
good -0.626712 0.416934 -0.158362 -0.681928 0.189711 0.309532 0.255423 0.379248 -0.020710 -0.276395 -0.831289 0.528138 -0.168751 -0.602499 0.198797 0.223088 -0.071691 0.435846 -0.818267 -0.011324 0.257190 -0.247897 -0.574053 -0.878737 -0.092051 0.060568 0.622023 -0.496614 -0.520228 0.765810 -0.145019 -0.514442 -0.486117 0.136713 0.619422 -0.163995 0.205039 0.047151 -0.661738 -0.498001 0.093164 0.230033 -0.459561 -0.069347 -0.080052 0.185162 -0.240915 -0.618377 0.292406 0.643408 -0.315973 -0.657368 0.247925 -0.078153 -0.278157 -0.041789 -0.660903 0.511356 -0.003857 -0.158509 0.127108 -0.294633 0.082842 0.070424
mu@@ -0.751507 0.353770 0.301497 -0.129178 -0.617503 -0.083157 -0.263645 -0.162086 0.509465 0.018383 0.018429 -0.159554 0.153224 0.428386 0.489269 -0.462592 -0.246914 -0.258515 0.117229 -0.226482 0.125925 1.259746 0.162763 0.449121 -1.187380 0.673841 0.243049 -0.228104 -0.067290 0.441356 -0.818328 0.341185 0.071816 -0.025641 0.378281 -0.491095 -0.010515 0.122032 -0.528915 0.041733 -0.103316 -0.547020 0.010619 0.377468 -0.001344 -0.482468 -0.061911 0.698661 0.189628 0.296470 0.211404 0.008930 0.423667 0.660192 0.630533 0.063060 0.223105 0.333999 0.238846 0.164657 -0.313194 0.292937 -0.050836 0.741898
sp@@ 0.169006 -0.069430 0.471883 0.629005 0.162033 -0.221154 -0.508063 -0.469344 0.521508 0.314611 0.508436 -0.606393 0.091030 -0.188088 0.340327 0.507451 -0.554188 -0.507253 0.347563 -0.536984 -0.187027 0.013853 0.433929 -0.065047 0.198376 0.186358 0.079369 1.009167 -0.422872 0.419794 -0.910309 -0.063802 0.125734 -0.310364 0.097153 -0.127911 -0.028645 -0.249825 0.713793 0.164158 0.848586 -0.000062 0.547053 0.761611 0.161568 0.127139 0.309675 -0.155794 0.064049 -0.109786 -0.001554 0.837028 -0.641580 -0.272959 0.801466 -0.429064 0.452030 -0.020309 -0.110671 -0.507651 -0.242658 0.223281 0.075378 -0.642906
am@@ 0.219104 -0.001952 0.329335 0.572517 0.029308 -0.266304 -0.257390 -0.157563 0.335310 -0.400462 0.190665 -0.227706 0.547154 -0.462998 0.426797 -0.021910 0.274374 -0.628968 0.182979 -0.494706 -0.114226 0.086533 -0.096476 0.489397 0.578769 0.009497 0.007919 0.036283 -0.573514 0.214097 0.217276 -0.320179 0.370482 0.306733 0.394675 -0.216353 0.268303 0.319886 0.195980 0.464178 -0.004765 -0.265242 -0.074436 0.148553 0.290469 0.021915 -0.075417 -0.240150 0.251371 -0.058573 0.683737 0.105700 -1.018265 0.362415 0.540216 -0.524480 0.085301 -0.256899 -0.275276 -0.400448 -0.473634 0.447894 0.349187 0.241286
yeah -0.138502 -1.216704 0.067596 -0.089882 -0.381460 0.804490 -0.434044 -0.462892 -0.004716 -0.439970 0.447736 0.263352 -0.005605 0.314417 -0.509666 -0.327619 -0.146125 0.150356 0.296237 0.673208 -0.085379 -0.793196 -0.065748 1.262504 0.682461 -0.140693 0.433197 0.552971 -0.135649 -0.971833 0.228821 -0.025117 0.176823 0.637504 0.153239 -0.328129 -0.929529 -0.656566 0.438571 0.586280 -0.633893 -0.129675 -0.434058 -0.075240 -0.463129 0.528675 0.411274 0.491721 0.413676 -0.672359 0.440642 -0.435499 -0.280329 -0.170134 0.210114 0.732528 0.238090 0.134985 0.218885 0.093212 -0.635318 -0.375032 -0.749202 -0.817580
at -0.466675 -0.083725 0.265745 -0.153538 -0.132213 -0.337039 -0.543608 0.348876 0.750357 0.113948 -0.058353 -0.072666 -0.204028 -0.783640 -0.196224 0.718719 -0.163264 0.041796 0.155815 -0.275925 0.143603 0.367633 -0.081181 -0.093427 0.782431 0.695167 -0.217750 0.200031 0.260359 0.320241 -0.558074 -0.654968 -0.322460 0.340820 -0.285703 -0.096514 0.332075 -0.124952 -0.322046 -0.339810 0.352564 -0.187251 -0.087920 0.086075 -0.744142 -0.474987 0.211707 0.681835 0.396099 -0.403044 -1.023579 -0.024920 0.507417 1.041373 0.755935 -0.716768 0.592640 -0.398668 -0.130523 -0.305483 0.014825 0.033386 -0.185987 -0.079746
more 0.211420 -0.716832 0.058157 -0.070598 0.231355 0.071675 -0.500057 -0.034038 -0.220045 -0.449008 -0.316433 -0.356393 0.406183 0.135544 -0.332358 0.760975 0.141732 -0.496897 0.277559 0.301384 -0.265737 -0.217616 0.114309 0.331951 0.906797 -0.451790 -0.623321 0.334427 -0.626401 -0.000644 -0.069800 -0.415675 0.052851 -0.676270 -0.356470 0.172376 0.541148 -0.458348 0.877510 0.195627 -0.059372 0.179989 -0.457442 -0.421486 -0.524582 0.353610 -0.158378 -0.574490 -0.751614 -0.051590 0.032383 -0.305608 -0.217114 -0.801974 -0.265889 -0.624416 0.046920 -0.278279 -0.195759 0.295163 0.083490 0.107862 -0.386963 -0.180324
ad@@ 0.186660 -0.655993 -0.756956 -0.269706 0.094403 0.370818 -0.005161 0.514126 0.015483 -0.021324 0.342147 0.159521 0.307955 -0.054126 0.307617 0.172487 0.430195 0.141978 0.097186 0.341420 -0.132559 -0.828991 -0.140921 0.111445 0.437295 -0.147317 -0.115320 -0.659924 -0.150822 0.077282 0.273730 -0.099218 -0.167299 0.392814 -0.462210 -0.070588 0.020204 -0.552624 -0.586402 0.160677 -0.882664 -0.116250 -0.605406 -0.342873 -0.264743 -0.165774 -0.217951 0.067265 0.424412 -0.269790 -0.157872 -0.700822 -0.000557 -0.427087 -0.519564 0.241481 -0.139135 -0.899729 -0.308303 0.081214 0.175687 -0.475642 0.013094 0.000935
can -0.096128 -0.030218 0.668625 -0.149695 0.325377 0.096709 -0.657478 0.447442 0.268123 0.012750 0.159950 0.142150 0.450595 -0.465581 -0.457985 0.215358 -0.107133 0.167417 0.048079 -0.121456 0.105140 -1.033530 0.459765 -0.576657 0.752567 0.534647 0.437446 0.025947 0.038288 0.320035 -0.503419 -0.029620 -0.590812 0.558933 0.483347 0.383266 -0.245287 0.334016 -0.069725 0.212472 0.172715 0.852791 -0.179986 0.224386 0.147232 -0.151190 -0.927533 -0.077962 -0.513866 -0.230275 0.030901 -0.646759 0.218074 0.098996 -0.319498 -0.129794 0.609042 -0.609870 -0.034540 -0.067035 -0.338225 -0.473980 0.175784 -0.298146
co@@ -0.459171 0.225595 -0.355567 -0.140349 0.400406 -0.658907 0.714147 -0.492676 0.322981 -0.129316 -0.500754 0.015443 0.305449 -0.565394 -0.042552 -0.147617 -0.365331 -0.262614 0.318128 -0.197752 -0.557005 0.980648 0.631430 -0.649687 -0.321855 0.261562 -0.168781 0.460270 0.812485 0.201323 0.419193 0.438204 -0.145338 0.073518 -0.705531 0.214710 -0.165048 -0.316833 -0.602761 0.781171 1.197646 0.688244 0.248542 0.122070 -0.341151 -0.019632 -0.064019 0.531055 -0.266918 0.706949 -0.339423 0.330409 -0.203467 0.290837 0.634346 -0.569040 0.035633 0.016994 -0.334941 -0.225332 0.784492 0.189038 0.353068 0.688795
go 0.038253 -0.176585 -0.830317 -0.485547 0.031308 -0.047544 0.241018 0.456841 0.241555 0.366207 -0.334087 -0.170692 0.082918 0.192362 -0.452667 -0.367494 0.049953 0.360620 -0.812049 0.375215 0.048961 -0.303698 -0.410795 -0.635859 -0.419203 -0.496016 0.784704 -0.545663 -0.512760 0.050182 -0.485484 -0.001216 -0.448184 -0.483334 -1.137886 -0.271025 0.128062 0.597550 -0.203949 -0.898237 0.033431 -0.512927 -0.368977 -0.334511 -0.428409 0.314401 -0.568538 0.060409 0.426911 -0.137640 -0.418546 -0.528843 0.435020 -0.059243 0.041528 0.246217 -0.520031 -0.694731 -0.506145 0.580805 -0.052195 -0.235773 0.294552 0.277273
do@@ 0.458387 0.360867 0.221916 0.329448 0.260822 -0.453762 0.195005 0.179530 -0.454460 0.141098 -0.120654 0.007336 -0.073429 0.015192 -0.053185 -0.190187 -0.355130 0.054687 -0.057458 0.231189 0.560746 0.474495 0.246077 -0.548266 -0.764689 0.172352 0.106207 -0.083645 1.007136 -0.138335 -0.824835 0.454879 0.525991 -0.078404 0.229399 0.336488 0.000747 0.410844 -0.086350 -0.466633 -0.107753 0.301096 0.294290 -0.157688 -0.135955 0.263441 -0.486287 -0.595266 0.049689 -0.119751 -0.327547 0.266101 0.487243 0.035390 -0.023890 -0.181288 -0.343161 -0.135086 -0.156828 -0.167530 -0.039678 0.546150 0.794800 0.246964
ce 0.832639 0.474621 0.189491 0.922866 0.417427 -0.298169 0.098443 0.294556 -0.131851 0.867344 0.264413 -0.548411 0.876340 0.330091 0.124254 0.041064 0.013287 -0.128231 0.563603 0.071366 -0.892413 -0.714683 0.580507 -0.073017 -0.038810 0.390738 0.098131 0.436513 0.340998 -0.562930 -0.184633 1.249207 0.241451 0.251952 0.087281 0.064851 -0.023372 0.315173 0.354465 0.594946 0.831065 -0.270520 0.808167 -0.067437 0.805513 -0.038290 -0.280426 -0.165375 -0.856377 -0.077436 0.091526 0.900315 -0.134118 -0.027558 -0.237946 0.012128 -0.681091 0.037405 -0.126223 0.614075 -0.724602 0.345578 -0.209562 0.127737
c -0.568016 0.239449 0.580528 -0.430699 -0.308784 0.021694 -0.563887 -0.437203 -0.171868 0.059599 0.549631 0.788479 -1.078491 0.829880 0.655545 0.097392 0.544521 -0.327306 0.719230 0.062813 -0.029886 -0.547335 1.051744 0.150359 -0.332289 0.722104 -0.864404 -0.287295 0.006970 -0.824099 -0.363014 -0.039922 -0.464226 -0.017549 -0.051355 0.970110 0.503677 1.015868 0.454212 -1.033777 0.213654 0.601862 -0.129508 0.202572 -0.325604 -0.267059 0.464667 -0.185189 0.056496 -0.451928 -0.025990 0.237843 0.431609 -0.481574 0.099331 -0.001136 0.630737 -0.836708 -0.742149 0.725802 -0.162357 -0.041817 0.890007 -0.264217
wor@@ 0.575653 -0.022147 0.587554 0.216474 0.037405 0.163245 0.342624 0.190805 -0.286327 0.376676 0.285887 0.462220 0.377808 0.668042 -0.277280 -0.135660 0.159557 0.107413 0.026223 -0.069045 -0.194596 -1.057130 0.841411 -0.215671 -0.369001 0.183222 -0.199473 0.630604 0.144122 -0.835640 -0.034119 0.477376 -0.278479 0.070508 -0.538705 0.429761 -0.119463 0.505121 0.820594 0.323724 0.324860 0.308480 0.641266 0.214257 0.110378 0.176549 0.179755 -0.311196 -0.488330 -0.172453 0.193357 0.621884 0.013569 -0.351469 -0.047641 0.219235 -0.632668 -0.486039 -0.012666 0.276422 0.008872 0.664992 -0.102253 -0.087244
ch 0.945089 0.417655 0.634594 0.474049 -0.313247 0.204119 -0.705375 -0.037952 0.022272 0.390259 -0.365743 -0.394359 0.395322 0.310730 -0.861168 0.152536 -0.175043 0.210778 0.322317 -0.398331 0.064280 -0.730999 -0.524501 0.249711 0.456922 -0.423809 0.428453 0.614749 -0.218387 -1.152485 0.038934 0.828290 0.129808 0.484166 0.182179 -0.761566 -0.324621 -0.174844 0.591919 0.614250 -0.620462 -0.047411 0.588965 0.509265 0.433412 0.779486 -0.390642 0.061272 0.459979 -0.227962 -0.205205 0.532511 0.108816 0.404222 -0.310729 0.214537 -0.212062 0.410653 0.400489 0.367254 -0.350520 0.133576 -1.660142 -0.122832
